svm_type c_svc
kernel_type linear
nr_class 43
total_sv 159
rho 0.7801511287689209 0.6643617178415913 0.6782092446220526 0.8650552704070767 0.5216525215335335 -0.4631185531616211 1.0133698278450822 0.6633497679568782 0.657529926784361 0.18968018287207888 0.6756839965060562 -1.6530494689941406 -0.08315946257756554 0.0772259051852957 0.63713105161855 0.6630526166590966 0.6631618401250323 1.275068887144028 -0.48265838623046875 -0.606601133645511 1.6211330556931505 0.9121296593686724 0.6656031170284267 -1.2845332622528076 1.7051659174882823 0.3742920454924221 0.6630860545519917 1.657035752144158 0.5752454805710028 1.1607350976998398 0.6605204436733407 0.653978566402857 0.6603295444317787 1.1515771091211329 0.852298129679486 0.4824617976212878 0.6646048600843806 0.07104369584262116 0.6430418656712209 -1.6605492785019842 -1.2558882236480713 0.23897087221643232 0.7602294734500741 0.8864597677590197 0.8087344169616699 1.2481553488407435 -0.7580823785340929 1.2846045226089726 0.8425305845083653 0.8907667811713458 -0.9967576774801934 0.834335918926429 -0.8022254373526969 -0.752784013748169 0.04227178072183041 0.9767617986216633 0.8390696575061325 0.8310897737726454 0.29698177231216133 -0.6250935693809261 -0.43818226333279936 1.7144447869325035 0.05628730602633995 0.8480416216368166 -0.7426371144440737 1.200897443585644 -0.3300058402257239 0.8473347070057229 1.7477380472307218 0.9390747821271402 0.1600810392003269 0.8549909669615555 1.099573671817779 0.9053182582100596 1.044154167175293 1.324110451068954 1.2098720007504686 0.726616141132503 -0.24923467636108398 0.988618743729085 -0.8687234746335502 -0.6347392304217209 -0.039444684982299805 -0.22124624252319336 -1.120881878242823 0.03627800941467285 -0.6118981594145502 -0.4723427003932849 -1.062459945678711 -0.24403417110443115 -0.9532211491355134 -1.0426499843597412 -0.6691595617058603 -0.7446550555513471 -0.5727827642452937 -1.1910685300827026 -1.0794161558151245 -0.06259620189666748 -0.8654406627235895 -0.6362010030034624 -0.4869410131830408 0.6234001642676353 -0.2850240745241179 0.9845204353332518 -0.6575478144509147 -0.650023264946255 -0.589566364606614 -1.0881774425506592 -0.5017967140853556 -1.223097801208496 -0.9043022473684769 0.9297261238098145 -0.9063200763918717 -1.057248830795288 -0.745135056811675 -0.59170906254313 -1.3409241437911987 -0.999071667773207 -1.2922009997795643 -1.1041464805603027 -0.7174647120839704 -0.6065828005042019 -1.3284596617288504 -1.2691621979544134 0.49421823024749756 -0.6100444205982899 -0.31192063597958736 -0.9976385831832886 -0.02377331256866455 -1.0784247205030326 -0.9012707471847534 -0.6783606018557886 -0.7881518933243424 -0.58347512769843 -1.1667444705963135 -0.944146990776062 0.15657901763916016 -0.8893433320169193 -0.6464640188764288 -0.4812609577359626 0.9652248940292549 -0.2684467553223634 1.1226403713226318 -0.6621863935579146 -0.6168788126244067 -0.5992083080301764 -0.9599064588546753 -0.43423704993286355 -1.2151528596878052 -1.0644110620102816 1.0786089897155762 -0.8913246619535018 -1.0091058015823364 -0.8087143112392158 -0.46511365880971095 -1.3994957208633423 -0.9450154304504395 -1.4442745986128944 -1.0846014022827148 -0.7206179884008754 -0.604508553678436 -1.5445259913304819 1.0678904769499058 -1.24254417493824 1.6975712653569774 1.2769892509279743 1.274340988848143 -1.3001828613341435 1.1350636787063806 -1.672506332397461 -0.8018306361886245 0.4719440353068579 1.2972625588602928 1.2747244382160283 1.167521645276272 0.5011191858533897 -0.7479348182678224 -0.4894629620512126 2.085742205547344 0.48544889306738265 1.1022039662054341 -1.5193793869420449 1.208298395088394 -0.27344822883605957 1.2735018630680637 1.7114907246646742 1.1321803788193714 -1.214126343086442 1.2293751878567378 1.0914950638918095 0.8308341224529123 -0.8489477461514001 1.7724244290645967 1.048662007601338 1.0625144324844176 -0.15883612632751465 0.5816992145810921 -1.4573216438293457 -0.9829738140106201 -0.031485347976579536 -0.5122676635753775 -0.06188153421584469 -0.8013841941272704 -0.5064042806625366 -1.1798090934753418 -0.560605525970459 -0.5413992842599791 -0.7400161782349872 -0.3278712734449952 -0.9820710726179516 -0.6484967470169067 -0.17596220970153809 -0.578934720681376 -0.46277470381508157 -0.3910975434349074 0.9291330531149526 -0.19108725750675504 0.3815889358520508 -0.5447967465906697 -0.2813380645088303 -0.40430203619752175 -0.6709803342819214 -0.23899488892475468 -0.9786063412380217 -0.9837172060740094 0.17743754386901855 -0.40650226880644097 -0.9568283557891845 -0.55842759509303 -0.22851929613084437 -1.0961329247638856 -0.8258647918701172 -1.820754885673523 -0.9860481007811793 -0.611507386831181 -0.5109474380435485 -1.9647635221481323 1.2495181811157616 0.6016288844815038 0.5944476817036589 0.35749382008258634 0.609797158268343 -0.6221711695035408 1.0372863265599663 1.5425878910372564 0.5735884690531491 0.6011859530679455 0.6019802215240513 1.3733837262339175 0.7780253756107218 -0.0347049881023374 1.385101130761103 0.9540693963091714 0.6106832662267402 -1.2209927286530493 1.6068801969375444 1.7939348220825195 0.6007131776585695 1.436419702776166 0.5489206700720157 1.3454065544548843 0.5989795198982222 0.8080601385744289 0.5945741101075995 1.1463157281322691 0.9732631600808322 0.5035113755729765 0.6099844390847554 0.24174800330030857 0.5768772145830781 -1.2152374758470015 -1.14375638961792 0.31520169626287337 -1.085868026098671 0.33825913570150146 -1.3509797615893888 0.3965053516748187 -1.5834109185143754 -1.5482901802212972 -1.5682563527951556 -1.235600569283604 0.3738137846387369 0.45614477204769055 -0.924697689566673 -1.6161512955381163 -0.9428879086807666 1.2189053175772857 -0.0460333909926592 0.4571888890686713 -1.3390682134598093 -1.0133257794694441 -1.5426875729034943 0.3622322388003763 -0.88431102289736 -1.2726337180404717 -1.4998656434003086 0.46390857541087777 -1.2221638360930036 -1.0762020711744078 -1.3091470195177919 -1.0304231072991274 -1.4168714131356297 -0.9993912684284437 -1.4831465829866468 -1.1387647077422747 -1.5064505255559415 -1.0746726030338882 -1.5022119866865804 0.9828287363052368 -1.0300072076887667 1.0203584432601929 -0.6653387408048825 -0.7592622642108798 -0.5702088157323884 -0.27330029010772705 1.003174901008606 1.0290956497192383 -0.9160533126345373 -0.6375588616740051 -0.475531691120014 0.9542133808135986 -0.2656114438631224 1.027050495147705 -0.6530336697794219 -0.6556981328516984 -0.5829542273321455 0.9977496862411499 -0.477057286801065 -0.41293323040008545 -1.007342653578128 1.0044480562210083 -0.9119954853809865 -1.0370385646820068 -0.7817389279744305 1.0728261537567325 -0.8721331357955933 -0.9323482513427734 -1.4151018331393415 -1.10195791721344 -0.7102478549211543 -0.5973449284299073 -1.508537120006969 -1.0710459535310015 -0.852546215057373 -0.658745440870909 -0.7584182073077359 -0.5600597903879605 -1.1583006381988525 -0.9443259239196777 0.18029391765594482 -0.9127322959805544 -0.6318184001600213 -0.4680065449606274 0.9331638813018799 -0.26236288718718637 1.1129673719406128 -0.6462385720632933 -0.641804739831949 -0.5735072024880192 -0.9627028703689575 -0.45205393969850616 -1.2172644138336182 -1.068754216172301 1.1006927490234375 -0.8885089157538733 -1.0064537525177002 -0.7953569534177505 -0.45680088763777166 -1.4223721027374268 -0.9208821058273315 -1.4369140983833326 -1.0832123756408691 -0.7041925702909975 -0.5910236602929855 -1.5581940231376445 1.0322474853100585 -0.31961474333709106 0.20850300788879395 0.6292612552642822 1.1768096685409546 1.0267551142097093 1.0192635250089428 1.4045366076322658 0.09204649925231934 -0.17192235608199688 1.686502388359409 0.18162394614562155 1.0368470197034563 -0.35767785294516274 1.6646132188643985 0.0174866047924076 1.034496964084357 1.7032439715870027 1.1124283075332642 1.0626408693455143 1.0398779373129867 1.6237460055899113 1.0919888724381799 1.212775468826294 1.4025326433388507 1.1163917779922485 0.9212429521050682 0.776353120803833 1.1936931610107422 -0.463633009817946 -0.34997744465361924 0.7759366035461426 -0.6766109278376934 -0.784525996117719 -0.5893782604467928 -1.1676204204559326 -0.05449318885803223 1.0105737447738647 -0.8252669646338098 -0.6511464423382411 -0.4818242617506465 0.889477738360025 -0.2821910081675981 1.023635983467102 -0.6613767120043934 -0.6047238885005105 -0.5973719097418276 -0.06857550144195557 -0.45191585744166424 -1.1985995769500732 -0.9984592510605461 1.014526605606079 -0.8697051323965697 -1.0275074243545532 -0.7906913262321105 -0.5356403997435395 -1.321052074432373 -0.9788579940795898 -1.2954811011981526 -1.0859407186508179 -0.7192650749386281 -0.6041452119693923 -1.3403885388206778 1.339237791738629 1.3889102935791016 0.6362049247945483 0.6650457517677411 0.6654603087542388 1.885082252345598 1.6212258338928223 -0.016781057089232165 1.5909448433959164 0.7501705905248741 0.6671172258504521 0.6717853546142578 1.896973155314996 1.2890779972076416 0.664830975620905 1.620005641797709 0.5820227291717646 1.8579679264138407 0.6624705867486762 1.6139880563392501 0.660494083572122 1.2179421242521258 1.451811439904982 0.5048558802909529 0.6708424584116485 0.20285951922336043 0.6420969526982153 -1.1291275024414062 -0.7387819290161133 0.31267323474425845 1.9521835884482972 0.7858145019218359 0.7583183986599122 0.7565192459693093 1.7068298499593255 -0.1949597774996259 -0.2811211693862592 1.836774598576 0.7127848230558977 0.7652684084922361 -1.4036752645683057 2.038316127056396 -0.2124619483947754 0.7602957598274616 1.8969653928708214 0.7187937826252425 0.7095525721858986 0.7559557013789204 1.8433060037119657 0.7702188630270697 1.258731325953815 1.373848931011906 0.6136273380144527 0.7386616024712821 -0.0323469638824465 0.7783539347357766 -1.264291763305664 -0.8329493999481205 0.1285348985070628 0.5320398945497091 0.5704837137332558 0.5704080818610814 1.406415602293345 -0.31757815242708104 -0.3137347786541878 1.6293712686263382 0.3578006458757553 0.5736839500772866 -1.8220598697662354 1.8830840475809716 -0.9243543148040771 0.5704414997284745 1.671741030110069 0.4305944346054154 -0.4490422165791294 0.5650416758755055 1.683160310512655 0.5658693025768499 0.28974234599297444 1.3990119335311555 0.28056944687442437 0.572848503361491 -0.5240000486373899 0.5376829835470851 -1.2547791004180908 -0.8375344276428225 -0.12304757067194211 1.1850595474243164 1.1747822761535645 -0.8648183107831202 -0.6117141765392626 -0.43896333131104165 1.0917651851200971 -0.22494904348943337 1.1498255729675293 -0.6212332544624413 -0.5276733257894247 -0.543328073512206 1.185910701751709 -0.3241992400047684 -0.1049278974533081 -1.1748223045332684 1.161495566368103 -0.781200864399008 -0.9340431690216064 -0.8076587915420532 1.2680599772449646 -0.5548043251037598 -0.7657707929611206 -1.6338227217056995 -1.001258355923729 -0.6828154261903865 -0.5680365219767497 -1.882589027982737 1.0430339574813843 -0.9134332132805736 -0.637185105715396 -0.4786066299378116 0.9003598093986511 -0.27071317025617897 1.0498878955841064 -0.6524834613653047 -0.6558713904527778 -0.5833403175381802 -0.014994144439697266 -0.4781749495360388 -1.2338411808013916 -1.0029764475521146 1.0198127031326294 -0.9120653790075466 -1.0382412672042847 -0.7802970928781161 -0.5038130769777827 -1.4083843231201172 -0.9502741098403931 -1.4101260990356188 -1.1026966571807861 -0.7097180485081289 -0.5970782444424872 -1.5006699819836546 -0.8620593109919084 -0.6370594350161631 -0.4782526368541349 0.7036051612683092 -0.27837347797631895 1.0194324254989624 -0.6529071665500924 -0.6353090737365754 -0.5837398329542512 -1.0531724691390991 -0.47643482193672265 -1.2121554613113403 -0.9928135998389956 1.0044294769215765 -0.88343403114935 -1.0352915525436401 -0.7767475451410096 -0.5615058549185172 -1.3480980396270752 -0.9931031465530396 -1.3137205230722744 -1.0943859815597534 -0.7100991400470691 -0.5974537333315256 -1.3744250730638934 -1.4360059078880898 -1.1657379430138763 2.0092955740425396 -0.03744298662019635 0.8138971002766349 -1.610894026270803 -0.2577470003908276 -1.731262889645798 0.9118156018698322 0.2755452118636809 0.744063122799232 -0.5952806805216815 0.8847332409201039 0.23717377309138277 0.36278265105873064 -0.1925123769910826 0.8173098356292225 0.6546949244018404 0.6160067643893163 -0.10139371183056319 0.16117275508757092 -1.5488014943230126 -1.189293290967584 0.07802964731509106 -0.45810566151095444 1.7954223720348803 0.8979095954448955 0.6403371516673994 -1.1391486937654194 1.946947554156651 0.31097688737014884 0.6374422638903969 1.7930201251821507 0.5372360778184944 1.0054167644162173 0.6344928685277067 1.0241199686539262 0.6357898376350919 1.0508796168561136 1.0660690264086907 0.42069798174929035 0.6349774842179674 -0.17648000953948617 0.6177144415446192 -1.6628897080836136 -1.1596684391862242 0.1007345728155598 1.349418108422291 1.862902045119261 0.49008331029725355 -0.2201896125096634 0.5583959894191078 0.4389481044222706 0.4739147472438525 0.6967838691930525 0.44360890522510343 0.6793285197100994 0.47326689843661635 0.385346702183697 0.4671306937632203 0.6546362079459884 0.3921670443516419 0.3871615552065055 0.485081734000427 0.09618095020296331 0.4459938846265676 -0.9932830333709717 -1.0785295436759832 0.1859858723298008 -0.4817550178032725 -0.5704946517796619 -1.383025600509497 -1.4382348874018804 -1.58527351226315 -0.9165399074554443 -0.9609427385110113 -1.158374987680395 -1.9130287098000796 -0.6217682192947568 -1.6847660231163037 -1.000916808881283 -1.6923979930304325 -1.1415870409630529 -1.4169571683341282 -0.9085503095727099 -1.8517642690873195 -1.027483744990557 -1.538367609204717 -1.3305981792633481 -1.951197268574143 0.2855488031895238 -0.9791913520837776 -0.5230546679705106 -0.4010066978718591 0.26404107741180705 -0.015378475581653912 0.2474071918362673 -0.28577460712160685 0.27982443926480105 -0.22928605665954613 0.252681925150549 -0.010788936764325316 -0.18990215161519738 0.18084309964328293 0.2839685274977546 -0.19869439241921694 0.2210408789014845 -0.9927953887223218 -1.155233196379322 -0.0737072831657073 -0.6604945434134685 -0.6093656303846055 -0.5850016329015104 -1.0575748682022095 -0.46467435311228555 -1.174984335899353 -1.0143092147161836 -0.09475135803222656 -0.8568897062007856 -1.0264230966567993 -0.7865689923082775 -0.553340975447283 -1.2755703926086426 -0.9970778371227154 -1.2505689164758271 -1.082717776298523 -0.718128326004667 -0.6084239111971911 -1.2889586474821086 1.7340363950527424 2.3244484129098093 0.6519127259321885 1.433027387313997 0.5875580982056111 1.4701485732523643 0.6501770483126621 1.089930398795812 0.6467147238200143 1.1203923859779672 1.0139121491026906 0.5356303338380608 0.6596447879393784 0.2521739998061946 0.6278986760947126 -1.1729929491778788 -0.9872044129687089 0.3386896554227159 -1.844355546586435 0.6526644504714311 -0.5469100475311279 0.43830883873376786 -1.4118890910589805 0.6406276648592911 -0.1017770194925614 -0.6352987539066144 -1.0086223955942373 0.5591713778653209 0.35476182927743 -0.44269621754943345 -0.7932097998109279 -0.7832732508636828 -1.4912461560995314 -1.058569362053436 -0.7611413262886068 0.5828466317334025 1.6221266351960608 0.469448590281592 0.051528817886979494 0.5787696658589689 1.5179870136717315 0.5763037185171642 0.9730257987976074 1.2946924431437015 0.3661280150814776 0.5921939879817797 -0.08677978720091584 0.5503781197316155 -1.1164507008144355 -0.7385857105255127 0.11092941207228048 -0.4738686128778626 -1.2374753952026367 -1.0120907642819172 1.0312055349349976 -0.9085964294860625 -1.0320708751678467 -0.783886222369679 -0.4893431376467978 -1.4204453229904175 -0.9384342432022095 -1.4132743917179802 -1.100369930267334 -0.7093472282778794 -0.5964004836177975 -1.506790034796106 0.3431895832015825 -1.937910123994632 0.469376052067476 -0.7199793820651477 -0.9152018803764624 -1.7344227052215426 0.45846248215764257 0.05978330407975459 -0.7742847067169425 -1.2203336830181366 -1.0261584830089103 -1.5581937012341136 -1.3681987991645066 -1.1740608947209887 -1.0042147626288096 1.2047126293182373 -0.6616659324871066 -0.9701781272888184 -0.6103855314009623 1.3201980320453606 -0.41643834114074707 -0.7818747758865356 -1.4993800713776078 -1.0013140858614 -0.6488673898935838 -0.5468725657040008 -1.745461345110622 1.022761216729724 1.2194348826795862 1.0928975534930538 0.4380512237548828 1.4936049400997262 0.9518262063475955 0.8629749508732177 0.008773419858466802 1.010873978629279 -1.586204290390015 -1.1494128704071045 0.17477966065342398 -0.8867776315620965 -1.0245561599731445 -0.783857567789751 -0.5592519033800203 -1.357718586921692 -0.9898946285247803 -1.3599168275769382 -1.090855360031128 -0.7076031170296173 -0.5947282774237896 -1.4435132932573498 -0.6159449409332006 -0.7200003466877525 1.0259320270335233 0.3984037991149131 -0.39820148552312573 -0.9213991565409778 -0.7746799819341863 -1.6567310104751858 -1.1662118795432077 -0.8914179455898881 -0.8075579947994715 1.0705367172046465 0.6761273145675659 0.09306490421295166 -0.6526899337768555 -0.10019564628601074 -0.7050191163495017 -0.591151408679489 -0.7188478708267212 1.331068072242499 0.5135179970500724 0.7283587922827455 -0.5125902391014092 0.8363208770751953 -1.2765537830107012 -0.8783815276891994 -0.3554604230624656 -1.5144670506459739 -0.9791640043258667 -1.5466687626085713 -1.1417377174089904 -1.4927344676017125 -1.0651322850060465 -1.582851180552753 -0.41999781131744385 -1.657835602760315 -0.8475244045257568 -0.5987889577434804 -0.5037537697023856 -1.5757299661636353 -1.0321985483169556 -0.1932605504989624 -0.7158312261438783 -0.6049008219179361 -1.1231223344802856 0.36535632610321045 -0.34413952044339785 -0.2635184410170888 -0.009465694427490234 -0.6886309252183382 -0.5738911163098401 -0.4346001148223877 0.09975934028625488 0.41566624801823904 0.3326740628280076
label 15 36 47 46 14 37 4 22 18 41 31 9 32 20 16 13 7 38 8 26 2 10 29 11 33 19 5 42 39 25 6 45 3 24 43 12 30 27 23 48 21 35 1
nr_sv 4 3 4 4 4 9 7 8 2 4 1 3 2 8 8 2 3 4 6 3 4 10 2 5 5 4 4 3 2 2 3 5 4 1 3 3 2 1 2 1 1 1 2
SV
0.0 0.0 0.0 1.0 0.0 1.0 0.8775504053732476 0.0 0.0 0.0 0.0 1.0 0.5568113393045593 1.0 0.0 0.0 0.0 1.0 0.0 1.0 0.0 0.0 0.0 1.0 1.0 1.0 0.0 0.0 0.0 0.35668681510616523 0.0 1.0 0.0 0.0 0.0 0.0 0.0 0.0 0.0 0.6031228709463412 1.0 0.0 1:1.83832E-4 2:4.43621E-4 3:0.00344475 4:0.003583631 5:1.0 6:0.01819451 7:0.0 8:0.9137338 9:0.91288453 10:0.92433053 11:0.9252668 12:0.0 13:0.9128454 14:0.9134862 15:0.40220407 16:1.0 17:0.13586858 18:0.10135945 19:0.07879755 20:0.23281603 21:0.0 
1.0 0.40988670052998616 0.4319733442602051 1.0 0.511525442126953 1.0 0.04970340118254679 0.4199803398391948 0.4245751623429763 0.7673997337181623 0.427045603273085 1.0 1.0 1.0 0.4511608809389788 0.419256050531191 0.4182290512469287 1.0 1.0 0.711900508203454 0.7235593785974985 0.3045480677265481 0.421929551978767 1.0 0.8952437792638324 1.0 0.42044914640601605 0.6715019422089502 0.45957800428574463 1.0 0.4206300939388905 1.0 0.42849009380544634 1.0 0.5389531695005919 0.47014072164214415 0.4067034829651285 0.5789380932301976 0.44628853410080016 0.39687712905365885 0.0 0.48244260539793077 1:0.053377792 2:0.069178194 3:0.18581882 4:0.19913565 5:1.0 6:0.26742026 7:0.0 8:0.9871097 9:0.5567062 10:0.9531335 11:0.97688496 12:0.0 13:0.5440514 14:0.567112 15:1.0 16:0.64114463 17:0.009925208 18:0.001726298 19:3.56312E-4 20:0.0 21:3.60138E-4 
0.0 0.0 0.0 0.0 0.0 1.0 1.0 0.0 0.0 0.0 0.0 0.0 1.0 0.3515155422478405 0.0 0.0 0.0 1.0 1.0 1.0 0.6419292090257761 0.7079137514917271 0.0 1.0 0.7096776020347921 0.16520913079069902 0.0 0.6646383211205656 0.0 0.0 0.0 0.28440736699716046 0.0 0.19331114312485914 0.9392784337789328 0.0 0.0 0.0 0.0 0.0 0.0 0.0 1:1.1294E-4 2:5.85445E-4 3:0.005199786 4:0.00533965 5:1.0 6:0.02439493 7:0.0 8:0.85493946 9:0.8533044 10:0.8717389 11:0.87117004 12:0.0 13:0.85166913 14:0.7997642 15:0.44126987 16:1.0 17:0.2961644 18:0.2986673 19:0.47995102 20:0.6941257 21:0.0 
0.0 0.0 0.0 0.09330683251843827 0.0 1.0 1.0 0.0 0.0 0.0 0.0 0.0 1.0 1.0 0.0 0.0 0.0 1.0 1.0 1.0 0.0 0.0 0.0 1.0 0.8959338105209187 1.0 0.0 0.0 0.0 0.4294355116964599 0.0 1.0 0.0 0.0 0.0 0.0 0.0 0.0 0.0 0.0 0.0 0.0 1:3.29953E-4 2:6.87376E-4 3:0.004481245 4:0.004622248 5:1.0 6:0.021486409 7:2.21576E-4 8:0.8899068 9:0.888678 10:0.9034406 11:0.90396255 12:0.0 13:0.8881735 14:0.8579837 15:0.42245534 16:1.0 17:0.17534286 18:0.17450847 19:0.18282725 20:0.42756116 21:0.0 
-0.0 0.0 0.0 1.0 0.7976324644506277 0.0 0.0 0.0 0.0 0.5070150715964423 0.0 0.0 0.0 0.0 0.2185524567143489 0.0 0.0 0.0 0.0 0.0 0.0 0.0 0.0 0.0 0.0 0.0 0.0 0.0 0.4987161231811612 0.584824040003956 0.0 0.0 0.0 1.0 0.0 0.9273646664061105 0.0 1.0 0.17294450478810422 0.0 0.0 1.0 1:0.74436826 2:0.5280808 3:0.81815785 4:0.9753313 5:0.9904344 6:0.7551198 7:0.0 8:1.0 9:0.096583895 10:0.3294226 11:0.4521785 12:0.0 13:0.10265886 14:0.098153695 15:1.0 16:0.31818542 17:0.007086713 18:8.10988E-4 19:7.58994E-5 20:0.0 21:7.51922E-5 
-1.0 0.4409622596281694 0.09203586635052295 1.0 0.0 0.6099124582319446 1.0 0.17715253399042047 0.0 0.0 0.2803464617234829 0.8178993401413068 1.0 1.0 0.0 0.18651122673341217 0.21076387290943607 1.0 1.0 0.4875295921216616 1.0 0.469338281089783 0.17555703051303514 0.6011624760437413 1.0 1.0 0.16193059476481886 1.0 0.0 1.0 0.11981203455354401 1.0 0.0 1.0 1.0 0.0 0.5544271161632872 0.0 0.0 0.5594097670974004 0.43679646300820396 0.0 1:0.37187803 2:0.30656117 3:0.54829913 4:0.6452746 5:1.0 6:0.57666534 7:0.0 8:1.0 9:0.17369859 10:0.45358986 11:0.60009396 12:0.0 13:0.18351132 14:0.17131837 15:1.0 16:0.37074816 17:0.002380876 18:2.56629E-4 19:6.87265E-5 20:0.0 21:6.88137E-5 
-0.0 0.28895484105928865 0.7603971577121301 1.0 0.7344979493999338 0.0 0.11130161293714605 0.6250554383602325 0.847743289388048 0.4929849284035577 0.5251548878457346 0.0 1.0 0.8921442971350898 0.8027013481836582 0.6121913144858693 0.5805971940207659 0.6212953686326085 0.07387910107617207 0.0 0.38333862601646446 0.0 0.6330108480852614 0.0 0.571465521076895 0.12469153704620226 0.6445607884394369 0.3851776086626194 0.5972673149511164 1.0 0.6935467157746338 1.0 0.8678824196620528 1.0 0.14371763425047387 0.4732511850047802 0.14919303068687506 1.0 0.8270554952118958 0.0 0.0 1.0 1:0.4656251 2:0.36348408 3:0.6193403 4:0.7396811 5:1.0 6:0.6302238 7:0.0 8:1.0 9:0.14608076 10:0.39987135 11:0.55714124 12:0.0 13:0.1576648 14:0.14368579 15:1.0 16:0.34548455 17:0.001840912 18:1.93771E-4 19:5.32571E-5 20:0.0 21:5.32798E-5 
-0.0 -0.0 1.0 0.0 1.0 0.2846674200115882 1.0 0.0 1.0 0.0 0.0 0.0 0.0 0.0 0.0 0.0 1.0 0.0 0.0 0.28003670648887763 1.0 0.3205677106713788 1.0 0.0 0.0 0.0 0.0 0.0 0.0 0.0 1.0 0.0 0.0 0.0 0.0 0.0 0.8968409233323453 0.0 0.0 0.24554872032720518 0.24635592631997794 0.0 1:1.0 2:0.13794152 3:0.05645897 4:0.15851387 5:0.00507019 6:0.03436568 7:0.0 8:1.0 9:0.02890671 10:0.005200529 11:0.10139487 12:3.86177E-4 13:0.010515794 14:6.11463E-4 15:1.0 16:0.019180965 17:0.008093152 18:5.59898E-4 19:3.09227E-7 20:1.26133E-5 21:0.0 
-0.0 -0.0 1.0 0.0 1.0 0.0 1.0 0.0 1.0 0.0 1.0 0.0 0.0 0.0 0.0 1.0 1.0 0.0 0.0 0.0 1.0 0.0 1.0 0.0 0.0 0.0 1.0 0.0 0.0 0.0 1.0 0.0 0.0 0.0 0.2299680914086881 0.0 0.0 0.0 0.0 0.0 0.0 0.0 1:1.0 2:0.1596206 3:0.07112236 4:0.17115124 5:0.006543555 6:0.040206756 7:0.0 8:1.0 9:0.021264471 10:0.005086146 11:0.09760812 12:9.25892E-5 13:0.008804234 14:6.02411E-4 15:1.0 16:0.0303873 17:0.004534542 18:5.00224E-4 19:1.98623E-7 20:1.72869E-5 21:0.0 
-0.0 -0.0 1.0 0.010350877445407755 1.0 0.0 0.0 1.0 1.0 0.0 1.0 0.0 0.0 0.0 1.0 1.0 1.0 0.14886293888158336 0.0 0.0 1.0 0.0 1.0 0.0 0.24812611491700692 0.0 1.0 0.2760331389448403 1.0 0.0 1.0 0.3256589699829788 0.0 0.0 1.0 1.0 0.0 0.031160865188923564 0.0 0.0 0.0 0.076104251957655 1:1.0 2:0.17725046 3:0.08450128 4:0.18104509 5:0.007856878 6:0.045063093 7:0.0 8:1.0 9:0.016335428 10:0.006919034 11:0.0946677 12:0.0 13:0.007661437 14:7.20414E-4 15:1.0 16:0.040692333 17:0.002703996 18:3.40745E-4 19:8.69812E-8 20:1.27206E-5 21:0.0 
-0.40988670052998616 -0.729917100687458 1.0 1.0 1.0 0.01610485977984562 0.2585814445512556 1.0 1.0 0.6939230871319049 1.0 0.33859934757121174 0.5092991989596581 0.5896442571226383 1.0 1.0 1.0 1.0 0.49640251598128626 0.0 1.0 0.0 1.0 0.29476450851234226 1.0 0.4363431510611168 1.0 1.0 1.0 0.7614684833602258 1.0 1.0 1.0 0.7331859877945793 1.0 1.0 0.10315907666765467 1.0 1.0 0.03459564997330247 0.0 1.0 1:1.0 2:0.17896785 3:0.08667124 4:0.18507914 5:0.008284422 6:0.046532966 7:0.0 8:1.0 9:0.016453778 10:0.007552782 11:0.09681562 12:0.0 13:0.007925843 14:7.59562E-4 15:1.0 16:0.041129243 17:0.003547602 18:3.31579E-4 19:9.42279E-8 20:4.31814E-6 21:0.0 
-0.0 -0.8524330240626531 -1.0 1.0 1.0 0.0 0.0 0.0 1.0 0.8255811602501673 0.0 0.0 0.5651014659528449 0.6211215321263521 1.0 1.0 1.0 1.0 0.5324132253406054 0.0 1.0 0.0 1.0 0.0 1.0 0.0 1.0 1.0 1.0 0.9115070986914393 1.0 1.0 1.0 0.8522749201023154 0.0 1.0 0.0 1.0 1.0 0.0 0.0 1.0 1:1.0 2:0.22911288 3:0.1507764 4:0.31717718 5:0.032645922 6:0.10375828 7:0.0 8:1.0 9:0.027714193 10:0.020936698 11:0.17364071 12:1.23573E-4 13:0.021340944 14:0.003410118 15:1.0 16:0.048392173 17:0.022088856 18:0.001345968 19:2.57095E-6 20:1.19494E-4 21:0.0 
-0.0 -0.0 -1.0 0.18420925998895674 1.0 0.0 0.2738458468106618 1.0 1.0 0.0 1.0 0.0 0.0 0.0 1.0 1.0 1.0 0.18105434144477342 0.0 0.0 1.0 0.0 1.0 0.0 0.0 0.0 1.0 0.0 1.0 0.0 1.0 0.0 0.0 0.0 0.24982346809601372 1.0 0.0 0.2139758352241304 0.0 0.0 0.0 0.31502332616800655 1:1.0 2:0.21722768 3:0.14072469 4:0.28428006 5:0.025078515 6:0.08760612 7:0.0 8:1.0 9:0.023583936 10:0.024754949 11:0.15333499 12:8.01791E-4 13:0.017657569 14:0.003745912 15:1.0 16:0.04857567 17:0.02698247 18:0.001875144 19:1.50176E-4 20:0.0 21:1.5176E-4 
-0.4319733442602051 -0.0 -1.0 0.0 1.0 0.30957276245182747 1.0 0.0 1.0 0.0 1.0 0.35231440093638555 0.0 0.0237015720567774 0.0 0.0 1.0 0.0 0.0 0.28629299363682464 1.0 0.3255180198660891 1.0 0.3037636221426478 0.27432032635169856 0.4608102380533137 0.0 0.29519595820782546 0.0 0.0 1.0 0.39079854573322526 0.0 0.0 1.0 0.0 0.0 0.0 0.0 0.28853188152962217 0.25211240026990966 0.0 1:1.0 2:0.19177815 3:0.12379732 4:0.2984249 5:0.025352454 6:0.08919074 7:0.0 8:1.0 9:0.035079405 10:0.025205402 11:0.1853212 12:0.0 13:0.024772082 14:0.001997357 15:1.0 16:0.029955959 17:0.040579848 18:6.89631E-4 19:1.41906E-5 20:0.0 21:1.52744E-5 
-0.0 -0.0 -1.0 0.0 1.0 0.0 1.0 1.0 1.0 0.0 1.0 0.0 0.0 0.0 0.0 1.0 1.0 0.0 0.0 0.0 1.0 0.0 1.0 0.0 0.0 0.0 1.0 0.0 0.0 0.0 1.0 0.0 0.0 0.0 1.0 0.0 1.0 0.0 0.0 0.0 0.0 0.0 1:1.0 2:0.19203624 3:0.11032307 4:0.25447085 5:0.018238615 6:0.07268858 7:0.0 8:1.0 9:0.028413069 10:0.015068962 11:0.14821367 12:2.9867E-4 13:0.017310979 14:0.002020486 15:1.0 16:0.03515131 17:0.01986552 18:0.00121631 19:1.90495E-6 20:9.9077E-5 21:0.0 
-0.09330683251843827 -1.0 -0.0 -0.0 0.6244975112904332 0.0 0.0 0.0 0.0 0.3352538532130305 0.0 0.0 1.0 1.0 0.2457202562617792 0.0 0.0 0.0 0.0 0.0 0.0 0.0 0.0 0.0 0.0 1.0 0.0 0.0 0.3641692077496078 1.0 0.0 1.0 0.0 1.0 0.0 0.520146126534883 0.0 1.0 0.0 0.0 0.0 0.8428074621715036 1:0.16470022 2:0.16519798 3:0.33684266 4:0.38641793 5:1.0 6:0.4144906 7:0.0 8:1.0 9:0.33137098 10:0.7103985 11:0.80478156 12:0.0 13:0.32849407 14:0.38995245 15:1.0 16:0.47559282 17:0.030326763 18:0.022872157 19:3.74232E-4 20:0.012022032 21:0.0 
-1.0 -1.0 -0.0 -0.0 0.0 0.964754860564565 0.40498673900792365 0.0 0.0 0.0 0.0 1.0 1.0 1.0 0.09682015079883184 0.0 0.0 1.0 0.9999999999999999 0.3052310320580805 0.0 0.1754542388495463 0.0 0.9621387829426696 1.0 1.0 0.0 0.0 0.0 1.0 0.0 1.0 0.0 1.0 0.3358666170073932 0.0 0.0 0.0 0.0 0.0 0.0 0.0 1:0.13716288 2:0.14141767 3:0.30228934 4:0.34763968 5:1.0 6:0.3848656 7:0.0 8:1.0 9:0.3688791 10:0.7316191 11:0.85306734 12:0.0 13:0.37182438 14:0.4365826 15:1.0 16:0.481386 17:0.015070606 18:0.017412279 19:1.69024E-4 20:0.009519 21:0.0 
-0.0 -1.0 -0.8503411555289644 -1.0 1.0 0.0 0.475257522752038 1.0 1.0 0.6647461467869695 0.9287927551047811 0.0 0.3298733175490881 0.48139183450132483 1.0 1.0 0.9418344649052456 0.4548532048149645 0.0 0.0 1.0 0.0 0.9268105813255154 0.0 0.45543537034403725 0.0 1.0 0.8865806382484638 1.0 0.7407055906063744 0.9976515890272524 0.2963443249698512 0.8766912436430356 0.970047549262664 0.572898928246676 1.0 0.7929113414451495 1.0 0.9011692180538543 0.0 0.0 1.0 1:0.98268265 2:0.5716956 3:0.7499549 4:0.96552646 5:0.6258474 6:0.63645554 7:0.0 8:1.0 9:0.053193733 10:0.20992543 11:0.35658655 12:0.0 13:0.06070627 14:0.066402614 15:1.0 16:0.24622735 17:3.64117E-4 18:0.001333016 19:1.38183E-7 20:3.99596E-4 21:0.0 
-1.0 -0.0 -0.16000972191644341 -0.18420925998895674 0.0 1.0 1.0 0.1629578475776882 0.17498979761082026 0.0 0.16541329778511557 1.0 1.0 1.0 0.0 0.16087502951022367 0.15394436205830928 1.0 1.0 1.0 0.8027534312330518 0.5659438094225819 0.15134665200799238 1.0 1.0 1.0 0.163203413606417 0.7417296514410063 0.0 0.25929440939362564 0.15402818385133385 1.0 0.12330875635696437 0.029952450737335996 1.0 0.0 0.16262174950146235 0.0 0.0988307819461457 1.0 1.0 0.0 1:0.035762865 2:0.048939764 3:0.13586102 4:0.15162063 5:1.0 6:0.22230515 7:0.0 8:0.9164497 9:0.63576573 10:0.9279408 11:1.0 12:0.0 13:0.6374648 14:0.72855675 15:1.0 16:0.66054976 17:0.035865985 18:0.03556257 19:0.001005757 20:0.025949843 21:0.0 
-0.0 -0.0 -1.0 -1.0 -0.0 0.0 1.0 1.0 1.0 0.0 1.0 0.0 0.0 0.0 1.0 1.0 1.0 0.0 0.0 0.0 1.0 0.0 1.0 0.0 0.0 0.0 1.0 0.0 0.8154075772963001 0.0 1.0 0.0 1.0 0.0 1.0 0.0 0.0 0.0 0.5901841617073914 0.0 0.0 0.0 1:1.0 2:0.24268 3:0.18206242 4:0.38517234 5:0.053346153 6:0.13774802 7:0.0 8:1.0 9:0.030212697 10:0.03403647 11:0.2157831 12:0.0 13:0.028673312 14:0.006683418 15:1.0 16:0.049865544 17:0.0414078 18:0.003147392 19:1.4259E-5 20:3.71813E-4 21:0.0 
-0.0 -0.0 -1.0 -1.0 -0.0 0.0 0.0 0.0 1.0 0.0 0.0 0.0 0.0 0.0 0.0 0.0 1.0 0.0 0.0 0.0 1.0 0.0 1.0 0.0 0.0 0.0 0.0 0.0 0.0 0.0 1.0 0.0 0.0 0.0 0.0 0.0 0.0 0.0 0.0 0.0 0.0 0.0 1:1.0 2:0.29502997 3:0.23284604 4:0.4887485 5:0.09254962 6:0.19971023 7:0.0 8:1.0 9:0.037011024 10:0.02822645 11:0.26056033 12:6.94376E-4 13:0.04031678 14:0.002597392 15:1.0 16:0.0713134 17:0.004942364 18:0.001252568 19:3.33749E-6 20:0.0 21:3.80352E-6 
-0.0 -0.0 -1.0 -1.0 -0.0 0.0 0.279546094712656 0.6540167188955306 1.0 0.0 1.0 0.0 0.0 0.0 0.34031651209306424 1.0 1.0 0.0 0.0 0.0 1.0 0.0 1.0 0.0 0.0 0.0 1.0 0.0 0.0 0.0 1.0 0.0 0.0 0.0 0.2603342191051672 0.0 0.0 0.0 0.0 0.0 0.0 0.0 1:1.0 2:0.25214 3:0.19371895 4:0.39956012 5:0.05736184 6:0.14626263 7:0.0 8:1.0 9:0.030489376 10:0.036501355 11:0.21996279 12:0.001450072 13:0.030343983 14:0.008016926 15:1.0 16:0.05436912 17:0.03987117 18:0.001767147 19:5.95627E-6 20:1.73847E-4 21:0.0 
-0.0 -0.0 -0.0 -0.0 -0.0 0.0 0.0 0.0 0.0 0.0 0.0 0.0 0.0 0.0 0.0 0.0 0.0 0.0 0.0 0.0 0.3192628469329952 0.0 0.0 0.0 0.0 0.0 0.0 0.0 0.0 0.0 0.0 0.22417011808148468 0.0 0.0 0.0 0.0 0.0 0.0 0.0 0.0 0.0 0.0 1:1.0 2:0.2875774 3:0.25984612 4:0.5823318 5:0.14846516 6:0.2517076 7:0.0 8:1.0 9:0.05807053 10:0.06287944 11:0.35462767 12:0.002242697 13:0.07129947 14:0.01809163 15:1.0 16:0.049695514 17:0.07733432 18:0.007462589 19:5.37748E-5 20:6.49044E-4 21:0.0 
-0.0 -0.0 -0.0 -0.0 -0.0 0.0 0.0 0.0 0.0 0.0 0.0 0.0 0.0 0.0 0.0 0.0 0.0 0.0 0.0 0.0 1.0 0.0 1.0 0.0 0.0 0.0 0.0 0.0 0.18459242270369997 0.0 1.0 0.0 0.0 0.0 0.0 0.0 0.0 0.0 0.0 0.0 0.0 0.0 1:1.0 2:0.3110183 3:0.27146208 4:0.4906489 5:0.10252496 6:0.20705399 7:0.0 8:1.0 9:0.026767734 10:0.053971134 11:0.24206114 12:0.0 13:0.032546315 14:0.012677368 15:1.0 16:0.08373423 17:0.0388332 18:0.003257358 19:1.52457E-5 20:4.56633E-4 21:0.0 
-0.511525442126953 -1.0 -0.0 -0.0 -1.0 0.30638735996010624 0.0 0.0 0.0 1.0 0.0 0.3936839069290114 0.8594121210642705 0.885278610593174 0.0 0.0 0.0 1.0 0.6799723499048929 0.23044909035556008 0.0 0.16539203727878332 0.0 0.3110489593648518 0.7230531030517352 0.5389914215515788 0.0 0.32216707560024027 0.0 1.0 0.0 1.0 0.0 1.0 0.0 0.2646873116364671 0.0 1.0 0.0 0.30216947403893624 0.2400114421522671 1.0 1:1.0 2:0.36718577 3:0.39504835 4:0.74398196 5:0.29922697 6:0.3807885 7:0.0 8:1.0 9:0.06408306 10:0.11133255 11:0.40848985 12:0.0 13:0.08763307 14:0.03833218 15:1.0 16:0.08522067 17:0.10345248 18:0.01297753 19:2.51318E-4 20:0.002243538 21:0.0 
-0.0 -0.0 -1.0 -1.0 -0.0 0.025997509902597398 1.0 0.3459832811044694 1.0 0.0 1.0 0.0 0.0 0.0 0.0 1.0 1.0 0.0 0.0 0.07032303719360075 1.0 0.1693396385729152 1.0 0.01643587305124639 0.3935175325618234 0.0 1.0 1.0 0.0 0.0 1.0 0.1332935293474182 0.0 0.0 1.0 0.0 1.0 0.0 0.0 0.008808738411850526 0.026898947584454196 0.0 1:1.0 2:0.21111709 3:0.15478393 4:0.38344502 5:0.04726864 6:0.13014309 7:0.0 8:1.0 9:0.045479596 10:0.03561134 11:0.24764158 12:0.002902599 13:0.040094092 14:0.006858178 15:1.0 16:0.029257879 17:0.056217883 18:0.002427029 19:6.27666E-6 20:2.2602E-4 21:0.0 
-0.0 -0.0 -0.0 -0.0 -0.0 0.0 0.0 0.0 0.0 0.0 0.0 0.0 0.0 0.0 0.0 0.0 0.0 0.0 0.0 0.0 1.0 0.0 0.0 0.0 0.0 0.0 0.0 0.0 0.0 0.0 0.0 0.0 0.0 0.0 0.0 0.7353126883635329 0.0 0.0 0.0 0.0 0.0 0.0 1:1.0 2:0.33237836 3:0.3145591 4:0.556106 5:0.14626692 6:0.25056425 7:0.0 8:1.0 9:0.03299522 10:0.07467163 11:0.27756417 12:0.0 13:0.041951686 14:0.019889355 15:1.0 16:0.08996242 17:0.05948096 18:0.007407133 19:6.92155E-5 20:0.001281217 21:0.0 
-0.0 -0.5321304138505616 -0.0 -0.0 -0.6244975112904332 0.0 0.0 0.0 0.0 0.0 0.0 0.0 0.0 0.0 0.6596834879069358 0.0 0.0 0.26310549266435496 0.0 0.0 1.0 0.0 0.0 0.0 0.2084198258085218 0.0 0.0 0.0 1.0 0.35426785546046896 0.0 0.2122113678630343 0.0 0.25530920171922855 0.0 1.0 0.0 1.0 0.4098158382926085 0.0 0.0 1.0 1:1.0 2:0.3779039 3:0.36485726 4:0.5561134 5:0.14949557 6:0.26144096 7:0.0 8:1.0 9:0.02118013 10:0.085519776 11:0.23412201 12:0.0 13:0.027920753 14:0.017284436 15:1.0 16:0.13133541 17:0.029408732 18:0.00496019 19:1.96717E-5 20:7.88599E-4 21:0.0 
-1.0 -0.0 -0.3007722797914338 -0.30957276245182747 -0.9289977767540514 -0.21632723218974187 1.0 0.30384475525475196 0.30496183187900955 0.03099799568773189 0.30754274914384433 0.07191984968203109 1.0 1.0 0.2734931872059405 0.3033116458285718 0.30307861110129725 1.0 1.0 0.0 0.4390248670702454 0.30413173512041697 0.30496588852304096 0.0 0.7980636428026799 1.0 0.30374867390740157 0.5696964068027922 0.2561460642217642 0.5190990536757454 0.30391363264626825 0.7560636378189288 0.3062231360020758 0.0 1.0 0.22680427010086918 0.2997905971141201 0.06590947916114151 0.2934757146688691 0.0 0.0 0.12604800028478894 1:0.001199673 2:0.003760228 3:0.021012023 4:0.022419555 5:1.0 6:0.0633115 7:0.0 8:0.8539859 9:0.8373599 10:0.9048648 11:0.91035926 12:0.0 13:0.83569044 14:0.7828258 15:0.751295 16:1.0 17:0.21516588 18:0.19926795 19:0.082674205 20:0.28087398 21:0.0 
-0.0 -0.0 -0.0 -0.0 -0.0 -0.0 0.0 0.0 0.0 0.0 0.0 0.0 0.0 0.0 0.0 0.0 0.0 0.0 0.0 1.0 0.0 0.0 0.0 1.0 0.08222298168011466 0.0 0.0 0.0 0.0 0.0 0.0 0.37189272741061496 0.0 0.0 0.0 0.0 0.0 0.0 0.0 0.0 0.0 0.0 1:5.34242E-4 2:0.001921951 3:0.012973994 4:0.013809936 5:1.0 6:0.04544131 7:1.72279E-4 8:0.93455195 9:0.9260829 10:0.96884954 11:0.9766424 12:0.0 13:0.92819035 14:0.8894432 15:0.6572271 16:1.0 17:0.06000768 18:0.048458148 19:0.006992413 20:0.07785938 21:0.0 
-1.0 -0.0 -0.0 -0.0 -0.0 -0.0 0.8964303902601485 0.0 0.0 0.0 0.0 0.0 0.0 0.0 0.0 0.0 0.0 1.0 0.0 1.0 0.5437049982371819 0.469593627396719 0.0 0.6765796069276475 1.0 0.0 0.0 0.39737202767083585 0.0 0.0 0.0 1.0 0.0 0.0 0.3687303816803105 0.0 0.0 0.0 0.0 0.0 1.0 0.0 1:2.40134E-4 2:8.15659E-4 3:0.006367329 4:0.006685847 5:1.0 6:0.027895998 7:1.63894E-4 8:0.9397084 9:0.9371632 10:0.95858544 11:0.96162856 12:0.0 13:0.93822354 14:0.911522 15:0.50496703 16:1.0 17:0.07065551 18:0.053837474 19:0.014562319 20:0.110756345 21:0.0 
-1.0 -0.0 -0.0 -0.0 -0.0 -0.0 0.1263986915924568 0.0 0.0 0.0 0.0 0.0 1.0 1.0 0.0 0.0 0.0 0.9895533830739922 1.0 0.19350945350123414 0.0 0.0 0.0 0.32342039307235254 0.0 1.0 0.0 0.0 0.0 0.0 0.0 0.0 0.0 0.0 0.0 0.0 0.0 0.0 0.0 0.0 0.0 0.0 1:7.44694E-4 2:0.002641033 3:0.01650486 4:0.017711371 5:1.0 6:0.053886373 7:0.0 8:0.8907258 9:0.87881315 10:0.9310676 11:0.9399956 12:0.0 13:0.8804677 14:0.8438194 15:0.7143941 16:1.0 17:0.15022773 18:0.12229252 19:0.03718902 20:0.18240322 21:0.0 
-0.0 -0.0 -0.0 -0.0 -0.03575708381051366 -0.0 0.0 0.0 0.0 0.0 0.0 0.9280801503179689 0.0 1.0 0.0 0.0 0.0 0.0 0.0 0.25096091598357556 0.0 0.0 0.0 1.0 0.0 1.0 0.0 0.0 0.0 0.0 0.0 0.0 0.0 0.0 0.0 0.0 0.0 0.0 0.0 0.5050501304529786 0.0 0.0 1:8.45602E-4 2:0.002786782 3:0.017326856 4:0.01836117 5:1.0 6:0.05496733 7:4.10823E-5 8:0.9410113 9:0.92716557 10:0.98546267 11:0.99456674 12:0.0 13:0.9289168 14:0.90050864 15:0.71752393 16:1.0 17:0.031279616 18:0.026097922 19:0.001678187 20:0.038332086 21:0.0 
-0.0 -0.6099124582319446 -0.0 -0.0 -1.0 -0.11605763767296177 0.0 0.0 0.0 0.3911389335058913 0.0 1.0 1.0 1.0 0.038860006656692495 0.0 0.0 0.0 0.7890689799590772 0.0 0.0 0.0 0.0 1.0 0.0 1.0 0.0 0.0 0.056669698276284694 1.0 0.0 0.0 0.0 0.8656995559087978 0.0 0.08672900502399264 0.0 0.2822595738325457 0.018021599107795595 0.4949498695470213 0.0 0.18387230911287633 1:0.002350665 2:0.006164592 3:0.03056722 4:0.033225067 5:1.0 6:0.08180163 7:0.0 8:0.8836718 9:0.8515052 10:0.94465405 11:0.9616484 12:0.0 13:0.85311997 14:0.8130296 15:0.88946605 16:1.0 17:0.13914055 18:0.114813276 19:0.021708675 20:0.1391782 21:0.0 
-1.0 -0.0 -0.0 -0.0 -0.0 -0.0 0.0 0.0 0.0 0.0 0.0 0.0 0.8938017502100849 0.20598692845489744 0.0 0.0 0.0 0.49233107954695765 0.0 1.0 0.0 0.0 0.0 1.0 1.0 0.0 0.0 0.0 0.0 0.0 0.0 1.0 0.0 0.0 0.0 0.0 0.0 0.0 0.0 0.0 0.0 0.0 1:6.69774E-4 2:0.002276805 3:0.014600685 4:0.01543207 5:1.0 6:0.04904398 7:8.93018E-5 8:0.9077765 9:0.8978837 10:0.94654423 11:0.95216864 12:0.0 13:0.8982633 14:0.8644242 15:0.6677851 16:1.0 17:0.09546311 18:0.081352904 19:0.018149633 20:0.12770578 21:0.0 
-0.5606890012758852 -0.0 -0.0 -0.0 -0.0 -0.0 -0.0 0.0 0.0 0.0 0.0 0.0 0.21421218321044824 0.0 0.0 0.0 0.0 0.2871803580433486 0.384776867870276 0.0 0.0 0.0 0.0 0.0 0.0 0.0 0.0 0.0 0.0 0.0 0.0 0.0 0.0 0.0 0.0 0.0 0.0 0.0 0.0 0.0 0.0 0.0 1:9.20799E-5 2:1.09303E-4 3:4.88214E-4 4:4.97521E-4 5:1.0 6:0.004448835 7:5.56978E-5 8:0.9056848 9:0.9056605 10:0.90705603 11:0.90711945 12:0.0 13:0.90566975 14:0.8958081 15:0.09071889 16:0.447637 17:0.13612789 18:0.12824084 19:1.0 20:0.65688676 21:0.0 
-0.0 -0.0 -0.0 -0.0 -0.0 -0.0 -0.0 0.0 0.0 0.0 0.0 0.0 0.0 0.0 0.0 0.0 0.0 1.0 0.0 0.0 1.0 0.7402836482329502 0.0 0.0 0.0 0.0 0.0 0.0 0.0 0.0 0.0 0.0 0.0 0.0 0.0 0.0 0.0 0.0 0.0 0.0 0.0 0.0 1:5.3354E-5 2:7.54268E-5 3:5.28956E-4 4:5.3969E-4 5:1.0 6:0.004982673 7:1.82564E-5 8:0.8855473 9:0.88551533 10:0.8871838 11:0.887223 12:0.0 13:0.88544154 14:0.86422545 15:0.050035104 16:0.23750979 17:0.099365205 18:0.09779538 19:1.0 20:0.48367608 21:0.0 
-0.0 -0.0 -0.0 -0.0 -0.0 -0.0 -0.0 0.0 0.0 0.0 0.0 0.0 0.0 0.0 0.0 0.0 0.0 1.0 0.0 0.7859412542392651 0.9926405508224869 0.0 0.0 0.0 0.5183389481778389 0.0 0.0 0.0 0.0 0.0 0.0 0.0 0.0 0.0 0.0 0.0 0.0 0.0 0.0 0.0 0.0 0.0 1:6.55421E-6 2:1.04025E-5 3:1.34075E-4 4:1.35215E-4 5:1.0 6:0.002032021 7:2.6356E-6 8:0.9294124 9:0.9294086 10:0.9298812 11:0.9298855 12:0.0 13:0.92939216 14:0.92163926 15:0.05248931 16:0.40821502 17:0.08015783 18:0.08171611 19:1.0 20:0.6419793 21:0.0 
-0.0 -0.0 -0.1645487198072199 -0.15193761496155736 -0.0 -0.13349973409069982 -0.11427822209692315 0.0 0.06085639727536516 0.0 0.17621356582564837 0.1383872922747391 0.0 0.18232846775036507 0.0 0.09911381952975604 0.14689482947944002 1.0 0.0 1.0 1.0 1.0 0.19413951230304508 0.10816032703846504 1.0 0.25685199746904713 0.08926086924882343 0.9596346835537366 0.0 0.0 0.13495459964242457 0.3559454617173047 0.0 0.0 0.0 0.0 0.0 0.0 0.0 0.0 0.0 0.0 1:4.25694E-5 2:5.57647E-5 3:3.63088E-4 4:3.68807E-4 5:1.0 6:0.003821446 7:1.8629E-5 8:0.88269144 9:0.882675 10:0.8838098 11:0.88381773 12:0.0 13:0.8825909 14:0.85941815 15:0.023433534 16:0.12742044 17:0.062784724 18:0.06231975 19:1.0 20:0.35534704 21:0.0 
-0.0 -0.0 -1.0 -1.0 -0.0 -1.0 -0.0 0.9855170188727047 1.0 0.0 1.0 0.0 0.0 0.0 0.9482958124083543 1.0 1.0 0.008016918132024646 0.0 0.0 1.0 0.2597163517670497 1.0 0.0 0.16570627849974293 0.0 1.0 0.04036531644626337 0.9365374626682444 0.0 1.0 0.23077874424161993 0.0 0.0 0.9794701369021269 0.8926356276241991 0.057573644271959656 0.0 0.0 0.0 0.0 0.0 1:1.0 2:0.10430159 3:0.02944433 4:0.12177322 5:0.002254365 6:0.02190746 7:0.0 8:1.0 9:0.039494857 10:0.00119418 11:0.0909685 12:2.37003E-4 13:0.010069153 14:0.0 15:1.0 16:0.007255419 17:7.27766E-4 18:1.91678E-5 19:2.51323E-10 20:6.53079E-7 21:0.0 
-1.0 -0.0 -0.0 -0.0 -0.0 -0.0 -0.5593510137374282 0.0 0.0 0.0 0.0 0.0 0.3452867624089793 0.0 0.0 0.0 0.0 0.4075640789042442 1.0 0.0 0.0 0.0 0.0 0.38315419409925333 0.21073899779568492 0.0 0.0 0.0 0.0 0.0 0.0 0.45408228438407716 0.0 0.0 0.0882450456157359 0.0 0.0 0.0 0.0 0.0 0.0 0.0 1:3.89524E-5 2:6.1506E-5 3:5.28395E-4 4:5.38699E-4 5:1.0 6:0.00504644 7:1.03604E-5 8:0.90865844 9:0.9086236 10:0.9103617 11:0.91043437 12:0.0 13:0.9086179 14:0.90205246 15:0.1884425 16:0.92476475 17:0.1789475 18:0.1963683 19:1.0 20:0.9832889 21:0.0 
-0.3665648052799091 -0.7015493743463344 -1.0 -1.0 -0.8802442617599616 -1.0 -0.34919984601825405 1.0 1.0 0.6183322089106228 1.0 0.3621768585155177 0.4915186950851128 0.6340813232047675 1.0 1.0 1.0 1.0 0.615223132129724 0.21405874576073486 1.0 0.0 1.0 0.31664970673138004 1.0 0.48486390376581967 1.0 1.0 1.0 0.7395926044198644 1.0 1.0 0.9893785894839604 0.8057164484913695 1.0 1.0 0.9424263557280403 0.9474188256860309 0.9762348404820598 0.1413384060641216 0.051201445972101654 0.9581268280467682 1:1.0 2:0.14268799 3:0.056074202 4:0.16481657 5:0.005520368 6:0.036505852 7:0.0 8:1.0 9:0.02668671 10:8.00822E-4 11:0.10282868 12:0.0 13:0.010067613 14:2.71998E-4 15:1.0 16:0.021403506 17:2.30039E-4 18:0.001119175 19:4.52428E-5 20:0.0 21:4.52971E-5 
-1.0 -0.40975223859081167 -0.0940327247440357 -0.12190823184910454 -1.0 -0.1460463606219562 -1.0 0.014482981127295264 0.18821151083326507 0.25370928869210285 0.09841849490605964 1.0 1.0 1.0 0.0517041875916458 0.15449592199878592 0.10882446665447858 1.0 1.0 1.0 0.0 0.0 0.0790277401565827 1.0 1.0 1.0 0.16365462367030828 0.0 0.06346253733175561 0.9952714086489192 0.11814410251811511 1.0 0.010621410516039598 0.6357269186273746 0.9322848174821372 0.10736437237580085 0.0 0.1247857419746358 0.023765159517940226 0.8586615939358784 0.9487985540278984 0.12182908727856764 1:3.86995E-5 2:6.52385E-5 3:5.95518E-4 4:6.07004E-4 5:1.0 6:0.005491949 7:1.50815E-5 8:0.92319787 9:0.9231537 10:0.92515624 11:0.9252472 12:0.0 13:0.92317444 14:0.91987467 15:0.21400349 16:1.0 17:0.13191837 18:0.13876788 19:0.42704907 20:0.6607557 21:0.0 
-0.4199803398391948 -0.802207972350653 -1.0 -1.0 -1.0 -1.0 -0.30384475525475196 -1.0 1.0 0.7731013409379215 1.0 0.34386323827501397 0.5344083924224664 0.613101544838047 1.0 1.0 1.0 1.0 0.5140529802979026 0.033829657050841594 1.0 0.0 1.0 0.0 1.0 0.4450749747123844 1.0 1.0 1.0 0.849437234120368 1.0 1.0 0.0 0.8018383972770162 1.0 1.0 0.0 1.0 1.0 0.0 0.0 1.0 1:1.0 2:0.24054967 3:0.15032843 4:0.25343543 5:0.020089744 6:0.078536905 7:0.0 8:1.0 9:0.009552108 10:0.024991315 11:0.11162831 12:0.0 13:0.008024656 14:0.002113956 15:1.0 16:0.07515426 17:0.008196938 18:0.001388368 19:1.17048E-6 20:1.71958E-4 21:0.0 
-0.0 -0.0 -1.0 -1.0 -0.16295784757768822 -1.0 -0.0 -1.0 1.0 0.0 1.0 0.0 0.0 0.0 1.0 1.0 1.0 0.16670973735578215 0.0 0.24585176522718546 1.0 0.31732627999236335 1.0 0.29787691606968597 0.259569236842545 0.0 1.0 0.2801432343036576 1.0 0.0 1.0 0.3621402116937751 1.0 0.0 1.0 1.0 1.0 0.15472927890999988 0.0 0.2829799879823293 0.24784781497931893 0.2508263942963562 1:1.0 2:0.23730451 3:0.14658882 4:0.249083 5:0.019177776 6:0.07638425 7:0.0 8:1.0 9:0.009705381 10:0.023937155 11:0.11039652 12:0.0 13:0.007945168 14:0.002017868 15:1.0 16:0.073421165 17:0.007963117 18:0.001330488 19:1.07551E-6 20:1.61969E-4 21:0.0 
-0.4245751623429763 -0.847743289388048 -1.0 -1.0 -1.0 -1.0 -0.30496183187900955 -0.0 -0.0 0.8229289743429191 0.0 0.345962910013402 0.5456434269862374 0.6228153196560696 1.0 0.0 1.0 1.0 0.5223978666496831 0.2795229864102089 1.0 0.0 1.0 0.2993797599490378 1.0 0.4484070224389236 0.0 1.0 1.0 0.9050745336033748 1.0 1.0 1.0 0.8424209503026051 0.0 1.0 0.0 1.0 1.0 0.28438609412370613 0.24870278049123296 1.0 1:1.0 2:0.27834743 3:0.18856026 4:0.2894517 5:0.028372455 6:0.09880957 7:0.0 8:1.0 9:0.006021108 10:0.035199236 11:0.11364588 12:0.0 13:0.006862913 14:0.002791357 15:1.0 16:0.10099509 17:2.65156E-4 18:2.15113E-4 19:1.6016E-8 20:3.22356E-5 21:0.0 
-0.0 -0.0 -1.0 -1.0 -0.17498979761082026 -1.0 -0.0 -0.24906790810863025 -0.0 0.0 1.0 0.0 0.0 0.0 1.0 1.0 1.0 0.16910670009105258 0.0 0.0 1.0 0.0 1.0 0.0 0.2609862149514659 0.0 1.0 0.2782869534885749 1.0 0.0 1.0 0.37297748306621015 0.0 0.0 0.23617582506018228 1.0 0.0 0.20972405461968022 0.0 0.0 0.0 0.3316651230782338 1:1.0 2:0.25970924 3:0.16645786 4:0.26444682 5:0.022370901 6:0.08553162 7:0.0 8:1.0 9:0.006410716 10:0.028926088 11:0.10720149 12:0.0 13:0.006538336 14:0.002252151 15:1.0 16:0.09037205 17:7.70333E-4 18:1.16614E-4 19:8.57519E-9 20:1.03058E-5 21:0.0 
-0.0 -0.0 -1.0 -1.0 -0.0 -1.0 -0.0 -1.0 -1.0 0.0 1.0 0.0 0.0 0.0 0.0 1.0 1.0 0.0 0.0 0.0 1.0 0.0 1.0 0.0 0.0 0.0 1.0 0.0 0.0 0.0 1.0 0.0 0.0 0.0 1.0 0.0 0.0 0.0 0.0 0.0 0.0 0.0 1:1.0 2:0.25683847 3:0.16312389 4:0.26094002 5:0.021575127 6:0.08368165 7:0.0 8:1.0 9:0.006655747 10:0.027747618 11:0.106576905 12:0.0 13:0.006592992 14:0.00217729 15:1.0 16:0.08841229 17:8.174E-4 18:1.03557E-4 19:1.33848E-6 20:0.0 21:1.33896E-6 
-0.0 -0.0 -1.0 -1.0 -0.0 -1.0 -0.0 -1.0 -1.0 0.0 1.0 0.0 0.0 0.0 0.0 1.0 1.0 0.0 0.0 0.0 1.0 0.31614293825173556 1.0 0.0 0.0 0.0 1.0 0.0 0.0 0.0 1.0 0.0 0.0 0.0 1.0 0.0 1.0 0.0 0.0 0.0 0.0 0.0 1:1.0 2:0.25197503 3:0.15771219 4:0.2538636 5:0.020094652 6:0.080141366 7:0.0 8:1.0 9:0.006785685 10:0.026483024 11:0.104480885 12:0.0 13:0.006472925 14:0.002030748 15:1.0 16:0.085789025 17:0.001390636 18:7.17636E-5 19:7.38605E-6 20:0.0 21:7.39163E-6 
-0.7673997337181623 -1.0 -0.6939230871319049 -0.8255811602501673 -1.0 -1.0 -0.42213692919362317 -0.8720414976027255 -0.7731013409379215 -0.8229289743429191 0.7731863421452656 0.5304034863926318 1.0 1.0 1.0 0.7694937748975629 0.7615138537468594 1.0 1.0 0.35848178662367564 1.0 0.36457675386472116 0.7793795203525599 0.4173181899487404 1.0 0.7766050743018426 0.777865697165327 1.0 1.0 1.0 0.785917196734822 1.0 0.8439588210980888 1.0 0.908196227862696 1.0 0.6642204022095962 1.0 1.0 0.39468869637246323 0.3255843727899919 1.0 1:0.60944504 2:0.43906462 3:0.7026656 4:0.87250996 5:1.0 6:0.69876283 7:0.0 8:1.0 9:0.122177295 10:0.3357105 11:0.5219407 12:0.0 13:0.13784163 14:0.12107998 15:1.0 16:0.3058264 17:0.010572203 18:0.001286802 19:2.44169E-4 20:0.0 21:2.43812E-4 
-0.0 -0.0 -1.0 -1.0 -0.0 -1.0 -0.0 -1.0 -0.0 -1.0 -0.0 0.0 0.0 0.0 0.0 1.0 1.0 0.0 0.0 0.0 1.0 0.0 1.0 0.0 0.0 0.0 1.0 0.0 0.0 0.0 1.0 0.0 0.0 0.0 0.5598170837414558 0.0 1.0 0.0 0.0 0.0 0.0 0.0 1:1.0 2:0.14996943 3:0.07742952 4:0.20816095 5:0.009622784 6:0.050593402 7:0.0 8:1.0 9:0.036418647 10:0.016846485 11:0.13918062 12:0.001557812 13:0.01795882 14:0.001795295 15:1.0 16:0.018684361 17:0.02727573 18:5.02687E-4 19:1.34317E-7 20:3.17329E-5 21:0.0 
-0.0 -0.0 -1.0 -1.0 -0.09420605288989665 -1.0 -0.0 -1.0 -1.0 -1.0 -0.0 0.0 0.0 0.0 1.0 1.0 1.0 0.16348680214651937 0.0 0.01677087740187711 1.0 0.3242023096697099 1.0 0.0 0.2637023962453202 0.0 1.0 0.2908263341787136 1.0 0.0 1.0 0.35856522180791117 0.0 0.0 1.0 1.0 0.0 0.10315735608398871 0.0 0.0 0.0 0.15550702316250298 1:1.0 2:0.14983143 3:0.07774018 4:0.20908654 5:0.009703222 6:0.05086234 7:0.0 8:1.0 9:0.036723677 10:0.017272063 11:0.1401753 12:0.001615763 13:0.01820307 14:0.001838285 15:1.0 16:0.018518435 17:0.027968975 18:5.04293E-4 19:1.31645E-7 20:3.1736E-5 21:0.0 
-0.427045603273085 -0.8055013495692175 -1.0 -1.0 -1.0 -1.0 -0.30754274914384433 -0.27463206073170804 -1.0 -1.0 -0.7731863421452656 0.34919250370346866 0.5511231894005658 0.631844019157773 1.0 1.0 1.0 1.0 0.5238464849339193 0.26756717743646696 1.0 0.0 1.0 0.3017032424947781 1.0 0.45512669597072763 1.0 1.0 1.0 0.8529906457782093 1.0 1.0 1.0 0.8087389344955673 0.6878585881889309 1.0 0.0 1.0 1.0 0.28658984548336913 0.25068500763877233 1.0 1:1.0 2:0.19342172 3:0.11988333 4:0.274955 5:0.021973789 6:0.08011133 7:0.0 8:1.0 9:0.029023474 10:0.02200116 11:0.16284245 12:0.0 13:0.019587142 14:0.002316374 15:1.0 16:0.035092093 17:0.031114051 18:0.002683103 19:0.0 20:1.85103E-4 21:5.64131E-7 
-1.0 -0.0 -0.0 -0.0 -1.0 -0.0 -1.0 -0.5005641507902566 -0.0 -0.0 -0.0 -0.0 1.0 1.0 0.0 0.0 0.0 1.0 1.0 1.0 0.0 0.0 0.0 1.0 1.0 1.0 0.0 0.0 0.0 0.8897544033556491 0.0 1.0 0.0 0.031798169547979364 0.3951028800502335 0.0 0.0 0.0 0.0 1.0 1.0 0.0 1:0.005175892 2:0.010807045 3:0.046508025 4:0.049390648 5:1.0 6:0.10573939 7:0.0 8:0.9035068 9:0.83855057 10:0.9825368 11:1.0 12:0.0 13:0.83738995 14:0.83679396 15:0.9892164 16:1.0 17:0.023292745 18:0.004653869 19:0.002388267 20:0.0 21:0.002407307 
-1.0 -0.8178993401413068 -0.33859934757121174 -0.35231440093638555 -1.0 -0.3936839069290114 -1.0 -1.0 -0.34386323827501397 -0.345962910013402 -0.5304034863926318 -0.34919250370346866 1.0 1.0 0.35992197404109716 0.3433533795033992 0.34283380257347273 1.0 1.0 1.0 0.9879326294485987 0.7009947126518044 0.34513133877776536 1.0 1.0 1.0 0.3440254646862203 0.9654971089067205 0.3621577490814948 1.0 0.3440106003436907 1.0 0.34827428551529793 1.0 1.0 0.36540796127104996 0.33718442560520123 0.42427766612195106 0.35745905968808617 0.0 0.0 0.3675262804407754 1:0.018636996 2:0.029298237 3:0.09205181 4:0.101489656 5:1.0 6:0.17079906 7:0.0 8:0.8889671 9:0.72363424 10:0.9634146 11:0.9994641 12:0.0 13:0.71745497 14:0.7820767 15:1.0 16:0.77920943 17:0.07605405 18:0.078324646 19:0.005709758 20:0.065971725 21:0.0 
-0.0 -1.0 -0.5092991989596581 -0.5651014659528449 -1.0 -0.8594121210642705 -0.0 -0.0 -0.5344083924224664 -0.5456434269862374 -1.0 -0.5511231894005658 -0.0 1.0 0.626907090696154 0.5329863047911547 0.5301773095498111 1.0 0.0 0.0 0.0 0.0 0.5393784964877993 0.0 0.27594928054801265 0.0 0.536036925988773 0.0 0.6576599123270205 1.0 0.5355361681276324 0.0 0.5571863752371775 1.0 0.37083214276731746 0.7073661188861872 0.5006514029045238 1.0 0.6070738259549147 0.0 0.0 0.8199635914151686 1:0.29464832 2:0.2407603 3:0.29176936 4:0.5288316 5:1.0 6:0.5209235 7:0.0 8:0.96779084 9:0.44719914 10:0.67197 11:0.98048574 12:0.0 13:0.49409276 14:0.4127291 15:1.0 16:0.28950268 17:0.38458762 18:0.16963252 19:0.033220563 20:0.07226591 21:0.0 
-0.7071712211874438 -0.0 -0.0 -0.0 -0.0 -0.0 -0.9865286537963 -0.0 -0.0 -0.0 -0.0 -0.0 -0.0 1.0 0.0 0.0 0.0 0.0 0.0 0.0 0.0 0.0 0.0 0.2812352365358058 0.0 0.0 0.0 0.0 0.0 0.0 0.0 0.0 0.0 0.0 0.0 0.0 0.0 0.0 0.0 0.0 0.0 0.0 1:0.03473761 2:0.045293946 3:0.09570996 4:0.12669185 5:1.0 6:0.19841538 7:0.0 8:0.86235005 9:0.73060566 10:0.8955162 11:0.9997439 12:0.0 13:0.7439601 14:0.7300158 15:1.0 16:0.6257129 17:0.59296757 18:0.34904337 19:0.16244397 20:0.26137862 21:0.0 
-0.09353990355859096 -0.0 -0.0 -0.0 -0.0 -0.0 -0.0 -0.5593227429778066 -0.0 -0.0 -0.0 -0.0 -0.0 0.0 0.0 0.0 0.0 0.0 0.9909039039395553 0.0 0.28187681645127877 0.43131121585785337 0.0 0.0 0.0 0.0 0.0 0.328269665797252 0.0 0.0 0.0 0.0 0.0 0.0 0.17709188271852644 0.0 0.0 0.0 0.0 0.0 0.0 0.0 1:0.031763908 2:0.044905912 3:0.07895627 4:0.112307124 5:1.0 6:0.19283248 7:0.0 8:0.73760617 9:0.6710212 10:0.8159117 11:0.8501653 12:0.0 13:0.66992044 14:0.57666475 15:0.7735983 16:0.5705259 17:1.0 18:0.68180704 19:0.8053339 20:0.60812354 21:0.0 
-0.7561002145585245 -0.0 -0.0 -0.0 -1.0 -0.0 -0.907273096413785 -0.4916948977267339 -0.0 -0.0 -0.0 -0.0 -0.5921186806064344 1.0 0.0 0.0 0.0 0.6885579026490591 0.009096096060444743 0.0 0.15741010007069134 0.49319216585367587 0.0 1.0 1.0 1.0 0.0 0.11808486284198688 0.0 0.6854623193564674 0.0 1.0 0.0 0.3454997342470743 0.0 0.0 0.0 0.0 0.0 0.0 0.0 0.0 1:0.059720512 2:0.06926426 3:0.14137495 4:0.19133525 5:1.0 6:0.25811234 7:0.0 8:0.87196517 9:0.6252181 10:0.8141463 11:1.0 12:0.0 13:0.65395993 14:0.62860644 15:1.0 16:0.49605426 17:0.34294704 18:0.17200002 19:0.039220523 20:0.101565845 21:0.0 
-1.0 -0.0 -0.0 -0.0 -0.3298733175490881 -0.0 -1.0 -0.0 -0.0 -0.0 -0.0 -0.0 -0.40788131939356564 1.0 0.0 0.0 0.0 0.0 1.0 1.0 0.0 0.0 0.0 1.0 0.5201757879491506 1.0 0.0 0.0 0.0 0.0 0.0 0.5341963216291101 0.0 0.0 0.0 0.0 0.0 0.0 0.0 0.0 0.0 0.0 1:0.029178286 2:0.039215066 3:0.09269591 4:0.11953051 5:1.0 6:0.18963662 7:0.0 8:0.8627943 9:0.72407997 10:0.8862802 11:1.0 12:0.0 13:0.741321 14:0.73249537 15:1.0 16:0.62637985 17:0.4160964 18:0.25303528 19:0.08388967 20:0.18770668 21:0.0 
-0.0 -0.0 -0.0 -0.0 -0.0 -0.0 -0.0 -0.0 -0.0 -0.0 -0.0 -0.0 -0.0 0.6738625535460565 0.0 0.0 0.0 0.0 0.0 0.0 0.0 0.0 0.0 0.0 0.0 0.0 0.0 0.0 0.0 0.0 0.0 0.0 0.0 0.0 0.0 0.0 0.0 0.0 0.0 0.0 0.0 0.0 1:0.047305606 2:0.060047876 3:0.10767475 4:0.15181749 5:1.0 6:0.22927402 7:0.0 8:0.8286747 9:0.69643915 10:0.8767359 11:0.9639954 12:0.0 13:0.7047309 14:0.6755037 15:1.0 16:0.60493296 17:0.8062165 18:0.48848888 19:0.3036101 20:0.36605716 21:0.0 
-1.0 -0.0 -0.0 -0.0 -0.0 -0.0 -1.0 -1.0 -0.0 -0.0 -0.0 -0.0 -1.0 1.0 0.0 0.0 0.0 1.0 1.0 1.0 0.0 0.0 0.0 1.0 1.0 1.0 0.0 0.0 0.0 0.0 0.0 1.0 0.0 0.0 0.9704712846984133 0.0 0.0 0.0 0.0 1.0 1.0 0.0 1:0.009917121 2:0.016377136 3:0.051022608 4:0.06295796 5:1.0 6:0.12377571 7:0.0 8:0.8388898 9:0.78043234 10:0.8848355 11:0.94739485 12:0.0 13:0.7938038 14:0.78280365 15:1.0 16:0.7970601 17:0.41629386 18:0.2877123 19:0.11662453 20:0.27100322 21:0.0 
-0.0 -1.0 -0.0 -0.0 -1.0 -0.0 -0.0 -0.0 -0.0 -0.0 -0.0 -0.0 -0.0 1.0 0.0 0.0 0.0 0.09393763502911376 0.0 0.0 0.9481005369214207 0.0 0.0 0.0 0.0 1.0 0.0 0.9430620275632717 0.0 1.0 0.0 0.8985274550004234 0.0 1.0 0.0 0.0 0.0 0.0 0.0 0.0 0.0 0.0 1:0.21783863 2:0.1909355 3:0.2610757 4:0.43825692 5:1.0 6:0.45621133 7:0.0 8:0.95786405 9:0.4786933 10:0.7014806 11:0.9972425 12:0.0 13:0.52401584 14:0.44478238 15:1.0 16:0.32087094 17:0.3731443 18:0.16637954 19:0.03286998 20:0.07478861 21:0.0 
-1.0 -0.0 -0.0 -0.0 -0.0 -0.0 -1.0 -0.9216429709655904 -0.0 -0.0 -0.0 -0.0 -1.0 -1.0 0.0 0.0 0.0 1.0 0.8185756922476505 1.0 0.0 0.0 0.0 1.0 1.0 1.0 0.0 0.0 0.0 0.0 0.0 1.0 0.0 0.0 0.7645749424672259 0.0 0.0 0.0 0.0 1.0 1.0 0.0 1:0.011324219 2:0.016431427 3:0.049484488 4:0.058823917 5:1.0 6:0.11430985 7:0.01009521 8:0.8806165 9:0.8165143 10:0.90891707 11:0.9956782 12:0.0 13:0.8351374 14:0.8611584 15:1.0 16:0.7960596 17:0.33875278 18:0.073422804 19:0.003568192 20:0.028981477 21:0.0 
-1.0 -0.0 -0.0 -0.0 -0.0 -0.0 -1.0 -0.0 -0.0 -0.0 -0.0 -0.0 -0.0 -1.0 0.0 0.0 0.0 0.0 1.0 1.0 0.0 0.0 0.0 1.0 0.036956545367362745 0.0 0.0 0.0 0.0 0.0 0.0 0.0 0.0 0.0 0.0 0.0 0.0 0.0 0.0 0.0 0.0 0.0 1:0.012305845 2:0.019861456 3:0.06656255 4:0.08176705 5:1.0 6:0.14531115 7:0.008650376 8:0.8670718 9:0.75409883 10:0.8838234 11:0.9968848 12:0.0 13:0.77131283 14:0.7761843 15:1.0 16:0.69486034 17:0.40236685 18:0.12270517 19:0.017727178 20:0.06339044 21:0.0 
-0.0 -0.0 -0.0 -0.0 -0.4813918345013247 -0.0 -0.20598692845489747 -0.0 -0.0 -0.0 -0.0 -0.0 -0.0 -0.42529554378312007 0.0 0.0 0.0 0.0 0.0 0.0 0.0 0.8032090799076133 0.0 0.0 0.0 1.0 0.0 0.0 0.0 0.0 0.0 0.0 0.0 0.0 0.0 0.0 0.0 0.0 0.0 0.0 0.0 0.0 1:0.032102898 2:0.04030457 3:0.123211876 4:0.15961763 5:1.0 6:0.22226375 7:0.0 8:0.8776973 9:0.58226556 10:0.73785967 11:1.0 12:0.0 13:0.6268756 14:0.6005397 15:1.0 16:0.48485997 17:0.23224273 18:0.038120218 19:0.0 20:3.30827E-4 21:8.64711E-4 
-0.3515155422478405 -0.0 -0.0 -0.0 -0.0 -0.0 -1.0 -0.0 -0.0 -0.0 -0.0 -0.0 -0.0 -1.0 0.0 0.0 0.0 0.0 0.0 0.0 0.0 0.0 0.0 1.0 0.0 1.0 0.0 0.0 0.0 0.0 0.0 0.5473725688626244 0.0 0.0 0.0 0.0 0.0 0.0 0.0 0.0 0.0 0.0 1:0.027015412 2:0.035860296 3:0.11028 4:0.13620947 5:1.0 6:0.20045362 7:0.0 8:0.8761849 9:0.6245487 10:0.78601235 11:1.0 12:0.0 13:0.65529007 14:0.65101266 15:1.0 16:0.5510531 17:0.2535662 18:0.043398444 19:0.004912552 20:0.0 21:0.006867098 
-0.0 -1.0 -0.5896442571226383 -0.6448231041831295 -1.0 -0.885278610593174 -0.0 -0.894766819989542 -0.613101544838047 -0.6228153196560696 -1.0 -0.631844019157773 -0.0 -1.0 0.6975145600798626 0.6120678181853005 0.6092773481065232 1.0 0.5271887093671828 0.0 1.0 0.0 0.6181382666153129 0.0 0.9631646943108558 0.0 0.6149308850804758 1.0 0.7149838962084143 1.0 0.6135931394605839 1.0 0.6346508443306166 1.0 0.905845609711673 0.7446726651512331 0.5817564013687179 1.0 0.6793838591997721 0.0 0.0 0.7984759425696556 1:0.14208975 2:0.12316344 3:0.26860943 4:0.36514342 5:1.0 6:0.37645793 7:0.0 8:0.96614605 9:0.3553663 10:0.52258426 11:0.9159766 12:0.0 13:0.4138127 14:0.39242625 15:1.0 16:0.3207647 17:0.21627742 18:0.031582244 19:0.002249426 20:0.0 21:0.002816211 
-1.0 -0.0 -0.0 -0.0 -0.0 -0.0 -1.0 -0.0 -0.0 -0.0 -0.0 -0.0 -1.0 -1.0 0.0 0.0 0.0 0.6990885409254145 0.0 0.11165978864486473 0.0 0.0 0.0 1.0 1.0 1.0 0.0 0.0 0.0 0.0 0.0 1.0 0.0 0.0 0.0 0.0 0.0 0.0 0.0 0.0 0.0 0.0 1:0.019176599 2:0.029010467 3:0.09846368 4:0.11868355 5:1.0 6:0.18583126 7:1.6532E-4 8:0.88065004 9:0.6668082 10:0.8511559 11:1.0 12:0.0 13:0.682869 14:0.6857093 15:1.0 16:0.61906195 17:0.24413595 18:0.056577742 19:0.001392294 20:0.01421811 21:0.0 
-0.0 -0.0 -0.0 -0.0 -1.0 -0.0 -0.0 -0.0 -0.0 -0.0 -0.0 -0.0 -0.0 -0.24856700976293652 0.0 0.0 0.0 0.282992199010163 0.0 0.0 0.0 0.0 0.0 0.0 0.0 0.0 0.0 0.0 0.0 0.8048475575518738 0.0 0.33442219035845744 0.0 0.7275626670103086 0.0 0.0 0.0 0.0 0.0 0.0 0.0 0.0 1:0.070990026 2:0.07465088 3:0.18680872 4:0.24261834 5:1.0 6:0.2918355 7:0.0 8:0.9464293 9:0.48337433 10:0.6711356 11:0.98814005 12:0.0 13:0.52812713 14:0.5244113 15:1.0 16:0.41726565 17:0.20959558 18:0.039950773 19:0.0 20:4.26602E-4 21:7.28058E-4 
-0.0 -0.8921442971350898 -0.0 -0.0 -1.0 -0.0 -0.0 -0.0 -0.0 -0.0 -0.0 -0.0 -0.0 -1.0 0.0 0.0 0.0 0.0 0.0 0.0 0.5262818684790367 0.0 0.0 0.0 0.0 0.0 0.0 0.5075079296715032 0.0 1.0 0.0 0.0 0.0 1.0 0.0 0.0 0.0 0.0 0.0 0.0 0.0 0.0 1:0.085681066 2:0.08375113 3:0.20211434 4:0.2701931 5:1.0 6:0.30930373 7:0.0 8:0.94472647 9:0.4331805 10:0.58800566 11:0.97694856 12:0.0 13:0.494945 14:0.45651883 15:1.0 16:0.37147802 17:0.24461813 18:0.03540643 19:0.006851115 20:0.0 21:0.008596792 
-0.0 -0.021253804898007177 -1.0 -1.0 -0.342540407060611 -1.0 -0.0 -1.0 -1.0 -1.0 -0.0 -1.0 -0.0 -0.0 -0.0 1.0 1.0 0.2013243956936727 0.0 0.0 1.0 0.15367736576547478 1.0 0.0 0.2833100462164467 0.0 1.0 0.6642971792265957 1.0 0.10596067477149923 1.0 0.441612267587114 1.0 0.0 1.0 1.0 1.0 0.5175110360702545 0.38563867131650253 0.0 0.0 0.7619519883104252 1:1.0 2:0.29079717 3:0.2217783 4:0.39195117 5:0.05724917 6:0.14946061 7:0.0 8:1.0 9:0.016012171 10:0.036602095 11:0.1790584 12:0.0 13:0.018255347 14:0.005754271 15:1.0 16:0.08784391 17:0.009203105 18:1.90756E-4 19:4.28141E-8 20:2.40682E-5 21:0.0 
-0.4511608809389788 -1.0 -1.0 -1.0 -1.0 -1.0 -0.312353193862633 -1.0 -1.0 -1.0 -1.0 -1.0 -0.35992197404109716 -0.626907090696154 -0.6975145600798626 1.0 1.0 1.0 0.5701052839839041 0.28465102827794075 1.0 0.1654955609381847 1.0 0.30721913172052145 1.0 0.47555470480436923 1.0 0.6265582040685538 1.0 1.0 1.0 1.0 0.0 1.0 1.0 1.0 0.0 1.0 0.6143613286834975 0.291837468885929 0.2535931707656119 1.0 1:1.0 2:0.32355502 3:0.2782446 4:0.46678504 5:0.08973321 6:0.195444 7:0.0 8:1.0 9:0.018130174 10:0.056047466 11:0.20841424 12:0.0 13:0.023169627 14:0.00905467 15:1.0 16:0.10276727 17:0.021036768 18:3.46515E-4 19:3.58992E-7 20:2.2729E-5 21:0.0 
-0.0 -0.0 -1.0 -1.0 -0.0 -1.0 -0.0 -1.0 -0.0 -1.0 -0.0 -1.0 -0.0 -0.0 -0.0 -0.0 1.0 0.0 0.0 0.2798818980315201 1.0 0.3183579325365148 1.0 0.0 0.0 0.0 1.0 0.0 0.0 0.0 1.0 0.0 0.0 0.0 1.0 0.0 1.0 0.0 0.0 0.0 0.0 0.0 1:1.0 2:0.21262279 3:0.120329864 4:0.23681055 5:0.015871892 6:0.06874783 7:0.0 8:1.0 9:0.01397 10:0.013698773 11:0.11585258 12:0.0 13:0.009551327 14:0.001640953 15:1.0 16:0.05605203 17:0.003598918 18:3.30259E-4 19:1.09635E-7 20:3.26582E-5 21:0.0 
-0.419256050531191 -0.7987025412192814 -1.0 -1.0 -1.0 -1.0 -0.3033116458285718 -0.253609741528542 -1.0 -1.0 -0.7694937748975629 -1.0 -0.3433533795033992 -0.5329863047911547 -0.6120678181853005 -1.0 1.0 1.0 0.512916293209064 0.0 1.0 0.0 1.0 0.0 1.0 0.44468398110796276 1.0 1.0 1.0 0.8452996470092118 1.0 1.0 0.0 0.7987047217188765 0.23582475855739463 1.0 0.0 1.0 1.0 0.0 0.0 1.0 1:1.0 2:0.2350751 3:0.14180417 4:0.25561243 5:0.019569686 6:0.078802094 7:0.0 8:1.0 9:0.010304793 10:0.01910019 11:0.11546821 12:0.0 13:0.008545254 14:0.001940967 15:1.0 16:0.07075546 17:8.32634E-4 18:2.69232E-4 19:0.0 20:3.36923E-5 21:3.9415E-8 
-0.0 -0.0 -1.0 -1.0 -0.16087502951022367 -1.0 -0.0 -1.0 -1.0 -1.0 -0.0 -1.0 -0.0 -0.0 -0.0 -1.0 1.0 0.16576561438016368 0.0 0.0 1.0 0.0 1.0 0.2974080728201408 0.25880964441051135 0.0 1.0 0.27977498487729624 1.0 0.0 1.0 0.36017898254631653 1.0 0.0 1.0 1.0 0.0 0.14943144851091844 0.0 0.282588082183846 0.2475721939824401 0.2424921393350196 1:1.0 2:0.2347596 3:0.14081326 4:0.2491627 5:0.018575294 6:0.07620779 7:0.0 8:1.0 9:0.009643755 10:0.019569647 11:0.11103426 12:0.0 13:0.007948142 14:0.001898912 15:1.0 16:0.07186274 17:0.001063782 18:9.4412E-5 19:9.15595E-9 20:7.34117E-6 21:0.0 
-0.0 -0.0 -1.0 -1.0 -0.09577882696355491 -1.0 -0.0 -0.25571929613391864 -1.0 -1.0 -0.0 -0.0 -0.0 -0.0 -0.0 -1.0 -1.0 0.15374563033941033 0.0 0.0 1.0 0.0 1.0 0.0 0.25215355205343026 0.0 1.0 0.27683859366287633 1.0 0.0 1.0 0.3437436885561237 0.0 0.0 0.0 1.0 0.0 0.10089018657158697 0.0 0.0 0.0 0.1686101880726162 1:1.0 2:0.19716471 3:0.10214801 4:0.20166054 5:0.010553044 6:0.05408333 7:0.0 8:1.0 9:0.012950465 10:0.010332029 11:0.0984159 12:0.0 13:0.007455461 14:0.001039642 15:1.0 16:0.05170617 17:0.001488594 18:3.78348E-5 19:1.58865E-9 20:1.37602E-6 21:0.0 
-0.4182290512469287 -0.7913610669302019 -1.0 -1.0 -1.0 -1.0 -0.30307861110129725 -0.0 -1.0 -1.0 -0.7615138537468594 -1.0 -0.34283380257347273 -0.5301773095498111 -0.6092773481065232 -1.0 -1.0 1.0 0.5111098938921667 0.19052233505453542 1.0 0.0 1.0 0.2973765827850294 1.0 0.44358701799614014 1.0 1.0 1.0 0.8361039572440712 1.0 1.0 1.0 0.7917126420511958 0.9995845633655457 1.0 0.0 1.0 1.0 0.28255338741142505 0.24755778686464727 1.0 1:1.0 2:0.23274313 3:0.13920973 4:0.24634387 5:0.018143862 6:0.07480158 7:0.0 8:1.0 9:0.010081604 10:0.019524757 11:0.1105687 12:0.0 13:0.008066298 14:0.001871511 15:1.0 16:0.070400335 17:0.002488086 18:2.49777E-4 19:3.55203E-8 20:1.6656E-6 21:0.0 
-0.0 -0.0 -1.0 -1.0 -0.0 -1.0 -0.0 -1.0 -0.0 -1.0 -0.0 -1.0 -0.0 -0.0 -0.0 -0.0 -0.0 0.0 0.0 0.0 1.0 0.0 1.0 0.0 0.0 0.0 0.0 0.0 0.0 0.0 1.0 0.0 0.0 0.0 1.0 0.0 1.0 0.0 0.0 0.0 0.0 0.0 1:1.0 2:0.16039987 3:0.07025514 4:0.17214178 5:0.0065848 6:0.040636413 7:0.0 8:1.0 9:0.020924544 10:0.003471384 11:0.097687215 12:0.0 13:0.008692525 14:5.18403E-4 15:1.0 16:0.030759577 17:0.001614643 18:1.32782E-4 19:7.21986E-6 20:0.0 21:7.23246E-6 
-0.0 -0.0 -1.0 -1.0 -0.0 -1.0 -0.0 -1.0 -0.0 -1.0 -0.0 -1.0 -0.0 -0.0 -0.0 -0.0 -1.0 0.0 0.0 0.0888752264066894 1.0 0.3188317720570811 1.0 0.0 0.0 0.0 1.0 0.0 0.0 0.0 1.0 0.0 0.0 0.0 0.23408137224703188 0.0 0.0 0.0 0.0 0.0 0.0 0.0 1:1.0 2:0.17773326 3:0.08557929 4:0.19456038 5:0.009187263 6:0.049618714 7:0.0 8:1.0 9:0.018464878 10:0.005825857 11:0.104973994 12:0.0 13:0.009178328 14:8.18032E-4 15:1.0 16:0.038444344 17:0.001794354 18:9.06286E-5 19:6.46395E-6 20:0.0 21:6.47239E-6 
-0.6990252870242532 -1.0 -1.0 -1.0 -1.0 -1.0 -0.5311607288099881 -0.9364868048065711 -1.0 -1.0 -0.894535333194464 -1.0 -0.410854890694728 -1.0 -1.0 -1.0 -1.0 -1.0 0.6795881948957653 0.15391688260248612 1.0 0.16019064306530767 1.0 0.43990227688216693 1.0 0.8597666591871813 1.0 0.957754363793571 1.0 1.0 1.0 1.0 0.9156824607302787 1.0 1.0 1.0 0.8724527875538245 1.0 0.9382089919116249 0.12411598327131441 0.006208149949753978 1.0 1:0.88859856 2:0.5466124 3:0.7171317 4:0.8214324 5:0.5751475 6:0.5444237 7:0.0 8:1.0 9:0.049084973 10:0.32471046 11:0.31143063 12:0.0 13:0.0342992 14:0.049944706 15:1.0 16:0.31247917 17:0.071802035 18:0.04853893 19:0.001136802 20:0.017097274 21:0.0 
-0.3009747129757469 -0.0 -0.0 -0.0 -0.0 -0.0 -0.0 -1.0 -0.0 -0.0 -0.0 -0.0 -0.0 -0.1282435377529518 -0.0 -0.0 -0.0 -0.0 0.09275855984892228 1.0 1.0 0.8398093569346923 0.0 0.0 0.0 0.0 0.0 0.04224563620642894 0.0 0.0 0.0 0.0 0.0 0.0 0.0 0.0 0.0 0.0 0.0 0.0 0.0 0.0 1:6.35397E-5 2:6.8325E-5 3:2.11099E-4 4:2.12737E-4 5:1.0 6:0.002307946 7:4.81814E-5 8:0.87298447 9:0.87298 10:0.8735153 11:0.87349576 12:0.0 13:0.8728621 14:0.8413357 15:0.001687136 16:0.032503 17:0.020396156 18:0.022190802 19:1.0 20:0.18916078 21:0.0 
-0.0 -0.2174542547042018 -0.14886293888158336 -0.18105434144477342 -0.2281840294075118 -0.26310549266435496 -0.0 -1.0 -0.16670973735578215 -0.16910670009105258 -0.029240502971046845 -0.16348680214651937 -0.0 -0.0 -0.18920030070021457 -0.2013243956936727 -0.16576561438016368 -0.15374563033941033 0.0 0.2626320937368842 1.0 1.0 0.1499114142936547 0.0 0.9863421888095479 0.18303060122920684 0.16674727821526816 1.0 0.19266178882188112 0.2824309713087955 0.15923262659529802 0.5389918860768236 0.08431753926972124 0.27035892656376614 0.32459713832414433 0.20447401762625317 0.1275472124461755 0.2137080451152225 0.0617910080883752 0.0 0.0 0.18211169301598007 1:5.81084E-5 2:6.58112E-5 3:2.63781E-4 4:2.6589E-4 5:1.0 6:0.002879667 7:2.77849E-5 8:0.83156216 9:0.83155507 10:0.83230555 11:0.8322377 12:0.0 13:0.8313067 14:0.76083034 15:0.001485585 16:0.011640094 17:0.015551809 18:0.015347297 19:1.0 20:0.10833585 21:0.0 
-1.0 -0.40384111392840677 -0.0 -0.0 -1.0 -0.0 -1.0 -0.7662745502730464 -0.0 -0.0 -0.07622416383448918 -0.0 -1.0 -1.0 -1.0 -0.0 -0.0 -0.0 1.0 1.0 0.40239399088985284 0.0 0.0 1.0 1.0 1.0 0.0 0.0 0.0 1.0 0.0 1.0 0.0 0.6620409648509423 0.47351865533142884 0.009034073494725969 0.0 0.07183483645005966 0.0 0.8758840167286855 0.9937918500502461 0.048198077034459046 1:2.10011E-5 2:2.93615E-5 3:2.52455E-4 4:2.56167E-4 5:1.0 6:0.003042893 7:2.0475E-6 8:0.9574468 9:0.95743614 10:0.9583041 11:0.9583332 12:0.0 13:0.957438 14:0.9691048 15:0.15732543 16:1.0 17:0.02097985 18:0.031021765 19:0.03458945 20:0.20489529 21:0.0 
-1.0 -0.0 -0.0 -0.0 -0.22666917540745266 -0.0 -1.0 -1.0 -0.0 -0.0 -0.0 -0.0 -0.589145109305272 -0.3817191602486898 -0.7928804392353633 -0.0 -0.0 -0.0 0.2276532452553123 1.0 0.0 0.0 0.0 1.0 0.8536454398011276 1.0 0.0 0.0 0.0 0.011392794360889478 0.0 1.0 0.0 0.0 0.0 0.0 0.0 0.0 0.0 0.0 0.0 0.0 1:8.20574E-5 2:8.54576E-5 3:1.98709E-4 4:2.00164E-4 5:1.0 6:0.001991143 7:7.36212E-5 8:0.9631463 9:0.9631429 10:0.9635868 11:0.9635956 12:0.0 13:0.96313244 14:0.9705663 15:0.12258022 16:1.0 17:0.016679458 18:0.028462324 19:0.048298623 20:0.2504148 21:0.0 
-1.0 -0.0 -0.0 -0.0 -0.0 -0.0 -0.9507237338109619 -1.0 -0.0 -0.0 -0.0 -0.0 -0.0 -0.2725328396765314 -0.0 -0.0 -0.0 -0.0 1.0 0.5834510236606297 0.5414505955614123 0.0 0.0 0.6157552850664215 0.1600123713893244 0.0 0.0 0.0 0.0 0.0 0.0 0.24876107811057302 0.0 0.0 0.3609559666880957 0.0 0.0 0.0 0.0 0.0 0.0 0.0 1:7.7392E-5 2:1.07652E-4 3:6.8772E-4 4:7.06739E-4 5:1.0 6:0.005915358 7:6.8275E-5 8:0.9110694 9:0.91101867 10:0.91315436 11:0.913297 12:0.0 13:0.9110628 14:0.9132863 15:0.20479335 16:0.9776784 17:0.24117033 18:0.18905188 19:1.0 20:0.9280694 21:0.0 
-1.0 -1.0 -0.49640251598128626 -0.5324132253406054 -1.0 -0.6799723499048929 -1.0 -1.0 -0.5140529802979026 -0.5223978666496831 -1.0 -0.5238464849339193 -1.0 -1.0 -1.0 -0.5701052839839041 -0.512916293209064 -0.5111098938921667 -1.0 0.7892624729728459 1.0 0.4931860116289834 0.5171086892210769 1.0 1.0 1.0 0.5149506062212846 1.0 0.5887758490923779 1.0 0.5153899552078446 1.0 0.5290126944104767 1.0 0.9502834058278697 0.6123802906823834 0.49036523868843407 0.8151302459687373 0.5607192060643453 0.4319774545355494 0.27184100685546225 0.6452536147712408 1:0.104925364 2:0.11620449 3:0.2575025 4:0.2960798 5:1.0 6:0.34863374 7:0.0 8:1.0 9:0.4387394 10:0.8309471 11:0.91049093 12:0.0 13:0.43456885 14:0.40892896 15:1.0 16:0.5265377 17:0.060218256 18:0.03663773 19:0.001234812 20:0.021717098 21:0.0 
-1.0 -0.07387910107617207 -0.0 -0.0 -1.0 -0.0 -1.0 -1.0 -0.0 -0.0 -0.0 -0.0 -1.0 -1.0 -1.0 -0.0 -0.0 -0.0 -1.0 1.0 0.0 0.0 0.0 1.0 1.0 1.0 0.0 0.0 0.0 0.9283608334366013 0.0 1.0 0.0 0.3748333592440426 0.0 0.0 0.0 0.0 0.0 0.5680225454644505 0.7281589931445378 0.0 1:5.88066E-4 2:0.002580909 3:0.01596623 4:0.017455578 5:1.0 6:0.054110218 7:6.31123E-5 8:0.82876074 9:0.8186052 10:0.8687084 11:0.8738303 12:0.0 13:0.8172116 14:0.73124033 15:0.7006685 16:1.0 17:0.4502756 18:0.38913938 19:0.3843087 20:0.5973383 21:0.0 
-1.0 -0.0 -0.0 -0.0 -0.0 -0.0 -0.7890689799590772 -1.0 -0.0 -0.0 -0.0 -0.0 -0.0 -1.0 -0.34576440161483335 -0.0 -0.0 -0.0 -1.0 0.6948283749527893 0.5502385309753095 0.6143785431979666 0.0 0.5581260316902944 0.7729827603868659 0.21123209795740544 0.0 0.5040553919648472 0.0 0.0 0.0 0.47820578876313957 0.0 0.0 0.6644539628335427 -0.0 0.0 0.0 0.0 0.0 0.0 0.0 1:3.93351E-4 2:9.25896E-4 3:0.005821331 4:0.00616206 5:1.0 6:0.026347078 7:6.20899E-4 8:0.84924644 9:0.8474581 10:0.8657505 11:0.8668527 12:0.0 13:0.8466722 14:0.7642731 15:0.47540084 16:1.0 17:0.49226537 18:0.43630117 19:0.99123085 20:0.96504104 21:0.0 
-0.711900508203454 -0.1591846691551478 -0.15640972884946494 -0.1561637970547246 -0.22988536072637478 -0.15266948259092727 -0.4444703694848097 -1.0 -0.14860909425743357 -0.14473763975642573 -0.13291017336907376 -0.15509774548379118 -0.0 -0.16906299120815582 -0.11165978864486473 -0.1450457006255283 -0.15097690377052067 -0.15031571847973066 -1.0 -0.5846470184210265 1.0 1.0 0.15775256907970503 0.31963318640927124 1.0 0.11892962995484717 0.1486386071227896 1.0 0.14354878786554526 0.21363128563950548 0.14689741948335694 0.2381074050636207 0.14685651641240438 0.19343326684964476 0.32026511816274245 0.13108543451526453 0.15509881629013264 0.12732237363063104 0.14335098287709588 0.0 0.0 0.12000481549660279 1:8.6696E-6 2:1.52318E-5 3:1.95419E-4 4:1.97798E-4 5:1.0 6:0.002640903 7:0.0 8:0.8720984 9:0.8720919 10:0.87276953 11:0.8727424 12:0.0 13:0.8719548 14:0.82781184 15:0.007090121 16:0.0376269 17:0.029199922 18:0.028560823 19:1.0 20:0.1888777 21:0.0 
-1.0 -0.0 -0.0 -0.0 -0.07534567133170568 -0.0 -1.0 -1.0 -0.0 -0.0 -0.0 -0.0 -0.8486362798298794 -0.8309370087918442 -1.0 -0.0 -0.0 -0.0 -1.0 -1.0 1.0 0.7299151647457223 0.0 1.0 1.0 0.6638066173696135 0.0 0.0414334048203549 0.0 0.0 0.0 1.0 0.0 0.0 1.0 0.0 0.0 0.0 0.0 0.0 0.0 0.0 1:1.9842E-4 2:2.24415E-4 3:7.48693E-4 4:7.58291E-4 5:1.0 6:0.005595976 7:1.4712E-4 8:0.9396449 9:0.93960065 10:0.941664 11:0.9416857 12:0.0 13:0.9394869 14:0.93930167 15:0.21645592 16:1.0 17:0.1131712 18:0.08967972 19:0.18809497 20:0.38339642 21:0.0 
-1.0 -0.0 -0.0 -0.0 -0.0 -0.0 -1.0 -0.0 -0.0 -0.0 -0.0 -0.0 -0.15136372017012062 -0.0 -0.0 -0.0 -0.0 -0.0 -1.0 -0.0 0.03923697251035342 0.0 0.0 1.0 0.24700289993815133 0.4126036317963298 0.0 0.0 0.0 0.0 0.0 0.7618925949363792 0.0 0.0 0.0 0.0 0.0 0.0 0.0 0.0 0.40288924118089775 0.0 1:5.94982E-6 2:1.3511E-5 3:2.21207E-4 4:2.22542E-4 5:1.0 6:0.002870397 7:4.5907E-6 8:0.99674565 9:0.9967358 10:0.9976046 11:0.997594 12:0.0 13:0.99666494 14:0.9958507 15:0.15176378 16:1.0 17:0.002613558 18:6.62798E-4 19:1.84445E-4 20:0.0 21:1.95167E-4 
-1.0 -0.32834492296651385 -0.12362697763941267 -0.13012919658210004 -1.0 -0.14810264495823358 -1.0 -1.0 -0.13107232802059346 -0.1347853466537832 -0.2255716132546019 -0.12924030935455288 -1.0 -1.0 -1.0 -0.1396053276524125 -0.1289049942609994 -0.12908184298149417 -1.0 -0.8994438295046087 0.0 0.0 0.1253801699710169 1.0 1.0 1.0 0.13102252347084045 0.17932276722173526 0.14022032503993706 0.852923063374764 0.13220056619990206 1.0 0.13399162516060717 0.455735219686907 0.0 0.15017945708633837 0.12383655572324549 0.17755856218340238 0.1401706420755156 1.0 0.5971107588191022 0.15567820747979325 1:8.8229E-4 2:0.001036249 3:0.00305104 4:0.003190226 5:1.0 6:0.01469834 7:5.58796E-4 8:0.9603112 9:0.9598553 10:0.96710056 11:0.968796 12:0.0 13:0.9610126 14:0.9788466 15:0.36837572 16:1.0 17:0.051150616 18:0.02004782 19:0.006013677 20:0.038411487 21:0.0 
-0.0 -0.0 -0.02057516528625273 -0.034476042013750825 -0.0 -0.3192628469329952 -0.0 -1.0 -0.0 -0.0 -0.0 -0.03320994076780634 -0.0 -0.0 -0.0 -0.0 -0.0 -0.009820619524292678 -1.0 -0.0 -0.0 1.0 0.050143570537336285 0.0 0.0 0.0 0.0 0.34502283416353324 0.0 0.0 0.001969770375777613 0.0 0.0 0.0 0.0 0.0 0.004448691660364273 0.0 0.0 0.0 0.0 0.0 1:2.5714E-5 2:3.53312E-5 3:2.59355E-4 4:2.66411E-4 5:1.0 6:0.003157439 7:0.0 8:0.8088693 9:0.8088611 10:0.8096737 11:0.80962545 12:0.0 13:0.8086346 14:0.6970771 15:0.00175796 16:0.006277119 17:0.012627695 18:0.011676339 19:1.0 20:0.072436534 21:0.0 
-0.0 -0.0 -0.0 -0.0 -0.19459051962530488 -1.0 -0.0 -0.0 -0.0 -0.0 -0.0 -0.0 -0.0 -0.0 -0.0 -0.9897679476325567 -0.0 -0.0 -0.0 -0.0 -0.0 0.0 0.0 0.0 0.09314490914747053 0.0 0.0 0.0 0.9918461484741428 0.0 0.0 0.31526316618535066 0.0 0.0 0.0 0.9887328667095895 0.0 0.33187388620374747 0.0 0.0 0.0 0.5217788999078371 1:1.0 2:0.2753715 3:0.21047433 4:0.33289945 5:0.040262677 6:0.11665736 7:0.0 8:1.0 9:0.009578071 10:0.05240612 11:0.14439783 12:0.0 13:0.011100454 14:0.00364035 15:1.0 16:0.09333967 17:0.031332716 18:0.006793523 19:3.1781E-5 20:5.47475E-4 21:0.0 
-1.0 -0.41160250234273205 -0.0 -0.0 -0.6081629116077469 -0.0 -0.7925560795263161 -1.0 -0.0 -0.0 -0.2159910483326304 -0.0 -0.6911342257105447 -0.8298090721868209 -0.7729195265292685 -0.010232052367443248 -0.0 -0.0 -1.0 -1.0 -1.0 0.0 0.0 0.8063532034758595 1.0 0.8057409409642302 0.0 0.6436413259961702 0.00815385152585714 0.6171398744975588 0.0 0.9634489489679461 0.0 0.6013579794532152 0.9728388158051072 0.011267133290410533 0.0 0.1284364786163726 0.004986935835506973 0.5994129436806781 0.8349617989292056 0.09020877679677575 1:7.1909E-5 2:8.10551E-5 3:3.05116E-4 4:3.12402E-4 5:1.0 6:0.003173362 7:9.59687E-5 8:0.84727734 9:0.84726834 10:0.84806854 11:0.8480675 12:0.0 13:0.8471577 14:0.78320885 15:0.002893341 16:0.015725171 17:0.021252463 18:0.018900365 19:1.0 20:0.12022516 21:0.0 
-0.0 -0.0 -1.0 -1.0 -0.0 -1.0 -0.0 -0.0 -0.0 -1.0 -0.0 -1.0 -0.0 -0.0 -0.0 -0.0 -1.0 -1.0 -0.0 -0.0 -0.0 0.0 1.0 0.0 0.0 0.0 1.0 0.0 0.0 0.0 1.0 0.0 0.0 0.0 0.0 0.0 0.0 0.0 0.0 0.0 0.0 0.0 1:1.0 2:0.2511353 3:0.17586792 4:0.29809704 5:0.028845591 6:0.09770731 7:0.0 8:1.0 9:0.011164895 10:0.037210044 11:0.13572773 12:0.0 13:0.011099368 14:0.002828168 15:1.0 16:0.07742202 17:0.023822164 18:0.002816651 19:7.99779E-5 20:0.0 21:7.2484E-5 
-0.3635539081074296 -0.9717361236737324 -0.0 -0.0 -1.0 -1.0 -0.1901737857811111 -0.0 -0.0 -0.0 -0.7840089516673696 -0.0 -0.296798403738054 -0.55757838125657 -0.7533623419497681 -1.0 -0.0 -0.0 -0.9438445864512652 -0.5001639595504871 -0.08047758277004893 0.0 0.0 0.17930550506947165 1.0 0.4905326134251992 0.0 1.0 1.0 0.9774362133758966 0.0 1.0 0.19724407114178372 0.9502564701720024 0.013689049041227386 1.0 0.0 1.0 0.995013064164493 0.18161908498071838 0.10663729407920026 1.0 1:1.0 2:0.33624333 3:0.2739784 4:0.38933855 5:0.06106758 6:0.15591699 7:0.0 8:1.0 9:0.006827764 10:0.06710819 11:0.14344878 12:0.0 13:0.008730646 14:0.005435093 15:1.0 16:0.13535973 17:0.007698808 18:0.002581831 19:2.74881E-6 20:3.42033E-4 21:0.0 
-0.0019346795158450144 -0.0 -0.0 -0.0 -0.0 -0.0 -0.0 -1.0 -0.0 -0.0 -0.0 -0.0 -0.0 -0.0 -0.0 -0.0 -0.0 -0.0 -1.0 -0.050074571424822335 -0.9587593897403044 0.8692905104973265 0.0 0.0 0.8622996777627 0.0 0.0 0.0 0.0 0.0 0.0 0.0 0.0 0.0 0.0 0.0 0.0 0.0 0.0 0.0 0.0 0.0 1:7.23425E-5 2:8.11522E-5 3:2.96649E-4 4:3.03524E-4 5:1.0 6:0.003100918 7:6.53063E-5 8:0.8342851 9:0.83427685 10:0.8350492 11:0.83503205 12:0.0 13:0.8341285 14:0.7592848 15:0.003139837 16:0.011736655 17:0.017998423 18:0.016346838 19:1.0 20:0.099677816 21:0.0 
-0.0 -0.0 -1.0 -1.0 -0.0 -1.0 -0.0 -0.9926405508224869 -1.0 -1.0 -0.0 -0.9667900592321936 -0.0 -0.0 -0.0 -0.0 -1.0 -1.0 -0.0 -0.0 -0.0 0.1307094895026735 1.0 0.0 0.0 0.0 1.0 0.0 0.0 0.0 1.0 0.0 0.0 0.0 1.0 0.0 0.0 0.0 0.0 0.0 0.0 0.0 1:1.0 2:0.2654231 3:0.1770462 4:0.2748226 5:0.025633067 6:0.090508156 7:0.0 8:1.0 9:0.005685282 10:0.036085933 11:0.11052453 12:0.0 13:0.006322954 14:0.002595661 15:1.0 16:0.095511995 17:0.0065693 18:0.003402055 19:3.83231E-6 20:4.94486E-4 21:0.0 
-0.0 -0.0 -0.0 -0.9655239579862491 -0.0 -1.0 -0.0 -0.0 -0.0 -0.0 -0.0 -0.0 -0.0 -0.0 -0.0 -0.0 -0.0 -0.0 -0.0 -0.0 -0.0 0.0 0.9498564294626637 0.0 0.0 0.0 0.0 0.0 0.0 0.0 0.9980302296242225 0.0 0.0 0.0 0.0 0.0 0.0 0.0 0.0 0.0 0.0 0.0 1:1.0 2:0.26984698 3:0.2046632 4:0.3257991 5:0.03851224 6:0.11252011 7:0.0 8:1.0 9:0.009954716 10:0.051281247 11:0.14332233 12:0.0 13:0.011187577 14:0.003554169 15:1.0 16:0.08985892 17:0.03332427 18:0.007501623 19:3.79176E-5 20:6.48382E-4 21:0.0 
-0.0 -0.0 -0.9794248347137473 -0.0 -0.0 -1.0 -0.0 -0.0 -0.0 -1.0 -0.0 -0.0 -0.0 -0.0 -0.0 -0.0 -0.0 -0.9901793804757073 -0.0 -0.0 -0.0 0.0 1.0 0.0 0.0 0.0 0.0 0.0 0.0 0.0 1.0 0.0 0.0 0.0 0.0134721351536654 0.0 0.0 0.0 0.0 0.0 0.0 0.0 1:1.0 2:0.27049443 3:0.20326939 4:0.32202226 5:0.037499793 6:0.11103439 7:0.0 8:1.0 9:0.009362943 10:0.05026018 11:0.14011948 12:0.0 13:0.010580566 14:0.003460391 15:1.0 16:0.09118121 17:0.03059525 18:0.007155505 19:3.29401E-5 20:6.57006E-4 21:0.0 
-0.0 -0.0 -1.0 -1.0 -0.0 -1.0 -0.0 -1.0 -1.0 -1.0 -0.0 -1.0 -0.0 -0.0 -0.0 -0.0 -1.0 -1.0 -0.0 -0.0 -0.0 0.0 1.0 0.0 0.0 0.0 1.0 0.011335839840296678 0.0 0.0 1.0 0.0 0.8027559288582162 0.0 1.0 0.0 0.9955513083396357 0.0 0.0 0.0 0.0 0.0 1:1.0 2:0.2495349 3:0.17257322 4:0.28967246 5:0.028373951 6:0.093808815 7:0.0 8:1.0 9:0.009344892 10:0.038116574 11:0.13028286 12:0.0 13:0.009448541 14:0.002538524 15:1.0 16:0.08012712 17:0.021961426 18:0.007582458 19:2.48184E-5 20:7.83364E-4 21:0.0 
-1.0 -0.0 -0.0 -0.0 -0.7413980482721282 -0.0 -0.7737253625171361 -1.0 -0.0 -0.0 -0.0 -0.0 -0.7009947126518044 -0.9245033817115292 -0.8032090799076134 -0.0 -0.0 -0.0 -1.0 -1.0 -1.0 -1.0 0.0 0.7791131114036232 1.0 0.8040266392357054 0.0 1.0 0.0 0.7270292987577713 0.0 1.0 0.0 0.3820185137628005 1.0 0.0 0.0 0.0 0.0 0.6045359106541585 0.7489431368698017 0.0 1:4.44924E-4 2:5.86549E-4 3:0.002079182 4:0.002162297 5:1.0 6:0.012442662 7:7.00922E-5 8:0.7239067 9:0.72374403 10:0.72936267 11:0.7284683 12:0.05242413 13:0.7222084 14:0.5 15:0.004768158 16:0.013813403 17:0.03293672 18:0.031203013 19:1.0 20:0.11161778 21:0.0 
-0.012461819218275227 -0.469338281089783 -0.3205677106713788 -0.3255180198660891 -0.0 -0.33473167585169855 -0.0 -1.0 -0.31732627999236335 -0.31614293825173556 -0.36457675386472116 -0.3242023096697099 -0.0 -0.0 -0.0 -0.3191729267036595 -0.3183579325365148 -0.3188317720570811 -1.0 -0.10756455482695002 -0.7299151647457223 -1.0 0.32403739048303526 0.0 0.9322507799344555 0.0 0.31745639749497634 0.3647942834996287 0.31962693726795877 0.0 0.3179141882174437 0.058486338159160885 0.31755478632270656 0.19083889360438588 0.3205157198310584 0.31030937877908016 0.3195051047590278 0.31911789693133114 0.3178086422958464 0.0 0.0 0.2948117010932835 1:4.12408E-4 2:4.92843E-4 3:0.001461884 4:0.001503023 5:1.0 6:0.009294309 7:1.13869E-4 8:0.71654224 9:0.7164696 10:0.7200185 11:0.71936834 12:0.08450535 13:0.7152952 14:0.5 15:0.001617005 16:0.006429527 17:0.018982867 18:0.018240424 19:1.0 20:0.078660004 21:0.0 
-0.0 -0.0 -1.0 -1.0 -0.0 -1.0 -0.0 -0.0 -0.0 -1.0 -0.0 -1.0 -0.0 -0.0 -0.0 -0.0 -1.0 -1.0 -0.0 -0.0 -0.0 -1.0 -0.0 0.0 0.0 0.0 1.0 0.0 0.0 0.0 1.0 0.0 0.0 0.0 0.0 0.0 0.0 0.0 0.0 0.0 0.0 0.0 1:1.0 2:0.13458587 3:0.056175955 4:0.16772139 5:0.00545541 6:0.036417633 7:0.0 8:1.0 9:0.03264916 10:0.006810413 11:0.11209366 12:4.23856E-4 13:0.012457828 14:4.37636E-4 15:1.0 16:0.016315537 17:0.011421881 18:0.001074598 19:5.19551E-6 20:0.0 21:4.17641E-6 
-0.0 -0.0 -1.0 -0.0 -0.0 -1.0 -0.0 -0.2731672524596277 -0.0 -1.0 -0.0 -0.0 -0.0 -0.0 -0.0 -0.0 -0.0 -1.0 -0.0 -0.0 -0.0 -1.0 -0.0 0.0 0.0 0.0 0.0 0.0 0.0 0.0 1.0 0.0 0.0 0.0 0.0 0.0 0.8823508002951713 0.0 0.0 0.0 0.0 0.0 1:1.0 2:0.120534755 3:0.045258738 4:0.1563669 5:0.004198433 6:0.031872842 7:0.0 8:1.0 9:0.038629916 10:0.005955331 11:0.11238851 12:3.1729E-4 13:0.013145997 14:0.0 15:1.0 16:0.010595082 17:0.010189294 18:5.40594E-4 19:1.73544E-5 20:0.0 21:1.70615E-5 
-0.0 -0.0 -1.0 -1.0 -0.0 -1.0 -0.0 -1.0 -0.0 -0.0 -0.0 -0.0 -0.0 -0.0 -0.0 -0.0 -0.0 -0.0 -0.0 -0.0 -0.0 -1.0 -0.0 0.0 0.0 0.0 0.0 0.0 0.0 0.0 1.0 0.0 0.0 0.0 0.3063583887041521 0.0 0.0 0.0 0.0 0.0 0.0 0.0 1:1.0 2:0.117464066 3:0.045616508 4:0.1609398 5:0.004498174 6:0.03266452 7:0.0 8:1.0 9:0.04223891 10:0.00916233 11:0.11979233 12:7.8652E-4 13:0.015057794 14:3.88741E-4 15:1.0 16:0.008898857 17:0.014533551 18:0.001169651 19:3.22948E-6 20:0.0 21:1.91412E-6 
-0.0 -0.0 -0.0 -1.0 -0.07815723333350774 -1.0 -0.12757292948051654 -1.0 -1.0 -1.0 -0.0 -1.0 -0.0 -0.0 -0.0 -1.0 -1.0 -1.0 -0.1499114142936547 -0.0 -0.2831327390507219 -1.0 -0.32403739048303526 0.10576644178203928 0.25392069760911967 0.0 1.0 0.2816703010372146 1.0 0.0 1.0 0.3450681583435501 0.0 0.0 1.0 1.0 0.0 0.08987424589842144 0.0 0.10948384585421139 0.1772403894181132 0.14209667886663613 1:1.0 2:0.13063225 3:0.05957886 4:0.18407482 5:0.006604274 6:0.040264104 7:0.0 8:1.0 9:0.039211225 10:0.013565489 11:0.13119416 12:0.001088293 13:0.016633285 14:8.52258E-4 15:1.0 16:0.012791298 17:0.022190604 18:0.00289627 19:6.56492E-6 20:3.18801E-5 21:0.0 
-0.421929551978767 -0.8085678785982965 -1.0 -1.0 -1.0 -1.0 -0.1773929590425244 -0.0 -1.0 -1.0 -0.7793795203525599 -1.0 -0.34513133877776536 -0.5393784964877993 -0.6181382666153129 -1.0 -1.0 -1.0 -1.0 -0.5171086892210769 -0.0 -1.0 -0.0 0.1933164622809552 1.0 0.4473062022533871 1.0 1.0 1.0 0.8569157701370124 1.0 1.0 1.0 0.8084147499834481 0.9369040612012626 1.0 0.11764919970482868 1.0 1.0 0.1746218150806841 0.07176377189126028 1.0 1:1.0 2:0.23444892 3:0.15109055 4:0.26208267 5:0.020935573 6:0.080728285 7:0.0 8:1.0 9:0.010679731 10:0.028530069 11:0.120168 12:0.0 13:0.009277419 14:0.002153873 15:1.0 16:0.07039556 17:0.016870413 18:0.00165937 19:7.52847E-5 20:0.0 21:7.2945E-5 
-1.0 -0.0 -0.0 -0.0 -0.0 -0.0 -1.0 -1.0 -0.0 -0.0 -0.0 -0.0 -0.0 -1.0 -1.0 -0.0 -0.0 -0.0 -1.0 -1.0 -1.0 -0.9856587085453311 -0.7791131114036232 -0.0 1.0 0.08980453236382367 0.0 0.968240936880716 0.0 0.0 0.0 1.0 0.0 0.0 1.0 0.0 0.0 0.0 0.0 0.0 0.14183314276634942 0.0 1:5.87853E-5 2:9.6045E-4 3:0.008705387 4:0.00931449 5:1.0 6:0.03535913 7:2.20313E-5 8:0.91049 9:0.9060928 10:0.9347061 11:0.94015175 12:0.0 13:0.907887 14:0.87140995 15:0.5804224 16:1.0 17:0.15504968 18:0.11481642 19:0.050946113 20:0.20981376 21:0.0 
-0.0 -0.0 -0.0 -0.0 -0.0 -0.0 -1.0 -0.0 -0.0 -0.0 -0.0 -0.0 -0.0 -0.2812352365358058 -1.0 -0.0 -0.0 -0.0 -0.22554622173464578 -0.0 -1.0 -0.0 -0.0 -0.0 0.7178034767186248 1.0 0.0 0.0 0.0 0.0 0.0 0.11094325131931754 0.0 0.0 0.0 0.0 0.0 0.0 0.0 0.1357112396265826 0.0 0.0 1:0.00105491 2:0.003112507 3:0.018488929 4:0.019324522 5:1.0 6:0.056772374 7:0.0 8:0.94465274 9:0.92926306 10:0.9933995 11:1.0 12:0.0 13:0.9296722 14:0.92364585 15:0.7140944 16:1.0 17:0.009626877 18:0.00217452 19:9.23767E-4 20:0.0 21:9.34342E-4 
-1.0 -0.0 -0.0 -0.0 -0.0 -0.0 -1.0 -0.0 -0.0 -0.0 -0.0 -0.0 -0.0 -0.0 -0.0 -0.0 -0.0 -0.0 -1.0 -0.0 -1.0 -0.0 -0.0 -0.0 1.0 0.7535132898668706 0.0 0.0 0.0 0.0 0.0 1.0 0.0 0.0 0.0 0.0 0.0 0.0 0.0 0.0 0.8581668572336506 0.0 1:4.71707E-4 2:0.001884672 3:0.013262269 4:0.013871194 5:1.0 6:0.04568723 7:0.0 8:0.9566961 9:0.9475369 10:0.99439377 11:1.0 12:0.0 13:0.9485628 14:0.9273576 15:0.64400655 16:1.0 17:0.003349122 18:0.001980918 19:1.32535E-5 20:0.002077588 21:0.0 
-1.0 -0.6011624760437413 -0.29476450851234226 -0.3037636221426478 -1.0 -0.32748483241609816 -1.0 -0.8079642278690984 -0.29787691606968597 -0.2993797599490378 -0.4173181899487404 -0.3017032424947781 -1.0 -1.0 -1.0 -0.30721913172052145 -0.2974080728201408 -0.2973765827850294 -0.8301113402139427 -1.0 -0.0 -0.0 -0.0 -0.2990829040629945 0.0 1.0 0.2980848550645743 0.0 0.30804425142958675 1.0 0.29821544085242996 1.0 0.3006611344993381 0.8510073998636966 0.33038624227112556 0.3090485687427116 0.2939540646245399 0.34420476014659984 0.30617556800969187 0.0 0.0 0.3064373108177743 1:0.002008808 2:0.005477791 3:0.02831972 4:0.030320497 5:1.0 6:0.07695686 7:0.0 8:0.8893981 9:0.8603853 10:0.9495445 11:0.9632156 12:0.0 13:0.86131114 14:0.8280432 15:0.84981865 16:1.0 17:0.10755867 18:0.08752118 19:0.013036113 20:0.10732911 21:0.0 
-1.0 -0.0 -0.0 -0.0 -0.9621387829426696 -0.0 -1.0 -0.0 -0.0 -0.0 -0.0 -0.0 -1.0 -1.0 -1.0 -0.0 -0.0 -0.0 -0.0 -0.5581260316902944 -0.31963318640927124 -0.0 -0.0 -0.0 0.0 1.0 0.0 0.0 0.0 0.4892403202848485 0.0 0.0 0.0 0.0 0.0 0.0 0.0 0.0 0.0 0.8642887603734174 0.0 0.0 1:0.001359071 2:0.004255095 3:0.024026094 4:0.026084999 5:1.0 6:0.06959127 7:0.0 8:0.9133043 9:0.89016473 10:0.96450067 11:0.98239917 12:0.0 13:0.8944667 14:0.8613781 15:0.83331406 16:1.0 17:0.10264228 18:0.06666559 19:0.008805828 20:0.08478446 21:0.0 
-1.0 -0.4609791068217706 -0.0 -0.016835608935222193 -1.0 -0.07519460010022609 -1.0 -0.8947842244732667 -0.02106385018718525 -0.03547648609492978 -0.1903320765459585 -0.005163940666363707 -1.0 -0.9331522047521109 -1.0 -0.05467669930987852 -0.019226275742290994 -0.014422314372716984 -1.0 -0.5862461680924922 -1.0 -0.2124720352377706 -0.0 -0.012378127156907774 -1.0 1.0 0.020854695195307343 0.0 0.08522921845461073 1.0 0.025056110767686223 1.0 0.0 0.7362880764856612 0.0 0.11005010786711804 0.0 0.12492025114549762 0.0 0.8979250170589285 0.9974678706885634 0.1293686546446621 1:1.24585E-5 2:5.89668E-5 3:8.77904E-4 4:8.9626E-4 5:1.0 6:0.007325885 7:0.0 8:0.98421794 9:0.9841184 10:0.9874301 11:0.98759377 12:0.0 13:0.9841663 14:0.9881974 15:0.24879634 16:1.0 17:8.55528E-4 18:6.07486E-4 19:0.0 20:0.002425703 21:9.93751E-6 
-1.0 -0.008083425220101257 -0.0 -0.0 -0.37846045414525536 -0.0 -1.0 -1.0 -0.0 -0.0 -0.0 -0.0 -0.6639037700969643 -1.0 -1.0 -0.0 -0.0 -0.0 -1.0 -1.0 -1.0 -0.7429725516724001 -0.6174876488042279 -0.0 -1.0 1.0 0.0 0.0 0.0 0.12527948023927646 0.0 1.0 0.0 0.0 0.8377627620692303 4.2367545509449316E-4 0.0 0.0 0.0 0.0 0.0 0.0 1:9.97344E-6 2:5.11579E-5 3:7.90236E-4 4:8.15523E-4 5:1.0 6:0.006880804 7:2.30725E-5 8:0.9425451 9:0.9424656 10:0.9452335 11:0.94549674 12:0.0 13:0.94265836 14:0.9257371 15:0.2474592 16:1.0 17:0.107836016 18:0.09539594 19:0.16458552 20:0.38510135 21:0.0 
-0.5008551918195433 -1.0 -1.0 -1.0 -1.0 -1.0 -0.34129017453827026 -1.0 -1.0 -1.0 -0.7987382818711425 -1.0 -0.33609622990303567 -0.7130764783859296 -0.9099269772896424 -1.0 -1.0 -1.0 -1.0 -0.5049191055302111 -0.24700289993815133 -1.0 -0.31476313113022747 -1.0 -0.2842066473949337 0.7389773078873032 1.0 1.0 1.0 1.0 1.0 1.0 0.978835252068683 1.0 1.0 1.0 0.9576850771327076 1.0 0.985330132670112 0.10207498294107156 0.0025321293114367025 1.0 1:1.0 2:0.43586215 3:0.4322111 4:0.55772775 5:0.15489809 6:0.27611658 7:0.0 8:1.0 9:0.013441647 10:0.11460667 11:0.18915518 12:0.0 13:0.014958442 14:0.013442081 15:1.0 16:0.18998745 17:0.00224967 18:0.001326234 19:9.58154E-7 20:3.20822E-4 21:0.0 
-1.0 -0.10240298903502311 -0.24812611491700692 -0.25748471741647627 -0.07697491619878195 -0.24979586132185436 -0.5389964499445242 -1.0 -0.2385053866553598 -0.22550972885653603 -0.010929641582899094 -0.2585384555789565 -0.0 -0.14989638535912272 -0.09019426238857606 -0.22863334690656814 -0.23958336866822028 -0.2377312376807133 -1.0 -0.6818174867641627 -1.0 -1.0 -1.0 -0.2415425704522119 -0.433596829323691 0.16720712950941846 0.2387569119517033 1.0 0.19792965403303375 0.13800649640545398 0.2301716872013627 0.7663029418215648 0.021164747931316896 0.1622947277139486 0.4720672168507182 0.17048881785355813 0.04231492286729244 0.11420806142846765 0.014669867329887898 0.0 0.0 0.08612034979429949 1:1.81845E-4 2:2.66638E-4 3:0.001453714 4:0.00151705 5:1.0 6:0.009945701 7:4.14629E-5 8:0.8388569 9:0.83870745 10:0.8429635 11:0.84305555 12:0.0 13:0.8384066 14:0.7662949 15:0.03315238 16:0.105071515 17:0.10229647 18:0.08750671 19:1.0 20:0.30780783 21:0.0 
-0.16520913079069902 -1.0 -0.4363431510611168 -0.4608102380533137 -1.0 -0.5389914215515788 -1.0 -1.0 -0.4450749747123844 -0.4484070224389236 -0.7766050743018426 -0.45512669597072763 -0.0 -1.0 -1.0 -0.47555470480436923 -0.44468398110796276 -0.44358701799614014 -1.0 -0.4888248825710222 -0.0 -1.0 -0.7494841649032062 -0.4473062022533871 -0.8433178222306944 -1.0 0.44580573996371703 1.0 0.47805715558239165 1.0 0.4449943232379814 1.0 0.45329272810954063 1.0 0.9931074745413682 0.48396478301059653 0.4340207681989848 0.5904370252343217 0.469936129142493 0.0 0.0 0.4916081062398984 1:0.04063599 2:0.050748948 3:0.14173084 4:0.17620479 5:1.0 6:0.24142708 7:0.0 8:0.8939989 9:0.5855103 10:0.78437454 11:1.0 12:0.0 13:0.62892157 14:0.5134481 15:1.0 16:0.5094246 17:0.012208215 18:0.003926561 19:2.42986E-5 20:0.002401241 21:0.0 
-1.0 -0.0 -0.0 -0.0 -1.0 -0.0 -1.0 -0.0 -0.0 -0.0 -0.0 -0.0 -1.0 -1.0 -1.0 -0.0 -0.0 -0.0 -0.04279726041638818 -0.0 -1.0 -0.0 -0.0 -0.0 -1.0 -0.0 0.0 0.0 0.0 0.10801038716605907 0.0 0.6338975129547164 0.0 0.0 0.0 0.0 0.0 0.0 0.0 0.045786367338967064 0.0 0.0 1:0.017281985 2:0.026412264 3:0.08845673 4:0.10687037 5:1.0 6:0.17394072 7:0.0 8:0.8647191 9:0.69867635 10:0.8560248 11:1.0 12:0.0 13:0.7325782 14:0.6378858 15:1.0 16:0.62557817 17:0.012722706 18:0.006607928 19:5.46794E-5 20:0.004913185 21:0.0 
-1.0 -0.0 -0.0 -0.0 -0.0 -0.0 -1.0 -0.7111674174786844 -0.0 -0.0 -0.0 -0.0 -1.0 -1.0 -1.0 -0.0 -0.0 -0.0 -1.0 -0.7224072153863832 -1.0 -0.0 -0.054542474332499036 -0.0 -1.0 -1.0 0.0 0.0 0.0 0.0 0.0 1.0 0.0 0.0 0.5340136556248458 0.0 0.0 0.0 0.0 0.954213632661033 1.0 0.0 1:6.21195E-4 2:0.002797305 3:0.018735578 4:0.02124141 5:1.0 6:0.060359687 7:0.0 8:0.93593085 9:0.91929823 10:0.9712943 11:1.0 12:0.0 13:0.93022656 14:0.8726429 15:0.85359657 16:1.0 17:0.017579826 18:0.020373523 19:6.76735E-4 20:0.025569549 21:0.0 
-1.0 -0.12469153704620226 -0.0 -0.0 -1.0 -0.0 -1.0 -0.030548483756182417 -0.0 -0.0 -0.0 -0.0 -0.0 -1.0 -1.0 -0.0 -0.0 -0.0 -1.0 -1.0 -0.19533987912079046 -0.2962735543894294 -0.0 -0.0 -1.0 -0.9061844373967215 0.0 0.26918634772485506 0.0 1.0 0.0 1.0 0.0 1.0 0.0 0.0 0.0 0.0 0.0 0.0 0.0 0.0 1:0.034657273 2:0.04567361 3:0.13124897 4:0.15900445 5:1.0 6:0.22670187 7:0.0 8:0.8923309 9:0.6147813 10:0.82597876 11:1.0 12:0.0 13:0.64821225 14:0.55140007 15:1.0 16:0.5550495 17:0.025608756 18:0.009778226 19:1.22772E-4 20:0.006502676 21:0.0 
-0.0 -0.0 -1.0 -1.0 -0.16320341360641705 -1.0 -0.0 -1.0 -1.0 -1.0 -0.0 -1.0 -0.0 -0.0 -0.0 -1.0 -1.0 -1.0 -0.16674727821526825 -0.0 -0.0 -1.0 -0.0 -1.0 -0.0 -0.25961160714701065 -0.0 0.28033690708971143 1.0 0.0 1.0 0.36271544761113794 0.0 0.0 1.0 1.0 0.0 0.15827592192767462 0.0 0.0 0.0 0.25416165307741173 1:1.0 2:0.23556733 3:0.14340809 4:0.2514044 5:0.019027654 6:0.07708921 7:0.0 8:1.0 9:0.010173763 10:0.021105304 11:0.112696685 12:0.0 13:0.008295828 14:0.001898534 15:1.0 16:0.07155631 17:0.004265873 18:4.59777E-4 19:1.32184E-7 20:4.50092E-5 21:0.0 
-0.0 -0.0 -1.0 -1.0 -0.0 -1.0 -0.0 -1.0 -0.0 -1.0 -0.0 -1.0 -0.0 -0.0 -0.0 -0.0 -1.0 -1.0 -0.0 -0.0 -0.0 -1.0 -0.0 -1.0 -0.0 -0.0 -0.0 0.0 0.0 0.0 1.0 0.0 0.0 0.0 1.0 0.0 1.0 0.0 0.0 0.0 0.0 0.0 1:1.0 2:0.23053695 3:0.13748826 4:0.24582084 5:0.017925723 6:0.07425834 7:0.0 8:1.0 9:0.010481697 10:0.019199086 11:0.11154904 12:0.0 13:0.008241853 14:0.001799809 15:1.0 16:0.06881727 17:0.003192238 18:5.93336E-4 19:9.63254E-8 20:7.05291E-5 21:0.0 
-0.42044914640601605 -0.8064913832042557 -1.0 -1.0 -1.0 -1.0 -0.30374867390740157 -0.2529154929191317 -1.0 -1.0 -0.777865697165327 -1.0 -0.3440254646862203 -0.536036925988773 -0.6149308850804758 -1.0 -1.0 -1.0 -1.0 -0.5149506062212846 -0.27966113059363 -1.0 -0.31745639749497634 -1.0 -0.2980848550645743 -1.0 -0.44580573996371703 1.0 1.0 0.8539840902774716 1.0 1.0 1.0 0.8060154502887817 0.23635724348247952 1.0 0.0 1.0 1.0 0.2832180617399493 0.24800026550415616 1.0 1:1.0 2:0.23947889 3:0.14785083 4:0.26225266 5:0.021040864 6:0.08198339 7:0.0 8:1.0 9:0.010449112 10:0.021261249 11:0.1179822 12:0.0 13:0.008882245 14:0.002083542 15:1.0 16:0.0726622 17:0.002937213 18:5.68125E-4 19:4.86985E-8 20:6.73974E-5 21:0.0 
-0.3361402633295159 -0.9645891769549261 -1.0 -1.0 -1.0 -1.0 -0.18508592747950772 -1.0 -1.0 -1.0 -0.7794386155912483 -1.0 -0.28183114213109456 -0.5339806791041571 -0.731885083160444 -1.0 -1.0 -1.0 -1.0 -0.5040553919648473 -0.22075617204209017 -1.0 -0.3647942834996289 -1.0 -0.16473335584960935 -1.0 -0.46974791764978696 -1.0 1.0 0.9696215398525162 1.0 1.0 0.9939089974581085 0.9368689931324394 1.0 1.0 0.9815290868917363 1.0 0.993843766940181 0.1710307015990753 0.09395831680920966 1.0 1:1.0 2:0.34568644 3:0.28340018 4:0.3830365 5:0.06062826 6:0.15440466 7:0.0 8:1.0 9:0.006460368 10:0.07005601 11:0.13628355 12:0.0 13:0.00813574 14:0.005475094 15:1.0 16:0.14222023 17:0.009133009 18:0.002851424 19:4.78071E-6 20:4.73343E-4 21:0.0 
-1.0 -0.4205884317076935 -0.2760331389448403 -0.2951959582078254 -0.62831028968947 -0.32216707560024016 -0.7819825069941203 -1.0 -0.2801432343036575 -0.27828695348857496 -0.22056138440875178 -0.2908263341787136 -0.6836659667756259 -0.8554358770983533 -0.7756228465110593 -0.2908553832951495 -0.2797749848772964 -0.2768385936628765 -1.0 -1.0 -1.0 -1.0 -1.0 -0.2816703010372146 -0.8035075810311066 -1.0 -0.7994384300750681 -0.28033690708971143 0.29011897988241486 0.6147607690484554 0.27676686506150777 1.0 0.006091002541891544 0.6114773633077775 1.0 0.2590570919747909 0.018470913108263598 0.17441406475583524 0.006156233059818994 0.5881194432105719 0.8111105765434921 0.16214583217000722 1:6.62651E-5 2:1.04477E-4 3:7.49836E-4 4:7.70709E-4 5:1.0 6:0.006458393 7:2.17396E-5 8:0.8151245 9:0.81507325 10:0.81741714 11:0.8173513 12:0.0 13:0.814677 14:0.7217212 15:0.005857974 16:0.029726107 17:0.037465435 18:0.03692529 19:1.0 20:0.17373039 21:0.0 
-0.45957800428574463 -1.0 -1.0 -1.0 -1.0 -1.0 -0.24813646706668513 -1.0 -1.0 -1.0 -1.0 -1.0 -0.3621577490814948 -0.6576599123270205 -0.7149838962084143 -1.0 -1.0 -1.0 -1.0 -0.5887758490923779 -0.11372897615120947 -1.0 -0.0 -1.0 -0.26591652479282535 -1.0 -0.47805715558239165 -1.0 -0.3319897716129841 1.0 1.0 1.0 0.0 1.0 1.0 1.0 0.0 1.0 0.35452445911062225 0.25943960476146344 0.19535252246148954 1.0 1:1.0 2:0.42147565 3:0.4126274 4:0.55141085 5:0.14802362 6:0.26846787 7:0.0 8:1.0 9:0.01448509 10:0.10126112 11:0.1969026 12:0.0 13:0.018072262 14:0.013379366 15:1.0 16:0.17351 17:0.005523996 18:3.40809E-4 19:4.1193E-5 20:0.0 21:4.13471E-5 
-0.0 -0.09598343813227765 -1.0 -1.0 -0.3641692077496078 -1.0 -0.06467929543136376 -1.0 -1.0 -1.0 -0.0 -1.0 -0.0 -0.0 -0.0 -1.0 -1.0 -1.0 -0.19266178882188112 -0.0 -0.17004013675427285 -1.0 -0.31962693726795877 -1.0 -0.042127726636761384 -0.28315887248764454 -0.0 -1.0 -0.9581292082694308 0.12396048828784875 1.0 0.4560508122030977 1.0 0.006812570358911808 1.0 1.0 1.0 0.5860628531834162 0.6454755408893778 0.03317868024750259 0.05842346219544425 0.8280484989399718 1:1.0 2:0.26688555 3:0.19464816 4:0.35615957 5:0.04332305 6:0.12766577 7:0.0 8:1.0 9:0.016001943 10:0.032845665 11:0.1691149 12:0.0 13:0.016642103 14:0.004333116 15:1.0 16:0.075529836 17:0.017509563 18:6.62019E-4 19:8.19738E-5 20:0.0 21:8.18491E-5 
-0.7861223268026251 -1.0 -0.18289800842802442 -0.1634403781836406 -1.0 -0.35426785546046896 -0.5190990536757454 -0.7348640130687836 -0.16073770054236752 -0.14309834200634766 -0.10005003237479465 -0.18057279280320904 -0.8897544033556491 -1.0 -1.0 -0.10596067477149923 -0.1613906122490119 -0.16276790671669303 -1.0 -0.9283608334366013 -0.06655434901426951 -0.8528737343781181 -0.0 -0.1622046545452126 -0.4892403202848484 -1.0 -1.0 -0.1594896172051306 -1.0 -0.12396048828784875 0.15395724478783926 1.0 0.14412872733834942 1.0 0.665117149675872 0.2500907778285876 0.19366307175151598 0.7356157208373795 0.0904466795382263 0.0 0.0 0.5430700511526086 1:0.14304633 2:0.14294596 3:0.30283454 4:0.36188108 5:1.0 6:0.39293578 7:0.0 8:1.0 9:0.36543128 10:0.6938208 11:0.8521616 12:0.0 13:0.3773369 14:0.3492572 15:1.0 16:0.4500148 17:0.039778404 18:0.005344295 19:6.36045E-5 20:0.00117652 21:0.0 
-1.0 -0.584824040003956 -0.0 -0.0 -1.0 -0.0 -1.0 -1.0 -0.0 -0.0 -0.0 -0.0 -1.0 -1.0 -1.0 -0.0 -0.0 -0.0 -1.0 -1.0 -1.0 -0.19162294175452077 -0.7270292987577713 -0.0 -1.0 -1.0 -1.0 -0.0 -0.042777000820775825 -0.0 0.0 1.0 0.0 1.0 1.0 0.0 0.0 0.0 0.0 1.0 1.0 0.0 1:0.09448681 2:0.103402615 3:0.23735164 4:0.28054038 5:1.0 6:0.3322394 7:0.0 8:1.0 9:0.46485415 10:0.7954225 11:0.94654465 12:0.0 13:0.47764483 14:0.44600186 15:1.0 16:0.49640626 17:0.050181393 18:0.008532413 19:1.64111E-4 20:0.002645703 21:0.0 
-0.0 -1.0 -0.5785704749322014 -0.7480667205077987 -1.0 -1.0 -0.0 -0.0 -0.6886995335780004 -0.7619761915970271 -0.8999499676252054 -0.6724178529750002 -0.0 -0.6854623193564674 -0.8048475575518738 -1.0 -0.6839090347601999 -0.6733360505273783 -0.293823765669685 -0.0 -0.0 -0.5500794117408165 -0.0 -0.6947111155917997 -0.0 -0.2632859766447304 -0.10801038716605907 -0.6944944730723409 -0.5416053080801958 -1.0 0.7089262609911912 0.666004473805801 0.7853355919887474 1.0 0.020270081704600585 1.0 0.5360313498120372 1.0 0.9095533204617736 0.0 0.0 1.0 1:0.714176 2:0.47913834 3:0.70841646 4:0.92977935 5:0.9164892 6:0.7068518 7:0.0 8:1.0 9:0.10663426 10:0.31556278 11:0.49064454 12:0.0 13:0.11956139 14:0.10617878 15:1.0 16:0.28255388 17:0.03293114 18:0.003154905 19:1.82017E-5 20:0.001140243 21:0.0 
-0.0 -0.0 -1.0 -0.0 -0.0 -1.0 -0.0 -1.0 -0.0 -0.0 -0.0 -1.0 -0.0 -0.0 -0.0 -0.0 -0.0 -0.8803135615489508 -0.0 -0.0 -0.019897873724120458 -1.0 -0.3179141882174437 -1.0 -0.0 -0.0 -0.0 -0.0 -0.0 -0.0 -0.0 0.0 0.0 0.0 1.0 0.0 1.0 0.0 0.0 0.0 0.0 0.0 1:1.0 2:0.1729878 3:0.07977302 4:0.17292602 5:0.006950698 6:0.042077262 7:0.0 8:1.0 9:0.016038934 10:0.005701403 11:0.090503305 12:0.0 13:0.007155576 14:6.32134E-4 15:1.0 16:0.039513525 17:0.00119926 18:5.77379E-5 19:2.18312E-6 20:0.0 21:2.18581E-6 
-0.0 -0.0 -1.0 -1.0 -0.151679772878586 -1.0 -0.0 -0.0 -1.0 -1.0 -0.0 -1.0 -0.0 -0.0 -0.0 -1.0 -1.0 -1.0 -0.15923262659529805 -0.0 -0.0 -1.0 -0.0 -1.0 -0.0 -0.25522779796904893 -0.0 -1.0 -0.27676686506150777 -1.0 -0.0 0.3549970951190019 0.0 0.0 0.0 1.0 0.0 0.1419606221659134 0.0 0.0 0.0 0.2302785495017013 1:1.0 2:0.22608086 3:0.12969461 4:0.22412679 5:0.014401184 6:0.06535147 7:0.0 8:1.0 9:0.008876063 10:0.018143332 11:0.09860517 12:0.0 13:0.006584862 14:0.001450196 15:1.0 16:0.06989234 17:0.001627198 18:1.90414E-4 19:2.83549E-8 20:1.84747E-5 21:0.0 
-0.0 -0.0 -1.0 -1.0 -0.0 -1.0 -0.0 -0.25309870216053965 -0.0 -1.0 -0.0 -0.0 -0.0 -0.0 -0.0 -0.0 -1.0 -1.0 -0.0 -0.0 -0.0 -1.0 -0.0 -1.0 -0.0 -0.0 -0.0 -1.0 -0.0 -0.0 -0.0 0.0 0.0 0.0 0.0 0.0 0.0 0.0 0.0 0.0 0.0 0.0 1:1.0 2:0.1926079 3:0.09740844 4:0.19052067 5:0.00921296 6:0.049741834 7:0.0 8:1.0 9:0.01278619 10:0.009945758 11:0.09286889 12:0.0 13:0.006859959 14:9.05596E-4 15:1.0 16:0.05041409 17:0.002031768 18:2.22561E-4 19:3.34476E-8 20:2.08818E-5 21:0.0 
-0.0 -0.0 -1.0 -1.0 -0.0 -1.0 -0.0 -1.0 -0.0 -1.0 -0.0 -1.0 -0.0 -0.0 -0.0 -0.0 -0.0 -1.0 -0.0 -0.0 -0.0 -1.0 -0.0 -1.0 -0.0 -0.0 -0.0 -0.0 -0.0 -0.0 -0.0 0.0 0.0 0.0 0.5153850236502566 0.0 0.0 0.0 0.0 0.0 0.0 0.0 1:1.0 2:0.18500553 3:0.09123102 4:0.18464743 5:0.008449955 6:0.047023878 7:0.0 8:1.0 9:0.014016892 10:0.008898701 11:0.09267005 12:0.0 13:0.007051562 14:8.33502E-4 15:1.0 16:0.046030387 17:0.002958217 18:3.56815E-4 19:6.9261E-8 20:3.32772E-5 21:0.0 
-0.4206300939388905 -0.8133587503281778 -0.0 -1.0 -1.0 -1.0 -0.30391363264626825 -0.0 -1.0 -1.0 -0.785917196734822 -0.0 -0.3440106003436907 -0.5355361681276324 -0.6135931394605839 -1.0 -1.0 -0.11968643845104918 -1.0 -0.5153899552078446 -0.2592001119591385 -1.0 -0.0 -1.0 -0.29821544085242996 -1.0 -0.4449943232379814 -1.0 -1.0 -1.0 -0.8628835057790303 1.0 1.0 0.811642504589202 0.7173941808583865 1.0 0.0 1.0 1.0 0.2832883260303023 0.24800389780845936 1.0 1:1.0 2:0.25751165 3:0.16490255 4:0.25994283 5:0.021591855 6:0.08330755 7:0.0 8:1.0 9:0.00673875 10:0.029206434 11:0.10598873 12:0.0 13:0.006591205 14:0.002162605 15:1.0 16:0.08879752 17:0.003495055 18:5.15025E-4 19:1.79813E-7 20:6.61374E-5 21:0.0 
-0.28440736699716046 -1.0 -1.0 -1.0 -1.0 -1.0 -0.12795636522954384 -1.0 -1.0 -1.0 -0.6172305865100398 -1.0 -0.0 -0.6749739242182735 -0.8817947592210821 -1.0 -1.0 -1.0 -0.7877529641873967 -0.2303329630910659 -0.0 -1.0 -0.23151647704191453 -1.0 -0.11094325131931754 -0.9274022463532569 -0.6338975129547164 -1.0 -1.0 -1.0 -1.0 -1.0 0.9941077168370864 1.0 1.0 1.0 0.982371723781575 1.0 0.9958760799968145 0.0 0.0 1.0 1:1.0 2:0.41800725 3:0.40836954 4:0.56662136 5:0.1567978 6:0.27750355 7:0.0 8:1.0 9:0.017122816 10:0.09096512 11:0.21182501 12:0.0 13:0.022310035 14:0.015049495 15:1.0 16:0.1631084 17:0.002032972 18:4.84814E-4 19:0.0 20:3.0524E-5 21:4.31834E-8 
