svm_type c_svc
kernel_type linear
nr_class 45
total_sv 159
rho 0.5222829380617378 -0.768311202750585 -1.2359571257549766 -1.4378169506904825 -1.3839134610982706 -1.1451576333815225 -1.6371563398438944 0.5095711706142917 -1.0828717533712815 0.057720459848994085 -1.3004187406910956 0.4334479155754818 0.5114252079943715 0.5212862353397093 -1.0839832625512646 -1.4574474105429251 -1.04694380679845 -0.9746385945512515 -0.38930959185197683 -1.599053876289916 0.11549687419391935 -1.7692368126401579 -1.4845050779398632 -1.2976066005500668 -1.2247001185634738 -1.1123971189879962 -1.0317149306357782 -1.3380529721544991 -1.4078650274974187 -1.4818263403269754 -1.3654927435872672 0.5219025177611388 -1.1178567177068008 -1.2728488493380745 0.4393631318747829 0.3893705468274802 -0.7967979566358444 -1.2280014618061428 0.4431851421716833 -1.0128695964813232 -1.1962696551348453 -1.4302552626038258 -1.2267653395390534 -1.2996892104727866 -0.8905740836083189 -1.5683498357351153 -1.9153588038409466 -1.3750592513008506 -1.0011673112861654 -1.6292205740646182 -0.7039351328623522 -1.3864721639151714 0.0076598528589130865 -1.567897448689702 -9.015798568725586E-4 0.7017292887286741 0.7475867693711123 -0.9301192760467529 -1.933469059836893 -0.9775562286376953 -1.3249782950924898 -1.256895227194596 -2.073801389217248 -0.40379206180040483 -1.919153520107698 -1.4303727110085276 -1.5786363021752385 -1.6268095040481416 -0.9978776380775782 -1.1040824166995165 -1.8044867606038506 -1.4152329488902058 -1.5852765677427891 -1.8265566847414987 -0.6930880276656184 -1.8397853604127437 -1.7994710896130448 -0.8494445983094263 -0.9005260467529297 -0.6481513214479909 -1.1958030403384352 -1.0061218288326104 -0.8034226193825698 -1.0353401378466434 -1.4454846812014879 -1.5401757141835017 -1.327985444300417 0.1490365329646647 -1.6854647067319073 -1.3897061151541341 0.31309924151246293 -1.5877843091915775 0.4105301515248951 -1.403930276032316 -0.07222155534205588 -1.5496101610462887 0.6855926724980673 0.39519100131407003 0.4160008403323503 0.38146414843466736 -1.491804179981158 -1.0065428670940744 -1.0888290703296661 -0.5500734698591174 -1.9724952883772877 0.23940827593466205 -1.7954565786072418 -1.4320613450883162 -1.547638093886252 -1.5851369543280682 -1.0873171630022065 0.3800012633451205 -1.5856339419792813 -0.15786234935690016 -1.5702976373397142 -1.6515372789951956 0.4238150416040628 0.11612065699152972 -1.5787952928089093 0.3687781151702456 0.37477498034055196 -0.7195274568913472 -1.242200696523834 0.33888223451904714 0.42752297386976323 0.24802661320609926 -1.4387723687874947 -1.533096101167755 -1.3417498793654072 -1.235417127609253 -1.3228405267699481 0.6814947718807349 -0.34844999563438284 0.7470229324829994 -1.1052539873524472 0.016303195251843355 -1.4494752883911133 1.4003986417662375 0.7201445550957735 0.7523139962838351 0.7266825501031635 -2.069452222926252 -1.0372047606005808 -0.43950765230006356 -0.4698382372023162 -1.2553188881149464 0.17509956210054184 -1.3107249736785889 -1.3160972595214844 -1.7659777595529018 -1.6903036617767113 -1.1233737673206 1.3299351051570458 -2.058369528627624 -0.4123760461807251 -0.6782045364379885 -1.0803162070607044 0.7484752951405835 -0.28057337317350406 -1.4445495652585312 0.7285378981805579 0.7162708934883324 -0.7671199762178808 -1.2709612493043285 0.5478628873825073 0.7471489293356464 0.5774341821670532 -1.2876758511314645 -1.2398481369018555 -1.3549759422652805 -1.4755564200269065 1.130471986969422 0.34955344263157606 0.880320291473184 -1.1144142150878906 0.20348406387607845 -1.4181444644927979 1.6514022863183897 1.0221053323171925 0.9280531844707602 1.0122723426343507 -0.10351207424120323 1.006263052429006 1.5431960410158976 1.7872586637514125 0.1702510118484497 0.923443886854972 -0.7555971606590374 -1.3901136114894812 -0.9292483329772949 -1.2783045768737793 1.109021639144967 1.4909701662767816 -0.4548506736755371 0.9518262063475956 -0.051528817886979494 0.882173631373287 0.90374361326158 0.0982209124728146 -0.8660240173339844 0.9980706121938049 1.0274126075657353 -0.6661369006021651 0.623308539390564 0.9996559383535576 0.8876796654334091 1.1355445429247368 -1.340864209142325 -1.0280296877210722 0.3002531528472898 0.6415167667302891 2.0936636924743652 0.6658389691811446 -0.9145761108727062 0.9829381808772724 -0.7702610492706299 1.3139891959077703 0.6483314782997154 0.6543481309794381 0.6500264075569204 0.8160128593444824 0.6508722273795731 1.4764506708360763 1.4599661185936086 1.2967336177825928 0.5365156198834392 0.519528113073962 -1.489426683077949 0.5658209680783182 0.38019537925720215 0.6301307623118066 1.0108885835957204 0.3350831600272466 0.5282470340798407 1.9126653671264648 0.9243349528467875 0.6598670523707957 0.42372282396357847 1.2053124904632568 0.6597648310439578 0.6476513518857354 -0.0540717304201628 0.5593595610280491 0.6138845672056077 0.6557475965388586 0.6223286847673961 -1.3493820101595622 0.33939480781555176 0.5019358998312667 -0.5610135704255685 1.105046033859253 -0.5968499463858532 -0.2610025896964976 -0.6678434669453529 1.0782277651249565 1.0657051801681519 1.1186621189117432 0.10032689571380615 -1.2739205326421736 -0.956051230430603 -0.6715879077622988 -1.2049472858404562 -1.316123277969728 0.9153106212615967 -0.7719872206646534 -0.6435176489380212 -0.6575591341403766 -0.6491065986352539 -1.041115403175354 1.1520553701048946 -1.4361008405685425 -0.7501711845397949 -0.5715086769940235 -0.9874628700428648 1.11219322681427 0.444546103477478 -1.0516943933820604 1.079267978668213 1.0682729482650757 -0.4753317988859009 -1.2032326459884644 0.9973301365788486 0.19684064388275146 -0.09893786907196045 -0.65030430260074 -0.633104612473955 -1.2891452312469482 0.5863517045154701 -0.8723161220550537 0.25999743996193125 -1.1914828204568064 1.475901082893887 0.5650416651164292 0.5723099150156786 0.5704414942778875 -0.2797091007232665 0.5702088043580492 1.950227853716963 1.5392194558119536 -0.3990435270709867 0.32787127153161766 -1.8389250510042077 -2.1067882077474285 -1.0020415782928467 -1.0485315865813956 0.5374300492295019 1.3636264589083102 -0.45808793055523284 0.2805694468692741 -0.9489054023322675 0.395348282034019 0.5727827810642045 -0.05724014973086794 -0.4217205462238134 0.5893782779727665 0.564307026704439 -0.24850060927684411 0.41125761021377616 0.5205387700764078 0.5717802068211434 0.532395289335058 -1.6610307693481445 -1.0811456348180282 0.2886768038028624 -0.6228516164913701 -0.29378954396147916 -0.6903401230037184 0.915393270202641 0.9468021392822266 0.973749041557312 -1.058462142944336 -1.1107007842173129 -1.028590202331543 -0.714306404011822 -0.8050326430264098 -1.084446753497079 0.4041481018066406 -0.7601078972274713 -0.667575959038081 -0.6757366943499217 -0.6688415392287426 -1.0715149641036987 -0.5795252449695593 -1.1409039842580613 -1.2773123979568481 -0.6025332074385504 -0.7675320050027243 -0.014329791069030762 -1.2602884522890658 -0.8219343208664359 -0.0962984561920166 -0.1755315065383911 -0.5014481274507039 -1.1436312198638916 0.7985771894454956 -0.997443675994873 -1.1434227228164673 -0.6736626199030669 -0.6471969182015092 -1.1825742721557617 0.7918613290110283 -0.012118816375732422 1.2840955143480965 0.604818051266234 0.6118594172578148 0.6065588956941609 1.0186498165130615 0.6074136165265456 1.234079839888271 1.2110888182840571 0.9632477760314941 0.5010303945492014 0.9954941272735596 0.8059968246984464 1.122297496810493 0.9153983444512823 0.5850474296547548 1.2292834053282924 0.28267875686222976 0.49469824696223136 1.1807129383087158 1.0393764884223442 0.6178594619091544 0.38769735465551486 1.0097322591543265 0.6154094102433246 0.6041163990034775 0.7580797672271729 0.5137365625053647 0.5666449007574961 0.6137678834321905 0.577000735755276 0.5239262580871582 0.7772705554962158 0.45706305341732306 -0.7196956104044645 -0.13894635450878717 0.2878729446252517 0.29012177606280115 0.27224510642993816 -0.08840151516163977 0.27286694692365143 -0.13850751273185907 0.17449381136442363 -0.4484573996876957 0.19696538569863845 -0.616816462221095 -1.0463504621233801 -0.8228341542292776 -0.7651253136779349 0.23789110603237432 -0.12295954057524339 -0.17017263586267214 0.1894672720263403 -0.3129826425612065 -0.4295302953679101 0.2931182449486255 0.07220077926748697 -0.01462935565989031 0.28756527182514996 0.27269472955304486 -1.7431411743164062 0.1559102536442559 0.2665080551980113 0.2920242748314543 0.25585141368008724 -1.0676429530592613 -0.18817459963418814 0.09577572174986458 1.4584440853669194 0.6730714104358381 0.6784018985328066 0.6752089902996624 1.1213014125823975 0.6756789652499671 1.4176481859785535 1.410797094791398 1.2104527950286865 0.554005743819459 1.0228304862976074 0.7689735889434814 1.1298940796724968 0.9999066302353572 0.6560809131531226 1.4015502653434404 0.3519895040984631 0.5268362223463875 1.3758089542388916 1.2386905814132518 0.6794045685505475 0.41636334551539217 1.1408662796020508 0.6860540355012643 0.672526004628742 0.5415105819702148 0.5856273383444084 0.6420616389269198 0.6792964513130608 0.6495794373722521 0.4547090530395508 0.7893893718719482 0.5257567314625565 0.5489784270722401 0.6314144167645356 -1.0048249850963225 -1.7805395379197817 -1.0000299978918752 -1.154837702140941 -0.8949552622159791 -1.8946711904924258 -0.9316121086833726 -1.7475996168012724 -1.3613608074250763 -1.1585506809960737 -1.1778956993063563 -1.0726047531833571 -1.0691083414522142 -1.5718463561894676 -1.4952957812264738 -1.4232555765736576 -1.4611323552039472 -0.9053295768259018 -1.6476947321685167 -1.4868103729540254 -1.0114753495922473 -1.0207240581512451 -0.4424500966759639 -1.2333966676096084 -1.1677577987081968 -0.9352580308914185 -1.1602390250534835 -1.3605917608822196 -1.3979392265915846 -1.335575893981436 -0.9435591697692871 -1.0032881779287839 -1.2309609822854581 -1.0009419682709078 -0.7126506989213715 -1.092398522412127 -1.2852103583102936 -1.5609999895095825 -0.7559557016696411 -0.6501770482153354 -0.6605204525591596 -0.6519053323142089 -1.0764895677566528 -0.560318079603792 -1.3148586174557142 -1.4050923585891724 -0.5787696654554416 -0.8902696494065161 -0.972781777381897 -1.4699163162441322 -0.9513096774869898 -1.0148553240266547 -1.0145149230957031 -0.4839336208669975 -1.2077499628067017 -1.074379324913025 -0.9819080829620361 -1.130521535873413 -0.6564230880014055 -0.6344928665999653 -1.2761542797088623 -1.051712155342102 -1.192246005292101 -1.0300774574279785 -0.7354603632385734 -0.9390131226167698 -1.166694883310388 -1.5287027146164591 -0.7478536159096396 -0.6564396303302636 -0.6640768149344749 -0.656289028631527 -1.0899354219436646 -0.568495360283476 -1.1983731828984099 -1.3813281059265137 -0.5879991162968696 -0.8051193250288341 -0.9940940141677856 -1.3984357049358582 -0.8644256674020693 -1.0385513305664062 -1.0912832021713257 -0.49423774971984363 -1.1860662698745728 -1.158335566520691 -0.9959136247634888 -1.1705238819122314 -0.6625263246577803 -0.6365803448015244 -1.2360689640045166 -1.2126401657356662 -1.0070751905441284 -0.7144783142284042 -1.0393833713177492 -1.2633705215038131 0.8035867037062566 -0.7602957580261827 -0.6519127253622514 -0.6630860574715932 -0.6551510121041948 -1.0774438381195068 1.0764414941829004 -1.302877288718697 -0.8696250915527344 -0.5828466302024694 -0.8807502662301961 1.0603927373886108 0.17126691341400146 -0.9420640880652703 1.0128400325775146 0.9906940460205078 -0.48549104460139575 -1.2014498710632324 0.9942752775933679 0.09592723846435547 -0.20499372482299805 -0.6581696555485694 -0.6374422489491918 -1.2664072513580322 0.6355402579419871 0.8511928742588545 0.3080431677422354 -0.23258034936325056 1.42354180516363 -0.764707477044066 -1.0332157611846924 -0.6119374125485948 -0.6480804575360808 0.37043546256678933 1.535694996974958 -1.6761502238439756 1.287516082903474 -0.16475516504644983 -0.6097964461980854 1.1493935346512993 0.9536447333331187 -1.0816756717006122 1.1593751861408679 1.2246406256130742 -0.8554473648701855 -0.10329118806564883 1.1553623489443392 1.1323548885622534 1.338071875613365 -1.4256708621978755 -1.097489833831787 -0.3906700829065968 0.7405291199684143 -0.45572145309065054 -0.9483768803379067 0.9073426723480225 -0.7592623062159262 -0.6526359668999735 -0.6633497576465329 -0.6551796784826467 -0.10443806648254395 1.0381363737881069 -1.2953423767235743 0.5920559167861938 -0.582954257193103 -0.8754104388620036 1.0317561626434326 0.8036221265792847 -0.9366846902761136 0.9978692531585693 1.0007041692733765 -0.48633864888228096 -0.36014997959136963 0.9952041735532011 1.0336307287216187 0.923105001449585 -0.6587961813515457 -0.6375588801783408 -0.5526570081710815 0.21380126834101013 -1.3808863728390863 0.43208008436628953 -2.0066336118035277 -1.6662108986979833 -1.4163244324289361 -1.2221429757018778 -0.8914235234260561 0.8216612501715913 -1.642880444764048 0.3483966552596735 -1.71515919321337 -1.54345546804602 0.7282843850354715 0.35771442170677553 -1.5881463350269118 0.7007987698947934 0.7093948828744774 -0.36905411208204625 -1.1526225560295056 0.5384418607921053 0.7260223904840997 0.6010321848232221 -1.5735949421207127 -1.3708628749088394 -1.30316130276239 -1.6721182722603354 1.05222928247689 -1.9719178495135967 -1.7097759106567494 -1.372673760854779 -1.4139434027702975 0.24147006651202718 0.815906469570618 -1.0816099583410514 0.63099635158155 -1.5130420628290249 -1.6734669894774732 0.86672946707036 0.2791680125283084 -1.648651405618286 0.9252803836109437 1.0864349284738617 -1.0762024497662326 -0.15020731425356226 1.0310577599448902 0.8360894891439128 1.2684958300466265 -1.7525911622831893 -1.2619449602806008 -0.3990647418087007 1.0193430397855203 -0.593531961118498 -1.3910906341560436 -0.4043012462754123 -0.5062345010901506 0.6748214018468727 1.7700866019433172 -0.5305109024047852 1.0411743432917584 0.16177205567471445 0.7393946794022976 1.0989970731220864 0.22124780110687267 -1.2607792615890503 1.1733276645160557 1.2788174853194132 -0.3817078261353316 0.18568572833867164 1.124968681389337 1.1024290160001495 1.2843220974645484 -1.303941208649567 -1.0449396786982956 -0.11191518431862563 -0.7400161819026305 -0.5452481098281922 -0.5216525201068383 -0.5069184614936189 -0.9772303218054487 -0.20214586820111252 -1.5917820168427586 -1.0553649829208296 -0.4043020364642862 -1.1438965454671266 -0.4371354579925537 -1.4974007229395427 -1.0603384133097729 -0.5972968339920044 -0.7083282470703125 -0.3987041952507728 -1.0460439291650232 -0.6416676044464111 -0.6540354490280151 -0.9731192134725113 -0.5630733246874731 -0.46277470480856 -1.052789841981317 -1.088669258169181 0.21219639152737219 0.09591012150502276 0.7609613504069078 1.4278066011763624 0.3353242874145508 0.6136273741656194 0.12934637069702148 1.5670929675023626 0.7446550080745824 0.20006750991551617 0.6221343682199725 0.784525963195134 0.7558649550238028 -0.3271362360855706 0.7074808672608405 0.7977809975520976 0.7408309532442403 0.7684766979080699 -1.342317819595337 -0.6451813924102174 0.6326344668924575 2.0553579330444336 1.7688117027282715 0.6324251777844455 1.1513150359049253 0.35767785294516274 0.5357932004507011 2.3796142025394884 1.2013934916177924 0.6617910118269775 0.4348539215885827 1.2029175093322078 0.6613767120043934 0.6495513719918358 0.45646156903729107 0.5645390265403604 0.6165459235855026 0.6576929522244293 0.6250748366885404 -1.1398156540357984 0.5397226810455322 0.5094659147193336 -0.3056185245513916 0.6444740045100249 0.849212035734385 0.1896801862447881 0.4824617959777725 0.8658385276794434 0.684938907623291 0.6643617162904902 0.2759296862517153 0.48055721488130165 0.6756839981434865 0.6600343398475215 -0.20407824296546617 0.5639530405692198 0.6322246587533242 0.6636118581907291 0.6386692763605537 -1.874083853782749 -0.5481202602386475 0.4894504665979755 0.6342217405097301 0.7941383413575256 0.1262650128062911 0.46286974795251357 1.3272578716278076 0.6231931120691696 0.6566423341321135 0.2311487129724125 0.5091647619207688 0.6691851406177886 0.6514201959685342 -0.12279242168231733 0.549360248903267 0.622443239592813 0.6559224979167397 0.6292158584166838 -1.5693423748016357 -0.6438262462615967 0.4704200155978544 1.115998575722235 -1.3282357454299927 0.7964236736297607 -0.5528428425853763 -1.0590311587593948 1.0838903188705444 0.9539973735809326 -1.1255196810855674 1.065556287765503 1.0742186307907104 -0.4645058981455937 -0.2557119131088257 0.996368155770711 1.0807855129241943 0.9855120350458199 -0.6399246206789776 -0.6181784758864486 -0.4482189416885376 -1.401098720456379 -1.475465068227573 -1.2796925004983504 -1.0590006042028162 0.5877867765746084 -0.9463657527444211 -1.3371908181404706 0.522202406465579 0.44589743164324996 -0.5060030248592066 -1.249498322115813 0.5107591860224603 -0.9807343482971191 -1.2137523306651492 -1.181170219993227 -1.3132253694360232 -1.3312503136627463 1.6507587163324127 0.017486604115836357 0.6072198152542114 1.1680401456760787 1.235930935183423 0.027007579803466797 1.2888710125469054 1.3214191606217613 -0.1801396338827491 0.7016797065734863 1.2240964799167835 1.1479603033943484 1.3968534576109648 -0.4048275211007756 0.09204649925231945 0.3249993324279785 -0.3661280505189577 -1.216899710060862 1.3101110458374023 1.0281979705604944 -1.0849406661531409 1.3309752941131592 1.4248054027557373 -0.39745056388317357 -0.9954566985867233 1.237151861190796 0.9831901788711548 0.6219395399093628 -0.5533566724370854 -0.4206980145596093 -0.9970901012420654 0.878533693384224 0.589566364606614 0.16802177544053457 0.04605709692489679 0.5973719097418276 0.5780728114280856 -0.5916155676557684 0.4559629794908141 0.5331839526616917 0.5896978352605866 0.546241141612028 -2.0018153190612793 -0.8517155647277832 0.3723917596751638 0.7829077084617359 0.4517342976895794 -1.0414412492004088 0.8670884207686829 0.8946529965784712 -0.014634909212752897 0.709168610128244 0.8962938414964249 0.7685441631964133 1.0460114293042575 -1.264376757051966 -1.0998713383282506 0.4430333191364033 -1.2845263751093277 -0.8419311090933923 -0.08177447319030762 -0.15743422508239746 -0.49784444139767103 -1.1657918691635132 0.8335003852844238 -0.9952750205993652 -1.153343677520752 -0.6679677627333218 -0.6362010030034624 -1.2085777521133423 -0.019578417323471875 1.3561643218195196 1.5410956022564184 -0.29223759587632026 -1.0137435523038678 1.3929454459650639 0.19075000286102295 -0.6616373062133789 -0.4617307477123389 -0.06722016989710293 -1.0169110902140224 0.9302277142653727 0.955804547084893 -0.6983874278519475 0.7311246386470027 0.9518451450972031 0.8267166298720038 1.0905981887612823 -1.1764696565808732 -0.9905366897583008 0.44916688551051764 -0.08164608478546143 -0.49259366220102646 -1.1771886348724365 0.9867062568664551 -0.9493225812911987 -1.1331541538238525 -0.6675828451275416 -0.6511464157581752 -1.2374987602233887 -0.48573367194792216 -1.2058327198028564 0.9644689472203753 -0.8606598377227783 -1.1364613771438599 -0.6558400984659815 -0.6340286434137852 -1.274390459060669 0.39886720516891955 0.46223458603314377 0.4960909064831105 0.47366405860001326 -0.5494368592483446 0.5777934032156218 0.34732244798616096 1.0911999940872192 1.1554503440856934 1.1620242595672607 -0.5779846852926738 -0.5230976344065159 -0.19250702857971191 -0.9491678476333618 -1.008660500797908 -0.626118601465345 -0.6057422942604477 -1.1972368955612183 -0.30896520614624023 -0.665877226468333 -0.634862631450088 -1.1944408416748047 -0.6333579567941992 -0.6127381598500439 -1.2653249502182007 0.9203987121582031 0.5280572074135967 0.4287470461318297
label 22 10 39 43 6 4 24 16 11 21 29 32 7 45 38 42 36 18 19 8 14 37 20 33 15 3 40 12 31 30 5 34 47 1 23 9 41 2 48 46 27 25 28 26 17
nr_sv 6 6 2 4 3 6 2 8 3 1 2 1 6 9 7 2 4 1 4 7 3 6 5 4 4 4 1 3 3 2 3 6 3 4 2 3 3 3 1 4 2 2 2 1 1
SV
1.0 0.06522654396627191 0.8358443877033763 0.0 0.0 0.9654541417111155 0.0 1.0 0.0 0.30152928965002307 0.0 1.0 1.0 1.0 0.9834951932048421 0.0 0.0 0.07395734168318088 0.11544367605398877 0.0 1.0 0.0 0.0 0.0 0.0 0.0 0.9762172699018701 0.0 0.872891253285547 0.0 0.0 1.0 1.0 0.0 1.0 1.0 0.02764821614596966 0.0 1.0 1.0 0.949980078889208 0.0 0.0 0.0 1:1.0 2:0.10430159 3:0.02944433 4:0.12177322 5:0.002254365 6:0.02190746 7:0.0 8:1.0 9:0.039494857 10:0.00119418 11:0.0909685 12:2.37003E-4 13:0.010069153 14:0.0 15:1.0 16:0.007255419 17:7.27766E-4 18:1.91678E-5 19:2.51323E-10 20:6.53079E-7 21:0.0 
1.0 1.0 1.0 0.7570989586983228 0.3064337321651125 1.0 0.6229806839008832 1.0 0.048056012711517326 0.0 0.10668945562796488 1.0 1.0 1.0 1.0 1.0 0.9930639966672368 1.0 1.0 0.8491392214035436 1.0 0.48162529030022966 0.2727935130962172 0.4740617402551973 0.4372515347173214 0.9779997852022018 1.0 0.6122022279850541 1.0 0.690398565706958 0.634740268340493 1.0 1.0 0.6369487380095572 1.0 1.0 0.0 0.9468241028667116 1.0 1.0 1.0 0.08740311130121606 0.32159042894675843 0.9228002960505206 1:1.0 2:0.14268799 3:0.056074202 4:0.16481657 5:0.005520368 6:0.036505852 7:0.0 8:1.0 9:0.02668671 10:8.00822E-4 11:0.10282868 12:0.0 13:0.010067613 14:2.71998E-4 15:1.0 16:0.021403506 17:2.30039E-4 18:0.001119175 19:4.52428E-5 20:0.0 21:4.52971E-5 
1.0 0.9347734560337281 0.025823803069448013 0.12475396131936321 0.0 0.0 0.0 0.10424655716705486 0.0 1.0 0.0 1.0 0.07104203443649437 0.08400652274918484 0.0 0.0 0.0 0.0 1.0 0.0 0.06412860391565181 0.017233279136973617 0.0 0.0 0.0 0.0 0.0 0.0 0.0 0.019638876059097924 0.4607126595006923 0.08719191271403726 0.0 0.0 0.09025513001805867 0.03297480013757344 1.0 0.0 0.08787612235444406 0.0 0.0 0.0 0.0 0.0 1:5.3354E-5 2:7.54268E-5 3:5.28956E-4 4:5.3969E-4 5:1.0 6:0.004982673 7:1.82564E-5 8:0.8855473 9:0.88551533 10:0.8871838 11:0.887223 12:0.0 13:0.88544154 14:0.86422545 15:0.050035104 16:0.23750979 17:0.099365205 18:0.09779538 19:1.0 20:0.48367608 21:0.0 
0.0 0.0 0.0 0.0 0.46387557705508076 0.0 0.0 0.0 0.0 0.6984707103499769 0.0 0.004840665101372016 0.0 0.0 0.0 0.0 0.0 0.7548039090484645 1.0 0.0 0.0 0.0 0.2955658506948917 0.6207719212648527 0.7612147052532601 0.0 0.04570272948884507 0.0 0.0 0.0 0.0 0.0 0.0 0.0 0.0 0.0 1.0 0.0 0.0 0.0 0.0 0.0 0.0 0.0 1:6.55421E-6 2:1.04025E-5 3:1.34075E-4 4:1.35215E-4 5:1.0 6:0.002032021 7:2.6356E-6 8:0.9294124 9:0.9294086 10:0.9298812 11:0.9298855 12:0.0 13:0.92939216 14:0.92163926 15:0.05248931 16:0.40821502 17:0.08015783 18:0.08171611 19:1.0 20:0.6419793 21:0.0 
0.0 0.0 0.0 0.118147079982314 1.0 0.0 1.0 0.0 0.047763242646010326 0.0 0.0 0.0 0.0 0.0 0.0 0.0 0.0 1.0 1.0 0.4085447477189794 0.0 1.0 1.0 1.0 1.0 0.0 0.9780800006092848 0.0 0.0 0.8303192562794138 1.0 0.0 0.0 0.0 0.0 0.0 0.05694904102758782 0.0 0.0 0.0 0.0 0.912596888698784 0.0 0.0 1:3.86995E-5 2:6.52385E-5 3:5.95518E-4 4:6.07004E-4 5:1.0 6:0.005491949 7:1.50815E-5 8:0.92319787 9:0.9231537 10:0.92515624 11:0.9252472 12:0.0 13:0.92317444 14:0.91987467 15:0.21400349 16:1.0 17:0.13191837 18:0.13876788 19:0.42704907 20:0.6607557 21:0.0 
0.22304451276053738 0.0 1.0 1.0 1.0 0.034545858288884346 1.0 0.1927832368464252 0.9041807446424724 0.0 0.8933105443720352 0.2936428385681663 0.20707976524262978 0.19692666806599726 0.016504806795157922 0.696444594772552 0.00693600333276323 1.0 1.0 1.0 0.24725460702447666 1.0 1.0 1.0 1.0 0.02200021479779818 0.0 0.3101286382468117 0.12710874671445307 1.0 1.0 0.19487385971746649 0.1324246018861091 0.5952626981005938 0.21044966289918388 0.24668701252782915 0.9154027428264425 0.05317589713328838 0.21042083724869082 0.0 0.050019921110791926 1.0 0.6784095710532416 0.07719970394947934 1:8.16417E-4 2:0.00163053 3:0.00888315 4:0.00934884 5:1.0 6:0.034204073 7:0.0 8:0.92007565 9:0.91610205 10:0.9439647 11:0.94769555 12:0.0 13:0.9170115 14:0.9365037 15:0.5566263 16:1.0 17:0.10580872 18:0.056729402 19:0.016640525 20:0.09955376 21:0.0 
-0.0 0.0 1.0 0.9770571919117288 0.15781792066837066 0.4388019788954467 0.7532644889105984 0.0 0.21622456467115567 0.0 0.27332671104819595 1.0 1.0 1.0 0.0 1.0 0.0 1.0 1.0 1.0 1.0 0.5906527386688638 0.14762468993680217 0.3551429738791332 0.38932403790722586 0.8292691859980141 0.0 1.0 1.0 0.49053284449762513 0.8813213007923334 0.0 1.0 0.9318062117424526 0.0 0.0 0.23854865036255135 0.997137716521594 0.0 0.0 1.0 0.13932913851463144 0.4614929167248353 0.987253388258921 1:1.0 2:0.33624333 3:0.2739784 4:0.38933855 5:0.06106758 6:0.15591699 7:0.0 8:1.0 9:0.006827764 10:0.06710819 11:0.14344878 12:0.0 13:0.008730646 14:0.005435093 15:1.0 16:0.13535973 17:0.007698808 18:0.002581831 19:2.74881E-6 20:3.42033E-4 21:0.0 
-1.0 0.977861864070907 0.6416531178965298 0.6173871514351776 0.8103282091306704 0.0 0.7730002909427176 0.04051608517173804 0.7285202162259957 1.0 0.6563372391234336 1.0 0.2444085413756337 0.24598197854203158 0.0 0.4991636736270103 0.0 0.9710672758836586 1.0 0.6082331596090128 0.2988921225985338 0.7097489157207919 0.7687611824370123 0.9225106569583008 0.9864840441103657 0.0 0.9741341102064576 0.1654457190142045 0.0122347080705249 0.8057480887431389 0.8539213676094622 0.01645603207522125 0.07066271612946949 0.4873533836793115 0.03366005278198902 0.0 1.0 0.0028622834784059717 0.04499547867399815 0.009522186366553026 0.00498546129325129 0.7581633242654388 0.5385070832751647 0.012746611741079026 1:7.1909E-5 2:8.10551E-5 3:3.05116E-4 4:3.12402E-4 5:1.0 6:0.003173362 7:9.59687E-5 8:0.84727734 9:0.84726834 10:0.84806854 11:0.8480675 12:0.0 13:0.8471577 14:0.78320885 15:0.002893341 16:0.015725171 17:0.021252463 18:0.018900365 19:1.0 20:0.12022516 21:0.0 
-1.0 0.022138135929093004 0.0 0.0 0.0 0.0 0.0 1.0 0.0 0.0 0.0 1.0 1.0 1.0 1.0 0.0 0.0 0.0 0.0 0.0 1.0 0.0 0.0 0.0 0.0 0.0 1.0 0.0 0.0 0.0 0.0 1.0 0.0 0.0 1.0 1.0 0.0 0.0 0.9550045213260019 0.9904778136334469 0.0 0.0 0.0 0.0 1:1.0 2:0.2764796 3:0.19486791 4:0.29729512 5:0.03224101 6:0.10170014 7:0.0 8:1.0 9:0.005762585 10:0.044306874 11:0.119406566 12:0.0 13:0.006821546 14:0.003293873 15:1.0 16:0.10180834 17:0.012262227 18:0.006991233 19:1.5465E-5 20:0.001081438 21:0.0 
-0.0 0.0 0.9624596957179705 0.0 0.0 0.0 0.0 0.0 0.0 0.0 0.0 1.0 1.0 1.0 0.0 0.43524715895854627 0.0 0.09854278039723259 0.7837579763342936 0.19136060462175228 1.0 0.0 0.0 0.0 0.0 0.0 0.0 0.0 0.987765291929475 0.0 0.0 0.0 1.0 0.0 0.0 0.0 0.0 0.0 1.0 0.0 0.0 0.0 0.0 0.0 1:1.0 2:0.26984698 3:0.2046632 4:0.3257991 5:0.03851224 6:0.11252011 7:0.0 8:1.0 9:0.009954716 10:0.051281247 11:0.14332233 12:0.0 13:0.011187577 14:0.003554169 15:1.0 16:0.08985892 17:0.03332427 18:0.007501623 19:3.79176E-5 20:6.48382E-4 21:0.0 
-1.0 1.0 0.0 0.0 0.0 1.0 0.0 1.0 0.0 0.38081951192871744 0.0 1.0 1.0 1.0 1.0 0.0 1.0 0.0 0.0 0.0 1.0 0.0 0.0 0.0 0.0 0.0 1.0 0.0 0.0 0.0 0.0 1.0 0.0 0.0 1.0 1.0 0.0 0.0 1.0 1.0 0.0 0.0 0.0 0.0 1:1.0 2:0.2495349 3:0.17257322 4:0.28967246 5:0.028373951 6:0.093808815 7:0.0 8:1.0 9:0.009344892 10:0.038116574 11:0.13028286 12:0.0 13:0.009448541 14:0.002538524 15:1.0 16:0.08012712 17:0.021961426 18:0.007582458 19:2.48184E-5 20:7.83364E-4 21:0.0 
-0.22304451276053738 0.0 0.0 0.0 0.0 0.5611980211045533 0.0 0.9594839148282618 0.0 0.0 0.0 1.0 1.0 1.0 0.0 0.0 0.0 0.0 0.0 0.0 1.0 0.0 0.0 0.0 0.0 0.17073081400198586 0.02586588979354241 0.0 0.0 0.0 0.0 0.9835439679247788 0.9293372838705304 0.0 0.966339947218011 1.0 0.0 0.0 1.0 0.0 0.9950145387067487 0.0 0.0 0.0 1:1.0 2:0.27270094 3:0.20153609 4:0.31911892 5:0.036211416 6:0.11026324 7:0.0 8:1.0 9:0.008508842 10:0.047644492 11:0.13624157 12:0.0 13:0.009796669 14:0.003301944 15:1.0 16:0.09358956 17:0.024087967 18:0.0056682 19:1.97103E-5 20:5.09574E-4 21:0.0 
-1.0 -1.0 1.0 0.7253437154868136 0.13836137818382427 1.0 0.6601415313471479 1.0 0.19028683892949175 0.36246230011946073 0.24164252403546033 1.0 1.0 1.0 1.0 1.0 0.998946877117907 1.0 1.0 0.9990238381758296 1.0 0.47572408068809374 0.1290818301297781 0.2898405815549369 0.3166781997393277 0.9984345497397598 1.0 0.727762542484978 1.0 0.4357700939192368 0.6718262472919077 1.0 1.0 0.7055269031883749 1.0 1.0 0.21574979191218452 0.9834294220268114 1.0 1.0 1.0 0.1165596070484223 0.4343717000377374 0.967049671389131 1:1.0 2:0.2401523 3:0.1471252 4:0.24259502 5:0.017885555 6:0.07404442 7:0.0 8:1.0 9:0.007939256 10:0.02456312 11:0.103636034 12:0.0 13:0.006799495 14:0.001813156 15:1.0 16:0.07797533 17:0.005418823 18:7.08438E-4 19:4.13185E-7 20:2.74835E-5 21:0.0 
-1.0 -1.0 0.5943406342305724 0.6265016328780485 0.7942882262693374 0.2824280628422085 0.7380596703538312 0.2944392273829641 0.7289097005940843 1.0 0.6426920793782039 1.0 0.28144413825289066 0.28258348542700623 0.2825393281405081 0.49281415504644693 0.0010531228820930272 1.0 1.0 0.5866902103829493 0.3070909397043421 0.7096099152512382 0.748469027050191 0.9320209104802867 0.9842125111717496 0.0015654502602401865 1.0 0.21084086679289998 0.23537897805523683 0.7813484788863404 0.8452099138581244 0.2837076657842844 0.27170469247582374 0.4895333754378879 0.2972621507709612 0.2806299934792996 1.0 0.01657057797318867 0.30066845338446124 0.28258054990895426 0.2825681637116942 0.7403286075984896 0.5656282999622626 0.032950328610868995 1:6.62651E-5 2:1.04477E-4 3:7.49836E-4 4:7.70709E-4 5:1.0 6:0.006458393 7:2.17396E-5 8:0.8151245 9:0.81507325 10:0.81741714 11:0.8173513 12:0.0 13:0.814677 14:0.7217212 15:0.005857974 16:0.029726107 17:0.037465435 18:0.03692529 19:1.0 20:0.17373039 21:0.0 
-0.8616681907728243 -0.0 -0.0 1.0 0.09136528906357497 0.0 1.0 0.0 0.0 0.0 0.0 0.46697650745784103 0.0 0.0 0.0 1.0 0.0 0.22831402624271482 1.0 1.0 0.0 1.0 0.0 0.9927855143149756 0.7261048082525495 0.0 0.5235648507546853 0.8481717210414395 0.0 1.0 1.0 0.0 0.6062121871367671 0.8443746268443612 0.0 0.0 0.0 0.0 0.0 0.0 0.0 0.0 0.0 0.0 1:0.1891083 2:0.1811186 3:0.37095106 4:0.42789245 5:1.0 6:0.4400659 7:0.0 8:1.0 9:0.2893932 10:0.62202156 11:0.75978047 12:0.0 13:0.2976658 14:0.28654948 15:1.0 16:0.43897614 17:0.010795563 18:0.004270296 19:2.11117E-5 20:0.001415225 21:0.0 
-0.0 -0.6041128136145003 -0.0 1.0 0.0 0.9425276881897574 0.8431521294035402 0.6918253083156142 0.0 0.0 0.0 0.0 0.842268952645697 0.7461580433071652 0.8241336142733319 1.0 0.03371773574465486 0.0 0.9804709679619265 0.8381896747028832 1.0 0.0 0.0 0.0 0.0 0.12048401700681219 0.0 1.0 1.0 0.0 1.0 0.7071846071572104 1.0 1.0 0.8032593065015221 0.8419739885713599 0.0 0.2855704717529506 1.0 0.6873379510958038 1.0 0.0 0.0 0.39059174140089686 1:0.39514434 2:0.31422803 3:0.55063397 4:0.67024934 5:1.0 6:0.5875816 7:0.0 8:1.0 9:0.17320144 10:0.42513922 11:0.61149675 12:0.0 13:0.18927513 14:0.16827933 15:1.0 16:0.34415576 17:0.016281474 18:0.003063862 19:1.54936E-5 20:3.91987E-4 21:0.0 
-1.0 -1.0 -0.6482264679460704 1.0 1.0 0.0 1.0 0.0 0.9981262076541539 0.6163447789334922 1.0 1.0 0.0 0.0 0.0 0.7227052833355323 0.0 1.0 0.5971189337259855 1.0 0.21259819739932043 1.0 1.0 1.0 1.0 0.0 1.0 0.0 0.0 1.0 1.0 0.0 0.0 0.0 0.0 0.0 0.7725281337806201 0.0 0.0 0.0 0.0 0.8503159139750442 1.0 0.0 1:0.1866906 2:0.17691593 3:0.36261117 4:0.42577893 5:1.0 6:0.43707004 7:0.0 8:1.0 9:0.29569915 10:0.60615796 11:0.7773505 12:0.0 13:0.31074566 14:0.29187205 15:1.0 16:0.42378357 17:0.013194491 18:0.00346856 19:1.82038E-5 20:8.45763E-4 21:0.0 
-1.0 -1.0 -0.946114166284502 0.0 0.0 1.0 0.0 1.0 0.0 0.00481803652942029 0.0 1.0 1.0 1.0 1.0 0.7856795586543271 0.9662822642553451 0.6220670809176652 0.6199353244608828 0.16181032529711678 1.0 0.0 0.0 0.0 0.0 0.8795159829931878 1.0 0.4505974123018247 1.0 0.0 0.584659166824608 1.0 1.0 0.15562537315563885 1.0 1.0 0.0 0.7144295282470494 1.0 1.0 1.0 0.0 0.0 0.6094082585991032 1:1.0 2:0.17204654 3:0.08629498 4:0.21267478 5:0.011231143 6:0.054847922 7:0.0 8:1.0 9:0.027608726 10:0.008878853 11:0.12656562 12:4.39495E-4 13:0.014018674 14:0.00141802 15:1.0 16:0.029716466 17:0.011364111 18:0.001037841 19:7.35561E-5 20:0.0 21:7.42535E-5 
-0.0 -0.5541134218639051 -0.2523814751057547 -1.0 0.0 0.8299781215827524 0.7174398673169229 0.5472902259423319 0.0 0.0 0.0 0.3634484838245515 0.7080555025087233 0.6035280580433067 0.69431836443606 1.0 0.6878895733959928 0.219399577881156 1.0 1.0 1.0 0.17822874126610266 0.0 0.0 0.0 0.8940565217330823 0.01929369920678406 1.0 1.0 0.10801038716605907 1.0 0.5778261990097818 1.0 1.0 0.6719088485226443 0.7141840033995598 0.0 1.0 0.9926295654395947 0.5616519172374722 0.9540821081391246 0.0 0.0 1.0 1:0.714176 2:0.47913834 3:0.70841646 4:0.92977935 5:0.9164892 6:0.7068518 7:0.0 8:1.0 9:0.10663426 10:0.31556278 11:0.49064454 12:0.0 13:0.11956139 14:0.10617878 15:1.0 16:0.28255388 17:0.03293114 18:0.003154905 19:1.82017E-5 20:0.001140243 21:0.0 
-1.0 -0.21456084763018943 -0.09946387325910755 -1.0 1.0 0.0 1.0 0.0 1.0 0.7303707513166395 1.0 1.0 0.0 0.0 0.0 0.7612965471301101 0.0 1.0 1.0 1.0 0.0 1.0 1.0 1.0 1.0 0.0 1.0 0.0 0.0 1.0 1.0 0.0 0.0 0.0 0.0 0.0 1.0 0.0 0.0 0.0 0.0 1.0 0.8085833047271591 0.0 1:0.09448681 2:0.103402615 3:0.23735164 4:0.28054038 5:1.0 6:0.3322394 7:0.0 8:1.0 9:0.46485415 10:0.7954225 11:0.94654465 12:0.0 13:0.47764483 14:0.44600186 15:1.0 16:0.49640626 17:0.050181393 18:0.008532413 19:1.64111E-4 20:0.002645703 21:0.0 
-1.0 -0.8257700738528118 -1.0 -1.0 0.6201086284793687 0.13616676735394626 1.0 0.2046874076554861 0.0 0.0 0.0 0.10651143764205352 0.15463896931213816 0.1775664468335853 0.1598956128788933 1.0 0.16097138407936037 1.0 1.0 1.0 0.30252653831230963 1.0 0.36675842553443133 1.0 1.0 0.10594347826691775 0.6637598432526229 1.0 0.2500907778285877 1.0 1.0 0.18347768938359915 0.7727426944774455 1.0 0.18096143328591366 0.15319092013235658 0.08457329187839283 0.0 0.07815973248975247 0.18650167910750162 0.09329482590115672 0.18265358162158493 0.1914166952728409 0.0 1:0.14304633 2:0.14294596 3:0.30283454 4:0.36188108 5:1.0 6:0.39293578 7:0.0 8:1.0 9:0.36543128 10:0.6938208 11:0.8521616 12:0.0 13:0.3773369 14:0.3492572 15:1.0 16:0.4500148 17:0.039778404 18:0.005344295 19:6.36045E-5 20:0.00117652 21:0.0 
-1.0 -0.0 -0.11155473164243998 -0.0 -0.0 0.0 1.0 0.0 0.7441848589308641 0.0 0.0 0.6528700595520828 0.0 0.0 0.0 0.0 0.0 1.0 1.0 0.0 0.0 0.26157040339601956 0.7960762173683062 1.0 1.0 0.0 1.0 0.0 0.0 0.0 0.6702210589021684 0.0 0.0 0.0 0.0 0.0 1.0 0.0 0.0 0.0 0.0 0.0 0.0 0.0 1:7.44694E-4 2:0.002641033 3:0.01650486 4:0.017711371 5:1.0 6:0.053886373 7:0.0 8:0.8907258 9:0.87881315 10:0.9310676 11:0.9399956 12:0.0 13:0.8804677 14:0.8438194 15:0.7143941 16:1.0 17:0.15022773 18:0.12229252 19:0.03718902 20:0.18240322 21:0.0 
-0.5238178133762974 -0.0 -0.0 -0.0 -0.0 0.0 0.0 0.0 0.0 0.0 0.0 0.0 0.0 0.0 0.0 0.0 0.0 1.0 1.0 0.0 0.0 0.0 1.0 0.0 1.0 0.0 0.0 0.0 0.0 0.0 1.0 0.0 0.0 0.0 0.0 0.0 0.0 0.0 0.0 0.0 0.0 1.0 0.0 0.0 1:5.34242E-4 2:0.001921951 3:0.012973994 4:0.013809936 5:1.0 6:0.04544131 7:1.72279E-4 8:0.93455195 9:0.9260829 10:0.96884954 11:0.9766424 12:0.0 13:0.92819035 14:0.8894432 15:0.6572271 16:1.0 17:0.06000768 18:0.048458148 19:0.006992413 20:0.07785938 21:0.0 
-0.0 -0.0 -0.0 -0.0 -0.0 0.0 1.0 0.0 0.0 0.0 0.0 0.0 0.0 0.0 0.0 0.0 0.0 0.4268360133569379 0.0 0.0 0.0 1.0 1.0 1.0 0.0 0.0 0.0 0.0 0.0 1.0 1.0 0.0 0.0 0.0 0.0 0.0 0.0 0.0 0.0 0.0 0.0 0.0 0.0 0.0 1:0.002097421 2:0.00562781 3:0.02859945 4:0.030706245 5:1.0 6:0.07766746 7:0.0 8:0.8841693 9:0.8553115 10:0.94548625 11:0.95764583 12:0.0 13:0.8554035 14:0.8146336 15:0.85094404 16:1.0 17:0.12549348 18:0.109245464 19:0.020541245 20:0.13675219 21:0.0 
-0.0 -0.0 -0.0 -0.09136528906357497 -0.6201086284793687 0.0 1.0 0.0 0.0 0.0 1.0 0.0 0.0 0.0 0.0 0.0 0.0 0.0 0.0 1.0 0.0 1.0 0.2039237826316937 0.1863866354077832 0.0 0.0 0.0 0.0 0.0 1.0 0.0 0.0 0.0 0.0 0.0 0.0 0.0 0.0 0.0 0.0 0.0 0.0360447934999982 0.0 0.0 1:0.002350665 2:0.006164592 3:0.03056722 4:0.033225067 5:1.0 6:0.08180163 7:0.0 8:0.8836718 9:0.8515052 10:0.94465405 11:0.9616484 12:0.0 13:0.85311997 14:0.8130296 15:0.88946605 16:1.0 17:0.13914055 18:0.114813276 19:0.021708675 20:0.1391782 21:0.0 
-1.0 -0.968146129799041 -0.8210948728107216 -0.0 -0.0 0.0 0.0 0.0 0.0 0.8063015435699564 0.0 0.5721089853712753 0.0 0.0 0.0 0.0 0.0 1.0 1.0 0.0 0.0 0.0 1.0 0.8136133645922168 1.0 0.0 0.3438109903307123 0.0 0.0 0.0 1.0 0.0 0.0 0.0 0.0 0.0 1.0 0.0 0.0 0.0 0.0 0.9639552065000018 0.0 0.0 1:2.40134E-4 2:8.15659E-4 3:0.006367329 4:0.006685847 5:1.0 6:0.027895998 7:1.63894E-4 8:0.9397084 9:0.9371632 10:0.95858544 11:0.96162856 12:0.0 13:0.93822354 14:0.911522 15:0.50496703 16:1.0 17:0.07065551 18:0.053837474 19:0.014562319 20:0.110756345 21:0.0 
-0.24649149584389593 -0.0 -0.0 -1.0 -1.0 0.31486955212414763 1.0 0.31096701926637355 0.2558151410691359 0.0 0.0 0.0 0.3109610288599204 0.3077380797343273 0.3107637123978226 1.0 0.3108131871380074 0.0 0.1772992294691413 1.0 0.34301409021121354 1.0 0.0 1.0 1.0 0.3167032806472085 0.0 0.4398634310906039 0.32311263266042334 1.0 0.0 0.30704494438328106 0.3781713264657997 1.0 0.31464635383819595 0.3110026228597253 0.0 0.3225936650214054 0.3263724686707877 0.30629814071574574 0.3176478960811543 0.0 1.0 0.3256284207692688 1:0.003327804 2:0.007979468 3:0.0362777 4:0.039277665 5:1.0 6:0.09165013 7:0.0 8:0.8574536 9:0.8171647 10:0.9280518 11:0.940788 12:0.0 13:0.81505567 14:0.76978743 15:0.9205297 16:1.0 17:0.17473845 18:0.16138814 19:0.03742022 20:0.18839388 21:0.0 
-1.0 -1.0 -1.0 -0.9425276881897574 -0.0 -0.0 0.0 1.0 0.0 0.3158594178165871 0.0 1.0 1.0 1.0 1.0 0.3651285993110092 1.0 0.24595340926582906 0.6411442122916711 0.2328993127929121 1.0 0.0 0.0 0.0 0.0 0.0 1.0 0.0 1.0 0.0 0.0 1.0 1.0 0.0 1.0 1.0 0.0 0.0 1.0 1.0 1.0 0.0 0.0 0.0 1:1.0 2:0.26809278 3:0.18558182 4:0.31594795 5:0.03411804 6:0.108863086 7:0.0 8:1.0 9:0.009514409 10:0.032957688 11:0.13738522 12:0.0 13:0.010346957 14:0.003201726 15:1.0 16:0.087741606 17:0.005664719 18:0.002831722 19:2.10656E-6 20:3.03786E-4 21:0.0 
-1.0 -1.0 -0.2824280628422085 -1.0 -0.9661448889366987 -0.31486955212414763 0.6423696740885526 1.0 0.304384848681629 0.0 0.33849845532615497 1.0 1.0 1.0 1.0 1.0 0.0 1.0 1.0 1.0 1.0 0.5659468362685756 0.301738127114656 0.4318125432270467 0.45493991739083034 1.0 1.0 1.0 1.0 0.45607620685119343 0.9084895954500615 1.0 1.0 0.9144216228320119 1.0 1.0 0.2823780231871297 1.0 1.0 1.0 1.0 0.27463788052518745 0.5349113110688654 1.0 1:1.0 2:0.28402805 3:0.20657866 4:0.33569163 5:0.040756695 6:0.12042776 7:0.0 8:1.0 9:0.008959596 10:0.04062912 11:0.1413145 12:0.0 13:0.01048196 14:0.003865992 15:1.0 16:0.0974826 17:0.008107719 18:0.003532858 19:4.85155E-6 20:4.17313E-4 21:0.0 
-1.0 -0.0 -0.0 -0.0 -0.0 -1.0 -0.0 0.0 1.0 0.0 0.558965212304685 0.21584688163037757 0.0 0.0 0.0 0.0 0.0 1.0 1.0 0.0 0.0 1.0 1.0 1.0 1.0 0.0 0.8341772788090842 0.0 0.0 0.0 1.0 0.0 0.0 0.0 0.0 0.0 1.0 0.0 0.0 0.0 0.0 1.0 0.0 0.0 1:0.012426403 2:0.017530411 3:0.0505102 4:0.0605129 5:1.0 6:0.11608788 7:0.010302218 8:0.86183095 9:0.7985603 10:0.88374645 11:0.97956574 12:0.0 13:0.8209083 14:0.8277439 15:1.0 16:0.76895833 17:0.33304808 18:0.10183468 19:0.014256983 20:0.05633049 21:0.0 
-0.0 -0.0 -0.0 -0.8431521294035402 -0.7174398673169229 -0.0 -0.0 0.0 0.0 0.0 0.0 0.0 0.0 0.0 0.0 0.0 0.0 0.0 0.0 0.7249267971655204 0.0 1.0 0.0 0.0 0.0 0.0 0.0 0.0 0.0 0.18020309011983984 1.0 0.0 0.0 0.0 0.0 0.0 0.0 0.0 0.0 0.0 0.0 0.0 0.0 0.0 1:0.05437748 2:0.062174957 3:0.16547087 4:0.20406842 5:1.0 6:0.2613385 7:0.0 8:0.94581014 9:0.53064436 10:0.7385858 11:0.9998639 12:0.0 13:0.55873394 14:0.5629666 15:1.0 16:0.48303193 17:0.23627055 18:0.041974682 19:0.003931932 20:0.0 21:0.005497225 
-0.0 -0.5262647798533159 -0.39820120170097917 -1.0 -1.0 -0.0 -0.0 0.0 0.0 0.0 0.0 0.3136949266553045 0.0 0.0 0.0 1.0 0.0 0.0 0.14201874450414137 1.0 0.0 0.20784651667705692 0.0 0.0 0.0 0.0 0.0 0.06641255179928246 0.0 0.0 0.5845198950224945 0.0 0.0 0.6396359318245715 0.0 0.0 0.0 0.0 0.0 0.0 0.0 0.0 0.0 0.0 1:0.085681066 2:0.08375113 3:0.20211434 4:0.2701931 5:1.0 6:0.30930373 7:0.0 8:0.94472647 9:0.4331805 10:0.58800566 11:0.97694856 12:0.0 13:0.494945 14:0.45651883 15:1.0 16:0.37147802 17:0.24461813 18:0.03540643 19:0.006851115 20:0.0 21:0.008596792 
-0.08639166932089928 -1.0 -1.0 -1.0 -1.0 -0.0 -0.6423696740885526 0.6000732725020539 0.0 0.0 0.0 1.0 0.6135931277770288 0.5947558544895114 0.6149308792047913 1.0 0.6131015326080975 0.18800682611686403 1.0 1.0 0.8852786054269024 0.0 0.0 0.0 0.0 0.6509556014760484 0.8310929321575916 1.0 0.744672665137563 0.0 1.0 0.5896442744366617 1.0 1.0 0.6318440379465247 0.6144405873381794 0.0 0.7216441176200231 0.7261194725914182 0.5853454487075863 0.6695761307732808 0.0 0.5857028205567514 0.7649443430159629 1:0.14208975 2:0.12316344 3:0.26860943 4:0.36514342 5:1.0 6:0.37645793 7:0.0 8:0.96614605 9:0.3553663 10:0.52258426 11:0.9159766 12:0.0 13:0.4138127 14:0.39242625 15:1.0 16:0.3207647 17:0.21627742 18:0.031582244 19:0.002249426 20:0.0 21:0.002816211 
-0.0 -0.0 -0.0 -0.0 -0.0 -0.0 -0.0 0.0 0.0 0.8169917270737143 0.0 0.0 0.0 0.0 0.0 0.0 0.0 0.0 0.0 0.0 0.0 0.792153483322943 0.0 0.0 0.0 0.0 0.0 0.0 0.0 1.0 0.0 0.0 0.0 0.0 0.0 0.0 0.0 0.0 0.0 0.0 0.0 0.0 0.0 0.0 1:0.032102898 2:0.04030457 3:0.123211876 4:0.15961763 5:1.0 6:0.22226375 7:0.0 8:0.8776973 9:0.58226556 10:0.73785967 11:1.0 12:0.0 13:0.6268756 14:0.6005397 15:1.0 16:0.48485997 17:0.23224273 18:0.038120218 19:0.0 20:3.30827E-4 21:8.64711E-4 
-0.536589014579984 -0.0 -0.0 -0.0 -0.0 -1.0 -0.0 0.0 0.0 0.0 0.0 0.0 0.0 0.0 0.0 0.0 0.0 1.0 0.0 0.0 0.0 1.0 1.0 1.0 1.0 0.0 0.0 0.0 0.0 0.8197969098801601 0.0 0.0 0.0 0.0 0.0 0.0 0.0 0.0 0.0 0.0 0.0 0.0 0.0 0.0 1:0.027015412 2:0.035860296 3:0.11028 4:0.13620947 5:1.0 6:0.20045362 7:0.0 8:0.8761849 9:0.6245487 10:0.78601235 11:1.0 12:0.0 13:0.65529007 14:0.65101266 15:1.0 16:0.5510531 17:0.2535662 18:0.043398444 19:0.004912552 20:0.0 21:0.006867098 
-0.0 -0.0 -0.0 -0.0 -0.0 -1.0 -0.0 0.0 0.0 0.0 0.0 0.0 0.0 0.0 0.0 0.0 0.0 0.07820353331120451 0.0 0.0 0.0 1.0 0.10019833849101585 1.0 0.46787125266267254 0.0 0.0 0.0 0.0 0.0 0.5187074098944376 0.0 0.0 0.0 0.0 0.0 0.0 0.0 0.0 0.0 0.0 0.0 0.0 0.0 1:0.031967983 2:0.041511707 3:0.12454158 4:0.1522146 5:1.0 6:0.21649249 7:0.0 8:0.89796555 9:0.60325956 10:0.793271 11:1.0 12:0.0 13:0.62547016 14:0.64227486 15:1.0 16:0.54524827 17:0.26433975 18:0.049669664 19:0.0 20:0.001280502 21:0.001015138 
-1.0 -0.0 -0.0 -0.0 -0.0 -1.0 -0.0 0.0 0.0 0.0 0.441034787695315 0.0 0.0 0.0 0.0 0.0 0.0 1.0 1.0 0.0 0.0 0.0 1.0 1.0 1.0 0.0 0.0 0.0 0.0 1.0 1.0 0.0 0.0 0.0 0.0 0.0 0.5058008918769358 0.0 0.0 0.0 0.0 1.0 0.4142971794432486 0.0 1:0.027865307 2:0.037874978 3:0.11593138 4:0.13788748 5:1.0 6:0.20371746 7:0.0 8:0.8960719 9:0.6330953 10:0.83089334 11:1.0 12:0.0 13:0.6509444 14:0.6503947 15:1.0 16:0.5952813 17:0.20190561 18:0.037284233 19:0.007167799 20:0.0 21:0.00905923 
-1.0 -1.0 -0.0 -0.0 -0.0 -0.0 -0.0 -0.0 0.0 0.0 0.0 1.0 1.0 1.0 0.0 0.0 0.0 0.0 0.0 0.0 1.0 0.0 0.0 0.0 0.0 0.0 0.24154308669639676 0.0 0.0 0.0 0.0 1.0 0.2466202984682954 0.0 1.0 1.0 0.0 0.0 1.0 0.0 0.0 0.0 0.0 0.0 1:1.0 2:0.11646601 3:0.044781238 4:0.15943804 5:0.004366532 6:0.0321702 7:0.0 8:1.0 9:0.04252958 10:0.009041098 11:0.11914191 12:7.64159E-4 13:0.014973561 14:3.46829E-4 15:1.0 16:0.008613147 17:0.014288094 18:0.001086854 19:3.99386E-6 20:0.0 21:2.83241E-6 
-1.0 -1.0 -1.0 -1.0 -0.7519776335978181 -0.31096701926637355 -1.0 -0.6000732725020539 0.3016780831825252 0.3221957129727808 0.3324149392404866 1.0 1.0 1.0 1.0 1.0 1.0 1.0 1.0 0.9871864407783062 1.0 0.5178387718816606 0.2984932485806473 0.4154361064337124 0.43698573369406657 1.0 1.0 0.7409023930491621 1.0 0.444057002274809 0.729862418599646 1.0 1.0 0.7314827863185437 1.0 1.0 0.2837952919956375 1.0 1.0 1.0 1.0 0.27255644844400934 0.5027346955829574 1.0 1:1.0 2:0.13063225 3:0.05957886 4:0.18407482 5:0.006604274 6:0.040264104 7:0.0 8:1.0 9:0.039211225 10:0.013565489 11:0.13119416 12:0.001088293 13:0.016633285 14:8.52258E-4 15:1.0 16:0.012791298 17:0.022190604 18:0.00289627 19:6.56492E-6 20:3.18801E-5 21:0.0 
-0.29702979401348006 -1.0 -0.2944392273829641 -0.6918253083156142 -0.0 -0.0 -1.0 -0.0 0.0 0.0 0.0 1.0 1.0 1.0 1.0 0.17037717152112733 0.0 0.22856869927347634 0.14577988310421425 0.0 1.0 0.0 0.0 0.0 0.0 0.0 1.0 0.0 1.0 0.0 0.0 1.0 1.0 0.0 1.0 1.0 0.0 0.0 1.0 1.0 1.0 0.0 0.0 0.0 1:1.0 2:0.117464066 3:0.045616508 4:0.1609398 5:0.004498174 6:0.03266452 7:0.0 8:1.0 9:0.04223891 10:0.00916233 11:0.11979233 12:7.8652E-4 13:0.015057794 14:3.88741E-4 15:1.0 16:0.008898857 17:0.014533551 18:0.001169651 19:3.22948E-6 20:0.0 21:1.91412E-6 
-1.0 -0.9447447808971513 -0.919196539523576 -0.9981262076541539 -1.0 -1.0 -0.304384848681629 -1.0 -0.3016780831825252 0.7721247903567654 1.0 1.0 0.30114971297877363 0.29850439834041853 0.301000684733419 1.0 0.3010680063744873 1.0 1.0 1.0 0.32822461858124385 1.0 1.0 1.0 1.0 0.30581256428106707 1.0 0.41253478228968365 0.3101572620329655 1.0 1.0 0.2981192662688178 0.35877069747029233 0.8945599366116768 0.30461580949050504 0.3011701029009191 1.0 0.3099691549634084 0.31404075107790347 0.29732277266564416 0.30648934544642037 1.0 1.0 0.31201556629507965 1:0.001699314 2:0.003850758 3:0.019073194 4:0.020680409 5:1.0 6:0.058932927 7:0.0 8:0.8571298 9:0.84358317 10:0.89772886 11:0.9094663 12:0.0 13:0.8458112 14:0.85677713 15:0.75626785 16:1.0 17:0.1687123 18:0.15084457 19:0.048867244 20:0.21597016 21:0.0 
-1.0 -1.0 -1.0 -0.6211628154629125 -0.07078991483618069 -0.0 -0.3158594178165871 -0.0 -0.3221957129727808 -0.0 0.0 0.39938173267609234 0.3160651730993145 0.3173856404368825 0.3157001002992047 0.6590347371622267 0.3155472634818477 0.1310898560945516 1.0 0.0 0.33341299546528474 0.0 0.0 0.0 0.009391431284696883 0.3128895171134194 0.3296964252371182 0.3639561019147116 0.3088819060396159 0.0 0.0 0.318697983078323 0.34421306419950143 0.6085366248978509 0.3222706260862555 0.3150874030815925 1.0 0.30898284478689275 0.3241352905646584 0.3176282629480509 0.3179606450314495 0.0 0.0965542425352693 0.3068899446349743 1:4.44924E-4 2:5.86549E-4 3:0.002079182 4:0.002162297 5:1.0 6:0.012442662 7:7.00922E-5 8:0.7239067 9:0.72374403 10:0.72936267 11:0.7284683 12:0.05242413 13:0.7222084 14:0.5 15:0.004768158 16:0.013813403 17:0.03293672 18:0.031203013 19:1.0 20:0.11161778 21:0.0 
-1.0 -0.38081951192871755 -0.3624623001194607 -0.0 -0.6595808364804588 -0.8063015435699564 -0.0 -0.8169917270737143 -0.0 -0.7721247903567654 0.6935620875504582 1.0 0.0 0.0 0.0 0.0 0.0 1.0 1.0 0.7564532563556585 0.0 0.803254460534368 0.7586363301727939 0.9963539047002614 1.0 0.0 1.0 0.0 0.0 0.8123127954197171 0.9409594943652217 0.0 0.0 0.0 0.0 0.0 1.0 0.0 0.0 0.0 0.0 0.7414643558159786 0.6093675425531035 0.0 1:8.40288E-4 2:0.00105082 3:0.003153748 4:0.003288921 5:1.0 6:0.015878217 7:2.46683E-4 8:0.74777067 9:0.74743956 10:0.7556188 11:0.75465435 12:0.0 13:0.7456487 14:0.5483593 15:0.011339065 16:0.032875597 17:0.06010472 18:0.055870652 19:1.0 20:0.17596981 21:0.0 
-1.0 -0.9296639501716295 -0.8843346034136643 -1.0 -1.0 -1.0 -0.33849845532615497 -1.0 -0.3324149392404866 -1.0 -0.6935620875504582 1.0 0.33312415039568066 0.32902280865273315 0.33306481093901413 1.0 0.33290443681195564 1.0 1.0 1.0 0.37688283926766797 1.0 1.0 1.0 1.0 0.34078401399912683 1.0 0.5047581583162729 0.35239327843019114 1.0 1.0 0.32805428767067857 0.4249138432436584 1.0 0.3375586659347092 0.33326091177803 1.0 0.350780403892061 0.3534635302974998 0.3271457147219894 0.34283455463996676 1.0 1.0 0.3559646495670954 1:0.013576938 2:0.023060838 3:0.08101831 4:0.086468644 5:1.0 6:0.15336284 7:0.0 8:0.89628464 9:0.7513562 10:0.9789724 11:1.0 12:0.0 13:0.74605024 14:0.77284604 15:1.0 16:0.84316415 17:0.013521679 18:0.002358246 19:7.16205E-4 20:0.0 21:7.11274E-4 
-1.0 -1.0 -0.9158049215301513 -0.647008984362287 -0.6771689558134695 -1.0 -6.806916805211582E-4 -0.806530913866467 -0.020514265426373267 -0.7890643329969547 -1.0 -0.7097451446206549 0.23256062924473644 0.2328710298336965 0.0 0.4650624785709225 0.0 1.0 1.0 0.6805832609085672 0.22043624297137435 0.8883439693122355 0.9205772788602773 1.0 1.0 0.0 0.9840687537142642 0.19484591576060237 0.0360619535277408 0.8407397491470678 1.0 0.001145183912375353 0.07922350438097622 0.46579137100541496 0.01970880295771054 0.0 1.0 0.0135403560810766 0.042017427026731016 0.0 0.00798280103890418 0.9049959114352399 0.5413322325105813 0.028967062335677852 1:2.21515E-4 2:2.50361E-4 3:8.0296E-4 4:8.25635E-4 5:1.0 6:0.005907216 7:1.90719E-4 8:0.89861375 9:0.8985682 10:0.9005372 11:0.9007186 12:0.0 13:0.8986844 14:0.8771344 15:0.06666779 16:0.33148843 17:0.13544072 18:0.111238845 19:1.0 20:0.5507721 21:0.0 
-0.0 -1.0 -2.632436602069919E-4 -1.0 -0.7927909656531358 -0.0 -1.0 -0.7230108944192152 -0.0 -0.0 -0.0 -0.29025485537934526 1.0 1.0 0.34388563292746577 1.0 0.23135581362270022 1.0 1.0 1.0 1.0 0.5370235712249322 0.0 0.35338348406538206 0.38666974915738767 0.9941806018539605 0.0 0.7830005089638866 1.0 0.5295885142403516 0.7413314969646781 0.0 1.0 0.7741813877259077 0.7427887472741119 1.0 0.3020871751044777 0.9864596439189235 1.0 0.0 1.0 0.0 0.45866776748941873 0.9710329376643222 1:1.0 2:0.22256584 3:0.14430992 4:0.28722978 5:0.024419712 6:0.089356594 7:0.0 8:1.0 9:0.018388486 10:0.02429821 11:0.14826724 12:3.67545E-4 13:0.01482964 14:0.002434756 15:1.0 16:0.05513586 17:0.020836456 18:0.001564073 19:0.0 20:1.80039E-4 21:1.04568E-6 
-0.0 -1.0 -0.0 -0.8199675230955541 -0.0 -0.2249790449233583 -0.9993193083194788 -0.0 -0.0 -0.2109356670030454 -0.0 -0.0 1.0 1.0 1.0 0.3529986406729411 0.7437652664470032 0.14596704174450995 0.4891144933628072 0.07059941162018916 1.0 0.0 0.20122170989095067 0.0 0.0 0.005819398146039452 1.0 0.0 0.9639380464722591 0.0 0.0 0.0 1.0 0.0 0.0 1.0 0.0 0.0 1.0 0.0 0.9920171989610959 0.17399102238977904 0.0 0.0 1:1.0 2:0.2350751 3:0.14180417 4:0.25561243 5:0.019569686 6:0.078802094 7:0.0 8:1.0 9:0.010304793 10:0.01910019 11:0.11546821 12:0.0 13:0.008545254 14:0.001940967 15:1.0 16:0.07075546 17:8.32634E-4 18:2.69232E-4 19:0.0 20:3.36923E-5 21:3.9415E-8 
-1.0 -1.0 -0.0 -0.0 -0.0 -0.0 -0.0 -0.0 -1.0 -0.0 -0.0 -0.0 1.0 1.0 0.0 0.0 0.0 0.0 0.0 0.0 1.0 0.0 0.0 0.0 0.0 0.0 0.0 0.0 0.0 0.0 0.0 1.0 0.0 0.0 1.0 0.0 0.0 0.0 0.9579825729732689 1.0 0.0 0.0 0.0 0.0 1:1.0 2:0.2115708 3:0.11944084 4:0.23600605 5:0.015714452 6:0.0683147 7:0.0 8:1.0 9:0.01417684 10:0.013554452 11:0.11592528 12:0.0 13:0.009609098 14:0.001625035 15:1.0 16:0.05537459 17:0.003871678 18:3.24856E-4 19:1.10236E-7 20:3.10489E-5 21:0.0 
-0.2984835036695383 -1.0 -0.08393183480964161 -0.0 -0.0 -0.0 -0.0 -0.0 -0.9794857345736268 -0.0 -0.0 -0.0 1.0 1.0 0.6561143670725342 0.0 0.0 0.0 0.0 0.0 1.0 0.0 0.0 0.0 0.0 0.0 0.7553098890999946 0.0 0.0 0.0 0.0 0.9988548160876246 0.5640842208547948 0.0 0.23750244976817747 1.0 0.0 0.0 1.0 0.0 0.0 0.0 0.0 0.0 1:1.0 2:0.21262279 3:0.120329864 4:0.23681055 5:0.015871892 6:0.06874783 7:0.0 8:1.0 9:0.01397 10:0.013698773 11:0.11585258 12:0.0 13:0.009551327 14:0.001640953 15:1.0 16:0.05605203 17:0.003598918 18:3.30259E-4 19:1.09635E-7 20:3.26582E-5 21:0.0 
-1.0 -1.0 -1.0 -0.0 -0.0 -0.0 -0.0 -0.0 -1.0 -0.0 -0.39938173267609234 -0.0 1.0 1.0 0.0 0.0 0.024878919930296534 0.0 0.0 0.0 1.0 0.0 0.0 0.0 0.0 0.0 0.2606213571857412 0.0 0.0 0.0 0.0 1.0 0.0 0.0 1.0 0.0 0.0 0.0 0.0 1.0 0.0 0.0 0.0 0.0 1:1.0 2:0.18519539 3:0.092342384 4:0.211217 5:0.011145487 6:0.05609735 7:0.0 8:1.0 9:0.01897487 10:0.005877228 11:0.113797694 12:0.0 13:0.010256267 14:9.2779E-4 15:1.0 16:0.040360015 17:7.44847E-4 18:4.13591E-4 19:0.0 20:3.57102E-5 21:3.25061E-8 
-1.0 -0.0 -0.0 -0.0 -0.0 -0.0 -0.0 -0.0 -1.0 -0.0 -0.0 -0.0 -0.0 1.0 0.0 0.0 0.0 0.0 0.0 0.0 0.0 0.0 0.0 0.0 0.0 0.0 0.8695121179948 0.0 0.0 0.0 0.0 1.0 0.0 0.0 1.0 0.0 0.0 0.0 0.0 1.0 0.0 0.0 0.0 0.0 1:1.0 2:0.18500553 3:0.09123102 4:0.18464743 5:0.008449955 6:0.047023878 7:0.0 8:1.0 9:0.014016892 10:0.008898701 11:0.09267005 12:0.0 13:0.007051562 14:8.33502E-4 15:1.0 16:0.046030387 17:0.002958217 18:3.56815E-4 19:6.9261E-8 20:3.32772E-5 21:0.0 
-0.0 -1.0 -0.0 -1.0 -0.8626944718208616 -0.3109610288599204 -1.0 -0.6135931277770288 -0.0 -0.30114971297877363 -0.0 -0.33312415039568066 -1.0 0.0 1.0 1.0 0.8470548818132564 1.0 1.0 1.0 1.0 0.5355361683335855 0.29821544080778933 0.42063009959752357 0.4421736216257309 1.0 0.3623868314607582 0.8862476725409203 1.0 0.44499432292772423 0.8208207905787758 0.0 1.0 0.8232597925653617 0.7283918917522587 1.0 0.28021636940527556 1.0 1.0 0.0 1.0 0.2717675434151739 0.5153899536419664 1.0 1:1.0 2:0.25751165 3:0.16490255 4:0.25994283 5:0.021591855 6:0.08330755 7:0.0 8:1.0 9:0.00673875 10:0.029206434 11:0.10598873 12:0.0 13:0.006591205 14:0.002162605 15:1.0 16:0.08879752 17:0.003495055 18:5.15025E-4 19:1.79813E-7 20:6.61374E-5 21:0.0 
-0.0 -0.2444085413756337 -0.0 -0.0 -0.0 -0.0 -0.0 -0.0 -0.0 -0.0 -0.0 -0.0 -1.0 1.0 0.0 0.0 0.0 0.0 0.0 0.0 1.0 0.0 0.0 0.0 0.0 0.0 0.0 0.0 0.0 0.0 0.0 0.0 0.0 0.0 0.0 0.0 0.0 0.0 0.0 0.0 0.0 0.0 0.0 0.0 1:1.0 2:0.19522789 3:0.09976503 4:0.19299981 5:0.009551143 6:0.050849743 7:0.0 8:1.0 9:0.012379355 10:0.010480719 11:0.093223184 12:0.0 13:0.006819626 14:9.44113E-4 15:1.0 16:0.05193522 17:0.001928381 18:2.1923E-4 19:3.14432E-8 20:2.11313E-5 21:0.0 
-0.0 -1.0 -0.82874024288205 -0.8422689526456969 -0.0 -0.0 -1.0 -0.0 -0.0 -0.0 -0.0 -0.0 -1.0 0.0 0.6245269514238031 0.2779614751817716 0.0 0.23715471215153888 0.4469813757747223 0.16774241418403713 1.0 0.0 0.0 0.0 0.0 0.0 0.0 0.0 1.0 0.0 0.0 0.0 1.0 0.0 0.0 1.0 0.0 0.0 1.0 0.0 1.0 0.0 0.0 0.0 1:1.0 2:0.25349432 3:0.16011004 4:0.25571644 5:0.02065514 6:0.08106458 7:0.0 8:1.0 9:0.007071158 10:0.027385972 11:0.10544962 12:0.0 13:0.006661902 14:0.00207733 15:1.0 16:0.086081415 17:0.003007803 18:5.59994E-4 19:1.79424E-7 20:7.3799E-5 21:0.0 
-0.27812179967912415 -0.0 -0.0 -0.0 -0.0 -0.0 -0.0 -0.0 -1.0 -0.0 -0.0 -0.0 -0.0 1.0 0.0 0.0 0.0 0.0 0.0 0.0 0.0 0.0 0.0 0.0 0.0 0.0 0.0 0.0 0.0 0.0 0.0 1.0 0.0 0.0 0.2716081082477413 0.0 0.0 0.0 0.0 0.0 0.0 0.0 0.0 0.0 1:1.0 2:0.1926079 3:0.09740844 4:0.19052067 5:0.00921296 6:0.049741834 7:0.0 8:1.0 9:0.01278619 10:0.009945758 11:0.09286889 12:0.0 13:0.006859959 14:9.05596E-4 15:1.0 16:0.05041409 17:0.002031768 18:2.22561E-4 19:3.34476E-8 20:2.08818E-5 21:0.0 
-0.0 -1.0 -0.0 -0.0 -0.0 -0.0 -0.0 -0.0 -0.0 -0.0 -0.0 -0.0 -0.0 1.0 0.0 0.0 0.0 0.0 0.0 0.0 1.0 0.0 0.0 0.0 0.0 0.0 0.0 0.0 0.0 0.0 0.0 0.0 0.0 0.0 0.0 0.0 0.0 0.0 0.0 0.0 0.0 0.0 0.0 0.0 1:1.0 2:0.19999766 3:0.10357613 4:0.19505633 5:0.00989178 6:0.05203293 7:0.0 8:1.0 9:0.011238387 10:0.01143506 11:0.09197536 12:0.0 13:0.006473309 14:9.87522E-4 15:1.0 16:0.055372413 17:0.001241989 18:1.71635E-4 19:1.42187E-8 20:1.76188E-5 21:0.0 
-0.0 -1.0 -0.0 -0.0 -0.0 -0.0 -0.0 -0.0 -0.0 -0.0 -0.0 -0.0 -1.0 1.0 0.0 0.0 0.0 0.0 0.0 0.0 1.0 0.0 0.0 0.0 0.0 0.0 0.0 0.0 0.0 0.0 0.0 0.0 0.0 0.0 0.0 0.0 0.0 0.0 1.0 0.0 0.0 0.0 0.0 0.0 1:1.0 2:0.20162797 3:0.105897956 4:0.19928992 5:0.010460108 6:0.053676385 7:0.0 8:1.0 9:0.01151743 10:0.012106036 11:0.094296515 12:0.0 13:0.006759297 14:0.001050494 15:1.0 16:0.055603348 17:0.002202931 18:2.87822E-4 19:4.72836E-8 20:2.96802E-5 21:0.0 
-0.0 -1.0 -0.0 -0.0 -0.0 -0.0 -0.0 -0.0 -0.0 -0.0 -0.0 -0.0 -1.0 1.0 0.0 0.0 0.0 0.0 0.0 0.0 1.0 0.0 0.0 0.0 0.0 0.0 0.0 0.0 0.0 0.0 0.0 0.0 0.6190962850852559 0.0 0.0 1.0 0.0 0.0 1.0 0.0 0.0 0.0 0.0 0.0 1:1.0 2:0.22608086 3:0.12969461 4:0.22412679 5:0.014401184 6:0.06535147 7:0.0 8:1.0 9:0.008876063 10:0.018143332 11:0.09860517 12:0.0 13:0.006584862 14:0.001450196 15:1.0 16:0.06989234 17:0.001627198 18:1.90414E-4 19:2.83549E-8 20:1.84747E-5 21:0.0 
-1.0 -0.0 -0.45270389537084077 -0.0 -0.0 -0.0 -0.0 -0.0 -1.0 -0.0 -0.3160651730993145 -0.0 -0.23256062924473644 1.0 0.3754730485761969 0.0 0.1529451181867436 0.0 0.0 0.0 0.0 0.0 0.0 0.0 0.0 0.0 1.0 0.0 0.0 0.0 0.0 1.0 0.0 0.0 1.0 0.0 0.0 0.0 0.0 1.0 0.0 0.0 0.0 0.0 1:1.0 2:0.1729878 3:0.07977302 4:0.17292602 5:0.006950698 6:0.042077262 7:0.0 8:1.0 9:0.016038934 10:0.005701403 11:0.090503305 12:0.0 13:0.007155576 14:6.32134E-4 15:1.0 16:0.039513525 17:0.00119926 18:5.77379E-5 19:2.18312E-6 20:0.0 21:2.18581E-6 
-0.2809331908151821 -1.0 -0.28258348542700623 -0.0 -0.0 -0.0 -0.0 -0.0 -1.0 -0.0 -0.0 -0.0 -1.0 -1.0 0.0 0.0 0.0 0.0 0.0 0.0 1.0 0.0 0.0 0.0 0.0 0.0 1.0 0.0 0.0 0.0 0.0 1.0 0.0 0.0 1.0 0.0 0.27987188817787656 0.0 0.0 0.0 0.0 0.0 0.0 0.0 1:1.0 2:0.16874486 3:0.07752409 4:0.18787919 5:0.008207495 6:0.046478745 7:0.0 8:1.0 9:0.020708464 10:0.003965903 11:0.10535719 12:0.0 13:0.009574619 14:6.53324E-4 15:1.0 16:0.03343669 17:0.001173059 18:5.49907E-5 19:3.98736E-6 20:0.0 21:3.99034E-6 
-0.0 -1.0 -0.0 -0.0 -0.0 -0.0 -0.0 -0.0 -0.0 -0.0 -0.0 -0.0 -1.0 -1.0 0.0 0.0 0.0 0.0 0.0 0.0 1.0 0.0 0.0 0.0 0.0 0.0 1.0 0.0 0.0 0.0 0.0 0.0 0.0 0.0 1.0 0.0 0.0 0.0 1.0 0.0 0.0 0.0 0.0 0.0 1:1.0 2:0.17773326 3:0.08557929 4:0.19456038 5:0.009187263 6:0.049618714 7:0.0 8:1.0 9:0.018464878 10:0.005825857 11:0.104973994 12:0.0 13:0.009178328 14:8.18032E-4 15:1.0 16:0.038444344 17:0.001794354 18:9.06286E-5 19:6.46395E-6 20:0.0 21:6.47239E-6 
-0.0 -1.0 -0.0 -1.0 -0.781094504876892 -0.3077380797343273 -1.0 -0.5947558544895114 -0.0 -0.29850439834041853 -0.0 -0.32902280865273315 -1.0 -1.0 1.0 1.0 0.0 1.0 1.0 1.0 1.0 0.5147056604897015 0.0 0.4120353542623113 0.4329921470140359 0.0 0.23139847499493205 0.7858127801630196 1.0 0.43814831513324354 0.7525981670571542 0.0 1.0 0.7532974892451324 0.0 1.0 0.0 0.0 1.0 0.0 1.0 0.0 0.5002676488837733 1.0 1:1.0 2:0.19592553 3:0.101404615 4:0.20283668 5:0.010665336 6:0.054364573 7:0.0 8:1.0 9:0.0134917 10:0.010069754 11:0.100030884 12:0.0 13:0.00773219 14:0.001053616 15:1.0 16:0.050501864 17:0.001784843 18:6.8083E-5 19:4.20815E-6 20:0.0 21:4.21164E-6 
-1.0 -0.0 -0.0 -0.0 -0.0 -0.0 -0.0 -0.0 -1.0 -0.0 -0.3173856404368825 -0.0 -0.0 -1.0 0.0 0.0 0.0 0.0 0.0 0.0 0.0 0.0 0.0 0.0 0.0 0.0 0.0010927679481018708 0.0 0.0 0.0 0.0 1.0 0.0 0.0 0.0 0.0 0.0 0.0 0.0 1.0 0.0 0.0 0.0 0.0 1:1.0 2:0.15693189 3:0.067781806 4:0.17134655 5:0.006431938 6:0.040053844 7:0.0 8:1.0 9:0.02239548 10:0.003185471 11:0.099358685 12:1.64657E-5 13:0.00912008 14:4.87306E-4 15:1.0 16:0.028540593 17:0.002062641 18:1.25396E-4 19:8.48811E-6 20:0.0 21:8.50294E-6 
-0.0 -1.0 -1.0 -0.7461580433071652 -0.0 -0.0 -1.0 -0.0 -0.0 -0.0 -0.0 -0.0 -1.0 -1.0 1.0 0.2148534068624121 0.0 0.2276118798880501 0.25178807172931705 0.050264252814010826 1.0 0.0 0.0 0.0 0.0 1.0 0.0 0.0 1.0 0.0 0.0 0.0 1.0 0.0 0.0 1.0 0.0 1.0 1.0 0.0 1.0 0.0 0.0 0.0 1:1.0 2:0.19716471 3:0.10214801 4:0.20166054 5:0.010553044 6:0.05408333 7:0.0 8:1.0 9:0.012950465 10:0.010332029 11:0.0984159 12:0.0 13:0.007455461 14:0.001039642 15:1.0 16:0.05170617 17:0.001488594 18:3.78348E-5 19:1.58865E-9 20:1.37602E-6 21:0.0 
-1.0 -0.24598197854203163 -0.0 -0.0 -0.0 -0.0 -0.0 -0.0 -1.0 -0.0 -0.0 -0.0 -0.2328710298336965 -1.0 0.0 0.0 0.0 0.0 0.0 0.0 0.7080696716216267 0.0 0.0 0.0 0.0 0.0 0.0 0.0 0.0 0.0 0.0 1.0 0.0 0.0 0.0 0.0 0.0 0.0 0.0 1.0 0.0 0.0 0.0 0.0 1:1.0 2:0.16039987 3:0.07025514 4:0.17214178 5:0.0065848 6:0.040636413 7:0.0 8:1.0 9:0.020924544 10:0.003471384 11:0.097687215 12:0.0 13:0.008692525 14:5.18403E-4 15:1.0 16:0.030759577 17:0.001614643 18:1.32782E-4 19:7.21986E-6 20:0.0 21:7.23246E-6 
-0.0 -1.0 -0.0 -0.0 -0.0 -0.0 -0.0 -0.0 -0.0 -0.0 -0.0 -0.0 -1.0 -1.0 0.0 0.0 1.0 0.0 0.0 0.0 1.0 0.0 0.2951427391015323 0.0 0.0 0.0 0.0 0.0 0.0 0.0 0.0 0.0 0.4207163024688124 0.0 1.0 1.0 0.0 0.0 1.0 0.0 0.0 0.2693961534986525 0.0 0.0 1:1.0 2:0.19228353 3:0.097852565 4:0.19749525 5:0.009940493 6:0.052132756 7:0.0 8:1.0 9:0.013808073 10:0.009399926 11:0.098158985 12:0.0 13:0.007592766 14:9.68339E-4 15:1.0 16:0.048787266 17:0.001855043 18:4.38214E-5 19:2.38865E-9 20:1.97551E-6 21:0.0 
-1.0 -1.0 -0.2825393281405081 -1.0 -0.8542139773149532 -0.3107637123978226 -1.0 -0.6149308792047913 -1.0 -0.301000684733419 -0.3157001002992047 -0.33306481093901413 -1.0 -1.0 -1.0 1.0 0.0 1.0 1.0 1.0 1.0 0.5360369247188039 0.29808485480397245 0.42044914825727503 0.44234152338177796 1.0 1.0 0.8741783055384542 1.0 0.4458057387927421 0.8144870654547324 1.0 1.0 0.817041640229709 1.0 1.0 0.28062462964746127 1.0 1.0 1.0 1.0 0.27172814021321257 0.514950594151199 1.0 1:1.0 2:0.23947889 3:0.14785083 4:0.26225266 5:0.021040864 6:0.08198339 7:0.0 8:1.0 9:0.010449112 10:0.021261249 11:0.1179822 12:0.0 13:0.008882245 14:0.002083542 15:1.0 16:0.0726622 17:0.002937213 18:5.68125E-4 19:4.86985E-8 20:6.73974E-5 21:0.0 
-1.0 -1.0 -1.0 -0.8241336142733318 -0.0 -0.0 -1.0 -0.0 -1.0 -0.0 -0.0 -0.0 -1.0 -1.0 -1.0 0.26462696629696375 1.0 0.23557830099111357 0.3957395501519146 0.16055350591302023 1.0 0.0 0.0 0.0 0.0 0.0 1.0 0.0 1.0 0.0 0.0 1.0 1.0 0.0 1.0 1.0 0.0 0.0 1.0 1.0 1.0 0.0 0.0 0.0 1:1.0 2:0.23053695 3:0.13748826 4:0.24582084 5:0.017925723 6:0.07425834 7:0.0 8:1.0 9:0.010481697 10:0.019199086 11:0.11154904 12:0.0 13:0.008241853 14:0.001799809 15:1.0 16:0.06881727 17:0.003192238 18:5.93336E-4 19:9.63254E-8 20:7.05291E-5 21:0.0 
-1.0 -0.9344108325855566 -0.784852782705023 -1.0 -1.0 -1.0 -0.3134602105659492 -1.0 -0.18259917005646914 -1.0 -0.6590347371622267 -1.0 -0.8360794394317729 -0.2779614751817716 -0.2148534068624121 -0.26462696629696375 0.1075638124654049 1.0 1.0 1.0 0.3253735282461854 1.0 1.0 1.0 1.0 0.07016197693182717 1.0 0.19060794470583386 0.20206167224776547 1.0 1.0 0.18614232707453193 0.24783147342932327 0.6247767805996971 0.24942302972602784 0.2772151977355237 0.9133896930376939 0.0287263377791639 0.3037187575788783 0.17188100897971506 0.29975091938063453 1.0 1.0 0.019356702682347304 1:0.14320667 2:0.14683616 3:0.31997424 4:0.36216012 5:1.0 6:0.39502513 7:0.0 8:1.0 9:0.3422024 10:0.69627863 11:0.81594807 12:0.0 13:0.34852922 14:0.34595773 15:1.0 16:0.47695783 17:0.001503455 18:8.52636E-4 19:5.72323E-7 20:3.2149E-4 21:0.0 
-0.696444594772552 -1.0 -0.707961372341424 -1.0 -0.0 -0.0 -1.0 -0.0 -0.9877780014646581 -0.0 -0.0 -0.0 -0.9819816798120906 -1.0 -1.0 -1.0 0.8924361875345951 0.6914965791276637 1.0 0.6334637445527249 1.0 0.0 0.0 0.0 0.0 0.9298380230681729 0.6915717282900977 0.8093920552941661 1.0 0.0 0.452302697698956 1.0 1.0 0.0 1.0 1.0 0.0 0.9712736622208361 1.0 1.0 1.0 0.0 0.0 0.9806432973176527 1:1.0 2:0.5619987 3:0.70929986 4:0.8865706 5:0.49420047 6:0.5569144 7:0.0 8:1.0 9:0.040961757 10:0.192291 11:0.30976796 12:0.0 13:0.046858635 14:0.039901096 15:1.0 16:0.24214105 17:0.006433121 18:5.86508E-4 19:7.91971E-5 20:0.0 21:7.89939E-5 
-0.0 -0.0 -0.0 -0.5083848419898594 -0.7612965471301101 -0.0 -0.05166838874506007 -0.0 -0.0 -0.0 -0.0 -0.0 -0.0 -0.0 -0.0 -0.0 0.0 0.0 0.2958919964430043 0.0 0.7607674163783054 0.0 0.0 0.0 0.0 0.0 0.0 1.0 0.7979383277522345 0.0 1.0 0.0 1.0 0.3752232194003029 0.0 0.0 0.0 0.0 0.1680727926638306 0.0 0.19792862051180282 0.0 0.0 0.0 1:0.9238099 2:0.5693732 3:0.79161596 4:1.0 5:0.7502043 6:0.69216955 7:0.0 8:1.0 9:0.06659376 10:0.2356824 11:0.3928616 12:0.0 13:0.0774449 14:0.06413053 15:1.0 16:0.2591305 17:0.010987612 18:0.001078683 19:6.00224E-5 20:0.0 21:5.84722E-5 
-0.0 -0.0 -0.0 -1.0 -1.0 -0.0 -0.0 -1.0 -0.0 -0.0 -0.0 -0.0 -0.0 -0.0 -0.0 -0.0 0.0 0.0 0.47037409499564414 1.0 0.0 0.5476248544456481 0.0 0.28251022752543825 0.2537433053594135 0.0 0.0 1.0 0.0 0.4591059239656999 1.0 0.0 1.0 1.0 0.0 0.0 0.0 0.0 0.0 0.0 0.0 0.0 0.0 0.0 1:0.555373 2:0.40960458 3:0.67048573 4:0.8234094 5:1.0 6:0.67267954 7:0.0 8:1.0 9:0.13115157 10:0.3594074 11:0.5365506 12:0.0 13:0.1452217 14:0.12869018 15:1.0 16:0.3173645 17:0.013998555 18:0.002253792 19:8.52578E-6 20:1.3775E-4 21:0.0 
-1.0 -1.0 -1.0 -1.0 -0.8488609574753532 -0.3108131871380074 -1.0 -0.6131015326080975 -1.0 -0.3010680063744873 -0.3155472634818477 -0.33290443681195564 -1.0 -1.0 -1.0 -1.0 -1.0 1.0 1.0 1.0 1.0 0.5344084219878094 0.2980900197787097 0.41998033331150375 0.4416486934191079 1.0 1.0 0.867732148270076 1.0 0.4450749975106834 0.8096277851875678 1.0 1.0 0.8121708501131515 1.0 1.0 0.2805554525816369 1.0 1.0 1.0 1.0 0.27171887733967137 0.5140529952176371 1.0 1:1.0 2:0.24054967 3:0.15032843 4:0.25343543 5:0.020089744 6:0.078536905 7:0.0 8:1.0 9:0.009552108 10:0.024991315 11:0.11162831 12:0.0 13:0.008024656 14:0.002113956 15:1.0 16:0.07515426 17:0.008196938 18:0.001388368 19:1.17048E-6 20:1.71958E-4 21:0.0 
-1.0 -1.0 -1.0 -1.0 -1.0 -0.4268360133569379 -1.0 -0.8572581147729361 -1.0 -0.10294040914478557 -0.24260783478180434 -0.18662767408348183 -1.0 -1.0 -1.0 -1.0 -1.0 -1.0 1.0 1.0 1.0 0.6925023657464893 0.36273960797900523 0.6981948299432837 0.6435607938926157 1.0 1.0 1.0 1.0 0.8864195898784657 1.0 1.0 1.0 1.0 1.0 1.0 0.1637987172773688 0.9959835466560745 1.0 1.0 1.0 0.09862849237624638 0.40620195289555366 0.98587582736708 1:1.0 2:0.34991115 3:0.30569175 4:0.4749018 5:0.09902558 6:0.20639181 7:0.0 8:1.0 9:0.015560948 10:0.063279584 11:0.19671002 12:0.0 13:0.020181203 14:0.010254477 15:1.0 16:0.121826686 17:0.011424959 18:0.001949856 19:2.74352E-6 20:1.80494E-4 21:0.0 
-1.0 -1.0 -1.0 -0.3677776445117833 -0.15992017323392194 -1.0 -0.24595340926582906 -0.6009318590350794 -0.22856869927347637 -0.637019645204499 -0.8884820213127472 -0.0 -1.0 -0.2371547121515388 -0.2276118798880501 -0.23557830099111354 -0.16690408731424336 -0.0 1.0 0.2285534188198282 0.2861627631067402 1.0 1.0 1.0 1.0 0.0 1.0 0.054799065734870187 0.2504411419291987 0.11358041012153428 1.0 0.22333940156689128 0.2636495529115056 0.12209658942451429 0.2401507624730977 0.23692166904993076 1.0 0.0 0.26606669884345774 0.22071590109580147 0.25213896758438 0.09003048979706929 0.10048090753777128 0.0 1:9.97344E-6 2:5.11579E-5 3:7.90236E-4 4:8.15523E-4 5:1.0 6:0.006880804 7:2.30725E-5 8:0.9425451 9:0.9424656 10:0.9452335 11:0.94549674 12:0.0 13:0.94265836 14:0.9257371 15:0.2474592 16:1.0 17:0.107836016 18:0.09539594 19:0.16458552 20:0.38510135 21:0.0 
-0.8287612507316454 -0.06961005628089115 -0.0 -0.4826034626485966 -1.0 -1.0 -0.0 -1.0 -0.0 -0.26003994565071537 -0.0 -0.8133723259165182 -0.14596704174450995 -0.0 -0.0 -0.0 -0.5245924918134202 -0.0 1.0 1.0 0.002508114243318415 0.0 1.0 1.0 1.0 0.0 0.22509942502736355 0.21891623324828646 0.0032641911814115594 1.0 1.0 0.0 0.03465209860263091 0.44227598018532044 0.0 0.0 0.14295217789898737 0.0 0.0 0.0 0.0 1.0 0.493317139566675 0.0 1:1.24585E-5 2:5.89668E-5 3:8.77904E-4 4:8.9626E-4 5:1.0 6:0.007325885 7:0.0 8:0.98421794 9:0.9841184 10:0.9874301 11:0.98759377 12:0.0 13:0.9841663 14:0.9881974 15:0.24879634 16:1.0 17:8.55528E-4 18:6.07486E-4 19:0.0 20:0.002425703 21:9.93751E-6 
-1.0 -0.0 -0.0 -0.0 -0.059479404647234196 -1.0 -0.0 -0.8080203856200531 -0.0 -0.0 -0.0 -0.0 -0.0 -0.0 -0.0 -0.0 -0.0 -0.0 1.0 0.19673504609640224 0.0 0.8113056569237309 1.0 1.0 1.0 0.0 0.0 0.0 0.0 1.0 1.0 0.0 0.0 0.0 0.0 0.0 1.0 0.00401645334392553 0.0 0.0 0.0 0.8113410178266842 0.0 0.014124172632919929 1:9.29507E-5 2:1.33745E-4 3:8.73651E-4 4:8.93512E-4 5:1.0 6:0.006934081 7:6.70445E-5 8:0.99153656 9:0.9914522 10:0.99442714 11:0.9946207 12:0.0 13:0.9915469 14:0.98599976 15:0.24236083 16:1.0 17:0.014596379 18:0.004669173 19:8.21286E-4 20:0.01595342 21:0.0 
-1.0 -0.0 -0.0 -0.7682818669590059 -0.9718340688121649 -1.0 -0.0 -1.0 -0.0 -0.7960190468007782 -0.0 -0.7797402637628112 -0.0 -0.0 -0.0 -0.0 -0.5244792725746411 -0.0 -1.0 1.0 0.0 1.0 1.0 1.0 1.0 0.0 0.45478829757582995 0.1772354745685981 0.0 1.0 1.0 0.0 0.041880864757647976 0.315237866539354 0.0 0.0 0.872536584196357 0.0 0.0 0.0 0.0 1.0 0.5026037745616893 0.0 1:2.10011E-5 2:2.93615E-5 3:2.52455E-4 4:2.56167E-4 5:1.0 6:0.003042893 7:2.0475E-6 8:0.9574468 9:0.95743614 10:0.9583041 11:0.9583332 12:0.0 13:0.957438 14:0.9691048 15:0.15732543 16:1.0 17:0.02097985 18:0.031021765 19:0.03458945 20:0.20489529 21:0.0 
-0.023193416914158903 -0.647698753411307 -0.0 -1.0 -0.8752747726510163 -0.0 -0.4960592817094502 -0.10479055320448448 -0.0 -0.0 -0.0 -0.0 -0.31377754240286065 -0.30626414536590213 -0.10921308668125869 -0.2536907509238408 -1.0 -0.0 -0.09442297429418015 0.8248338976977433 1.0 0.008754582898220993 0.0 0.0 0.0 0.0 0.07990627697824627 1.0 1.0 0.0 1.0 0.0412401871060184 1.0 0.5621351283476214 0.16729819144770156 0.30522889991541546 0.0 0.7615050745899692 0.571696251367964 0.008711092186032976 0.6833971063191666 0.0 0.0 0.973615753138972 1:0.93384135 2:0.5743732 3:0.75407845 4:0.85383886 5:0.5504901 6:0.5615413 7:0.0 8:1.0 9:0.044535372 10:0.29712227 11:0.28700957 12:0.0 13:0.030654851 14:0.040825088 15:1.0 16:0.3127041 17:0.03561961 18:0.023822775 19:2.81789E-4 20:0.008405578 21:0.0 
-1.0 -1.0 -1.0 -0.4292433591897888 -0.15289115853681878 -0.0 -0.14508493058222094 -0.1958010103472195 -0.1508073524275513 -0.0 -1.0 -0.0 -1.0 -0.1407172304088202 -0.14257498504805835 -0.14204879922807384 -0.24178681886400757 -0.09629665164461819 -0.47756565718206795 0.08370306742983377 0.20500316184255654 0.0 0.0 0.03932245349014144 0.0 0.06338164558870815 0.32667645139947527 0.1793044882609138 0.05570702066929168 0.1912854364855221 0.47018536446959897 0.14100793902363462 0.2937559171668736 0.12262700511302468 0.15232680641996876 0.13993737427808736 0.3090265147623265 0.039004452395718 0.14738701600444923 0.14035101785641288 0.14407931390691772 0.0 0.034349722589365195 0.026384246861027933 1:5.81084E-5 2:6.58112E-5 3:2.63781E-4 4:2.6589E-4 5:1.0 6:0.002879667 7:2.77849E-5 8:0.83156216 9:0.83155507 10:0.83230555 11:0.8322377 12:0.0 13:0.8313067 14:0.76083034 15:0.001485585 16:0.011640094 17:0.015551809 18:0.015347297 19:1.0 20:0.10833585 21:0.0 
-0.5366025254726593 -0.0 -0.0 -0.0 -0.0 -1.0 -0.0 -0.8414271809524373 -0.0 -0.0 -0.0 -0.0 -0.0 -0.0 -0.0 -0.0 -0.0 -0.0 -1.0 0.09146303487242272 0.0 0.36741336327968543 1.0 1.0 1.0 0.0 0.0 0.0 0.0 0.8339384046035367 1.0 0.0 0.0 0.0 0.0 0.0 0.0 0.0 0.0 0.0 0.0 0.8633298243398024 0.0 0.0 1:8.20574E-5 2:8.54576E-5 3:1.98709E-4 4:2.00164E-4 5:1.0 6:0.001991143 7:7.36212E-5 8:0.9631463 9:0.9631429 10:0.9635868 11:0.9635956 12:0.0 13:0.96313244 14:0.9705663 15:0.12258022 16:1.0 17:0.016679458 18:0.028462324 19:0.048298623 20:0.2504148 21:0.0 
-1.0 -0.0 -0.0 -0.0 -0.0 -0.7269919298317745 -0.0 -0.0 -0.0 -0.07493145014702571 -0.0 -0.0 -0.17533695095994653 -0.0 -0.0 -0.0 -0.0 -0.0 -0.42801136852375193 0.0 0.0 0.25017667420764284 0.46068334641699615 0.7790926802230607 0.7596218318338389 0.0 0.3595967288398819 0.0 0.0 0.0 0.33281619383438543 0.0 0.0 0.0 0.0 0.0 0.7757288898261734 0.0 0.0 0.0 0.0 0.0 0.0 0.0 1:7.7392E-5 2:1.07652E-4 3:6.8772E-4 4:7.06739E-4 5:1.0 6:0.005915358 7:6.8275E-5 8:0.9110694 9:0.91101867 10:0.91315436 11:0.913297 12:0.0 13:0.9110628 14:0.9132863 15:0.20479335 16:0.9776784 17:0.24117033 18:0.18905188 19:1.0 20:0.9280694 21:0.0 
-0.5556477336671707 -0.13605922292298647 -0.0780079436928364 -0.0 -0.0 -0.0 -0.0 -0.0 -0.0 -0.0 -0.8550448831458657 -0.0 -0.0 -0.0 -0.0 -0.0 -0.0 -0.0 -0.0 0.0 0.0 0.143085606319909 0.07888600156258437 0.0 0.17553611593886922 0.0 0.0 0.0 0.0 0.0 0.0 0.0 0.0 0.0 0.0 0.0 1.0 0.0 0.0 0.0 0.0 0.0 0.0 0.0 1:6.35397E-5 2:6.8325E-5 3:2.11099E-4 4:2.12737E-4 5:1.0 6:0.002307946 7:4.81814E-5 8:0.87298447 9:0.87298 10:0.8735153 11:0.87349576 12:0.0 13:0.8728621 14:0.8413357 15:0.001687136 16:0.032503 17:0.020396156 18:0.022190802 19:1.0 20:0.18916078 21:0.0 
-1.0 -1.0 -0.9219920563071636 -1.0 -1.0 -0.45030729963736715 -1.0 -1.0 -0.9949725306766629 -0.1290495030521962 -0.1449551168541343 -0.22025973623718875 -1.0 -1.0 -1.0 -1.0 -1.0 -0.9037033483553818 -1.0 1.0 1.0 1.0 0.3863372456737988 0.7370626538969889 0.6566309038914893 0.9366183544112918 1.0 1.0 0.9442929793307083 0.974776158910941 1.0 1.0 1.0 1.0 1.0 1.0 0.04270801121514309 0.19949047301431277 1.0 1.0 1.0 0.1366701756601976 0.46304650284894555 0.0 1:0.88859856 2:0.5466124 3:0.7171317 4:0.8214324 5:0.5751475 6:0.5444237 7:0.0 8:1.0 9:0.049084973 10:0.32471046 11:0.31143063 12:0.0 13:0.0342992 14:0.049944706 15:1.0 16:0.31247917 17:0.071802035 18:0.04853893 19:0.001136802 20:0.017097274 21:0.0 
-1.0 -0.7995937642307651 -0.7387231615854397 -1.0 -1.0 -1.0 -0.07614150791632347 -1.0 -0.1727624373340387 -1.0 -0.6440002141707161 -1.0 -0.908801451168655 -0.16774241418403718 -0.16017293688009257 -0.16055350591302023 -0.6334637445527249 -0.13695677152036412 -1.0 -1.0 0.0 1.0 1.0 1.0 1.0 0.10347218347406717 1.0 0.0 0.0 1.0 1.0 0.15856225391137507 0.0 0.0 0.16816644437688202 0.16703316296976561 1.0 0.05662019481723704 0.0 0.16055746742850574 0.0 1.0 0.21384123119509554 0.03800392870400276 1:0.035762865 2:0.048939764 3:0.13586102 4:0.15162063 5:1.0 6:0.22230515 7:0.0 8:0.9164497 9:0.63576573 10:0.9279408 11:1.0 12:0.0 13:0.6374648 14:0.72855675 15:1.0 16:0.66054976 17:0.035865985 18:0.03556257 19:0.001005757 20:0.025949843 21:0.0 
-0.2576839691225229 -1.0 -0.8469908869733394 -1.0 -1.0 -0.0 -1.0 -0.7249267971655204 -0.8144240034442675 -0.0 -0.0 -0.0 -0.8423812213601014 -1.0 -0.8900913159339182 -1.0 -1.0 -0.8630432284796359 -0.42528846491623046 -1.0 1.0 0.3139650911873705 0.0 0.05368896989141772 0.0168565703138294 0.8965278165259328 0.5704338821216236 1.0 1.0 0.25081640971547076 1.0 0.841437746088625 1.0 1.0 0.9464993479142284 1.0 0.0 0.943379805182763 1.0 0.8293887361860703 1.0 0.0 0.0 0.9619960712959973 1:0.98268265 2:0.5716956 3:0.7499549 4:0.96552646 5:0.6258474 6:0.63645554 7:0.0 8:1.0 9:0.053193733 10:0.20992543 11:0.35658655 12:0.0 13:0.06070627 14:0.066402614 15:1.0 16:0.24622735 17:3.64117E-4 18:0.001333016 19:1.38183E-7 20:3.99596E-4 21:0.0 
-1.0 -0.0 -0.0 -1.0 -1.0 -1.0 -0.15675780487658864 -1.0 -0.0 -0.0 -0.11245304218494247 -0.0 -0.0 -0.0 -0.0 -0.0 -1.0 -0.0 -1.0 -1.0 0.5276491736139632 1.0 0.7771656325410097 1.0 1.0 0.0 0.3365399961071156 1.0 0.48336796240714897 1.0 1.0 0.0 0.9759246136817273 1.0 0.0 0.0 0.2585779165151511 0.0 0.2923145290387806 0.0 0.292821795051134 0.5504828598687652 0.7861587688049044 0.0 1:0.13716288 2:0.14141767 3:0.30228934 4:0.34763968 5:1.0 6:0.3848656 7:0.0 8:1.0 9:0.3688791 10:0.7316191 11:0.85306734 12:0.0 13:0.37182438 14:0.4365826 15:1.0 16:0.481386 17:0.015070606 18:0.017412279 19:1.69024E-4 20:0.009519 21:0.0 
-0.0 -1.0 -0.0 -0.21259819739932037 -0.0 -0.0 -0.0 -0.0 -0.0 -0.0 -0.0 -0.0 -1.0 -1.0 -1.0 -0.0 -0.08614094462449076 -0.0 -0.0 -0.20500316184255654 -0.0 0.0 0.0 0.0 0.0 0.0 0.0 0.0 0.12062042701614496 0.0 0.0 0.0 1.0 0.0 0.0 0.0 0.0 0.0 1.0 0.0 0.0 0.0 0.0 0.0 1:1.0 2:0.27851763 3:0.2289974 4:0.4452537 5:0.0778728 6:0.1751435 7:0.0 8:1.0 9:0.028471738 10:0.044303063 11:0.23385188 12:0.0 13:0.031613443 14:0.009525498 15:1.0 16:0.06620152 17:0.042984653 18:0.002486468 19:1.08687E-5 20:3.36784E-4 21:0.0 
-1.0 -1.0 -1.0 -0.0 -0.0 -0.015068558560160933 -0.0 -0.0 -1.0 -0.03401975392594099 -0.16158155753964798 -0.0 -1.0 -1.0 -1.0 -0.5060482068070162 -0.0 -0.0 -0.7245524585330791 -0.0 -0.0 0.0 0.017316870907817555 0.0 0.0 0.0 1.0 0.0 0.0 0.0 0.0 1.0 0.0 0.0 1.0 1.0 0.06429913436826153 0.0 1.0 1.0 0.0 0.014828307817011034 0.0 0.0 1:1.0 2:0.21111709 3:0.15478393 4:0.38344502 5:0.04726864 6:0.13014309 7:0.0 8:1.0 9:0.045479596 10:0.03561134 11:0.24764158 12:0.002902599 13:0.040094092 14:0.006858178 15:1.0 16:0.029257879 17:0.056217883 18:0.002427029 19:6.27666E-6 20:2.2602E-4 21:0.0 
-1.0 -1.0 -0.30709093970434204 -0.0 -0.0 -0.0 -1.0 -0.0 -1.0 -0.0 -0.0 -0.0 -1.0 -1.0 -1.0 -1.0 -0.0 -1.0 -0.0 -0.0 -0.0 0.0 0.0 0.0 0.0 0.5976270099196955 1.0 0.0 0.0 0.0 0.0 1.0 0.0 0.0 1.0 1.0 0.0 0.0 1.0 1.0 1.0 0.0 0.0 0.0 1:1.0 2:0.24268 3:0.18206242 4:0.38517234 5:0.053346153 6:0.13774802 7:0.0 8:1.0 9:0.030212697 10:0.03403647 11:0.2157831 12:0.0 13:0.028673312 14:0.006683418 15:1.0 16:0.049865544 17:0.0414078 18:0.003147392 19:1.4259E-5 20:3.71813E-4 21:0.0 
-0.0 -0.29889212259853387 -0.0 -1.0 -1.0 -0.3279455316510526 -0.0 -0.8852786054269024 -0.0 -0.2942048646553029 -0.17183143792563674 -0.37688283926766797 -0.22043624297137435 -1.0 -0.7080696716216267 -0.0 -1.0 -0.0 -0.5641184188169794 -1.0 -1.0 0.8594121253236601 0.31011599844758475 0.5115254407279548 0.5487284328311892 0.0 0.0 1.0 0.879379572983855 0.5389914219072132 1.0 0.0 1.0 1.0 0.0 0.0 0.23770211246389314 0.3387841063755761 0.0 0.0 0.0 0.28173062576314595 0.6799723513646482 0.7849125071310782 1:1.0 2:0.36718577 3:0.39504835 4:0.74398196 5:0.29922697 6:0.3807885 7:0.0 8:1.0 9:0.06408306 10:0.11133255 11:0.40848985 12:0.0 13:0.08763307 14:0.03833218 15:1.0 16:0.08522067 17:0.10345248 18:0.01297753 19:2.51318E-4 20:0.002243538 21:0.0 
-0.3113832109401285 -1.0 -0.0 -0.0 -0.0 -0.0 -1.0 -0.0 -1.0 -0.0 -0.0 -0.0 -1.0 -1.0 -1.0 -0.49395179319298377 -0.0 -0.0 -0.0 -0.0 -0.0 0.0 0.0 0.0 0.0 0.0 0.25965961652160224 0.0 0.0 0.0 0.0 1.0 0.5155476064058238 0.0 1.0 1.0 0.0 0.0 1.0 0.0 0.4336154033559546 0.0 0.0 0.0 1:1.0 2:0.25214 3:0.19371895 4:0.39956012 5:0.05736184 6:0.14626263 7:0.0 8:1.0 9:0.030489376 10:0.036501355 11:0.21996279 12:0.001450072 13:0.030343983 14:0.008016926 15:1.0 16:0.05436912 17:0.03987117 18:0.001767147 19:5.95627E-6 20:1.73847E-4 21:0.0 
-0.0 -1.0 -0.0 -1.0 -0.30252653831230963 -0.0 -0.0 -0.0 -0.0 -0.0 -0.0 -0.0 -1.0 -1.0 -1.0 -0.0 -1.0 -0.0 -0.0 -1.0 -0.5276491736139632 0.0 0.0 0.0 0.0 0.40237299008030447 0.0 0.5592660943188523 1.0 0.0 0.4311260655068402 0.0 1.0 0.39329386873272804 0.0 0.0 0.0 0.6612158936244239 0.0 0.0 0.5663845966440454 0.0 0.0 0.21508749286892181 1:1.0 2:0.3110183 3:0.27146208 4:0.4906489 5:0.10252496 6:0.20705399 7:0.0 8:1.0 9:0.026767734 10:0.053971134 11:0.24206114 12:0.0 13:0.032546315 14:0.012677368 15:1.0 16:0.08373423 17:0.0388332 18:0.003257358 19:1.52457E-5 20:4.56633E-4 21:0.0 
-1.0 -0.0 -0.0 -0.0 -0.17822874126610272 -1.0 -0.0 -1.0 -0.0 -0.0 -0.0 -0.0 -0.0 -0.0 -0.0 -0.0 -0.0 -0.0 -1.0 -0.7694302267054584 -0.3139650911873706 -0.0 1.0 1.0 1.0 0.0 0.29181397078109156 0.0 0.0 1.0 1.0 0.0 0.0 0.0 0.0 0.0 0.6066723477415031 0.0 0.0 0.0 0.0 1.0 0.0 0.0 1:0.029178286 2:0.039215066 3:0.09269591 4:0.11953051 5:1.0 6:0.18963662 7:0.0 8:0.8627943 9:0.72407997 10:0.8862802 11:1.0 12:0.0 13:0.741321 14:0.73249537 15:1.0 16:0.62637985 17:0.4160964 18:0.25303528 19:0.08388967 20:0.18770668 21:0.0 
-0.4988585694372033 -0.0 -0.0 -0.0 -0.0 -1.0 -0.0 -1.0 -0.0 -0.0 -0.0 -0.0 -0.0 -0.0 -0.0 -0.0 -0.0 -0.0 -0.0 -0.0 -0.0 -0.0 0.5837604506389727 1.0 1.0 0.0 0.0 0.0 0.0 0.0 0.48353036902870605 0.0 0.0 0.0 0.0 0.0 0.0 0.0 0.0 0.0 0.0 0.0 0.0 0.0 1:0.03473761 2:0.045293946 3:0.09570996 4:0.12669185 5:1.0 6:0.19841538 7:0.0 8:0.86235005 9:0.73060566 10:0.8955162 11:0.9997439 12:0.0 13:0.7439601 14:0.7300158 15:1.0 16:0.6257129 17:0.59296757 18:0.34904337 19:0.16244397 20:0.26137862 21:0.0 
-0.0 -1.0 -0.7787728397939578 -1.0 -1.0 -0.0 -0.5659468362685756 -1.0 -0.5178387718816606 -0.0 -0.10549178567585667 -0.0 -0.62942992521729 -0.5355361683335855 -0.5147056604897015 -0.5360369247188039 -1.0 -0.5344084219878094 -0.5038080226702202 -1.0 -1.0 -0.8594121253236601 0.0 0.36219725323470786 0.10523991559914077 0.5780998138764091 0.21809954395471415 1.0 0.7073661605598691 1.0 1.0 0.5092991664884111 1.0 1.0 0.5511231662727152 0.536408867211512 0.0 0.6670553748396055 0.6606385740494212 0.50481198656315 0.5976475297338307 0.0 0.6488242797753063 0.7287610565459001 1:0.29464832 2:0.2407603 3:0.29176936 4:0.5288316 5:1.0 6:0.5209235 7:0.0 8:0.96779084 9:0.44719914 10:0.67197 11:0.98048574 12:0.0 13:0.49409276 14:0.4127291 15:1.0 16:0.28950268 17:0.38458762 18:0.16963252 19:0.033220563 20:0.07226591 21:0.0 
-1.0 -0.30040165438965577 -0.4065611561453741 -1.0 -1.0 -1.0 -0.0 -1.0 -0.0 -1.0 -0.5883702434291814 -1.0 -0.7125821846440411 -0.0 -0.0 -0.0 -0.5476248544456481 -0.0 -1.0 -1.0 -1.0 -0.0 1.0 1.0 1.0 0.0 1.0 0.0 0.0 1.0 1.0 0.0 0.0 0.3332803145434282 0.0 0.0 1.0 0.0 0.0 0.0 0.0 1.0 0.3511757202246936 0.0 1:0.028184358 2:0.038101133 3:0.09140843 4:0.11741729 5:1.0 6:0.18723889 7:0.0 8:0.863038 9:0.7257585 10:0.8864697 11:1.0 12:0.0 13:0.7433495 14:0.73489314 15:1.0 16:0.6297432 17:0.40109682 18:0.24413376 19:0.07831178 20:0.18160808 21:0.0 
-0.0 -0.0 -0.0 -0.0 -0.0 -0.26157040339601956 -0.0 -1.0 -0.0 -0.0 -0.10939243142932982 -0.0 -0.08335543067583642 -0.0 -0.0 -0.0 -0.0 -0.0 -0.0 -0.0 -0.0 -0.0 0.0 0.0 0.0 0.0 0.0 0.0 0.0 0.0 0.0 0.0 0.0 0.0 0.0 0.0 0.0 0.0 0.0 0.0 0.0 0.0 0.0 0.0 1:0.047305606 2:0.060047876 3:0.10767475 4:0.15181749 5:1.0 6:0.22927402 7:0.0 8:0.8286747 9:0.69643915 10:0.8767359 11:0.9639954 12:0.0 13:0.7047309 14:0.6755037 15:1.0 16:0.60493296 17:0.8062165 18:0.48848888 19:0.3036101 20:0.36605716 21:0.0 
-0.0 -0.0 -0.0 -0.0 -0.36675842553443133 -1.0 -0.0 -1.0 -0.0 -0.0 -0.0 -0.0 -0.0 -0.0 -0.0 -0.0 -0.0 -0.0 -1.0 -0.3023212722204727 -0.7771656325410097 -0.0 -1.0 1.0 1.0 0.0 0.0 0.0 0.0 1.0 0.6011010440683934 0.0 0.0 0.0 0.0 0.0 0.0 0.0 0.0 0.0 0.0 0.0 0.0 0.0 1:6.61151E-4 2:0.002245565 3:0.014711541 4:0.015338878 5:1.0 6:0.04876374 7:0.0 8:0.95344895 9:0.94273376 10:0.994761 11:1.0 12:0.0 13:0.94328266 14:0.92904395 15:0.6603753 16:1.0 17:0.006294395 18:0.002653853 19:3.41979E-5 20:0.002486294 21:0.0 
-1.0 -0.8722473393419472 -0.7745784412841468 -0.0 -0.0 -1.0 -0.0 -0.10019833849101585 -0.0 -0.030604562539918778 -0.7586363301727939 -0.0 -0.7548228101516453 -0.0 -0.0 -0.0 -0.0 -0.0 -1.0 -1.0 -0.0 -0.0 -0.0 1.0 1.0 0.0 0.5338564703792235 0.0 0.0 0.0 1.0 0.0 0.0 0.0 0.0 0.0 1.0 0.0 0.0 0.0 0.0 1.0 0.0 0.0 1:1.14183E-4 2:8.86538E-4 3:0.007938696 4:0.008251315 5:1.0 6:0.032481585 7:0.0 8:0.96548814 9:0.9615034 10:0.9906666 11:0.99338526 12:0.0 13:0.9619756 14:0.9335668 15:0.53694063 16:1.0 17:0.019910071 18:0.014395346 19:8.69963E-4 20:0.027122034 21:0.0 
-0.5683593637911089 -0.0 -0.0 -0.0 -0.0 -1.0 -0.0 -1.0 -0.0 -0.0 -0.0 -0.0 -0.0 -0.0 -0.0 -0.0 -0.0 -0.0 -1.0 -1.0 -0.0 -0.0 -0.5837604506389727 1.0 1.0 0.0 0.0 0.0 0.0 0.7720680891658078 1.0 0.0 0.0 0.0 0.0 0.0 0.6539957891296075 0.0 0.0 0.0 0.0 0.7587304881475551 0.0 0.0 1:4.71707E-4 2:0.001884672 3:0.013262269 4:0.013871194 5:1.0 6:0.04568723 7:0.0 8:0.9566961 9:0.9475369 10:0.99439377 11:1.0 12:0.0 13:0.9485628 14:0.9273576 15:0.64400655 16:1.0 17:0.003349122 18:0.001980918 19:1.32535E-5 20:0.002077588 21:0.0 
-1.0 -0.044138533031867155 -0.1029724158958224 -1.0 -1.0 -1.0 -0.301738127114656 -1.0 -0.2984932485806473 -0.9693954374600813 -0.0 -1.0 -0.3669761785995826 -0.29821544080778933 -0.2951427391015323 -0.29808485480397245 -1.0 -0.2980900197787097 -0.36273960797900523 -0.6235853214329065 -1.0 -0.3274328693554023 -1.0 1.0 1.0 0.3033280995833999 0.7904618754665038 0.4173181899487404 0.3090397702013993 1.0 1.0 0.2948649242771715 0.36021213290322335 0.9248871289540345 0.3017032424947781 0.2982657865831042 0.16999876269313388 0.3086190650138769 0.3119808502527827 0.2941148001165911 0.30425035259242755 0.24126951185244494 1.0 0.31126960209862103 1:0.002008808 2:0.005477791 3:0.02831972 4:0.030320497 5:1.0 6:0.07695686 7:0.0 8:0.8893981 9:0.8603853 10:0.9495445 11:0.9632156 12:0.0 13:0.86131114 14:0.8280432 15:0.84981865 16:1.0 17:0.10755867 18:0.08752118 19:0.013036113 20:0.10732911 21:0.0 
-1.0 -0.6986906668471405 -0.5830069409944131 -1.0 -1.0 -1.0 -0.4318125432270467 -1.0 -0.4154361064337124 -0.0 -0.2146574446719487 -0.0 -0.4073976667578577 -0.42063009959752357 -0.4120353542623113 -0.42044914825727503 -1.0 -0.41998033331150375 -1.0 -1.0 -1.0 -0.5115254407279548 -1.0 -1.0 1.0 0.4369196566594869 0.4453734915645676 0.7673997473633212 0.470140720040601 1.0 1.0 0.40988669957301394 0.6117235649100337 1.0 0.42704560430797317 0.4209815661029524 0.1810564034734179 0.462511288373377 0.46272214981974896 0.40805921663264566 0.44211990279407065 0.0 1.0 0.47666574947844237 1:0.053377792 2:0.069178194 3:0.18581882 4:0.19913565 5:1.0 6:0.26742026 7:0.0 8:0.9871097 9:0.5567062 10:0.9531335 11:0.97688496 12:0.0 13:0.5440514 14:0.567112 15:1.0 16:0.64114463 17:0.009925208 18:0.001726298 19:3.56312E-4 20:0.0 21:3.60138E-4 
-1.0 -0.5789629639902933 -0.6388545510408103 -0.0 -0.0 -1.0 -0.0 -1.0 -0.0 -0.42967255278445604 -0.7816964600283127 -0.0 -0.9459858173075244 -0.0 -0.0 -0.0 -0.0 -0.0 -1.0 -1.0 -0.05368896989141772 -0.0 -1.0 -1.0 1.0 0.0 1.0 0.0 0.0 0.0 1.0 0.0 0.0 0.0 0.0 0.0 1.0 0.0 0.0 0.0 0.0 0.1931973401790854 0.0 0.0 1:3.29953E-4 2:6.87376E-4 3:0.004481245 4:0.004622248 5:1.0 6:0.021486409 7:2.21576E-4 8:0.8899068 9:0.888678 10:0.9034406 11:0.90396255 12:0.0 13:0.8881735 14:0.8579837 15:0.42245534 16:1.0 17:0.17534286 18:0.17450847 19:0.18282725 20:0.42756116 21:0.0 
-1.0 -0.0 -0.0 -0.0 -0.0 -1.0 -0.0 -1.0 -0.0 -0.1274551268322889 -0.0 -0.030721887177949925 -0.0 -0.0 -0.0 -0.0 -0.0 -0.0 -1.0 -1.0 -0.0 -0.0 -0.3621972532347079 -1.0 1.0 0.0 0.0 0.0 0.0 1.0 1.0 0.0 0.0 0.0 0.0 0.0 1.0 0.0 0.0 0.0 0.0 1.0 0.0 0.0 1:1.83832E-4 2:4.43621E-4 3:0.00344475 4:0.003583631 5:1.0 6:0.01819451 7:0.0 8:0.9137338 9:0.91288453 10:0.92433053 11:0.9252668 12:0.0 13:0.9128454 14:0.9134862 15:0.40220407 16:1.0 17:0.13586858 18:0.10135945 19:0.07879755 20:0.23281603 21:0.0 
-0.09483366152005003 -0.0 -0.0 -0.9927855143149756 -1.0 -1.0 -0.0 -1.0 -0.0 -0.4428723203832551 -0.0 -0.9692781128220501 -0.0 -0.0 -0.0 -0.0 -0.28251022752543825 -0.0 -0.6981948299432836 -0.555477787610191 -1.0 -0.0 -1.0 -1.0 1.0 0.0 0.0 0.0 0.0 1.0 1.0 0.0 0.0 0.06797194705815046 0.0 0.0 0.0 0.0 0.0 0.0 0.0 0.8068026598209146 0.0 0.0 1:0.013780818 2:0.023478938 3:0.083298184 4:0.09150951 5:1.0 6:0.15885915 7:0.0 8:0.889692 9:0.7333024 10:0.9498074 11:0.99694115 12:0.0 13:0.7314824 14:0.72710866 15:1.0 16:0.79064673 17:0.09256084 18:0.02625647 19:2.4903E-4 20:0.010012855 21:0.0 
-1.0 -0.0 -0.0 -0.0 -0.0 -1.0 -0.0 -0.46787125266267254 -0.0 -0.0 -0.0 -0.0 -0.0 -0.0 -0.0 -0.0 -0.0 -0.0 -1.0 -1.0 -0.0 -0.0 -0.10523991559914057 -1.0 -1.0 0.0 0.0 0.0 0.0 0.0 1.0 0.0 0.0 0.0 0.0 0.0 1.0 0.0 0.0 0.0 0.0 1.0 0.0 0.0 1:1.21918E-5 2:4.16667E-5 3:6.17549E-4 4:6.31636E-4 5:1.0 6:0.005782457 7:7.38025E-6 8:0.9461166 9:0.9460643 10:0.9482552 11:0.94840986 12:0.0 13:0.9461928 14:0.94040304 15:0.2221845 16:1.0 17:0.077268146 18:0.072543494 19:0.114912294 20:0.3335545 21:0.0 
-1.0 -0.8318370705060328 -0.7153390866058349 -1.0 -1.0 -1.0 -0.45493991739083034 -1.0 -0.43698573369406657 -0.0 -0.3073752291057961 -0.1944314656612277 -0.5951691734983551 -0.4421736216257309 -0.4329921470140359 -0.44234152338177796 -1.0 -0.4416486934191079 -1.0 -1.0 -1.0 -0.5487284328311892 -1.0 -1.0 -1.0 0.45989823790025425 0.5143072123122995 0.8351937452368936 0.49759430678303407 1.0 1.0 0.4306274235372675 0.6618040557983654 1.0 0.4502546488272276 0.4425847644061508 0.3485613061596613 0.4890435376199123 0.4899878314774916 0.4286314454610935 0.46658034273243043 0.0 1.0 0.5053774552152163 1:0.06317957 2:0.07661744 3:0.19622508 4:0.22078381 5:1.0 6:0.2843133 7:0.0 8:0.99407554 9:0.53764296 10:0.86989063 11:0.9973124 12:0.0 13:0.5510826 14:0.5597505 15:1.0 16:0.5600434 17:0.00149591 18:0.001283816 19:1.30466E-6 20:6.01785E-4 21:0.0 
-0.1984662399705815 -0.0 -0.0 -0.7261048082525495 -1.0 -1.0 -0.0 -1.0 -0.0 -0.584720333863091 -0.0 -0.8055685343387723 -0.0 -0.0 -0.0 -0.0 -0.2537433053594135 -0.0 -0.6435607938926157 -0.5917888516641974 -1.0 -0.0 -1.0 -1.0 -1.0 0.0 0.0 0.0 0.0 1.0 1.0 0.0 0.0 0.06385666034584839 0.0 0.0 0.0 0.0 0.0 0.0 0.0 1.0 0.0 0.0 1:0.00714498 2:0.013803432 3:0.055233292 4:0.059529856 5:1.0 6:0.11954411 7:0.0 8:0.89397115 9:0.8111735 10:0.965555 11:1.0 12:0.0 13:0.8164277 14:0.8072848 15:1.0 16:0.9200807 17:0.008683838 18:0.003718271 19:2.76576E-5 20:0.003245119 21:0.0 
-1.0 -0.5439710115115588 -0.5855516243052422 -0.0 -0.0 -1.0 -0.0 -1.0 -0.0 -0.41527966613690903 -0.7020162021789007 -0.0 -0.7915005756590324 -0.0 -0.0 -0.0 -0.0 -0.0 -1.0 -1.0 -0.0168565703138294 -0.0 -1.0 -1.0 -1.0 0.0 0.9359199904907319 0.0 0.0 1.0 0.9981155540703296 0.0 0.0 0.0 0.0 0.0 1.0 0.0 0.0 0.0 0.0 0.0 0.0 0.0 1:1.09193E-5 2:6.87051E-5 3:0.001028587 4:0.001044388 5:1.0 6:0.008152481 7:0.0 8:0.93101764 9:0.9308953 10:0.93468326 11:0.9347315 12:0.0 13:0.93077254 14:0.9199398 15:0.25887117 16:1.0 17:0.102195114 18:0.09814011 19:0.15061653 20:0.38258597 21:0.0 
-1.0 -1.0 -1.0 -1.0 -1.0 -0.3167032806472085 -1.0 -0.6509556014760484 -1.0 -0.30581256428106707 -0.3128895171134194 -0.34078401399912683 -1.0 -1.0 -1.0 -1.0 -1.0 -1.0 -1.0 -1.0 -1.0 -1.0 -0.5780998138764091 -0.3033280995833999 -0.4369196566594869 -0.45989823790025425 1.0 1.0 1.0 0.4586572327909582 0.9745319510131497 1.0 1.0 0.9817846811665388 1.0 1.0 0.28219491241815803 1.0 1.0 1.0 1.0 0.27581619294446974 0.5442569596240694 1.0 1:1.0 2:0.3333083 3:0.2660512 4:0.3655894 5:0.053134523 6:0.14317907 7:0.0 8:1.0 9:0.005903978 10:0.06557971 11:0.13126758 12:0.0 13:0.007491306 14:0.004837361 15:1.0 16:0.1360827 17:0.008804241 18:0.001981873 19:2.87385E-6 20:2.09542E-4 21:0.0 
-1.0 -1.0 -0.8202048510822826 -0.7163542804323976 -0.9259820176921063 -1.0 -0.021989320509066573 -1.0 -0.24154308669639676 -0.8392228133057462 -1.0 -0.757173170617426 -1.0 -0.23189894945555814 -0.23249124294303394 -0.009168782078915371 -0.5806870888706831 -0.004007217265269803 -1.0 -1.0 -0.9487134655313452 -0.2596596165216023 -1.0 -1.0 -1.0 -1.0 -0.014532076148875318 0.2464862303331452 0.08979609007211081 1.0 1.0 0.23192842307624165 0.12937430715986875 0.48517403365010864 0.24767342593912395 0.23578314867194713 1.0 0.03762430248516034 0.2471765143406086 0.0 0.03313335810167964 1.0 0.5726194819958279 0.05635856425543395 1:2.87654E-5 2:3.66368E-5 3:2.48749E-4 4:2.52997E-4 5:1.0 6:0.00295713 7:1.44569E-6 8:0.94036055 9:0.940351 10:0.94114864 11:0.941193 12:0.0 13:0.94039667 14:0.9440717 15:0.15614653 16:1.0 17:0.111954734 18:0.10671677 19:0.49950615 20:0.6982114 21:0.0 
-1.0 -1.0 -1.0 -0.8072105703222876 -0.0 -0.0 -0.9780106794909335 -0.0 -1.0 -0.0 -0.3296964252371182 -0.0 -1.0 -1.0 -1.0 -0.9908312179210846 -0.1108846394194144 -0.0 -0.22509942502736355 -0.22096775479343342 -0.0 -1.0 -0.0 -0.0 -0.0 -0.0 -0.0 0.0 0.9102039099278891 0.0 0.0 1.0 1.0 0.0 1.0 1.0 0.3296321032102686 0.0 1.0 1.0 0.9668666418983204 0.0 0.0 0.0 1:1.0 2:0.15286633 3:0.063894875 4:0.16671489 5:0.005921476 6:0.03827705 7:0.0 8:1.0 9:0.023227474 10:0.002171895 11:0.0980811 12:0.0 13:0.00904649 14:3.85849E-4 15:1.0 16:0.026695022 17:0.001030185 18:6.6367E-5 19:2.90542E-6 20:0.0 21:2.90495E-6 
-1.0 -1.0 -0.17979514891771747 -1.0 -0.7570715247673002 -0.34381099033071233 -1.0 -0.6652702109666758 -1.0 -0.16077718669425378 -0.0 -0.24282682938257402 -1.0 -1.0 -1.0 -1.0 -1.0 -0.9959927827347302 -1.0 -1.0 -0.958260412697394 -1.0 -0.5099135147358056 -0.3243183458457272 -0.44537349156456746 -0.45022720280303136 -0.9854679238511247 0.6605016296466735 1.0 0.5911819754139688 0.7364499514658854 1.0 1.0 0.703821134742175 1.0 1.0 0.0 0.9623756975148396 1.0 1.0 1.0 0.28108260445684635 0.42738051800417204 0.943641435744566 1:1.0 2:0.18765552 3:0.09337497 4:0.19494092 5:0.009538863 6:0.050766133 7:0.0 8:1.0 9:0.014619703 10:0.0079536 11:0.09881073 12:0.0 13:0.007788792 14:9.34465E-4 15:1.0 16:0.04604163 17:9.38395E-4 18:2.5501E-4 19:2.18766E-8 20:1.34288E-5 21:0.0 
-0.9223308662318658 -0.16807267662295367 -0.6154291405939839 -1.0 -1.0 -0.4398634310906039 -0.0 -1.0 -0.0 -0.41253478228968365 -0.3639561019147116 -0.5047581583162729 -0.5757115317176167 -0.0 -0.0 -0.0 -1.0 -0.0 -0.8006912732561606 -1.0 -1.0 -0.0 -1.0 -0.4173181899487404 -0.7673997473633212 -0.8351937452368936 -0.0 -0.9069878599798187 0.0 0.7766050442543413 1.0 0.0 0.9913207378213202 1.0 0.0 0.0 0.3621159105694195 0.0 0.06662399325016366 0.0 0.051898878119045054 0.3706379826157353 1.0 0.0 1:0.60944504 2:0.43906462 3:0.7026656 4:0.87250996 5:1.0 6:0.69876283 7:0.0 8:1.0 9:0.122177295 10:0.3357105 11:0.5219407 12:0.0 13:0.13784163 14:0.12107998 15:1.0 16:0.3058264 17:0.010572203 18:0.001286802 19:2.44169E-4 20:0.0 21:2.43812E-4 
-0.0 -0.9973730423912508 -0.3231742686838939 -0.2987691333432642 -0.0 -0.0 -1.0 -0.0 -0.7409023930491621 -0.0 -0.0 -0.0 -0.40213489300687244 -0.8862476725409203 -0.7858127801630196 -0.8741783055384542 -1.0 -0.867732148270076 -0.47302402572699603 -1.0 -0.0 -1.0 -0.0 -0.0 -0.0 -0.0 -1.0 -0.0 1.0 0.0 1.0 0.7613574369526528 1.0 0.0 0.8618088832738808 0.8921523650405201 0.0 1.0 1.0 0.7456340339248665 1.0 0.0 0.0 1.0 1:0.8626764 2:0.5417164 3:0.77260303 4:1.0 5:0.8247153 6:0.71229845 7:0.0 8:1.0 9:0.07967474 10:0.2412947 11:0.43456748 12:0.0 13:0.09532161 14:0.076151915 15:1.0 16:0.255545 17:0.009521811 18:0.001128103 19:2.1265E-4 20:0.0 21:2.12671E-4 
-0.0 -0.0 -0.0 -1.0 -1.0 -0.0 -0.0 -0.06641255179928246 -0.0 -0.0 -0.0 -0.0 -0.0 -0.0 -0.0 -0.0 -1.0 -0.0 -0.0 -0.35653996282951184 -1.0 -0.5592660943188523 -0.0 -0.0 -0.0 -0.0 -0.0 -0.0 0.6093903688358733 0.0 1.0 0.0 1.0 1.0 0.0 0.0 0.0 0.0 0.0 0.0 0.0 0.0 0.0 0.0 1:0.8040253 2:0.5225469 3:0.77319443 4:1.0 5:0.9165981 6:0.73752517 7:0.0 8:1.0 9:0.09329029 10:0.2639668 11:0.4691154 12:0.0 13:0.110858224 14:0.090058036 15:1.0 16:0.2640246 17:0.012536363 18:0.001379609 19:3.48752E-4 20:0.0 21:3.50909E-4 
-1.0 -1.0 -1.0 -1.0 -0.2500907778285877 -0.08878420495620204 -1.0 -0.0 -1.0 -0.12070883288578463 -0.3088819060396159 -0.018479948298657053 -1.0 -1.0 -1.0 -1.0 -1.0 -1.0 -1.0 -1.0 -0.48336796240714897 -1.0 -0.0 -0.0882958662017814 -0.0 -0.0 -1.0 -1.0 -0.6093903688358732 0.0 0.41802438428525757 1.0 1.0 0.32874270771713693 1.0 1.0 0.16112292281856488 0.5815555585722088 1.0 1.0 1.0 0.08501421044164975 0.0 0.0 1:1.0 2:0.41133335 3:0.3805499 4:0.47932944 5:0.1063469 6:0.22133888 7:0.0 8:1.0 9:0.009015773 10:0.10191579 11:0.1561258 12:0.0 13:0.009447672 14:0.009050637 15:1.0 16:0.18392786 17:0.00125301 18:3.60792E-4 19:4.91891E-8 20:6.629E-5 21:0.0 
-1.0 -1.0 -0.23537897805523678 -1.0 -1.0 -0.2343284277042213 -1.0 -0.744672665137563 -1.0 -0.1894484291471809 -0.0 -0.33391333013153407 -1.0 -1.0 -1.0 -1.0 -1.0 -0.0 -0.2537053331106103 -1.0 -1.0 -1.0 -0.7073661605598691 -0.22074390399961788 -0.470140720040601 -0.49759430678303407 -0.0 -1.0 -1.0 0.48396482985348116 1.0 1.0 1.0 1.0 1.0 1.0 0.12206987099400156 0.41844444142779125 1.0 1.0 1.0 0.1952189912071852 0.612380338442044 1.0 1:1.0 2:0.4874285 3:0.53379077 4:0.66685724 5:0.24316616 6:0.36339033 7:0.0 8:1.0 9:0.020544726 10:0.14367403 11:0.22465444 12:0.0 13:0.022895327 14:0.02077343 15:1.0 16:0.21413684 17:0.004834842 18:9.1554E-4 19:0.0 20:3.50011E-5 21:1.60383E-7 
-1.0 -0.296280933240764 -0.21711857280557725 -1.0 -1.0 -1.0 -0.0 -1.0 -0.0 -0.0 -0.0 -0.0 -0.37032826338741937 -0.0 -0.0 -0.0 -0.4591059239656999 -0.0 -1.0 -1.0 -1.0 -0.0 -1.0 -1.0 -1.0 -1.0 -0.0 -0.0 -0.0 -0.0 1.0 0.0 0.0 0.16165872603801779 0.0 0.0 0.4574127927827393 0.0 0.0 0.0 0.0 1.0 0.0 0.0 1:0.034657273 2:0.04567361 3:0.13124897 4:0.15900445 5:1.0 6:0.22670187 7:0.0 8:0.8923309 9:0.6147813 10:0.82597876 11:1.0 12:0.0 13:0.64821225 14:0.55140007 15:1.0 16:0.5550495 17:0.025608756 18:0.009778226 19:1.22772E-4 20:0.006502676 21:0.0 
-1.0 -0.0 -0.0 -0.0 -0.10801038716605907 -1.0 -0.0 -1.0 -0.0 -1.0 -0.21430649503385715 -1.0 -0.0 -0.0 -0.0 -0.0 -0.0 -0.0 -1.0 -1.0 -0.25081640971547076 -0.0 -1.0 -1.0 -1.0 -1.0 -0.0 -0.6420612531101986 -0.0 -0.0 1.0 0.0 0.0 0.0 0.0 0.0 1.0 0.0 0.0 0.0 0.0 1.0 0.0 0.0 1:0.017281985 2:0.026412264 3:0.08845673 4:0.10687037 5:1.0 6:0.17394072 7:0.0 8:0.8647191 9:0.69867635 10:0.8560248 11:1.0 12:0.0 13:0.7325782 14:0.6378858 15:1.0 16:0.62557817 17:0.012722706 18:0.006607928 19:5.46794E-5 20:0.004913185 21:0.0 
-0.5403566980454698 -1.0 -1.0 -1.0 -1.0 -1.0 -0.45607620685119343 -1.0 -0.444057002274809 -0.0 -0.59800630038586 -0.0 -1.0 -0.44499432292772423 -0.43814831513324354 -0.4458057387927421 -1.0 -0.4450749975106834 -1.0 -1.0 -1.0 -0.5389914219072132 -1.0 -0.7720680891658078 -1.0 -1.0 -0.4586572327909582 -0.9491207223037702 -0.7766050442543413 -0.48396482985348116 1.0 0.4363431510611168 0.6297203159922871 1.0 0.45512669597072763 0.4453027444969595 0.0 0.4801435646764885 0.48620372104937365 0.4346963056766208 0.4649367574436094 0.0 1.0 0.4918453462379968 1:0.04063599 2:0.050748948 3:0.14173084 4:0.17620479 5:1.0 6:0.24142708 7:0.0 8:0.8939989 9:0.5855103 10:0.78437454 11:1.0 12:0.0 13:0.62892157 14:0.5134481 15:1.0 16:0.5094246 17:0.012208215 18:0.003926561 19:2.42986E-5 20:0.002401241 21:0.0 
-0.34786223240749825 -0.0 -0.0 -0.05373240841040704 -0.7933612102734693 -1.0 -0.0 -1.0 -0.0 -0.2853714561495193 -0.0 -0.7769650765760724 -0.0 -0.0 -0.0 -0.0 -0.0 -0.0 -1.0 -0.6757024032091978 -0.9001984899441436 -0.0 -1.0 -1.0 -1.0 -1.0 -0.0 -0.0 -0.0 -0.0 -1.0 0.0 0.0 0.10436159265672214 0.0 0.0 0.0 0.0 0.0 0.0 0.0 1.0 0.4276379691224452 0.0 1:0.001341379 2:0.002024639 3:0.008427994 4:0.008810435 5:1.0 6:0.03180126 7:0.001036446 8:0.96414614 9:0.9607641 10:0.9859769 11:0.9900658 12:0.0 13:0.9622042 14:0.9664602 15:0.53475034 16:1.0 17:0.007153559 18:0.005156477 19:1.07807E-4 20:0.009596781 21:0.0 
-0.0 -6.68327649916987E-4 -0.0 -1.0 -1.0 -0.0 -0.0 -1.0 -0.0 -0.0 -0.0 -0.0 -0.0 -0.0 -0.0 -0.0 -1.0 -0.0 -0.0 -1.0 -1.0 -0.0 -0.36713658189919074 -0.0 -0.0 -0.0 -0.0 -0.0 -1.0 -0.09865987554248902 -0.1086474648664263 0.0 1.0 0.74741639909045 0.0 0.0 0.0 0.0 0.0 0.0 0.0 0.0 0.0 0.0 1:0.564471 2:0.4083103 3:0.6643385 4:0.8346602 5:1.0 6:0.67605025 7:0.0 8:1.0 9:0.13235918 10:0.3407976 11:0.5472778 12:0.0 13:0.15131924 14:0.13200411 15:1.0 16:0.30216488 17:0.015545804 18:0.001597118 19:3.59141E-4 20:0.0 21:3.62706E-4 
-0.0 -0.09600681450208956 -0.0 -0.7756728474594791 -0.20663878972653088 -0.0 -0.27111355317866087 -0.10322730491693215 -0.0 -0.0 -0.0 -0.0 -0.0 -0.16308837518210945 -0.058090078012145 -0.144824673450307 -1.0 -0.1397681626317356 -0.4100164658044627 -1.0 -0.09980151005585641 -0.9412788689499622 -0.0 -0.0 -0.0 -0.0 -0.3776343905466152 -0.03624540017263762 -1.0 -1.0 -0.0 0.03220464307043534 1.0 0.1482220082528279 0.10343468859490286 0.1685677730364194 0.0 0.7187489404818689 0.5125546448218244 0.016336668443263848 0.43761761108655944 0.0 0.0 0.8823242184439097 1:0.7570886 2:0.50868 3:0.77484536 4:0.9866443 5:0.9762132 6:0.74755013 7:0.0 8:1.0 9:0.102747776 10:0.29134157 11:0.4862348 12:0.0 13:0.11919146 14:0.10197333 15:1.0 16:0.27838182 17:0.018463602 18:0.002130269 19:2.07352E-4 20:0.0 21:2.1195E-4 
-1.0 -0.0 -0.0 -0.7552539109547218 -0.0 -1.0 -0.0 -1.0 -0.0 -0.0 -0.0 -0.0 -0.0 -0.0 -0.0 -0.0 -0.452302697698956 -0.0 -1.0 -1.0 -0.0 -0.0 -0.31783944306056133 -1.0 -1.0 -1.0 -0.0 -0.0 -0.0 -0.0 -0.8913525351335737 0.0 0.0 0.0 0.0 0.0 0.9097161249160417 0.0 0.0 0.0 0.0 0.9664726866862869 0.0 0.0 1:0.001071921 2:0.001555476 3:0.006440117 4:0.006717645 5:1.0 6:0.026321515 7:8.28738E-4 8:0.951864 9:0.9497853 10:0.96856993 11:0.97158194 12:0.0 13:0.95103043 14:0.9557034 15:0.48531124 16:1.0 17:0.018077964 18:0.016084654 19:0.001204053 20:0.03444063 21:0.0 
-1.0 -0.6385675262497891 -0.633216464666642 -0.0 -0.0 -1.0 -0.0 -1.0 -0.0 -0.6075466226882522 -0.6927474664049101 -0.0 -0.8697427104311505 -0.0 -0.0 -0.0 -0.0 -0.0 -1.0 -1.0 -0.0 -0.0 -0.798554344068954 -1.0 -1.0 -1.0 -0.0 -1.0 -0.0 -0.0 -0.0 0.0 0.0 0.0 0.0 0.0 1.0 0.0 0.0 0.0 0.0 0.0 0.0 0.0 1:7.89919E-4 2:0.00106628 3:0.004225695 4:0.004400698 5:1.0 6:0.019501442 7:6.27796E-4 8:0.94108003 9:0.94011724 10:0.9518644 11:0.9538475 12:0.0 13:0.94118255 14:0.9415823 15:0.41746268 16:1.0 17:0.042867165 18:0.039864313 19:0.010202541 20:0.10033369 21:0.0 
-0.747590695433687 -1.0 -0.88381969648339 -1.0 -1.0 -0.6702210589021683 -0.6373760422714007 -1.0 -0.729862418599646 -0.10708192116222845 -0.24821202796031164 -0.22303492342392758 -0.8715887865335276 -0.6577324153966664 -0.6945080890450093 -0.6696623920044253 -1.0 -0.6698596225558322 -0.5899835341955372 -0.12729915509478662 -1.0 -0.48984719655687803 -1.0 -0.6011010440683934 -1.0 -0.9981155540703296 -0.5968975604665345 -0.7002045512932478 -1.0 -0.31936450874276856 -1.0 0.7034154111838837 0.672834886111687 1.0 0.7125439438207514 0.6561305874400702 0.10182482087962753 0.2812510595181311 0.49856487783826275 0.7082088783359064 0.5623823889134405 0.033527313313713 0.5723620308775548 0.11767578155609026 1:0.42169368 2:0.3231207 3:0.55839604 4:0.70000887 5:1.0 6:0.60081303 7:0.0 8:1.0 9:0.1693981 10:0.3975235 11:0.61483026 12:0.0 13:0.19040717 14:0.17108542 15:1.0 16:0.3213785 17:0.026080387 18:0.003006466 19:2.80256E-4 20:0.0 21:2.89418E-4 
-1.0 -1.0 -0.2837076657842844 -0.0 -0.0 -0.30704494438328106 -0.0 -0.0 -1.0 -0.2981192662688178 -0.318697983078323 -0.0 -1.0 -1.0 -1.0 -0.0 -0.0 -0.0 -0.0 -0.0 -0.0 -1.0 -0.0 -0.2948649242771715 -0.0 -0.0 -0.0 -1.0 -0.0 -0.0 -0.0 -0.0 0.2984474823048831 0.0 1.0 1.0 0.2804387310844627 0.0 1.0 1.0 0.0 0.26939121291517715 0.0 0.0 1:1.0 2:0.13794152 3:0.05645897 4:0.15851387 5:0.00507019 6:0.03436568 7:0.0 8:1.0 9:0.02890671 10:0.005200529 11:0.10139487 12:3.86177E-4 13:0.010515794 14:6.11463E-4 15:1.0 16:0.019180965 17:0.008093152 18:5.59898E-4 19:3.09227E-7 20:1.26133E-5 21:0.0 
-1.0 -1.0 -0.0 -0.7071846071572104 -0.0 -0.0 -1.0 -0.0 -1.0 -0.0 -0.0 -0.0 -1.0 -1.0 -1.0 -1.0 -0.18614232707453177 -0.0 -0.22333940156689128 -0.18224812612965302 -0.0 -1.0 -0.0 -0.0 -0.0 -0.0 -0.0 -0.23192842307624165 -0.0 -1.0 -0.0 -0.0 1.0 0.0 1.0 1.0 0.0 0.0 1.0 0.0 1.0 0.0 0.0 0.0 1:1.0 2:0.1596206 3:0.07112236 4:0.17115124 5:0.006543555 6:0.040206756 7:0.0 8:1.0 9:0.021264471 10:0.005086146 11:0.09760812 12:9.25892E-5 13:0.008804234 14:6.02411E-4 15:1.0 16:0.0303873 17:0.004534542 18:5.00224E-4 19:1.98623E-7 20:1.72869E-5 21:0.0 
