svm_type c_svc
kernel_type linear
nr_class 46
total_sv 159
rho 0.6604647263324148 0.4114883355467314 -1.0926128444562757 1.5464245421123637 0.8875776090200425 0.5668667493501218 0.6353586542566577 0.26781248368837857 0.657577817690109 0.31051459738765474 0.6637330219083027 0.6591364074641928 1.3515209757338766 0.6636891389359776 0.9860470685881574 1.1568419202151723 0.649395673109197 1.5562067456503337 0.40766119956970215 -0.3418281078338623 0.2653663158416748 0.5873606266262856 1.0841790925812609 0.6375953166366423 1.3859851394043938 1.1448365212740543 0.6616265346548768 0.5329170798453733 0.6580845081732175 0.08873558044433594 -1.361451768631763 0.6523841732505725 1.4817691532849446 1.3426855637842383 1.2061435875256568 0.6433274784903077 -1.2359511852264404 0.6090266037166903 0.6633787080637837 0.6532774927431394 -1.0890915393829346 0.7018827914706878 0.6737517693247727 0.6684505749340542 0.6582365036010742 -1.3874293565750122 -0.5749006888610508 -0.8897948528180182 -0.5707105783969305 -1.4429042339324951 -1.1966191530227661 -1.2773769150514842 -1.07513427734375 -0.6760789134555695 -0.997717433989067 -1.0340207815170288 0.38249599915364507 -0.9972140789031982 -0.6058999039778339 -0.5153626469908216 -0.8044130006235113 -0.8620593109919084 -0.6606380359965524 -0.6610352580302664 -0.5983515056782043 -1.5144360065460205 -0.7890225282474577 -1.2843105792999268 -0.38197101345761936 -0.2820497879301527 -1.0032408317161086 -1.4196770191192627 -1.054962158203125 -0.4898636008373249 -0.6258959313430374 -0.8834340308232536 -0.7372026945467858 -1.4140451941608727 -1.167828449105359 -1.0753687620162964 -0.6585352440574308 -1.238978624343872 -0.9994233165107299 -1.093348741531372 -0.710099140008303 -0.6370594350201187 -1.0048566506337346 -1.0105441765998762 -0.6340373258503271 -0.3373779460284756 -0.039425228123579605 0.08957104018032148 1.6049394607543945 0.1232757568359375 -1.3893489837646484 1.5502252839168729 -0.2421118563698964 1.2212275266647339 1.3927877203403085 1.9095928742798354 1.23562753200531 1.6613197665075674 1.5375871067251927 -0.31698004265092417 -0.23652915356895832 -0.3588812908660312 -0.2819347609148567 -0.07358511785617976 1.3583523875675871 -0.337125245981044 1.7736363034648064 0.32112810500140426 0.02074728833752375 1.3185806274414062 -1.0154614799272652 1.4910793527644417 -0.21555137829773202 -0.36961217289805537 -0.12315966962997395 0.8330428848939488 -0.4051210880279541 -0.2249596926430809 -0.8063104152679443 -0.39209202139500654 -0.11501455307006836 1.2105716466903687 0.6669602394104004 -0.45254205342151566 -0.006742835044860618 -0.4707071781158447 1.1528483629226685 0.028107081006062795 1.4279588106260346 1.0437238216400146 0.4908036420298491 0.5403312154614334 0.2061436814361917 0.5712609666604682 1.035468578338623 0.5806690596294359 0.5735018356201913 1.3228071460373083 0.5812894803585882 1.2177955579586948 1.2666780068019068 1.1003797780561808 1.5018456155420568 0.9961006145297651 0.2800178527832031 0.3978555202484131 0.5023367814130593 1.3998837337068373 0.5452051433452384 1.326344585128459 0.9660672517261626 0.5750054650607146 0.4339773307769332 0.571585188067119 0.8747599124908447 -0.37163758277893066 1.7166421629629693 1.2600358514769099 1.1764696054965122 1.1390463110487832 0.5526178732655657 -0.2047865390777588 0.514654158615913 0.5799723593314259 0.5638924670189476 -1.0158610343933105 0.8868000507354736 0.5877549316166109 0.5813548849295702 0.823066234588623 -0.061201007739383195 0.7052383948677206 1.0399504904457326 -0.5512201752764908 0.9171570820038943 -0.8287822328405938 0.819313657713634 0.8976029088249416 1.7825199017612383 0.8066102467755227 1.4821891563866323 1.3541710760811707 -0.5803488489647766 0.4479594988004774 -1.5625424656689846 -1.901583593826199 -1.186244249343872 0.7273231804059899 1.169479249891993 1.0539036989212034 1.6361677060491042 0.14474910471543123 0.906066939699513 0.862592870553745 0.9185924067582336 -0.882761602656115 -1.3281297732668795 1.0728397488896348 1.001642107963562 0.08870426502264772 1.0196346057626577 1.034470324876863 -1.4486657239770224 0.9826749796509134 0.8277090900604728 0.9961544690175835 -1.6604208946228027 -1.1691398620605469 0.8246837306154067 0.874991235558165 -1.177579402923584 0.39377268758437567 0.5468773634387276 -0.2678525425169427 0.5797017591819587 -0.9424596709897712 0.5763414098874368 0.5779572808987865 1.6297592642154166 0.5762218303306271 1.4318653760421316 1.6585882043753788 -0.0404205322265625 1.5270656329385126 -1.9135811598007577 -1.415492296218872 -0.9629097206916017 0.40093506940541707 1.8703226816701914 0.5480291988509438 1.5943837652744326 0.37880674764419087 0.572526981901158 0.3542938266939836 0.5798771404700455 -0.48984718110129444 -1.0648322105407715 1.6647642040129622 0.4444500775887824 0.10632051878139806 -0.32660959042196114 0.5539406616146337 -1.254453420639038 0.4921454717646381 0.5758982383172463 0.5745611656855907 -1.3678581714630127 -1.0107150077819824 0.591409905610906 0.5850343860951981 -1.0482745170593262 -1.010604757794419 -1.5297344635330883 -0.42836928367614746 -0.7400162669784058 -0.6353229284286499 1.4284600019454956 1.5826872432273276 -0.5954941511154175 1.7270343364174978 0.737311924703122 -0.6739758253097534 -0.5375559344191294 -0.5517093762237232 -0.5308155771957335 -0.4305679601422412 -0.295867919921875 -0.4317334009735824 0.546795129776001 -0.21625508870606702 -0.19105834619481288 -0.14510786533355713 -1.2009221315383911 -0.373477578163147 -0.3992038244958601 -0.536911231504785 -0.4693319414867146 -0.2143591691556826 -1.5763585644169946 -1.0110775719566183 -0.9987722335870133 -0.561466659380479 -1.026006440428283 -0.6254507303237915 -0.9140428304672241 -0.611317037041085 -0.46277473976591077 -0.8617336750030518 -0.7027857303619385 -0.4606686268967808 -1.600186166107329 1.2058430910110474 -0.7591173746608568 0.39814984798431396 1.195982813835144 1.1479331046660803 0.4100295305252075 1.2677559703969026 1.284088765227252 -0.8817398548126221 -0.9006804928435113 -0.6292518807831371 -0.6308499446142872 -0.5600697880570337 1.0013393850845125 -0.689869729706214 1.0481557846069336 -0.13567893594698144 -0.2127260534208386 1.1683152914047241 -0.7504748106002808 1.2039835453033447 -0.45102385197758094 -0.5967368143479709 -0.7826802324440494 -0.3774549961090088 -1.1499898433685303 -1.35518230361339 -0.957187294960022 -0.6295156487759271 -0.12687218189239502 0.39359211921691895 0.21269762516021729 -0.682815424902192 -0.6117141484484585 -0.7422175407409668 0.3528367280960083 -0.6064448675097938 1.321419208907496 0.134092268816988 1.1680402499037232 1.2901451884688273 1.8533391886604342 1.1479603973640737 1.6014100227014556 1.4188870910642588 0.03195582427906557 0.4862744468942653 -0.21955159724994175 -0.1328048334357193 0.082576770139936 1.8802139325444334 1.3672415267214098 1.5489659765524464 1.6276563056270115 0.22693158311058176 1.3048287841637085 2.018494129180908 1.323988973021372 -0.07583729259498082 -0.25296390139899855 1.6708713690532635 2.112528652650995 1.8389337591186214 0.9195079803466797 1.3405660390853882 -0.26226809668885664 1.6097744098475655 1.1815447220995654 1.4361008405685425 -0.30775432712880113 0.25694928139957474 1.180024548648211 1.2594233066016245 0.2306288808544586 -0.6728746894132551 -0.8820717334747314 1.0574653148651123 0.9370408058166504 -0.8518252372741699 1.035982370376587 1.1289454625738635 -0.8140066369951793 -0.9263729862493365 -0.6573022610474067 -0.657431990841003 -0.5930684449576356 0.150099515914917 -0.8108876086931978 0.748133659362793 -0.355971209299367 -0.26370144785580174 0.11867165565490723 -1.5261508226394653 0.030724048614501953 -0.48539774851404643 -0.6226497035420301 -0.908138546040837 -0.7390865253803205 -1.6429175068835853 -1.2897793369567003 -1.0752559900283813 -0.6553574828334161 -1.275557041168213 -0.8728796243667603 -1.0648311376571655 -0.7070582484409285 -0.6340286434149163 -0.9486184120178223 -0.9159550666809082 -0.6302255925166469 0.6715260857484449 0.6732576711521574 1.7975786459807068 0.6691899609397243 1.4773352703122715 1.6054783570316409 -0.14572534026907774 1.6690232056342893 -1.0371473858523315 -1.5800184391187435 -0.9953993256663759 0.541215634970925 2.0421755459768005 0.7231708563302351 1.7190779946022858 0.590147011961731 0.682039554127613 0.6326344664357895 0.6752564671246755 -0.22272324299777746 -0.9805545806884766 1.8440774705477043 1.158074296738525 0.41281937344572905 0.4579557943881234 0.7008701793880734 -1.213271141052246 0.7177990188269888 0.6724367804428522 0.6986223355547718 -1.4362874266786527 -0.9278035718409277 0.6914270878142414 0.6926971479897948 -0.9509239062980452 0.9919698238372803 0.8490435662953719 0.01690959930419922 0.9465742111206055 1.0136029720306396 -0.7693720268178112 -0.8654406627235895 -0.66517096880169 -0.6646858113651044 -0.6038395957737946 0.5652072429656982 -0.8106429776283228 0.7306512594223022 -0.40616443417792586 -0.2786462420492417 0.992862148939633 -1.1565340757369995 0.9198546409606934 -0.49330475393066914 -0.630718894320468 -0.9063200763918717 -0.7704343319362872 -1.339909102578705 -1.120881878242823 -1.0881212949752808 -0.6629524944210454 -0.5355604887008667 0.0047168731689453125 -0.18270587921142578 -0.713905899483003 -0.6362010030034624 -1.0021518468856812 -0.03164839744567871 -0.6345417932168191 0.5454058647155762 -0.971182107925415 -0.5872393295963949 -0.4935267824811573 -0.8059374222100065 -0.8927066628557442 -0.6593272685007958 -0.6593070763143953 -0.5956419255964549 -1.5285489559173584 -0.8009452298651094 -1.2748637199401855 -0.380317977862152 -0.2777774032090914 -1.0006418228149414 -1.4484896659851074 -1.034360408782959 -0.48595063706768 -0.6245618092159453 -0.89681695366334 -0.7404330617680905 -1.5038474699071738 -1.2296409494272555 -1.0773698091506958 -0.6572098983418502 -1.2496546506881714 -0.985943078994751 -1.0829159021377563 -0.7087973868978859 -0.6351734928155408 -1.0001856088638306 -1.0096825105566445 -0.6317048945010543 -0.8258856648393371 -0.9251241087913513 -0.4582532553892503 -1.7628421952595466 -1.0749208096237965 -1.385657676083542 -1.5923404043308444 -1.4876078529013612 -1.588717257550615 -1.4636599422194545 -1.0972033963468952 -0.2551255140067137 -0.6958128836388076 -0.8091143572367709 -1.6166305779130765 -0.907829999923706 -0.6278709228567084 -1.3418551592595274 -1.7071774317099453 -1.581023312589052 -2.1699275375402136 -2.1070707176635235 -1.0055348873138428 -1.4168681322086154 -1.2110755443572998 -0.8448156348448521 -1.0042753025306042 -1.5417292155812012 -1.551791261667936 -0.9423415194840044 -0.9118093771425829 -1.5582761248049461 0.9220141172409058 1.0010905265808105 -0.7617173598839386 -0.8325732994578365 -0.6652638300332525 -0.6645477791704236 -0.603926119610437 0.5100846290588379 -0.7938886267775599 0.691283106803894 -0.4116563705403069 -0.2839685341254166 0.993396048804107 -1.1626973152160645 0.8914387226104736 -0.49619228844885743 -0.6310639330837536 -0.8880357477330549 -0.7617079016124788 -1.2582781201540818 -1.1023743570102564 -1.0807855129241943 -0.6631668147665987 -0.5463736057281494 -0.012715697288513184 -0.19684064388275146 -0.7139346067566907 -0.6348626532571536 -1.007606029510498 -0.0497668981552124 -0.6334915760037124 -0.3559565310494744 -1.4484897807588535 -0.7506490466306676 -1.315438088492282 -1.4508440477712765 -1.3229213592220057 -1.7266782531501068 -1.2625921499622654 -1.3301641041590526 -0.07662219404834067 -0.400624969065938 -0.9510138410497183 -1.6602721784214989 -1.0098876953125 -0.4128034972302431 -1.1794419642952123 -1.3177110104013459 -1.4142303259455182 -1.8371074999967003 -1.8935373161661067 -1.0890555263338 -1.3034122855748602 -1.318704860077232 -0.9397000074386597 -1.0998501813389532 -1.4987509989778542 -1.393480055180087 -0.9955067493987013 -0.9967500848554913 -1.3959154714159592 -1.3676103762290133 -0.7929170691221028 -1.362012741146972 -1.6885609485809492 -1.157321569090621 -1.073242954871081 -1.076040349658149 -0.08289198112856616 -0.3191943183179061 -0.4856900438391129 -1.0610019984120596 -1.5784214762926103 -1.1136978845629333 -0.36076001172851563 -1.1024431654686029 -1.3894067594225943 -1.3013671842824477 -1.544011415190661 -1.6052323989756137 -1.1096227066561042 -1.3734634436658046 -1.3253591445920545 -1.0107293128967285 -1.158936395581759 -1.3780915027188971 -1.2281282207691944 -1.026225708835436 -1.0594387436417385 -1.2306066949189303 1.594291033189541 -0.8144210671800115 -1.6105400214773253 -0.9964798667206461 0.6762869358062744 1.714410767585299 0.8696012496948242 1.6514675227758597 0.49388502666967504 0.8152577860333178 0.8131160736083984 0.8162306159938376 -0.22404811867670826 -1.10347580909729 1.4398649806210482 0.9588895302763898 0.4219640013764025 0.5800760541405949 0.8554642519042874 -1.2765561179998892 0.8349956274032593 0.7742052866203035 0.8494964094221099 -1.3291861398501053 -1.0998713773784616 0.78281709913901 0.808124487528433 -1.0939611149444606 -1.6556193947045457 -1.8328361356317155 -1.1661883320574822 0.6136002207792157 -0.1830243468284607 0.9274093516214039 1.7495038096144093 -0.5865342003336547 0.8142870282335141 0.6738203485558792 0.8988642907229376 -0.6313257062663158 -1.4621475772627677 0.1476764599511221 0.3519796966611679 0.14910794891364798 -0.49272296270104626 0.2414700695694168 -1.6461197761360573 0.8711416792869698 0.8355495878368779 0.9215622545743732 -1.53704976128137 -1.25415771328106 0.5343172998332518 0.8317533309377656 -1.2557587734453688 -0.7167621646470694 0.03314328193664551 0.5758648848151506 1.3627620223251695 0.6329500251042572 1.3891810217767568 1.036324226746001 0.6617194204419115 0.516785291841136 0.6577422573880904 -0.2034750663699863 -1.1747937202453613 0.8798846091676938 1.2394568920135498 1.233424296286451 1.4272582530975342 0.640338365815985 -1.0428457258169652 0.6014614363018396 0.6645533523788842 0.6514332830116919 -1.215237537589208 0.46825432777404785 0.6746220275714576 0.6684266414206604 0.41773366928100586 -0.4383985996246338 0.5431355866991846 1.838706908321293 0.6334885797843315 1.5658523324617137 0.719076648485335 0.6625362428946076 0.5015723277668767 0.6581657690488337 0.0073893070220947266 -0.6407887935638428 1.528840959072113 1.2341567564806062 0.7901132106781004 1.6490333080291748 0.6400158869501856 -0.47727417945861816 0.5973525618857243 0.6643303412542441 0.6527046281667469 -1.1227588653564453 -0.05547356605529785 0.6758598775392457 0.6703346875340541 -0.10634422302246094 0.4515025459540654 1.2171606697255333 0.5628384978518056 1.4884396583047463 0.45198484410844797 0.5997058288038029 0.39851888883277575 0.5942376466667645 -0.12273048788750329 -0.6010231971740723 0.9125337299927974 1.0965347290039062 0.7395964860916138 0.8536891428071679 0.5694271727465174 -0.3718392848968506 0.5159534790188761 0.6034359187866984 0.5868707244150603 -1.098731279373169 0.16799545288085938 0.616327406710345 0.6100482618679867 0.15044093132019043 -0.4949150204963932 0.8062001466751099 -0.3041517137886627 -0.2331920699594232 0.2505737543106079 -1.0443782806396484 -0.06445479393005371 -0.43533464756781454 -0.5567835602283684 -0.4779858529706553 -0.07446654497618847 -1.796585724692083 -0.9899000190864835 -1.0053248090405489 -0.5817489853452539 -1.013967291632321 -0.5489392280578613 -0.9346685409545898 -0.6311390921463137 -0.3790838716301744 -0.9202190637588501 -0.6342828273773193 -0.4014435081663637 0.725023818875113 1.237002044916153 0.19185753338242867 0.7599618426892097 0.26305749003968376 0.7983609775236682 -0.3971292268707074 -1.236542336545848 0.2847219516722348 0.5089582674716955 -0.31527684075238416 -1.106383584555257 -0.6965623397808851 -1.5043894219742298 0.6118924661821138 0.7907399176415425 0.7807299631130702 -1.4924247087190403 -1.3520838298082236 -0.4300524702546412 0.7781081576817941 -1.33487066677677 -0.29291006108637047 -0.2474071962093284 -0.5116391181945801 -1.508544683456421 -0.6990958452224731 -0.4743771563743837 -0.6002710573552362 -0.819251034648887 -0.5928832292556763 -1.6519757836296298 -1.366963293729214 -0.9931346234932416 -0.6329024347845309 -1.135353684425354 -0.7194842100143433 -0.9836217357950279 -0.6855472041473216 -0.6127381598500439 -0.8991438150405884 -0.7834936380386353 -0.607077582180191 -0.7752993832516406 0.3802129041357392 -0.45754629530224095 0.37223538503168896 -0.9784344226086111 -1.330807698708359 -0.9875395504813472 0.11121404983629403 -1.1507809608635913 -1.972075261264248 -1.087186100112232 -1.410597112341433 0.05850358609487816 0.4031968777646606 0.2967469770889141 -1.5267766525728481 -1.5330960997708574 -0.9848706918665155 0.3679035039621354 -1.54267033032952 0.2852634643253895 0.10248901063798244 0.2693139807378351 -0.08652067184448242 -1.1628424036699687 -0.1701056287636384 -0.03271402767166593 -0.03321759007980907 -0.49463458459563575 0.22946944864274788 -1.062862547457551 0.20446203584287947 0.28267287322237766 0.252681925150549 -0.9999951228948336 -0.2837648563682653 0.2822118960700587 0.27312116259511043 -0.30612106882487233 -1.3433542251586914 -0.0938950777053833 -0.4947187347722747 -0.6263269299001929 -0.8541725124431832 -0.7195427159100727 -1.3175508238810665 -1.1025777322064476 -1.0631723403930664 -0.6592279780073029 -1.1926660537719727 -0.9946356374332697 -1.0816948413848877 -0.7112179638941627 -0.640337159054338 -1.0046127005432433 -1.009320017003852 -0.6369981057055756 1.4906648397445679 -0.36124184305921686 -0.499648865332445 -0.27111278346573364 0.9215222597122192 0.05455124378204346 -1.0715183854842782 -0.4659748077392578 -0.527001058626595 0.6183748245239258 1.1424007415771484 0.9633822441101074 -0.578114239484083 -0.4287470461318297 -0.11003410816192627 1.0966628789901733 -0.423609637813529 -0.48723755755678544 -0.6230283061282844 -0.8953724054910444 -0.7361881013147538 -1.5637233275030742 -1.2544396096425405 -1.0713932514190674 -0.6557653010578013 -1.2616956233978271 -0.9114484786987305 -1.0745418071746826 -0.7075279024539647 -0.635273525037484 -0.9690672159194946 -0.9538583755493164 -0.6316153589728749 -1.1843202850735426 0.5183116160507351 0.7618936925574249 0.6977074731084464 0.5422570583379208 0.46437623559088514 -1.0653765201568604 0.4394207744391385 0.49524506395779894 0.47522487623178744 -1.1140295432745164 0.5777934188841767 0.49921494947384 0.4925013694870249 0.5004533061549755 1.7492980027666425 1.1054659995215985 1.0291777650369787 0.9807102061448919 0.606613313865976 0.1625833511352539 0.572581133815768 0.6301509129093382 0.6167392531219217 -0.891357421875 1.1284866333007812 0.6386945988708788 0.6327855310522934 1.053926944732666 0.6898089473225357 -0.08760988419316293 -1.0897853481279212 -0.7204200602361349 -1.937206812482673 0.6926615875975685 0.8846603039513621 0.8794789663897783 -1.7186065328259421 -1.0281631377759837 -0.45881628966051935 0.8764743490110322 -1.0073964635414225 -1.3915669888526099 -1.0371975751691147 -1.1153221351420604 -1.2871039400656037 0.19422006607055664 0.7544387816812667 0.7043023487234898 -1.4986176625485785 -1.1925334930419922 -0.9717575311660767 0.7429516937512004 -1.1854422092437744 -0.12179818418848484 0.05521667003631592 -1.180914600721406 0.9807236194610596 1.2848069315586115 1.6558810230201457 -1.3709142852437133 -0.9694590568542478 0.4232043027877808 1.3510365959674289 -0.9509999752044677 0.674821400739946 -1.2640060745690194 1.292938335174862 1.0826894653450077 1.3151408293395617 -1.4573216438293457 -1.0465344884792376 1.0648058248688663 1.1269314065104004 -1.026394643932309 -0.6394372425650268 0.9125938415527344 1.080215573310852 1.041115403175354 -0.6919394326662096 -0.6181784758864486 0.14111530780792236 1.0694154500961304 -0.6121280391605822 0.6040355181493537 0.6624323797349416 0.6497657280631897 -1.0532498359680176 0.8681650161743164 0.6717574982714172 0.6658760652502786 0.8011853694915771 0.5286014080047607 0.3417571783065796 -0.6562502387339965 -0.5650467738177569 -0.6558612585067749 0.4873974323272705 -0.5576837822362204 -0.1820976734161377 -0.7134398961028875 -0.6365132326476 -1.0058332402212318 -0.03619265556335449 -0.6347735060095809 -0.7022032147225412 -0.6331046054721601 -0.8971936702728271 0.14525985717773438 -0.6284996924089592 1.2667267322540283 0.723837764606871 0.7180997601543235 1.2491722106933594 0.6495473050599919 0.647664205786028 -0.017554521560668945 1.003098487854004 -0.6485214637853357 -0.6458078196341703
label 15 38 1 28 36 16 37 13 31 41 20 47 45 10 27 7 22 34 8 4 32 5 48 19 25 39 29 11 17 42 2 35 3 43 23 14 40 33 30 12 24 21 26 9 46 6
nr_sv 4 7 4 2 3 9 4 2 2 3 5 2 6 11 2 6 7 3 4 7 2 1 4 4 4 3 1 3 2 3 6 2 4 4 4 4 1 2 2 2 2 1 1 1 2 1
SV
0.060731575779752606 0.02217801006466116 0.0 0.15471112365517245 0.037127593784440534 0.04621469227887495 0.05404404197475272 0.021266101946645247 0.06017533485341849 0.6463057581651284 0.06236712184117781 0.060789759357991156 0.669467835840454 0.06249133308183831 1.0 1.0 0.0 0.5165108790095958 1.0 0.0 0.0 0.048712562545149204 0.40700275404863273 0.05529617134729349 0.8099245874953324 0.6955258073111003 0.06094287891171614 0.0445091345238349 0.0601197116492081 1.0 0.0 0.17164550240617438 0.019816405522198557 0.030952437427015058 0.0 0.05733120427718445 0.0 0.05230569507109409 0.06195921556455141 0.05853999646630788 0.0 0.00927377857638076 0.06244792016612113 0.061033128437933945 0.0 1:1.1294E-4 2:5.85445E-4 3:0.005199786 4:0.00533965 5:1.0 6:0.02439493 7:0.0 8:0.85493946 9:0.8533044 10:0.8717389 11:0.87117004 12:0.0 13:0.85166913 14:0.7997642 15:0.44126987 16:1.0 17:0.2961644 18:0.2986673 19:0.47995102 20:0.6941257 21:0.0 
0.0 0.0 0.08912618663098175 0.04117951805560175 1.0 0.0 0.0 0.0 0.0 0.9573002696068922 0.0 0.0 0.0 0.0 0.1285354759109081 1.0 0.5660916731527091 1.0 1.0 0.0 0.0 0.0 1.0 0.0 0.0 0.0 0.0 0.0 0.0 1.0 0.27523616215897445 1.0 0.0 0.0 0.43286714097393936 0.0 0.0 0.0 0.0 0.0 0.0 0.0 0.0 0.0 0.0 1:3.29953E-4 2:6.87376E-4 3:0.004481245 4:0.004622248 5:1.0 6:0.021486409 7:2.21576E-4 8:0.8899068 9:0.888678 10:0.9034406 11:0.90396255 12:0.0 13:0.8881735 14:0.8579837 15:0.42245534 16:1.0 17:0.17534286 18:0.17450847 19:0.18282725 20:0.42756116 21:0.0 
0.0 0.0 1.0 0.0 1.0 0.0 0.0 0.0 0.0 0.6702479816669271 0.0 0.0 0.4630468020329431 0.0 0.1136645784606248 1.0 1.0 1.0 1.0 1.0 0.0 0.0 1.0 0.0 0.35128513612342144 0.23212249896215165 0.0 0.0 0.0 1.0 1.0 0.9577078158599251 0.0 0.0 0.2418679077576671 0.0 1.0 0.0 0.0 0.0 0.0 0.0 0.0 0.0 0.0 1:1.83832E-4 2:4.43621E-4 3:0.00344475 4:0.003583631 5:1.0 6:0.01819451 7:0.0 8:0.9137338 9:0.91288453 10:0.92433053 11:0.9252668 12:0.0 13:0.9128454 14:0.9134862 15:0.40220407 16:1.0 17:0.13586858 18:0.10135945 19:0.07879755 20:0.23281603 21:0.0 
0.23044753690157893 0.3834329573568687 0.9108738133690183 1.0 1.0 0.2747307866762358 0.24669788156181877 0.31323825690069756 0.2318282515286784 1.0 0.22634010162515478 0.23058830932603228 0.0 0.2255847420823369 0.0 0.37030588353466665 1.0 0.4959892154683757 1.0 1.0 1.0 0.2563560122719533 1.0 0.24247607896552947 0.0 0.0 0.23176789618805396 0.26016450388745943 0.2320454849553799 1.0 0.7247638378410255 0.964723211023212 0.9796598357313099 0.867593344468828 1.0 0.23953357134128725 1.0 0.2474307296176614 0.2269863967888625 0.23683370101170897 1.0 0.9907262214236192 0.2309729288554892 0.2327273714439662 1.0 1:0.001465237 2:0.005396274 3:0.03129402 4:0.0347378 5:1.0 6:0.08429445 7:0.0 8:0.91452223 9:0.87623775 10:0.9723205 11:1.0 12:0.0 13:0.8806294 14:0.866024 15:0.9444084 16:1.0 17:0.12034822 18:0.028017554 19:3.13683E-4 20:0.018722592 21:0.0 
-0.0 0.0 0.0 0.0 0.0 0.0 0.0 0.0 0.0 0.0 0.0 1.0 1.0 0.0 1.0 1.0 0.0 0.0 0.0 0.0 0.0 0.0 0.0 0.0 0.0 0.0 1.0 0.0 0.0 0.0 0.0 0.0 0.0 0.0 0.0 0.0 0.0 0.0 0.0 0.0 0.0 0.0 0.0 0.17512075459973836 0.0 1:1.0 2:0.16874486 3:0.07752409 4:0.18787919 5:0.008207495 6:0.046478745 7:0.0 8:1.0 9:0.020708464 10:0.003965903 11:0.10535719 12:0.0 13:0.009574619 14:6.53324E-4 15:1.0 16:0.03343669 17:0.001173059 18:5.49907E-5 19:3.98736E-6 20:0.0 21:3.99034E-6 
-0.0 0.0 0.0 0.0 0.0 0.0 0.0 0.0 0.0 0.0 0.5255633459816571 0.0 1.0 1.0 0.0 1.0 0.0 0.0 0.0 0.0 0.0 0.0 0.0 0.0 0.0 0.0 1.0 0.0 0.0 0.06307263293426342 0.0 0.0 0.0 0.0 0.0 0.0 0.0 0.0 0.7023113901161875 0.0 0.0 0.0 0.0 1.0 0.0 1:1.0 2:0.15390052 3:0.06517611 4:0.17142068 5:0.006347536 6:0.039781738 7:0.0 8:1.0 9:0.023907388 10:0.002441098 11:0.101509444 12:2.38799E-5 13:0.009598424 14:4.44945E-4 15:1.0 16:0.026504405 17:0.001534436 18:1.20134E-4 19:7.8188E-6 20:0.0 21:7.83121E-6 
-0.0 1.0 0.0 0.0 0.0 1.0 1.0 0.0 1.0 0.0 0.0 1.0 1.0 0.0 1.0 0.0 0.0 0.15374563033941033 0.0 0.0 0.0 1.0 0.2149167230673894 1.0 0.0 0.0 0.0 1.0 1.0 0.0 0.0 0.3437436883409845 0.759711451040752 0.6103358785955971 0.09596445295429863 0.0 0.0 1.0 0.0 1.0 0.0 0.0 0.0 0.0 0.0 1:1.0 2:0.19716471 3:0.10214801 4:0.20166054 5:0.010553044 6:0.05408333 7:0.0 8:1.0 9:0.012950465 10:0.010332029 11:0.0984159 12:0.0 13:0.007455461 14:0.001039642 15:1.0 16:0.05170617 17:0.001488594 18:3.78348E-5 19:1.58865E-9 20:1.37602E-6 21:0.0 
-0.0 0.0 0.0 0.0 0.0 1.0 0.0 0.0 0.0 0.0 0.0 1.0 1.0 0.0 1.0 0.0 0.0 0.0 0.0 0.0 0.0 1.0 0.0 1.0 0.0 0.0 0.0 0.0 0.0 0.0 0.0 0.0 0.0 0.0 0.0 0.0 0.0 0.0 0.0 0.0 0.0 0.0 0.0 0.0 0.0 1:1.0 2:0.17921332 3:0.08584746 4:0.19041893 5:0.00876716 6:0.048387617 7:0.0 8:1.0 9:0.016881661 10:0.005805637 11:0.10051112 12:0.0 13:0.00837755 14:7.92897E-4 15:1.0 16:0.04054364 17:5.32207E-4 18:7.41408E-5 19:1.30003E-6 20:0.0 21:1.29759E-6 
-0.29117911268133156 1.0 0.27675746891598463 0.7832958554152024 0.49630717994888013 1.0 1.0 0.8521782200109638 1.0 0.5390163176346813 0.4744366540183429 1.0 1.0 0.0 1.0 0.0 0.7959105256084256 1.0 0.2998595787081706 0.3533620649718639 0.42303693772319145 1.0 1.0 1.0 0.9528391143216306 0.0 0.8017783439581312 1.0 1.0 0.2172196777312741 0.2554420313531543 1.0 1.0 1.0 1.0 1.0 0.27346475730791403 1.0 0.29768860988381257 1.0 0.28255338739599967 0.5111098938953402 0.16966803462292426 0.8248792454002616 0.5016204900856672 1:1.0 2:0.23274313 3:0.13920973 4:0.24634387 5:0.018143862 6:0.07480158 7:0.0 8:1.0 9:0.010081604 10:0.019524757 11:0.1105687 12:0.0 13:0.008066298 14:0.001871511 15:1.0 16:0.070400335 17:0.002488086 18:2.49777E-4 19:3.55203E-8 20:1.6656E-6 21:0.0 
-0.0 0.0 0.0 0.0 0.0 1.0 0.0 0.0 1.0 0.0 0.0 1.0 1.0 0.0 1.0 0.2798647463369889 0.0 0.0 0.0 0.0 0.0 1.0 0.0 1.0 0.0 0.0 0.0 0.0 1.0 0.0 0.0 0.0 0.0 0.0 0.0 0.0 0.0 0.0 0.0 0.0 0.0 0.0 0.0 0.0 0.0 1:1.0 2:0.17773326 3:0.08557929 4:0.19456038 5:0.009187263 6:0.049618714 7:0.0 8:1.0 9:0.018464878 10:0.005825857 11:0.104973994 12:0.0 13:0.009178328 14:8.18032E-4 15:1.0 16:0.038444344 17:0.001794354 18:9.06286E-5 19:6.46395E-6 20:0.0 21:6.47239E-6 
-0.0 0.0 0.0 0.0 0.0 0.0 0.0 0.0 0.0 0.0 1.0 1.0 1.0 1.0 0.23911484158656435 1.0 0.0 0.0 0.0 0.0 0.0 0.0 0.0 0.0 0.3360337692145715 0.3192469333846946 0.1982216560418688 0.0 0.0 0.0 0.0 0.0 0.0 0.0 0.0 0.0 0.0 0.0 1.0 0.0 0.0 0.0 0.8303319653770758 0.0 0.0 1:1.0 2:0.15693189 3:0.067781806 4:0.17134655 5:0.006431938 6:0.040053844 7:0.0 8:1.0 9:0.02239548 10:0.003185471 11:0.099358685 12:1.64657E-5 13:0.00912008 14:4.87306E-4 15:1.0 16:0.028540593 17:0.002062641 18:1.25396E-4 19:8.48811E-6 20:0.0 21:8.50294E-6 
-0.0 -1.0 0.0 0.0 0.0 1.0 1.0 0.0 1.0 0.0 1.0 1.0 1.0 1.0 1.0 1.0 0.0 0.0 0.0 0.0 0.0 1.0 0.0 1.0 0.15203250384233552 0.0 1.0 1.0 1.0 0.0 0.0 0.0 0.9897990154793027 1.0 0.0 0.0 0.0 1.0 1.0 1.0 0.0 0.0 0.0 1.0 0.0 1:1.0 2:0.51053673 3:0.59774935 4:0.78344095 5:0.35795137 6:0.45690343 7:0.0 8:1.0 9:0.03256686 10:0.15406129 11:0.28389278 12:0.0 13:0.039311208 14:0.03127343 15:1.0 16:0.21119405 17:0.006858371 18:0.001192815 19:2.56512E-4 20:0.0 21:2.57641E-4 
-0.40561096742152986 -0.0 0.36687403199974783 1.0 0.8997193496751655 0.0 0.0 1.0 0.0 1.0 0.0 0.0 0.0 0.0 0.0 0.0 1.0 0.9835515747472555 0.41728761075668036 0.5510101348934817 0.693028614691052 0.16607850918092704 0.4379955863816767 0.0 0.09610930810300371 0.2710679308589679 0.0 0.0 0.0 0.3368207166150488 0.3387168013912985 0.9553329079454563 1.0 1.0 1.0 0.0 0.37374704101793216 0.0 0.0 0.0 0.39211111594296405 1.0 0.0 0.0 0.9972434830111452 1:0.6119236 2:0.44737625 3:0.72056735 4:0.8722544 5:1.0 6:0.70115566 7:0.0 8:1.0 9:0.11782694 10:0.36084896 11:0.4998229 12:0.0 13:0.124514714 14:0.11803822 15:1.0 16:0.3260374 17:0.006886504 18:0.001138436 19:3.08039E-4 20:0.0 21:3.09338E-4 
-0.0 -1.0 0.002523491643139702 0.29741682072170544 0.04013779097932516 1.0 1.0 0.0 1.0 0.17802063334395907 1.0 1.0 1.0 1.0 1.0 1.0 0.1810483611835417 0.4404780621657058 0.002320571124938775 0.0 0.017481138665570845 1.0 0.9120118832193543 1.0 1.0 0.09697687857148604 1.0 0.883270588641516 1.0 0.02269470598335868 0.0 0.9079825940033039 1.0 1.0 0.5006208703824356 1.0 0.0 1.0 1.0 1.0 0.0 0.0 1.0 1.0 0.0027565169888547625 1:1.0 2:0.376876 3:0.34351185 4:0.49241334 5:0.10989556 6:0.22187401 7:0.0 8:1.0 9:0.013837706 10:0.0774846 11:0.1895413 12:0.0 13:0.018072424 14:0.010682016 15:1.0 16:0.1429524 17:0.010429323 18:0.001328233 19:9.66967E-5 20:0.0 21:9.61306E-5 
-0.0 -0.0 0.0 0.46341411814426786 0.0 1.0 0.0 1.0 0.17859549367411942 0.0 0.0 0.037131540201834526 0.5335111913818747 0.0 0.13312353953090633 0.0 0.0 0.0 0.0 0.0 0.0 1.0 0.0 0.6791589162536132 0.0 0.0 0.0 0.11672941135848383 0.1208925206830239 0.0 0.0 0.0 0.0 1.0 0.6618032651939331 0.0 0.0 0.0 0.0 0.0 0.0 0.0 0.0 0.0 0.0 1:1.0 2:0.57779235 3:0.7620728 4:0.9619457 5:0.60653937 6:0.62572587 7:0.0 8:1.0 9:0.052165784 10:0.21609752 11:0.34549898 12:0.0 13:0.05929028 14:0.05112305 15:1.0 16:0.245978 17:0.021838935 18:0.002998412 19:5.74007E-4 20:0.0 21:5.76407E-4 
-1.0 -0.27675746891598463 -0.16936999954473794 0.08054995179144313 1.0 0.2511067858601756 0.28381222047591737 0.16324783401571263 0.2773817037347954 1.0 0.2748765479966037 0.27689353900764824 0.9828800286924801 0.2744298744658182 1.0 1.0 1.0 1.0 1.0 1.0 0.0 0.28700611804528525 1.0 0.2815864345278666 0.9694682170103363 0.7809886027874514 0.27789429292396584 0.2856295661874192 0.27749810916239764 1.0 1.0 1.0 0.03423070137434832 0.0 0.594870064783628 0.28099167453508356 1.0 0.28281380965162234 0.27507669655318945 0.2799281969358732 0.0 0.0 0.27884953583942046 0.2789554136884077 0.0 1:0.001089686 2:0.001525127 3:0.006016582 4:0.006263357 5:1.0 6:0.024906244 7:0.001199654 8:0.9194198 9:0.9176891 10:0.93458116 11:0.93701285 12:0.0 13:0.9183582 14:0.88581187 15:0.46799475 16:1.0 17:0.026595945 18:0.063605145 19:0.011492236 20:0.14447309 21:0.0 
-1.0 -0.0 -0.2000275240981496 1.0 1.0 0.04798020673423776 0.0 0.14542794864956907 0.0 1.0 0.0 0.0 0.0 0.0 0.1762088540645473 1.0 1.0 1.0 1.0 1.0 1.0 0.0 1.0 0.0 0.0 0.0 0.0 0.0 0.0 1.0 1.0 1.0 0.8077371222956738 0.766046183829251 1.0 0.0 1.0 0.0 0.0 0.0 1.0 1.0 0.0 0.0 1.0 1:7.19599E-4 2:0.002264073 3:0.014251574 4:0.015454934 5:1.0 6:0.04878614 7:4.66498E-4 8:0.9530184 9:0.9430038 10:0.9883884 11:1.0 12:0.0 13:0.9469584 14:0.91887915 15:0.69940966 16:1.0 17:0.09068266 18:0.032870106 19:0.004024552 20:0.05025418 21:0.0 
-0.1958906417107742 -0.06764913066298181 -0.7608309388659733 -0.08054995179144313 1.0 0.16499149432045856 0.016945359415977888 0.6963755693840761 0.05080172101804254 1.0 0.10604996707847708 0.06180737226117704 0.05174463398767214 0.11181703023068973 0.30712280675610315 1.0 1.0 1.0 0.3814526817174033 0.7294194376923273 0.0 0.18291081981240356 1.0 0.0 0.12569401453116605 0.0 0.06403374989093012 0.23393880166624084 0.05161843723334878 0.0 0.0 1.0 1.0 1.0 1.0 0.0 0.07430096887590987 0.03461736034198896 0.10181169928373854 0.013073406761804142 0.0 0.0 0.12155531251891179 0.09081990452619658 0.0 1:0.14320667 2:0.14683616 3:0.31997424 4:0.36216012 5:1.0 6:0.39502513 7:0.0 8:1.0 9:0.3422024 10:0.69627863 11:0.81594807 12:0.0 13:0.34852922 14:0.34595773 15:1.0 16:0.47695783 17:0.001503455 18:8.52636E-4 19:5.72323E-7 20:3.2149E-4 21:0.0 
-0.0 -0.7156467247522206 -1.0 -0.0 0.4755375469103896 1.0 1.0 1.0 0.7594268242609289 0.42601703886477454 0.6134556528162348 0.7292036169173833 0.4424523407965287 0.5964616735753097 0.10841968338672354 0.0 0.096027485700068 0.23236826963998444 0.0 0.0 0.0 1.0 0.15849948881965711 1.0 0.2034439354859508 0.0 0.7366200052561359 1.0 0.7600356945939702 0.0 0.0 0.6281958166420463 1.0 1.0 1.0 0.9600070761248887 0.0 1.0 0.6252432814307587 0.8794897413283649 0.0 0.0 0.6116303835764452 0.6861500023936192 0.0 1:0.5250424 2:0.39820102 3:0.6614864 4:0.7954733 5:1.0 6:0.6607215 7:0.0 8:1.0 9:0.13285235 10:0.37606433 11:0.53374827 12:0.0 13:0.14424399 14:0.12932606 15:1.0 16:0.33407393 17:0.002561228 18:2.68917E-4 19:1.67122E-5 20:0.0 21:1.66019E-5 
-1.0 -0.0 -0.0 -1.0 1.0 0.0 0.0 0.0 0.0 1.0 0.0 0.0 1.0 0.0 1.0 1.0 1.0 1.0 1.0 1.0 1.0 0.0 1.0 0.0 1.0 0.6821324429987052 0.0 0.0 0.0 0.9919955858135705 0.9501891772154317 1.0 1.0 0.2657608330671715 1.0 0.0 1.0 0.0 0.0 0.0 1.0 1.0 0.0 0.0 1.0 1:0.1274398 2:0.13189846 3:0.2933788 4:0.33846465 5:1.0 6:0.37617764 7:0.0 8:1.0 9:0.3739103 10:0.7039043 11:0.8608137 12:0.0 13:0.3881548 14:0.37381777 15:1.0 16:0.46941558 17:0.007798385 18:0.001026879 19:2.81318E-4 20:0.0 21:2.82684E-4 
-1.0 -0.0 -0.0 -0.0 -0.0 0.0 0.0 0.0 0.0 0.662940659731281 0.0 0.0 0.0 0.0 0.0 1.0 1.0 0.06276231899815722 1.0 1.0 0.6188291372635534 0.0 1.0 0.0 0.0 0.0 0.0 0.0 0.0 0.23560801745052434 0.0 1.0 0.0 0.0 0.0 0.0 0.0 0.0 0.0 0.0 0.0 0.0 0.0 0.0 0.0 1:0.019176599 2:0.029010467 3:0.09846368 4:0.11868355 5:1.0 6:0.18583126 7:1.6532E-4 8:0.88065004 9:0.6668082 10:0.8511559 11:1.0 12:0.0 13:0.682869 14:0.6857093 15:1.0 16:0.61906195 17:0.24413595 18:0.056577742 19:0.001392294 20:0.01421811 21:0.0 
-1.0 -0.0 -0.0 -1.0 -0.0 0.0 0.0 0.0 0.0 1.0 0.0 0.0 0.0 0.0 0.0 1.0 1.0 1.0 1.0 1.0 0.0 0.0 1.0 0.0 0.0 0.0 0.0 0.0 0.0 1.0 1.0 1.0 0.0 0.0 0.0 0.0 1.0 0.0 0.0 0.0 1.0 0.0 0.0 0.0 0.0 1:0.012426403 2:0.017530411 3:0.0505102 4:0.0605129 5:1.0 6:0.11608788 7:0.010302218 8:0.86183095 9:0.7985603 10:0.88374645 11:0.97956574 12:0.0 13:0.8209083 14:0.8277439 15:1.0 16:0.76895833 17:0.33304808 18:0.10183468 19:0.014256983 20:0.05633049 21:0.0 
-0.0 -0.011196122397417203 -0.9398571406544908 -0.0 -1.0 0.6404160909648172 0.5429270592806131 0.6949729147589355 0.4984887460986821 1.0 0.0 0.3684344180981008 0.40455835809149204 0.0 0.45768147202779214 0.288465369064194 1.0 1.0 0.0 0.0 0.3811708627364467 0.5572288584846716 0.331779199040264 0.5271369114821147 0.32512841871467035 0.0 0.0 0.5697018545695971 0.453751654804982 0.0 0.0 1.0 1.0 1.0 1.0 0.5176472011144574 0.0 0.5330832744661784 0.0 0.5139828053782536 0.0 1.0 0.0 0.0 1.0 1:0.070990026 2:0.07465088 3:0.18680872 4:0.24261834 5:1.0 6:0.2918355 7:0.0 8:0.9464293 9:0.48337433 10:0.6711356 11:0.98814005 12:0.0 13:0.52812713 14:0.5244113 15:1.0 16:0.41726565 17:0.20959558 18:0.039950773 19:0.0 20:4.26602E-4 21:7.28058E-4 
-0.037127593784440534 -0.0 -0.0 -0.0 -0.0 0.0 0.0 0.0 0.0 0.0 0.0 0.0 0.0 0.0 0.0 0.0 0.0 0.0 1.0 0.0 0.0 0.0 1.0 0.0 0.0 0.0 0.0 0.0 0.0 0.0 0.0 0.0 0.0 0.0 0.0 0.0 0.0 0.0 0.0 0.0 0.0 0.0 0.0 0.0 0.0 1:0.027015412 2:0.035860296 3:0.11028 4:0.13620947 5:1.0 6:0.20045362 7:0.0 8:0.8761849 9:0.6245487 10:0.78601235 11:1.0 12:0.0 13:0.65529007 14:0.65101266 15:1.0 16:0.5510531 17:0.2535662 18:0.043398444 19:0.004912552 20:0.0 21:0.006867098 
-0.0 -0.0 -0.0 -0.0 -0.4755375469103896 0.0 0.0 0.0 0.0 1.0 0.0 0.0 0.0 0.0 0.0 0.0 0.0 1.0 0.0 0.0 0.0 0.0 0.0 0.0 0.0 0.0 0.0 0.0 0.0 0.0 0.0 0.7573067413589539 0.2874491906467126 0.0 1.0 0.0 0.0 0.0 0.0 0.0 0.0 0.0 0.0 0.0 0.0 1:0.05437748 2:0.062174957 3:0.16547087 4:0.20406842 5:1.0 6:0.2613385 7:0.0 8:0.94581014 9:0.53064436 10:0.7385858 11:0.9998639 12:0.0 13:0.55873394 14:0.5629666 15:1.0 16:0.48303193 17:0.23627055 18:0.041974682 19:0.003931932 20:0.0 21:0.005497225 
-1.0 -0.0 -0.0 -1.0 -0.0 0.0 0.0 0.0 0.0 1.0 0.0 0.0 0.0 0.0 0.0 0.29980506095555787 0.0 0.0 1.0 0.0 0.0 0.0 0.0 0.0 0.0 0.0 0.0 0.0 0.0 1.0 1.0 0.0 0.0 0.0 0.0 0.0 1.0 0.0 0.0 0.0 0.0 0.0 0.0 0.0 0.0 1:0.012305845 2:0.019861456 3:0.06656255 4:0.08176705 5:1.0 6:0.14531115 7:0.008650376 8:0.8670718 9:0.75409883 10:0.8838234 11:0.9968848 12:0.0 13:0.77131283 14:0.7761843 15:1.0 16:0.69486034 17:0.40236685 18:0.12270517 19:0.017727178 20:0.06339044 21:0.0 
-0.0 -0.0 -0.0 -0.0 -0.0 0.0 0.0 0.0 0.0 0.0 0.0 0.0 0.0 0.0 0.0 0.0 0.0 0.0 0.37357263236066035 0.0 0.0 0.0 0.0 0.0 0.0 0.0 0.0 0.0 0.0 0.0 0.0 0.0 0.0 0.0 0.0 0.0 0.0 0.0 0.0 0.0 0.0 0.0 0.0 0.0 0.0 1:0.031967983 2:0.041511707 3:0.12454158 4:0.1522146 5:1.0 6:0.21649249 7:0.0 8:0.89796555 9:0.60325956 10:0.793271 11:1.0 12:0.0 13:0.62547016 14:0.64227486 15:1.0 16:0.54524827 17:0.26433975 18:0.049669664 19:0.0 20:0.001280502 21:0.001015138 
-0.0 -0.0 -0.0 -0.0 -0.0 0.0 0.0 0.0 0.0 0.0 0.0 0.0 0.0 0.0 0.0 0.0 0.0 0.0 0.0 0.0 0.0 0.0 0.0 0.0 0.0 0.7956824527415002 0.0 0.0 0.0 0.0 0.0 0.0 0.0 0.0 0.23095108582976254 0.0 0.0 0.0 0.0 0.0 0.0 0.0 0.0 0.0 0.0 1:0.032102898 2:0.04030457 3:0.123211876 4:0.15961763 5:1.0 6:0.22226375 7:0.0 8:0.8776973 9:0.58226556 10:0.73785967 11:1.0 12:0.0 13:0.6268756 14:0.6005397 15:1.0 16:0.48485997 17:0.23224273 18:0.038120218 19:0.0 20:3.30827E-4 21:8.64711E-4 
-0.0 -0.48511105755146294 -0.0 -0.0 -1.0 0.0 0.0 0.0 0.0 0.337059340268719 0.486491865798967 0.12723682235252115 1.0 0.4841752827339138 1.0 0.0 0.0 0.0 0.0 0.0 0.0 0.0 0.0 0.0 1.0 0.0 0.5016145945086699 0.0 0.04605270971543304 0.0 0.0 0.0 1.0 0.3112340949277944 1.0 0.0 0.0 0.0 0.48779351830644724 0.0 0.0 0.0 0.5011940980463536 0.505971825012848 0.0 1:0.061990596 2:0.06475434 3:0.17254944 4:0.23159897 5:1.0 6:0.28094083 7:0.0 8:0.9322513 9:0.48316494 10:0.6451019 11:1.0 12:0.0 13:0.54009354 14:0.5071562 15:1.0 16:0.40078565 17:0.2390249 18:0.03318399 19:0.003299414 20:0.0 21:0.004574593 
-0.0 -1.0 -1.0 -0.0 -0.16499149432045856 -0.0 1.0 0.5183150824846261 1.0 0.0 0.0 1.0 1.0 0.0 1.0 1.0 0.0 0.2505922682908509 0.0 0.0 0.0 1.0 0.0 1.0 0.0 0.0 1.0 1.0 1.0 0.0 0.0 0.2106653933089894 1.0 1.0 0.5419808824045951 0.06518057092420315 0.0 1.0 0.0 0.0 0.0 0.0 0.0 0.0 0.0 1:1.0 2:0.29502997 3:0.23284604 4:0.4887485 5:0.09254962 6:0.19971023 7:0.0 8:1.0 9:0.037011024 10:0.02822645 11:0.26056033 12:6.94376E-4 13:0.04031678 14:0.002597392 15:1.0 16:0.0713134 17:0.004942364 18:0.001252568 19:3.33749E-6 20:0.0 21:3.80352E-6 
-0.0 -1.0 -1.0 -0.0 -0.0 -0.0 0.8975598505848037 0.0 1.0 0.0 1.0 1.0 1.0 1.0 1.0 1.0 0.0 0.0 0.0 0.0 0.0 1.0 0.44192318726967345 1.0 0.3121507754771569 0.0 1.0 0.0 1.0 0.0 0.0 0.0 0.26941722415926406 0.6572588070723244 0.0 0.9348194290757967 0.0 0.7353185605714304 1.0 1.0 0.0 0.0 0.0 1.0 0.0 1:1.0 2:0.25214 3:0.19371895 4:0.39956012 5:0.05736184 6:0.14626263 7:0.0 8:1.0 9:0.030489376 10:0.036501355 11:0.21996279 12:0.001450072 13:0.030343983 14:0.008016926 15:1.0 16:0.05436912 17:0.03987117 18:0.001767147 19:5.95627E-6 20:1.73847E-4 21:0.0 
-0.010859417132765326 -1.0 -0.0 -0.035044361336258815 -0.0 -0.0 0.0 0.0 1.0 0.0 1.0 1.0 1.0 1.0 1.0 1.0 0.0 0.0 0.01467580199875516 0.0 0.0 1.0 0.0 1.0 1.0 0.1691696168988412 1.0 0.0 1.0 0.06467692923901895 0.02370757515405528 0.34235695494957263 0.0 0.0 0.0 0.0 0.01627024505961742 0.0 1.0 1.0 0.008452955029199525 0.0 1.0 1.0 0.0 1:1.0 2:0.21111709 3:0.15478393 4:0.38344502 5:0.04726864 6:0.13014309 7:0.0 8:1.0 9:0.045479596 10:0.03561134 11:0.24764158 12:0.002902599 13:0.040094092 14:0.006858178 15:1.0 16:0.029257879 17:0.056217883 18:0.002427029 19:6.27666E-6 20:2.2602E-4 21:0.0 
-0.3100860618223454 -1.0 -1.0 -0.2640426312581545 -1.0 -0.6404160909648172 0.10244014941519632 1.0 0.0 0.8594122241257603 0.0 1.0 1.0 0.0 1.0 0.23861241451782902 1.0 1.0 0.31622354124026913 0.4067996545740299 0.5074016858657934 1.0 0.8459567605419065 1.0 0.0 0.1654809105970084 0.0 1.0 0.0 0.2375737838256362 0.25277520467018855 1.0 1.0 1.0 1.0 0.0 0.2825377511313395 0.26468143942856953 0.0 0.0 0.3025321319450874 0.6799724027288039 0.0 0.0 0.6598577563177148 1:1.0 2:0.36718577 3:0.39504835 4:0.74398196 5:0.29922697 6:0.3807885 7:0.0 8:1.0 9:0.06408306 10:0.11133255 11:0.40848985 12:0.0 13:0.08763307 14:0.03833218 15:1.0 16:0.08522067 17:0.10345248 18:0.01297753 19:2.51318E-4 20:0.002243538 21:0.0 
-0.3007419235365715 -1.0 -1.0 -0.28381222047591737 -1.0 -0.5429270592806131 -1.0 1.0 1.0 0.6273896734769672 1.0 1.0 1.0 1.0 1.0 1.0 1.0 1.0 0.31001921069074023 0.3716865393273754 0.45131249087098024 1.0 1.0 1.0 0.2844348438186012 0.318999657941587 1.0 1.0 1.0 0.2860592188172779 0.26209366991909383 1.0 1.0 1.0 1.0 0.0 0.28170301921620544 1.0 1.0 1.0 0.2918374683353505 0.5701052578038408 0.0 1.0 0.5560964010744953 1:1.0 2:0.32355502 3:0.2782446 4:0.46678504 5:0.08973321 6:0.195444 7:0.0 8:1.0 9:0.018130174 10:0.056047466 11:0.20841424 12:0.0 13:0.023169627 14:0.00905467 15:1.0 16:0.10276727 17:0.021036768 18:3.46515E-4 19:3.58992E-7 20:2.2729E-5 21:0.0 
-0.0 -1.0 -1.0 -0.0 -0.016945359415977888 -0.0 -1.0 0.17538098999594162 1.0 0.0 1.0 1.0 1.0 1.0 1.0 1.0 0.0 0.2099610826890102 0.0 0.0 0.0 1.0 0.25183139084562584 1.0 1.0 0.0 1.0 1.0 1.0 0.0 0.0 0.4514681083544907 1.0 1.0 0.38210169953076717 1.0 0.0 1.0 1.0 1.0 0.0 0.0 1.0 1.0 0.0 1:1.0 2:0.32485446 3:0.26566708 4:0.43319628 5:0.07574327 6:0.17776541 7:0.0 8:1.0 9:0.014156599 10:0.04893509 11:0.18392438 12:0.0 13:0.017922074 14:0.00757232 15:1.0 16:0.10902419 17:0.00499435 18:8.66646E-6 19:0.0 20:1.3902E-6 21:6.73184E-10 
-0.3345043588473428 -0.0 -1.0 -0.30867578266528173 -1.0 -0.6949729147589355 -0.5183150824846261 -0.17538098999594162 0.0 1.0 0.0 0.0 0.11381008113931192 0.0 0.0 0.0 1.0 0.26683389824502385 0.3446494628345081 0.43603604939973 0.5443057292097416 0.9056896682304401 0.21230823228277007 0.10676620958762542 0.0 0.31264823930227037 0.0 1.0 0.0 0.303342863234358 0.28612034969900274 0.5181995688740709 1.0 1.0 1.0 0.0 0.311486707272339 0.26492715756830587 0.0 0.0 0.32497096123446206 0.8037056002912595 0.0 0.0 0.7632896326272577 1:0.8040253 2:0.5225469 3:0.77319443 4:1.0 5:0.9165981 6:0.73752517 7:0.0 8:1.0 9:0.09329029 10:0.2639668 11:0.4691154 12:0.0 13:0.110858224 14:0.090058036 15:1.0 16:0.2640246 17:0.012536363 18:0.001379609 19:3.48752E-4 20:0.0 21:3.50909E-4 
-0.0 -0.8521782200109638 -1.0 -0.0 -0.6963755693840761 -0.0 -1.0 -1.0 0.8921523976404959 0.0010336274209187329 0.7613575048908077 0.864197483723305 1.0 0.7456340949609713 0.9381639838143433 0.8457176405003094 0.08165244090270488 1.0 0.0 0.0 0.0 1.0 1.0 1.0 0.9243432557037217 0.0 0.8752339114519568 1.0 0.893703660689386 0.0 0.0 1.0 1.0 1.0 1.0 1.0 0.0 1.0 0.7722085682226243 1.0 0.0 0.0 0.7715262343886147 0.8364232409335967 0.0 1:0.8626764 2:0.5417164 3:0.77260303 4:1.0 5:0.8247153 6:0.71229845 7:0.0 8:1.0 9:0.07967474 10:0.2412947 11:0.43456748 12:0.0 13:0.09532161 14:0.076151915 15:1.0 16:0.255545 17:0.009521811 18:0.001128103 19:2.1265E-4 20:0.0 21:2.12671E-4 
-0.0 -1.0 -1.0 -0.0 -0.0 -0.0 -1.0 -1.0 -0.0 0.0 1.0 1.0 1.0 1.0 1.0 1.0 0.0 0.1683505268269655 0.0 0.0 0.0 1.0 0.22494479083159594 1.0 0.2856793632772114 0.0 1.0 1.0 1.0 0.0 0.0 0.3671909055777007 0.8350640738250782 0.8426983253401225 0.16994142351947691 0.0 0.0 1.0 1.0 1.0 0.0 0.0 0.0 1.0 0.0 1:1.0 2:0.25683847 3:0.16312389 4:0.26094002 5:0.021575127 6:0.08368165 7:0.0 8:1.0 9:0.006655747 10:0.027747618 11:0.106576905 12:0.0 13:0.006592992 14:0.00217729 15:1.0 16:0.08841229 17:8.174E-4 18:1.03557E-4 19:1.33848E-6 20:0.0 21:1.33896E-6 
-0.2920035863820969 -1.0 -1.0 -0.2773817037347954 -0.8102285452789716 -0.4984887460986821 -1.0 -1.0 -0.8921523976404959 0.5441828840762439 0.0 1.0 1.0 0.0 1.0 1.0 0.8198388181476376 1.0 0.3007750707045273 0.3548113272608414 0.42464476161635334 1.0 1.0 1.0 0.0 0.0 1.0 1.0 1.0 0.029025719544079575 0.255976369381754 1.0 1.0 1.0 1.0 1.0 0.27417133976775543 1.0 0.0 1.0 0.28334989746051237 0.5160464479431917 0.0 0.0 0.5057253203320924 1:1.0 2:0.25970924 3:0.16645786 4:0.26444682 5:0.022370901 6:0.08553162 7:0.0 8:1.0 9:0.006410716 10:0.028926088 11:0.10720149 12:0.0 13:0.006538336 14:0.002252151 15:1.0 16:0.09037205 17:7.70333E-4 18:1.16614E-4 19:8.57519E-9 20:1.03058E-5 21:0.0 
-0.0 -1.0 -0.17859549367411942 -0.0 -0.0 -0.0 -1.0 -0.0 -0.0 0.0 1.0 1.0 1.0 1.0 1.0 1.0 0.0 0.0 0.0 0.0 0.0 1.0 0.0 1.0 1.0 0.31660214057101493 1.0 0.0 1.0 0.25118073232578764 0.0 0.0 0.0 0.0 0.0 0.0 0.0 0.0 1.0 0.0 0.0 0.0 1.0 1.0 0.0 1:1.0 2:0.2451788 3:0.15129021 4:0.2534887 5:0.019830544 6:0.07922418 7:0.0 8:1.0 9:0.007984262 10:0.023637215 11:0.108065166 12:0.0 13:0.007171274 14:0.002035155 15:1.0 16:0.079842836 17:0.00141229 18:2.19077E-4 19:3.73801E-8 20:2.80647E-5 21:0.0 
-1.0 -0.0 -0.0 -1.0 -0.42601703886477454 -1.0 -0.0 -0.0 -0.0 -0.0 0.0 0.0 0.41421432968644983 0.0 0.6575177820532475 1.0 1.0 1.0 1.0 1.0 0.3620468110081028 0.0 1.0 0.0 0.4298309449101878 0.51635552802894 0.0 0.0 0.0 1.0 1.0 1.0 0.2215415117951157 0.0 0.7897763789518628 0.0 1.0 0.0 0.0 0.0 0.645208367856898 0.16423237160851012 0.0 0.0 0.18563362318260754 1:5.69247E-4 2:0.001039553 3:0.005768565 4:0.006133076 5:1.0 6:0.025539886 7:0.0 8:0.910786 9:0.9089145 10:0.92569125 11:0.9293642 12:0.0 13:0.9105277 14:0.941765 15:0.4941151 16:1.0 17:0.07085683 18:0.0631306 19:0.019825129 20:0.13374916 21:0.0 
-0.0 -0.0 -1.0 -0.0 -1.0 -1.0 -0.8594122241257603 -0.4837191468264188 -1.0 -0.0 0.0 0.0 0.0375728782436694 0.0 0.0 0.0 0.3469806944942874 0.6399128597850352 0.0 0.0 0.0 0.7072134428457638 0.41531999822099064 0.34439106042183587 0.0 0.0 0.0 0.7287610560198431 0.0 0.0 0.0 0.7888723302877124 1.0 1.0 1.0 0.22981255187290753 0.0 0.570690373995232 0.0 0.12239549631576638 0.0 0.0 0.0 0.0 0.0 1:0.29464832 2:0.2407603 3:0.29176936 4:0.5288316 5:1.0 6:0.5209235 7:0.0 8:0.96779084 9:0.44719914 10:0.67197 11:0.98048574 12:0.0 13:0.49409276 14:0.4127291 15:1.0 16:0.28950268 17:0.38458762 18:0.16963252 19:0.033220563 20:0.07226591 21:0.0 
-0.2738540094389475 -0.5390163176346813 -0.17802063334395907 -0.0 -1.0 -1.0 -0.0 -0.1436705266505484 -0.0010336274209187329 -0.5441828840762439 0.5207717817947691 0.5393784956360177 1.0 0.5167874123915674 0.9030253739940176 0.6507897856316103 1.0 1.0 0.6776854777658168 0.44032458010831976 0.601928561714325 0.0 1.0 0.25479105327882223 0.9475392129622106 0.3722468698924894 0.5473120854054412 0.0 0.545974695227418 0.0 0.0 1.0 1.0 0.7048077094440838 1.0 0.3510564588022087 0.0 0.0516485520710166 0.5231291059787551 0.4480585488424094 0.014831067873261449 0.8357676283914899 0.5381611903244222 0.5493007534548807 0.8143663768173924 1:0.20154096 2:0.17776567 3:0.2716022 4:0.423608 5:1.0 6:0.43867898 7:0.0 8:0.96730864 9:0.44601044 10:0.66002935 11:0.9764835 12:0.0 13:0.4951791 14:0.41885817 15:1.0 16:0.32275167 17:0.29149875 18:0.11212098 19:0.016288262 20:0.046925183 21:0.0 
-1.0 -0.0 -0.0 -1.0 -0.0 -1.0 -0.0 -0.0 -0.0 -0.0 0.0 0.0 0.0 0.0 0.0 1.0 0.6530193055057125 0.672713286161954 1.0 0.5596754198916802 0.036024627277572024 0.0 1.0 0.0 0.0 0.0 0.0 0.0 0.0 1.0 1.0 1.0 0.0 0.0 0.33729069179659527 0.0 1.0 0.0 0.0 0.0 0.3399605642698406 0.0 0.0 0.0 0.0 1:0.009917121 2:0.016377136 3:0.051022608 4:0.06295796 5:1.0 6:0.12377571 7:0.0 8:0.8388898 9:0.78043234 10:0.8848355 11:0.94739485 12:0.0 13:0.7938038 14:0.78280365 15:1.0 16:0.7970601 17:0.41629386 18:0.2877123 19:0.11662453 20:0.27100322 21:0.0 
-1.0 -0.0 -0.0 -0.0 -0.0 -1.0 -0.0 -0.0 -0.0 -0.0 0.0 0.0 0.0 0.0 0.0 0.20557518609046804 0.0 0.0 1.0 0.0 0.0 0.0 0.0 0.0 0.0 0.0 0.0 0.0 0.0 0.6262524723029209 0.0 0.0 0.0 0.0 0.0 0.0 0.0 0.0 0.0 0.0 0.0 0.0 0.0 0.0 0.0 1:0.03473761 2:0.045293946 3:0.09570996 4:0.12669185 5:1.0 6:0.19841538 7:0.0 8:0.86235005 9:0.73060566 10:0.8955162 11:0.9997439 12:0.0 13:0.7439601 14:0.7300158 15:1.0 16:0.6257129 17:0.59296757 18:0.34904337 19:0.16244397 20:0.26137862 21:0.0 
-0.0 -1.0 -1.0 -0.0 -0.0 -0.0 -1.0 -1.0 -0.0 -1.0 -0.0 1.0 1.0 1.0 1.0 1.0 0.0 0.14886293888158336 0.0 0.0 0.0 1.0 0.2083329189492651 1.0 0.2881469493253032 0.0 1.0 1.0 1.0 0.0 0.0 0.3256589699829788 0.7024296096444876 0.47959140971244746 0.010350877445407755 0.0 0.0 1.0 1.0 1.0 0.0 0.0 0.0 1.0 0.0 1:1.0 2:0.17725046 3:0.08450128 4:0.18104509 5:0.007856878 6:0.045063093 7:0.0 8:1.0 9:0.016335428 10:0.006919034 11:0.0946677 12:0.0 13:0.007661437 14:7.20414E-4 15:1.0 16:0.040692333 17:0.002703996 18:3.40745E-4 19:8.69812E-8 20:1.27206E-5 21:0.0 
-0.2887072234663326 -1.0 -1.0 -0.2748765479966037 -0.7195056198947118 -0.486491865798967 -1.0 -1.0 -0.7613575048908077 -1.0 -0.5207717817947691 1.0 1.0 1.0 1.0 1.0 0.7356200542543191 1.0 0.29716920568638683 0.3487513007336381 0.4165506398021181 1.0 1.0 1.0 1.0 0.3182738089788888 1.0 1.0 1.0 0.2793026509801455 0.2537648655792142 1.0 1.0 1.0 1.0 1.0 0.271332978613581 1.0 1.0 1.0 0.28014437030050765 0.49640251598128626 1.0 1.0 0.4884179901304686 1:1.0 2:0.17896785 3:0.08667124 4:0.18507914 5:0.008284422 6:0.046532966 7:0.0 8:1.0 9:0.016453778 10:0.007552782 11:0.09681562 12:0.0 13:0.007925843 14:7.59562E-4 15:1.0 16:0.041129243 17:0.003547602 18:3.31579E-4 19:9.42279E-8 20:4.31814E-6 21:0.0 
-0.0 -1.0 -0.0 -0.0 -0.0 -0.0 -1.0 -0.0 -0.0 -0.0 -0.0 -0.0 1.0 0.0 1.0 1.0 0.0 0.0 0.0 0.0 0.0 1.0 0.0 1.0 0.0 0.0 1.0 0.0 0.0 0.0 0.0 0.0 0.0 0.0 0.0 0.0 0.0 0.0 0.0 0.0 0.0 0.0 0.0 0.0 0.0 1:1.0 2:0.19522789 3:0.09976503 4:0.19299981 5:0.009551143 6:0.050849743 7:0.0 8:1.0 9:0.012379355 10:0.010480719 11:0.093223184 12:0.0 13:0.006819626 14:9.44113E-4 15:1.0 16:0.05193522 17:0.001928381 18:2.1923E-4 19:3.14432E-8 20:2.11313E-5 21:0.0 
-0.0 -1.0 -0.0 -0.0 -0.0 -0.0 -0.0 -0.0 -0.0 -0.0 -0.0 -1.0 1.0 1.0 1.0 1.0 0.0 0.0 0.0 0.0 0.0 0.0 0.0 0.0 0.0 0.0 1.0 0.0 0.0 0.0 0.0 0.0 0.0 0.0 0.0 0.0 0.0 0.0 1.0 0.0 0.0 0.0 0.0 0.5702105419444121 0.0 1:1.0 2:0.1926079 3:0.09740844 4:0.19052067 5:0.00921296 6:0.049741834 7:0.0 8:1.0 9:0.01278619 10:0.009945758 11:0.09286889 12:0.0 13:0.006859959 14:9.05596E-4 15:1.0 16:0.05041409 17:0.002031768 18:2.22561E-4 19:3.34476E-8 20:2.08818E-5 21:0.0 
-0.0 -1.0 -0.037131540201834526 -0.0 -0.0 -0.0 -1.0 -0.0 -0.0 -1.0 -0.0 -0.0 1.0 0.0 1.0 0.2755812862408874 0.0 0.0 0.0 0.0 0.0 1.0 0.0 1.0 0.0 0.0 0.0 0.0 1.0 0.0 0.0 0.0 0.0 0.0 0.0 0.0 0.0 0.0 0.0 0.0 0.0 0.0 0.0 0.0 0.0 1:1.0 2:0.19999766 3:0.10357613 4:0.19505633 5:0.00989178 6:0.05203293 7:0.0 8:1.0 9:0.011238387 10:0.01143506 11:0.09197536 12:0.0 13:0.006473309 14:9.87522E-4 15:1.0 16:0.055372413 17:0.001241989 18:1.71635E-4 19:1.42187E-8 20:1.76188E-5 21:0.0 
-0.29137806868402344 -1.0 -1.0 -0.27689353900764824 -0.7910109891785604 -0.49567124045062194 -1.0 -1.0 -0.864197483723305 -1.0 -0.5393784956360176 -0.0 1.0 0.0 1.0 0.0 0.8022391459272012 1.0 0.300091798939655 0.35358607791286606 0.42293711962764946 1.0 1.0 1.0 0.8247959189661644 0.0 0.0 1.0 1.0 0.2800526086888059 0.25553086134459163 1.0 1.0 1.0 1.0 1.0 0.27360436338135535 1.0 0.0 1.0 0.28271857003636697 0.5120917977913871 0.0 0.0 0.5021879328616126 1:1.0 2:0.24692231 3:0.15288068 4:0.24740592 5:0.018891692 6:0.07686786 7:0.0 8:1.0 9:0.007277104 10:0.025550919 11:0.10324873 12:0.0 13:0.006547181 14:0.001903559 15:1.0 16:0.082470976 17:0.003269637 18:3.85262E-4 19:1.21147E-7 20:4.20566E-5 21:0.0 
-0.0 -1.0 -0.0 -0.0 -0.0 -0.0 -0.0 -0.0 -0.0 -0.0 -0.0 -1.0 1.0 1.0 0.23482199086089317 1.0 0.0 0.0 0.0 0.0 0.0 0.0 0.0 0.0 0.46188133737339165 0.3177296987249049 1.0 0.0 0.0 0.0 0.0 0.0 0.0 0.0 0.0 0.0 0.0 0.0 1.0 0.0 0.0 0.0 1.0 1.0 0.0 1:1.0 2:0.18500553 3:0.09123102 4:0.18464743 5:0.008449955 6:0.047023878 7:0.0 8:1.0 9:0.014016892 10:0.008898701 11:0.09267005 12:0.0 13:0.007051562 14:8.33502E-4 15:1.0 16:0.046030387 17:0.002958217 18:3.56815E-4 19:6.9261E-8 20:3.32772E-5 21:0.0 
-0.0 -1.0 -1.0 -0.0 -0.0 -0.0 -1.0 -1.0 -0.0 -1.0 -0.0 -0.0 1.0 0.0 1.0 0.0 0.0 0.15924379166591626 0.0 0.0 0.0 1.0 0.2189852170129028 1.0 0.0 0.0 0.0 1.0 1.0 0.0 0.0 0.3524218118211408 0.7877067392734646 0.6944846068712196 0.13751001441894722 0.0 0.0 1.0 0.0 1.0 0.0 0.0 0.0 0.4297894580555879 0.0 1:1.0 2:0.22608086 3:0.12969461 4:0.22412679 5:0.014401184 6:0.06535147 7:0.0 8:1.0 9:0.008876063 10:0.018143332 11:0.09860517 12:0.0 13:0.006584862 14:0.001450196 15:1.0 16:0.06989234 17:0.001627198 18:1.90414E-4 19:2.83549E-8 20:1.84747E-5 21:0.0 
-0.0 -1.0 -0.0 -0.0 -0.0 -0.0 -0.0 -0.0 -0.0 -0.0 -0.0 -0.0 -1.0 0.0 1.0 1.0 0.0 0.0 0.0 0.0 0.0 0.0 0.0 0.0 1.0 0.0 0.9845163390595206 0.0 1.0 0.0 0.0 0.0 0.0 0.0 0.0 0.0 0.0 0.0 0.0 0.0 0.0 0.0 0.0 0.19404773380701598 0.0 1:1.0 2:0.24883002 3:0.17994511 4:0.30424565 5:0.03140749 6:0.09971171 7:0.0 8:1.0 9:0.011677002 10:0.042776514 11:0.14152753 12:0.0 13:0.011713362 14:0.002894053 15:1.0 16:0.07612586 17:0.032970376 18:0.006632145 19:2.94968E-5 20:5.25752E-4 21:0.0 
-0.0 -1.0 -0.0 -0.0 -0.0 -0.0 -1.0 -0.0 -0.0 -0.0 -0.0 -0.0 -1.0 0.0 0.0 0.0 0.0 0.0 0.0 0.0 0.0 0.0 0.0 0.9963733252256373 0.0 0.0 0.0 0.0 0.0 0.0 0.0 0.0 0.0 0.0 0.0 0.0 0.0 0.0 0.0 0.0 0.0 0.0 0.0 0.0 0.0 1:1.0 2:0.2652254 3:0.19928984 4:0.32044563 5:0.036800697 6:0.1093449 7:0.0 8:1.0 9:0.010191752 10:0.049699917 11:0.14250766 12:0.0 13:0.011213548 14:0.003398408 15:1.0 16:0.08701373 17:0.033664327 18:0.007525562 19:3.79584E-5 20:6.37824E-4 21:0.0 
-0.9824509420449339 -0.021586595162415966 -0.07012179472697613 -0.8208438617516415 -0.6374010532233514 -0.8127418771157734 -0.10184911139726234 -0.009286640883654062 -0.13670252364619723 -0.0 -0.8876567109793898 -0.004841259984705715 -0.0 0.008749103741533945 1.0 1.0 0.8454842092267806 1.0 0.7975507861703834 0.6820152678844066 0.6388138982701578 0.025256641788949596 0.9281802842666798 0.003626674774362521 1.0 0.9244511176139774 0.015483660940479347 0.03406171266634028 0.0 1.0 0.8229897392352017 0.946016584001218 0.6315069730436881 0.31631653493849415 0.5964787026401182 0.0 0.774136811357328 0.0 0.007114122301612919 0.0 0.5924469047799032 0.5438309630924149 0.009802593512323411 0.016175663423659014 0.5590070178648064 1:7.23425E-5 2:8.11522E-5 3:2.96649E-4 4:3.03524E-4 5:1.0 6:0.003100918 7:6.53063E-5 8:0.8342851 9:0.83427685 10:0.8350492 11:0.83503205 12:0.0 13:0.8341285 14:0.7592848 15:0.003139837 16:0.011736655 17:0.017998423 18:0.016346838 19:1.0 20:0.099677816 21:0.0 
-0.1500636958284633 -0.0 -1.0 -0.1620361669408386 -0.8567959215608496 -0.5918164809757189 -1.0 -1.0 -0.9771075574931147 -0.0 -0.5641304969507295 -0.0 -0.0 0.0 0.0 0.0 0.7910289953733782 1.0 0.1506346744669369 0.30584160158581525 0.36118610172984217 1.0 1.0 1.0 0.0 0.0 0.0 1.0 0.0 0.0 0.09963846956526523 1.0 1.0 1.0 1.0 1.0 0.14546151686202266 1.0 0.0 0.43819218914975266 0.17536802934811804 0.45616903690758515 0.0 0.0 0.4409929821351935 1:1.0 2:0.32262456 3:0.25531083 4:0.36785856 5:0.052845612 6:0.14240839 7:0.0 8:1.0 9:0.006461303 10:0.061550565 11:0.1379203 12:0.0 13:0.008345785 14:0.004743271 15:1.0 16:0.12739445 17:0.009372197 18:0.002852862 19:3.96196E-6 20:3.37592E-4 21:0.0 
-0.0 -0.978413404837584 -0.0 -0.0 -0.0 -0.0 -0.8981508886027376 -0.0 -0.0 -0.0 -0.0 -0.0 -0.0 0.0 0.0 0.0 0.0 0.0 0.0 0.0 0.0 0.9747433582110503 0.0 1.0 0.0 0.0 0.0 0.0 0.0 0.0 0.0 0.0 0.0 0.0 0.0 0.0 0.0 0.0 0.0 0.0 0.0 0.0 0.0 0.0 0.0 1:1.0 2:0.27270094 3:0.20153609 4:0.31911892 5:0.036211416 6:0.11026324 7:0.0 8:1.0 9:0.008508842 10:0.047644492 11:0.13624157 12:0.0 13:0.009796669 14:0.003301944 15:1.0 16:0.09358956 17:0.024087967 18:0.0056682 19:1.97103E-5 20:5.09574E-4 21:0.0 
-0.0 -0.0 -1.0 -0.0 -0.0 -0.0 -1.0 -0.990713359116346 -0.0 -0.0 -0.0 -0.0 -0.0 0.0 0.0 0.0 0.0 0.13812719001909077 0.0 0.0 0.0 1.0 0.0 1.0 0.0 0.0 0.0 0.9659382873336596 0.0 0.2386607260460791 0.0 0.30064401597966617 0.9374599823014983 1.0 0.18503317670668035 0.0 0.0 1.0 0.0 0.0 0.0 0.0 0.0 0.0 0.0 1:1.0 2:0.2753715 3:0.21047433 4:0.33289945 5:0.040262677 6:0.11665736 7:0.0 8:1.0 9:0.009578071 10:0.05240612 11:0.14439783 12:0.0 13:0.011100454 14:0.00364035 15:1.0 16:0.09333967 17:0.031332716 18:0.006793523 19:3.1781E-5 20:5.47475E-4 21:0.0 
-0.0 -1.0 -0.0 -0.0 -0.0 -0.0 -0.0 -0.0 -0.0 -1.0 -0.0 -0.9951587400152943 -1.0 0.9912508962584661 1.0 1.0 0.0 0.0 0.0 0.0 0.0 0.0 0.0 0.0 0.3072640951496152 0.0 1.0 0.0 1.0 0.0 0.0 0.0 0.0 0.0 0.0 0.0 0.0 0.0 0.9928858776983871 0.8953202980984405 0.0 0.0 0.9901974064876765 1.0 0.0 1:1.0 2:0.2511353 3:0.17586792 4:0.29809704 5:0.028845591 6:0.09770731 7:0.0 8:1.0 9:0.011164895 10:0.037210044 11:0.13572773 12:0.0 13:0.011099368 14:0.002828168 15:1.0 16:0.07742202 17:0.023822164 18:0.002816651 19:7.99779E-5 20:0.0 21:7.2484E-5 
-0.0 -1.0 -0.0 -0.0 -0.0 -0.0 -0.0 -0.0 -0.0 -1.0 -0.0 -1.0 -1.0 1.0 1.0 1.0 0.0 0.0 0.0 0.0 0.0 0.0 0.0 0.0 0.0 0.07554888238602275 1.0 0.0 1.0 0.0 0.0 0.0 0.0 0.0 0.0 0.0 0.0 0.0 1.0 0.0 0.0 0.0 0.0 0.7897766027693249 0.0 1:1.0 2:0.2654231 3:0.1770462 4:0.2748226 5:0.025633067 6:0.090508156 7:0.0 8:1.0 9:0.005685282 10:0.036085933 11:0.11052453 12:0.0 13:0.006322954 14:0.002595661 15:1.0 16:0.095511995 17:0.0065693 18:0.003402055 19:3.83231E-6 20:4.94486E-4 21:0.0 
-0.0 -0.0 -0.46338939665489864 -0.0 -0.0 -0.0 -0.0 -0.0 -0.0 -0.0 -0.0 -0.0 -0.0 0.0 0.0 0.0 0.0 0.0 0.0 0.0 0.0 1.0 0.08700069082018652 0.0 0.0 0.0 0.0 0.0 0.0 0.0 0.0 0.0 0.0 0.07471813745022997 0.0 0.0 0.0 0.0 0.0 0.0 0.0 0.0 0.0 0.0 0.0 1:1.0 2:0.29319927 3:0.21250592 4:0.3115593 5:0.03612656 6:0.11072802 7:0.0 8:1.0 9:0.005172932 10:0.04911496 11:0.119273655 12:0.0 13:0.006468666 14:0.003606863 15:1.0 16:0.11292779 17:0.009005462 18:0.005060702 19:8.71955E-6 20:8.32854E-4 21:0.0 
-0.0 -1.0 -0.0 -0.0 -0.0 -0.0 -0.0 -0.0 -0.0 -1.0 -0.0 -0.0 -1.0 0.0 1.0 0.21577762217781268 0.0 0.0 0.0 0.0 0.0 0.0 0.0 0.0 0.0 0.0 0.0 0.0 0.0 0.0 0.0 0.0 0.0 0.0 0.0 0.0 0.0 0.0 0.0 0.0 0.0 0.0 0.0 0.0 0.0 1:1.0 2:0.2764796 3:0.19486791 4:0.29729512 5:0.03224101 6:0.10170014 7:0.0 8:1.0 9:0.005762585 10:0.044306874 11:0.119406566 12:0.0 13:0.006821546 14:0.003293873 15:1.0 16:0.10180834 17:0.012262227 18:0.006991233 19:1.5465E-5 20:0.001081438 21:0.0 
-0.0 -1.0 -0.0 -0.0 -0.0 -0.0 -0.0 -0.0 -0.0 -0.0 -0.0 -0.0 -1.0 0.0 1.0 0.0 0.0 0.0 0.0 0.0 0.0 0.0 0.0 0.0 0.0 0.0 0.0 0.0 0.0 0.0 0.0 0.0 0.0 0.0 0.0 0.0 0.0 0.0 0.0 0.6664875127518068 0.0 0.0 0.0 0.0 0.0 1:1.0 2:0.27096695 3:0.19894685 4:0.31480867 5:0.03521729 6:0.10812036 7:0.0 8:1.0 9:0.008320478 10:0.047045145 11:0.1343119 12:0.0 13:0.009517678 14:0.003242391 15:1.0 16:0.09308743 17:0.023775471 18:0.00581506 19:1.96181E-5 20:5.81005E-4 21:0.0 
-0.0 -1.0 -1.0 -0.005816947308898376 -0.0 -0.0 -1.0 -1.0 -0.0 -1.0 -0.0 -1.0 -1.0 -1.0 1.0 1.0 0.0 0.141352731349111 0.0 0.0 0.0 1.0 0.2032453070557428 1.0 0.28816347501876033 0.31950511221609307 1.0 1.0 1.0 0.2795124786576475 0.0 0.3145481759756492 0.6723813512285172 0.4058689382302987 0.0 0.0 0.0 1.0 1.0 1.0 0.0 0.0 0.0 1.0 0.0 1:1.0 2:0.14415245 3:0.056562837 4:0.1583772 5:0.005078352 6:0.0349983 7:0.0 8:1.0 9:0.025641935 10:9.20474E-4 11:0.09676564 12:0.0 13:0.009200987 14:2.47812E-4 15:1.0 16:0.022596339 17:1.69953E-4 18:1.24802E-5 19:5.92339E-7 20:0.0 21:5.92373E-7 
-0.28807607516417516 -1.0 -1.0 -0.2686129271569198 -0.7082787038059993 -0.4841752827339138 -1.0 -1.0 -0.7456340949609713 -1.0 -0.5167874123915674 -1.0 -1.0 -1.0 1.0 1.0 0.7245455467791703 1.0 0.2964925897925959 0.3476898837891221 0.4150580937502513 1.0 1.0 1.0 1.0 0.0 1.0 1.0 1.0 0.0 0.25335107725172495 1.0 1.0 1.0 0.9899002314285283 1.0 0.27081979518374205 1.0 1.0 1.0 0.2795609061257138 0.49327170960530453 1.0 1.0 0.4855833503808422 1:1.0 2:0.1686033 3:0.07594724 4:0.1736492 5:0.006889875 6:0.04190703 7:0.0 8:1.0 9:0.017964387 10:0.004203056 11:0.093810886 12:0.0 13:0.007806286 14:5.8364E-4 15:1.0 16:0.036066458 17:3.49426E-4 18:2.49166E-5 19:3.91116E-7 20:0.0 21:3.91265E-7 
-0.2422000543715329 -1.0 -1.0 -0.0 -0.0 -0.0 -1.0 -0.9769340523800291 -0.0 -1.0 -0.0 -0.0 -1.0 -1.0 -0.0 0.2990562679857401 0.0 0.1947720970289986 0.0 0.0 0.0 1.0 0.12829107944306042 1.0 0.0 0.0 0.0 0.9307069592898094 1.0 0.0 0.0 0.27319948896713275 0.8020195467329954 0.596982673993415 0.043713394528134504 0.0 0.0 0.982373574072688 0.0 0.9937582897476839 0.0 0.0 0.0 0.0 0.0 1:1.0 2:0.2347596 3:0.14081326 4:0.2491627 5:0.018575294 6:0.07620779 7:0.0 8:1.0 9:0.009643755 10:0.019569647 11:0.11103426 12:0.0 13:0.007948142 14:0.001898912 15:1.0 16:0.07186274 17:0.001063782 18:9.4412E-5 19:9.15595E-9 20:7.34117E-6 21:0.0 
-0.0 -1.0 -0.052892849983706365 -0.0 -0.0 -0.0 -1.0 -0.0 -0.0 -1.0 -0.0 -0.0 -1.0 -1.0 -0.0 1.0 0.0 0.0 0.0 0.0 0.0 1.0 0.0 1.0 0.3458729072427826 0.0 0.9925426194395928 0.0 1.0 0.3090856936180155 0.0 0.0 0.0 0.0 0.0 0.0 0.0 0.0 0.0 0.0 0.0 0.0 0.0 0.9904229188707162 0.0 1:1.0 2:0.21133944 3:0.122450605 4:0.24267173 5:0.016417777 6:0.07050229 7:0.0 8:1.0 9:0.015007639 10:0.015867952 11:0.12108515 12:0.0 13:0.010394726 14:0.001499815 15:1.0 16:0.054308593 17:0.008509928 18:7.46607E-4 19:4.30503E-7 20:3.2083E-5 21:0.0 
-0.0 -1.0 -0.0 -0.0 -0.0 -0.0 -0.8746042041900732 -0.0 -0.0 -0.0 -0.0 -1.0 -1.0 -1.0 -1.0 1.0 0.0 0.0 0.0 0.0 0.0 0.9293742914870005 0.0 0.9751843050650313 0.0 0.0 1.0 0.0 0.0 0.0 0.0 0.0 0.0 0.0 0.0 0.0 0.0 0.0 1.0 0.0 0.0 0.0 0.0 0.0 0.0 1:1.0 2:0.21262279 3:0.120329864 4:0.23681055 5:0.015871892 6:0.06874783 7:0.0 8:1.0 9:0.01397 10:0.013698773 11:0.11585258 12:0.0 13:0.009551327 14:0.001640953 15:1.0 16:0.05605203 17:0.003598918 18:3.30259E-4 19:1.09635E-7 20:3.26582E-5 21:0.0 
-1.0 -0.23911484158656435 -0.08023068954719996 -0.9802828993504378 -0.6783645542488185 -0.8317153597886174 -0.1253957958099268 -0.02306594761997096 -0.141841139861715 -0.0 -1.0 -0.0 -0.23482199086089314 -1.0 -0.0 1.0 1.0 1.0 1.0 0.7167773094256965 0.6303084765254325 0.0706257085129996 1.0 0.02481569493496885 1.0 0.8453026406786716 0.007457380560407223 0.06929304071019063 0.0 1.0 0.9802225221296423 1.0 0.6025448524025224 0.37014625250783406 0.6840019870763101 0.0035752039365169715 0.9229863645973536 0.017626425927312006 0.0 0.006241710252316188 0.717342653691674 0.5458327366973116 0.007177817367906658 0.009577081129283833 0.5567211350186906 1:2.21515E-4 2:2.50361E-4 3:8.0296E-4 4:8.25635E-4 5:1.0 6:0.005907216 7:1.90719E-4 8:0.89861375 9:0.8985682 10:0.9005372 11:0.9007186 12:0.0 13:0.8986844 14:0.8771344 15:0.06666779 16:0.33148843 17:0.13544072 18:0.111238845 19:1.0 20:0.5507721 21:0.0 
-0.0 -1.0 -1.0 -0.19592595471410945 -0.7371779358940084 -0.6259661122391748 -1.0 -1.0 -0.7963228439526283 -1.0 -0.5605431560472652 -0.0 -1.0 -1.0 -0.0 0.0 0.7203353417978153 1.0 0.22545833233297188 0.31938903456940587 0.36969152347456746 1.0 1.0 1.0 0.0 0.0 0.0 1.0 1.0 0.0 0.13603346076731027 1.0 1.0 1.0 1.0 0.9964247960634831 0.17851477534957835 1.0 0.0 1.0 0.20618190462569913 0.4541672633026884 0.0 0.0 0.4432788649813094 1:1.0 2:0.2350751 3:0.14180417 4:0.25561243 5:0.019569686 6:0.078802094 7:0.0 8:1.0 9:0.010304793 10:0.01910019 11:0.11546821 12:0.0 13:0.008545254 14:0.001940967 15:1.0 16:0.07075546 17:8.32634E-4 18:2.69232E-4 19:0.0 20:3.36923E-5 21:3.9415E-8 
-0.0 -1.0 -0.0 -0.0 -0.0 -0.0 -0.0 -0.0 -0.0 -0.0 -0.0 -1.0 -1.0 -1.0 -1.0 1.0 0.0 0.0 0.0 0.0 0.0 0.0 0.0 0.0 1.0 0.1546973593213285 1.0 0.0 0.0 0.0 0.0 0.0 0.0 0.0 0.0 0.0 0.0 0.0 1.0 0.0 0.0 0.0 0.9928221826320933 1.0 0.0 1:1.0 2:0.20287322 3:0.11070048 4:0.22977677 5:0.01445531 6:0.06491775 7:0.0 8:1.0 9:0.015766632 10:0.010973241 11:0.11664655 12:0.0 13:0.010021331 14:0.001465617 15:1.0 16:0.050045833 17:0.003136199 18:4.02316E-4 19:1.34647E-7 20:3.35638E-5 21:0.0 
-1.0 -0.2007249412955683 -0.13495492512681936 -1.0 -1.0 -1.0 -0.23795140571135476 -0.05747663185071773 -0.19040183306210687 -0.026562809284247483 -1.0 -0.0 -0.2229098417322695 -0.21577762217781268 -0.0 -0.29412781015646805 1.0 1.0 1.0 1.0 0.7723589026916075 0.17409161284399324 1.0 0.2725207926926287 0.0 0.0 0.014608022469172692 0.14727732924052295 0.022332565400202342 1.0 1.0 1.0 0.9359335191763978 0.6399328198606599 1.0 0.020312952001522375 1.0 0.06894710206861744 0.0 0.027060403173121972 0.9764109819087281 0.6774675324097021 0.0068660845400631 0.012877794571826907 0.6877951876634919 1:8.16417E-4 2:0.00163053 3:0.00888315 4:0.00934884 5:1.0 6:0.034204073 7:0.0 8:0.92007565 9:0.91610205 10:0.9439647 11:0.94769555 12:0.0 13:0.9170115 14:0.9365037 15:0.5566263 16:1.0 17:0.10580872 18:0.056729402 19:0.016640525 20:0.09955376 21:0.0 
-0.0 -1.0 -0.8650450748731806 -0.0 -0.0 -0.0 -1.0 -0.9425233681492823 -0.0 -1.0 -0.0 -1.0 -1.0 -1.0 -1.0 -1.0 0.0 0.0 0.0 0.0 0.0 1.0 0.05170028988835717 1.0 0.19374362913296708 0.0 1.0 0.8527226707594772 1.0 0.0 0.0 0.3548799806094808 0.8236840974140853 0.353635954886393 0.0 0.0 0.0 0.9310528979313826 1.0 0.9729395968268779 0.0 0.0 0.9918526178822452 0.9871222054281732 0.0 1:1.0 2:0.14268799 3:0.056074202 4:0.16481657 5:0.005520368 6:0.036505852 7:0.0 8:1.0 9:0.02668671 10:8.00822E-4 11:0.10282868 12:0.0 13:0.010067613 14:2.71998E-4 15:1.0 16:0.021403506 17:2.30039E-4 18:0.001119175 19:4.52428E-5 20:0.0 21:4.52971E-5 
-0.1113847187258473 -0.07913980504142061 -0.0 -0.0 -0.10225701806765862 -0.0 -6.610088064742705E-4 -0.0 -0.0 -0.0 -0.0 -0.0 -0.052671444508617986 -1.0 -0.0 -1.0 0.20541377114906983 1.0 0.0 0.0 0.0 0.0 0.1371327100230089 0.0 1.0 0.8620582708075286 0.0 0.0 0.0 1.0 0.0 0.0 0.0 0.0 0.0 0.0 0.0 0.0 0.0 0.0 0.0 0.0 0.0012812975776917124 0.0 0.0 1:5.3354E-5 2:7.54268E-5 3:5.28956E-4 4:5.3969E-4 5:1.0 6:0.004982673 7:1.82564E-5 8:0.8855473 9:0.88551533 10:0.8871838 11:0.887223 12:0.0 13:0.88544154 14:0.86422545 15:0.050035104 16:0.23750979 17:0.099365205 18:0.09779538 19:1.0 20:0.48367608 21:0.0 
-0.0 -1.0 -0.0 -0.0 -0.0 -0.0 -1.0 -0.0 -0.0 -0.9734371907157525 -0.0 -0.0 -1.0 -1.0 -0.0 -1.0 0.0 0.0 0.0 0.0 0.0 1.0 0.0 1.0 0.0 0.13794172919247147 0.9853919775308273 0.0 0.9776674345997977 0.29024285379106807 0.0 0.0 0.0 0.0 0.0 0.0 0.0 0.0 0.0 0.0 0.0 0.0 0.0 0.0 0.0 1:1.0 2:0.10430159 3:0.02944433 4:0.12177322 5:0.002254365 6:0.02190746 7:0.0 8:1.0 9:0.039494857 10:0.00119418 11:0.0909685 12:2.37003E-4 13:0.010069153 14:0.0 15:1.0 16:0.007255419 17:7.27766E-4 18:1.91678E-5 19:2.51323E-10 20:6.53079E-7 21:0.0 
-1.0 -0.0 -0.0 -0.9022428703411708 -0.07311996311357997 -1.0 -0.0 -0.0 -0.0 -0.0 -1.0 -0.0 -0.0 -0.0 -0.0 -0.0 1.0 1.0 1.0 0.6817331541585889 0.0 0.0 1.0 0.0 0.0 0.0 0.0 0.0 0.0 1.0 0.9749028636481308 1.0 0.0 0.0 0.42633859376928634 0.0 0.898822672034588 0.0 0.0 0.0 0.0 0.0 0.0 0.0 0.0 1:3.86995E-5 2:6.52385E-5 3:5.95518E-4 4:6.07004E-4 5:1.0 6:0.005491949 7:1.50815E-5 8:0.92319787 9:0.9231537 10:0.92515624 11:0.9252472 12:0.0 13:0.92317444 14:0.91987467 15:0.21400349 16:1.0 17:0.13191837 18:0.13876788 19:0.42704907 20:0.6607557 21:0.0 
-0.2589211648088194 -1.0 -1.0 -0.09775712965882925 -0.8246230188187614 -0.5882704300197519 -1.0 -1.0 -0.6553158074382025 -1.0 -0.5625144659947262 -1.0 -1.0 -1.0 -1.0 -1.0 0.672519519806098 0.932025177229705 0.3058095797198443 0.3182668458414111 0.22764109730839255 1.0 1.0 1.0 1.0 0.0 1.0 1.0 1.0 0.0 0.02509713635186916 1.0 1.0 1.0 0.8576436810020159 0.9796870479984776 0.10117732796541201 1.0 1.0 1.0 0.023589018091271927 0.32253246759029786 0.0 1.0 0.3122048123365081 1:1.0 2:0.14434241 3:0.058091376 4:0.17034186 5:0.005988023 6:0.03851088 7:0.0 8:1.0 9:0.031737816 10:0.002321268 11:0.10936045 12:2.81124E-4 13:0.01192123 14:4.7339E-4 15:1.0 16:0.01935713 17:0.003309465 18:1.48536E-4 19:8.30454E-6 20:0.0 21:8.32745E-6 
-1.0 -0.0 -0.0 -0.0 -0.0 -0.0 -0.0 -0.0 -0.0 -0.0 -0.2938505057273521 -0.0 -0.0 -0.0 -0.0 -0.0049284578292720154 0.0 0.06797482277029496 0.5343382151048005 0.0 0.0 0.0 0.5838447147816731 0.0 0.8062563708670331 0.0 0.0 0.0 0.0 1.0 0.0 0.6451200193905192 0.0 0.0 0.0 0.0 0.0 0.0 0.0 0.0 0.0 0.0 0.0 0.0 0.0 1:9.20799E-5 2:1.09303E-4 3:4.88214E-4 4:4.97521E-4 5:1.0 6:0.004448835 7:5.56978E-5 8:0.9056848 9:0.9056605 10:0.90705603 11:0.90711945 12:0.0 13:0.90566975 14:0.8958081 15:0.09071889 16:0.447637 17:0.13612789 18:0.12824084 19:1.0 20:0.65688676 21:0.0 
-0.5660916731527091 -0.7959105256084256 -1.0 -0.06476155858345746 -1.0 -1.0 -1.0 -1.0 -1.0 -0.8198388181476376 -1.0 -0.7356200542543191 -0.8022391459272012 -1.0 -0.7245455467791703 -0.8471870290052771 -0.8779332909551679 1.0 0.6473631848291174 0.4307990349123441 0.40034438443875897 1.0 1.0 1.0 0.8835972028360618 0.26419931717306416 0.8131744924740336 1.0 0.82182672494968 0.3633674197794135 0.0 1.0 1.0 1.0 1.0 0.9504312631177582 0.06191900097400281 1.0 0.7431330086395797 0.8962554810732416 0.08602870389800045 0.5723620590427577 0.7518445670199481 0.7942626360223257 0.5507523511358123 1:0.42169368 2:0.3231207 3:0.55839604 4:0.70000887 5:1.0 6:0.60081303 7:0.0 8:1.0 9:0.1693981 10:0.3975235 11:0.61483026 12:0.0 13:0.19040717 14:0.17108542 15:1.0 16:0.3213785 17:0.026080387 18:0.003006466 19:2.80256E-4 20:0.0 21:2.89418E-4 
-1.0 -0.0 -0.0 -1.0 -1.0 -1.0 -0.0 -0.0 -0.0 -0.0 -1.0 -0.0 -0.0 -0.0 -0.0 -0.0 -1.0 1.0 1.0 1.0 0.599655615561241 0.0 1.0 0.0 0.0 0.0 0.0 0.0 0.0 1.0 1.0 1.0 0.8822752643334537 0.32432549374226394 1.0 0.0 1.0 0.0 0.0 0.0 0.9139712961019995 0.4276379409572423 0.0 0.0 0.4492476488641877 1:0.001341379 2:0.002024639 3:0.008427994 4:0.008810435 5:1.0 6:0.03180126 7:0.001036446 8:0.96414614 9:0.9607641 10:0.9859769 11:0.9900658 12:0.0 13:0.9622042 14:0.9664602 15:0.53475034 16:1.0 17:0.007153559 18:0.005156477 19:1.07807E-4 20:0.009596781 21:0.0 
-1.0 -0.0 -0.1810483611835417 -0.9352384414165426 -0.096027485700068 -1.0 -0.0 -0.0 -0.08165244090270488 -0.0 -1.0 -0.0 -0.0 -0.6365132046001588 -0.0 -0.8731483127925382 -1.0 1.0 1.0 0.5692009650876558 0.0 -0.0 1.0 0.0 0.6334304748205435 0.6347404880095338 0.0 -0.0 0.0 1.0 1.0 1.0 0.0 0.11987654574950705 0.805830849900031 0.0 0.9380809990259973 0.0 0.0 0.0 0.0 0.0 0.0 0.0 0.0 1:7.89919E-4 2:0.00106628 3:0.004225695 4:0.004400698 5:1.0 6:0.019501442 7:6.27796E-4 8:0.94108003 9:0.94011724 10:0.9518644 11:0.9538475 12:0.0 13:0.94118255 14:0.9415823 15:0.41746268 16:1.0 17:0.042867165 18:0.039864313 19:0.010202541 20:0.10033369 21:0.0 
-1.0 -0.0 -0.1917239606690428 -1.0 -1.0 -1.0 -0.0 -0.0 -0.11066891214270926 -0.0 -1.0 -0.0 -0.0 -0.13812719001909077 -0.0 -0.0 -1.0 -1.0 1.0 1.0 0.623210563276344 0.042794765225725354 1.0 0.0 0.0 0.0 0.0 0.02285037335474358 0.0 1.0 1.0 1.0 0.667769788139924 0.37812230459853585 1.0 0.0 1.0 0.0 0.0 0.0 0.8853929419137937 0.5096380420846287 0.0 0.0 0.5138335260701702 1:1.74073E-5 2:3.55353E-5 3:4.35875E-4 4:4.44416E-4 5:1.0 6:0.004515032 7:0.0 8:0.9600369 9:0.96000814 10:0.96157074 11:0.96164143 12:0.0 13:0.96002275 14:0.9725299 15:0.19396023 16:1.0 17:0.011825327 18:0.019460084 19:0.008039493 20:0.10286298 21:0.0 
-1.0 -0.0 -0.0 -0.8530137143862118 -0.0 -0.8541186689385158 -0.0 -0.0 -0.0 -0.0 -1.0 -0.0 -0.0 -0.0 -0.0 -0.1947720970289986 -1.0 -1.0 1.0 0.5786341401755092 0.0 0.0 1.0 0.0 0.7889346925434279 0.0 0.0 0.0 0.0 1.0 0.9578215654411082 1.0 0.0 0.0 0.22672590281879848 0.0 0.8537264389770548 0.0 0.0 0.0 0.0 0.0 0.0 0.0 0.0 1:8.20574E-5 2:8.54576E-5 3:1.98709E-4 4:2.00164E-4 5:1.0 6:0.001991143 7:7.36212E-5 8:0.9631463 9:0.9631429 10:0.9635868 11:0.9635956 12:0.0 13:0.96313244 14:0.9705663 15:0.12258022 16:1.0 17:0.016679458 18:0.028462324 19:0.048298623 20:0.2504148 21:0.0 
-0.3263616261089591 -1.0 -1.0 -0.14698628561378818 -1.0 -1.0 -1.0 -1.0 -1.0 -1.0 -1.0 -1.0 -1.0 -1.0 -1.0 -1.0 -1.0 -0.9148436017235004 0.3788602208509717 0.4213658598244908 0.3251206992745688 1.0 1.0 1.0 1.0 0.06591029925553762 1.0 1.0 1.0 0.30164585804081456 0.042178434558891836 1.0 1.0 1.0 1.0 0.9366183470623057 0.1462735610229452 1.0 1.0 1.0 0.11460705808620625 0.45766242688565906 0.8751362141631449 1.0 0.4372401396760982 1:0.88859856 2:0.5466124 3:0.7171317 4:0.8214324 5:0.5751475 6:0.5444237 7:0.0 8:1.0 9:0.049084973 10:0.32471046 11:0.31143063 12:0.0 13:0.0342992 14:0.049944706 15:1.0 16:0.31247917 17:0.071802035 18:0.04853893 19:0.001136802 20:0.017097274 21:0.0 
-0.6861384683690126 -0.15374563033941033 -0.23230567624391849 -0.0 -0.23236826963998444 -0.2086436500596413 -0.2505922682908509 -0.2099610826890102 -0.15616498610231455 -0.1683505268269655 -0.3126261459469892 -0.14886293888158336 -0.15924379166591626 -1.0 -0.141352731349111 -1.0 -1.0 -0.08515639827649951 0.4475893383040661 0.0 0.05166873744908703 0.17891076436217596 1.0 0.19951046275146805 1.0 0.9340897007444624 0.14910314700472274 0.2161908225537037 0.16405362171990198 1.0 0.0 0.7893384485262891 0.3085726606124988 0.29097037484171917 0.24204433401357356 0.0633816529376943 0.0 0.20201806870055944 0.14385459669106015 0.1816976166706486 0.0 0.03269953102971238 0.1248637858368552 0.15913837483719034 0.0489263342537316 1:5.81084E-5 2:6.58112E-5 3:2.63781E-4 4:2.6589E-4 5:1.0 6:0.002879667 7:2.77849E-5 8:0.83156216 9:0.83155507 10:0.83230555 11:0.8322377 12:0.0 13:0.8313067 14:0.76083034 15:0.001485585 16:0.011640094 17:0.015551809 18:0.015347297 19:1.0 20:0.10833585 21:0.0 
-0.0 -0.2998595787081706 -0.41960818188161914 -0.0 -1.0 -1.0 -0.3308993432390243 -0.31001921069074023 -0.3446494628345081 -0.3007750707045273 -1.0 -0.29716920568638683 -0.300091798939655 -0.0 -0.2964925897925959 -0.0 -0.0 -0.0 -0.0 1.0 1.0 0.31481488752564185 0.0 0.30694787707757387 0.0 0.0 0.30146159101536635 0.31428196344074966 0.30093448308050913 0.0 0.0 0.0 1.0 0.9428326075519546 1.0 0.30600784317627916 0.0 0.3091315742225367 0.29743407949724743 0.3043648775578609 0.49495023633302276 1.0 0.3020239393805663 0.30246537567065424 1.0 1:0.002350665 2:0.006164592 3:0.03056722 4:0.033225067 5:1.0 6:0.08180163 7:0.0 8:0.8836718 9:0.8515052 10:0.94465405 11:0.9616484 12:0.0 13:0.85311997 14:0.8130296 15:0.88946605 16:1.0 17:0.13914055 18:0.114813276 19:0.021708675 20:0.1391782 21:0.0 
-1.0 -0.0 -0.0 -0.0 -0.0 -1.0 -0.0 -0.0 -0.0 -0.0 -1.0 -0.0 -0.0 -0.0108327073386294 -0.0 -0.664539501192762 -1.0 -0.0 -0.7866858281826403 0.0 0.0 0.0 0.49989917225738184 0.0 0.11029888832423455 0.0 0.0 0.0 0.0 0.7865079135193885 0.0 1.0 0.0 0.0 0.0 0.0 0.0 0.0 0.0 0.0 0.0 0.0 0.0 0.0 0.0 1:7.44694E-4 2:0.002641033 3:0.01650486 4:0.017711371 5:1.0 6:0.053886373 7:0.0 8:0.8907258 9:0.87881315 10:0.9310676 11:0.9399956 12:0.0 13:0.8804677 14:0.8438194 15:0.7143941 16:1.0 17:0.15022773 18:0.12229252 19:0.03718902 20:0.18240322 21:0.0 
-1.0 -0.0 -0.0 -0.4115556725515866 -0.0 -1.0 -0.0 -0.0 -0.0 -0.0 -0.6776854777658169 -0.0 -0.0 -0.0 -0.0 -0.0 -0.8401477948246446 -1.0 -1.0 0.0 0.0 0.0 1.0 0.0 0.0 0.0 0.0 0.0 0.0 1.0 0.0 1.0 0.0 0.0 0.0 0.0 0.0 0.0 0.0 0.0 0.0 0.0 0.0 0.0 0.0 1:6.69774E-4 2:0.002276805 3:0.014600685 4:0.01543207 5:1.0 6:0.04904398 7:8.93018E-5 8:0.9077765 9:0.8978837 10:0.94654423 11:0.95216864 12:0.0 13:0.8982633 14:0.8644242 15:0.6677851 16:1.0 17:0.09546311 18:0.081352904 19:0.018149633 20:0.12770578 21:0.0 
-0.0 -0.0 -0.0 -0.0 -0.0 -0.37357263236066035 -0.0 -0.0 -0.0 -0.0 -0.0 -0.0 -0.0 -0.0 -0.0 -0.0 -0.0 -0.0 -0.0 0.07333556764727578 0.0 0.0 0.0 0.0 0.0 0.0 0.0 0.0 0.0 0.0 0.0 0.0 0.0 0.0 0.0 0.0 0.43199908646471635 0.0 0.0 0.0 0.5050497636669773 0.0 0.0 0.0 0.0 1:8.45602E-4 2:0.002786782 3:0.017326856 4:0.01836117 5:1.0 6:0.05496733 7:4.10823E-5 8:0.9410113 9:0.92716557 10:0.98546267 11:0.99456674 12:0.0 13:0.9289168 14:0.90050864 15:0.71752393 16:1.0 17:0.031279616 18:0.026097922 19:0.001678187 20:0.038332086 21:0.0 
-0.0 -0.0 -0.0 -0.5884443274484134 -0.0 -0.0 -0.0 -0.0 -0.0 -0.0 -0.0 -0.0 -0.0 -0.0 -0.0 -0.0 -0.0 -0.0 -0.039763730972397514 0.0 0.0 0.0 0.9312050948383053 0.0 0.0 0.0 0.0 0.0 0.0 1.0 1.0 0.0 0.0 0.0 0.0 0.0 1.0 0.0 0.0 0.0 0.0 0.0 0.0 0.0 0.0 1:6.66682E-4 2:0.002226954 3:0.014450994 4:0.015274776 5:1.0 6:0.048559453 7:1.26988E-4 8:0.9479808 9:0.9377002 10:0.9866626 11:0.9942929 12:0.0 13:0.93942446 14:0.91049594 15:0.673003 16:1.0 17:0.026875485 18:0.022375094 19:0.001398477 20:0.03494121 21:0.0 
-1.0 -0.0 -0.0 -1.0 -0.0 -0.0 -0.0 -0.0 -0.0 -0.0 -0.0 -0.0 -0.0 -0.9373527532986909 -0.0 -0.56091883114021 -1.0 -0.6588126616965689 -1.0 0.0 0.0 0.0 1.0 0.0 0.8222061479242035 0.7526446096733002 0.0 0.0 0.0 1.0 1.0 0.9539807927858618 0.0 0.0 0.0 0.0 0.5680009135352837 0.0 0.0 0.0 0.0 0.0 0.0 0.0 0.0 1:2.40134E-4 2:8.15659E-4 3:0.006367329 4:0.006685847 5:1.0 6:0.027895998 7:1.63894E-4 8:0.9397084 9:0.9371632 10:0.95858544 11:0.96162856 12:0.0 13:0.93822354 14:0.911522 15:0.50496703 16:1.0 17:0.07065551 18:0.053837474 19:0.014562319 20:0.110756345 21:0.0 
-1.0 -0.0 -0.0 -0.0 -0.3814526817174033 -1.0 -0.0 -0.0 -0.0 -0.0 -1.0 -0.0 -0.0 -0.0 -0.0 -0.0 -0.0 -0.9885505231325484 -0.0 0.9266644323527242 0.0 0.0 0.0 0.0 0.0 0.0 0.0 0.0 0.0 0.0 0.0 0.1442563746287298 0.0 0.0 1.0 0.0 0.0 0.0 0.0 0.0 0.0 0.0 0.0 0.0 0.0 1:0.002097421 2:0.00562781 3:0.02859945 4:0.030706245 5:1.0 6:0.07766746 7:0.0 8:0.8841693 9:0.8553115 10:0.94548625 11:0.95764583 12:0.0 13:0.8554035 14:0.8146336 15:0.85094404 16:1.0 17:0.12549348 18:0.109245464 19:0.020541245 20:0.13675219 21:0.0 
-1.0 -0.3533620649718639 -0.5510101348934817 -1.0 -1.0 -1.0 -0.4067996545740299 -0.3716865393273754 -0.43603604939973 -0.3548113272608414 -1.0 -0.3487513007336381 -0.35358607791286606 -0.9878568694702218 -0.3476898837891221 -1.0 -1.0 -1.0 -1.0 -1.0 1.0 0.3806130943239985 1.0 0.366258622049887 0.9516519920067834 0.6978550082345797 0.3557085708866516 0.3823307098198526 0.35514898573087156 1.0 1.0 1.0 1.0 1.0 1.0 0.3636247776142943 1.0 0.3702920536345897 0.34931069798984765 0.3610395307267385 0.0 1.0 0.3554883852501643 0.35704107949695957 1.0 1:0.018726299 2:0.029897291 3:0.09931403 4:0.10684216 5:1.0 6:0.1764426 7:0.0 8:0.9032182 9:0.7085032 10:0.96856195 11:1.0 12:0.0 13:0.7035658 14:0.7021568 15:1.0 16:0.7755188 17:0.016881699 18:0.00308405 19:0.00108073 20:0.0 21:0.001074556 
-1.0 -0.0 -0.0 -1.0 -0.7294194376923273 -1.0 -0.0 -0.0 -0.0 -0.0 -1.0 -0.0 -0.0 -0.0 -0.0 -0.03616634399510245 -1.0 -1.0 -1.0 -1.0 0.0 0.0 1.0 0.0 0.0 0.0 0.0 0.0 0.0 1.0 1.0 1.0 0.15865458130724058 0.0 1.0 0.0 1.0 0.0 0.0 0.0 1.0 0.0 0.0 0.0 0.0 1:0.005175892 2:0.010807045 3:0.046508025 4:0.049390648 5:1.0 6:0.10573939 7:0.0 8:0.9035068 9:0.83855057 10:0.9825368 11:1.0 12:0.0 13:0.83738995 14:0.83679396 15:0.9892164 16:1.0 17:0.023292745 18:0.004653869 19:0.002388267 20:0.0 21:0.002407307 
-1.0 -0.42303693772319145 -0.7105097533566229 -1.0 -1.0 -1.0 -0.5074016858657934 -0.45131249087098024 -0.5443057292097416 -0.42464476161635334 -1.0 -0.4165506398021181 -0.42293711962764946 -1.0 -0.4150580937502513 -1.0 -1.0 -1.0 -1.0 -1.0 -1.0 0.4604720337482534 1.0 0.4420182806945858 1.0 0.7872565684936716 0.42644283750754636 0.465778465552613 0.4253891914559419 1.0 1.0 1.0 1.0 1.0 1.0 0.4367387588253872 1.0 0.44597558231385226 0.417444143271397 0.43421576207283247 1.0 1.0 0.42654430468245297 0.4292520799627748 1.0 1:0.034657273 2:0.04567361 3:0.13124897 4:0.15900445 5:1.0 6:0.22670187 7:0.0 8:0.8923309 9:0.6147813 10:0.82597876 11:1.0 12:0.0 13:0.64821225 14:0.55140007 15:1.0 16:0.5550495 17:0.025608756 18:0.009778226 19:1.22772E-4 20:0.006502676 21:0.0 
-0.0 -1.0 -1.0 -0.0 -0.0 -0.17635184467200432 -1.0 -1.0 -0.0 -1.0 -0.0 -1.0 -1.0 -1.0 -1.0 -1.0 -1.0 -0.0 -0.0 -0.0 -0.0 -0.1675599497782527 0.23361731064855495 1.0 0.28653540239088937 0.018889892254515345 1.0 0.0 1.0 0.0 0.0 0.6478148707575554 0.7499979058027504 1.0 0.0 0.0 0.0 0.21135548798620704 1.0 1.0 0.0 0.0 0.0 1.0 0.06921561432299506 1:1.0 2:0.32619253 3:0.27199346 4:0.4252533 5:0.07334431 6:0.17259811 7:0.0 8:1.0 9:0.018870853 10:0.058288675 11:0.18263467 12:0.0 13:0.018570201 14:0.00109719 15:1.0 16:0.11626413 17:0.008995449 18:0.002452938 19:3.05631E-6 20:4.22177E-4 21:0.0 
-0.10221159341799749 -1.0 -0.16607850918092704 -0.11434785149864835 -0.0 -0.0 -1.0 -0.46921799025908884 -0.0 -1.0 -0.0 -1.0 -1.0 -1.0 -1.0 -1.0 -1.0 -0.0 -0.0 -0.10524390114014484 -0.09338226080326688 -0.0 0.3090465715995969 1.0 1.0 0.23288983182006537 1.0 0.0 1.0 0.14717406702307975 0.09756824686422688 0.0 0.0 0.0 0.0 0.7783177713555133 0.09668841871559591 1.0 1.0 1.0 0.0960404886072591 0.02081370251661559 1.0 1.0 0.0 1:1.0 2:0.25832492 3:0.16787268 4:0.26663205 5:0.023053482 6:0.08616153 7:0.0 8:1.0 9:0.007304213 10:0.030261818 11:0.11018484 12:0.0 13:0.00716533 14:0.002319806 15:1.0 16:0.08795006 17:0.005581493 18:9.95415E-4 19:7.3002E-7 20:8.06796E-5 21:0.0 
-0.0 -1.0 -1.0 -0.0 -0.18291081981240356 -0.0 -1.0 -0.5307820097409112 -0.9056896682304401 -1.0 -0.0 -0.0 -1.0 -1.0 -0.0 -1.0 -1.0 -0.0 -0.2217055295879013 -0.0 -0.0 -0.0 0.0 1.0 0.0 0.0 1.0 1.0 1.0 0.0 0.0 0.0 0.5347507468056287 1.0 0.5946665753052585 0.0 0.0 0.0 0.0 0.0 0.0 0.0 0.0 0.0 0.0 1:1.0 2:0.4306991 3:0.43077022 4:0.5710295 5:0.16227359 6:0.28345373 7:0.0 8:1.0 9:0.015029835 10:0.111904055 11:0.20066565 12:0.0 13:0.017727606 14:0.014383417 15:1.0 16:0.1820483 17:0.005535041 18:4.29962E-4 19:2.51888E-7 20:8.46418E-5 21:0.0 
-0.20285698139910505 -1.0 -1.0 -0.17265826654663688 -1.0 -0.3808770138126672 -1.0 -0.0 -1.0 -0.0 -0.7072134428457638 -0.0 -1.0 -1.0 -0.0 -1.0 -0.17409161284399327 -1.0 -1.0 -0.209570986385497 -0.2872308335207316 -0.29291208397000074 0.7220199608350512 1.0 0.0 0.06632729833304893 0.0 1.0 0.0 0.13939671980424442 0.16732428291124735 0.8544829915264215 1.0 1.0 1.0 0.22168222864448672 0.18878125371469226 0.7886445120137929 0.0 0.0 0.1999706263538615 0.5931769205124263 0.0 0.0 0.5205578639207428 1:1.0 2:0.52687794 3:0.59744805 4:0.68828076 5:0.2701606 6:0.39016017 7:0.0 8:1.0 9:0.021812866 10:0.1912371 11:0.20475547 12:0.0 13:0.014806942 14:0.020560173 15:1.0 16:0.26089585 17:0.002396754 18:9.82418E-4 19:3.47405E-7 20:2.30709E-4 21:0.0 
-0.40700275404863273 -1.0 -1.0 -0.1141792794445162 -1.0 -0.8555261109603703 -1.0 -1.0 -1.0 -1.0 -0.9128483757246056 -1.0 -1.0 -1.0 -1.0 -1.0 -1.0 -0.7888412403701057 -1.0 -0.4311042670956871 -0.3594909184038226 -0.306941916578222 -1.0 1.0 1.0 0.23230436255548687 1.0 1.0 1.0 0.29840856002874544 0.028274780500208305 1.0 1.0 1.0 1.0 0.9984871549103154 0.11556991648514729 1.0 1.0 1.0 0.10253230178058435 0.415464482644599 0.980255355631184 1.0 0.402996987920956 1:1.0 2:0.4218274 3:0.4196107 4:0.5729976 5:0.16562222 6:0.28294694 7:0.0 8:1.0 9:0.01627704 10:0.10642168 11:0.21033432 12:0.0 13:0.020129513 14:0.015647162 15:1.0 16:0.17145297 17:0.010486521 18:0.004029969 19:1.11012E-5 20:9.41504E-4 21:0.0 
-1.0 -0.0 -0.0669289651019792 -1.0 -1.0 -1.0 -0.0 -0.0 -0.15110051241927283 -0.0 -0.5024716224963851 -0.0 -0.0 -0.015180975086866182 -0.0 -0.12829107944306042 -0.7726777146930391 -1.0 -1.0 -1.0 -1.0 -0.6626647853677522 -0.0 0.0 0.0 0.0 0.0 0.007234944632673987 0.0 1.0 1.0 1.0 0.44564259033682274 0.3726714588991437 1.0 0.0 1.0 0.0 0.0 0.0 0.8974676982194156 0.4887109592939986 0.0 0.0 0.5679880410122382 1:1.24585E-5 2:5.89668E-5 3:8.77904E-4 4:8.9626E-4 5:1.0 6:0.007325885 7:0.0 8:0.98421794 9:0.9841184 10:0.9874301 11:0.98759377 12:0.0 13:0.9841663 14:0.9881974 15:0.24879634 16:1.0 17:8.55528E-4 18:6.07486E-4 19:0.0 20:0.002425703 21:9.93751E-6 
-1.0 -0.2149167230673894 -0.2830785044990518 -0.4778940644007725 -0.15849948881965728 -0.6546619432057329 -0.28787994781158005 -0.2518313908456258 -0.061207719863497254 -0.2249447908315958 -1.0 -0.2083329189492651 -0.21898521701290283 -1.0 -0.2032453070557428 -1.0 -1.0 -0.27646745849880217 -1.0 -1.0 -0.0 -0.03039329805402586 -0.2646838430832029 0.24601858214749753 1.0 0.7676956374445132 0.21409602578811043 0.2521948432229095 0.22235238283180478 1.0 0.0 1.0 0.368108644752955 0.2842276593168517 0.26862938637493355 0.0015128450896847523 0.14689162208615847 0.251784599449612 0.20581189529001445 0.23484150384267694 0.0 0.09582455806140237 0.01974464436881599 0.21794064636028418 0.029014971066805756 1:9.97344E-6 2:5.11579E-5 3:7.90236E-4 4:8.15523E-4 5:1.0 6:0.006880804 7:2.30725E-5 8:0.9425451 9:0.9424656 10:0.9452335 11:0.94549674 12:0.0 13:0.94265836 14:0.9257371 15:0.2474592 16:1.0 17:0.107836016 18:0.09539594 19:0.16458552 20:0.38510135 21:0.0 
-1.0 -0.0 -0.0 -0.40792665615471146 -0.0 -0.8215911448741604 -0.0 -0.0 -0.0 -0.0 -1.0 -0.0 -0.0 -0.0 -0.0 -0.0 -1.0 -0.9346913011310922 -1.0 -1.0 -0.6405090815961774 -0.0 -0.0 0.0 0.0 0.0 0.0 0.0 0.0 1.0 0.9717252194997918 0.8604503843342153 0.0 0.0 0.1937644249377812 0.0 0.7375384614286942 0.0 0.0 0.0 0.0 0.0 0.0 0.0 0.0 1:9.29507E-5 2:1.33745E-4 3:8.73651E-4 4:8.93512E-4 5:1.0 6:0.006934081 7:6.70445E-5 8:0.99153656 9:0.9914522 10:0.99442714 11:0.9946207 12:0.0 13:0.9915469 14:0.98599976 15:0.24236083 16:1.0 17:0.014596379 18:0.004669173 19:8.21286E-4 20:0.01595342 21:0.0 
-0.0 -1.0 -0.0 -0.0 -0.0 -0.0 -1.0 -0.0 -0.0 -1.0 -0.0 -1.0 -1.0 -1.0 -1.0 -1.0 -1.0 -0.0 -0.0 -0.0 -0.0 -0.0 -1.0 -0.0 1.0 0.0 1.0 0.0 1.0 0.0 0.0 0.0 0.0 0.0 0.0 0.23243711628506913 0.0 0.0 1.0 1.0 0.0 0.0 1.0 1.0 0.0 1:1.0 2:0.2603095 3:0.17834406 4:0.3230471 5:0.03500969 6:0.11141747 7:0.0 8:1.0 9:0.014444275 10:0.026422298 11:0.15011573 12:0.0 13:0.013882689 14:0.003546474 15:1.0 16:0.075369395 17:0.007807977 18:2.57197E-5 19:1.67658E-8 20:0.0 21:2.04136E-8 
-0.0 -1.0 -0.6791589162536132 -0.0 -0.0 -0.0 -1.0 -0.0 -0.0 -1.0 -0.0 -1.0 -1.0 -1.0 -1.0 -1.0 -1.0 -0.0 -0.0 -0.0 -0.0 -0.0 -1.0 -0.0 0.29148177059391617 0.31962694291754434 1.0 0.0 1.0 0.2645917034414382 0.0 0.0 0.0 0.15878642081723068 0.0 0.0 0.0 0.0 1.0 0.8270961317887524 0.0 0.0 0.0 1.0 0.0 1:1.0 2:0.26688555 3:0.19464816 4:0.35615957 5:0.04332305 6:0.12766577 7:0.0 8:1.0 9:0.016001943 10:0.032845665 11:0.1691149 12:0.0 13:0.016642103 14:0.004333116 15:1.0 16:0.075529836 17:0.017509563 18:6.62019E-4 19:8.19738E-5 20:0.0 21:8.18491E-5 
-0.0 -1.0 -1.0 -0.0 -0.0 -0.0 -1.0 -1.0 -0.10676620958762542 -1.0 -0.0 -0.0 -1.0 -1.0 -0.0 -1.0 -1.0 -0.0 -0.19951046275146805 -0.0 -0.0 -0.0 -1.0 -0.24601858214749756 0.0 0.0 1.0 1.0 1.0 0.0 0.0 0.4328656050586727 1.0 1.0 0.34503347536396206 0.0 0.0 1.0 0.0 0.0 0.0 0.0 0.0 0.0 0.0 1:1.0 2:0.32100147 3:0.25646544 4:0.40282556 5:0.06413268 6:0.1608212 7:0.0 8:1.0 9:0.012006656 10:0.048654523 11:0.16616718 12:0.0 13:0.014860003 14:0.006428458 15:1.0 16:0.110860586 17:0.006174525 18:1.28387E-4 19:1.59974E-5 20:0.0 21:1.60332E-5 
-0.29777225031282295 -1.0 -1.0 -0.2815864345278666 -1.0 -0.5271369114821147 -1.0 -1.0 -1.0 -0.0 -0.5991821137006581 -0.0 -1.0 -1.0 -0.0 -1.0 -0.2725207926926287 -1.0 -1.0 -0.30694787707757387 -0.366258622049887 -0.4420182806945858 -1.0 -1.0 0.0 0.0 0.0 1.0 0.0 0.019235884794074426 0.2599515656599868 1.0 1.0 1.0 1.0 0.7675628837149309 0.27917617789493054 1.0 0.0 0.1729038682112476 0.2890081351991016 0.5543425264269741 0.0 0.0 0.5406353030506169 1:1.0 2:0.33583197 3:0.2758861 4:0.41472968 5:0.070009224 6:0.16988368 7:0.0 8:1.0 9:0.010957443 10:0.056018528 11:0.16435528 12:0.0 13:0.014010507 14:0.006901443 15:1.0 16:0.12186883 17:0.005927586 18:1.72198E-4 19:1.01052E-5 20:0.0 21:1.01547E-5 
-0.12620492433634428 -1.0 -1.0 -0.14427106388126826 -0.6845166545584462 -0.5353286709238291 -1.0 -1.0 -0.777408039357332 -1.0 -0.49310834732115016 -1.0 -1.0 -1.0 -1.0 -1.0 -1.0 -0.6716747384902956 -0.9268021957893166 -0.13819162684737565 -0.27912124415185624 -0.34496520410097525 -1.0 -1.0 -1.0 0.054313025337019726 1.0 1.0 1.0 0.13855246683164024 0.08422550136859533 1.0 1.0 1.0 0.9989579129939411 0.998503484033256 0.12876798898583133 1.0 1.0 1.0 0.16007499672588862 0.4343716990113454 0.9874812354764233 1.0 0.42072954830653175 1:1.0 2:0.2401523 3:0.1471252 4:0.24259502 5:0.017885555 6:0.07404442 7:0.0 8:1.0 9:0.007939256 10:0.02456312 11:0.103636034 12:0.0 13:0.006799495 14:0.001813156 15:1.0 16:0.07797533 17:0.005418823 18:7.08438E-4 19:4.13185E-7 20:2.74835E-5 21:0.0 
-1.0 -0.0 -0.0 -0.8251971531290679 -0.6446212954586704 -0.7897997477908411 -0.0 -0.0 -0.010957623593645811 -0.0 -0.8842618105512482 -0.0 -0.0 -0.3072640951496153 -0.0 -0.34587290724278263 -1.0 -0.8453529391663099 -1.0 -0.7943134094010624 -0.6725307478549271 -0.6550347958990247 -0.0 -1.0 -0.0 0.0 0.0 0.0 0.0 1.0 0.8148273141743613 1.0 0.0 0.0 0.5864326680536621 0.0 0.7721714743857507 0.0 0.0 0.0 0.5882957024220529 0.5656283009886545 0.0 0.0 0.5792704516934684 1:6.62651E-5 2:1.04477E-4 3:7.49836E-4 4:7.70709E-4 5:1.0 6:0.006458393 7:2.17396E-5 8:0.8151245 9:0.81507325 10:0.81741714 11:0.8173513 12:0.0 13:0.814677 14:0.7217212 15:0.005857974 16:0.029726107 17:0.037465435 18:0.03692529 19:1.0 20:0.17373039 21:0.0 
-0.035004799282409474 -0.2888728835362021 -0.24814181194533924 -0.0 -0.0 -0.0 -0.3121507754771568 -0.2844348438186012 -0.13597759275274382 -0.2856793632772114 -0.0 -0.2881469493253032 -0.28667725633955615 -1.0 -0.28816347501876033 -1.0 -1.0 -0.0 -0.8621324967541113 -0.0 -0.0 -0.0 -0.28653540239088937 -0.0 -0.29148177059391617 0.9456869746629802 0.2935383582711926 0.2347003320959932 0.28866013012935593 1.0 0.0 0.024129459834600676 0.5887635321166469 0.44290814782864624 0.0 0.0014965159667441053 0.0 0.2648815677706531 0.2884742019108758 0.2878403627383787 0.0 0.0 0.012518764523576698 0.2991283784902945 0.0 1:4.45502E-5 2:1.02202E-4 3:9.70316E-4 4:9.94694E-4 5:1.0 6:0.007888402 7:2.27379E-5 8:0.80154 9:0.8014573 10:0.80471927 11:0.8044976 12:0.0 13:0.8007884 14:0.67944914 15:0.00717918 16:0.031681657 17:0.042395163 18:0.04174599 19:1.0 20:0.1785243 21:0.0 
-0.9276483062732519 -0.3192469333846946 -0.368044809430454 -0.7809886027874514 -0.6821324429987052 -0.7956824527415001 -0.3346505274958496 -0.318999657941587 -0.31264823930227037 -0.31660214057101493 -0.8886023979214294 -0.3182738089788888 -0.3177296987249049 -1.0 -0.31950511221609307 -1.0 -1.0 -0.898939805182598 -1.0 -0.7526446096733002 -0.6978550082345797 -0.7872565684936716 -0.31810702240762967 -1.0 -0.31962694291754434 -1.0 0.32169608879158684 0.3092089893901582 0.3179213881623691 1.0 0.7392051177949864 1.0 0.6128814782365137 0.6077783199065738 0.7350340857415679 0.31447527384290397 0.7292218379842512 0.3123260952147623 0.31926396935368667 0.31755478632270656 0.5977765390334651 0.6987027240366626 0.3240815230371057 0.3224333637477098 0.7225194919358302 1:4.12408E-4 2:4.92843E-4 3:0.001461884 4:0.001503023 5:1.0 6:0.009294309 7:1.13869E-4 8:0.71654224 9:0.7164696 10:0.7200185 11:0.71936834 12:0.08450535 13:0.7152952 14:0.5 15:0.001617005 16:0.006429527 17:0.018982867 18:0.018240424 19:1.0 20:0.078660004 21:0.0 
-0.0 -1.0 -0.0 -0.0 -0.0 -0.0 -1.0 -0.0 -0.0 -1.0 -0.0 -0.4924137719593399 -1.0 -1.0 -0.8938887516442492 -1.0 -1.0 -0.0 -0.0 -0.0 -0.0 -0.0 -1.0 -0.0 -1.0 -0.4708330818170112 -0.32169608879158684 0.0 1.0 0.14112306190820187 0.0 0.0 0.0 0.0 0.0 0.0 0.0 0.0 1.0 0.0 0.0 0.0 0.7472006235595442 1.0 0.0 1:1.0 2:0.13458587 3:0.056175955 4:0.16772139 5:0.00545541 6:0.036417633 7:0.0 8:1.0 9:0.03264916 10:0.006810413 11:0.11209366 12:4.23856E-4 13:0.012457828 14:4.37636E-4 15:1.0 16:0.016315537 17:0.011421881 18:0.001074598 19:5.19551E-6 20:0.0 21:4.17641E-6 
-0.0 -1.0 -1.0 -0.0 -0.0 -0.0 -1.0 -1.0 -0.0 -1.0 -0.0 -1.0 -1.0 -1.0 -1.0 -1.0 -1.0 -0.0 -0.14910314700472274 -0.0 -0.0 -0.0 -1.0 -0.2140960257881104 -1.0 -0.0 -0.0 1.0 1.0 0.0 0.0 0.34235527646091474 0.747898348708687 0.5544835249920399 0.07818079632830474 0.0 0.0 1.0 0.582037989840929 1.0 0.0 0.0 0.0 0.11455144846947202 0.0 1:1.0 2:0.14585601 3:0.06595301 4:0.18047705 5:0.006733806 6:0.04138582 7:0.0 8:1.0 9:0.029650778 10:0.007993274 11:0.11513468 12:5.44615E-5 13:0.012271725 14:2.58213E-4 15:1.0 16:0.020573916 17:0.013519077 18:6.67217E-4 19:3.44574E-5 20:0.0 21:3.41444E-5 
-0.29271077509977006 -1.0 -1.0 -0.27789429292396584 -0.8006537551470659 -0.5016145945086699 -1.0 -1.0 -0.8752339114519568 -1.0 -0.5473120854054413 -0.5075862280406601 -1.0 -1.0 -0.10611124835575077 -1.0 -1.0 -0.8131744924740336 -1.0 -0.30146159101536635 -0.3557085708866516 -0.42644283750754636 -1.0 -1.0 -1.0 -0.8227052764541813 -0.0 1.0 1.0 0.14063902441302387 0.2564679350970648 1.0 1.0 1.0 1.0 1.0 0.2746787089146911 1.0 0.417962010159071 1.0 0.2839159966398265 0.5171086951864502 0.2527993764404558 0.8854485515305279 0.5072217051528883 1:1.0 2:0.23444892 3:0.15109055 4:0.26208267 5:0.020935573 6:0.080728285 7:0.0 8:1.0 9:0.010679731 10:0.028530069 11:0.120168 12:0.0 13:0.009277419 14:0.002153873 15:1.0 16:0.07039556 17:0.016870413 18:0.00165937 19:7.52847E-5 20:0.0 21:7.2945E-5 
-0.0 -1.0 -1.0 -0.003531697533247784 -0.23393880166624084 -0.0 -1.0 -1.0 -1.0 -1.0 -0.0 -1.0 -1.0 -1.0 -1.0 -1.0 -1.0 -0.0 -0.23904119590844727 -0.0 -0.0 -0.0 -1.0 -1.0 -1.0 -1.0 -0.3092089893901582 -1.0 1.0 0.2846334467909907 0.0 1.0 1.0 1.0 0.6636959024651025 1.0 0.0 1.0 1.0 1.0 0.0 0.0 1.0 1.0 0.0 1:1.0 2:0.45735717 3:0.49444535 4:0.65760696 5:0.23414439 6:0.34818786 7:0.0 8:1.0 9:0.022239259 10:0.13479957 11:0.23847672 12:0.0 13:0.026085973 14:0.020318864 15:1.0 16:0.19094853 17:0.017396873 18:0.004529672 19:1.86393E-5 20:7.34116E-4 21:0.0 
-0.30467363841129436 -1.0 -1.0 -0.2820978686541714 -1.0 -0.5697018545695971 -1.0 -1.0 -1.0 -1.0 -0.7287610560198431 -1.0 -1.0 -1.0 -1.0 -1.0 -1.0 -1.0 -1.0 -0.31428196344074966 -0.3823307098198526 -0.465778465552613 -1.0 -0.2594297878555835 -1.0 -0.2347003320959932 -0.0 -1.0 1.0 0.0 0.264165321514748 0.5143967317442991 1.0 1.0 1.0 0.0 0.28497390362104413 1.0 1.0 1.0 0.29581217181025116 0.6235395173733388 0.0 1.0 0.6007313255124055 1:1.0 2:0.46849915 3:0.5168373 4:0.6819181 5:0.25733268 6:0.3684323 7:0.0 8:1.0 9:0.02395348 10:0.14272784 11:0.24603769 12:0.0 13:0.027693588 14:0.022001399 15:1.0 16:0.19716622 17:0.017943166 18:0.005100166 19:2.23994E-5 20:9.27205E-4 21:0.0 
-0.292165196604588 -1.0 -1.0 -0.27749810916239764 -0.811654131827319 -0.49980436452041505 -1.0 -1.0 -0.893703660689386 -1.0 -0.5459746952274179 -0.0 -1.0 -1.0 -0.0 -1.0 -1.0 -0.82182672494968 -1.0 -0.30093448308050913 -0.35514898573087156 -0.4253891914559419 -1.0 -1.0 -1.0 -0.0 -0.0 -1.0 -1.0 0.029574439322041648 0.25609996093157744 1.0 1.0 1.0 1.0 1.0 0.2743070130020262 1.0 0.0 1.0 0.2835035183138397 0.5169315793023722 0.0 0.0 0.5067167418099464 1:1.0 2:0.25522366 3:0.16364363 4:0.2685361 5:0.022948053 6:0.08664187 7:0.0 8:1.0 9:0.008007911 10:0.027030095 11:0.11307957 12:0.0 13:0.00765859 14:0.002284474 15:1.0 16:0.08464976 17:0.002651223 18:2.96778E-4 19:5.60119E-8 20:3.10011E-5 21:0.0 
-0.0 -1.0 -0.1208925206830239 -0.0 -0.0 -0.0 -1.0 -0.0 -0.0 -1.0 -0.0 -1.0 -1.0 -1.0 -1.0 -1.0 -1.0 -0.0 -0.0 -0.0 -0.0 -0.0 -1.0 -0.0 -1.0 -1.0 -0.3179213881623691 -1.0 -0.0 0.0 0.0 0.0 0.0 0.0 0.0 0.0 0.0 0.0 1.0 0.0 0.0 0.0 1.0 1.0 0.0 1:1.0 2:0.22009721 3:0.12737131 4:0.23928766 5:0.01638619 6:0.070438184 7:0.0 8:1.0 9:0.01250187 10:0.015993262 11:0.1133214 12:0.0 13:0.008949506 14:0.001605961 15:1.0 16:0.061313067 17:0.003815205 18:4.43226E-4 19:2.19543E-8 20:4.98769E-5 21:0.0 
-0.0 -1.0 -1.0 -0.0 -0.0 -0.0 -1.0 -1.0 -0.0 -1.0 -0.0 -1.0 -1.0 -1.0 -1.0 -1.0 -1.0 -0.0 -0.16405362171990198 -0.0 -0.0 -0.0 -1.0 -0.22235238283180472 -1.0 -0.288660130129356 -0.0 -1.0 -1.0 0.25080870257296095 0.0 0.36203094568780364 0.8169493191484981 0.7715194739760057 0.16148631658045856 0.0 0.0 1.0 1.0 1.0 0.0 0.0 0.0 1.0 0.0 1:1.0 2:0.23053695 3:0.13748826 4:0.24582084 5:0.017925723 6:0.07425834 7:0.0 8:1.0 9:0.010481697 10:0.019199086 11:0.11154904 12:0.0 13:0.008241853 14:0.001799809 15:1.0 16:0.06881727 17:0.003192238 18:5.93336E-4 19:9.63254E-8 20:7.05291E-5 21:0.0 
-1.0 -0.0 -0.0 -0.0 -0.0 -0.0 -0.0 -0.0 -0.0 -0.0 -0.520860068904014 -0.0 -0.0 -0.0 -0.0 -0.03698137407074935 -1.0 -0.0 -0.0 -0.7865079135193885 -0.0 -0.0 -0.0 -0.049795823842880886 -0.0 -0.013880076541764734 -0.0 -0.0 -0.0 -0.0 0.0 0.590164358378473 0.0 0.0 0.0 0.0 0.0 0.0 0.0 0.0 0.0 0.0 0.0 0.0 0.0 1:1.07456E-4 2:1.44971E-4 3:8.20996E-4 4:8.53968E-4 5:1.0 6:0.006639959 7:5.4408E-5 8:0.89139503 9:0.8913315 10:0.893684 11:0.8939706 12:0.0 13:0.89148736 14:0.87459207 15:0.121623844 16:0.51544976 17:0.15798713 18:0.16465487 19:1.0 20:0.7147385 21:0.0 
-1.0 -0.15624495336502459 -0.25714938843376633 -1.0 -0.8250718585848543 -1.0 -0.1763445705065518 -0.16703477072913625 -0.2087039059610293 -0.15870680033416582 -1.0 -0.15286047630957297 -0.1588101267396957 -0.119470814486439 -0.15017096623822823 -0.2502841518908794 -1.0 -1.0 -1.0 -1.0 -1.0 -0.8973322393568411 -0.17702498629660676 -1.0 -0.1616201896197328 -0.1246723902898755 -0.0 -0.15487861962807134 -0.17998698201663804 -0.15740971212678426 0.4511428959622913 1.0 0.6146059275415198 0.5413618345301524 1.0 0.16814353331372228 1.0 0.17340569216103593 0.15062509134784105 0.16281256140816303 0.670877138287063 0.8703075306868725 0.15299305307974928 0.15494595693418245 0.8588869830498485 1:8.86724E-4 2:0.001071008 3:0.003371946 4:0.003519066 5:1.0 6:0.016007837 7:4.61772E-4 8:0.9287175 9:0.92816806 10:0.936479 11:0.9379448 12:0.0 13:0.92891216 14:0.9423366 15:0.38187012 16:1.0 17:0.12903556 18:0.079529315 19:0.060542792 20:0.18926966 21:0.0 
-0.0 -0.12404735730051292 -0.10236603416464114 -0.0 -0.1669237272287161 -0.0 -0.1259061425581033 -0.11902444808814168 -0.09463895727332869 -0.12149965153570137 -0.0 -0.12644217467057253 -0.12124248194911015 -1.0 -0.12934151241941924 -0.021820167656386762 -0.4191549200144412 -0.10983638654971561 -1.0 -0.0 -0.0 -0.10266776064315887 -0.1095458005307174 -0.0 -0.12220739861577985 -1.0 -1.0 -0.1268834666931544 -0.1046464647743527 -0.12297342976821835 0.0 0.0 0.14958200365538624 0.17090065936717563 0.13572046359195478 0.11405427910837261 0.0 0.10903049285930005 0.12878911586003447 0.11957912927911636 0.0 0.1296924693131275 0.13109738687835595 0.1285733765620824 0.14111301695015155 1:1.63722E-5 2:2.30799E-5 3:2.0751E-4 4:2.0993E-4 5:1.0 6:0.002685694 7:6.02411E-6 8:0.88361675 9:0.8836098 10:0.88430613 11:0.88428473 12:0.0 13:0.88348943 14:0.84803134 15:0.010614627 16:0.060319588 17:0.03747828 18:0.03647686 19:1.0 20:0.2402821 21:0.0 
-0.0 -0.0 -0.0 -0.0 -0.0 -0.23560801745052434 -0.0 -0.0 -0.0 -0.0 -0.0 -0.0 -0.0 -0.11918991155964011 -0.0 -1.0 -1.0 -0.0 -0.2124582074744572 -0.0 -0.0 -0.0 -0.0 -0.24861273618586455 -0.0 -1.0 -0.0 -0.0 -0.0 -0.0 0.0 0.0 0.0 0.0 0.0 0.0 0.0 0.0 0.0 0.0 0.0 0.0 0.0 0.0 0.0 1:8.50957E-5 2:1.12314E-4 3:6.38453E-4 4:6.58459E-4 5:1.0 6:0.005581343 7:4.53172E-5 8:0.87376237 9:0.87372214 10:0.87559164 11:0.8756991 12:0.0 13:0.87367076 14:0.8426481 15:0.03583904 16:0.16991863 17:0.084115125 18:0.08570976 19:1.0 20:0.4101735 21:0.0 
-1.0 -0.0 -0.0 -0.0 -0.0 -0.0 -0.0 -0.0 -0.0 -0.0 -0.10539240339890676 -0.0 -0.0 -0.0 -0.0 -0.0 -0.0 -0.25353103322969783 -0.3931065364617145 -1.0 -0.0 -0.0 -0.0 -1.0 -0.0 -0.0 -0.0 -0.0 -0.0 -0.0 0.5488571040377087 0.40983564162152697 0.0 0.0 0.0 0.0 0.0 0.0 0.0 0.0 0.0 0.0 0.0 0.0 0.0 1:5.94982E-6 2:1.3511E-5 3:2.21207E-4 4:2.22542E-4 5:1.0 6:0.002870397 7:4.5907E-6 8:0.99674565 9:0.9967358 10:0.9976046 11:0.997594 12:0.0 13:0.99666494 14:0.9958507 15:0.15176378 16:1.0 17:0.002613558 18:6.62798E-4 19:1.84445E-4 20:0.0 21:1.95167E-4 
-1.0 -0.0 -0.0 -1.0 -0.0 -1.0 -0.0 -0.0 -0.0 -0.0 -1.0 -0.0 -0.0 -0.0 -0.0 -0.0 -0.8710879337766267 -1.0 -0.696081114104643 -1.0 -1.0 -0.0 -0.0 -1.0 -0.0 -0.0 -0.0 -0.0 -0.0 -0.0 1.0 1.0 0.0 0.0 0.23630295248350425 0.0 1.0 0.0 0.0 0.0 0.32912286171293703 0.0 0.0 0.0 0.0 1:4.7931E-4 2:5.97021E-4 3:0.002249882 4:0.002325439 5:1.0 6:0.012410108 7:3.05194E-4 8:0.97672534 9:0.9763952 10:0.98280364 11:0.9836372 12:0.0 13:0.9768205 14:1.0 15:0.33390984 16:1.0 17:0.036734086 18:0.011267718 19:0.00737773 20:0.0 21:0.007188178 
-1.0 -0.2554420313531543 -0.3387168013912985 -1.0 -0.9501891772154317 -1.0 -0.27648277982424385 -0.26209366991909383 -0.28612034969900274 -0.255976369381754 -1.0 -0.2537648655792142 -0.25553086134459163 -0.0 -0.25335107725172495 -0.11625598289695249 -1.0 -1.0 -1.0 -1.0 -1.0 -1.0 -0.26489252977547423 -1.0 -0.2599515656599868 -0.0 -0.0 -0.2564679350970648 -0.264165321514748 -0.25609996093157744 -1.0 1.0 0.7215854291098075 0.6617230917321734 1.0 0.2592759224829386 1.0 0.2611262121486069 0.2539521778165015 0.2583317741461684 1.0 1.0 0.25745933476031774 0.2575422674956073 1.0 1:1.81335E-4 2:5.99092E-4 3:0.004969941 4:0.005221542 5:1.0 6:0.02356815 7:6.32576E-5 8:0.9816603 9:0.9798891 10:0.9969036 11:1.0 12:0.0 13:0.9814169 14:0.9780366 15:0.46942216 16:1.0 17:0.005692024 18:0.001314189 19:0.0 20:1.0103E-4 21:5.96976E-6 
-1.0 -0.0 -0.0 -1.0 -0.0 -1.0 -0.0 -0.0 -0.0 -0.0 -1.0 -0.0 -0.0 -0.922628208800467 -0.0 -1.0 -1.0 -1.0 -1.0 -1.0 -1.0 -0.0 -0.0 -1.0 -0.0 -0.8990528155429566 -0.7392051177949864 -0.0 -0.0 -0.0 -1.0 1.0 0.0 0.0 0.3020057372299408 0.0 1.0 0.0 0.0 0.0 0.0 0.0 0.0 0.0 0.0 1:1.05226E-4 2:1.9417E-4 3:0.001530633 4:0.001580998 5:1.0 6:0.010389864 7:9.19994E-5 8:0.98934585 9:0.9891146 10:0.99434733 11:0.99499005 12:0.0 13:0.9895881 14:0.9886622 15:0.30315927 16:1.0 17:0.005758973 18:0.00162344 19:3.53959E-6 20:0.001818987 21:0.0 
-1.0 -0.0 -0.0 -1.0 -0.0 -1.0 -0.0 -0.0 -0.0 -0.0 -1.0 -0.0 -0.0 -0.6125817948887344 -0.0 -0.0 -1.0 -1.0 -1.0 -1.0 -0.0 -0.0 -0.0 -1.0 -0.0 -0.8796344744878283 -0.7710244566796072 -0.0 -0.0 -0.0 -1.0 -1.0 0.0 0.0 0.2773570569337936 0.0 1.0 0.0 0.0 0.0 0.0 0.0 0.0 0.0 0.0 1:1.09193E-5 2:6.87051E-5 3:0.001028587 4:0.001044388 5:1.0 6:0.008152481 7:0.0 8:0.93101764 9:0.9308953 10:0.93468326 11:0.9347315 12:0.0 13:0.93077254 14:0.9199398 15:0.25887117 16:1.0 17:0.102195114 18:0.09814011 19:0.15061653 20:0.38258597 21:0.0 
