svm_type c_svc
kernel_type linear
nr_class 44
total_sv 159
rho -1.3255970478057866 1.468339989371222 -2.18098489682841 -2.036723527811783 0.5181247781207419 -0.09157062899583139 0.5860435618940276 -0.4370086412371502 -1.3378488632581549 0.67692631154439 0.6428729232648406 0.007963399672608926 -0.9045536518096918 -1.1788514256609015 -1.1757588201384064 -1.1522368303664081 -1.3941873662656965 -1.0406646728515625 -1.1583142213476347 -2.0818920717672884 -0.2067900989772482 -1.3413249820600686 0.5541720306539826 -0.5975840906989429 0.5477797252721395 -0.7161840984562643 -1.2786676883697514 0.6711151496897465 0.6428008648554082 -1.197630382389053 -0.9842664003372192 -0.8007480072353778 -0.8435651608157614 0.49587364081124286 -0.909293532371521 -1.3821745174190485 -1.1912360060945961 -0.28198871068282005 -0.9878532200290169 -1.0934028181540332 -1.1589034452411555 -1.0232596397399902 -1.1602449701154236 1.2998729187508902 1.318254232406616 0.42668494116286465 0.7010831957961352 0.657140279359119 0.6896848488157606 0.7036760939130479 -1.4771485328674316 0.6977105810178624 0.6928225361682878 1.0953445126498642 1.0715790413952224 0.9425368309020996 1.515133005060658 0.6641744801306242 0.632180928143541 0.6680550615635624 0.6674928146293706 0.39866851889220123 0.7987258434295654 -0.16992894450680773 0.687899907421839 0.7050252096410586 0.6874440102625576 0.20591832680317554 0.15361809730529785 0.704580595005116 0.7032764651007793 -0.055091142654418945 0.6938784471226733 0.27372732699152935 1.4371139317154462 0.6839073315561652 0.6934857340870476 0.5541388988219955 0.6782003110730388 1.026169736602249 -1.1356065314099142 -0.9239511839745469 0.6646121164403054 1.4391949366841814 0.9260947685775076 -2.0735475082308765 -1.9227965048584643 -0.8974519541824093 -1.530838941512553 -0.9104666616228325 -1.6152937720906515 -1.4081219959638 -0.7706090562157233 -0.3990092071961615 0.24336025136675773 -1.5852734933671513 -1.7890822196602043 -2.0515764559668908 -1.0174046796173584 -1.1658014059066772 -1.7455604806012335 -1.027483744990557 -1.8721509236583043 -0.922142042386559 -1.5909448434253664 -0.6151701562061211 -1.500921352581517 -0.9106202125549316 -1.0483698091994256 -1.412700444924184 -0.7045634540888082 -0.8703939621734003 -1.5299224765932857 -0.9360279142856598 -1.960945556362427 -1.9483069604976526 -0.9868217896736582 -0.866585255618079 -1.3079204833805282 -1.0031192027100717 -1.1761238873004913 -1.3305950753770037 -1.3864919023108373 -1.0264568416534683 -1.7296716184495062 -1.553835451621139 1.2808075729994632 1.329602318253121 1.7518173934000192 1.2388233001434947 0.2566825557358835 -1.2218400378614016 1.1262284950124366 1.1859784485440756 0.014627929341266666 -0.046057096924896845 -0.062461137771606445 0.6924975020048633 0.21708285808563232 1.657814871008843 -0.38189295360892983 0.20001459121704102 -1.2153793116501803 -0.2175848461879878 -0.7846176624298098 1.291226192298713 1.9329574878844566 1.288105360699867 -0.651638188577009 -1.2334241981001908 1.1573173363575957 1.163807489148037 -0.6318819522857666 0.7255634354891989 -0.544388425176229 -0.12737287126773453 1.3364334026658329 1.1331845925678095 -0.4270665645599365 1.518154667211876 1.2891706655929258 -0.9263344051137532 -1.009732305664527 0.1984940767288208 0.3861886425088679 -1.0246437048049222 1.4654180037716331 1.7568581044884262 1.450554320295434 0.04330555450311351 -0.43015749143889487 1.3047608137130737 1.393907027316597 -0.021623355268046245 -0.09389536207465816 -0.11918506129385813 -1.0558482766676702 -0.9876502752304077 -0.2965884208679199 -0.2457946848821151 -0.9936167001724243 -1.2564815282821655 -0.14240357767727285 -0.3487095116110006 1.395620012390228 0.23837177453122196 1.5137983199183314 -0.23185862263199897 -0.40659334236362143 1.3098304271697998 1.360605530802776 -0.27154943416351934 -0.59369957447052 -0.5336029281542463 -0.3582425517251319 1.5727230094984792 1.1182876825332642 -1.0055184978404452 0.3827826976776123 0.22228492439179018 -0.3782003402602854 -0.3457576468817429 -0.9954274892807007 -0.026400590706374155 -0.5602681387896309 -1.4319902658462524 -0.9875714778900146 -0.5832349684065359 -0.6753161572075002 -0.8981345891952515 1.0964504480361938 -0.26844674922315237 -0.5992083265698244 -0.8486880979412628 -1.2026196372395037 -1.0779520273208618 -1.2205801010131836 -0.7370784804036727 -1.0825366973876953 -1.370557433364372 -0.37232565398506623 -0.6783606027297692 1.0437638759613037 -0.8921132160672913 -1.0131009862410203 -0.4631318616438725 -0.670342058471356 -0.8003482818603516 -0.9748473167419434 -0.6800342109203759 -0.9908229112625122 -1.0560969696754883 -0.9416585095742462 -1.0178629025646004 -0.9705085754394531 -1.2551201581954956 -1.064858078956604 -0.4381925890586791 -0.6045085419780829 -0.6156161870897983 -1.0838583707809448 -0.6368700677679711 -0.7832976790453297 -0.06519627571105957 -0.5086944254927614 -0.6323978683957993 0.22342753410339355 1.4924836158752441 -0.185809015137392 -0.5331443499767505 -0.9133732220459851 -1.5532680390646911 -0.997104287147522 -0.9965269565582275 -0.7404961212840697 -0.9965525867843669 -1.8240659293832584 -0.30233177003879963 -0.6325835023722725 1.4351024627685547 -0.5113835335211859 0.8962745666503906 -0.40551784033134225 -0.6232614019627583 1.0904380083084106 0.06437307993045738 -0.6343136829579947 -0.7348505258560181 -1.3296468099393595 -1.255380401576461 -0.22388792037963867 -0.36722779273986816 -1.1921600103378296 -0.7746826410293579 -0.15503859142359344 -0.5613959009325353 -0.562001207695384 -0.9972840125676978 -0.5849531597403641 -0.8311126232147217 -0.5621090078904853 -0.665640706351607 0.11480367183685303 1.0514947175979614 -0.27273511940541223 -0.5833403175932599 -0.815922273460598 -1.1922481957831976 -1.0964958667755127 -1.2606425285339355 -0.7050097287755618 -1.0986088514328003 -1.2898794949153616 -0.3731398920611887 -0.665045734410231 1.0050311791770299 -0.9563949079560554 0.980263352394104 -0.46095402959058657 -0.6600101863820833 1.07138991355896 0.06318795680999756 -0.6655166301181976 -0.9706394672393799 -0.9964166996541145 -0.9466753912679139 -0.09176254272460938 -0.9369230270385742 -1.2494231462478638 -1.1123569011688232 -0.43811851795443346 -0.5968567290311162 -0.6070471713591007 -1.0993350744247437 -0.6269233480577154 -0.7573601296920455 -1.7929241891901262 0.5678886424721203 0.5664446253843543 0.2599974395568475 -0.9206089999098825 -0.041834115982055664 0.3245463638926632 0.5207172149178412 0.45910849559065203 -0.7113304693839861 0.5254377310173695 -0.314258098602295 0.09233687251820631 -1.2513139247894287 0.5574549743725478 1.7337089556624694 0.5575425203932498 -0.2280966639740155 -1.682711744609504 0.5824059725124509 0.5832014243738044 -0.32128334045410156 0.5675794338997098 0.045864796863762505 1.134371983864638 0.5506384254047013 0.5675690703019851 0.32017604870586946 0.5438763429610429 1.320552980184932 -0.8375344276428223 -0.7597267627716064 0.5235847195626897 -0.6747181415557861 -0.5785634517669678 0.6745951642441186 0.6692213048296216 1.011859146597923 1.8884387016296387 1.2509047985076904 1.5160911407372577 0.6405735790791558 0.611385238830483 2.0435521602630615 0.6433827740364972 0.4064408878593678 0.8478222633355066 0.15492677688598633 0.6640329994040579 1.1167420770732959 0.6634398518102655 0.17706042050318693 1.4058599472045898 0.6802595885444394 0.678339412123618 0.7912430763244629 0.6706194478709264 0.5874090363269704 1.8268978999085508 0.6599937588103961 0.6699449951872587 0.5400671623931899 0.653896129072126 1.2310752463972434 -1.0033791065216064 -0.6247940160468963 0.6407040190419186 1.4438741534472284 0.8465580465102682 0.9836181402206421 -0.2850240745527354 -0.5895663294878885 -0.7764174717620709 -1.1189184424656804 -1.0926384925842285 -1.2141023874282837 -0.698106033205043 -1.0946658849716187 -1.1680401421438389 -0.3846007790312628 -0.6691812747751208 0.9587852954864502 -0.9444451550010878 0.8258364200592041 -0.46986613316296033 -0.6684574009342635 0.9955394268035889 -0.05340445041656494 -0.6678567888330713 -0.9993630507551043 -0.9041901681791974 -0.8747504647727471 -0.20687103271484375 -1.0072853565216064 -1.1917388439178467 -1.1256977319717407 -0.4849694772211075 -0.6065828005042557 -0.6177014174713621 -1.0953078269958496 -0.6220288019475008 -0.7287146428990243 -0.28244005571691755 -0.5906178192760101 -0.7867070664986233 -1.1865699004610932 -1.105570912361145 -1.2693815231323242 -0.6996490056922832 -1.107239007949829 -1.1983731844697103 -0.3818956452968914 -0.669828335581495 -1.0544137954711914 -0.9791164045009918 -1.1011501550674438 -0.46547543543394615 -0.6654754086781204 -0.9570523500442505 -1.0202429258091334 -0.6672791153961664 -0.9985528332947349 -0.9267515734578095 -0.9385663511067843 -1.1150776147842407 -0.9998475613405139 -1.2296037673950195 -1.1390783786773682 -0.47928498933491565 -0.602685367725786 -0.6135657317803698 -1.107839584350586 -0.6235754035799159 -0.7362962850732852 -0.34825820436667376 -0.11059613199260854 -0.124282556026583 0.22077183728949862 0.20446204133563106 -0.8190094003554946 0.2210408774349712 -0.18162395093174183 -1.2606430053710938 -0.6838664069788647 0.27982444205731516 -0.1386979144966666 0.26931398270679197 -2.372656636948529 -0.8834198189361452 0.28554880222407886 0.282191008137187 -0.8835636049543694 0.2803879651535801 -0.5120999714186135 -0.7792726858604643 0.26080841103269325 0.28267288002461416 0.09489462198844185 0.24664867359161563 -0.594428765413746 -1.113660048216382 -0.7918613546670317 0.2202902142159775 -0.13731306866141824 -0.07107785489226681 0.4012344037009049 0.649261474609375 0.5462411151190392 0.4964505444009019 0.9943870517415799 0.5503781197316155 -0.01748660395125004 0.21727623970077178 -1.235529899597168 0.5795740450679334 1.6249533545649908 0.5793434449438668 -0.43977488188785 -1.1417086689666924 0.6025332089417252 0.6013947203715951 -0.6329967975616455 0.5896978037594385 0.3653092056367271 1.4223151091417914 0.5735072032087245 0.5891855588318557 0.3832037762740358 0.5663540806797537 1.3183125848172237 -0.7261741161346436 -0.6371852714195372 0.548085819229208 0.2693479061126709 -0.06985878944396973 0.9963763512148427 0.8840408266051782 0.844223141670227 -0.78205606981817 0.8937366913875133 -0.6257084390265439 -0.15670857105593516 -0.8220532205956347 0.8180398776083038 1.6541058651195433 0.8240573422007 -0.8048949689922305 -0.9280989170074461 0.7747818363427206 0.8024250037787044 -0.796959229646697 0.7686517556754215 -0.7520657777786255 0.9993744138466689 0.8340377921894753 0.7812018197623869 0.36399173736572266 0.8657244699184712 1.3272254242747918 -1.1115211208946627 -0.9888644218444824 0.8926888428493585 -0.08450484275817871 -1.0220645716770425 0.2882112506041059 1.639442305593957 -0.9354552544944347 0.27188948950568526 -1.5796021153271613 -0.1481344493101986 -1.9066338539123535 1.2180127091638222 2.122449846456424 1.2064833449449466 -0.844764219419824 -1.4849974352706972 1.1479351475309945 1.1555263094977213 -1.371903940388016 0.7939103831629574 -0.7751983313950898 -0.2846583652543903 1.2111591545997815 1.1280604168751982 -0.35356485816323246 1.331735362070874 1.4155408623390278 -1.1563175127655079 -1.199794769287109 0.27238853540794633 -1.0915667982220092 -0.998255129977226 0.9481523036956787 -0.6983443024298851 -0.0036954879760742188 -1.228980302810669 -0.32625764240685184 -0.6385066065574556 1.0967267751693726 0.9327752590179443 1.0923128128051758 -0.4261139131634423 -0.6329500149152811 1.0953247547149658 1.0937930345535278 -0.640548673447009 0.1817023754119873 -1.2321356477733396 -0.21731418732255492 1.08162522315979 1.0945236682891846 -0.3906595706939697 1.0539610385894775 1.1176662734413025 -0.5717682317521862 -0.577000735755276 -0.0048792362213134766 -0.6058509564779242 -0.7938943365044591 -0.6526173683969805 -0.9506798982620239 -1.6097744098475655 -0.31049233455300995 -0.603222539729203 1.2487165927886963 0.8674498200416565 1.2680319547653198 -0.4111887328459651 -0.6014614335083557 1.2101635932922363 1.2344110012054443 -0.6028169418205166 -0.6396667957305908 -1.2441263635360995 -1.2888178850522956 1.2638554573059082 0.5286014080047607 -1.2110772132873535 0.3059852123260498 -0.06064452213155951 -0.5446501752928378 -0.5443098016469483 -0.9508689641952515 -0.5527369751226254 -0.7550821304321289 0.7064841206432985 0.1296844482421875 0.3118539933356064 -1.4986159815453437 0.701725676036491 0.9801534134013704 0.7038508616893646 -0.5215529228663804 -1.3916804790496826 0.7137766424734766 0.7231281458123493 -0.9476601654729172 0.6954763687358436 0.07493231437221402 1.4523308518565363 0.7014451704159329 0.699082132481303 0.5519988019278108 0.7081380685862081 1.280957861645109 -1.265947161071973 -1.0301663006739175 0.7041716536198576 0.1640861034393313 -0.19571232795715332 -1.2131527662277222 -0.3272954262494674 -0.6420969526982153 1.0982146263122559 0.9439358115196228 1.0941656827926636 -0.4275312577157042 -0.6358769336392571 1.0983753204345703 1.0974235534667969 -0.6446661262377271 0.18539786338806152 -1.212562018049295 -0.20082909041178099 1.0832123756408691 1.0964739322662354 -0.3869640827178955 1.0567667484283447 1.1257175928878929 -0.5738911163098401 -0.579326084244664 -0.0011837482452392578 -0.610597565415046 -0.8022695900140997 0.01949557147159703 -0.3196147431100537 1.3059009466753007 2.03374340727197 1.323988973021372 -0.1454217767100283 -0.3651483783023332 1.1442062149576457 1.2128800232058214 -0.2531026890569259 1.1479603973640737 -0.32610060646304806 0.5191634077015143 1.3709540224746595 1.1815447220995654 0.3791491985321045 1.4383530616760254 1.3317077870652116 -0.3499774520411274 -0.28267876551949783 1.209274172782898 0.4924217950495491 -0.45129990577697754 -0.4912993525165099 0.3789495725226172 0.1368108019252503 0.36981956626764456 0.6492424011230469 -0.7128510055782202 0.38659134042767407 0.38375399999294424 -0.6130968684194686 0.37959307253647423 -0.36441027044783975 0.7454989280443132 0.3616389767881676 0.38198443007503213 0.21048243004026768 0.3497123030420956 0.7645533647111102 -0.9709586752103818 -0.5959236860836823 0.32641732716907756 0.11650382317588504 0.12434136415172992 0.6629526091565079 1.8185603744663634 0.662617889035942 -0.30996687258439015 0.330716391013433 0.6806517417004483 0.67989750866595 1.0426840782165527 0.669004654715637 1.375405971841793 1.6672871571488934 0.6587454409312635 0.6687529609292064 0.5189825670362549 0.6533867043962964 1.423352238359337 -1.0055537223815918 -0.964083609518736 0.6392931799420385 1.8113629817962646 0.8929059702576791 -0.9146814924588053 -1.040852427482605 -0.4571804783492839 -0.658440569193004 -0.9068490266799927 -1.0069018602371216 -0.6633427034141546 -0.9991856813430786 -1.007985534604466 -0.9743311034849957 -1.0600085258483887 -0.99608314037323 -1.263705849647522 -1.0927348136901855 -0.47545133548125207 -0.5961363906087551 -0.6054055169030582 -1.098581314086914 -0.6249159069548463 -0.7581848689565609 0.9554493963754302 -0.4320964945265575 -1.130581730505621 0.9211995730283116 0.941367548735778 -0.8704848131858004 -0.6458678158608853 -1.8296552896499634 -1.154478813987383 0.9423076225344563 0.01135283573554167 -1.165634378885822 -0.46132173926407993 0.04417406786521294 -1.0585693620534364 -1.2212341296974687 -0.9384710788726807 -1.639585695054791 -1.447416484533937 -0.45894879004353567 -0.6577422573850473 0.20170378684997559 -0.8916178941726685 -0.6633059859324952 -0.9594346284866333 -1.0214797754311735 -0.9627992518226249 -1.0433207750320435 -0.9155224561691284 -1.2606030702590942 -1.099229097366333 -0.4251362528256579 -0.5945478077751905 -0.6044909845574914 -1.0947102308273315 -0.6258209722430202 -0.7625238670654886 0.24062684526823752 0.4728409579605173 0.4691523713286146 0.6624090769009856 0.46562521797379935 -0.005110249791855851 0.40004797280162047 0.44989809816500764 0.4675557509130084 0.3229282009804218 0.441267214832565 0.5133068660532707 -1.0785295436759832 -0.6715051559508676 0.42561127891030287 0.8158932847990801 0.4307312146643499 0.6754146467259293 0.673561535109126 0.027585983276367188 0.6652638361769563 0.39620979658028116 1.6697511256370505 0.6540180781425812 0.6645533524212237 0.5244137365041075 0.6474099693768938 1.2908106198744858 -0.9605495929718018 -0.8915944315463377 0.6329042141137029 1.4120367341558808 0.8295798656622042 -1.0400588512420654 -0.6793502724105385 -0.9996325969696045 -0.8818540522214606 -0.8895284543268689 -1.1097038984298706 -1.0037030906179962 -1.1933691501617432 -1.1220670938491821 -0.471092772165726 -0.6109404239700142 -0.6228516164843759 -1.0991613864898682 -0.6302530814371545 -0.7306504259872746 -0.679930964285109 -0.9871745109558105 -0.9364288312348149 -0.8966751502135235 -0.15609407424926758 -0.9786942005157471 -1.2144224643707275 -1.1220669746398926 -0.4551213741565371 -0.6084263437114084 -0.6202502784742634 -1.098304033279419 -0.6366683020891386 -0.7520345172357856 0.6673478768750625 0.11478940331977916 1.4410243018516626 0.6597192216342119 0.6677189054826022 0.510082764500422 0.6554547268872907 1.1696277847818437 -1.2634718418121338 -1.1608404603713414 0.6417315006423142 1.2898117724275255 0.7068758010864258 -0.888282267810465 -0.6502755826848263 0.9294242858886719 0.9990815388359985 -0.572361946105957 0.8565105199813843 0.9908069968223572 -0.6028551933039215 -0.6137678834321905 -0.18658161163330078 -0.6199480404302214 -0.7225915770910019 1.4573928483990182 1.0564696249289867 0.9140669628378926 0.5307999471242119 1.1480085480993965 1.3537523622126875 -1.1655027760208259 -1.009972898264377 1.2147458344420965 -0.4432781934738159 -0.7935526810363795 0.9713028016235437 0.8842379228723488 -0.3493820489656504 1.0636762975404463 1.1604065853306196 -1.197361652382691 -1.1711073641747527 0.2023112948469308 -0.9737833720108534 -0.9814464245642306 -0.8540692329406738 -1.267552137374878 -1.0746009349822998 -0.3944506096078638 -0.5910236603004094 -0.6003473002486592 -1.0835963487625122 -0.6232594778332367 -0.7682639910788536 -1.1997185945510864 -0.21667349338531494 -0.47792417671510556 -0.6018597603873881 -0.6126825777333689 -1.0971825122833252 -0.6228577252750902 -0.7322299131702641 1.2814133167266846 1.2754395793329625 -0.47968475793578047 -0.4649472495103501 0.38578033447265625 -0.4025005312379699 -0.4808504581451416 -0.3051472155253425 -0.5845274897381922 -0.5924899535073664 -1.0575494766235352 -0.6222917752863024 -0.7888378521794006 -1.0728889434706614 -1.2151345155017301 -1.124580422334365 -1.3603410963416858 -1.298942015449859 0.3896968364715576 0.5717236057713143 1.1391731940371015 0.6758159912553463 0.5766465517682496 1.1599936485290527 0.6776861152469937 -0.6079637268500779 -0.8001283858100374 -0.8056497573852539
label 43 3 10 23 1 46 37 7 16 33 47 38 29 5 6 36 25 30 20 48 31 39 32 45 19 42 2 4 11 9 15 27 34 8 41 12 26 24 22 35 21 13 14 17
nr_sv 4 5 11 5 4 5 4 3 10 4 3 7 3 3 2 8 1 2 8 1 3 1 2 6 4 4 4 6 4 3 3 1 3 5 3 2 1 2 3 1 1 1 2 1
SV
0.0 1.0 1.0 1.0 1.0 1.0 1.0 0.0 0.0 1.0 1.0 0.0 0.0 0.026594512280536584 1.0 0.9046122395730907 1.0 0.0 0.8984094069447413 0.45313734705929376 0.0 0.0 1.0 1.0 1.0 0.0 0.0 1.0 1.0 0.0 0.0 0.01922240343470148 0.8513237485742701 1.0 1.0 0.7245325763688469 1.0 0.0 0.0 0.0 0.899008912329558 0.0 0.025182957729755935 1:1.0 2:0.19325513 3:0.10757481 4:0.2357876 5:0.015094256 6:0.065500125 7:0.0 8:1.0 9:0.023064677 10:0.013298587 11:0.13053584 12:1.72977E-4 13:0.013675735 14:0.001753829 15:1.0 16:0.04002032 17:0.014223675 18:0.00133764 19:1.10181E-4 20:0.0 21:1.11601E-4 
0.0 1.0 1.0 1.0 0.7990370509040615 1.0 0.7252925582684495 1.0 0.0 0.6187133938148366 0.6689665791789443 0.0 1.0 1.0 1.0 0.09538776042690937 0.27918002267393227 1.0 0.10159059305525882 1.0 0.0 0.32490354216609524 0.7214965113764886 0.5002993906684673 0.7515574139052421 0.0 0.0 0.6329335667470516 0.6972594607243507 0.22348932217338804 0.0 1.0 1.0 0.7782855553969368 0.0 0.27546742363115306 0.1265179600676489 0.0 0.0 0.0 0.10099108767044188 1.0 0.974817042270244 1:0.23971179 2:0.21300194 3:0.41422337 4:0.4959213 5:1.0 6:0.48199016 7:0.0 8:1.0 9:0.2509883 10:0.53542185 11:0.72649986 12:0.0 13:0.26898947 14:0.24818584 15:1.0 16:0.38929954 17:0.016165532 18:0.002953108 19:1.59547E-5 20:3.84612E-4 21:0.0 
1.0 0.7251810718221507 1.0 0.28849173488903596 0.0 0.07462724759823658 0.0 1.0 0.9096329803083516 0.0 0.0 0.6051934291505093 1.0 0.9734054877194633 1.0 0.0 0.0 1.0 0.0 0.5654969564519695 0.5707430626673755 1.0 0.0 1.0 0.0 0.7599532703256899 1.0 0.0 0.0 1.0 0.0 1.0 1.0 0.0 0.0 0.0 0.0 0.5573599006088952 0.6607092680106442 0.9891076336855984 0.0 1.0 0.0 1:0.1891083 2:0.1811186 3:0.37095106 4:0.42789245 5:1.0 6:0.4400659 7:0.0 8:1.0 9:0.2893932 10:0.62202156 11:0.75978047 12:0.0 13:0.2976658 14:0.28654948 15:1.0 16:0.43897614 17:0.010795563 18:0.004270296 19:2.11117E-5 20:0.001415225 21:0.0 
0.0 1.0 0.020607406247187487 0.7115082651109641 1.0 1.0 1.0 0.090059643263221 0.0 1.0 1.0 0.008527946538955576 0.0 0.0 0.14798806813623203 0.0 0.7208199773260677 0.0 0.0 0.0 0.0 0.0 1.0 0.42855639929410333 1.0 0.0 0.0 1.0 1.0 0.0 1.0 0.0 0.0 1.0 1.0 0.0 0.8734820399323512 0.9522639787531657 0.0 0.0 0.0 0.0 0.0 1:1.0 2:0.17204654 3:0.08629498 4:0.21267478 5:0.011231143 6:0.054847922 7:0.0 8:1.0 9:0.027608726 10:0.008878853 11:0.12656562 12:4.39495E-4 13:0.014018674 14:0.00141802 15:1.0 16:0.029716466 17:0.011364111 18:0.001037841 19:7.35561E-5 20:0.0 21:7.42535E-5 
-1.0 0.043846759944348564 1.0 0.4529337703501397 0.3190245393555201 0.3402614597168836 0.31220791514709345 1.0 1.0 0.3086757219126387 0.30939842092595815 0.0 1.0 1.0 1.0 0.3205290468685027 0.32325185417797125 1.0 0.32270599210166667 0.45576136944627477 0.0 1.0 0.3124951182664199 0.6300243208610904 0.3130852269976093 0.0 1.0 0.31257316832621085 0.31477742116765206 1.0 0.3078674772707375 1.0 0.14762062648229146 0.3142616292070312 0.30899444291699113 0.3295581997507131 0.31794093475358587 0.0 0.12122539537062099 0.5614280156422481 0.321497281333065 1.0 0.7713538919697327 1:0.007053194 2:0.013659352 3:0.05478861 4:0.059072845 5:1.0 6:0.118928544 7:0.0 8:0.89411587 9:0.8123187 10:0.9654116 11:1.0 12:0.0 13:0.8177118 14:0.8085942 15:1.0 16:0.9216917 17:0.009011206 18:0.004054143 19:3.16049E-5 20:0.00361277 21:0.0 
-0.0 0.0 0.0 0.0 0.0 0.0 0.0 0.0 1.0 0.0 0.0 0.0 0.0 0.0 0.0 0.0 0.0 1.0 0.0 0.0 0.0 0.0 0.0 0.0 0.0 1.0 1.0 0.0 0.0 0.0 0.0 0.0 0.4196145375662376 0.0 0.0 0.0 0.0 0.0 0.0 0.0 0.0 0.0 0.0 1:1.21918E-5 2:4.16667E-5 3:6.17549E-4 4:6.31636E-4 5:1.0 6:0.005782457 7:7.38025E-6 8:0.9461166 9:0.9460643 10:0.9482552 11:0.94840986 12:0.0 13:0.9461928 14:0.94040304 15:0.2221845 16:1.0 17:0.077268146 18:0.072543494 19:0.114912294 20:0.3335545 21:0.0 
-0.0 0.07089751708275317 0.0 0.0 0.0 0.0 0.0 0.7380246148297017 0.0 0.0 0.0 0.0 0.0 0.0 0.0 0.0 0.0 1.0 0.0 0.0 0.0 0.0 0.0 1.0 0.0 1.0 1.0 0.0 0.0 1.0 0.0 0.0 1.0 0.0 0.0 0.0 0.0 0.560255723147314 0.0 0.0 0.0 0.0 0.0 1:1.09193E-5 2:6.87051E-5 3:0.001028587 4:0.001044388 5:1.0 6:0.008152481 7:0.0 8:0.93101764 9:0.9308953 10:0.93468326 11:0.9347315 12:0.0 13:0.93077254 14:0.9199398 15:0.25887117 16:1.0 17:0.102195114 18:0.09814011 19:0.15061653 20:0.38258597 21:0.0 
-0.0 0.0 0.0 0.0 0.0 0.0 0.0 0.10575579764053543 1.0 0.0 0.0 0.0 0.631338706802548 0.0 0.0 0.0 0.0 0.02970196864325469 0.0 0.0 0.0 0.15361791019234047 0.0 0.5359392358894002 0.0 0.5613207090474374 1.0 0.0 0.0 0.0 0.0 0.8358189810954246 0.7410767394347866 0.0 0.0 0.0 0.0 0.0 0.878774604629379 0.0 0.0 0.0 0.0 1:2.04126E-5 2:3.51116E-5 3:3.77383E-4 4:3.82738E-4 5:1.0 6:0.004054028 7:1.91878E-5 8:0.9815675 9:0.981545 10:0.9829082 11:0.98296756 12:0.0 13:0.9815968 14:0.9811884 15:0.18362394 16:1.0 17:0.008118513 18:0.007784027 19:0.001899229 20:0.041993488 21:0.0 
-0.0 1.0 0.0 0.0 0.0 0.0 0.0 1.0 1.0 0.0 0.0 0.9724485800935989 1.0 0.0 0.2540245764152813 0.0 0.0 1.0 0.0 0.0 1.0 0.8463820898076595 0.0 0.1998341807382089 0.0 1.0 1.0 0.0 0.0 1.0 0.0 0.5593065680980435 1.0 0.0 0.0 0.0 0.0 1.0 0.0 0.4385719843577519 0.0 0.2560946870911486 0.0 1:8.94296E-5 2:1.88493E-4 3:0.001626544 4:0.001667795 5:1.0 6:0.010888056 7:8.19912E-5 8:0.92212284 9:0.9218813 10:0.9273677 11:0.9277074 12:0.0 13:0.92198145 14:0.9083233 15:0.30396402 16:1.0 17:0.12641719 18:0.119117744 19:0.1659074 20:0.40096974 21:0.0 
-0.9881182307972403 -0.0 0.0 0.6417044635452027 0.0 1.0 0.0 0.0 0.0 0.0 1.0 0.0 0.0 0.0 0.0 0.0 0.0 0.0 0.0 0.0 0.0 0.0 0.0 0.0 0.0 0.0 0.0 0.0 0.0 0.0 0.0 0.0 0.0 0.0 0.0 0.0 0.0 0.0 0.0 0.0 0.0 0.0 0.0 1:1.0 2:0.26984698 3:0.2046632 4:0.3257991 5:0.03851224 6:0.11252011 7:0.0 8:1.0 9:0.009954716 10:0.051281247 11:0.14332233 12:0.0 13:0.011187577 14:0.003554169 15:1.0 16:0.08985892 17:0.03332427 18:0.007501623 19:3.79176E-5 20:6.48382E-4 21:0.0 
-0.0 -0.0 0.0 0.0 1.0 0.0 1.0 0.0 0.0 1.0 1.0 0.438971447939068 0.0 0.0 0.0 0.0 0.0 0.0 0.0 0.0 0.0 0.0 1.0 0.0 1.0 0.0 0.0 1.0 1.0 0.0 1.0 0.0 0.0 0.845302635841502 1.0 0.0 0.3634850361611644 0.0 0.0 0.0 0.0 0.0 0.0 1:1.0 2:0.2280431 3:0.14987274 4:0.26875034 5:0.021971235 6:0.082241945 7:0.0 8:1.0 9:0.012603288 10:0.030339962 11:0.12898405 12:0.0 13:0.010725124 14:0.00208012 15:1.0 16:0.06470083 17:0.023814578 18:0.003236018 19:9.09555E-6 20:8.07725E-5 21:0.0 
-0.7370628410249105 -0.9750145908893154 0.4622818642687892 0.08205668893573884 0.0 0.09401464403569793 0.0 0.8028663057329458 0.7856381969777827 0.0 0.0 1.0 0.8057408967602315 0.6417804617745951 0.5368262720275343 0.0017036336999092267 0.0 1.0 0.004986935835506973 0.1628327569401223 0.0 0.6911342257084847 0.0 0.9404601830051235 0.0 1.0 0.7508803535357834 0.0 0.0 0.9191745867828073 0.0 0.8247600981208107 1.0 0.0 0.0 0.009757596458526098 0.0 1.0 0.8349592001952726 0.7285176724682647 0.004367286446790414 0.7008434132682198 0.3433681562473949 1:7.1909E-5 2:8.10551E-5 3:3.05116E-4 4:3.12402E-4 5:1.0 6:0.003173362 7:9.59687E-5 8:0.84727734 9:0.84726834 10:0.84806854 11:0.8480675 12:0.0 13:0.8471577 14:0.78320885 15:0.002893341 16:0.015725171 17:0.021252463 18:0.018900365 19:1.0 20:0.12022516 21:0.0 
-0.0 -0.0 0.0 0.0 0.04915121950874538 0.0 0.0015786873920989603 0.0 0.0 0.014606133113199748 0.025656315584771543 1.0 0.0 0.0 0.0 0.0 0.0 0.05891699587297985 0.0 0.0 0.9787849446820194 0.0 0.0053688943179137525 0.0 0.0 1.0 0.0 0.04081791059441009 0.02928003246148574 0.0 0.0 0.0 0.8262876811501669 0.0 0.005279272560371267 0.0 0.0 1.0 0.0 0.0 0.0 0.0 0.0 1:7.23425E-5 2:8.11522E-5 3:2.96649E-4 4:3.03524E-4 5:1.0 6:0.003100918 7:6.53063E-5 8:0.8342851 9:0.83427685 10:0.8350492 11:0.83503205 12:0.0 13:0.8341285 14:0.7592848 15:0.003139837 16:0.011736655 17:0.017998423 18:0.016346838 19:1.0 20:0.099677816 21:0.0 
-0.0 -0.0 0.0 0.0 0.9508487804912547 0.0 0.0 0.0 0.0 0.0 1.0 0.0 0.0 0.0 0.0 0.0 0.0 0.0 0.0 0.0 0.0 0.0 1.0 0.0 0.0 0.0 0.0 0.0 0.0 0.0 0.0 0.0 0.0 0.154697364158498 0.0 0.0 0.0 0.0 0.0 0.0 0.0 0.0 0.0 1:1.0 2:0.2764796 3:0.19486791 4:0.29729512 5:0.03224101 6:0.10170014 7:0.0 8:1.0 9:0.005762585 10:0.044306874 11:0.119406566 12:0.0 13:0.006821546 14:0.003293873 15:1.0 16:0.10180834 17:0.012262227 18:0.006991233 19:1.5465E-5 20:0.001081438 21:0.0 
-0.0 -0.0 0.0 0.0 1.0 0.0 0.0 0.0 0.0 0.0 1.0 0.0 0.0 0.0 0.0 0.0 0.0 0.0 0.0 0.0 0.0 0.0 1.0 0.0 1.0 0.0 0.0 0.9591820894055898 0.9707199675385142 0.0 0.0 0.0 0.0 0.0 0.0 0.0 0.6365149638388355 0.0 0.0 0.0 0.0 0.0 0.0 1:1.0 2:0.2511353 3:0.17586792 4:0.29809704 5:0.028845591 6:0.09770731 7:0.0 8:1.0 9:0.011164895 10:0.037210044 11:0.13572773 12:0.0 13:0.011099368 14:0.002828168 15:1.0 16:0.07742202 17:0.023822164 18:0.002816651 19:7.99779E-5 20:0.0 21:7.2484E-5 
-1.0 -0.13972968613778622 1.0 1.0 0.0 1.0 0.0 0.6508467111508377 0.15287807784268456 0.0 0.0 0.0 0.49053261199617854 0.9006860886704865 1.0 0.9982963663000908 1.0 0.4841608643210854 0.995013064164493 1.0 0.0 0.29679840374993477 0.0 1.0 0.0 0.14577909046721302 0.1926185878628946 0.0 0.0 0.30177766041038945 0.0 0.8458539973658211 1.0 0.0 0.0 0.990242403541474 1.0 0.0 0.10663696218123415 0.2162324352433926 0.9956327135532096 0.7592564423226529 0.6566318437526051 1:1.0 2:0.33624333 3:0.2739784 4:0.38933855 5:0.06106758 6:0.15591699 7:0.0 8:1.0 9:0.006827764 10:0.06710819 11:0.14344878 12:0.0 13:0.008730646 14:0.005435093 15:1.0 16:0.13535973 17:0.007698808 18:0.002581831 19:2.74881E-6 20:3.42033E-4 21:0.0 
-1.0 -0.0 0.6126805768217132 1.0 0.0 1.0 0.0 0.0 0.0 0.0 0.0 0.0 0.0 0.0 0.4631737279724658 0.0 1.0 0.0 0.0 0.03298264695435692 0.0 0.0 0.0 1.0 0.0 0.0 0.0 0.0 0.0 0.0 0.0 0.0 0.14362389612874424 0.0 0.0 0.0 0.0 0.0 0.0 0.0 0.0 0.0 0.0 1:1.0 2:0.32262456 3:0.25531083 4:0.36785856 5:0.052845612 6:0.14240839 7:0.0 8:1.0 9:0.006461303 10:0.061550565 11:0.1379203 12:0.0 13:0.008345785 14:0.004743271 15:1.0 16:0.12739445 17:0.009372197 18:0.002852862 19:3.96196E-6 20:3.37592E-4 21:0.0 
-0.0 -0.0 0.0 0.0 1.0 0.0 0.998421312607901 0.0 0.0 0.9853938668868003 1.0 0.0 0.0 0.0 0.0 0.0 0.0 0.0 0.0 0.0 0.0 0.0 1.0 0.0 1.0 0.0 0.0 1.0 0.0 0.0 0.0 0.0 0.0 1.0 0.7260020697066649 0.0 0.0 1.0 0.0 0.0 0.0 0.0 0.0 1:1.0 2:0.2654231 3:0.1770462 4:0.2748226 5:0.025633067 6:0.090508156 7:0.0 8:1.0 9:0.005685282 10:0.036085933 11:0.11052453 12:0.0 13:0.006322954 14:0.002595661 15:1.0 16:0.095511995 17:0.0065693 18:0.003402055 19:3.83231E-6 20:4.94486E-4 21:0.0 
-0.0 -0.0 0.0 0.0 0.0 0.9059853559643021 0.0 0.0 0.0 0.0 0.9743436844152286 0.0 0.0 0.0 0.0 0.0 0.0 0.0 0.0 0.0 0.0 0.0 0.9946311056820862 0.08941457897761858 0.0 0.0 0.0 0.0 0.0 0.0 0.0 0.0 0.0 0.5879213730104031 0.0 0.0 0.0 0.0 0.0 0.0 0.0 0.0 0.0 1:1.0 2:0.29319927 3:0.21250592 4:0.3115593 5:0.03612656 6:0.11072802 7:0.0 8:1.0 9:0.005172932 10:0.04911496 11:0.119273655 12:0.0 13:0.006468666 14:0.003606863 15:1.0 16:0.11292779 17:0.009005462 18:0.005060702 19:8.71955E-6 20:8.32854E-4 21:0.0 
-0.0 -0.0 0.0 0.0 1.0 0.0 1.0 0.0 0.0 1.0 1.0 0.0 0.0 0.0 0.0 0.0 0.0 0.0 0.0 0.0 0.021215055317980732 0.0 1.0 0.0 1.0 0.0 0.0 1.0 1.0 0.0 0.0 0.0 0.0 0.4120786269895969 0.26871865773296366 0.0 0.0 0.0 0.0 0.0 0.0 0.0 0.0 1:1.0 2:0.25114095 3:0.17168948 4:0.2865994 5:0.027656145 6:0.092881955 7:0.0 8:1.0 9:0.008733588 10:0.036749903 11:0.12703235 12:0.0 13:0.008903157 14:0.002496566 15:1.0 16:0.08188006 17:0.018368684 18:0.006884707 19:1.90266E-5 20:7.35425E-4 21:0.0 
-0.0 -0.0 -0.0 0.5504253608520576 0.0 0.0 0.0 0.4366217180017545 0.0 0.0 0.0 0.0 0.16165872603801784 1.0 1.0 0.0 0.0 0.36450676246359665 0.0 1.0 0.0 0.0 0.0 0.0 0.0 0.0 0.0 0.0 0.0 0.0 0.0 0.6748057905666359 0.6965776978141649 0.0 0.0 0.0 0.0 0.0 0.0 0.0 0.0 0.8809245565009748 0.29277694457639675 1:0.7792282 2:0.50662977 3:0.7744811 4:0.9976003 5:0.9616951 6:0.74085134 7:0.0 8:1.0 9:0.105126865 10:0.29529434 11:0.4896709 12:0.0 13:0.12180469 14:0.10979813 15:1.0 16:0.2646029 17:0.058457192 18:0.006098867 19:0.001500207 20:0.0 21:0.001527101 
-1.0 -0.0 -1.0 1.0 1.0 1.0 1.0 0.0 0.0 1.0 1.0 0.0 0.0 0.0 1.0 1.0 1.0 0.0 1.0 0.0 0.0 0.0 1.0 1.0 1.0 0.0 0.0 1.0 1.0 0.0 0.9506611760445683 0.0 0.8994502496957179 1.0 1.0 1.0 1.0 0.6549468115430178 0.0 0.0 1.0 0.0 0.0 1:1.0 2:0.49842823 3:0.62762916 4:0.8806541 5:0.47254345 6:0.52620053 7:0.0 8:1.0 9:0.05286232 10:0.17042887 11:0.362073 12:0.0 13:0.06797716 14:0.046890084 15:1.0 16:0.18347573 17:0.061582267 18:0.00528938 19:0.001033822 20:0.0 21:0.001050993 
-0.7595404156589064 -0.0 -0.12084483751291218 1.0 0.1788240999364533 1.0 0.07346847201501835 0.0 0.0 0.0 0.0 0.0 0.0 0.0 1.0 0.0 0.8662809225545719 0.0 0.0 0.7372873009758213 0.0 0.0 0.11870165254651546 0.553804297828074 0.1284012048361232 0.0 0.0 0.0 0.0 0.0 0.0 0.0 0.0 0.19412908002856474 0.0 0.0 0.3994236082438784 0.0 0.0 0.0 0.0 0.0 0.0 1:0.96782345 2:0.50333554 3:0.67180777 4:0.99072003 5:0.65526545 6:0.6321314 7:0.0 8:1.0 9:0.075415 10:0.1809309 11:0.4459704 12:0.0 13:0.10107714 14:0.061973687 15:1.0 16:0.17651074 17:0.066982865 18:0.003754168 19:4.39235E-4 20:0.0 21:4.31416E-4 
-1.0 -1.0 -0.9541176035775901 0.4495746391479424 0.24840859754374567 0.29617266865489544 0.23249824684068762 1.0 0.8177982246932645 0.1851201201329149 0.22723016663848425 0.608477294388609 1.0 1.0 1.0 0.0 0.13371907744542813 1.0 0.0 0.2627126990241787 0.5642452205780976 1.0 0.2272094779034515 1.0 0.22544343977737075 0.7104857192540163 0.9428325324981328 0.2010540432811944 0.24133218840063966 1.0 0.04933882395543163 1.0 1.0 0.21595505012456837 0.19414307862708508 0.0 0.2091765329051187 0.7545318395664887 0.6100549129777533 0.8945599778168201 0.0 1.0 0.7072230554236033 1:0.21988368 2:0.18820941 3:0.37032437 4:0.47332132 5:1.0 6:0.4593 7:0.0 8:1.0 9:0.28422305 10:0.5176588 11:0.7982205 12:0.0 13:0.319113 14:0.27849126 15:1.0 16:0.34670973 17:0.07951839 18:0.00716402 19:0.00198532 20:0.0 21:0.002011376 
-0.2610669905882809 -0.0 -0.0 1.0 0.0 0.0 0.0 0.0 0.0 0.0 0.0 0.0 0.0 0.0 1.0 0.0 0.0 0.0 0.0 1.0 0.0 0.0 0.0 0.0 0.0 0.0 0.0 0.0 0.0 0.0 0.0 0.0 0.0 0.0 0.0 0.0 0.0 0.0 0.0 0.0 0.0 0.0 0.0 1:0.8291109 2:0.49297073 3:0.7240622 4:1.0 5:0.8613771 6:0.7050285 7:0.0 8:1.0 9:0.09819712 10:0.24360037 11:0.4943964 12:0.0 13:0.12352597 14:0.08950998 15:1.0 16:0.22092369 17:0.067031644 18:0.004892082 19:9.45753E-4 20:0.0 21:9.47016E-4 
-1.0 -0.01855261719099853 -1.0 -1.0 1.0 1.0 1.0 0.100435824336313 0.015724440733395496 1.0 1.0 0.11344659127507607 0.06001624702525235 0.3474479967088869 0.7592539026349215 1.0 1.0 0.009938431216664323 1.0 0.0 0.08708809049335339 0.0196344824840088 1.0 1.0 1.0 0.04767693739121276 0.024299670076020984 1.0 1.0 0.015717977986603092 1.0 0.11497062414880185 0.34233616755811047 1.0 1.0 0.3278037672300406 1.0 1.0 0.017092072985431552 0.03436328895093292 1.0 0.26020215343303227 0.02885400296522846 1:1.0 2:0.33243075 3:0.27326185 4:0.4304297 5:0.07580463 6:0.17777517 7:0.0 8:1.0 9:0.013225527 10:0.051552843 11:0.17768648 12:0.0 13:0.01676224 14:0.007665886 15:1.0 16:0.115027525 17:0.004144227 18:4.46861E-4 19:6.30404E-5 20:0.0 21:6.32268E-5 
-0.0 -0.0 -0.7237611524809415 -1.0 0.24464915801070342 1.0 0.15020730760611514 0.0 0.0 0.0 0.03192581731696792 0.0 0.0 0.26109152986359524 1.0 0.0 0.0 0.0 0.0 1.0 0.0 0.0 0.1638505688649231 0.0 0.23083597911532927 0.0 0.0 0.0 0.011769828831704326 0.0 0.0 0.22609881519122446 0.9387032820600867 0.32156306828999764 0.0 0.0 0.0 0.0 0.0 0.0 0.0 0.0 0.0 1:1.0 2:0.57779235 3:0.7620728 4:0.9619457 5:0.60653937 6:0.62572587 7:0.0 8:1.0 9:0.052165784 10:0.21609752 11:0.34549898 12:0.0 13:0.05929028 14:0.05112305 15:1.0 16:0.245978 17:0.021838935 18:0.002998412 19:5.74007E-4 20:0.0 21:5.76407E-4 
-1.0 -0.43438115315914116 -0.0 -1.0 0.0 0.11175394767647777 0.0 0.9078087995977795 0.36903623734148516 0.0 0.0 0.2591297255490542 0.7071059615936397 1.0 1.0 0.0 0.0 0.9900615687833356 0.0 1.0 0.2531237783604068 0.5067168030592126 0.0 0.2823309270237939 0.0 0.31408087416045816 0.3958502345105085 0.0 0.0 0.6430239836061491 0.0 1.0 1.0 0.0 0.0 0.0 0.0 0.10199531690862684 0.3068890577576754 0.37664255526991397 0.0 1.0 0.9711459970347716 1:0.6119236 2:0.44737625 3:0.72056735 4:0.8722544 5:1.0 6:0.70115566 7:0.0 8:1.0 9:0.11782694 10:0.36084896 11:0.4998229 12:0.0 13:0.124514714 14:0.11803822 15:1.0 16:0.3260374 17:0.006886504 18:0.001138436 19:3.08039E-4 20:0.0 21:3.09338E-4 
-1.0 -0.0 -1.0 -1.0 1.0 1.0 1.0 0.0 0.0 1.0 1.0 0.0 0.0 0.0 1.0 0.0 1.0 0.0 0.0 1.0 0.0 0.0 1.0 1.0 1.0 0.0 0.0 1.0 1.0 0.0 0.0 0.0 0.0 1.0 1.0 0.6721962327699593 1.0 0.11459413570075366 0.0 0.0 0.0 0.0 0.0 1:1.0 2:0.51053673 3:0.59774935 4:0.78344095 5:0.35795137 6:0.45690343 7:0.0 8:1.0 9:0.03256686 10:0.15406129 11:0.28389278 12:0.0 13:0.039311208 14:0.03127343 15:1.0 16:0.21119405 17:0.006858371 18:0.001192815 19:2.56512E-4 20:0.0 21:2.57641E-4 
-1.0 -0.0 -1.0 -1.0 -1.0 1.0 1.0 0.0 0.0 0.0 1.0 0.0 0.0 0.8419183127715343 1.0 1.0 1.0 0.0 1.0 0.9344202232435606 0.0 0.0 1.0 1.0 1.0 0.0 0.0 0.0 0.0 0.0 0.0 0.8253524407799565 1.0 1.0 0.0 1.0 1.0 0.0 0.0 0.0 1.0 0.6316342386035216 0.7989713550752372 1:1.0 2:0.22911288 3:0.1507764 4:0.31717718 5:0.032645922 6:0.10375828 7:0.0 8:1.0 9:0.027714193 10:0.020936698 11:0.17364071 12:1.23573E-4 13:0.021340944 14:0.003410118 15:1.0 16:0.048392173 17:0.022088856 18:0.001345968 19:2.57095E-6 20:1.19494E-4 21:0.0 
-0.7990370509040615 -0.0 -1.0 -0.0 -0.24464915801070342 1.0 1.0 0.0 0.0 1.0 1.0 0.0 0.0 0.0 0.0 0.0 0.0 0.0 0.0 0.0 0.0 0.0 1.0 0.21896305732292684 1.0 0.0 0.0 1.0 1.0 0.0 0.0 0.0 0.0 1.0 0.0 0.0 0.0 0.0 0.0 0.0 0.0 0.0 0.0 1:1.0 2:0.19203624 3:0.11032307 4:0.25447085 5:0.018238615 6:0.07268858 7:0.0 8:1.0 9:0.028413069 10:0.015068962 11:0.14821367 12:2.9867E-4 13:0.017310979 14:0.002020486 15:1.0 16:0.03515131 17:0.01986552 18:0.00121631 19:1.90495E-6 20:9.9077E-5 21:0.0 
-0.0 -0.0 -1.0 -0.0 -0.0 1.0 0.0 0.0 0.0 1.0 1.0 0.0 0.0 0.0 0.0 0.0 0.0 0.0 0.0 0.0 0.0 0.0 1.0 0.0 1.0 0.0 0.0 1.0 1.0 0.0 0.0 0.0 0.0 0.43166776089687015 1.0 0.0 0.0 0.0 0.0 0.0 0.0 0.0 0.0 1:1.0 2:0.16999654 3:0.09316983 4:0.23020118 5:0.013848112 6:0.0607114 7:0.0 8:1.0 9:0.032641582 10:0.016660472 11:0.14396895 12:0.001130403 13:0.017999591 14:0.002368466 15:1.0 16:0.026046619 17:0.025236303 18:0.001442078 19:1.71156E-6 20:1.02617E-5 21:0.0 
-0.0 -0.0 -1.0 -0.0 -0.0 0.0 1.0 0.0 0.0 1.0 1.0 0.0 0.0 0.0 0.0 0.0 0.0 0.0 0.0 0.0 0.0 0.0 1.0 0.0 0.7132889586908219 0.0 0.0 1.0 1.0 0.0 1.0 0.0 0.0 0.0 1.0 0.0 0.0 0.8194157883612985 0.0 0.0 0.0 0.0 0.0 1:1.0 2:0.15592353 3:0.07706964 4:0.19972098 5:0.009467277 6:0.048797436 7:0.0 8:1.0 9:0.031134978 10:0.011972374 11:0.12643538 12:7.84936E-4 13:0.01472102 14:0.001501181 15:1.0 16:0.022808176 17:0.018634435 18:9.41153E-4 19:8.91637E-7 20:1.69183E-5 21:0.0 
-1.0 -0.3190245393555201 -1.0 -0.42723269748019893 -1.0 1.0 0.0 0.5641476091649091 0.28453650724882734 0.0 1.0 0.32551801247019746 0.4608102523108923 0.0 0.3012420984144997 0.0 1.0 0.5369689755557041 0.0 0.0 0.2943400391836267 0.3523144013902974 1.0 1.0 0.2867110413091783 0.290640544849533 0.3064363392600239 1.0 0.0 0.3991161800812005 0.0 0.0 0.18766628097902746 0.5683322391031298 0.0 0.0 1.0 0.44559898961005057 0.2521123953902365 0.3065699884779256 0.0 0.0 0.0 1:1.0 2:0.19177815 3:0.12379732 4:0.2984249 5:0.025352454 6:0.08919074 7:0.0 8:1.0 9:0.035079405 10:0.025205402 11:0.1853212 12:0.0 13:0.024772082 14:0.001997357 15:1.0 16:0.029955959 17:0.040579848 18:6.89631E-4 19:1.41906E-5 20:0.0 21:1.52744E-5 
-1.0 -0.0 -1.0 -0.0 -0.11175394767647788 -1.0 1.0 0.0 0.0 1.0 1.0 0.0 0.0 0.0 0.0 1.0 1.0 0.0 0.9435656683312561 0.0 0.0 0.0 1.0 0.55003482389142 1.0 0.0 0.0 1.0 1.0 0.0 1.0 0.0 0.0 1.0 1.0 0.0 1.0 1.0 0.0 0.0 0.9331947586662355 0.0 0.0 1:1.0 2:0.27851763 3:0.2289974 4:0.4452537 5:0.0778728 6:0.1751435 7:0.0 8:1.0 9:0.028471738 10:0.044303063 11:0.23385188 12:0.0 13:0.031613443 14:0.009525498 15:1.0 16:0.06620152 17:0.042984653 18:0.002486468 19:1.08687E-5 20:3.36784E-4 21:0.0 
-0.5075276677830591 -0.0 -1.0 -1.0 -1.0 -1.0 1.0 0.0 0.0 1.0 1.0 0.0 0.0 0.051088218042843546 1.0 0.0 1.0 0.0 0.05643433166874394 1.0 0.0 0.0 1.0 1.0 1.0 0.0 0.0 1.0 0.6879591765641575 0.0 0.0 1.0 1.0 1.0 0.0 1.0 0.0 0.0 0.0 0.0 0.06680524133376449 0.0 0.0 1:1.0 2:0.33237836 3:0.3145591 4:0.556106 5:0.14626692 6:0.25056425 7:0.0 8:1.0 9:0.03299522 10:0.07467163 11:0.27756417 12:0.0 13:0.041951686 14:0.019889355 15:1.0 16:0.08996242 17:0.05948096 18:0.007407133 19:6.92155E-5 20:0.001281217 21:0.0 
-0.5670995798151774 -0.0 -1.0 -0.29617266865489544 -1.0 -1.0 1.0 0.0 0.0 1.0 1.0 0.0 0.0 0.0 0.0 0.0 0.0 0.0 0.0 0.0 0.0 0.0 1.0 0.0 1.0 0.0 0.0 1.0 1.0 0.0 0.0 0.0 0.0 1.0 1.0 0.0 1.0 0.2577463218442698 0.0 0.0 0.0 0.0 0.0 1:1.0 2:0.29502997 3:0.23284604 4:0.4887485 5:0.09254962 6:0.19971023 7:0.0 8:1.0 9:0.037011024 10:0.02822645 11:0.26056033 12:6.94376E-4 13:0.04031678 14:0.002597392 15:1.0 16:0.0713134 17:0.004942364 18:0.001252568 19:3.33749E-6 20:0.0 21:3.80352E-6 
-1.0 -0.3402614597168836 -1.0 -1.0 -1.0 -1.0 0.0 0.6627677524316152 0.3001290268966255 0.0 1.0 0.33276920805831284 0.515597124976455 1.0 1.0 0.0 0.0 0.6693076317912573 0.0 0.44861503323176394 0.3027413145588934 0.38127250283470876 1.0 0.7321842025151926 1.0 0.3023424799557289 0.3244062288552836 1.0 0.3120408234358425 0.4412473484877123 0.0 0.12483769621074131 0.7465644632988383 0.0 0.0 0.0 0.0 0.0 0.26338432375991105 0.3226603078438109 0.0 0.7711184342079636 1.0 1:1.0 2:0.2875774 3:0.25984612 4:0.5823318 5:0.14846516 6:0.2517076 7:0.0 8:1.0 9:0.05807053 10:0.06287944 11:0.35462767 12:0.002242697 13:0.07129947 14:0.01809163 15:1.0 16:0.049695514 17:0.07733432 18:0.007462589 19:5.37748E-5 20:6.49044E-4 21:0.0 
-1.0 -0.31220791514709345 -1.0 -1.0 -1.0 -1.0 -1.0 0.5377457253141942 0.2791107221428568 1.0 1.0 0.0 0.4446839811499503 0.7874899209363285 1.0 1.0 1.0 0.5093495729160367 1.0 0.862905048972757 0.0 0.343353370541971 1.0 1.0 1.0 0.0 0.30013923547281723 1.0 1.0 0.38798335939640105 0.0 0.7690237452814533 1.0 1.0 0.0 1.0 1.0 0.0 0.24773586773407963 0.3005854398018655 1.0 0.6049319724149622 0.7510164345872617 1:1.0 2:0.2350751 3:0.14180417 4:0.25561243 5:0.019569686 6:0.078802094 7:0.0 8:1.0 9:0.010304793 10:0.01910019 11:0.11546821 12:0.0 13:0.008545254 14:0.001940967 15:1.0 16:0.07075546 17:8.32634E-4 18:2.69232E-4 19:0.0 20:3.36923E-5 21:3.9415E-8 
-0.7252925582684496 -0.0 -1.0 -0.0 -0.15020730760611514 -1.0 -1.0 0.0 0.0 1.0 1.0 0.3187540462400035 0.0 0.0 0.0 0.0 0.0 0.0 0.0 0.0 0.28793792963956055 0.0 1.0 0.19885196573345076 1.0 0.030024412651555483 0.0 1.0 1.0 0.0 1.0 0.0 0.0 1.0 1.0 0.0 0.0 1.0 0.0 0.0 0.0 0.0 0.0 1:1.0 2:0.20287322 3:0.11070048 4:0.22977677 5:0.01445531 6:0.06491775 7:0.0 8:1.0 9:0.015766632 10:0.010973241 11:0.11664655 12:0.0 13:0.010021331 14:0.001465617 15:1.0 16:0.050045833 17:0.003136199 18:4.02316E-4 19:1.34647E-7 20:3.35638E-5 21:0.0 
-1.0 -0.0 -1.0 -0.3059667188557059 -1.0 -1.0 -1.0 0.0 0.0 1.0 1.0 0.0 0.0 0.0 0.25112960987577243 0.0 1.0 0.0 0.0 0.0 0.0 0.0 1.0 1.0 1.0 0.25416812782993164 0.0 1.0 1.0 0.0 0.0 0.0 0.167962544753852 1.0 1.0 0.0 1.0 0.2533911616414799 0.0 0.0 0.0 0.0 0.0 1:1.0 2:0.21262279 3:0.120329864 4:0.23681055 5:0.015871892 6:0.06874783 7:0.0 8:1.0 9:0.01397 10:0.013698773 11:0.11585258 12:0.0 13:0.009551327 14:0.001640953 15:1.0 16:0.05605203 17:0.003598918 18:3.30259E-4 19:1.09635E-7 20:3.26582E-5 21:0.0 
-0.090059643263221 -0.0 -0.0 -0.0 -0.0 -0.0 -0.0 -0.0 0.0 0.0 0.0 0.8169917258008161 0.4068679794109843 0.0 0.7414861950764717 0.0 0.0 0.0 0.0 0.0 0.48968644091030433 0.0 0.0 0.0 0.0 0.0 0.0 0.0 0.0 0.0 0.0 0.0 0.0 0.0 0.0 0.0 0.0 0.37496145726663266 0.0 0.0 0.0 0.0 0.0 1:0.032102898 2:0.04030457 3:0.123211876 4:0.15961763 5:1.0 6:0.22226375 7:0.0 8:0.8776973 9:0.58226556 10:0.73785967 11:1.0 12:0.0 13:0.6268756 14:0.6005397 15:1.0 16:0.48485997 17:0.23224273 18:0.038120218 19:0.0 20:3.30827E-4 21:8.64711E-4 
-0.0 -0.0 -0.0 -0.0 -0.0 -0.0 -0.0 -0.0 0.0 0.0 0.0 0.0 0.0 0.0 0.0 0.0 0.0 1.0 0.0 0.0 0.0 0.0 0.0 0.0 0.0 0.0 0.0 0.0 0.0 0.0 0.0 0.0 0.0 0.0 0.0 0.0 0.0 0.0 0.0 0.0 0.0 0.0 0.0 1:0.031967983 2:0.041511707 3:0.12454158 4:0.1522146 5:1.0 6:0.21649249 7:0.0 8:0.89796555 9:0.60325956 10:0.793271 11:1.0 12:0.0 13:0.62547016 14:0.64227486 15:1.0 16:0.54524827 17:0.26433975 18:0.049669664 19:0.0 20:0.001280502 21:0.001015138 
-0.0 -0.0 -0.0 -0.0 -0.0 -0.0 -0.0 -0.0 0.0 0.0 0.0 0.0 0.0 0.0 0.0 0.0 0.0 1.0 0.0 0.0 0.3186683903788783 0.0 0.0 0.0 0.0 0.0 0.39882245237368447 0.0 0.0 0.0 0.0 0.0 0.0 0.0 0.0 0.0 0.0 0.0 0.0 0.0 0.0 0.0 0.0 1:0.026770676 2:0.03429739 3:0.094412684 4:0.118810676 5:1.0 6:0.18154131 7:0.010680395 8:0.8491247 9:0.6602492 10:0.77998924 11:1.0 12:0.0 13:0.70104444 14:0.69978213 15:1.0 16:0.54659206 17:0.32785282 18:0.054553892 19:5.40259E-4 20:0.0 21:0.002107171 
-0.0 -0.0 -0.0 -0.0 -0.0 -0.0 -0.0 -0.0 0.0 0.0 0.0 0.0 0.0 0.0 0.0 0.0 0.0 1.0 0.0 0.0 0.0 0.0 0.0 0.0 0.0 0.0 0.0 0.0 0.0 0.0 0.0 0.0 0.0 0.0 0.0 0.0 0.0 0.0 0.0 0.0 0.0 0.0 0.0 1:0.027015412 2:0.035860296 3:0.11028 4:0.13620947 5:1.0 6:0.20045362 7:0.0 8:0.8761849 9:0.6245487 10:0.78601235 11:1.0 12:0.0 13:0.65529007 14:0.65101266 15:1.0 16:0.5510531 17:0.2535662 18:0.043398444 19:0.004912552 20:0.0 21:0.006867098 
-1.0 -0.0 -1.0 -1.0 -1.0 -0.5641476091649091 -0.6627677524316152 -0.5377457253141942 0.0 0.5235682567000186 0.526676873863329 0.0 0.0 1.0 1.0 0.5732438080741572 0.5797251600381781 0.0 0.5808033613469563 1.0 0.0 0.0 0.5372727747370233 0.0 0.5402758773189386 0.0 0.0 0.5341311011431928 0.5448176828820209 0.0 0.5206807232318521 0.2811013269940203 0.6166432196089813 0.5438481423346492 0.5252444372907078 0.6184467500453492 0.5610722830693765 1.0 0.0 0.0 0.5795133790544239 1.0 1.0 1:0.085681066 2:0.08375113 3:0.20211434 4:0.2701931 5:1.0 6:0.30930373 7:0.0 8:0.94472647 9:0.4331805 10:0.58800566 11:0.97694856 12:0.0 13:0.494945 14:0.45651883 15:1.0 16:0.37147802 17:0.24461813 18:0.03540643 19:0.006851115 20:0.0 21:0.008596792 
-0.0 -0.0 -0.0 -0.0 -0.0 -0.0 -0.0 -0.0 0.4416248475771856 0.0 0.0 0.0 1.0 0.0 0.0 0.0 0.0 0.705778287417465 0.0 0.0 0.0 1.0 0.0 1.0 0.0 0.0 1.0 0.0 0.0 0.0 0.0 1.0 1.0 0.0 0.0 0.0 0.0 0.0 0.0 0.0 0.0 0.0 0.0 1:0.027865307 2:0.037874978 3:0.11593138 4:0.13788748 5:1.0 6:0.20371746 7:0.0 8:0.8960719 9:0.6330953 10:0.83089334 11:1.0 12:0.0 13:0.6509444 14:0.6503947 15:1.0 16:0.5952813 17:0.20190561 18:0.037284233 19:0.007167799 20:0.0 21:0.00905923 
-0.0 -1.0 -0.0 -0.0 -0.0 -0.0 -0.0 -0.0 1.0 0.0 0.0 0.0 0.0 0.0 0.0 0.0 0.0 1.0 0.0 0.0 0.0 0.0 0.0 0.0 0.0 1.0 1.0 0.0 0.0 1.0 0.0 0.0 0.0 0.0 0.0 0.0 0.0 0.0 0.0 0.0 0.0 0.0 0.0 1:0.012305845 2:0.019861456 3:0.06656255 4:0.08176705 5:1.0 6:0.14531115 7:0.008650376 8:0.8670718 9:0.75409883 10:0.8838234 11:0.9968848 12:0.0 13:0.77131283 14:0.7761843 15:1.0 16:0.69486034 17:0.40236685 18:0.12270517 19:0.017727178 20:0.06339044 21:0.0 
-0.0 -0.8437804124702372 -0.0 -0.0 -0.0 -0.0 -0.0 -0.0 1.0 0.0 0.0 0.0 1.0 0.0 0.0 0.0 0.0 1.0 0.0 0.0 0.0 0.0 0.0 0.051108544893311084 0.0 0.03414671848801467 1.0 0.0 0.0 1.0 0.0 0.0 0.0 0.0 0.0 0.0 0.0 0.0 0.0 0.0 0.0 0.0 0.0 1:0.019176599 2:0.029010467 3:0.09846368 4:0.11868355 5:1.0 6:0.18583126 7:1.6532E-4 8:0.88065004 9:0.6668082 10:0.8511559 11:1.0 12:0.0 13:0.682869 14:0.6857093 15:1.0 16:0.61906195 17:0.24413595 18:0.056577742 19:0.001392294 20:0.01421811 21:0.0 
-0.0 -1.0 -0.0 -0.0 -0.0 -0.0 -0.0 -0.0 1.0 0.0 0.0 0.0 0.5931320205890155 0.0 0.0 0.0 0.0 1.0 0.0 0.0 0.0 1.0 0.0 1.0 0.0 1.0 1.0 0.0 0.0 1.0 0.0 0.7188986730059798 0.6241626809466627 0.0 0.0 0.0 0.0 0.0 1.0 1.0 0.0 0.0 0.0 1:0.011324219 2:0.016431427 3:0.049484488 4:0.058823917 5:1.0 6:0.11430985 7:0.01009521 8:0.8806165 9:0.8165143 10:0.90891707 11:0.9956782 12:0.0 13:0.8351374 14:0.8611584 15:1.0 16:0.7960596 17:0.33875278 18:0.073422804 19:0.003568192 20:0.028981477 21:0.0 
-1.0 -0.0 -0.45371301688378357 -0.4366217180017545 -0.008244623934092454 -0.0 -0.0 -0.0 0.0 0.0 0.0 0.0 0.0 1.0 1.0 0.0 0.0 0.0 0.0 0.0 0.0 0.0 0.0 0.7352003058185934 0.0 0.0 0.0 0.0 0.0 0.0 0.0 1.0 1.0 0.0 0.0 0.0 0.0 0.024615955546649793 0.0 0.0 0.0 1.0 0.0 1:0.070990026 2:0.07465088 3:0.18680872 4:0.24261834 5:1.0 6:0.2918355 7:0.0 8:0.9464293 9:0.48337433 10:0.6711356 11:0.98814005 12:0.0 13:0.52812713 14:0.5244113 15:1.0 16:0.41726565 17:0.20959558 18:0.039950773 19:0.0 20:4.26602E-4 21:7.28058E-4 
-0.0 -1.0 -0.0 -0.0 -0.0 -0.0 -0.0 -0.0 -0.4416248475771856 0.0 0.0 0.0 0.0 0.0 0.0 0.0 0.0 1.0 0.0 0.0 0.0 0.0 0.0 1.0 0.0 1.0 1.0 0.0 0.0 1.0 0.0 0.5386764464176627 1.0 0.0 0.0 0.0 0.0 0.18164206648939651 1.0 0.0 0.0 0.0 0.0 1:1.14183E-4 2:8.86538E-4 3:0.007938696 4:0.008251315 5:1.0 6:0.032481585 7:0.0 8:0.96548814 9:0.9615034 10:0.9906666 11:0.99338526 12:0.0 13:0.9619756 14:0.9335668 15:0.53694063 16:1.0 17:0.019910071 18:0.014395346 19:8.69963E-4 20:0.027122034 21:0.0 
-0.9096329803083514 -1.0 -0.0 -0.8177982246932645 -0.3847606780748807 -0.28453650724882734 -0.3001290268966255 -0.2791107221428568 -1.0 0.2767186776656642 0.2771030259938661 0.0 1.0 1.0 1.0 0.284962070787416 0.28683361607664865 1.0 0.2866830478700884 0.3868886536537232 0.0 1.0 0.2793434468909327 0.0 0.27975357882772134 0.0 1.0 0.27994954354601637 0.2814676232817715 1.0 0.276017320736771 0.8095653739120758 0.0 0.280604599557269 0.2768210981296383 0.2907860843960916 0.2832058128285502 0.0 0.0 0.5630749582788096 0.28564009382672334 1.0 0.6150453154177671 1:0.001465346 2:0.004129283 3:0.02308253 4:0.024200471 5:1.0 6:0.06600113 7:0.0 8:0.9348271 9:0.91282326 10:0.9915603 11:1.0 12:0.0 13:0.91317856 14:0.8995375 15:0.7726236 16:1.0 17:0.007302353 18:0.003113373 19:3.38086E-5 20:0.002314653 21:0.0 
-0.0 -1.0 -0.0 -0.0 -0.0 -0.0 -0.0 -0.0 -1.0 0.0 0.0 0.0 1.0 0.0 0.12356997627086602 0.0 0.0 1.0 0.0 0.0 0.0 1.0 0.0 0.3126805369624781 0.0 0.8459766141305651 1.0 0.0 0.0 0.0 0.0 0.0 0.8305531593560805 0.0 0.0 0.0 0.0 0.0 0.0 0.0 0.0 0.12360031820990891 0.0 1:4.71707E-4 2:0.001884672 3:0.013262269 4:0.013871194 5:1.0 6:0.04568723 7:0.0 8:0.9566961 9:0.9475369 10:0.99439377 11:1.0 12:0.0 13:0.9485628 14:0.9273576 15:0.64400655 16:1.0 17:0.003349122 18:0.001980918 19:1.32535E-5 20:0.002077588 21:0.0 
-0.0 -1.0 -0.9385162748204673 -0.0 -0.0 -0.0 -0.0 -0.0 -1.0 0.0 0.0 0.7785391220050464 1.0 0.0 0.0 0.0 0.0 1.0 0.0 0.0 0.8334415699337704 0.0 0.0 1.0 0.0 1.0 1.0 0.0 0.0 1.0 0.0 1.0 1.0 0.0 0.0 0.0 0.0 1.0 0.0 0.4369250417211904 0.0 0.0 0.0 1:4.6234E-5 2:7.21865E-4 3:0.007012117 4:0.00744045 5:1.0 6:0.030332271 7:2.69089E-6 8:0.95044893 9:0.94723684 10:0.97113484 11:0.97575545 12:0.0 13:0.94921327 14:0.9250732 15:0.5376176 16:1.0 17:0.06198209 18:0.03801653 19:0.00697437 20:0.074634716 21:0.0 
-1.0 -0.26004336663446004 -1.0 -0.1851201201329149 -1.0 -1.0 -1.0 -1.0 -0.0 -0.2767186776656642 1.0 0.320567710703565 0.0 0.0 0.179742174231361 0.0 1.0 0.0 0.0 0.0 0.28930445857102366 8.380785893446878E-4 1.0 1.0 1.0 0.28443013068738104 0.2161828854795653 1.0 1.0 0.0 0.0 0.0 0.1462895325321411 1.0 0.0 0.0 0.0 1.0 0.24635592631999978 0.2845529002243636 0.0 0.0 0.0 1:1.0 2:0.13794152 3:0.05645897 4:0.15851387 5:0.00507019 6:0.03436568 7:0.0 8:1.0 9:0.02890671 10:0.005200529 11:0.10139487 12:3.86177E-4 13:0.010515794 14:6.11463E-4 15:1.0 16:0.019180965 17:0.008093152 18:5.59898E-4 19:3.09227E-7 20:1.26133E-5 21:0.0 
-1.0 -0.04863235527817866 -1.0 -1.0 -1.0 -1.0 -1.0 -1.0 -0.5235682567000186 -0.0 1.0 0.0 0.43634312506944517 0.7219470387608701 1.0 1.0 1.0 0.4904215419786761 1.0 0.7613574346502515 0.0 0.3377641655895333 1.0 1.0 1.0 0.0 0.08108343797489019 1.0 1.0 0.3806174149160973 0.6916976710691716 0.6951540929343548 1.0 1.0 1.0 1.0 1.0 0.0 0.0 0.013566485976667712 1.0 0.5782560991682395 0.695477015057371 1:1.0 2:0.17896785 3:0.08667124 4:0.18507914 5:0.008284422 6:0.046532966 7:0.0 8:1.0 9:0.016453778 10:0.007552782 11:0.09681562 12:0.0 13:0.007925843 14:7.59562E-4 15:1.0 16:0.041129243 17:0.003547602 18:3.31579E-4 19:9.42279E-8 20:4.31814E-6 21:0.0 
-0.6187133938148366 -0.0 -1.0 -0.0 -0.0 -1.0 -1.0 -1.0 -0.0 -0.0 1.0 0.0 0.0 0.0 0.0 0.0 0.0 0.0 0.0 0.0 0.0 0.0 1.0 0.1758291009138243 1.0 0.0 0.0 1.0 1.0 0.0 0.30830232893082843 0.0 0.0 1.0 1.0 0.0 1.0 0.25667708817523655 0.0 0.0 0.0 0.0 0.0 1:1.0 2:0.13957031 3:0.056363523 4:0.15608056 5:0.00489849 6:0.033848003 7:0.0 8:1.0 9:0.027361982 10:0.004073487 11:0.0979794 12:2.807E-4 13:0.009795953 14:5.13039E-4 15:1.0 16:0.02046431 17:0.005954828 18:3.96273E-4 19:1.54943E-7 20:7.00121E-6 21:0.0 
-0.0 -0.0 -1.0 -0.0 -0.0 -0.0 -0.0 -0.0 -0.0 -0.0 -1.0 0.0 0.0 0.0 0.0 0.0 0.0 0.0 0.0 0.0 0.0 0.0 1.0 0.0 0.0 0.0 0.0 1.0 0.35987949264213037 0.0 0.0 0.0 0.0 0.0 0.3995458452429285 0.0 0.0 0.2545816631398266 0.0 0.0 0.0 0.0 0.0 1:1.0 2:0.16162622 3:0.0718571 4:0.17521435 5:0.006893644 6:0.04170111 7:0.0 8:1.0 9:0.021072319 10:0.00402084 11:0.0994825 12:0.0 13:0.008937403 14:5.51872E-4 15:1.0 16:0.031006174 17:0.002491499 18:1.56347E-4 19:1.04891E-5 20:0.0 21:1.05126E-5 
-1.0 -0.30939842092595815 -1.0 -1.0 -1.0 -1.0 -1.0 -1.0 -0.526676873863329 -0.2771030259938661 -0.0 0.0 0.0 0.7377875901009616 1.0 0.0 1.0 0.4946830731338917 1.0 0.785812781193373 0.0 0.0 1.0 1.0 1.0 0.0 0.0 0.0 0.6401205073578696 0.3822802870303797 0.0 0.7125907225397909 0.16004692927175446 1.0 0.0 0.0 1.0 0.0 0.0 0.0 1.0 0.5846636578501024 0.7088991660477737 1:1.0 2:0.19592553 3:0.101404615 4:0.20283668 5:0.010665336 6:0.054364573 7:0.0 8:1.0 9:0.0134917 10:0.010069754 11:0.100030884 12:0.0 13:0.00773219 14:0.001053616 15:1.0 16:0.050501864 17:0.001784843 18:6.8083E-5 19:4.20815E-6 20:0.0 21:4.21164E-6 
-0.0 -0.0 -1.0 -0.0 -0.0 -0.0 -0.0 -0.0 -0.0 -0.0 -1.0 0.31952712193593924 0.0 0.0 0.0 0.0 0.0 0.0 0.0 0.0 0.28839581980083867 0.0 0.0 0.0 0.0 0.02935147590719141 0.0 1.0 1.0 0.0 0.5767576776428511 0.0 0.0 0.0 1.0 0.0 0.0 1.0 0.0 0.0 0.0 0.0 0.0 1:1.0 2:0.15390052 3:0.06517611 4:0.17142068 5:0.006347536 6:0.039781738 7:0.0 8:1.0 9:0.023907388 10:0.002441098 11:0.101509444 12:2.38799E-5 13:0.009598424 14:4.44945E-4 15:1.0 16:0.026504405 17:0.001534436 18:1.20134E-4 19:7.8188E-6 20:0.0 21:7.83121E-6 
-0.0 -0.0 -1.0 -0.0 -0.0 -1.0 -0.0 -0.0 -0.0 -0.0 -1.0 0.0 0.0 0.0 0.0 0.0 0.0 0.0 0.0 0.0 0.0 0.0 1.0 0.0 0.0 0.0 0.0 1.0 0.0 0.0 0.0 0.0 0.0 0.0 0.0 0.0 0.0 0.0 0.0 0.0 0.0 0.0 0.0 1:1.0 2:0.17847553 3:0.08532242 4:0.18637443 5:0.008365253 6:0.04697178 7:0.0 8:1.0 9:0.016524665 10:0.006266828 11:0.09783262 12:0.0 13:0.008031896 14:7.68545E-4 15:1.0 16:0.040743124 17:0.001341991 18:6.82575E-5 19:5.41909E-6 20:0.0 21:5.42395E-6 
-0.6689665791789444 -0.0 -1.0 -0.0 -0.03192581731696792 -1.0 -1.0 -1.0 -0.0 -0.0 -0.0 0.0 0.0 0.0 0.0 0.0 0.0 0.0 0.0 0.0 0.0 0.0 1.0 0.18796200877471414 1.0 0.0 0.0 0.0 0.0 0.0 0.0 0.0 0.0 1.0 0.0 0.0 0.0 0.0 0.0 0.0 0.0 0.0 0.0 1:1.0 2:0.19228353 3:0.097852565 4:0.19749525 5:0.009940493 6:0.052132756 7:0.0 8:1.0 9:0.013808073 10:0.009399926 11:0.098158985 12:0.0 13:0.007592766 14:9.68339E-4 15:1.0 16:0.048787266 17:0.001855043 18:4.38214E-5 19:2.38865E-9 20:1.97551E-6 21:0.0 
-1.0 -0.0 -1.0 -0.22723016663848425 -1.0 -1.0 -1.0 -1.0 -0.0 -0.0 -0.0 0.0 0.0 0.0 0.21609589256601158 1.0 1.0 0.0 0.0 0.0 0.0 0.0 1.0 1.0 1.0 0.0 0.0 0.0 0.0 0.0 0.0 0.0 1.0 1.0 0.6004541547570714 1.0 1.0 0.0 0.0 0.0 0.0 0.0 0.0 1:1.0 2:0.19716471 3:0.10214801 4:0.20166054 5:0.010553044 6:0.05408333 7:0.0 8:1.0 9:0.012950465 10:0.010332029 11:0.0984159 12:0.0 13:0.007455461 14:0.001039642 15:1.0 16:0.05170617 17:0.001488594 18:3.78348E-5 19:1.58865E-9 20:1.37602E-6 21:0.0 
-0.0 -0.0 -1.0 -0.0 -0.0 -1.0 -1.0 -0.0 -0.0 -0.0 -0.0 0.0 0.4378951528549531 0.0 0.0 0.0 0.0 0.0 0.0 0.0 0.0 0.33934773939094987 1.0 0.0 1.0 0.2543126276443219 0.29762268842520656 1.0 1.0 0.0 0.42324232235714887 0.0 0.0 0.0 0.0 0.0 0.0 0.0 0.24637586061075267 0.298353462116002 0.0 0.0 0.0 1:1.0 2:0.17773326 3:0.08557929 4:0.19456038 5:0.009187263 6:0.049618714 7:0.0 8:1.0 9:0.018464878 10:0.005825857 11:0.104973994 12:0.0 13:0.009178328 14:8.18032E-4 15:1.0 16:0.038444344 17:0.001794354 18:9.06286E-5 19:6.46395E-6 20:0.0 21:6.47239E-6 
-0.0 -0.0 -0.7064770439383806 -0.0 -0.3725763168241303 -0.32551801247019746 -0.33276920805831284 -0.3187540462400035 -0.0 -0.0 -0.320567710703565 -0.31952712193593924 0.0 0.0 0.0 0.315744173374024 0.31232610360521795 0.0 0.31780864018731964 0.36457676347197937 0.0 0.0 0.31791419139007526 0.0 0.31792139048669515 0.3007236646254497 0.0 0.32403738938745985 0.3242023096347712 0.0 0.31829228002657817 0.0 0.0 0.3160717882017397 0.31926397703645104 0.30754868032800436 0.3172582042788441 0.5091448660382142 0.0 0.0 0.3172693335426561 0.0 0.0 1:4.12408E-4 2:4.92843E-4 3:0.001461884 4:0.001503023 5:1.0 6:0.009294309 7:1.13869E-4 8:0.71654224 9:0.7164696 10:0.7200185 11:0.71936834 12:0.08450535 13:0.7152952 14:0.5 15:0.001617005 16:0.006429527 17:0.018982867 18:0.018240424 19:1.0 20:0.078660004 21:0.0 
-0.0 -0.9724485800935989 -1.0 -0.0 -0.0 -0.0 -0.0 -0.0 -0.8169917258008161 -0.7785391220050464 -0.0 -0.0 0.8150508194593011 0.0 0.0 0.0 0.0 1.0 0.0 0.0 1.0 0.7252604939062105 0.0 1.0 0.0 1.0 0.7765696866037092 0.0 0.0 0.9837782806045513 0.0 0.9209974726601434 1.0 0.0 0.0 0.0 0.0 1.0 0.7868953329315208 0.7721248153733126 0.0 0.15122397607860166 0.0 1:8.40288E-4 2:0.00105082 3:0.003153748 4:0.003288921 5:1.0 6:0.015878217 7:2.46683E-4 8:0.74777067 9:0.74743956 10:0.7556188 11:0.75465435 12:0.0 13:0.7456487 14:0.5483593 15:0.011339065 16:0.032875597 17:0.06010472 18:0.055870652 19:1.0 20:0.17596981 21:0.0 
-0.6137213756894648 -0.0 -0.7324944040006873 -0.608477294388609 -0.0 -0.0 -0.0 -0.0 -0.0 -0.0 -0.0 -0.0 0.0 0.6746823458587758 0.6844243759412639 0.0 0.0 0.14859134474060506 0.0 0.0 0.0 0.0 0.0 0.13136478852355776 0.0 1.0 0.0 0.0 0.0 0.0 0.0 0.0 0.9252786413494738 0.0 0.0 0.0 0.0 1.0 0.0 0.0 0.0 0.5259073574645201 0.5016610818080234 1:4.44924E-4 2:5.86549E-4 3:0.002079182 4:0.002162297 5:1.0 6:0.012442662 7:7.00922E-5 8:0.7239067 9:0.72374403 10:0.72936267 11:0.7284683 12:0.05242413 13:0.7222084 14:0.5 15:0.004768158 16:0.013813403 17:0.03293672 18:0.031203013 19:1.0 20:0.11161778 21:0.0 
-1.0 -0.631338706802548 -1.0 -1.0 -0.767122208618892 -0.4608102523108923 -0.515597124976455 -0.4446839811499503 -1.0 -1.0 -0.43634312506944517 -0.4378951528549531 -0.7051750234933428 1.0 1.0 0.46493673489392684 0.46903807244498646 1.0 0.469936129142493 0.7766050369448191 0.5950361298714408 0.0 0.44443594542076653 1.0 0.44617689946209443 0.03269666761406355 1.0 0.4440570033826238 0.44982426177950846 1.0 0.43469628245552017 1.0 1.0 0.44840702300241997 0.4373787410047789 0.48864797380577274 0.45826939678114526 1.0 0.0 0.0 0.46845234684543635 1.0 1.0 1:0.04063599 2:0.050748948 3:0.14173084 4:0.17620479 5:1.0 6:0.24142708 7:0.0 8:0.8939989 9:0.5855103 10:0.78437454 11:1.0 12:0.0 13:0.62892157 14:0.5134481 15:1.0 16:0.5094246 17:0.012208215 18:0.003926561 19:2.42986E-5 20:0.002401241 21:0.0 
-0.0 -1.0 -0.0 -0.0 -0.0 -0.0 -0.0 -0.0 -1.0 -1.0 -0.0 -0.0 -0.10987579596595827 0.0 0.0 0.0 0.0 1.0 0.0 0.0 0.21927500298899869 1.0 0.0 1.0 0.0 1.0 1.0 0.0 0.0 1.0 0.0 0.9360706585801206 1.0 0.0 0.0 0.0 0.0 0.0 1.0 0.9176631609660385 0.0 0.0 0.0 1:6.21195E-4 2:0.002797305 3:0.018735578 4:0.02124141 5:1.0 6:0.060359687 7:0.0 8:0.93593085 9:0.91929823 10:0.9712943 11:1.0 12:0.0 13:0.93022656 14:0.8726429 15:0.85359657 16:1.0 17:0.017579826 18:0.020373523 19:6.76735E-4 20:0.025569549 21:0.0 
-1.0 -1.0 -0.2962735087564099 -0.16165872603801784 -0.0 -0.0 -0.0 -0.0 -1.0 -1.0 -0.0 -0.0 -0.0 0.7610311488487927 1.0 0.0 0.0 1.0 0.0 0.0 0.0 1.0 0.0 0.72905296366385 0.0 1.0 1.0 0.0 0.0 1.0 0.0 1.0 1.0 0.0 0.0 0.0 0.0 0.3314560670207247 0.0 0.0823368390339615 0.0 1.0 0.0 1:0.034657273 2:0.04567361 3:0.13124897 4:0.15900445 5:1.0 6:0.22670187 7:0.0 8:0.8923309 9:0.6147813 10:0.82597876 11:1.0 12:0.0 13:0.64821225 14:0.55140007 15:1.0 16:0.5550495 17:0.025608756 18:0.009778226 19:1.22772E-4 20:0.006502676 21:0.0 
-1.0 -1.0 -0.9617854981801551 -1.0 -0.6085395265724821 -0.0 -0.051088218042843546 -0.0 -1.0 -1.0 -0.0 -0.0 -0.6746823458587758 -1.0 1.0 0.0 0.0 1.0 0.0 0.7767930134923514 0.6377058178075032 1.0 0.0 1.0 0.0 0.9363209570355795 1.0 0.0 0.0 1.0 0.0 1.0 1.0 0.0 0.0 0.0 0.0 1.0 0.806290699226833 1.0 0.0 1.0 0.23052484244514 1:0.14304633 2:0.14294596 3:0.30283454 4:0.36188108 5:1.0 6:0.39293578 7:0.0 8:1.0 9:0.36543128 10:0.6938208 11:0.8521616 12:0.0 13:0.3773369 14:0.3492572 15:1.0 16:0.4500148 17:0.039778404 18:0.005344295 19:6.36045E-5 20:0.00117652 21:0.0 
-1.0 -0.0 -0.5806810522649265 -1.0 -1.0 -0.8419183127715343 -1.0 -0.7874899209363285 -1.0 -0.0 -0.7219470387608701 -0.7377875901009616 -0.0 -0.7610311488487926 1.0 0.9831762005717808 1.0 0.960168092428709 0.9980612770714257 1.0 0.0 0.19075557754030287 0.7954778427931634 1.0 0.8057210255691122 0.0 0.0 0.7166083557286116 0.756112248815274 0.17830282479835455 0.711141311003958 1.0 1.0 0.8313074997588531 0.7291550649252755 1.0 0.9016551001050799 0.24414370604372845 0.0 0.0 0.9982106747993653 1.0 0.76947515755486 1:0.4235421 2:0.33109 3:0.54563695 4:0.699084 5:1.0 6:0.60790664 7:0.0 8:1.0 9:0.1787543 10:0.44458714 11:0.61695343 12:0.0 13:0.19188601 14:0.1724915 15:1.0 16:0.33823818 17:0.046087828 18:0.007041712 19:9.19412E-5 20:0.002271785 21:0.0 
-0.9754389278312109 -1.0 -1.0 -0.09483966215635284 -0.0 -0.3012420984144997 -0.3454849225899997 -0.25112960987577243 -1.0 -1.0 -0.179742174231361 -0.21609589256601158 -0.6844243759412639 -1.0 -1.0 0.06837097689101178 0.26932081249623707 1.0 0.0734050472260707 0.0 0.6495008046927688 1.0 0.26756797423213097 1.0 0.2692393360938998 0.9851026192492741 1.0 0.19194325455111674 0.22538919615759975 1.0 0.14030407627913588 1.0 1.0 0.2884644507155593 0.18738429773599408 0.020757173645941273 0.30159508684921776 0.9060125919928755 0.8496727181067789 1.0 0.0710693217110992 1.0 0.22992562977644568 1:0.1274398 2:0.13189846 3:0.2933788 4:0.33846465 5:1.0 6:0.37617764 7:0.0 8:1.0 9:0.3739103 10:0.7039043 11:0.8608137 12:0.0 13:0.3881548 14:0.37381777 15:1.0 16:0.46941558 17:0.007798385 18:0.001026879 19:2.81318E-4 20:0.0 21:2.82684E-4 
-0.0 -0.0 -0.0 -0.9051603378436472 -0.08621891327436401 -0.0 -0.0 -0.0 -0.0 -0.0 -0.0 -0.0 -0.0 -0.0 -0.0 0.0 0.0 0.0 0.0 0.0 0.0 0.0 0.0 0.0 0.0 0.0 0.0 0.0 0.0 0.0 0.0 0.0 0.0 0.0 0.0 0.0 0.0 0.0 0.0 0.0 0.0 0.0 0.0 1:0.4656251 2:0.36348408 3:0.6193403 4:0.7396811 5:1.0 6:0.6302238 7:0.0 8:1.0 9:0.14608076 10:0.39987135 11:0.55714124 12:0.0 13:0.1576648 14:0.14368579 15:1.0 16:0.34548455 17:0.001840912 18:1.93771E-4 19:5.32571E-5 20:0.0 21:5.32798E-5 
-0.0 -0.0 -0.0 -1.0 -1.0 -0.0 -0.0 -0.0 -0.0 -0.0 -0.0 -0.0 -0.0 -0.0 -0.5205965155912785 0.0 0.0 0.0 0.0 1.0 0.0 0.0 0.0 0.0 0.0 0.0 0.0 0.0 0.0 0.0 0.0 0.0 0.0 0.0 0.0 0.0 0.0 0.0 0.0 0.0 0.0 0.0 0.5451753140762827 1:0.555373 2:0.40960458 3:0.67048573 4:0.8234094 5:1.0 6:0.67267954 7:0.0 8:1.0 9:0.13115157 10:0.3594074 11:0.5365506 12:0.0 13:0.1452217 14:0.12869018 15:1.0 16:0.3173645 17:0.013998555 18:0.002253792 19:8.52578E-6 20:1.3775E-4 21:0.0 
-1.0 -0.0 -1.0 -1.0 -1.0 -1.0 -1.0 -1.0 -0.0 -0.0 -1.0 -1.0 -0.0 -0.0 -0.0 0.9316290231089882 1.0 0.0 0.9265949527739293 0.33861556973426377 0.0 0.0 1.0 1.0 1.0 0.0 0.0 1.0 1.0 0.0 0.8596959237208641 0.0 1.0 1.0 1.0 0.9792428263540587 1.0 0.6097029385215065 0.0 0.0 0.9289306782889009 0.0 0.0 1:1.0 2:0.5619987 3:0.70929986 4:0.8865706 5:0.49420047 6:0.5569144 7:0.0 8:1.0 9:0.040961757 10:0.192291 11:0.30976796 12:0.0 13:0.046858635 14:0.039901096 15:1.0 16:0.24214105 17:0.006433121 18:5.86508E-4 19:7.91971E-5 20:0.0 21:7.89939E-5 
-0.0 -0.0 -0.0 -0.0 -0.0 -0.0 -0.0 -0.0 -0.7414861950764717 -0.0 -0.0 -0.0 -0.0 -0.0 -0.37521026540228397 0.0 0.0 0.24169266529302502 0.0 0.0 0.0 0.0 0.0 0.0 0.0 0.0 0.0 0.0 0.0 0.0 0.0 0.31764005607190465 0.0 0.0 0.0 0.0 0.0 0.0 0.0 0.0 0.0 0.0 0.03310663949535681 1:0.37187803 2:0.30656117 3:0.54829913 4:0.6452746 5:1.0 6:0.57666534 7:0.0 8:1.0 9:0.17369859 10:0.45358986 11:0.60009396 12:0.0 13:0.18351132 14:0.17131837 15:1.0 16:0.37074816 17:0.002380876 18:2.56629E-4 19:6.87265E-5 20:0.0 21:6.88137E-5 
-0.0 -0.0 -0.0 -1.0 -0.6730349893605575 -0.0 -0.0 -0.0 -0.0 -0.0 -0.0 -0.0 -0.0 -0.0 -0.0 0.0 0.0 0.0 0.0 0.6613844302657362 0.0 0.0 0.0 0.0 0.0 0.0 0.0 0.0 0.0 0.0 0.0 0.0 0.0 0.0 0.0 0.0 0.0 0.0 0.0 0.0 0.0 0.0 0.0 1:0.5250424 2:0.39820102 3:0.6614864 4:0.7954733 5:1.0 6:0.6607215 7:0.0 8:1.0 9:0.13285235 10:0.37606433 11:0.53374827 12:0.0 13:0.14424399 14:0.12932606 15:1.0 16:0.33407393 17:0.002561228 18:2.68917E-4 19:1.67122E-5 20:0.0 21:1.66019E-5 
-1.0 -0.2540245764152813 -0.0 -0.0 -0.0 -0.0 -0.0 -0.0 -1.0 -0.12356997627086602 -0.0 -0.0 -0.0 -1.0 -0.10419321900643745 0.0 0.0 1.0 0.0 0.0 0.0 1.0 0.0 1.0 0.0 0.0 0.2984271643574765 0.0 0.0 0.5625361128308703 0.0 1.0 1.0 0.0 0.0 0.0 0.0 0.0 0.0 0.0 0.0 0.978121932117913 0.19179241665191493 1:0.14320667 2:0.14683616 3:0.31997424 4:0.36216012 5:1.0 6:0.39502513 7:0.0 8:1.0 9:0.3422024 10:0.69627863 11:0.81594807 12:0.0 13:0.34852922 14:0.34595773 15:1.0 16:0.47695783 17:0.001503455 18:8.52636E-4 19:5.72323E-7 20:3.2149E-4 21:0.0 
-0.1725491403050211 -0.0 -0.0 -1.0 -1.0 -0.0 -0.6545150774100004 -0.0 -0.0 -0.0 -0.0 -0.0 -0.0 -0.0 -0.0 0.0 0.5826079902240289 0.0 0.0 1.0 0.0 0.0 0.0 0.05157845260183169 0.0 0.0 0.0 0.0 0.0 0.0 0.0 0.015083496088835835 0.11794998296317785 0.0 0.0 0.0 0.12155216354733467 0.0 0.0 0.0 0.0 0.021878067882087016 0.0 1:0.9238099 2:0.5693732 3:0.79161596 4:1.0 5:0.7502043 6:0.69216955 7:0.0 8:1.0 9:0.06659376 10:0.2356824 11:0.3928616 12:0.0 13:0.0774449 14:0.06413053 15:1.0 16:0.2591305 17:0.010987612 18:0.001078683 19:6.00224E-5 20:0.0 21:5.84722E-5 
-1.0 -0.3205290468685027 -1.0 -1.0 -1.0 -1.0 -1.0 -1.0 -0.5732438080741572 -0.284962070787416 -1.0 -1.0 -0.315744173374024 -0.46493673489392684 -0.9831762005717808 -1.0 1.0 0.5599294648810406 1.0 1.0 0.28631993093993247 0.35473050653220595 1.0 1.0 1.0 0.286068806906053 0.3069478721364498 1.0 1.0 0.4058251545993846 1.0 1.0 1.0 1.0 1.0 1.0 1.0 1.0 0.2516242709273903 0.30648934544642037 1.0 0.6736043110069946 0.9109411369160721 1:1.0 2:0.33583197 3:0.2758861 4:0.41472968 5:0.070009224 6:0.16988368 7:0.0 8:1.0 9:0.010957443 10:0.056018528 11:0.16435528 12:0.0 13:0.014010507 14:0.006901443 15:1.0 16:0.12186883 17:0.005927586 18:1.72198E-4 19:1.01052E-5 20:0.0 21:1.01547E-5 
-1.0 -0.0 -1.0 -1.0 -1.0 -1.0 -1.0 -1.0 -0.0 -0.0 -1.0 -1.0 -0.31232610360521795 -0.0 -0.0 -0.8519288027202658 -1.0 0.0 1.0 0.26492715756830587 0.28357587597843925 0.0 1.0 1.0 1.0 0.22357056274553416 0.0 1.0 1.0 0.0 1.0 0.08614471725564479 0.606831594648043 1.0 1.0 0.0 1.0 1.0 0.0 0.0 1.0 0.0 0.0 1:1.0 2:0.37751052 3:0.3278121 4:0.42902544 5:0.079585835 6:0.18527816 7:0.0 8:1.0 9:0.007411295 10:0.08293945 11:0.14571293 12:0.0 13:0.008800609 14:0.007123488 15:1.0 16:0.16184281 17:0.003177344 18:3.26735E-4 19:5.58951E-5 20:0.0 21:5.59767E-5 
-1.0 -0.32325185417797125 -1.0 -1.0 -1.0 -1.0 -1.0 -1.0 -0.5797251600381781 -0.28683361607664865 -1.0 -1.0 -0.0 -0.46903807244498646 -1.0 -1.0 -0.0 0.5771428966360256 0.0 1.0 0.0 0.3583041843164276 1.0 1.0 1.0 0.06126780470719442 0.30913157278677716 1.0 1.0 0.41233535440678704 0.0 1.0 1.0 1.0 1.0 1.0 1.0 0.22512335197152752 0.2526345437314148 0.30818394515907055 0.0 0.7059321723546587 1.0 1:1.0 2:0.41133335 3:0.3805499 4:0.47932944 5:0.1063469 6:0.22133888 7:0.0 8:1.0 9:0.009015773 10:0.10191579 11:0.1561258 12:0.0 13:0.009447672 14:0.009050637 15:1.0 16:0.18392786 17:0.00125301 18:3.60792E-4 19:4.91891E-8 20:6.629E-5 21:0.0 
-0.0 -1.0 -0.0 -0.0 -0.0 -0.0 -0.0 -0.0 -1.0 -1.0 -0.0 -0.0 -0.0 -0.2670047258950278 -0.0 -0.1921950694562011 -0.0 -0.0 0.0 0.0 0.0 0.13825848847827715 0.0 0.0 0.0 0.5775145566083602 1.0 0.0 0.0 0.0 0.0 0.0 0.0 0.0 0.0 0.0 0.0 0.0 0.0 0.16747056756084613 0.0 0.0 0.0 1:0.028184358 2:0.038101133 3:0.09140843 4:0.11741729 5:1.0 6:0.18723889 7:0.0 8:0.863038 9:0.7257585 10:0.8864697 11:1.0 12:0.0 13:0.7433495 14:0.73489314 15:1.0 16:0.6297432 17:0.40109682 18:0.24413376 19:0.07831178 20:0.18160808 21:0.0 
-0.0 -1.0 -0.0 -0.0 -0.0 -0.0 -0.0 -0.0 -1.0 -1.0 -0.0 -0.0 -0.0 -1.0 -0.0 -0.049497595836823956 -0.0 -0.0 0.0 0.0 0.0 0.8617415115217227 0.0 0.8341539020466852 0.0 1.0 1.0 0.0 0.0 1.0 0.0 1.0 1.0 0.0 0.0 0.0 0.0 0.0 0.39744065287837393 0.6775651256122561 0.0 0.0 0.0 1:5.69247E-4 2:0.001039553 3:0.005768565 4:0.006133076 5:1.0 6:0.025539886 7:0.0 8:0.910786 9:0.9089145 10:0.92569125 11:0.9293642 12:0.0 13:0.9105277 14:0.941765 15:0.4941151 16:1.0 17:0.07085683 18:0.0631306 19:0.019825129 20:0.13374916 21:0.0 
-0.0 -0.6547654090517784 -0.0 -0.0 -0.0 -0.0 -0.0 -0.0 -0.7057782874174651 -0.0 -0.0 -0.0 -0.0 -0.0 -0.0 -0.0 -0.0 -0.0 0.0 0.0 0.0 0.0 0.0 0.0 0.0 0.0 1.0 0.0 0.0 0.14260772141553854 0.0 0.0 0.0 0.0 0.0 0.0 0.0 0.0 0.0 0.15496430682689777 0.0 0.0 0.0 1:0.00928044 2:0.015770337 3:0.04650468 4:0.05812704 5:1.0 6:0.11900612 7:0.0 8:0.8006265 9:0.75634605 10:0.8551588 11:0.89544153 12:0.0 13:0.76238334 14:0.7301863 15:1.0 16:0.8579129 17:0.7215555 18:0.50298804 19:0.36698183 20:0.50739706 21:0.0 
-0.0 -0.0 -0.0 -0.0 -0.0 -0.0 -0.0 -0.0 -1.0 -0.0 -0.0 -0.0 -0.0 -0.0 -0.0 -0.0 -0.0 -0.0 0.0 0.0 0.0 0.0 0.0 0.0 0.0 0.0 0.0 0.0 0.0 0.0 0.0 0.0 0.0 0.0 0.0 0.0 0.0 0.0 0.0 0.0 0.0 0.0 0.0 1:0.047305606 2:0.060047876 3:0.10767475 4:0.15181749 5:1.0 6:0.22927402 7:0.0 8:0.8286747 9:0.69643915 10:0.8767359 11:0.9639954 12:0.0 13:0.7047309 14:0.6755037 15:1.0 16:0.60493296 17:0.8062165 18:0.48848888 19:0.3036101 20:0.36605716 21:0.0 
-0.0 -1.0 -0.5163228844879186 -0.0 -0.0 -0.0 -0.0 -0.0 -1.0 -1.0 -0.0 -0.0 -0.5624112963366685 -0.12040839337772172 -0.0 -0.0 -0.0 -0.0 0.0 0.0 0.5592623241360309 0.0 0.0 1.0 0.0 1.0 1.0 0.0 0.0 1.0 0.0 0.560837079717074 1.0 0.0 0.0 0.0 0.0 1.0 0.6025593471216261 0.0 0.0 0.0 0.0 1:2.07084E-4 2:3.25406E-4 3:0.001972932 4:0.00204281 5:1.0 6:0.012123268 7:0.0 8:0.92736197 9:0.92705435 10:0.93320405 11:0.9338528 12:0.0 13:0.92737657 14:0.9496574 15:0.3261249 16:1.0 17:0.09105645 18:0.07057857 19:0.057013407 20:0.22148672 21:0.0 
-0.0 -0.0 -0.26268252441441736 -0.0 -0.0 -0.0 -0.0 -0.0 -0.0 -0.0 -0.0 -0.0 -0.46782630995714986 -0.0 -0.0 -0.0 -0.0 -0.0 0.0 0.0 0.3893783159604847 0.0 0.0 0.0 0.0 0.43176015837848664 0.0 0.0 0.0 0.0 0.0 0.0 0.16209333213443153 0.0 0.0 0.0 0.0 0.6753307350019361 0.0 0.0 0.0 0.0 0.0 1:0.031763908 2:0.044905912 3:0.07895627 4:0.112307124 5:1.0 6:0.19283248 7:0.0 8:0.73760617 9:0.6710212 10:0.8159117 11:0.8501653 12:0.0 13:0.66992044 14:0.57666475 15:0.7735983 16:0.5705259 17:1.0 18:0.68180704 19:0.8053339 20:0.60812354 21:0.0 
-1.0 -0.3749365595914764 -0.0 -0.36450676246359665 -0.0 -0.0 -0.0 -0.0 -1.0 -1.0 -0.0 -0.0 -0.0 -1.0 -0.960168092428709 -1.0 -0.0 -0.0 0.0 0.0 0.0 1.0 0.0 0.0 0.0 0.0 1.0 0.0 0.0 0.8573922785844613 0.0 0.3813533227385283 0.5658823931419553 0.0 0.0 0.0 0.0 0.0 0.0 0.0 0.0 1.0 0.0 1:0.059720512 2:0.06926426 3:0.14137495 4:0.19133525 5:1.0 6:0.25811234 7:0.0 8:0.87196517 9:0.6252181 10:0.8141463 11:1.0 12:0.0 13:0.65395993 14:0.62860644 15:1.0 16:0.49605426 17:0.34294704 18:0.17200002 19:0.039220523 20:0.101565845 21:0.0 
-1.0 -0.0 -0.7640724512917293 -1.0 -1.0 -0.5369689755557041 -0.6693076317912573 -0.5093495729160367 -1.0 -0.0 -0.4904215419786761 -0.4946830731338917 -0.11835373844678684 -0.6125868807272504 -1.0 -1.0 -0.5599294648810406 -0.5771428966360256 0.5681393480818011 1.0 0.05135935990348447 0.0 0.5098286624361061 0.8656316678407855 0.5134637110499859 0.0 0.0 0.4994200105617794 0.5131176213576908 0.0 0.4867205364589521 1.0 1.0 0.5190827858897081 0.4925153807337683 0.6444511757722136 0.5413143930544232 0.2436311169577381 0.0 0.0 0.5668192925298485 1.0 1.0 1:0.21783863 2:0.1909355 3:0.2610757 4:0.43825692 5:1.0 6:0.45621133 7:0.0 8:0.95786405 9:0.4786933 10:0.7014806 11:0.9972425 12:0.0 13:0.52401584 14:0.44478238 15:1.0 16:0.32087094 17:0.3731443 18:0.16637954 19:0.03286998 20:0.07478861 21:0.0 
-1.0 -0.32270599210166667 -1.0 -1.0 -1.0 -1.0 -1.0 -1.0 -0.5808033613469563 -0.2866830478700884 -1.0 -1.0 -0.31780864018731964 -0.469936129142493 -0.9980612770714257 -1.0 -1.0 -1.0 -0.5681393480818011 1.0 0.2881652317284093 0.35745905968808617 1.0 1.0 1.0 0.28786951229368335 0.3089208988674864 1.0 1.0 0.40939231610427734 1.0 1.0 1.0 1.0 1.0 1.0 1.0 1.0 0.2529699202767542 0.30832975445886895 1.0 0.68168261214833 0.9244712461446506 1:1.0 2:0.32619253 3:0.27199346 4:0.4252533 5:0.07334431 6:0.17259811 7:0.0 8:1.0 9:0.018870853 10:0.058288675 11:0.18263467 12:0.0 13:0.018570201 14:0.00109719 15:1.0 16:0.11626413 17:0.008995449 18:0.002452938 19:3.05631E-6 20:4.22177E-4 21:0.0 
-1.0 -0.0 -0.0 -1.0 -1.0 -0.0 -0.3852237684573571 -0.0 -0.0 -0.0 -0.0 -0.0 -0.0 -0.0 -0.7767930134923514 -1.0 -0.0 -0.26492715756830587 -0.0 -0.0 0.0 0.0 0.0 0.0 0.0 0.0 0.0 0.0 0.0 0.0 0.0 0.3671799828424074 0.28988902073909395 0.0 0.0 0.0 0.0 0.0 0.0 0.0 0.0 0.23826613295026372 0.0 1:0.8040253 2:0.5225469 3:0.77319443 4:1.0 5:0.9165981 6:0.73752517 7:0.0 8:1.0 9:0.09329029 10:0.2639668 11:0.4691154 12:0.0 13:0.110858224 14:0.090058036 15:1.0 16:0.2640246 17:0.012536363 18:0.001379609 19:3.48752E-4 20:0.0 21:3.50909E-4 
-1.0 -0.45576136944627477 -0.1958154038944792 -1.0 -1.0 -0.0 -0.06339126477440682 -0.0 -1.0 -0.3868886536537232 -0.0 -0.0 -0.36457676347197937 -0.7766050369448191 -1.0 -1.0 -0.0 -0.0 -1.0 -0.0 0.3366974940525632 0.5304034860158616 0.0 0.6125720254282165 0.0 0.3627181467541688 0.4222892098043846 0.0 0.0 0.6643164351854742 0.0 1.0 1.0 0.0 0.0 0.0 0.0 0.8347370208778725 0.32558437966259823 0.4125347949238987 0.0 1.0 1.0 1:0.60944504 2:0.43906462 3:0.7026656 4:0.87250996 5:1.0 6:0.69876283 7:0.0 8:1.0 9:0.122177295 10:0.3357105 11:0.5219407 12:0.0 13:0.13784163 14:0.12107998 15:1.0 16:0.3058264 17:0.010572203 18:0.001286802 19:2.44169E-4 20:0.0 21:2.43812E-4 
-0.018634303511263176 -0.0 -1.0 -1.0 -1.0 -0.9344202232435606 -1.0 -0.862905048972757 -0.0 -0.0 -0.7613574346502515 -0.785812781193373 -0.0 -0.0 -0.0 -1.0 -1.0 -1.0 -0.0 -1.0 0.0 0.0 0.8781714670709284 1.0 0.893703660689386 0.0 0.0 0.7427745327733439 0.7979701737450149 0.0 0.7456340949609713 0.0 1.0 0.9377316172861779 0.7722085682226243 1.0 1.0 0.0 0.0 0.0 1.0 0.0 0.0 1:0.8626764 2:0.5417164 3:0.77260303 4:1.0 5:0.8247153 6:0.71229845 7:0.0 8:1.0 9:0.07967474 10:0.2412947 11:0.43456748 12:0.0 13:0.09532161 14:0.076151915 15:1.0 16:0.255545 17:0.009521811 18:0.001128103 19:2.1265E-4 20:0.0 21:2.12671E-4 
-0.5707430626673755 -1.0 -1.0 -0.5642452205780976 -0.34021186885376026 -0.2943400391836267 -0.3027413145588934 -0.28793792963956055 -0.8083548312891826 -0.8334415699337704 -0.28930445857102366 -0.28839581980083867 -1.0 -0.8143111328604394 -0.6377058178075032 -0.6495008046927688 -0.28631993093993247 -0.28357587597843925 -1.0 -0.2881652317284093 -0.3366974940525632 0.7438404039196547 0.2869821794746041 1.0 0.28726439894713135 1.0 0.8169234878831597 0.29254046820016655 0.29278741195425834 1.0 0.28731177908521766 0.9528754740406264 1.0 0.28578328778046325 0.2881456496615708 0.2810829504161239 0.2871876760473573 1.0 0.8571140231720102 0.8019143071847502 0.28769195423521726 0.647975329670674 0.46400137461102936 1:4.45502E-5 2:1.02202E-4 3:9.70316E-4 4:9.94694E-4 5:1.0 6:0.007888402 7:2.27379E-5 8:0.80154 9:0.8014573 10:0.80471927 11:0.8044976 12:0.0 13:0.8007884 14:0.67944914 15:0.00717918 16:0.031681657 17:0.042395163 18:0.04174599 19:1.0 20:0.1785243 21:0.0 
-1.0 -1.0 -0.9879326294584195 -1.0 -0.5263512855432214 -0.3523144013902974 -0.38127250283470876 -0.343353370541971 -1.0 -1.0 -0.338602244178878 -0.33934773939094987 -0.7252604939062105 -1.0 -1.0 -1.0 -0.35473050653220595 -0.3583041843164276 -1.0 -0.35745905968808617 -0.5304034860158616 -0.7438404039196547 0.34364633247017706 1.0 0.34447369865446026 1.0 1.0 0.3434188317030855 0.3465223707113758 1.0 0.33759487147282036 1.0 1.0 0.34596291004509916 0.3390919135187822 0.3682511180399518 0.35110220662460967 1.0 0.0 0.9076990464731546 0.3561328746652508 1.0 0.9616996564121152 1:0.018636996 2:0.029298237 3:0.09205181 4:0.101489656 5:1.0 6:0.17079906 7:0.0 8:0.8889671 9:0.72363424 10:0.9634146 11:0.9994641 12:0.0 13:0.71745497 14:0.7820767 15:1.0 16:0.77920943 17:0.07605405 18:0.078324646 19:0.005709758 20:0.065971725 21:0.0 
-0.32490354216609524 -1.0 -0.0 -0.0 -0.0 -0.0 -0.0 -0.0 -1.0 -1.0 -0.0 -0.0 -0.0 -1.0 -0.19075557754030287 -1.0 -0.0 -0.0 -1.0 -0.0 -0.0 -0.0 0.0 1.0 0.0 1.0 1.0 0.0 0.0 1.0 0.0 1.0 1.0 0.0 0.0 0.0 0.0 0.10732516646689548 1.0 0.09230095352684542 0.0 1.0 0.0 1:0.013576938 2:0.023060838 3:0.08101831 4:0.086468644 5:1.0 6:0.15336284 7:0.0 8:0.89628464 9:0.7513562 10:0.9789724 11:1.0 12:0.0 13:0.74605024 14:0.77284604 15:1.0 16:0.84316415 17:0.013521679 18:0.002358246 19:7.16205E-4 20:0.0 21:7.11274E-4 
-0.7214965113764887 -0.0 -1.0 -0.0 -0.1638505688649231 -1.0 -1.0 -1.0 -0.0 -0.0 -0.0 -1.0 -0.0 -0.0 -0.0 -0.0 -0.0 -0.0 -0.0 -0.0 -0.0 -0.0 -0.0 0.1961637735972803 1.0 0.0 0.0 1.0 1.0 0.0 0.0 0.0 0.0 1.0 0.0 0.0 0.0 0.0 0.0 0.0 0.0 0.0 0.0 1:1.0 2:0.20162797 3:0.105897956 4:0.19928992 5:0.010460108 6:0.053676385 7:0.0 8:1.0 9:0.01151743 10:0.012106036 11:0.094296515 12:0.0 13:0.006759297 14:0.001050494 15:1.0 16:0.055603348 17:0.002202931 18:2.87822E-4 19:4.72836E-8 20:2.96802E-5 21:0.0 
-0.0 -0.0 -1.0 -0.0 -0.0 -0.0 -1.0 -0.4445636932553839 -0.0 -0.0 -1.0 -1.0 -0.0 -0.0 -0.0 -0.0 -0.0 -0.0 -0.0 -0.0 -0.0 -0.0 -0.0 0.0 1.0 0.0 0.0 1.0 0.0 0.0 0.0 0.0 0.0 0.0 0.0 0.0 0.0 0.0 0.0 0.0 0.0 0.0 0.0 1:1.0 2:0.19999766 3:0.10357613 4:0.19505633 5:0.00989178 6:0.05203293 7:0.0 8:1.0 9:0.011238387 10:0.01143506 11:0.09197536 12:0.0 13:0.006473309 14:9.87522E-4 15:1.0 16:0.055372413 17:0.001241989 18:1.71635E-4 19:1.42187E-8 20:1.76188E-5 21:0.0 
-0.0 -0.0 -1.0 -0.0 -0.0 -1.0 -0.0 -0.0 -0.0 -0.0 -1.0 -1.0 -0.31791419139007526 -0.0 -0.0 -0.0 -0.0 -0.0 -0.0 -0.0 -0.0 -0.2869821794746041 -0.0 0.0 0.0 0.01419241891155365 0.0 1.0 1.0 0.0 1.0 0.0 0.0 0.0 1.0 0.0 0.0 1.0 0.0 0.0 0.0 0.0 0.0 1:1.0 2:0.1729878 3:0.07977302 4:0.17292602 5:0.006950698 6:0.042077262 7:0.0 8:1.0 9:0.016038934 10:0.005701403 11:0.090503305 12:0.0 13:0.007155576 14:6.32134E-4 15:1.0 16:0.039513525 17:0.00119926 18:5.77379E-5 19:2.18312E-6 20:0.0 21:2.18581E-6 
-0.0 -0.0 -1.0 -0.0 -0.0 -1.0 -0.0 -0.0 -0.0 -0.0 -1.0 -1.0 -0.0 -0.0 -0.0 -0.0 -0.0 -0.0 -0.0 -0.0 -0.0 -0.0 -0.0 0.0 0.0 0.0 0.0 1.0 1.0 0.0 0.0 0.0 0.0 0.0 1.0 0.0 0.0 0.25130773051732574 0.0 0.0 0.0 0.0 0.0 1:1.0 2:0.18500553 3:0.09123102 4:0.18464743 5:0.008449955 6:0.047023878 7:0.0 8:1.0 9:0.014016892 10:0.008898701 11:0.09267005 12:0.0 13:0.007051562 14:8.33502E-4 15:1.0 16:0.046030387 17:0.002958217 18:3.56815E-4 19:6.9261E-8 20:3.32772E-5 21:0.0 
-1.0 -0.3124951182664199 -1.0 -1.0 -1.0 -1.0 -1.0 -0.5554363067446161 -0.5372727747370233 -0.2793434468909327 -0.0 -1.0 -0.0 -0.44443594542076653 -0.7954778427931634 -1.0 -1.0 -1.0 -0.5098286624361061 -1.0 -0.8781714670709284 -0.0 -0.34364633247017706 1.0 1.0 0.0 0.30048337852354834 0.0 0.0 0.3884693716791204 0.0 0.7796860359325796 1.0 1.0 0.0 1.0 1.0 0.0 0.0 0.3009261921514929 1.0 0.6075335799941844 0.7576509931311084 1:1.0 2:0.25349432 3:0.16011004 4:0.25571644 5:0.02065514 6:0.08106458 7:0.0 8:1.0 9:0.007071158 10:0.027385972 11:0.10544962 12:0.0 13:0.006661902 14:0.00207733 15:1.0 16:0.086081415 17:0.003007803 18:5.59994E-4 19:1.79424E-7 20:7.3799E-5 21:0.0 
-1.0 -0.0 -1.0 -0.34591113044996696 -1.0 -1.0 -1.0 -1.0 -0.0 -0.0 -0.0 -1.0 -0.0 -0.0 -0.0 -0.2675679742321309 -0.0 -1.0 -0.0 -0.0 -0.0 -0.0 -0.0 1.0 1.0 0.2692239008200271 0.0 0.0 0.0 0.0 0.0 0.0 0.17204641889164418 1.0 0.0 0.0 1.0 0.0 0.247635057999103 0.0 0.0 0.0 0.0 1:1.0 2:0.24692231 3:0.15288068 4:0.24740592 5:0.018891692 6:0.07686786 7:0.0 8:1.0 9:0.007277104 10:0.025550919 11:0.10324873 12:0.0 13:0.006547181 14:0.001903559 15:1.0 16:0.082470976 17:0.003269637 18:3.85262E-4 19:1.21147E-7 20:4.20566E-5 21:0.0 
-0.40051081372847286 -1.0 -1.0 -0.10333555999876995 -0.19747882850160908 -0.21896305732292684 -0.28221902640661234 -0.19885196573345076 -1.0 -1.0 -0.1758291009138244 -0.18796200877471414 -0.8887148037773309 -1.0 -0.12972556173034436 -0.09446425760896654 -0.0 -0.0 -1.0 -0.0 -0.005374360338056048 -0.8273299997400986 -0.6087405685357845 -0.1961637735972803 0.20556672695655548 1.0 1.0 0.18296064085310165 0.2011931436006767 1.0 2.959481983827861E-4 1.0 1.0 0.21179909904241545 0.02828145264067743 0.0 0.007355268578715797 1.0 0.0 0.6370939675762689 0.0 0.11327310868458877 0.1099798600766427 1:9.97344E-6 2:5.11579E-5 3:7.90236E-4 4:8.15523E-4 5:1.0 6:0.006880804 7:2.30725E-5 8:0.9425451 9:0.9424656 10:0.9452335 11:0.94549674 12:0.0 13:0.94265836 14:0.9257371 15:0.2474592 16:1.0 17:0.107836016 18:0.09539594 19:0.16458552 20:0.38510135 21:0.0 
-1.0 -0.0 -1.0 -1.0 -1.0 -1.0 -1.0 -1.0 -0.0 -0.0 -1.0 -1.0 -0.24264998474622682 -0.0 -0.16073661560222863 -0.957114194992865 -1.0 -1.0 -0.0 -1.0 -0.36619508726644984 -0.1726700002599014 -0.0 -1.0 1.0 0.27732319346817824 0.0 1.0 1.0 0.0 0.9997040518016173 0.0 0.7652476050632604 1.0 1.0 0.0 1.0 1.0 0.0 0.0 1.0 0.0 0.0 1:1.0 2:0.34991115 3:0.30569175 4:0.4749018 5:0.09902558 6:0.20639181 7:0.0 8:1.0 9:0.015560948 10:0.063279584 11:0.19671002 12:0.0 13:0.020181203 14:0.010254477 15:1.0 16:0.121826686 17:0.011424959 18:0.001949856 19:2.74352E-6 20:1.80494E-4 21:0.0 
-1.0 -0.3657977374886996 -1.0 -1.0 -1.0 -1.0 -1.0 -1.0 -0.7863088507119045 -0.3126805369624781 -1.0 -1.0 -0.0 -0.7290529636638499 -1.0 -1.0 -0.0 -1.0 -0.6997855698874706 -0.0 -1.0 -0.0 -0.3912594314642155 -1.0 1.0 0.0 0.40227324084907734 1.0 1.0 0.5446507837697169 0.0 1.0 1.0 1.0 0.9717185473593226 0.995292290784106 0.9926447314212842 0.06312702719777813 0.0025321293114366184 0.10360336256245085 0.0 0.9563566185703728 0.6487569176356278 1:1.0 2:0.43586215 3:0.4322111 4:0.55772775 5:0.15489809 6:0.27611658 7:0.0 8:1.0 9:0.013441647 10:0.11460667 11:0.18915518 12:0.0 13:0.014958442 14:0.013442081 15:1.0 16:0.18998745 17:0.00224967 18:0.001326234 19:9.58154E-7 20:3.20822E-4 21:0.0 
-0.5283449762340976 -1.0 -0.02987476198274192 -0.45046873782930413 -0.0848520985221848 -0.0 -0.0 -0.0 -1.0 -1.0 -0.0 -0.0 -0.0 -1.0 -0.7095378226674269 -1.0 -0.0 -0.0 -1.0 -0.0 -0.2410025778237107 -0.0 -1.0 -0.0 0.0 1.0 1.0 0.0 0.0 1.0 0.0 1.0 1.0 0.0 0.0 0.004707709215893974 0.0 0.16915620496915137 0.9974678706885634 0.25930266986128014 0.0 0.9303702727450384 0.24126322228772945 1:1.24585E-5 2:5.89668E-5 3:8.77904E-4 4:8.9626E-4 5:1.0 6:0.007325885 7:0.0 8:0.98421794 9:0.9841184 10:0.9874301 11:0.98759377 12:0.0 13:0.9841663 14:0.9881974 15:0.24879634 16:1.0 17:8.55528E-4 18:6.07486E-4 19:0.0 20:0.002425703 21:9.93751E-6 
-1.0 -0.3130852269976093 -1.0 -1.0 -1.0 -1.0 -1.0 -0.0 -0.5402758773189386 -0.27975357882772134 -0.0 -1.0 -0.0 -0.44617689946209443 -0.8057210255691122 -1.0 -1.0 -1.0 -0.5134637110499859 -1.0 -0.893703660689386 -0.0 -0.34447369865446026 -1.0 -1.0 0.06121833226022192 0.30093448307911685 1.0 0.0 0.38972716855263717 0.0 0.7908653472549027 1.0 1.0 0.0 1.0 1.0 0.0 0.24815228985704704 0.30131111120012044 1.0 0.6117470692606023 0.7662790749009366 1:1.0 2:0.25522366 3:0.16364363 4:0.2685361 5:0.022948053 6:0.08664187 7:0.0 8:1.0 9:0.008007911 10:0.027030095 11:0.11307957 12:0.0 13:0.00765859 14:0.002284474 15:1.0 16:0.08464976 17:0.002651223 18:2.96778E-4 19:5.60119E-8 20:3.10011E-5 21:0.0 
-0.7515574139052421 -0.0 -1.0 -0.0 -0.23083597911532927 -1.0 -1.0 -1.0 -0.0 -0.0 -1.0 -1.0 -0.0 -0.0 -0.0 -0.0 -0.0 -0.0 -0.0 -0.0 -0.0 -0.0 -0.0 -1.0 -0.20556672695655548 0.0 0.0 1.0 1.0 0.0 0.0 0.0 0.0 1.0 1.0 0.0 0.0 0.2513328800381568 0.0 0.0 0.0 0.0 0.0 1:1.0 2:0.23053695 3:0.13748826 4:0.24582084 5:0.017925723 6:0.07425834 7:0.0 8:1.0 9:0.010481697 10:0.019199086 11:0.11154904 12:0.0 13:0.008241853 14:0.001799809 15:1.0 16:0.06881727 17:0.003192238 18:5.93336E-4 19:9.63254E-8 20:7.05291E-5 21:0.0 
-1.0 -0.0 -1.0 -0.35384464461349396 -1.0 -1.0 -1.0 -1.0 -0.0 -0.0 -1.0 -1.0 -0.0 -0.0 -0.0 -0.2692393360938998 -0.0 -1.0 -0.0 -0.0 -0.0 -0.0 -0.0 -1.0 -1.0 0.0 0.0 1.0 1.0 0.0 0.0 0.0 0.17210797808684536 1.0 0.0 0.0 1.0 0.0 0.0 0.0 0.0 0.0 0.0 1:1.0 2:0.23556733 3:0.14340809 4:0.2514044 5:0.019027654 6:0.07708921 7:0.0 8:1.0 9:0.010173763 10:0.021105304 11:0.112696685 12:0.0 13:0.008295828 14:0.001898534 15:1.0 16:0.07155631 17:0.004265873 18:4.59777E-4 19:1.32184E-7 20:4.50092E-5 21:0.0 
-0.0 -0.0 -1.0 -0.0 -0.0 -1.0 -1.0 -1.0 -0.0 -0.0 -1.0 -1.0 -0.31792139048669515 -0.0 -0.0 -0.0 -0.0 -0.0 -0.0 -0.0 -0.0 -0.28726439894713135 -0.0 -1.0 -0.0 0.22274097185008843 0.0 1.0 1.0 0.0 1.0 0.0 0.0 0.0 1.0 0.0 0.0 1.0 0.0 0.0 0.0 0.0 0.0 1:1.0 2:0.22009721 3:0.12737131 4:0.23928766 5:0.01638619 6:0.070438184 7:0.0 8:1.0 9:0.01250187 10:0.015993262 11:0.1133214 12:0.0 13:0.008949506 14:0.001605961 15:1.0 16:0.061313067 17:0.003815205 18:4.43226E-4 19:2.19543E-8 20:4.98769E-5 21:0.0 
-0.0 -1.0 -0.24662695822037842 -0.0 -0.0 -0.0 -0.0 -0.0 -0.7264909061514175 -1.0 -0.0 -0.0 -0.3007236646254497 -0.7814661098430525 -0.0 -0.0 -0.0 -0.0 -1.0 -0.0 -0.0 -0.0 -0.7919404857611608 -0.0 -0.8951922063136379 -0.0 1.0 0.0 0.0 1.0 0.0 1.0 1.0 0.0 0.0 0.0 0.0 0.0 0.40288924118089775 0.0 0.0 0.0 0.0 1:5.94982E-6 2:1.3511E-5 3:2.21207E-4 4:2.22542E-4 5:1.0 6:0.002870397 7:4.5907E-6 8:0.99674565 9:0.9967358 10:0.9976046 11:0.997594 12:0.0 13:0.99666494 14:0.9958507 15:0.15176378 16:1.0 17:0.002613558 18:6.62798E-4 19:1.84445E-4 20:0.0 21:1.95167E-4 
-0.2240408207905174 -0.5613207090474375 -1.0 -0.24060892625419122 -0.1539411050827039 -0.17311697278218302 -0.1722662141404639 -0.1682326732722976 -0.23779674285684402 -0.0 -0.172956692585681 -0.1703991241066852 -1.0 -0.25123055777101116 -0.24911007933599408 -0.24967923190688415 -0.15936347959227307 -0.15273850329498173 -0.009274714986846781 -0.1607015129984242 -0.1497697625802795 -1.0 -0.20805951423883914 -0.16494627107661225 -0.1388609377862945 -0.16646509744202212 0.0 0.1743904885840055 0.1731247078905115 0.0 0.16982552161078265 0.13715569342391495 1.0 0.16179768451052057 0.17127628833951344 0.14544217587035393 0.16171896154284018 1.0 0.0 0.0 0.16072141536667148 0.24390915570562 0.1936959538525693 1:9.44779E-5 2:1.44428E-4 3:9.65136E-4 4:9.79804E-4 5:1.0 6:0.00750294 7:6.86085E-5 8:0.84240687 9:0.8423258 10:0.84549814 11:0.84526414 12:0.0 13:0.8416951 14:0.7767308 15:0.02620026 16:0.11345888 17:0.07794705 18:0.07827254 19:1.0 20:0.33634648 21:0.0 
-0.0 -1.0 -0.8991521322468347 -0.0 -0.0 -0.0 -0.0 -0.0 -0.06985906947975315 -0.8459766141305651 -0.0 -0.0 -1.0 -0.0 -0.0 -0.0 -0.0 -0.0 -1.0 -0.0 -0.0 -0.0 -0.0 -0.0 -0.24327004936824584 -0.0 0.9122999108912022 0.0 0.0 0.8918525037986621 0.0 0.06808159792891971 0.3586425751427325 0.0 0.0 0.0 0.0 1.0 0.0 0.07921704481050877 0.0 0.0 0.0 1:1.07456E-4 2:1.44971E-4 3:8.20996E-4 4:8.53968E-4 5:1.0 6:0.006639959 7:5.4408E-5 8:0.89139503 9:0.8913315 10:0.893684 11:0.8939706 12:0.0 13:0.89148736 14:0.87459207 15:0.121623844 16:0.51544976 17:0.15798713 18:0.16465487 19:1.0 20:0.7147385 21:0.0 
-0.5359124495351726 -1.0 -0.0 -0.4698767929998249 -0.20781670646896705 -0.11752357206735 -0.130076265815265 -0.11595986720918956 -1.0 -1.0 -0.11147343810170006 -0.1132649794448281 -0.0 -1.0 -0.6872108776995853 -0.73542338734239 -0.12670532731377995 -0.1320998641577469 -1.0 -0.12716799929525918 -0.2129483841738893 -0.0 -1.0 -0.11847004865496853 -1.0 -0.11749420666828826 1.0 0.11317795626705118 0.11517175470512102 1.0 0.11290527869520316 1.0 1.0 0.12191531390007793 0.11210610283849286 0.1403099971627566 0.12389703685114477 0.30197008410246845 0.5971107588191022 0.9207829551894913 0.12631182457358656 0.75609084429438 0.35522606908705573 1:8.8229E-4 2:0.001036249 3:0.00305104 4:0.003190226 5:1.0 6:0.01469834 7:5.58796E-4 8:0.9603112 9:0.9598553 10:0.96710056 11:0.968796 12:0.0 13:0.9610126 14:0.9788466 15:0.36837572 16:1.0 17:0.051150616 18:0.02004782 19:0.006013677 20:0.038411487 21:0.0 
-0.0 -1.0 -0.3045015030904427 -0.0 -0.0 -0.0 -0.0 -0.0 -1.0 -0.0 -0.0 -0.0 -0.3321004723709862 -1.0 -0.0 -0.2984271643574765 -0.0 -0.0 -1.0 -0.0 -0.0 -0.0 -0.5230032018274251 -0.0 -0.13544511404640697 -0.0 -0.0 0.0 0.0 1.0 0.0 0.0 0.15770376668461528 0.0 0.0 0.0 0.0 1.0 0.0 0.8353597281347462 0.0 0.30047766723434505 0.0 1:7.44694E-4 2:0.002641033 3:0.01650486 4:0.017711371 5:1.0 6:0.053886373 7:0.0 8:0.8907258 9:0.87881315 10:0.9310676 11:0.9399956 12:0.0 13:0.8804677 14:0.8438194 15:0.7143941 16:1.0 17:0.15022773 18:0.12229252 19:0.03718902 20:0.18240322 21:0.0 
-0.0 -1.0 -0.0 -0.0 -0.0 -0.0 -0.0 -0.0 -0.0 -1.0 -0.0 -0.0 -0.0 -0.5602309895587682 -0.0 -0.0 -0.0 -0.0 -0.0 -0.0 -0.0 -0.0 -0.4769967981725749 -0.0 -0.0 -0.0 -0.0 0.0 0.0 0.0 0.0 0.0 0.0 0.0 0.0 0.0 0.0 0.0 1.0 0.0 0.0 0.0 0.0 1:6.66682E-4 2:0.002226954 3:0.014450994 4:0.015274776 5:1.0 6:0.048559453 7:1.26988E-4 8:0.9479808 9:0.9377002 10:0.9866626 11:0.9942929 12:0.0 13:0.93942446 14:0.91049594 15:0.673003 16:1.0 17:0.026875485 18:0.022375094 19:0.001398477 20:0.03494121 21:0.0 
-0.0 -1.0 -0.6389974383082354 -0.0 -0.0 -0.0 -0.0 -0.0 -1.0 -1.0 -0.0 -0.0 -0.44446921423272284 -0.0 -0.0 -0.0 -0.0 -0.0 -1.0 -0.0 -0.0 -0.8169234878831597 -0.0 -0.0 -1.0 -0.0 -1.0 0.0 0.0 1.0 0.0 1.0 1.0 0.0 0.0 0.0 0.0 0.2600662901076533 0.0 0.0 0.0 0.0 0.0 1:6.62616E-4 2:0.002245648 3:0.014421055 4:0.015238324 5:1.0 6:0.04862699 7:9.83385E-5 8:0.90778184 9:0.898099 10:0.9461435 11:0.9516972 12:0.0 13:0.8985005 14:0.86457944 15:0.6647489 16:1.0 17:0.09660704 18:0.08208793 19:0.018658482 20:0.12944299 21:0.0 
-1.0 -0.0 -0.0 -0.9428325324981328 -0.42014990458652945 -0.3064363392600239 -0.3244062288552836 -0.30013923547281723 -1.0 -0.0 -0.29726632345445547 -0.29762268842520656 -0.0 -1.0 -1.0 -1.0 -0.3069478721364498 -0.30913157278677716 -1.0 -0.3089208988674864 -0.4222892098043846 -0.0 -1.0 -0.30048337852354834 -0.0 -0.30093448307911685 -0.0 0.30097522098770646 0.30283868644580886 0.0 0.29649259253070154 0.0 0.0 0.30192055074259416 0.2974340795161974 0.3137539807002056 0.30494209909318465 0.0 0.0 0.16464027186525376 0.3076536237682215 1.0 0.6967942050734652 1:0.002350665 2:0.006164592 3:0.03056722 4:0.033225067 5:1.0 6:0.08180163 7:0.0 8:0.8836718 9:0.8515052 10:0.94465405 11:0.9616484 12:0.0 13:0.85311997 14:0.8130296 15:0.88946605 16:1.0 17:0.13914055 18:0.114813276 19:0.021708675 20:0.1391782 21:0.0 
-0.0 -1.0 -0.0 -0.0 -0.0 -0.0 -0.0 -0.0 -1.0 -1.0 -0.0 -0.0 -0.0 -0.43976901044123184 -0.0 -0.0 -0.0 -0.0 -1.0 -0.0 -0.0 -0.0 -0.0 -0.0 -1.0 -0.0 -0.9122999108912022 0.0 0.0 1.0 0.0 1.0 1.0 0.0 0.0 0.0 0.0 0.0 0.0 0.0 0.0 0.0 0.0 1:6.69774E-4 2:0.002276805 3:0.014600685 4:0.01543207 5:1.0 6:0.04904398 7:8.93018E-5 8:0.9077765 9:0.8978837 10:0.94654423 11:0.95216864 12:0.0 13:0.8982633 14:0.8644242 15:0.6677851 16:1.0 17:0.09546311 18:0.081352904 19:0.018149633 20:0.12770578 21:0.0 
-0.0 -1.0 -0.0 -0.0 -0.0 -0.0 -0.0 -0.0 -0.39882245237368447 -1.0 -0.0 -0.0 -0.0 -0.0 -0.0 -0.0 -0.0 -0.0 -1.0 -0.0 -0.0 -0.0 -0.0 -0.0 -0.26682812680267043 -0.0 -1.0 0.0 0.0 0.0 0.0 0.40762317365283646 0.7649197558492068 0.0 0.0 0.0 0.0 0.0 0.0 0.0 0.0 0.0 0.0 1:5.34242E-4 2:0.001921951 3:0.012973994 4:0.013809936 5:1.0 6:0.04544131 7:1.72279E-4 8:0.93455195 9:0.9260829 10:0.96884954 11:0.9766424 12:0.0 13:0.92819035 14:0.8894432 15:0.6572271 16:1.0 17:0.06000768 18:0.048458148 19:0.006992413 20:0.07785938 21:0.0 
-0.0 -0.0 -1.0 -0.0 -0.0 -1.0 -1.0 -1.0 -0.0 -0.0 -1.0 -1.0 -0.0 -0.0 -0.0 -0.0 -0.0 -0.0 -0.0 -0.0 -0.0 -0.0 -0.0 -1.0 -0.0 -1.0 -0.0 -0.0 0.0 0.0 0.0 0.0 0.0 1.0 0.2045742141585135 0.0 0.0 0.0 0.0 0.0 0.0 0.0 0.0 1:1.0 2:0.120534755 3:0.045258738 4:0.1563669 5:0.004198433 6:0.031872842 7:0.0 8:1.0 9:0.038629916 10:0.005955331 11:0.11238851 12:3.1729E-4 13:0.013145997 14:0.0 15:1.0 16:0.010595082 17:0.010189294 18:5.40594E-4 19:1.73544E-5 20:0.0 21:1.70615E-5 
-0.6329335667470516 -0.0 -1.0 -0.0 -0.0 -1.0 -1.0 -0.0 -0.0 -0.0 -0.0 -1.0 -0.0 -0.0 -0.0 -0.0 -0.0 -0.0 -0.0 -0.0 -0.0 -0.0 -0.0 -1.0 -0.18296064085310162 -1.0 -0.0 -0.0 1.0 0.0 0.0 0.0 0.0 0.0 0.0 0.0 0.0 0.2648466548471822 0.0 0.0 0.0 0.0 0.0 1:1.0 2:0.117464066 3:0.045616508 4:0.1609398 5:0.004498174 6:0.03266452 7:0.0 8:1.0 9:0.04223891 10:0.00916233 11:0.11979233 12:7.8652E-4 13:0.015057794 14:3.88741E-4 15:1.0 16:0.008898857 17:0.014533551 18:0.001169651 19:3.22948E-6 20:0.0 21:1.91412E-6 
-1.0 -0.31257316832621085 -1.0 -0.5769875850730741 -1.0 -1.0 -1.0 -1.0 -0.5341311011431928 -0.27994954354601637 -1.0 -1.0 -0.32403738938745985 -0.4440570033826238 -0.7166083557286116 -0.19194325455111666 -0.0 -1.0 -0.4994200105617794 -0.0 -0.0 -0.29254046820016655 -0.3434188317030855 -1.0 -1.0 -1.0 -0.28756844485105665 -0.30097522098770646 1.0 0.385907538394029 0.0 0.6852086227170411 0.1518184973361479 1.0 0.7954257858414865 0.0 1.0 1.0 0.24892449888059176 0.3016780831791376 0.0 0.5827974387260964 0.6935321159069775 1:1.0 2:0.13063225 3:0.05957886 4:0.18407482 5:0.006604274 6:0.040264104 7:0.0 8:1.0 9:0.039211225 10:0.013565489 11:0.13119416 12:0.001088293 13:0.016633285 14:8.52258E-4 15:1.0 16:0.012791298 17:0.022190604 18:0.00289627 19:6.56492E-6 20:3.18801E-5 21:0.0 
-1.0 -0.0 -1.0 -0.6240664582081203 -1.0 -1.0 -1.0 -1.0 -0.0 -0.0 -1.0 -1.0 -0.0 -0.0 -0.0 -1.0 -1.0 -1.0 -0.0 -1.0 -0.7427745327733439 -0.0 -0.0 -1.0 -1.0 -1.0 -0.0 -0.0 1.0 0.0 1.0 0.0 1.0 1.0 1.0 1.0 1.0 0.0 0.0 0.0 1.0 0.0 0.0 1:1.0 2:0.14585601 3:0.06595301 4:0.18047705 5:0.006733806 6:0.04138582 7:0.0 8:1.0 9:0.029650778 10:0.007993274 11:0.11513468 12:5.44615E-5 13:0.012271725 14:2.58213E-4 15:1.0 16:0.020573916 17:0.013519077 18:6.67217E-4 19:3.44574E-5 20:0.0 21:3.41444E-5 
-1.0 -0.31477742116765206 -1.0 -1.0 -1.0 -1.0 -1.0 -1.0 -0.5448176828820209 -0.2814676232817715 -1.0 -1.0 -0.0 -0.44982426177950846 -0.756112248815274 -1.0 -1.0 -1.0 -0.5131176213576908 -1.0 -0.7979701737450149 -0.0 -0.3465223707113758 -1.0 -1.0 -1.0 -0.2882964625956326 -0.30283868644580886 -1.0 0.39065968177293053 0.0 0.7273664560826812 1.0 1.0 0.0 1.0 1.0 0.0 0.24992944056804353 0.30334602064530886 1.0 0.5997819544189508 0.7275925449811981 1:1.0 2:0.16403736 3:0.09137723 4:0.22854568 5:0.01289908 6:0.059134103 7:0.0 8:1.0 9:0.033601906 10:0.01937364 11:0.14625643 12:0.001294524 13:0.018517628 14:0.002118019 15:1.0 16:0.023881106 17:0.030399352 18:0.001218252 19:5.71296E-7 20:8.71331E-5 21:0.0 
-0.6972594607243507 -0.0 -1.0 -0.24133218840063966 -1.0 -1.0 -1.0 -1.0 -0.0 -0.0 -1.0 -1.0 -0.3242023096347712 -0.0 -0.0 -0.22538919615759978 -0.0 -1.0 -0.0 -0.0 -0.0 -0.29278741195425834 -0.0 -1.0 -1.0 -1.0 -0.0 -0.0 -1.0 0.0 0.0 0.0 0.16910307752388762 1.0 1.0 0.0 0.0 0.265882163824015 0.0 0.0 0.0 0.0 0.0 1:1.0 2:0.14983143 3:0.07774018 4:0.20908654 5:0.009703222 6:0.05086234 7:0.0 8:1.0 9:0.036723677 10:0.017272063 11:0.1401753 12:0.001615763 13:0.01820307 14:0.001838285 15:1.0 16:0.018518435 17:0.027968975 18:5.04293E-4 19:1.31645E-7 20:3.1736E-5 21:0.0 
-1.0 -0.0 -1.0 -0.0 -0.011769828831704326 -1.0 -1.0 -1.0 -0.0 -0.0 -1.0 -1.0 -0.0 -0.0 -0.0 -0.0 -0.0 -0.0 -0.0 -0.0 -0.0 -0.0 -0.0 -1.0 -0.20119314360067664 -1.0 -0.0 -0.0 -1.0 0.0 1.0 0.0 0.0 1.0 1.0 0.0 1.0 1.0 0.0 0.0 0.0 0.0 0.0 1:1.0 2:0.14996943 3:0.07742952 4:0.20816095 5:0.009622784 6:0.050593402 7:0.0 8:1.0 9:0.036418647 10:0.016846485 11:0.13918062 12:0.001557812 13:0.01795882 14:0.001795295 15:1.0 16:0.018684361 17:0.02727573 18:5.02687E-4 19:1.34317E-7 20:3.17329E-5 21:0.0 
-0.22348932217338804 -1.0 -0.6335218502630536 -0.0 -0.0 -0.0 -0.0 -0.0 -1.0 -1.0 -0.0 -0.0 -0.816442935936713 -1.0 -0.17830282479835455 -0.5625361128308703 -0.0 -0.0 -1.0 -0.0 -0.0 -0.8757454774195084 -0.0 -0.0 -0.719843096217456 -0.0 -1.0 -1.0 -0.0 -0.0 0.0 0.5872907980489427 1.0 0.0 0.0 0.0 0.0 1.0 0.0 0.3621576922285551 0.0 0.5654053326216901 0.0 1:3.29953E-4 2:6.87376E-4 3:0.004481245 4:0.004622248 5:1.0 6:0.021486409 7:2.21576E-4 8:0.8899068 9:0.888678 10:0.9034406 11:0.90396255 12:0.0 13:0.8881735 14:0.8579837 15:0.42245534 16:1.0 17:0.17534286 18:0.17450847 19:0.18282725 20:0.42756116 21:0.0 
-1.0 -1.0 -0.587430396930143 -1.0 -0.6587419615927521 -0.3991161800812005 -0.4412473484877123 -0.38798335939640105 -1.0 -1.0 -0.3806174149160973 -0.3822802870303797 -0.16733534466783842 -1.0 -1.0 -1.0 -0.4058251545993846 -0.41233535440678704 -1.0 -0.40939231610427734 -0.6643164351854742 -0.12425452258049163 -1.0 -0.3884693716791204 -0.8248076875522609 -0.38972716855263717 -0.8918525037986621 -1.0 -0.385907538394029 -0.39065968177293053 0.37915592801048753 1.0 1.0 0.3921060754124919 0.3814235143592818 0.429461553565747 0.3998216090954338 0.32152103998592074 0.0 0.31353308891706094 0.4078352789940341 1.0 1.0 1:0.03852391 2:0.053365607 3:0.15224154 4:0.1629183 5:1.0 6:0.23412819 7:0.0 8:0.9565799 9:0.61672866 10:0.97479296 11:0.9980403 12:0.0 13:0.60613656 14:0.6389277 15:1.0 16:0.68593806 17:0.009921221 18:0.003969523 19:2.52031E-5 20:0.001988062 21:0.0 
-0.0 -1.0 -0.0 -0.0 -0.0 -0.0 -0.0 -0.0 -1.0 -1.0 -0.0 -0.0 -0.0 -1.0 -0.0 -0.0 -0.0 -0.0 -1.0 -0.0 -0.0 -0.0 -1.0 -0.0 -1.0 -0.0 -1.0 -1.0 -0.0 -0.0 0.0 1.0 1.0 0.0 0.0 0.0 0.0 0.17475963361272667 1.0 0.324309218854384 0.0 0.0 0.0 1:1.83832E-4 2:4.43621E-4 3:0.00344475 4:0.003583631 5:1.0 6:0.01819451 7:0.0 8:0.9137338 9:0.91288453 10:0.92433053 11:0.9252668 12:0.0 13:0.9128454 14:0.9134862 15:0.40220407 16:1.0 17:0.13586858 18:0.10135945 19:0.07879755 20:0.23281603 21:0.0 
-1.0 -0.3078674772707375 -1.0 -1.0 -1.0 -1.0 -1.0 -1.0 -0.5206807232318521 -0.276017320736771 -1.0 -1.0 -0.31829228002657817 -0.43469628245552017 -0.711141311003958 -1.0 -1.0 -1.0 -0.4867205364589521 -1.0 -0.7456340949609713 -0.28731177908521766 -0.33759487147282036 -1.0 -1.0 -1.0 -0.2827308003059858 -0.29649259253070154 -1.0 -1.0 -0.37915592801048753 0.6831127602007404 1.0 1.0 1.0 1.0 1.0 1.0 0.24566106998079945 0.29732277266564416 1.0 0.5734317921784912 0.686083428351578 1:1.0 2:0.1686033 3:0.07594724 4:0.1736492 5:0.006889875 6:0.04190703 7:0.0 8:1.0 9:0.017964387 10:0.004203056 11:0.093810886 12:0.0 13:0.007806286 14:5.8364E-4 15:1.0 16:0.036066458 17:3.49426E-4 18:2.49166E-5 19:3.91116E-7 20:0.0 21:3.91265E-7 
-1.0 -1.0 -0.0 -0.674805790566636 -0.11801905623799099 -0.0 -0.0 -0.0 -1.0 -1.0 -0.0 -0.0 -0.0 -1.0 -1.0 -1.0 -0.0 -0.0 -1.0 -0.0 -0.3671799828424073 -0.0 -1.0 -0.0 -1.0 -0.0 -1.0 -1.0 -0.0 -0.0 -1.0 -0.0 1.0 0.0 0.0 0.0 0.0 0.05497083069184937 0.3658261029169204 0.27373414399187085 0.0 1.0 0.26227744754815296 1:0.001071921 2:0.001555476 3:0.006440117 4:0.006717645 5:1.0 6:0.026321515 7:8.28738E-4 8:0.951864 9:0.9497853 10:0.96856993 11:0.97158194 12:0.0 13:0.95103043 14:0.9557034 15:0.48531124 16:1.0 17:0.018077964 18:0.016084654 19:0.001204053 20:0.03444063 21:0.0 
-1.0 -0.3951255491934681 -0.8713408971501387 -1.0 -1.0 -0.7210157753675074 -1.0 -0.6667782358045036 -1.0 -0.3482418203297385 -0.5889905228138063 -0.6076258619990266 -0.18344865754439915 -0.9360706585801206 -1.0 -1.0 -0.9101439958029243 -1.0 -0.9421904024556023 -0.909016190991195 -1.0 -0.15128898810692504 -0.3672262613898413 -0.6781288741158492 -1.0 -0.6897260722295235 -0.20523729135283467 -0.40762317365283635 -0.5723698521156285 -0.6167440832232497 -0.5872907980489427 -0.5763784688924923 1.0 0.7226404650142435 0.5970198281832759 0.9783184710542581 0.8078742320238562 0.5400673228253515 0.0 0.07892784306710411 0.9114701343967908 1.0 0.7377225524518471 1:0.7570886 2:0.50868 3:0.77484536 4:0.9866443 5:0.9762132 6:0.74755013 7:0.0 8:1.0 9:0.102747776 10:0.29134157 11:0.4862348 12:0.0 13:0.11919146 14:0.10197333 15:1.0 16:0.27838182 17:0.018463602 18:0.002130269 19:2.07352E-4 20:0.0 21:2.1195E-4 
-0.01922240343470148 -1.0 -0.7992731983364931 -0.0 -0.22305038310203518 -0.10433666541244921 -0.1248376962107414 -0.10224550947694969 -1.0 -1.0 -0.10616357012054857 -0.10496486054076436 -0.7375488151157442 -1.0 -0.0 -0.3327235521607405 -0.08985600419707576 -0.08614471725564479 -1.0 -0.09098380900880502 -0.0 -0.8015864859337015 -0.6327737386101586 -0.10155716181673041 -1.0 -0.10113927502537923 -1.0 -1.0 -0.11283877060141255 -0.11062237285943155 -1.0 -0.10673429130824807 1.0 0.09958332031578022 0.10581390822259563 0.02168152894574199 0.09658757898500585 1.0 0.6341738970830796 0.647338012941025 0.08852986560320913 0.0 0.0 1:7.89919E-4 2:0.00106628 3:0.004225695 4:0.004400698 5:1.0 6:0.019501442 7:6.27796E-4 8:0.94108003 9:0.94011724 10:0.9518644 11:0.9538475 12:0.0 13:0.94118255 14:0.9415823 15:0.41746268 16:1.0 17:0.042867165 18:0.039864313 19:0.010202541 20:0.10033369 21:0.0 
-1.0 -0.30831190348331544 -0.1901058738153607 -1.0 -1.0 -0.0 -0.5745794557113901 -0.0 -1.0 -0.3772952419432775 -0.0 -0.0 -0.0 -0.9381364146251765 -1.0 -1.0 -0.0 -0.48005809272995853 -1.0 -0.0 -1.0 -0.0 -0.538385338425427 -0.0 -0.7051799203447938 -0.0 -0.3586425751427325 -0.5021201644613703 -0.0 -0.0 -0.5896742154986648 -0.0 -1.0 0.0 0.0 0.0 0.11060509854889851 0.0 0.009497646887323966 0.14755526260118695 0.0 1.0 0.7981634526076204 1:0.68486 2:0.5293264 3:0.7371327 4:0.82443 5:0.87909746 6:0.6686343 7:0.0 8:1.0 9:0.10490348 10:0.5040891 11:0.4309909 12:0.0 13:0.07376038 14:0.09818405 15:1.0 16:0.41115615 17:0.070581146 18:0.053774368 19:0.001626884 20:0.024087371 21:0.0 
-1.0 -0.0 -1.0 -1.0 -1.0 -1.0 -1.0 -1.0 -0.20913527805616391 -0.0 -0.9977334983025964 -1.0 -0.29682572484845365 -0.0 -0.37779966715520924 -1.0 -0.9253654109146396 -1.0 -0.0 -0.922965803561284 -1.0 -0.042357081989994584 -0.0 -1.0 -1.0 -1.0 -0.0 -0.0 -0.9931201450245452 -1.0 -0.0 -0.8687837015790396 -0.14646507230256864 1.0 1.0 0.9760598879205296 1.0 0.9267817104241618 0.0 0.0 0.9235954107844877 0.13528194817850767 0.0 1:0.93384135 2:0.5743732 3:0.75407845 4:0.85383886 5:0.5504901 6:0.5615413 7:0.0 8:1.0 9:0.044535372 10:0.29712227 11:0.28700957 12:0.0 13:0.030654851 14:0.040825088 15:1.0 16:0.3127041 17:0.03561961 18:0.023822775 19:2.81789E-4 20:0.008405578 21:0.0 
