svm_type c_svc
kernel_type linear
nr_class 45
total_sv 159
rho 0.6384489187713872 -1.6833212809966625 -1.1864937530363129 0.8610396820442294 -1.4165759722255002 0.6625952021259223 -1.8608758890388757 -2.113413982913565 -1.4196751315206704 0.6134474355650217 -1.8326325296126968 -0.48889996016257214 -1.9281546151049507 0.5359414062802608 -1.8968738803961733 0.6514979299614266 -0.7662337826759774 -1.637792373190382 0.6455326075522366 0.6599762765148806 0.3987025041290131 0.5316330407368463 -0.6046687764339871 0.5789261136961469 1.5399264964514963 0.662952051394239 -0.8613597690576321 -0.42766190298985884 0.31140645629004704 -0.6784496821627685 -1.2393258832458953 0.5766760052912431 -1.376825037196159 0.5398135171335278 0.6329524520009843 0.6378653680268601 -1.6238613685474999 0.27676822838666076 0.3716134670761033 -0.45150657534458666 -1.1880578421430084 -0.02333952507407161 -0.49383657511346024 -1.3573230803637912 -0.6605537507728405 -1.2721178531646729 -0.3794200555637837 -1.3213687596173593 1.0198165102948287 -0.5992083265698244 -0.7954215790562097 -0.8384434228717372 0.10259926319122314 -0.6758823855252628 -1.157932465106029 -0.9568664878461917 -0.48186877559192437 -0.5932065019613757 0.9518516063690186 -1.3408087114489844 -0.7055370963115885 1.0532078742980957 1.0882656574249268 -1.2836501598358154 -0.77367954623631 -0.27693828781665936 -0.2515631914138794 0.940502865684081 0.9898507595062256 -1.4388765773946175 -0.46399635392946315 -0.5226355418047791 -1.0527148246765137 -0.645560741058544 -1.0505812168121338 -0.6783606027297692 -1.165138840675354 -0.9685989618301392 -1.0040835015283722 -0.6782092250518057 0.6924798488616943 -1.0891755819320679 -0.9730454683303833 -0.6337740163696935 -0.9071554778015416 -0.9872044324874878 -0.6656334882866248 0.5019358903367963 1.3076853552799461 0.3350831523473633 0.6483314668778888 1.9400860645396554 0.5053322781489166 1.2931671643999305 0.6521841130486725 -1.1526523311575239 1.2053124904632566 0.5146106000919732 0.9732631597419694 1.569521309736797 0.6442510401516934 0.7314924896040418 -1.0284141141984668 0.65104283551602 0.6556784160350312 0.5537638057888803 1.5753938101348812 0.9539644807539455 0.6223286666380816 1.398117371730731 0.6500263833767551 0.20615513833203541 0.1171651421976251 1.2971940191831575 0.6373296284859411 -1.125386954365195 0.6254044188953456 -0.764493487768791 0.6182905220280561 0.6508722077729803 0.6534698328511016 0.2030688363156834 0.5365156087120808 0.5381303746134445 0.6557475746024887 -1.1822920784086453 0.6902140094602124 0.6650347725120169 -0.4589262008666992 1.3052779911046073 -0.33530473709106445 1.2711756229400635 -0.3723917596751638 -0.6326344802310588 -0.3171653747558594 1.213949203491211 -0.5281324602068695 0.664973258972168 -0.44227564334869385 1.3310139361291766 -0.288676786237847 1.276360273361206 0.33318114280700684 -0.578114239484083 1.2403295040130615 1.2180770635604858 1.0139864753497472 0.44185254186186074 -0.09577572349065588 1.2653249502182007 1.3275600554268991 1.2701497077941895 0.27811360359191895 -0.3165330688883188 1.3967574437008212 0.4787222146987915 -0.5088978132229027 1.2349425554275513 -0.5107811691846091 1.2598707675933838 1.232069969177246 1.2582520246505737 -0.4894504485058535 1.0527903298823034 0.9972900152206421 0.5994424819946289 -0.499648865332445 1.2108036411650887 0.58933424949646 -0.4834749873838263 -1.3509797615893888 0.5145147428673736 -1.4383893863149795 -1.3938095366998446 -1.4998656434003086 0.5100788495281902 -1.3894187728556602 -1.4981956385782462 -1.4126169531431119 -1.0404266604993484 -1.4847420958636306 0.37985800713093076 -1.4572642950082786 -1.37144285019865 0.5174293728138913 0.5363725679823717 -0.8811385060832023 -0.16432864471690417 -0.3656180488417339 0.141893625065652 1.2108573019504547 0.4194128430933029 -1.463388577965856 -0.7041172797885061 0.3017570690903839 -1.0985213686750215 -1.2549206290839174 -1.1481307429384942 -1.399473594424626 -1.241229734408745 -1.0596710612520217 -1.0924396031506531 -1.339496178226556 0.11294363973172272 -0.7028409238987909 -1.0045065879821777 -1.2024877640341503 -1.4028797315232249 -1.0273562261128888 -1.36339638855716 1.3148586143786645 0.0174866047924076 -0.307297945022583 0.5483178651679299 1.3048287107016843 -0.39142416541375247 0.9192755337854194 -0.1725428616635345 1.4023410976997124 0.4701308725467785 1.3709539468726923 1.172412986711937 -0.463633009817946 1.2773769135371502 1.1680401460089311 1.5728444757476683 1.3901963445494019 0.17017263921979653 1.3968534576109648 1.876148951774388 1.302877301159913 0.2237083911895752 -0.14141960474588905 2.045603866761997 1.408262014389038 -0.38673064212514396 1.2736705541610718 -0.31961474333709106 1.4613859455624545 1.295342270157061 1.3266328947983044 -0.189680175669253 1.5119777581508949 1.4579778462627162 1.1479603035244161 -0.37883553274143067 1.6603385708812706 1.1800244485122977 -0.2356959533701959 -0.5787696653629484 -0.7559557013690257 -0.82037756616684 -0.9993724822998047 -0.663478643281227 -1.1373166794887424 -0.9524593281801602 -0.5594750140055872 -0.5650416801066361 -1.1035536527633667 -1.3260141126593186 -0.6897034298753407 -0.998066782951355 -0.9040377140045166 -1.5056116580963135 -0.7886802762221754 -0.2878729443922328 -1.158197045326233 0.4990820288658142 -1.0207977294921875 -1.4140495327311977 -0.4567647070999612 -0.5271010129336033 -1.0536754131317139 -0.6345051307673468 -1.0762914419174194 -0.6624705856134664 -1.1719075441360474 -1.001546483425107 -1.007198576411176 -0.6605204527452224 -1.5198718508732196 -1.46260666847229 -0.9991856813430786 -0.6231844772852762 -0.902987900790573 -1.0057598060950799 -0.6480721458431213 -0.577347747960745 0.37896814106373544 0.5850016146284269 -2.0180816650390625 0.04605709692489679 -0.04745197296142578 1.3168796970805907 1.039538441870618 0.5735072050229453 0.24419949101246058 -1.574047565460205 0.5837398348819022 0.5895663340506034 0.429664938330428 1.2614271108256652 0.37016850524447725 0.5462411178944102 1.6022417900822266 0.5828466350854127 -0.1373122938181761 -0.4525152656163805 0.6522564888000488 0.5663540831442249 -1.1435813903808594 0.546342607612786 -1.0500648205368286 0.5433280427051317 0.5829542314114804 0.5889169142772788 -0.4116132288327303 0.40430203962381434 0.3723936505654511 0.5896978066310032 -1.1014597415924072 0.925021647427335 0.6022262471239164 -1.085697585814733 0.8742129369951228 0.7652684210252656 -1.0615474710455766 0.6844061774786083 0.7034490108489988 0.8503443026374828 0.8620409918852555 0.7584182197172787 0.7912135577746696 -1.2494268417358396 0.7565192543910666 0.7446550080511798 0.5412156348635827 1.7785455901918206 0.7156758182279078 0.7684767015537279 1.800735678424226 0.7602957828146499 -0.06598973274230979 0.17295537807246011 1.5195025459910037 0.7720253441542126 -1.3442034588089917 0.7593780711164737 -1.1724128895195094 0.7858145320118284 0.759262284256631 0.7772763989807226 -0.10515360086829617 0.7400162258616146 0.6136273808542487 0.7408309568346065 -1.3040821239285818 0.988792924849207 0.7681064364793306 -1.097402772993367 0.8231018443556614 -1.4625086611838043 -0.3079023783708339 -0.6250188409189089 1.489053620995694 0.49762678146362305 0.8340377659909349 0.028328036056416206 -1.548828556940146 0.8118961005849274 0.7764174914945834 0.5836009325982743 1.3925174374107838 0.2857746118608022 0.8840407810527356 1.8060197980558719 0.8200499351419384 -0.35928775482886616 -0.6182324452781424 0.8490473636069333 0.8657244316018368 -1.2992680072784424 0.8702919536225843 -1.367396593093872 0.86681067943573 0.817655292422298 0.8339685475647127 -1.1366957731391096 0.6361377998819384 0.6107383717976622 0.7686517130184904 -1.2391748428344727 1.1504284832859215 0.7901803688455034 -1.2697241306304932 -0.6694011566037914 -1.033475113452843 -0.9488201198031585 -0.5595963520234113 -0.5736839536859137 0.8285458087921143 -1.169708028749827 -0.694928099477478 1.003088719516362 1.014767182586423 -1.3668687741158076 -0.6853513866592186 -0.29594613818277465 -0.35589098930358887 0.8184018524392122 0.8808450698852539 -1.2283225907588724 -0.4743644210980842 -0.6127394993189732 -1.047033429145813 -0.6435233815878096 -1.0766618251800537 -0.667117222183548 -1.1477853059768677 -1.0075273513793945 -1.0335150957107544 -0.6656031164910745 0.501510739326477 -1.2071696519851685 -0.9943589085586584 -0.6325834280134371 -0.8454920307351377 -1.0043531275563873 -0.6531861969171375 1.2351958900570712 0.7199843111792554 1.118901977998194 1.7460980415344238 0.6596993208646648 0.7739983396008283 -0.9472219944000244 0.6661526225040418 0.6706203911670019 0.5784566674080365 1.89452712061094 1.090202831921398 0.639497392145667 1.4392626109658417 0.6652278913900261 0.2627500697203611 0.6723756790161133 1.3646412769810734 0.6533753264273816 -1.0586505699575242 0.6420553894776655 -0.5254602432250977 0.6360993086568456 0.6659059927837485 0.6686725214383702 1.656247615814209 0.5632887825186458 0.5625727948201187 0.6707503876430494 -1.0618915557861328 0.8663014086151545 0.680038734299295 -0.19744586944580078 -0.4213992570701189 1.6297779760081392 0.35198809508643203 1.1296921432164402 0.7597289418244533 -1.3709142851332605 1.0935010771631828 1.110883256993331 1.2768442197523613 0.15528484280433358 0.014629355722614312 1.245068915925929 1.9441979449159 1.1435581005249202 -1.10443656976063 -0.6450576174373893 2.1678590266931796 0.12013125419616699 -1.0784616730540946 1.061714789847098 -1.046111345291138 1.330701709574071 1.069278229061322 1.1150383079252846 -0.543300017216781 1.4210998503018235 1.4335548851419209 0.4795224666595459 -1.029177804955721 0.168096661567688 0.42320430278778076 -0.8788671493530275 1.1981499077740871 0.3878997213925179 0.9876902870295695 0.5688997289074433 -1.2957149862471877 0.9308653817665876 0.8599095970516775 0.846716966372812 1.4270318222071574 0.5418951177025263 1.1026885509490967 1.9330387204977812 0.947442326437906 0.15565916541969227 0.06815531829380024 0.7276477813720703 1.0649181789912845 -1.0395338535308845 1.1041076732559343 -1.1438809027165404 1.0642338991165161 0.9420449098437581 0.9641807237197941 -0.2462270851398597 0.8565286534156954 0.8550047896984028 0.846560358178223 -1.0936638874039968 1.1387466816279939 0.8677847974437395 -1.098816587012684 -1.3654510278133387 0.46962210409764027 -1.5660480783641866 -1.130344503508348 0.5622184237483064 0.5929368211840548 -0.6844863751604067 -0.5107164249754339 -0.10252547233099846 0.26646855242722245 1.1622219922268755 0.5054336984404207 -1.5343953810275561 -0.3581596158676163 0.3750004797001716 -1.0971839908281962 -1.2431471883840701 -1.160375073363181 -1.3882135292949305 -1.2750758305011631 -1.0344222070738005 -1.075823925535306 -0.8523441661289931 0.23075171603197525 -0.5169755859085572 -0.9892349243164062 -1.1913844516578447 -0.9977917521172188 -1.0089705409478333 -1.354846366934196 0.5600597734114405 -0.141432534538187 -1.3629176616668701 0.5704080687386051 0.5727827803241407 0.28618175147980046 1.1741361633725385 0.35780064587166793 0.5323952882212024 1.6482218531023982 0.5704414935365216 -0.5998435020446774 -0.3144249880363381 0.45184896440693983 0.5554805630688551 -1.1420543193817139 0.5297922926857155 -1.1301001555971675 0.5320398875439556 0.5702088033530168 0.5802517302258245 -0.03741168975830078 0.32787127133036553 0.2805694468686001 0.571780206007095 -1.096886157989502 1.0634393487485418 0.5886967695757592 -1.0762530056535304 -1.3283868925124536 -0.6878696872181459 0.22854113578796387 0.30430591106414795 -1.5897700786590576 -0.7861364494593317 -0.271878237380609 -1.1401371955871582 0.9104896783828735 -0.9454817771911621 -1.4358337539171657 -0.45158920524192436 -0.4747395710765232 -1.037011981010437 -0.6308223659058698 -1.0534882545471191 -0.6587454408654377 -1.1600532531738281 -0.944930911064148 -0.9840571880340576 -0.6575299358981049 0.20952975749969482 -1.5350362062454224 -0.9402855634689331 -0.619515839262782 -0.8885089163412845 -0.9493288993835449 -0.6443862639040088 -0.8687234699500014 1.2542044149454104 1.2619267997550285 1.565604320044618 0.20388851580048795 0.041870445289158925 1.4131132253237169 1.952479874357006 1.3281573674342884 -0.9889103943208315 -0.4041824381819526 1.7292501786706291 0.5787169933319092 -0.7139838088860687 1.2054796817559286 -0.8022254336986169 1.5154751392384374 1.2227837035838958 1.2903204382950655 -0.7220807075500486 1.6513580834363655 1.7546036582738054 1.00439190864563 -0.6909640410421796 0.7965150239744221 0.9553602933883667 -0.7490298748016359 0.6913679613366183 0.6920311409738927 0.6241623805122903 1.7326820528902585 0.9677178211139972 0.6767859891871014 1.4014201973431 0.691455433473455 0.32582283210869867 0.7899035344489446 1.5161899200107696 0.6858686005824408 -1.2377705574035645 0.6771571380409523 -0.33454227447509766 0.6776457481197179 0.6916853988746894 0.6964439269794903 1.995297315811221 0.611317037041085 0.6078221970075406 0.691437324421272 -1.2234742641448975 1.5089095830917358 0.7036222775156237 -0.006266593933105469 0.07392442226409912 -1.4758520126342773 -0.7433178805498548 -0.2901217758590603 -1.1910738945007324 0.6324193792414159 -1.0759910345077515 -1.317312833195986 -0.46121432290493136 -0.5922619721716438 -1.0586167573928833 -0.6372177902806508 -1.0953859090805054 -0.6654603087542388 -1.1758371591567993 -0.9997255591650392 -1.0267046689987183 -0.6631618197445905 -0.2357851266860962 -1.4379364252090454 -0.9990566890244452 -0.6258959546756429 -0.8837701578394354 -1.0048564337153016 -0.6513153694258109 -1.4688517312265463 -0.7477694905540329 -0.29286236415452094 -1.2078044414520264 0.5417046805128811 -1.1139754056930542 -1.306199073791504 -0.47050896494666156 -0.6488675967552807 -1.0756168365478516 -0.644118563129675 -1.1205790042877197 -0.6691595453994433 -1.1932162046432495 -1.0342968702316284 -1.0612510442733765 -0.6643617178371687 -0.41100430488586426 -1.4182180166244507 -0.9964379072189331 -0.6331611106752112 -0.9063200956440187 -1.0100063561484771 -0.6545010463632268 -0.988058158362824 -0.22963601198992384 0.9751287698745728 1.5796449013586198 1.578108787536621 -1.6549241542816162 -0.4035900934258517 0.9347753828116656 -0.9140428304672241 -0.5602766452984245 -0.37546277046203613 -0.5487194391998904 -0.6546906232833862 2.557039260864258E-4 -0.10070216655731201 -0.4843809729557558 1.135858416557312 0.1422266960144043 -0.6746408939361572 -0.5510173270894317 -0.47836024182606174 -0.6954853534698486 -0.5095245574676045 -0.9491937391414008 0.8568242973621585 0.8331059317202539 0.7861492610645235 -0.9628763794898987 -1.4401123412584835 0.5337271648614795 0.18240003533853483 -1.3452184670457012 0.7397018672586976 -1.3230774055421617 0.8993183720029992 0.722888362415189 0.7510775472700102 -1.4384742815535687 0.8782767664434054 1.1732826615419922 0.4424748742078538 -1.308294894176707 -0.4268961427908932 0.38981994162912303 -1.2406390207915914 0.2558514193515091 0.7868273109628653 0.2774818170760912 -0.2155590314046975 0.1134331226348877 -0.016292835704164843 0.24930545822129613 -1.1096459237557859 0.26963135356896384 -0.7501705905248741 0.24472789277948842 0.28647166901860294 0.27293191484164914 -0.8881332013788952 0.19823856928332842 0.20642529915576724 0.2884421634805926 -1.1368327373722862 -0.14203698255847985 0.2904934950279474 -0.6159507450416464 1.0207881605238995 1.181104063987732 -1.5310531236711062 -0.44687010977291136 -0.28847165510470346 -0.9964757013051603 -0.6114388832777234 -0.9672554002384237 -0.6385065965027183 -1.0581716299057007 -0.8025953769683838 -0.8621610403060913 -0.6386692794046414 0.9172908067703247 -0.79644775390625 -0.8838269710540771 -0.6002710267493083 -0.8133611947638991 -0.8991438150405884 -0.6239085081621729 -0.86403477191925 -1.8968363279295586 -1.3560352422723083 -1.490777695771454 -1.0032410880636073 -1.457189524858899 -0.9985389325956926 -1.5999562512677656 -1.0799935000966219 -0.9116663951280295 -0.9524459653871494 -1.6519303930530216 -1.9319104572790846 -1.476103134983585 -0.9264749752236507 -1.428519220822596 -1.7437728310187004 -0.9493506773399799 -1.60091460945509 -1.4129670789756532 -0.45951046563784254 -0.5376995991438602 -1.059010624885559 -0.6362364489717102 -1.086552619934082 -0.66483095831067 -1.188159704208374 -0.9708468914031982 -1.0090372562408447 -0.6630860574896991 0.4544649124145508 -1.5275957584381104 -0.9594346284866333 -0.6248957549495184 -0.9085964479222162 -0.9690672159194946 -0.6508619950634688 -0.048694940674002866 2.1676609323140243 0.7240220308303833 -0.27144297076415214 1.3461033403330076 -0.1742330871190667 1.6133997628960344 1.2856432341722088 1.3751032005881632 -0.026764147336375554 1.783941626548767 1.7229999012434418 1.1309282779693604 -0.26758689190974505 1.0710174119784095 1.1208200454711914 -0.08600033750029445 0.7132824049264989 0.442769900294695 -1.1946571840484195 0.4339254647474163 -0.4760322570800781 0.4231156645527696 0.45856934156276347 0.45927319380698184 0.29971216566301595 0.3720664114260008 0.38241589655400926 0.46663194493931287 -1.1771256794743656 0.17830162245973455 0.471950524656973 -0.21470614635983054 -1.1007534738835842 -1.1751830698410166 -1.1591689710139141 -1.4117555618286133 -1.305833737806692 -1.0080384204494728 -1.0589790898337053 -1.305826266474166 -0.0355145243553428 -0.687336425278863 -0.9842664003372192 -1.1169463405388786 -0.6763753047812249 -0.9970037613526823 -1.3672571182250977 -0.6245003461995311 1.0022748003747397 -0.6533867118000296 0.9712409973144531 1.052532434463501 1.0510048866271973 -0.6538088933800003 0.9810372591018677 0.869916558265686 0.1207202672958374 -0.6131689988904494 0.6755942794088755 0.11061203479766846 -0.639506646764328 0.613701705227021 0.49698615074157715 0.6079751915006862 0.6367894160740124 0.6390811365326272 1.4993427026212531 0.5456519696670598 0.5451290333745281 0.6422840822261626 -0.012202262878417969 1.4958458039704636 0.6503154292810528 0.728792667388916 -0.6401515732233676 -0.1500028371810913 0.1586751937866211 0.1236807107925415 -0.6395387669422045 0.9153745174407959 0.5008193254470825 -0.9313312768936157 -0.6024977235362587 -0.7941292792185557 -0.9426243305206299 -0.6247923569496834 0.6362049247945483 0.665338752297023 0.6697505327581632 1.3154946580664746 0.5413993088115671 0.5197702141253414 0.6690046686666578 -0.5091884136199951 1.3664493044533101 0.6804917050813358 0.23180651664733887 0.304925799369812 0.2744501829147339 -0.6371310547663351 0.9956215620040894 0.7523285150527954 -0.7793188095092773 -0.5967368143209388 -0.7832359988275084 -0.8001754283905029 -0.6220845933450034 -0.03662383556365967 -0.6633497730132052 0.7577071189880371 0.16219854354858398 -0.9912325143814087 -0.6254301419080751 -0.8673951277151214 -1.0002126693725586 -0.651178511651858 -0.6691326422692784 0.8199903964996338 0.2534905672073364 -0.9587465524673462 -0.627558321564625 -0.8875736828721127 -0.9710431098937988 -0.6564716237262338 0.5216525241501431 0.48246180294594776 0.6636118484718223 -1.4571803587990577 0.5801969882533646 0.676827720190672 -1.1188900929629282 -1.0430926564517575 -0.8384751349711048 -0.5372070981025469 -0.4018926273015737 -0.8644230365753174 -0.5160699851857224 -0.6396667957305908 -0.5373695132954937 -0.44217962642184633 -0.6558612585067749 -0.47700005090602565 -0.6310639330837536 0.4227974786623562 -0.010108232498168945 -0.654196953954076 1.4504696197852036 0.6386946333328491 0.740994930267334 -0.4587689212944748 -1.1973803553519193 -0.6665580985519538
label 19 46 4 17 22 31 45 5 20 6 11 33 23 34 12 16 41 36 21 38 47 48 8 29 25 10 42 1 2 43 24 28 39 32 13 18 7 15 37 30 27 35 3 9 14
nr_sv 4 3 7 1 5 2 7 4 6 3 3 3 4 3 3 9 5 5 2 5 5 3 7 1 3 11 4 2 4 4 1 1 2 1 2 2 2 3 7 3 1 1 3 1 1
SV
1.0 0.31099871324407574 0.9958764892993542 1.0 1.0 1.0 0.7906999799724617 0.7196034309833262 1.0 1.0 0.2965630487846501 1.0 0.8984895757895772 1.0 0.9656340384746518 1.0 1.0 0.1764675036708762 1.0 1.0 1.0 1.0 0.0768191833499746 1.0 1.0 1.0 1.0 0.2711646263466527 1.0 0.9867629628155737 0.03653642149408059 1.0 0.2076982265249458 1.0 1.0 1.0 0.41590560807698224 1.0 1.0 0.9660489352296102 0.021966021635608467 1.0 0.9587947680273086 0.26214930197951286 1:1.0 2:0.4218274 3:0.4196107 4:0.5729976 5:0.16562222 6:0.28294694 7:0.0 8:1.0 9:0.01627704 10:0.10642168 11:0.21033432 12:0.0 13:0.020129513 14:0.015647162 15:1.0 16:0.17145297 17:0.010486521 18:0.004029969 19:1.11012E-5 20:9.41504E-4 21:0.0 
0.0 1.0 0.0041235107006458134 1.0 0.0 0.0 1.0 1.0 0.1586520080880576 0.0 1.0 0.0 1.0 0.0 1.0 0.0 0.0 0.8235324963291237 0.0 0.0 0.0 1.0 0.0 0.0 0.0 0.0 0.0 1.0 0.0 0.0 0.0 0.0 0.0 0.0 0.0 0.0 1.0 0.0 0.0 0.0 0.0 0.5888350748538682 0.0 0.0 1:9.29507E-5 2:1.33745E-4 3:8.73651E-4 4:8.93512E-4 5:1.0 6:0.006934081 7:6.70445E-5 8:0.99153656 9:0.9914522 10:0.99442714 11:0.9946207 12:0.0 13:0.9915469 14:0.98599976 15:0.24236083 16:1.0 17:0.014596379 18:0.004669173 19:8.21286E-4 20:0.01595342 21:0.0 
0.018080612272723784 1.0 0.0 0.6513603638999684 0.2614797160841611 0.03322979319780366 1.0 0.9041798921543818 1.0 0.01712437743856738 1.0 0.47127625118772354 1.0 0.6485294474526629 1.0 0.04128473240146786 0.3822538769777724 1.0 0.020005515257572895 0.003996723463690869 0.10970298386186164 1.0 0.0 0.060484542701579255 0.8265717627509497 0.026522593397306886 0.14363891632389733 1.0 0.6572956736767301 0.0 0.9634635785059195 0.06188967079654873 0.7923017734750541 0.0599247689273273 0.020842187852656756 0.02080601749527063 1.0 0.079239806935314 0.1126579813279692 0.0 0.9780339783643915 1.0 0.0 0.7378506980204872 1:1.24585E-5 2:5.89668E-5 3:8.77904E-4 4:8.9626E-4 5:1.0 6:0.007325885 7:0.0 8:0.98421794 9:0.9841184 10:0.9874301 11:0.98759377 12:0.0 13:0.9841663 14:0.9881974 15:0.24879634 16:1.0 17:8.55528E-4 18:6.07486E-4 19:0.0 20:0.002425703 21:9.93751E-6 
0.25514309671331636 0.61217181252183 0.0 1.0 0.05736277843059445 0.22167323168586583 0.2437124737448248 0.3762166768622917 0.13818743331821456 0.2305110831034798 0.45016069334460956 0.2135599172828996 0.10151042421042275 0.6550642869941566 0.2007080145391424 0.21608414724940792 0.11630271271051809 0.0 0.22879161955001454 0.24053158716031076 0.17639315829465116 1.0 0.9231808166500254 0.2116218831583386 1.0 0.22966047398097394 0.0752547452178248 1.0 0.29156492355698416 0.013237037184426315 0.0 0.19889140433007738 0.0 0.22156143548628107 0.22715199143721 0.23887504198168946 0.5840943919230179 0.24862046131034365 0.16704385166240304 0.03395106477038967 0.0 0.3466963257632497 0.041205231972691464 0.0 1:1.81845E-4 2:2.66638E-4 3:0.001453714 4:0.00151705 5:1.0 6:0.009945701 7:4.14629E-5 8:0.8388569 9:0.83870745 10:0.8429635 11:0.84305555 12:0.0 13:0.8384066 14:0.7662949 15:0.03315238 16:0.105071515 17:0.10229647 18:0.08750671 19:1.0 20:0.30780783 21:0.0 
-0.27322370898604015 0.0 1.0 0.2613027820651897 0.8893317087775509 1.0 0.0 0.0 0.0 1.0 0.0 0.3832359276750344 0.0 0.2506303452971324 0.0 1.0 1.0 0.0 1.0 1.0 1.0 1.0 0.0 1.0 1.0 1.0 1.0 0.0 1.0 1.0 0.0 1.0 0.0 1.0 1.0 1.0 0.0 1.0 1.0 0.0 0.0 0.38827321472944276 0.0 0.0 1:1.0 2:0.21722768 3:0.14072469 4:0.28428006 5:0.025078515 6:0.08760612 7:0.0 8:1.0 9:0.023583936 10:0.024754949 11:0.15333499 12:8.01791E-4 13:0.017657569 14:0.003745912 15:1.0 16:0.04857567 17:0.02698247 18:0.001875144 19:1.50176E-4 20:0.0 21:1.5176E-4 
-0.0 0.0 0.0 1.0 0.0 1.0 0.0 0.0 0.0 1.0 0.0 0.0 0.0 1.0 0.0 1.0 0.0 0.0 1.0 1.0 1.0 0.0 0.0 1.0 1.0 1.0 0.0 0.0 0.7154545953891405 0.0 0.0 0.0 0.0 0.0 1.0 0.7887532835944885 0.0 1.0 1.0 1.0 0.0 0.0 1.0 0.0 1:1.0 2:0.16999654 3:0.09316983 4:0.23020118 5:0.013848112 6:0.0607114 7:0.0 8:1.0 9:0.032641582 10:0.016660472 11:0.14396895 12:0.001130403 13:0.017999591 14:0.002368466 15:1.0 16:0.026046619 17:0.025236303 18:0.001442078 19:1.71156E-6 20:1.02617E-5 21:0.0 
-1.0 0.31686673122589204 0.0 1.0 0.0 1.0 0.4608102523108923 0.5636089718071806 0.8182868155020229 1.0 0.294016740320281 1.0 0.8158914763258636 1.0 0.6443783236561593 1.0 0.24880440248506389 0.28863518035442604 1.0 1.0 1.0 0.24889478730298722 0.3237948098488927 1.0 1.0 1.0 0.10124735836660226 0.29308422326070765 1.0 0.0 0.2664933530607287 1.0 0.3523144013902974 1.0 0.0 0.21124671640551151 0.4319733317952835 1.0 1.0 0.0 0.26031641853867327 1.0 0.0 0.3930207399179606 1:1.0 2:0.19177815 3:0.12379732 4:0.2984249 5:0.025352454 6:0.08919074 7:0.0 8:1.0 9:0.035079405 10:0.025205402 11:0.1853212 12:0.0 13:0.024772082 14:0.001997357 15:1.0 16:0.029955959 17:0.040579848 18:6.89631E-4 19:1.41906E-5 20:0.0 21:1.52744E-5 
-1.0 -0.0 0.0 0.0 0.0 0.0 0.0 0.629952429700219 0.0 0.0 0.8738006932523961 0.0 0.0 0.0 0.2178446890619402 0.0 0.0 0.0 0.0 0.0 0.0 1.0 0.0 0.0 0.0 0.0 0.0 1.0 0.0 0.0 0.0 0.0 0.0 0.0 0.0 0.0 0.0 0.0 0.0 0.0 0.0 0.0 0.0 0.0 1:6.62616E-4 2:0.002245648 3:0.014421055 4:0.015238324 5:1.0 6:0.04862699 7:9.83385E-5 8:0.90778184 9:0.898099 10:0.9461435 11:0.9516972 12:0.0 13:0.8985005 14:0.86457944 15:0.6647489 16:1.0 17:0.09660704 18:0.08208793 19:0.018658482 20:0.12944299 21:0.0 
-0.8143856192714957 -0.0 0.0 0.0 0.0 0.0 0.4096678521420717 0.0 0.0 0.0 1.0 0.0 0.32255584307456214 0.0 0.0 0.0 0.0 0.6540878010811466 0.0 0.0 0.0 0.15332463810714633 0.0 0.0 0.0 0.0 0.0 0.9369488009871088 0.0 0.0 0.5872349693269405 0.0 0.0 0.0 0.0 0.0 0.0 0.0 0.0 0.0 0.24455172872190992 0.0 0.0 0.0 1:6.66682E-4 2:0.002226954 3:0.014450994 4:0.015274776 5:1.0 6:0.048559453 7:1.26988E-4 8:0.9479808 9:0.9377002 10:0.9866626 11:0.9942929 12:0.0 13:0.93942446 14:0.91049594 15:0.673003 16:1.0 17:0.026875485 18:0.022375094 19:0.001398477 20:0.03494121 21:0.0 
-0.10878490649440987 -0.0 0.0 1.0 0.0 0.0 1.0 1.0 0.5435922933048737 0.0 0.0 0.0 0.0 1.0 1.0 0.0 0.0 0.0 0.0 0.0 0.0 0.81632236158639 0.3044630667224388 0.0 0.4461671614525797 0.0 0.0 0.0 0.0708383733011308 0.0 0.0 0.0 0.0 0.0 0.0 0.0 1.0 0.0 0.0 0.0 0.0 0.4765970632762633 0.0 0.0 1:0.001199673 2:0.003760228 3:0.021012023 4:0.022419555 5:1.0 6:0.0633115 7:0.0 8:0.8539859 9:0.8373599 10:0.9048648 11:0.91035926 12:0.0 13:0.83569044 14:0.7828258 15:0.751295 16:1.0 17:0.21516588 18:0.19926795 19:0.082674205 20:0.28087398 21:0.0 
-0.0 -0.0 0.0 0.0 0.0 0.0 0.3902958788105393 1.0 0.0 0.0 0.0 0.0 0.0 0.0 1.0 0.0 0.0 0.0 0.0 0.0 0.0 0.0 0.0 0.0 0.0 0.0 0.0 0.5150525148310193 0.0 0.0 0.0 0.0 0.0 0.0 0.0 0.0 1.0 0.0 0.0 0.0 0.0 0.0 0.0 0.0 1:7.44694E-4 2:0.002641033 3:0.01650486 4:0.017711371 5:1.0 6:0.053886373 7:0.0 8:0.8907258 9:0.87881315 10:0.9310676 11:0.9399956 12:0.0 13:0.8804677 14:0.8438194 15:0.7143941 16:1.0 17:0.15022773 18:0.12229252 19:0.03718902 20:0.18240322 21:0.0 
-0.0 -0.31686673122589204 0.32562841460977837 0.0 0.43986342100922643 0.3109610233816379 1.0 1.0 1.0 0.31173086352772666 0.0 1.0 0.7579427006453058 0.0 1.0 0.3122439642742454 0.6416389514437215 0.3459121989188534 0.30998213945029895 0.30704334250752463 0.3255901576744935 0.0 0.0 0.317647886827622 0.0 0.310763700837803 0.36861993947543054 0.0 1.0 0.315484753078628 0.0 0.3174294962590734 0.929488518420849 0.3208864715024988 0.31081317777520573 0.3133878158246012 0.6730620054837814 0.34301407135162937 0.32344938155351916 0.30629813046931964 0.0 1.0 0.31210979466910627 1.0 1:0.003327804 2:0.007979468 3:0.0362777 4:0.039277665 5:1.0 6:0.09165013 7:0.0 8:0.8574536 9:0.8171647 10:0.9280518 11:0.940788 12:0.0 13:0.81505567 14:0.76978743 15:0.9205297 16:1.0 17:0.17473845 18:0.16138814 19:0.03742022 20:0.18839388 21:0.0 
-1.0 -0.0 0.0 0.9502099862215585 0.0 0.0 0.0 0.0 0.0 0.0 0.12619930674760393 0.0 1.0 0.3687303815295232 0.0 0.0 0.0 0.0 0.0 0.0 0.0 1.0 0.46924741110187235 0.0 0.518343984714778 0.0 0.0 1.0 0.0 0.0 0.4127650306730595 0.0 0.0 0.0 0.0 0.0 0.32693799451621863 0.0 0.0 0.0 0.7554482712780901 0.6488860279603719 0.0 0.0 1:2.40134E-4 2:8.15659E-4 3:0.006367329 4:0.006685847 5:1.0 6:0.027895998 7:1.63894E-4 8:0.9397084 9:0.9371632 10:0.95858544 11:0.96162856 12:0.0 13:0.93822354 14:0.911522 15:0.50496703 16:1.0 17:0.07065551 18:0.053837474 19:0.014562319 20:0.110756345 21:0.0 
-0.0 -0.0 0.0 0.0 0.0 0.0 1.0 0.0 0.0 0.0 1.0 0.0 0.43426303733595745 0.0 1.0 0.0 0.0 1.0 0.0 0.0 0.0 0.0 0.0 0.0 0.0 0.0 0.0 0.0 0.0 0.0 0.0 0.0 0.07051148157915099 0.0 0.0 0.0 0.0 0.0 0.0 0.0 0.0 0.0 0.0 0.0 1:8.45602E-4 2:0.002786782 3:0.017326856 4:0.01836117 5:1.0 6:0.05496733 7:4.10823E-5 8:0.9410113 9:0.92716557 10:0.98546267 11:0.99456674 12:0.0 13:0.9289168 14:0.90050864 15:0.71752393 16:1.0 17:0.031279616 18:0.026097922 19:0.001678187 20:0.038332086 21:0.0 
-1.0 -1.0 -0.32562841460977837 1.0 1.0 1.0 0.4918453462379968 0.7287610719112552 1.0 1.0 0.30083003036014255 1.0 1.0 1.0 0.7649442964716648 1.0 1.0 0.29581217181025116 1.0 1.0 1.0 1.0 0.3068899502129157 1.0 1.0 1.0 1.0 0.28929840993235306 1.0 1.0 0.2708023012840312 1.0 0.369532403689109 1.0 1.0 1.0 0.4766657318588965 1.0 1.0 1.0 0.264165321514748 1.0 1.0 0.4202559064745272 1:1.0 2:0.46849915 3:0.5168373 4:0.6819181 5:0.25733268 6:0.3684323 7:0.0 8:1.0 9:0.02395348 10:0.14272784 11:0.24603769 12:0.0 13:0.027693588 14:0.022001399 15:1.0 16:0.19716622 17:0.017943166 18:0.005100166 19:2.23994E-5 20:9.27205E-4 21:0.0 
-1.0 -1.0 -0.3169912724383518 -0.9347143830656401 0.6183322089106228 1.0 0.5473342013841017 0.47661089299144227 0.7395926044198644 1.0 0.25603201268893566 1.0 0.6279271504958583 1.0 0.6373088786806461 1.0 0.9777968798789448 0.2588225207611475 1.0 1.0 1.0 1.0 0.0 1.0 1.0 1.0 0.8920252939420522 0.28099129966559583 1.0 0.9852703330579118 0.08252913903190204 1.0 0.22511716570571874 1.0 1.0 1.0 0.40688327138647556 1.0 1.0 1.0 0.06949065614024809 1.0 0.9931032951646973 0.2761896207162337 1:1.0 2:0.14268799 3:0.056074202 4:0.16481657 5:0.005520368 6:0.036505852 7:0.0 8:1.0 9:0.02668671 10:8.00822E-4 11:0.10282868 12:0.0 13:0.010067613 14:2.71998E-4 15:1.0 16:0.021403506 17:2.30039E-4 18:0.001119175 19:4.52428E-5 20:0.0 21:4.52971E-5 
-0.20535205036949208 -1.0 -0.0 -0.0 0.0 1.0 0.0 0.0 0.0 1.0 0.0 0.30506152098338873 0.0 0.9748880047262294 0.0 1.0 0.0 0.0 1.0 1.0 1.0 0.29269742038074625 0.18275483889448219 1.0 1.0 1.0 0.0 0.0 1.0 0.0 0.0 0.9693848185115683 0.0 0.9464939462570603 0.9909660929112405 0.983285640993752 0.0 1.0 1.0 0.0 0.0 0.3417251943717093 0.0 0.0 1:1.0 2:0.10430159 3:0.02944433 4:0.12177322 5:0.002254365 6:0.02190746 7:0.0 8:1.0 9:0.039494857 10:0.00119418 11:0.0909685 12:2.37003E-4 13:0.010069153 14:0.0 15:1.0 16:0.007255419 17:7.27766E-4 18:1.91678E-5 19:2.51323E-10 20:6.53079E-7 21:0.0 
-0.4460083135304763 -0.07864404434426361 -0.6332187137832068 -0.0 0.0 0.05380324491220899 0.0 0.9640340868534124 0.0 0.10140608160797585 0.0 0.0 0.0 0.0 0.1640337652610152 0.0 0.0 0.0 0.0750173161875088 0.09197028548884863 0.0 1.0 0.0 0.0 1.0 0.009276638137697652 0.0 0.8470187603053178 0.0 0.0 0.0 0.0 0.0 0.0 0.0 0.0 1.0 0.05462433011716187 0.0 0.0 0.0 0.0 0.0034668952285059236 0.0 1:9.20799E-5 2:1.09303E-4 3:4.88214E-4 4:4.97521E-4 5:1.0 6:0.004448835 7:5.56978E-5 8:0.9056848 9:0.9056605 10:0.90705603 11:0.90711945 12:0.0 13:0.90566975 14:0.8958081 15:0.09071889 16:0.447637 17:0.13612789 18:0.12824084 19:1.0 20:0.65688676 21:0.0 
-1.0 -0.0 -0.0 -0.0 0.0 0.0 0.15467033980087952 0.0 0.0 0.0 0.38700028393650576 0.0 0.4256765471166102 0.0314791385256927 0.0 0.0 0.0 0.26440901524190563 0.0 0.0 0.0 1.0 0.8172451611055178 0.0 1.0 0.0 0.0 1.0 0.0 0.0 0.0 0.0 0.0 0.0 0.0 0.0 0.17077657274145253 0.0 0.0 0.0 0.0 0.4688929551606243 0.0 0.0 1:6.55421E-6 2:1.04025E-5 3:1.34075E-4 4:1.35215E-4 5:1.0 6:0.002032021 7:2.6356E-6 8:0.9294124 9:0.9294086 10:0.9298812 11:0.9298855 12:0.0 13:0.92939216 14:0.92163926 15:0.05248931 16:0.40821502 17:0.08015783 18:0.08171611 19:1.0 20:0.6419793 21:0.0 
-1.0 -0.18265873772092608 -1.0 -0.06528561693435987 0.25370928869210285 0.18714757230766393 1.0 1.0 0.9952714086489192 0.1507275085002422 1.0 0.46740327116264674 1.0 0.9936328567480779 1.0 0.24290910173788804 0.3032457208620941 1.0 0.16844686773227735 0.15256018163736723 0.16623685910556882 1.0 0.0 0.23863898102764455 0.0 0.23484517588708734 0.11233770036078902 1.0 0.5721455352452123 0.014729666942088215 0.9174708609680979 0.030615181488431675 0.7748828342942813 0.05350605374293971 0.009033907088759396 0.016714359006247986 1.0 0.21269939211095654 0.17731298814183472 0.0 0.9305093438597519 1.0 0.0034298096067967403 0.7238103792837662 1:3.86995E-5 2:6.52385E-5 3:5.95518E-4 4:6.07004E-4 5:1.0 6:0.005491949 7:1.50815E-5 8:0.92319787 9:0.9231537 10:0.92515624 11:0.9252472 12:0.0 13:0.92317444 14:0.91987467 15:0.21400349 16:1.0 17:0.13191837 18:0.13876788 19:0.42704907 20:0.6607557 21:0.0 
-0.38784749126576884 -0.8893317087775509 -0.0 -1.0 -0.0 0.8862476704669117 0.0 0.0 0.7019554879481199 0.8752338621761779 0.0 1.0 0.2591861365551864 0.0 0.0420391465629285 0.9377315655744839 1.0 0.0 0.8521782190007042 0.7613574371696141 1.0 1.0 0.0 1.0 1.0 0.8741783138860103 1.0 0.0 0.8738097349696075 1.0 0.0 1.0 0.0 1.0 0.8677320768826257 0.8940325449703969 0.0 1.0 1.0 0.7456340340093492 0.0 0.6885847691691721 0.7715261689175327 0.0 1:0.8626764 2:0.5417164 3:0.77260303 4:1.0 5:0.8247153 6:0.71229845 7:0.0 8:1.0 9:0.07967474 10:0.2412947 11:0.43456748 12:0.0 13:0.09532161 14:0.076151915 15:1.0 16:0.255545 17:0.009521811 18:0.001128103 19:2.1265E-4 20:0.0 21:2.12671E-4 
-0.9309950032489864 -0.0 -0.43986342100922643 -0.0 -0.8720414976027255 0.0 0.7766050743018426 1.0 1.0 0.0 0.40107577414594564 1.0 1.0 0.908060509794255 1.0 0.0 1.0 0.39468869637246323 0.0 0.0 0.787100007947571 1.0 0.3639561090947496 0.051898878119045054 0.19501051114098117 0.0 1.0 0.3670473318851679 1.0 0.0 0.35170949004369956 0.0 0.5304034863926318 0.12624147152140133 0.0 0.0 0.7673997045772862 0.6280600563068699 0.5487313095965742 0.0 0.34074796795616874 1.0 0.0 0.6356735790970932 1:0.60944504 2:0.43906462 3:0.7026656 4:0.87250996 5:1.0 6:0.69876283 7:0.0 8:1.0 9:0.122177295 10:0.3357105 11:0.5219407 12:0.0 13:0.13784163 14:0.12107998 15:1.0 16:0.3058264 17:0.010572203 18:0.001286802 19:2.44169E-4 20:0.0 21:2.43812E-4 
-0.2549030248836695 -1.0 -0.0 -0.0 -0.0 -0.0 0.0 0.0 0.0 0.0 0.0 0.34145441154934364 0.0 0.0 0.0 1.0 0.23056184085979983 0.0 0.0 0.0 1.0 0.2328534792619678 0.0 1.0 1.0 1.0 0.08713395199389393 0.0 1.0 0.0 0.0 1.0 0.0 1.0 0.0 0.36125954656511694 0.0 1.0 1.0 0.0 0.0 0.36276778023339734 0.0 0.0 1:1.0 2:0.24692231 3:0.15288068 4:0.24740592 5:0.018891692 6:0.07686786 7:0.0 8:1.0 9:0.007277104 10:0.025550919 11:0.10324873 12:0.0 13:0.006547181 14:0.001903559 15:1.0 16:0.082470976 17:0.003269637 18:3.85262E-4 19:1.21147E-7 20:4.20566E-5 21:0.0 
-0.0 -0.0 -0.0 -0.0 -1.0 -0.0 0.0 0.0 0.0 1.0 0.0 0.0 0.0 1.0 0.0 0.0 0.0 0.0 1.0 1.0 0.0 0.0 0.31606517284347535 0.0 1.0 0.0 0.0 0.014880780248344144 0.0 0.0 0.0 0.0 0.0 0.0 1.0 0.0 0.0 0.33551914869609695 0.0 1.0 0.0 0.0 0.9376905588792622 0.0 1:1.0 2:0.1729878 3:0.07977302 4:0.17292602 5:0.006950698 6:0.042077262 7:0.0 8:1.0 9:0.016038934 10:0.005701403 11:0.090503305 12:0.0 13:0.007155576 14:6.32134E-4 15:1.0 16:0.039513525 17:0.00119926 18:5.77379E-5 19:2.18312E-6 20:0.0 21:2.18581E-6 
-1.0 -0.6740772184251131 -0.3109610233816379 -1.0 -0.0 -0.8862476704669117 0.44499432285660967 0.5355361681206228 0.8004316781433799 0.0 0.28858503577940736 1.0 0.8035502749921019 0.7499905103134227 0.6135931440552762 1.0 1.0 0.28343633504919113 0.0 0.0 1.0 1.0 0.0 1.0 1.0 1.0 1.0 0.27117892102700253 1.0 1.0 0.261898551866137 1.0 0.3440105997541941 1.0 0.9643493758606342 1.0 0.42063009971601145 1.0 1.0 0.0 0.2559367813263654 1.0 0.0 0.38258705603786886 1:1.0 2:0.25751165 3:0.16490255 4:0.25994283 5:0.021591855 6:0.08330755 7:0.0 8:1.0 9:0.00673875 10:0.029206434 11:0.10598873 12:0.0 13:0.006591205 14:0.002162605 15:1.0 16:0.08879752 17:0.003495055 18:5.15025E-4 19:1.79813E-7 20:6.61374E-5 21:0.0 
-0.0 -0.0 -0.0 -0.0 -0.0 -0.0 0.0 0.0 0.0 0.0 0.0 0.0 0.0 0.0 0.0 1.0 0.0 0.0 1.0 1.0 1.0 0.0 0.0 1.0 1.0 1.0 0.0 0.0 0.6796349871798698 0.0 0.0 0.0 0.0 0.0 0.0 0.0 0.0 1.0 1.0 0.0 0.0 0.0 0.0 0.0 1:1.0 2:0.22608086 3:0.12969461 4:0.22412679 5:0.014401184 6:0.06535147 7:0.0 8:1.0 9:0.008876063 10:0.018143332 11:0.09860517 12:0.0 13:0.006584862 14:0.001450196 15:1.0 16:0.06989234 17:0.001627198 18:1.90414E-4 19:2.83549E-8 20:1.84747E-5 21:0.0 
-0.0 -0.3259227815748869 -0.0 -0.0 -1.0 -0.0 0.0 0.0 0.0 1.0 0.0 0.0 0.0 0.4831186423109193 0.0 0.0 0.0 0.0 1.0 1.0 0.0 0.0 0.0 0.0 1.0 0.0 0.0 0.0 0.0 0.0 0.0 0.0 0.0 0.0 0.0 0.0 0.0 1.0 0.0 0.0 0.0 0.0 0.0 0.0 1:1.0 2:0.18500553 3:0.09123102 4:0.18464743 5:0.008449955 6:0.047023878 7:0.0 8:1.0 9:0.014016892 10:0.008898701 11:0.09267005 12:0.0 13:0.007051562 14:8.33502E-4 15:1.0 16:0.046030387 17:0.002958217 18:3.56815E-4 19:6.9261E-8 20:3.32772E-5 21:0.0 
-0.0 -0.0 -0.0 -0.0 -0.2409508172198729 -0.0 0.0 0.0 0.0 0.0 0.0 0.0 0.0 0.0 0.0 1.0 0.0 0.0 1.0 1.0 0.0 0.0 0.0 0.0 1.0 0.0 0.0 0.0 0.0 0.0 0.0 0.0 0.0 0.0 0.0 0.0 0.0 1.0 0.0 0.0 0.0 0.0 0.0 0.0 1:1.0 2:0.1926079 3:0.09740844 4:0.19052067 5:0.00921296 6:0.049741834 7:0.0 8:1.0 9:0.01278619 10:0.009945758 11:0.09286889 12:0.0 13:0.006859959 14:9.05596E-4 15:1.0 16:0.05041409 17:0.002031768 18:2.22561E-4 19:3.34476E-8 20:2.08818E-5 21:0.0 
-0.0 -1.0 -0.0 -0.0 -0.0 -0.0 0.0 0.0 0.0 1.0 0.0 0.0 0.0 0.0 0.0 1.0 0.0 0.0 1.0 1.0 0.0 0.0 0.0 0.0 1.0 1.0 0.0 0.0 0.0 0.0 0.0 0.0 0.0 0.0 0.035650624139365816 0.6387404534348831 0.0 1.0 0.0 0.0 0.0 0.0 0.062309441120737774 0.0 1:1.0 2:0.19522789 3:0.09976503 4:0.19299981 5:0.009551143 6:0.050849743 7:0.0 8:1.0 9:0.012379355 10:0.010480719 11:0.093223184 12:0.0 13:0.006819626 14:9.44113E-4 15:1.0 16:0.05193522 17:0.001928381 18:2.1923E-4 19:3.14432E-8 20:2.11313E-5 21:0.0 
-0.2381749871361296 -0.0 -1.0 -0.0 -0.09834199085441124 -0.0 -0.0 1.0 1.0 0.0 1.0 0.16165872603801779 1.0 0.12587731342653494 1.0 0.0 0.05988296941252747 0.0 0.0 0.0 0.0 1.0 0.0 0.0 0.2832966660441773 0.0 0.0 0.0 1.0 0.0 0.0 0.0 0.2660919554762523 0.0 0.0 0.0 0.7300238592459063 0.0 0.0 0.0 0.0 1.0 0.0 0.6648596209369527 1:0.034657273 2:0.04567361 3:0.13124897 4:0.15900445 5:1.0 6:0.22670187 7:0.0 8:0.8923309 9:0.6147813 10:0.82597876 11:1.0 12:0.0 13:0.64821225 14:0.55140007 15:1.0 16:0.5550495 17:0.025608756 18:0.009778226 19:1.22772E-4 20:0.006502676 21:0.0 
-0.7962374665811568 -0.4608102523108923 -0.7999637309526111 -0.4918453462379968 -1.0 -0.7766050743018426 -0.44499432285660967 0.7260482439570967 1.0 0.4473061882813517 0.0 1.0 1.0 1.0 1.0 0.4484070244209016 1.0 0.0 0.44358701946097234 0.4363431284463499 0.48539760621395683 1.0 0.7506232332477412 0.4649367372562023 1.0 0.4458057425275911 0.6101581554131159 0.0 1.0 0.45826939877528955 0.0 0.46069506828484796 0.0 0.4755546778400913 0.44507497782688255 0.45270877772966045 0.0 0.5389914261193081 0.4839647885135222 0.4346962845722969 0.0 1.0 0.44726433366778834 0.0 1:0.04063599 2:0.050748948 3:0.14173084 4:0.17620479 5:1.0 6:0.24142708 7:0.0 8:0.8939989 9:0.5855103 10:0.78437454 11:1.0 12:0.0 13:0.62892157 14:0.5134481 15:1.0 16:0.5094246 17:0.012208215 18:0.003926561 19:2.42986E-5 20:0.002401241 21:0.0 
-1.0 -0.0 -1.0 -0.0 -0.6036625503305697 -0.0 -0.0 1.0 0.0 0.0 1.0 0.0 1.0 0.4419337994791204 1.0 0.0 0.0 1.0 0.0 0.0 0.0 1.0 0.0 0.0 0.0 0.0 0.0 1.0 0.0 0.0 1.0 0.0 0.7339080445237477 0.0 0.0 0.0 1.0 0.0 0.0 0.0 1.0 0.0 0.0 0.3351403790630472 1:0.005582916 2:0.011027349 3:0.046000667 4:0.054402802 5:1.0 6:0.111442715 7:0.0 8:0.8847713 9:0.8207974 10:0.9203229 11:1.0 12:0.0 13:0.8446575 14:0.7908429 15:1.0 16:0.8079754 17:0.034920897 18:0.022762433 19:7.32506E-4 20:0.021516507 21:0.0 
-1.0 -0.0 -1.0 -0.0 -0.0 -0.0 -0.0 0.8537977849101138 0.33367884915059554 0.0 1.0 0.0 0.0 0.0 1.0 0.0 0.0 1.0 0.0 0.0 0.0 0.2358528490540129 0.05204259567009207 0.0 0.0 0.0 0.0 1.0 0.0 0.0 0.0 0.0 0.0 0.0 0.0 0.0 1.0 0.0 0.0 0.0 0.0 0.6078966870279457 0.0 0.0 1:0.017281985 2:0.026412264 3:0.08845673 4:0.10687037 5:1.0 6:0.17394072 7:0.0 8:0.8647191 9:0.69867635 10:0.8560248 11:1.0 12:0.0 13:0.7325782 14:0.6378858 15:1.0 16:0.62557817 17:0.012722706 18:0.006607928 19:5.46794E-5 20:0.004913185 21:0.0 
-1.0 -0.5636089718071806 -0.43466629110041616 -0.7287610719112552 -0.4406449798448547 -1.0 -0.5355361681206228 -1.0 1.0 0.5393785053213622 0.23568406954697174 1.0 1.0 0.41460486083998555 1.0 0.5456434359142739 1.0 0.0 0.5301773154518745 0.5092991664724051 0.7072134427054986 1.0 0.13242681979351362 0.5976475325690742 0.7526935088384058 0.5360369421955998 1.0 0.0 1.0 0.573221692061862 0.040219487086787506 0.5855452364708125 0.24528722451420545 0.6269071147013482 0.5344084065317118 0.5505423184381046 0.3300945822704235 0.8594121763750896 0.707366168270265 0.5048119890096728 0.012246179674485191 1.0 0.5270279677094609 0.4387762380180027 1:0.29464832 2:0.2407603 3:0.29176936 4:0.5288316 5:1.0 6:0.5209235 7:0.0 8:0.96779084 9:0.44719914 10:0.67197 11:0.98048574 12:0.0 13:0.49409276 14:0.4127291 15:1.0 16:0.28950268 17:0.38458762 18:0.16963252 19:0.033220563 20:0.07226591 21:0.0 
-0.0 -0.0 -0.19528613859980284 -0.0 -0.0 -0.0 -0.0 -0.3193527136021797 0.0 0.0 0.0 0.0 0.0 0.0 1.0 0.0 0.0 0.0 0.0 0.0 0.0 0.0 0.0 0.0 0.0 0.0 0.0 0.0 0.0 0.0 0.0 0.0 0.0 0.0 0.0 0.0 0.0 0.0 0.0 0.0 0.0 0.0 0.0 0.0 1:0.047305606 2:0.060047876 3:0.10767475 4:0.15181749 5:1.0 6:0.22927402 7:0.0 8:0.8286747 9:0.69643915 10:0.8767359 11:0.9639954 12:0.0 13:0.7047309 14:0.6755037 15:1.0 16:0.60493296 17:0.8062165 18:0.48848888 19:0.3036101 20:0.36605716 21:0.0 
-1.0 -0.0 -1.0 -0.0 -0.0 -0.0 -0.0 -1.0 0.79699933974272 0.0 1.0 0.2643222117072822 1.0 0.0 1.0 0.0 0.14386778441784218 1.0 0.0 0.0 0.0 1.0 0.0 0.0 0.0 0.0 0.0 1.0 0.7521268338322721 0.0 0.012794372734391669 0.0 0.30970451717127695 0.0 0.0 0.0 0.7522337856219805 0.0 0.0 0.0 0.0 0.4791007605541338 0.0 0.13667840318451704 1:0.03473761 2:0.045293946 3:0.09570996 4:0.12669185 5:1.0 6:0.19841538 7:0.0 8:0.86235005 9:0.73060566 10:0.8955162 11:0.9997439 12:0.0 13:0.7439601 14:0.7300158 15:1.0 16:0.6257129 17:0.59296757 18:0.34904337 19:0.16244397 20:0.26137862 21:0.0 
-0.0 -0.0 -1.0 -0.0 -0.0 -0.0 -0.0 -0.26049331526503067 0.0 0.0 0.5346100850737151 0.0 0.0 0.0 0.8216569244600271 0.0 0.0 0.0 0.0 0.0 0.0 0.1202258569939441 0.0 0.0 0.0 0.0 0.0 0.48354110128856836 0.0 0.0 0.0 0.0 0.0 0.0 0.0 0.0 0.9176716321075963 0.0 0.0 0.0 0.0 0.0 0.0 0.0 1:0.00928044 2:0.015770337 3:0.04650468 4:0.05812704 5:1.0 6:0.11900612 7:0.0 8:0.8006265 9:0.75634605 10:0.8551588 11:0.89544153 12:0.0 13:0.76238334 14:0.7301863 15:1.0 16:0.8579129 17:0.7215555 18:0.50298804 19:0.36698183 20:0.50739706 21:0.0 
-1.0 -0.0 -1.0 -0.0 -1.0 -0.0 -0.0 -1.0 0.34810564907908825 0.0 1.0 0.03054313678115429 1.0 0.8667315688697103 1.0 0.0 0.025868396475679956 1.0 0.0 0.0 0.0 1.0 0.48663015964505996 0.0 0.5229805392015607 0.0 0.0 1.0 0.19197062491561478 0.0 0.9469861401788208 0.0 0.44500825831451757 0.0 0.0 0.0 1.0 0.0 0.0 0.0 0.9877538203255148 1.0 0.0 0.4245453587974803 1:2.07084E-4 2:3.25406E-4 3:0.001972932 4:0.00204281 5:1.0 6:0.012123268 7:0.0 8:0.92736197 9:0.92705435 10:0.93320405 11:0.9338528 12:0.0 13:0.92737657 14:0.9496574 15:0.3261249 16:1.0 17:0.09105645 18:0.07057857 19:0.057013407 20:0.22148672 21:0.0 
-0.0 -0.0 -0.0 -0.0 -1.0 -0.0 -0.0 -0.0 0.0 0.0 0.0 0.0 0.0 0.2380383716092951 0.0 0.0 0.0 0.0 0.0 0.0 0.0 0.0 0.3809430205614264 0.0 0.24378033965962542 0.0 0.0 0.0 0.0 0.0 0.0 0.0 0.0 0.0 0.0 0.0 0.0 0.0 0.0 0.0 0.0 0.0 0.0 0.0 1:0.031763908 2:0.044905912 3:0.07895627 4:0.112307124 5:1.0 6:0.19283248 7:0.0 8:0.73760617 9:0.6710212 10:0.8159117 11:0.8501653 12:0.0 13:0.66992044 14:0.57666475 15:0.7735983 16:0.5705259 17:1.0 18:0.68180704 19:0.8053339 20:0.60812354 21:0.0 
-0.2968394414062722 -0.8182868155020229 -0.0 -1.0 -0.0 -1.0 -0.8004316781433799 -0.33367884915059554 -0.14510498882180817 0.7974796756083627 0.0 1.0 0.3396655580321751 0.0 1.0 0.8313074736460759 1.0 0.0 0.7804819327868588 0.7219470571090263 1.0 1.0 0.0 0.9831761499111369 0.5923840544242478 0.7948555602670454 1.0 0.0 1.0 0.9016550601981694 0.0 0.9561486296183375 0.0 1.0 0.7907040235881264 0.813492955416458 0.0 1.0 1.0 0.7111412715386138 0.0 0.7911829100818644 0.7379605147711308 0.0 1:0.4235421 2:0.33109 3:0.54563695 4:0.699084 5:1.0 6:0.60790664 7:0.0 8:1.0 9:0.1787543 10:0.44458714 11:0.61695343 12:0.0 13:0.19188601 14:0.1724915 15:1.0 16:0.33823818 17:0.046087828 18:0.007041712 19:9.19412E-5 20:0.002271785 21:0.0 
-1.0 -0.0 -0.5435922933048738 -0.0 -0.7348640130687836 -0.7019554879481199 -0.0 -1.0 -1.0 0.0 0.3574213422806713 1.0 1.0 0.6865628450677014 1.0 0.0 1.0 0.34891413197632926 0.0 0.0 0.07246359286688957 1.0 0.0 0.0 0.943656170898504 0.0 0.4450516448052419 0.09414622218748632 1.0 0.0 0.0 0.0 0.0 0.0 0.0 0.0 0.7778977860289649 0.12296641109714695 0.032134103417035195 0.0 0.0 1.0 0.0 0.0 1:0.14304633 2:0.14294596 3:0.30283454 4:0.36188108 5:1.0 6:0.39293578 7:0.0 8:1.0 9:0.36543128 10:0.6938208 11:0.8521616 12:0.0 13:0.3773369 14:0.3492572 15:1.0 16:0.4500148 17:0.039778404 18:0.005344295 19:6.36045E-5 20:0.00117652 21:0.0 
-1.0 -0.0 -1.0 -0.0 -1.0 -0.0 -0.0 -1.0 -1.0 0.0 1.0 0.2393070694944056 1.0 1.0 1.0 0.0 0.50301116552882 1.0 0.0 0.0 0.0 1.0 0.7270293108145943 0.0 0.0 0.0 0.0 1.0 0.5887100637848269 0.0 1.0 0.0 1.0 0.0 0.0 0.0 1.0 0.0 0.0 0.0 1.0 1.0 0.0 1.0 1:0.09448681 2:0.103402615 3:0.23735164 4:0.28054038 5:1.0 6:0.3322394 7:0.0 8:1.0 9:0.46485415 10:0.7954225 11:0.94654465 12:0.0 13:0.47764483 14:0.44600186 15:1.0 16:0.49640626 17:0.050181393 18:0.008532413 19:1.64111E-4 20:0.002645703 21:0.0 
-1.0 -1.0 -0.31173086352772666 -1.0 -0.252133590108218 -0.8752338621761779 -1.0 -0.4473061882813517 -0.5393785053213622 -0.7974796756083627 0.2599596070342678 1.0 0.798541754886006 1.0 0.6181382705035696 1.0 1.0 0.2621841469978641 1.0 1.0 1.0 1.0 0.0 1.0 1.0 1.0 1.0 0.0 1.0 1.0 0.18702173520047116 1.0 0.34513133688070213 1.0 1.0 1.0 0.42192955163813667 1.0 1.0 0.3104156922039925 0.17430060584120044 1.0 0.32315617768748434 0.38397177745670336 1:1.0 2:0.23444892 3:0.15109055 4:0.26208267 5:0.020935573 6:0.080728285 7:0.0 8:1.0 9:0.010679731 10:0.028530069 11:0.120168 12:0.0 13:0.009277419 14:0.002153873 15:1.0 16:0.07039556 17:0.016870413 18:0.00165937 19:7.52847E-5 20:0.0 21:7.2945E-5 
-0.24763546054204721 -1.0 -0.0 -0.0 -1.0 -0.0 -1.0 -0.0 -0.0 -0.0 0.0 0.27851336048667086 0.0 0.24111028650958238 0.0 1.0 0.14162755036697072 0.0 1.0 1.0 1.0 0.2092918486332567 0.0 1.0 1.0 1.0 0.013568538283320369 0.0 1.0 0.0 0.0 1.0 0.0 1.0 1.0 1.0 0.0 1.0 1.0 0.0 0.0 0.33895514804605925 0.0 0.0 1:1.0 2:0.13458587 3:0.056175955 4:0.16772139 5:0.00545541 6:0.036417633 7:0.0 8:1.0 9:0.03264916 10:0.006810413 11:0.11209366 12:4.23856E-4 13:0.012457828 14:4.37636E-4 15:1.0 16:0.016315537 17:0.011421881 18:0.001074598 19:5.19551E-6 20:0.0 21:4.17641E-6 
-0.0 -1.0 -0.0 -0.0 -1.0 -0.0 -1.0 -0.0 -0.0 -0.0 0.02932137797532733 0.0 0.0 1.0 0.0 1.0 0.0 0.021887837998227168 1.0 1.0 0.9499070914785084 0.0 0.3216621359795668 1.0 1.0 1.0 0.0 0.2891371484718838 0.6250831123345097 0.0 0.07555646595236302 0.0 0.0 0.0 0.0 0.0 0.0 1.0 1.0 0.6895843077960075 0.08230906237542386 0.0 0.6768438223125157 0.0 1:1.0 2:0.117464066 3:0.045616508 4:0.1609398 5:0.004498174 6:0.03266452 7:0.0 8:1.0 9:0.04223891 10:0.00916233 11:0.11979233 12:7.8652E-4 13:0.015057794 14:3.88741E-4 15:1.0 16:0.008898857 17:0.014533551 18:0.001169651 19:3.22948E-6 20:0.0 21:1.91412E-6 
-1.0 -0.0 -1.0 -0.0 -0.0 -0.0 -0.0 -1.0 -1.0 -0.3574213422806713 -0.0 0.0 0.4658570518011297 0.0 1.0 0.0 0.0 1.0 0.0 0.0 0.0 1.0 0.0 0.0 0.0 0.0 0.0 1.0 0.0 0.0 0.08491408132374395 0.0 0.0 0.0 0.0 0.0 1.0 0.0 0.0 0.0 0.0 0.36962063018720576 0.0 0.0 1:0.00105491 2:0.003112507 3:0.018488929 4:0.019324522 5:1.0 6:0.056772374 7:0.0 8:0.94465274 9:0.92926306 10:0.9933995 11:1.0 12:0.0 13:0.9296722 14:0.92364585 15:0.7140944 16:1.0 17:0.009626877 18:0.00217452 19:9.23767E-4 20:0.0 21:9.34342E-4 
-1.0 -0.0 -1.0 -0.0 -1.0 -0.0 -0.0 -1.0 -0.7702941546206868 -0.0 -0.0 0.0 1.0 0.8245813167335277 1.0 0.0 0.0 0.0 0.0 0.0 0.0 1.0 0.7236765358580663 0.0 0.8993236410552555 0.0 0.0 1.0 0.0 0.0 0.9150859186762561 0.0 0.0 0.0 0.0 0.0 1.0 0.0 0.0 0.0 1.0 0.6666283549968244 0.0 0.0 1:1.14183E-4 2:8.86538E-4 3:0.007938696 4:0.008251315 5:1.0 6:0.032481585 7:0.0 8:0.96548814 9:0.9615034 10:0.9906666 11:0.99338526 12:0.0 13:0.9619756 14:0.9335668 15:0.53694063 16:1.0 17:0.019910071 18:0.014395346 19:8.69963E-4 20:0.027122034 21:0.0 
-0.7467237421292596 -0.294016740320281 -1.0 -0.30083003036014255 -0.6430322966254415 -0.40107577414594564 -0.28858503577940736 -1.0 -1.0 -1.0 -0.2892809850095951 0.8701877258092118 1.0 0.47071631376824347 1.0 0.28966699306002647 0.5715606250472921 1.0 0.287828790792516 0.2854183002125297 0.30085857162115615 0.7476667052363992 0.0 0.2942484830499749 0.0 0.28849537378154255 0.339729933536521 1.0 0.9761099515394733 0.29242869753390366 0.0 0.2939327106597671 1.0 0.29710844496464256 0.28849063906253114 0.2908123960452435 1.0 0.31645985750438577 0.298976247948853 0.2848164657284311 0.0 1.0 0.2900052762418222 1.0 1:0.001359071 2:0.004255095 3:0.024026094 4:0.026084999 5:1.0 6:0.06959127 7:0.0 8:0.9133043 9:0.89016473 10:0.96450067 11:0.98239917 12:0.0 13:0.8944667 14:0.8613781 15:0.83331406 16:1.0 17:0.10264228 18:0.06666559 19:0.008805828 20:0.08478446 21:0.0 
-0.0 -0.0 -0.0 -0.0 -0.0 -1.0 -0.0 -0.16165872603801779 -0.2948653484884365 -1.0 -0.0 -0.0 0.5757184966472906 0.0 0.5747474871209333 0.0 1.0 0.0 0.0 0.0 0.0 0.8112477795253551 0.0 0.0 0.0 0.0 1.0 0.0 0.0 0.0 0.0 0.0 0.0 0.0 0.0 0.0 0.025672566533881773 0.0 0.0 0.0 0.0 0.0 0.0 0.0 1:0.7792282 2:0.50662977 3:0.7744811 4:0.9976003 5:0.9616951 6:0.74085134 7:0.0 8:1.0 9:0.105126865 10:0.29529434 11:0.4896709 12:0.0 13:0.12180469 14:0.10979813 15:1.0 16:0.2646029 17:0.058457192 18:0.006098867 19:0.001500207 20:0.0 21:0.001527101 
-1.0 -0.3832359276750344 -1.0 -0.0 -0.7792397598483336 -0.14563034234103672 -0.34145441154934364 -1.0 -1.0 -1.0 -0.27851336048667086 -0.8701877258092118 1.0 0.86525507535246 1.0 0.3660813115672843 1.0 0.8471827965649024 0.29653244125945893 0.2555197164461091 0.19802580639840828 1.0 0.6085366275069819 0.35118651661156625 1.0 0.3405288475289132 0.0 0.7231031904032565 1.0 0.0 0.6988940594011762 0.34868338397479587 1.0 0.35034400189208326 0.2914122957143488 0.3420194243868366 1.0 0.3347324735614195 0.15299901816415845 0.0 0.6617231173984428 1.0 0.0 1.0 1:0.21988368 2:0.18820941 3:0.37032437 4:0.47332132 5:1.0 6:0.4593 7:0.0 8:1.0 9:0.28422305 10:0.5176588 11:0.7982205 12:0.0 13:0.319113 14:0.27849126 15:1.0 16:0.34670973 17:0.07951839 18:0.00716402 19:0.00198532 20:0.0 21:0.002011376 
-0.0 -0.0 -0.0 -0.0 -0.0 -0.8191708192761221 -0.0 -0.0 -0.0 -0.2393070694944056 -0.0 -0.0 0.0 0.0 0.0 0.0 1.0 0.0 0.0 0.0 1.0 0.0 0.0 0.21137616472887652 0.0 0.0 0.2255384324292102 0.0 0.9850166184775402 0.0 0.0 0.0703793097090472 0.0 0.3257433016830493 0.0 0.0 0.0 0.9680974055133814 0.9748129923296314 0.0 0.0 0.0 0.0 0.0 1:0.8291109 2:0.49297073 3:0.7240622 4:1.0 5:0.8613771 6:0.7050285 7:0.0 8:1.0 9:0.09819712 10:0.24360037 11:0.4943964 12:0.0 13:0.12352597 14:0.08950998 15:1.0 16:0.22092369 17:0.067031644 18:0.004892082 19:9.45753E-4 20:0.0 21:9.47016E-4 
-0.6848361684706231 -1.0 -0.0 -1.0 -0.9932250322977019 -0.035198838382841144 -1.0 -0.0 -0.0 -0.0 -1.0 -0.0 0.0 1.0 0.06559596910277957 1.0 1.0 0.0 1.0 1.0 1.0 0.8635853752984264 0.0 1.0 1.0 1.0 0.7744615675707898 0.0 1.0 1.0 0.0 1.0 0.0 1.0 1.0 1.0 0.0 1.0 1.0 1.0 0.0 1.0 1.0 0.0 1:1.0 2:0.46235675 3:0.5603154 4:0.82655317 5:0.39931363 6:0.47124928 7:0.0 8:1.0 9:0.050809603 10:0.14684135 11:0.3589581 12:0.0 13:0.0676858 14:0.041109923 15:1.0 16:0.15729208 17:0.067776784 18:0.005441516 19:6.8942E-4 20:0.0 21:6.86212E-4 
-1.0 -0.0 -1.0 -0.0 -0.4432364087896639 -0.0 -0.0 -1.0 -1.0 -1.0 -0.0 -1.0 -0.31663261269027454 0.05495759427659418 1.0 0.0 0.0 1.0 0.0 0.0 0.0 1.0 0.0 0.0 0.0 0.0 0.0 1.0 1.0 0.0 1.0 0.0 0.7822664189036889 0.0 0.0 0.0 1.0 0.0 0.0 0.0 0.5867719648666638 0.7363245452018186 0.0 0.7058906007076906 1:0.001341379 2:0.002024639 3:0.008427994 4:0.008810435 5:1.0 6:0.03180126 7:0.001036446 8:0.96414614 9:0.9607641 10:0.9859769 11:0.9900658 12:0.0 13:0.9622042 14:0.9664602 15:0.53475034 16:1.0 17:0.007153559 18:0.005156477 19:1.07807E-4 20:0.009596781 21:0.0 
-1.0 -0.02964838486833754 -1.0 -0.0 -1.0 -0.2591861365551864 -0.02232331491899977 -1.0 -1.0 -0.3396655580321751 -0.024642311490964942 -1.0 -0.25908588395701604 1.0 1.0 0.01657396415157364 0.5168059058855681 0.8879762702388019 0.026076946175480047 0.03660550089397771 0.04430004399370443 1.0 0.6350356414193107 0.0 0.6532236483656673 0.023750338578981324 0.171243390539307 1.0 0.0 0.004784367194327459 0.0 0.0 0.0 0.0 0.024713396052438864 0.023966128854985426 1.0 0.06467110434823971 0.028157430598112668 0.0385336621176557 0.41322803513333617 1.0 0.04153160448456686 0.0 1:0.001071921 2:0.001555476 3:0.006440117 4:0.006717645 5:1.0 6:0.026321515 7:8.28738E-4 8:0.951864 9:0.9497853 10:0.96856993 11:0.97158194 12:0.0 13:0.95103043 14:0.9557034 15:0.48531124 16:1.0 17:0.018077964 18:0.016084654 19:0.001204053 20:0.03444063 21:0.0 
-1.0 -0.786243091457526 -0.5147615810558253 -1.0 -0.6103672888228046 -1.0 -0.7812269600731021 -1.0 -1.0 -1.0 -0.773899443395041 -0.4658570518011297 -1.0 0.6543040793013766 1.0 0.8233964046360287 1.0 0.11202372976119812 0.7545081820117447 0.6784103619040742 1.0 1.0 0.22711374803477363 1.0 1.0 0.7729412477609425 1.0 0.25909546939499156 1.0 0.9169723186828928 0.0 0.9913638126147087 0.21773358109631114 1.0 0.7672113804085369 0.7908719756985862 0.6433272136654773 1.0 1.0 0.6647813826888362 0.0 1.0 0.6872950157796787 0.2941093992923094 1:0.564471 2:0.4083103 3:0.6643385 4:0.8346602 5:1.0 6:0.67605025 7:0.0 8:1.0 9:0.13235918 10:0.3407976 11:0.5472778 12:0.0 13:0.15131924 14:0.13200411 15:1.0 16:0.30216488 17:0.015545804 18:0.001597118 19:3.59141E-4 20:0.0 21:3.62706E-4 
-1.0 -1.0 -0.36873038152952325 -0.9439306449336624 -1.0 -0.6616358334558258 -1.0 -0.5678111129056553 -0.5193748013189907 -0.753933995996587 -1.0 -0.2952976305017712 -1.0 -0.7092616735779708 0.6674203439603096 1.0 1.0 0.2927121952810134 1.0 1.0 1.0 1.0 0.2520556095665874 1.0 1.0 1.0 0.9467129823289689 0.34851436275183745 1.0 0.0 0.0 0.9806763717910574 0.2507016645420384 1.0 0.9959874148905152 0.9897627622652361 0.47825939707195014 1.0 1.0 0.0 0.0 1.0 0.0 0.3005105243925867 1:1.0 2:0.1857767 3:0.09211498 4:0.19795005 5:0.009708045 6:0.051597316 7:0.0 8:1.0 9:0.015847864 10:0.007244566 11:0.10234623 12:0.0 13:0.008389429 14:8.76373E-4 15:1.0 16:0.0438993 17:0.001026876 18:7.99981E-5 19:0.0 20:7.30219E-6 21:5.7998E-9 
-1.0 -0.2506303452971324 -1.0 -0.056069355066337576 -1.0 -0.24642467633842927 -0.23310915262434206 -1.0 -1.0 -0.9326288490711144 -0.24111028650958238 -1.0 -0.46794809804315896 -1.0 1.0 0.23617019939702205 0.26356103115909746 1.0 0.23410944136983608 0.2300289072333092 0.18130552219909477 1.0 0.7479443904334128 0.23753500461179908 1.0 0.2361306457496139 0.11058206634226038 1.0 0.5658288834526415 0.011619846605425551 0.8917809365062883 0.019323628208942567 0.7492983354579615 0.03851048062891005 0.0040125851094847675 0.010237237734763899 1.0 0.26055009212807306 0.189608122795729 0.0 0.9050702821824258 1.0 0.006443177601098288 0.6994894756074133 1:2.87654E-5 2:3.66368E-5 3:2.48749E-4 4:2.52997E-4 5:1.0 6:0.00295713 7:1.44569E-6 8:0.94036055 9:0.940351 10:0.94114864 11:0.941193 12:0.0 13:0.94039667 14:0.9440717 15:0.15614653 16:1.0 17:0.111954734 18:0.10671677 19:0.49950615 20:0.6982114 21:0.0 
-0.30359373444681953 -1.0 -0.0 -0.0 -1.0 -0.0 -1.0 -0.0 -0.0 -0.0 -1.0 -0.0 -0.39730697730930126 -0.0 0.0 1.0 0.10255939035825094 0.0 1.0 1.0 1.0 0.26314730991108787 0.0 1.0 1.0 1.0 0.0 0.0 1.0 0.9883801533945744 0.10821906349371169 1.0 0.0 0.96148951937109 1.0 1.0 0.0 1.0 1.0 1.0 0.09492971781757417 0.3391048035102615 0.9935568223989018 0.0 1:1.0 2:0.18765552 3:0.09337497 4:0.19494092 5:0.009538863 6:0.050766133 7:0.0 8:1.0 9:0.014619703 10:0.0079536 11:0.09881073 12:0.0 13:0.007788792 14:9.34465E-4 15:1.0 16:0.04604163 17:9.38395E-4 18:2.5501E-4 19:2.18766E-8 20:1.34288E-5 21:0.0 
-0.0 -0.0 -0.2178446890619402 -0.0 -0.0 -0.0 -0.0 -1.0 -0.0 -0.0 -0.0 -0.0 -0.0 -0.0 -0.0 0.0 0.0 0.0 0.0 0.0 0.0 0.0 0.8032090798984384 0.0 0.0 0.0 0.0 0.0 0.0 0.0 0.0 0.0 0.0 0.0 0.0 0.0 0.0 0.0 0.0 0.0 0.0 0.0 0.0 0.0 1:0.032102898 2:0.04030457 3:0.123211876 4:0.15961763 5:1.0 6:0.22226375 7:0.0 8:0.8776973 9:0.58226556 10:0.73785967 11:1.0 12:0.0 13:0.6268756 14:0.6005397 15:1.0 16:0.48485997 17:0.23224273 18:0.038120218 19:0.0 20:3.30827E-4 21:8.64711E-4 
-0.0 -0.0 -0.0 -0.0 -0.0 -0.0 -0.0 -0.3151049400398087 -0.7584034854211308 -0.0 -0.0 -0.0 -0.0 -0.0 -0.0 0.0 0.0 0.0 0.0 0.0 0.0 1.0 0.0 0.0 0.0 0.0 0.0 0.0 0.0 0.0 0.0 0.0 0.0 0.0 0.0 0.0 0.0 0.0 0.0 0.0 0.0 0.014512247132214929 0.0 0.035726634089900504 1:0.05437748 2:0.062174957 3:0.16547087 4:0.20406842 5:1.0 6:0.2613385 7:0.0 8:0.94581014 9:0.53064436 10:0.7385858 11:0.9998639 12:0.0 13:0.55873394 14:0.5629666 15:1.0 16:0.48303193 17:0.23627055 18:0.041974682 19:0.003931932 20:0.0 21:0.005497225 
-0.0 -0.0 -0.0 -0.0 -0.0 -0.0 -0.0 -0.0 -0.0 -1.0 -0.0 -0.0 -0.0 -0.0 -0.0 0.0 0.0 0.0 0.0 0.0 0.0 0.0 0.0 0.0 0.0 0.0 0.0 0.0 0.3094470398387261 0.0 0.0 0.0 0.0 0.0 0.0 0.0 0.0 0.0 0.0 0.0 0.0 0.0 0.0 0.0 1:0.061990596 2:0.06475434 3:0.17254944 4:0.23159897 5:1.0 6:0.28094083 7:0.0 8:0.9322513 9:0.48316494 10:0.6451019 11:1.0 12:0.0 13:0.54009354 14:0.5071562 15:1.0 16:0.40078565 17:0.2390249 18:0.03318399 19:0.003299414 20:0.0 21:0.004574593 
-0.0 -0.0 -0.0 -0.0 -0.0 -0.0420391465629285 -0.0 -0.0 -0.0 -1.0 -0.0 -0.0 -0.6403434562237128 -0.0 -0.0 0.0 0.7067621233053716 0.0 0.0 0.0 0.0 0.1447290370685034 0.0 0.0 0.5161167567905836 0.0 0.0 0.0 1.0 0.0 0.0 0.0 0.0 0.0 0.0 0.0 0.0 0.0 0.0 0.0 0.0 1.0 0.0 0.0 1:0.085681066 2:0.08375113 3:0.20211434 4:0.2701931 5:1.0 6:0.30930373 7:0.0 8:0.94472647 9:0.4331805 10:0.58800566 11:0.97694856 12:0.0 13:0.494945 14:0.45651883 15:1.0 16:0.37147802 17:0.24461813 18:0.03540643 19:0.006851115 20:0.0 21:0.008596792 
-0.9122509943711276 -0.6443783236561593 -0.0 -0.7649442964716648 -0.8013426439416613 -1.0 -0.6135931440552762 -0.0 -0.06325343903889653 -1.0 -0.6181382705035696 -0.0 -1.0 -0.9756031941790915 -0.8355655828087771 0.6228153007773055 1.0 0.0 0.609277334089843 0.5896442736748119 0.7378699769642507 1.0 0.0 0.669576129372421 1.0 0.6149308784056055 1.0 0.0 1.0 0.6488463243974789 0.0 0.6571798096020303 0.0 0.6975145508951852 0.6131015315274638 0.6299383866041625 0.0 0.8852786048835055 0.744672665135774 0.5853454478742248 0.0 1.0 0.6089649469982861 0.0 1:0.14208975 2:0.12316344 3:0.26860943 4:0.36514342 5:1.0 6:0.37645793 7:0.0 8:0.96614605 9:0.3553663 10:0.52258426 11:0.9159766 12:0.0 13:0.4138127 14:0.39242625 15:1.0 16:0.3207647 17:0.21627742 18:0.031582244 19:0.002249426 20:0.0 21:0.002816211 
-0.0 -0.0 -1.0 -0.0 -0.0 -0.0 -0.0 -0.0 -1.0 -0.0 -0.0 -1.0 -0.0 -0.0 -0.0 0.0 0.0 1.0 0.0 0.0 0.0 0.0 0.0 0.0 0.0 0.0 0.0 1.0 0.0 0.0 0.0 0.0 0.0 0.0 0.0 0.0 1.0 0.0 0.0 0.0 0.0 0.0 0.0 0.0 1:0.012305845 2:0.019861456 3:0.06656255 4:0.08176705 5:1.0 6:0.14531115 7:0.008650376 8:0.8670718 9:0.75409883 10:0.8838234 11:0.9968848 12:0.0 13:0.77131283 14:0.7761843 15:1.0 16:0.69486034 17:0.40236685 18:0.12270517 19:0.017727178 20:0.06339044 21:0.0 
-0.25409105864266657 -0.0 -1.0 -0.0 -0.0 -0.0 -0.0 -1.0 -1.0 -0.0 -0.0 -0.0 -0.0 -0.024396805820908526 -0.0 0.0 0.0 0.0 0.0 0.0 0.0 0.0 0.0 0.0 0.0 0.0 0.0 0.0 0.0 0.0 0.0 0.0 0.0 0.0 0.0 0.0 0.0 0.0 0.0 0.0 0.0 0.0 0.0 0.0 1:0.027015412 2:0.035860296 3:0.11028 4:0.13620947 5:1.0 6:0.20045362 7:0.0 8:0.8761849 9:0.6245487 10:0.78601235 11:1.0 12:0.0 13:0.65529007 14:0.65101266 15:1.0 16:0.5510531 17:0.2535662 18:0.043398444 19:0.004912552 20:0.0 21:0.006867098 
-1.0 -0.0 -1.0 -0.0 -1.0 -0.0 -0.0 -0.6848950599601913 -1.0 -0.0 -0.0 -1.0 -0.0 -1.0 -0.8318547611515325 0.0 0.0 1.0 0.0 0.0 0.0 1.0 0.0 0.0 0.0 0.0 0.0 1.0 0.0 0.0 1.0 0.0 0.42559853100145684 0.0 0.0 0.0 1.0 0.0 0.0 0.0 1.0 0.8536714432125893 0.0 0.0 1:0.012426403 2:0.017530411 3:0.0505102 4:0.0605129 5:1.0 6:0.11608788 7:0.010302218 8:0.86183095 9:0.7985603 10:0.88374645 11:0.97956574 12:0.0 13:0.8209083 14:0.8277439 15:1.0 16:0.76895833 17:0.33304808 18:0.10183468 19:0.014256983 20:0.05633049 21:0.0 
-1.0 -0.0 -1.0 -0.0 -0.0 -0.0 -0.0 -1.0 -1.0 -0.0 -0.0 -1.0 -0.0 -1.0 -0.0 0.0 0.0 0.0 0.0 0.0 0.0 0.1442590380116918 0.0 0.0 0.0 0.0 0.0 0.10721884553502757 0.0 0.0 0.0 0.0 0.5744014689985432 0.0 0.0 0.0 1.0 0.0 0.0 0.0 0.0 0.0 0.0 0.9642733659100996 1:0.019176599 2:0.029010467 3:0.09846368 4:0.11868355 5:1.0 6:0.18583126 7:1.6532E-4 8:0.88065004 9:0.6668082 10:0.8511559 11:1.0 12:0.0 13:0.682869 14:0.6857093 15:1.0 16:0.61906195 17:0.24413595 18:0.056577742 19:0.001392294 20:0.01421811 21:0.0 
-0.0 -1.0 -0.0 -0.0 -0.24290910173788804 -0.0 -1.0 -0.0 -0.0 -0.0 -1.0 -0.0 -0.0 -0.0 -0.23617019939702205 -0.0 0.0 0.0 1.0 1.0 1.0 0.0 0.0 1.0 1.0 1.0 0.0 0.0 0.7124592589557883 0.0 0.0 0.0 0.0 0.0 0.0 0.0 0.0 1.0 1.0 0.0 0.0 0.0 0.0 0.0 1:1.0 2:0.25683847 3:0.16312389 4:0.26094002 5:0.021575127 6:0.08368165 7:0.0 8:1.0 9:0.006655747 10:0.027747618 11:0.106576905 12:0.0 13:0.006592992 14:0.00217729 15:1.0 16:0.08841229 17:8.174E-4 18:1.03557E-4 19:1.33848E-6 20:0.0 21:1.33896E-6 
-0.0 -1.0 -0.0 -0.0 -1.0 -0.0 -1.0 -0.0 -0.0 -0.0 -1.0 -0.0 -0.0 -0.0 -1.0 -0.0 0.0 0.0 1.0 1.0 0.0 0.0 0.31484696678331536 0.0 1.0 1.0 0.0 0.0 0.0 0.0 0.0 0.0 0.0 0.0 1.0 1.0 0.0 1.0 0.0 1.0 0.0 0.0 1.0 0.0 1:1.0 2:0.2451788 3:0.15129021 4:0.2534887 5:0.019830544 6:0.07922418 7:0.0 8:1.0 9:0.007984262 10:0.023637215 11:0.108065166 12:0.0 13:0.007171274 14:0.002035155 15:1.0 16:0.079842836 17:0.00141229 18:2.19077E-4 19:3.73801E-8 20:2.80647E-5 21:0.0 
-0.0 -1.0 -0.0 -0.0 -1.0 -0.0 -1.0 -0.0 -0.0 -0.0 -1.0 -0.0 -0.0 -0.0 -1.0 -0.0 0.0 0.0 1.0 1.0 0.0 0.0 0.0 0.0 1.0 1.0 0.0 0.0 0.0 0.0 0.0 0.0 0.0 0.0 1.0 1.0 0.0 1.0 0.0 0.0 0.0 0.0 0.0 0.0 1:1.0 2:0.25197503 3:0.15771219 4:0.2538636 5:0.020094652 6:0.080141366 7:0.0 8:1.0 9:0.006785685 10:0.026483024 11:0.104480885 12:0.0 13:0.006472925 14:0.002030748 15:1.0 16:0.085789025 17:0.001390636 18:7.17636E-5 19:7.38605E-6 20:0.0 21:7.39163E-6 
-1.0 -0.0 -0.3122439642742454 -1.0 -0.0 -0.9377315655744839 -1.0 -0.4484070244209016 -0.5456434359142739 -0.8313074736460759 -0.0 -0.28966699306002647 -1.0 -0.8399703687876023 -0.0 -0.6228153007773055 1.0 0.284508000662324 1.0 1.0 1.0 1.0 0.0 1.0 1.0 0.0 1.0 0.28641068318495444 1.0 1.0 0.26272455555866225 1.0 0.3459629100105284 1.0 0.0 0.0 0.424575168227833 1.0 1.0 0.0 0.25671101621746534 1.0 0.0 0.3853325358281507 1:1.0 2:0.27834743 3:0.18856026 4:0.2894517 5:0.028372455 6:0.09880957 7:0.0 8:1.0 9:0.006021108 10:0.035199236 11:0.11364588 12:0.0 13:0.006862913 14:0.002791357 15:1.0 16:0.10099509 17:2.65156E-4 18:2.15113E-4 19:1.6016E-8 20:3.22356E-5 21:0.0 
-0.25736887965087574 -0.0 -0.0 -0.0 -0.0 -0.0 -1.0 -0.0 -0.0 -0.0 -0.0 -0.0 -0.3660813115672843 -0.0 -0.0 -0.0 0.26589690943549854 0.0 1.0 1.0 1.0 0.2369118953265256 0.0 1.0 1.0 1.0 0.1264894025145205 0.0 1.0 0.0 0.0 1.0 0.0 1.0 0.0 0.0 0.0 1.0 1.0 0.0 0.0 0.3729774834653064 0.0 0.0 1:1.0 2:0.25970924 3:0.16645786 4:0.26444682 5:0.022370901 6:0.08553162 7:0.0 8:1.0 9:0.006410716 10:0.028926088 11:0.10720149 12:0.0 13:0.006538336 14:0.002252151 15:1.0 16:0.09037205 17:7.70333E-4 18:1.16614E-4 19:8.57519E-9 20:1.03058E-5 21:0.0 
-0.5269165635930732 -1.0 -0.0 -1.0 -0.6594879477454714 -0.0 -1.0 -0.0 -0.0 -0.0 -1.0 -0.0 -1.0 -0.0 -0.8491493786840772 -0.0 -1.0 0.0 1.0 1.0 1.0 0.7248028405941436 0.0 1.0 1.0 1.0 0.5955038340528169 0.0 0.1304469994232127 1.0 0.0 1.0 0.0 1.0 1.0 1.0 0.0 1.0 1.0 1.0 0.0 0.5228884341947161 1.0 0.0 1:1.0 2:0.5619987 3:0.70929986 4:0.8865706 5:0.49420047 6:0.5569144 7:0.0 8:1.0 9:0.040961757 10:0.192291 11:0.30976796 12:0.0 13:0.046858635 14:0.039901096 15:1.0 16:0.24214105 17:0.006433121 18:5.86508E-4 19:7.91971E-5 20:0.0 21:7.89939E-5 
-0.0 -0.0 -0.0 -0.0 -0.0 -1.0 -0.0 -0.0 -0.0 -0.50301116552882 -0.0 -0.0 -1.0 -0.0 -0.0 -0.0 -0.0 0.0 0.0 0.0 0.0 0.0 0.0 0.0 0.0 0.0 0.40449616594718324 0.0 0.581205226648117 0.0 0.0 0.0 0.0 0.0 0.0 0.0 0.0 0.0 0.0 0.0 0.0 0.0 0.0 0.0 1:0.555373 2:0.40960458 3:0.67048573 4:0.8234094 5:1.0 6:0.67267954 7:0.0 8:1.0 9:0.13115157 10:0.3594074 11:0.5365506 12:0.0 13:0.1452217 14:0.12869018 15:1.0 16:0.3173645 17:0.013998555 18:0.002253792 19:8.52578E-6 20:1.3775E-4 21:0.0 
-0.9716400260952174 -0.24880440248506383 -0.6416389514437215 -0.0 -0.6215546529955673 -0.0 -0.23056184085979983 -1.0 -1.0 -1.0 -0.14162755036697072 -0.5715606250472921 -1.0 -1.0 -0.5169710428332709 -1.0 -0.26589690943549854 0.5594097640814545 0.1685842585584605 0.11196701883425868 0.2464491239256683 1.0 0.4687942985681305 0.32607150024837434 0.7479382433073347 0.22374901720980744 0.0 0.501517258355661 1.0 0.0 0.4831323034413471 0.31367792838331904 0.8178993364158333 0.33298962095848295 0.1624540322751202 0.2179464864100222 1.0 0.3787187416984301 0.18419885652900853 0.0 0.46372653575401135 1.0 0.0 1.0 1:0.37187803 2:0.30656117 3:0.54829913 4:0.6452746 5:1.0 6:0.57666534 7:0.0 8:1.0 9:0.17369859 10:0.45358986 11:0.60009396 12:0.0 13:0.18351132 14:0.17131837 15:1.0 16:0.37074816 17:0.002380876 18:2.56629E-4 19:6.87265E-5 20:0.0 21:6.88137E-5 
-0.0 -0.0 -0.0 -0.0 -0.0 -0.9518525894042519 -0.0 -0.0 -0.0 -0.0 -0.0 -0.0 -0.615119444115759 -0.0 -0.0 -0.0 -0.0 0.0 0.0 0.0 1.0 0.0 0.0 0.1326302538081427 0.0 0.0 1.0 0.0 0.0 0.0 0.0 0.0 0.0 0.24209053895564042 0.0 0.0 0.0 0.8418967561242803 0.9828563274783415 0.0 0.0 0.0 0.0 0.0 1:0.9327091 2:0.5716581 3:0.790982 4:1.0 5:0.739258 6:0.6886468 7:0.0 8:1.0 9:0.06521552 10:0.23282777 11:0.38906816 12:0.0 13:0.07592593 14:0.06280437 15:1.0 16:0.25757414 17:0.011136238 18:0.001065908 19:8.04038E-5 20:0.0 21:7.90404E-5 
-0.0 -0.0 -0.0 -0.0 -0.0 -0.048147410595748105 -0.0 -0.05988296941252747 -0.1697361808935221 -1.0 -0.0 -0.0 -0.384880555884241 -0.5168059058855682 -0.0 -0.7067621233053716 -0.0 0.0 0.0 0.0 0.0 0.8910352226720009 0.0 0.0 0.0 0.0 0.0 0.0 1.0 0.0 0.0 0.0 0.0 0.0 0.0 0.0 0.0 0.0 0.0 0.0 0.0 0.4771115658052839 0.0 0.0 1:0.5250424 2:0.39820102 3:0.6614864 4:0.7954733 5:1.0 6:0.6607215 7:0.0 8:1.0 9:0.13285235 10:0.37606433 11:0.53374827 12:0.0 13:0.14424399 14:0.12932606 15:1.0 16:0.33407393 17:0.002561228 18:2.68917E-4 19:1.67122E-5 20:0.0 21:1.66019E-5 
-1.0 -0.03957760481395244 -1.0 -0.0 -1.0 -0.0 -0.047382023350334465 -1.0 -1.0 -0.34891413197632926 -0.04776998856602337 -1.0 -0.0 -1.0 -1.0 -1.0 -0.042998322614632885 -0.0 0.049690878152585084 0.0586199637484648 0.0 1.0 0.7377851243339912 0.02227554870737971 0.926453863166924 0.04734046604425342 0.0 1.0 0.0 0.032551032804331616 1.0 0.027006639212665648 0.0 0.013096746131114013 0.04829445761690497 0.042615015264921674 1.0 0.0 0.0 0.0604127225415781 1.0 1.0 0.05386754094602597 0.0 1:6.04733E-4 2:0.001670472 3:0.01067376 4:0.011264484 5:1.0 6:0.03935561 7:0.0 8:0.9153517 9:0.90955204 10:0.94372785 11:0.94934946 12:0.0 13:0.9111483 14:0.9270842 15:0.60449785 16:1.0 17:0.04611955 18:0.041536383 19:0.005468696 20:0.07215842 21:0.0 
-1.0 -0.24905757554047359 -1.0 -0.29581217181025116 -0.523231536003053 -0.39468869637246323 -0.23605431169885668 -1.0 -1.0 -1.0 -0.23630199643006788 -1.0 -0.8471827965649024 -1.0 -0.2927121952810134 -1.0 -0.24150967804769116 -0.5594097640814545 0.23302276997235835 0.2217474708504382 0.2956343948365898 1.0 0.0 0.26673258649172193 0.0 0.23602304758252995 0.3351558545848476 1.0 0.9495266143888109 0.25458606872498063 0.0 0.2615912634159379 1.0 0.278740722754815 0.2350332644163889 0.24283296959669964 1.0 0.3109850869742869 0.2939160467161304 0.21938510969728015 0.0 1.0 0.2308858845197267 1.0 1:0.004080287 2:0.00700238 3:0.027488556 4:0.031083325 5:1.0 6:0.07538094 7:0.001307335 8:0.9209364 9:0.8946222 10:0.96010536 11:1.0 12:0.0 13:0.90726805 14:0.9343627 15:0.952024 16:1.0 17:0.061503332 18:0.0122526 19:6.34813E-4 20:2.54815E-4 21:0.0 
-0.0 -1.0 -0.0 -0.0 -1.0 -0.0 -1.0 -0.0 -0.0 -0.0 -1.0 -0.0 -0.0 -0.0 -0.5296889755133781 -0.0 -1.0 -0.0 -0.0 1.0 0.0 0.0 0.0 0.0 1.0 1.0 0.0 0.0 0.0 0.0 0.0 0.0 0.0 0.0 0.0 0.0 0.0 1.0 0.0 0.0 0.0 0.0 0.0 0.0 1:1.0 2:0.16874486 3:0.07752409 4:0.18787919 5:0.008207495 6:0.046478745 7:0.0 8:1.0 9:0.020708464 10:0.003965903 11:0.10535719 12:0.0 13:0.009574619 14:6.53324E-4 15:1.0 16:0.03343669 17:0.001173059 18:5.49907E-5 19:3.98736E-6 20:0.0 21:3.99034E-6 
-0.0 -0.0 -0.0 -0.0 -0.24346418391978614 -0.0 -1.0 -0.0 -0.0 -0.0 -0.6743782043182266 -0.0 -0.0 -0.0 -0.0 -0.0 -1.0 -0.0 -0.0 1.0 1.0 0.0 0.0 1.0 1.0 1.0 0.0 0.0 0.6369899845367485 0.0 0.0 0.0 0.0 0.0 0.0 0.0 0.0 1.0 1.0 0.0 0.0 0.0 0.0 0.0 1:1.0 2:0.17921332 3:0.08584746 4:0.19041893 5:0.00876716 6:0.048387617 7:0.0 8:1.0 9:0.016881661 10:0.005805637 11:0.10051112 12:0.0 13:0.00837755 14:7.92897E-4 15:1.0 16:0.04054364 17:5.32207E-4 18:7.41408E-5 19:1.30003E-6 20:0.0 21:1.29759E-6 
-0.24879713480758744 -1.0 -0.0 -0.0 -0.0 -0.0 -1.0 -0.0 -0.0 -0.0 -0.0 -0.0 -0.29653244125945893 -0.0 -0.0 -0.0 -1.0 -0.1685842585584605 -0.0 1.0 1.0 0.21904851018808824 0.0 1.0 1.0 1.0 0.0306762179247358 0.0 1.0 0.0 0.0 1.0 0.0 1.0 0.8432279639070872 1.0 0.0 1.0 1.0 0.0 0.0 0.3439547470852681 0.0 0.0 1:1.0 2:0.19592553 3:0.101404615 4:0.20283668 5:0.010665336 6:0.054364573 7:0.0 8:1.0 9:0.0134917 10:0.010069754 11:0.100030884 12:0.0 13:0.00773219 14:0.001053616 15:1.0 16:0.050501864 17:0.001784843 18:6.8083E-5 19:4.20815E-6 20:0.0 21:4.21164E-6 
-0.0 -0.0 -0.0 -0.0 -1.0 -0.0 -1.0 -0.0 -0.0 -0.0 -1.0 -0.0 -0.0 -0.0 -0.7044204658564578 -0.0 -1.0 -0.0 -0.0 1.0 0.0 0.0 0.31738564021399546 0.0 1.0 0.0 0.0 0.03271072486648573 0.0 0.0 0.0 0.0 0.0 0.0 0.15677203609291274 0.0 0.0 1.0 0.0 0.8988246201002787 0.0 0.0 0.8303269432042458 0.0 1:1.0 2:0.15693189 3:0.067781806 4:0.17134655 5:0.006431938 6:0.040053844 7:0.0 8:1.0 9:0.02239548 10:0.003185471 11:0.099358685 12:1.64657E-5 13:0.00912008 14:4.87306E-4 15:1.0 16:0.028540593 17:0.002062641 18:1.25396E-4 19:8.48811E-6 20:0.0 21:8.50294E-6 
-1.0 -1.0 -0.30998213945029895 -1.0 -0.0 -0.8521782190007042 -1.0 -0.44358701946097234 -0.5301773154518745 -0.7804819327868588 -0.3256217956817734 -0.287828790792516 -1.0 -0.7805851281872248 -1.0 -0.609277334089843 -1.0 -1.0 -0.28271364812494343 1.0 1.0 1.0 0.0 1.0 1.0 1.0 1.0 0.25358165054000475 1.0 1.0 0.2613643316179302 1.0 0.34283380257347273 1.0 1.0 1.0 0.41822903839381775 1.0 1.0 0.10117537989972125 0.25544204087570876 1.0 0.16967305679575417 0.38105297006015676 1:1.0 2:0.23274313 3:0.13920973 4:0.24634387 5:0.018143862 6:0.07480158 7:0.0 8:1.0 9:0.010081604 10:0.019524757 11:0.1105687 12:0.0 13:0.008066298 14:0.001871511 15:1.0 16:0.070400335 17:0.002488086 18:2.49777E-4 19:3.55203E-8 20:1.6656E-6 21:0.0 
-0.0 -1.0 -0.0 -0.0 -0.2445304671262159 -0.0 -1.0 -0.0 -0.0 -0.0 -1.0 -0.0 -0.0 -0.0 -0.2300289072333092 -0.0 -1.0 -0.0 -0.0 -1.0 0.9906972811446426 0.0 0.0 1.0 1.0 1.0 0.0 0.0 0.5961582369292037 0.0 0.0 0.0 0.0 0.0 0.0 0.0 0.0 1.0 1.0 0.0 0.0 0.0 0.0 0.0 1:1.0 2:0.1596206 3:0.07112236 4:0.17115124 5:0.006543555 6:0.040206756 7:0.0 8:1.0 9:0.021264471 10:0.005086146 11:0.09760812 12:9.25892E-5 13:0.008804234 14:6.02411E-4 15:1.0 16:0.0303873 17:0.004534542 18:5.00224E-4 19:1.98623E-7 20:1.72869E-5 21:0.0 
-0.0 -0.0 -0.0 -0.0 -1.0 -0.0 -1.0 -0.0 -0.0 -0.0 -0.2036312991291266 -0.0 -0.0 -0.0 -0.0 -0.0 -1.0 -0.0 -0.0 -1.0 0.0 0.0 0.0 0.0 1.0 1.0 0.0 0.0 0.0 0.0 0.1646709382698892 0.0 0.0 0.0 0.0 0.0 0.0 1.0 0.0 0.0 0.18879097487311228 0.0 0.5524909160237892 0.0 1:1.0 2:0.14474995 3:0.060378857 4:0.16277246 5:0.005568161 6:0.036220804 7:0.0 8:1.0 9:0.025463931 10:0.004296592 11:0.09990908 12:2.21935E-4 13:0.009696618 14:5.57305E-4 15:1.0 16:0.022956885 17:0.005573307 18:0.001074849 19:6.09216E-7 20:5.27186E-5 21:0.0 
-0.0 -0.0 -0.0 -0.0 -1.0 -0.0 -1.0 -0.0 -0.0 -0.0 -0.0 -0.0 -0.0 -0.0 -0.0 -0.0 -1.0 -0.0 -0.0 -1.0 0.0 0.0 0.31822364871563635 0.0 1.0 0.0 0.0 0.2863006001533932 0.0 0.0 0.0 0.0 0.0 0.0 0.0 0.0 0.0 1.0 0.0 0.0 0.0 0.0 0.0 0.0 1:1.0 2:0.13957031 3:0.056363523 4:0.15608056 5:0.00489849 6:0.033848003 7:0.0 8:1.0 9:0.027361982 10:0.004073487 11:0.0979794 12:2.807E-4 13:0.009795953 14:5.13039E-4 15:1.0 16:0.02046431 17:0.005954828 18:3.96273E-4 19:1.54943E-7 20:7.00121E-6 21:0.0 
-1.0 -1.0 -0.30704334250752463 -1.0 -0.0 -0.7613574371696141 -1.0 -0.4363431284463499 -0.5092991664724051 -0.7219470571090263 -1.0 -0.2854183002125297 -1.0 -0.715015862798052 -1.0 -0.5896442736748119 -1.0 -1.0 -0.280367434598903 -1.0 1.0 1.0 0.0 1.0 1.0 1.0 1.0 0.0 1.0 1.0 0.09493731688594097 1.0 0.3385993393200524 1.0 1.0 1.0 0.4098867005272576 1.0 1.0 0.0 0.06502574779366074 1.0 0.0 0.3751902371474291 1:1.0 2:0.17896785 3:0.08667124 4:0.18507914 5:0.008284422 6:0.046532966 7:0.0 8:1.0 9:0.016453778 10:0.007552782 11:0.09681562 12:0.0 13:0.007925843 14:7.59562E-4 15:1.0 16:0.041129243 17:0.003547602 18:3.31579E-4 19:9.42279E-8 20:4.31814E-6 21:0.0 
-0.24452831062400163 -1.0 -0.0 -0.0 -0.0 -0.0 -1.0 -0.0 -0.0 -0.0 -0.7963687008708734 -0.0 -0.2555197164461091 -0.0 -1.0 -0.0 -1.0 -0.11196701883425868 -0.0 -1.0 1.0 0.21362432535340295 0.0 1.0 1.0 1.0 0.0 0.0 1.0 0.0 0.0 1.0 0.0 1.0 1.0 1.0 0.0 1.0 1.0 1.0 0.0 0.3256589825958749 0.4475090839762108 0.0 1:1.0 2:0.17725046 3:0.08450128 4:0.18104509 5:0.007856878 6:0.045063093 7:0.0 8:1.0 9:0.016335428 10:0.006919034 11:0.0946677 12:0.0 13:0.007661437 14:7.20414E-4 15:1.0 16:0.040692333 17:0.002703996 18:3.40745E-4 19:8.69812E-8 20:1.27206E-5 21:0.0 
-0.7459691365169093 -1.0 -0.13891063162834758 -0.0 -1.0 -0.0 -1.0 -0.17951108054534537 -0.0 -0.0 -1.0 -0.13267341023941398 -0.19802580639840828 -0.0 -1.0 -0.1269552812512674 -1.0 -0.2464491239256683 -0.12476390690128182 -1.0 -1.0 0.020820147771577542 0.3162466225572645 1.0 1.0 1.0 0.0 0.21310629009542328 1.0 1.0 0.12989682141114228 1.0 0.12525243017017693 1.0 1.0 1.0 0.07324729771104681 1.0 1.0 1.0 0.12886329035452102 0.6485030436896613 1.0 0.11475294205789217 1:1.0 2:0.32619253 3:0.27199346 4:0.4252533 5:0.07334431 6:0.17259811 7:0.0 8:1.0 9:0.018870853 10:0.058288675 11:0.18263467 12:0.0 13:0.018570201 14:0.00109719 15:1.0 16:0.11626413 17:0.008995449 18:0.002452938 19:3.05631E-6 20:4.22177E-4 21:0.0 
-0.5401270056396037 -1.0 -0.186679526046146 -0.6267217715133829 -0.16623685910556882 -1.0 -1.0 -0.30588652566861146 -0.7072134427054986 -1.0 -0.9499070914785083 -0.16818516138174217 -1.0 -1.0 -0.1813055221990948 -0.6109146957129833 -1.0 -1.0 -0.17087048793530796 -1.0 -0.9906972811446426 1.0 0.0 1.0 1.0 1.0 1.0 0.07853156808004072 0.8956938692991508 0.0 0.14119931559830134 0.0 0.24202822507680313 0.0 0.0 0.0 0.39844615450774584 1.0 1.0 0.0 0.1356550445500401 0.8537603407927594 0.0 0.301473686055811 1:1.0 2:0.52687794 3:0.59744805 4:0.68828076 5:0.2701606 6:0.39016017 7:0.0 8:1.0 9:0.021812866 10:0.1912371 11:0.20475547 12:0.0 13:0.014806942 14:0.020560173 15:1.0 16:0.26089585 17:0.002396754 18:9.82418E-4 19:3.47405E-7 20:2.30709E-4 21:0.0 
-0.0 -1.0 -0.0 -0.37327822848661707 -1.0 -0.787100007947571 -1.0 -0.0 -0.0 -0.07246359286688957 -1.0 -0.0 -1.0 -0.04430004399370443 -1.0 -0.0 -1.0 -1.0 -0.0 -1.0 -1.0 1.0 0.0 1.0 1.0 1.0 1.0 0.0 1.0 0.0 0.0 1.0 0.0 1.0 1.0 1.0 0.0 1.0 1.0 0.0 0.0 0.0 0.0 0.0 1:1.0 2:0.4306991 3:0.43077022 4:0.5710295 5:0.16227359 6:0.28345373 7:0.0 8:1.0 9:0.015029835 10:0.111904055 11:0.20066565 12:0.0 13:0.017727606 14:0.014383417 15:1.0 16:0.1820483 17:0.005535041 18:4.29962E-4 19:2.51888E-7 20:8.46418E-5 21:0.0 
-0.0 -0.0 -0.5030851236142685 -0.0 -0.0 -1.0 -0.0 -1.0 -0.9829355253122614 -1.0 -0.0 -0.43056813996053744 -1.0 -1.0 -0.0 -1.0 -0.0 -1.0 -0.2514871444126549 -0.0 -0.0 -0.9204650656873266 0.014933601232527939 0.15833135105084883 0.2438334200525923 0.0 1.0 0.2379659848000466 1.0 0.0 0.056952440376275185 0.06284626499907248 0.2722400006869446 0.23753181538875845 0.0 0.0 0.5966899875639318 0.7541657057388235 0.842073028434741 0.0 0.037415838167008345 0.3459472271894737 0.0 0.33813745808553425 1:0.68486 2:0.5293264 3:0.7371327 4:0.82443 5:0.87909746 6:0.6686343 7:0.0 8:1.0 9:0.10490348 10:0.5040891 11:0.4309909 12:0.0 13:0.07376038 14:0.09818405 15:1.0 16:0.41115615 17:0.070581146 18:0.053774368 19:0.001626884 20:0.024087371 21:0.0 
-0.0 -0.0 -0.46656187607926797 -0.0 -1.0 -0.0 -0.0 -0.0 -0.26138110188371766 -0.0 -0.0 -0.31709856527586183 -0.0 -0.0 -0.0 -0.0 -0.0 -0.0 -0.0 -0.0 -0.0 -0.0 0.0 0.0 0.22949699593370274 0.0 0.0 1.0 0.0 0.0 0.0 0.0 0.0 0.0 0.0 0.0 0.40331001243606807 0.0 0.0 0.0 0.0 0.0 0.0 0.0012758768257615557 1:6.35397E-5 2:6.8325E-5 3:2.11099E-4 4:2.12737E-4 5:1.0 6:0.002307946 7:4.81814E-5 8:0.87298447 9:0.87298 10:0.8735153 11:0.87349576 12:0.0 13:0.8728621 14:0.8413357 15:0.001687136 16:0.032503 17:0.020396156 18:0.022190802 19:1.0 20:0.18916078 21:0.0 
-0.15088615407653816 -0.2488947873029874 -0.0 -0.03608984240405085 -0.3255609276903549 -0.0 -0.2328534792619678 -0.0 -0.0 -0.22105271303246293 -0.2092918486332567 -0.0 -0.4162968447191058 -0.0 -0.5373448210750885 -0.0 -0.2369118953265256 -0.36333918757921796 -0.0 -0.21904851018808824 -0.21362432535340295 -0.10035508208425101 0.6501990240253821 0.22503595198608364 1.0 0.2342418504825609 0.0 0.0 0.49385397387560676 0.12110982599891312 0.0 0.21779735606085718 0.0 0.227329198002587 0.21528872939393126 0.23470968023960892 0.0 0.22268777692441233 0.14130952347563203 0.17530978253035934 0.0 0.21801758419217346 0.17880687611752072 0.0 1:5.48017E-5 2:5.75846E-5 3:1.32359E-4 4:1.32842E-4 5:1.0 6:0.001604511 7:2.8303E-5 8:0.68286717 9:0.6828666 10:0.68310845 11:0.68304694 12:0.20311454 13:0.6826591 14:0.5 15:0.0 16:1.12116E-4 17:0.001002678 18:0.001007217 19:1.0 20:0.011111789 21:2.73568E-4 
-0.9684233677086255 -1.0 -0.0 -0.9639101575959491 -0.9860496406728612 -0.9502569780171022 -1.0 -0.03847840677150225 -0.0 -0.778947286967537 -1.0 -0.0 -1.0 -0.06370963900339768 -1.0 -0.29243705828044786 -1.0 -1.0 -0.0 -1.0 -1.0 -1.0 0.0 1.0 1.0 1.0 1.0 0.0 1.0 0.8788901740010868 0.0 1.0 0.0 1.0 1.0 1.0 0.0 1.0 1.0 0.8246902174696407 0.0 1.0 0.8211931238824793 0.0 1:0.93384135 2:0.5743732 3:0.75407845 4:0.85383886 5:0.5504901 6:0.5615413 7:0.0 8:1.0 9:0.044535372 10:0.29712227 11:0.28700957 12:0.0 13:0.030654851 14:0.040825088 15:1.0 16:0.3127041 17:0.03561961 18:0.023822775 19:2.81789E-4 20:0.008405578 21:0.0 
-1.0 -0.0 -1.0 -0.0 -1.0 -0.0 -0.0 -1.0 -0.8759092297979649 -0.0 -0.0 -1.0 -0.0 -0.9362903609966023 -0.7258024888359993 -0.7225154982865598 -0.0 -0.0 -0.748512855587345 -0.0 -0.0 -0.0 0.0 0.0 0.0 0.0 0.0 1.0 0.0 0.0 0.0 0.0 0.0 0.0 0.0 0.0 1.0 0.0 0.0 0.0 0.0 0.4360351886183529 0.0 0.0 1:8.20574E-5 2:8.54576E-5 3:1.98709E-4 4:2.00164E-4 5:1.0 6:0.001991143 7:7.36212E-5 8:0.9631463 9:0.9631429 10:0.9635868 11:0.9635956 12:0.0 13:0.96313244 14:0.9705663 15:0.12258022 16:1.0 17:0.016679458 18:0.028462324 19:0.048298623 20:0.2504148 21:0.0 
-1.0 -0.0 -1.0 -0.0 -0.27956085331964153 -0.0 -0.0 -1.0 -1.0 -1.0 -0.0 -1.0 -0.2585363101046756 -1.0 -0.0 -1.0 -0.0 -0.2524988756869263 -1.0 -0.0 -0.0 -0.0 0.0 0.0 0.0 0.0 0.0 1.0 0.487791718263474 0.0 0.9430475596237248 0.0 0.7277599993130555 0.0 0.0 0.0 1.0 0.0 0.0 0.0 0.9625841618329917 1.0 0.0 0.6605866650887041 1:2.10011E-5 2:2.93615E-5 3:2.52455E-4 4:2.56167E-4 5:1.0 6:0.003042893 7:2.0475E-6 8:0.9574468 9:0.95743614 10:0.9583041 11:0.9583332 12:0.0 13:0.957438 14:0.9691048 15:0.15732543 16:1.0 17:0.02097985 18:0.031021765 19:0.03458945 20:0.20489529 21:0.0 
-0.8806904782148364 -0.0 -0.0 -0.0 -0.7015259986978887 -0.0497430219828978 -0.0 -0.19737444228251066 -0.0 -0.0 -0.0 -0.0 -0.0 -0.0 -0.0 -0.2740355185131876 -0.0 -0.0 -0.0 -0.0 -0.0 -0.0 0.33486737474208994 0.0 1.0 0.0 0.0 0.7620340151999535 0.0 0.0 0.0 0.0 0.0 0.0 0.0 0.0 0.0 0.0 0.0 0.0 0.0 0.0 0.0 0.0 1:5.81084E-5 2:6.58112E-5 3:2.63781E-4 4:2.6589E-4 5:1.0 6:0.002879667 7:2.77849E-5 8:0.83156216 9:0.83155507 10:0.83230555 11:0.8322377 12:0.0 13:0.8313067 14:0.76083034 15:0.001485585 16:0.011640094 17:0.015551809 18:0.015347297 19:1.0 20:0.10833585 21:0.0 
-1.0 -0.3237948098488927 -0.7737104778243112 -0.3068899502129157 -1.0 -0.3639561090947496 -0.31606517284347535 -0.8026658289178332 -1.0 -0.7270293108145943 -0.3216621359795668 -0.7236765358580663 -0.6085366275069819 -0.8621493894540841 -1.0 -0.8032090798984384 -0.31484696678331536 -0.4687942985681305 -0.7377851243339912 -0.31738564021399546 -0.31822364871563635 -0.3162466225572645 -1.0 0.31796065207963775 1.0 0.3161383909318845 0.321686361761144 1.0 0.6211444106346201 0.31525443993753033 0.708071735411889 0.31491381822210796 0.7009947126518044 0.3190338505337535 0.3166760230736799 0.31891024610641955 1.0 0.3333400627383312 0.31082115576774155 0.3164382825839098 0.7198150816112009 1.0 0.32226239138476614 0.7347222297611496 1:4.44924E-4 2:5.86549E-4 3:0.002079182 4:0.002162297 5:1.0 6:0.012442662 7:7.00922E-5 8:0.7239067 9:0.72374403 10:0.72936267 11:0.7284683 12:0.05242413 13:0.7222084 14:0.5 15:0.004768158 16:0.013813403 17:0.03293672 18:0.031203013 19:1.0 20:0.11161778 21:0.0 
-1.0 -1.0 -0.317647886827622 -1.0 -0.23863898102764455 -1.0 -1.0 -0.4649367372562023 -0.5976475325690742 -0.9831761499111369 -1.0 -0.2942484830499749 -1.0 -1.0 -0.23753500461179908 -0.669576129372421 -1.0 -1.0 -0.2890081351991016 -1.0 -1.0 -1.0 -1.0 -0.0 1.0 1.0 1.0 0.0 0.996318962188557 0.42942464551976495 0.2661945155454434 0.4854953965984913 0.35473050094616815 1.0 0.0 0.0 0.4421199049013455 1.0 1.0 0.0 0.2599515524058764 1.0 0.0 0.3978576812808857 1:1.0 2:0.33583197 3:0.2758861 4:0.41472968 5:0.070009224 6:0.16988368 7:0.0 8:1.0 9:0.010957443 10:0.056018528 11:0.16435528 12:0.0 13:0.014010507 14:0.006901443 15:1.0 16:0.12186883 17:0.005927586 18:1.72198E-4 19:1.01052E-5 20:0.0 21:1.01547E-5 
-0.0 -1.0 -0.0 -0.0 -1.0 -0.0 -1.0 -0.0 -0.0 -0.0 -1.0 -0.0 -0.0 -0.0 -1.0 -0.0 -1.0 -0.0 -0.0 -1.0 -1.0 -1.0 -0.0 -0.0 1.0 1.0 0.0 0.0 0.8258882076873499 0.5177204324493476 0.0 1.0 0.0 0.0 1.0 1.0 0.0 1.0 1.0 1.0 0.0 0.0 1.0 0.0 1:1.0 2:0.2603095 3:0.17834406 4:0.3230471 5:0.03500969 6:0.11141747 7:0.0 8:1.0 9:0.014444275 10:0.026422298 11:0.15011573 12:0.0 13:0.013882689 14:0.003546474 15:1.0 16:0.075369395 17:0.007807977 18:2.57197E-5 19:1.67658E-8 20:0.0 21:2.04136E-8 
-0.2721064258599179 -1.0 -0.0 -0.0 -1.0 -0.051898878119045054 -1.0 -0.0 -0.0 -0.0 -1.0 -0.0 -0.5625626813404426 -0.0 -1.0 -0.0 -1.0 -0.45870175405651703 -0.0 -1.0 -1.0 -1.0 -0.38336730303693245 -0.31796065207963775 1.0 1.0 0.3077906648073198 0.2897073456611337 1.0 0.052854922030887375 0.0 0.5145046034015087 0.0 1.0 1.0 1.0 0.0 1.0 1.0 0.0 0.0 0.4209671028313855 0.0 0.0 1:1.0 2:0.26688555 3:0.19464816 4:0.35615957 5:0.04332305 6:0.12766577 7:0.0 8:1.0 9:0.016001943 10:0.032845665 11:0.1691149 12:0.0 13:0.016642103 14:0.004333116 15:1.0 16:0.075529836 17:0.017509563 18:6.62019E-4 19:8.19738E-5 20:0.0 21:8.18491E-5 
-1.0 -0.0 -0.1845161314499745 -0.987527257103005 -0.0 -1.0 -0.0 -0.4814253072534664 -0.5014055431891223 -0.8956198554978784 -0.0 -0.13825561208559128 -1.0 -0.8626289444139512 -0.0 -0.7440332250928429 -0.0 -1.0 -0.16889866749070348 -0.0 -0.0 -1.0 -1.0 -0.0 -1.0 0.0 1.0 0.07510982251897268 1.0 0.47610678150723634 0.13373917356163192 0.6824212430685431 0.28991782362921376 1.0 0.0 0.0 0.35423971489195666 1.0 1.0 0.0 0.12044379069268409 1.0 0.0 0.3344768975116102 1:1.0 2:0.33624333 3:0.2739784 4:0.38933855 5:0.06106758 6:0.15591699 7:0.0 8:1.0 9:0.006827764 10:0.06710819 11:0.14344878 12:0.0 13:0.008730646 14:0.005435093 15:1.0 16:0.13535973 17:0.007698808 18:0.002581831 19:2.74881E-6 20:3.42033E-4 21:0.0 
-0.0 -1.0 -0.0 -0.0 -0.0 -0.0 -1.0 -0.0 -0.0 -0.0 -0.9776872027134011 -0.0 -0.0 -0.0 -0.0 -0.0 -1.0 -0.0 -0.0 -1.0 -1.0 -0.0 -0.0 -0.0 -0.0 1.0 0.0 0.0 0.0 0.0 0.0 0.0 0.0 0.0 0.0 0.9499040431929633 0.0 1.0 0.0 0.0 0.0 0.0 0.0 0.0 1:1.0 2:0.2511353 3:0.17586792 4:0.29809704 5:0.028845591 6:0.09770731 7:0.0 8:1.0 9:0.011164895 10:0.037210044 11:0.13572773 12:0.0 13:0.011099368 14:0.002828168 15:1.0 16:0.07742202 17:0.023822164 18:0.002816651 19:7.99779E-5 20:0.0 21:7.2484E-5 
-0.0 -0.9765663238225681 -0.0 -0.0 -0.0 -0.0 -1.0 -0.0 -0.0 -0.0 -0.0 -0.0 -0.0 -0.0 -0.0 -0.0 -1.0 -0.0 -0.0 -0.989726428582378 -1.0 -0.0 -0.0 -0.0 -1.0 0.0 0.0 0.0 0.0 0.0 0.0 0.0 0.0 0.17812158234570946 0.0 0.0 0.0 1.0 0.0 0.0 0.0 0.0 0.0 0.0 1:1.0 2:0.2503763 3:0.18582794 4:0.31359568 5:0.033966728 6:0.10379686 7:0.0 8:1.0 9:0.012727688 10:0.04633424 11:0.14768143 12:1.27577E-4 13:0.012911797 14:0.003281292 15:1.0 16:0.07572218 17:0.038584355 18:0.007397977 19:3.99732E-5 20:5.40968E-4 21:0.0 
-0.0 -1.0 -0.0 -0.0 -1.0 -0.0 -1.0 -0.0 -0.0 -0.0 -1.0 -0.0 -0.0 -0.0 -0.022975325446482432 -0.0 -1.0 -0.0 -0.0 -1.0 -1.0 -0.0 -0.0 -0.0 -0.0 1.0 0.0 0.0 0.0 0.0 0.0 0.0 0.0 0.0 0.9972059656790835 1.0 0.0 0.0 0.0 0.0 0.0 0.0 0.9896304489930944 0.0 1:1.0 2:0.2495349 3:0.17257322 4:0.28967246 5:0.028373951 6:0.093808815 7:0.0 8:1.0 9:0.009344892 10:0.038116574 11:0.13028286 12:0.0 13:0.009448541 14:0.002538524 15:1.0 16:0.08012712 17:0.021961426 18:0.007582458 19:2.48184E-5 20:7.83364E-4 21:0.0 
-0.0 -0.0 -0.0 -0.0 -0.0 -0.0 -1.0 -0.0 -0.0 -0.0 -0.0 -0.0 -0.0 -0.0 -0.0 -0.0 -0.0 -0.0 -0.0 -0.0 -0.0 -0.0 -0.0 -0.0 -0.0 0.0 0.0 0.0 0.0 0.0 0.0 0.0 0.0 0.0 0.0 0.0 0.0 1.0 0.0 0.0 0.0 0.0 0.0 0.0 1:1.0 2:0.2638173 3:0.19621107 4:0.31538776 5:0.0355371 6:0.106954284 7:0.0 8:1.0 9:0.009859163 10:0.048468996 11:0.13981472 12:0.0 13:0.010771728 14:0.003294224 15:1.0 16:0.08683916 17:0.03205431 18:0.007567606 19:3.62376E-5 20:6.93329E-4 21:0.0 
-1.0 -0.0 -0.7799950147173832 -0.012472742896994954 -1.0 -0.16331387886765317 -0.0 -0.8018713587907109 -1.0 -0.6404203698248734 -0.0 -0.7610680289696642 -0.4688959039306307 -0.790594703951716 -0.9770246745535175 -0.7720835316977405 -0.0 -0.27363238638932225 -0.7575551956762203 -0.0 -0.0 -0.02828576799124783 -1.0 -0.0 -0.0037210866757031317 0.0 0.11009563334912663 1.0 0.7790384469512466 6.120101404741412E-4 0.7478268769669008 0.0 0.6837047431235898 0.015985369774107548 0.0 0.0 0.9968607175054592 0.16832071467874196 0.013205259210053997 0.0 0.7730305793513781 0.9511135629898607 0.0 0.6655231024883899 1:7.23425E-5 2:8.11522E-5 3:2.96649E-4 4:3.03524E-4 5:1.0 6:0.003100918 7:6.53063E-5 8:0.8342851 9:0.83427685 10:0.8350492 11:0.83503205 12:0.0 13:0.8341285 14:0.7592848 15:0.003139837 16:0.011736655 17:0.017998423 18:0.016346838 19:1.0 20:0.099677816 21:0.0 
-0.0 -0.0 -0.0 -0.0 -1.0 -0.0 -1.0 -0.0 -0.0 -0.0 -1.0 -0.0 -0.0 -0.0 -1.0 -0.0 -1.0 -0.0 -0.0 -1.0 -1.0 -0.0 -0.0 -0.05398683119498209 -0.0 1.0 0.0 0.0 0.0 0.0 0.0 1.0 0.0 0.0 1.0 0.04604473260494626 0.0 0.0 0.0 0.994908830266075 0.0 0.0 0.0 0.0 1:1.0 2:0.2654231 3:0.1770462 4:0.2748226 5:0.025633067 6:0.090508156 7:0.0 8:1.0 9:0.005685282 10:0.036085933 11:0.11052453 12:0.0 13:0.006322954 14:0.002595661 15:1.0 16:0.095511995 17:0.0065693 18:0.003402055 19:3.83231E-6 20:4.94486E-4 21:0.0 
-0.0 -0.0 -0.0 -0.0 -0.0 -0.0 -1.0 -0.0 -0.0 -0.0 -0.0 -0.0 -0.0 -0.0 -0.0 -0.0 -0.0 -0.0 -0.0 -0.0 -0.0 -0.9717142320087522 -0.0 -0.0 -0.6700995684737701 0.0 0.0 0.0 0.9311590709233519 0.0 0.0 0.0 0.0 0.0 0.0 0.0 0.0 1.0 0.986794740789946 0.0 0.0 0.0 0.0 0.0 1:1.0 2:0.27270094 3:0.20153609 4:0.31911892 5:0.036211416 6:0.11026324 7:0.0 8:1.0 9:0.008508842 10:0.047644492 11:0.13624157 12:0.0 13:0.009796669 14:0.003301944 15:1.0 16:0.09358956 17:0.024087967 18:0.0056682 19:1.97103E-5 20:5.09574E-4 21:0.0 
-0.0733044757850115 -0.0 -0.0 -0.0 -0.0 -0.03169663227332806 -0.0 -0.0 -0.0 -0.0 -0.0 -0.0 -0.5311040960693694 -0.0 -0.0 -0.0 -0.0 -0.4743058569180125 -0.0 -0.0 -0.0 -1.0 -0.47333041598629505 -0.0 -0.32617934485052674 0.0 0.2901862097315895 0.0 1.0 0.0 0.0 0.0 0.0 0.8058930478801829 0.0 0.0 0.0 1.0 1.0 0.0 0.0 0.32368763893726776 0.0 0.0 1:1.0 2:0.32262456 3:0.25531083 4:0.36785856 5:0.052845612 6:0.14240839 7:0.0 8:1.0 9:0.006461303 10:0.061550565 11:0.1379203 12:0.0 13:0.008345785 14:0.004743271 15:1.0 16:0.12739445 17:0.009372197 18:0.002852862 19:3.96196E-6 20:3.37592E-4 21:0.0 
-0.7532672869659381 -0.02343367617743187 -0.0 -0.0 -1.0 -0.0 -0.0 -0.0 -0.01804884451046965 -0.0 -0.02231279728659889 -0.0 -0.0 -0.0 -0.0 -0.0 -0.0 -0.0 -0.0 -0.010273571417621983 -0.021627021149517565 -0.0 -1.0 -0.946013168805018 -0.0 0.0 0.0 0.865005607013409 0.0 0.0 0.0 0.0 0.0 0.0 0.002794034320916492 0.0040512242020904815 0.0 0.0 0.0 0.005091169733924944 0.0 0.0 0.010369551006905585 0.0 1:2.5714E-5 2:3.53312E-5 3:2.59355E-4 4:2.66411E-4 5:1.0 6:0.003157439 7:0.0 8:0.8088693 9:0.8088611 10:0.8096737 11:0.80962545 12:0.0 13:0.8086346 14:0.6970771 15:0.00175796 16:0.006277119 17:0.012627695 18:0.011676339 19:1.0 20:0.072436534 21:0.0 
-0.0 -0.0 -0.0 -0.0 -0.0 -0.0 -1.0 -0.0 -0.0 -0.0 -0.0 -0.0 -0.0 -0.0 -1.0 -0.0 -1.0 -0.0 -0.0 -1.0 -0.9783729788504825 -0.0 -0.0 -0.0 -0.0 1.0 0.0 0.0 0.0 0.5232812083522894 0.0 0.3175787569314569 0.0 0.0 0.0 0.0 0.0 0.8316792853212579 0.0 0.0 0.0 0.0 0.0 0.0 1:1.0 2:0.26724282 3:0.18949312 4:0.30214787 5:0.03166517 6:0.10213321 7:0.0 8:1.0 9:0.007612961 10:0.0421301 11:0.12771279 12:0.0 13:0.008576107 14:0.002921278 15:1.0 16:0.092241704 17:0.017223092 18:0.004997105 19:1.17321E-5 20:5.50393E-4 21:0.0 
-0.0 -0.0 -0.0 -0.0 -1.0 -0.0 -1.0 -0.0 -0.0 -0.0 -1.0 -0.0 -0.0 -0.0 -1.0 -0.0 -1.0 -0.0 -0.0 -1.0 -1.0 -1.0 -0.0 -0.0 -1.0 -1.0 0.0 0.0 0.6872524711467851 0.0 0.0 0.0 0.0 0.0 0.0 0.0 0.0 1.0 1.0 0.0 0.0 0.0 0.0 0.0 1:1.0 2:0.23053695 3:0.13748826 4:0.24582084 5:0.017925723 6:0.07425834 7:0.0 8:1.0 9:0.010481697 10:0.019199086 11:0.11154904 12:0.0 13:0.008241853 14:0.001799809 15:1.0 16:0.06881727 17:0.003192238 18:5.93336E-4 19:9.63254E-8 20:7.05291E-5 21:0.0 
-0.0 -1.0 -0.0 -0.0 -1.0 -0.0 -1.0 -0.0 -0.0 -0.0 -1.0 -0.0 -0.0 -0.0 -1.0 -0.0 -1.0 -0.0 -0.0 -1.0 -1.0 -0.0 -0.0 -0.3161383909318845 -0.0 -1.0 0.0 0.03233229009985558 0.0 0.0 0.0 0.0 0.0 0.0 1.0 1.0 0.0 1.0 0.0 1.0 0.0 0.0 1.0 0.0 1:1.0 2:0.22009721 3:0.12737131 4:0.23928766 5:0.01638619 6:0.070438184 7:0.0 8:1.0 9:0.01250187 10:0.015993262 11:0.1133214 12:0.0 13:0.008949506 14:0.001605961 15:1.0 16:0.061313067 17:0.003815205 18:4.43226E-4 19:2.19543E-8 20:4.98769E-5 21:0.0 
-1.0 -1.0 -0.310763700837803 -1.0 -0.0 -0.8741783138860103 -1.0 -0.4458057425275911 -0.5360369421955998 -0.7948555602670454 -0.0 -0.28849537378154255 -1.0 -0.7966915863399239 -0.0 -0.6149308784056055 -1.0 -1.0 -0.28336351362678336 -1.0 -1.0 -1.0 -1.0 -0.0 -1.0 -1.0 1.0 0.0 1.0 1.0 0.2618805236363836 1.0 0.3440254557288133 1.0 0.0 0.0 0.42044914826875557 1.0 1.0 0.0 0.2559271847959088 1.0 0.0 0.38270272560906515 1:1.0 2:0.23947889 3:0.14785083 4:0.26225266 5:0.021040864 6:0.08198339 7:0.0 8:1.0 9:0.010449112 10:0.021261249 11:0.1179822 12:0.0 13:0.008882245 14:0.002083542 15:1.0 16:0.0726622 17:0.002937213 18:5.68125E-4 19:4.86985E-8 20:6.73974E-5 21:0.0 
-0.25618306737828084 -1.0 -0.0 -0.0 -0.244121814024785 -0.0 -1.0 -0.0 -0.0 -0.0 -1.0 -0.0 -0.3405288475289132 -0.0 -0.23613064574961384 -0.0 -1.0 -0.22374901720980744 -0.0 -1.0 -1.0 -1.0 -0.2342418504825609 -0.0 -1.0 -1.0 0.0795417497323911 0.25412653989598827 1.0 0.0 0.0 1.0 0.0 1.0 1.0 1.0 0.0 1.0 1.0 0.0 0.0 0.36271546001281324 0.0 0.0 1:1.0 2:0.23556733 3:0.14340809 4:0.2514044 5:0.019027654 6:0.07708921 7:0.0 8:1.0 9:0.010173763 10:0.021105304 11:0.112696685 12:0.0 13:0.008295828 14:0.001898534 15:1.0 16:0.07155631 17:0.004265873 18:4.59777E-4 19:1.32184E-7 20:4.50092E-5 21:0.0 
-1.0 -1.0 -0.0 -1.0 -1.0 -1.0 -1.0 -0.0 -0.0 -0.4450516448052419 -1.0 -0.0 -1.0 -0.171243390539307 -1.0 -0.0 -1.0 -1.0 -0.0 -1.0 -1.0 -1.0 -1.0 -0.0 -1.0 -1.0 -1.0 0.0 1.0 1.0 0.0 1.0 0.0 1.0 1.0 1.0 0.0 1.0 1.0 1.0 0.0 1.0 1.0 0.0 1:1.0 2:0.5441553 3:0.684519 4:0.8975233 5:0.5037287 6:0.559566 7:0.0 8:1.0 9:0.045192096 10:0.18608463 11:0.3305097 12:0.0 13:0.05338992 14:0.04398388 15:1.0 16:0.22475895 17:0.015018521 18:0.00160775 19:3.20688E-4 20:0.0 21:3.22478E-4 
-0.21889366154172213 -0.10124735836660238 -0.36861993947543054 -0.0 -0.004362994302841315 -1.0 -0.08713395199389393 -0.6101581554131159 -1.0 -1.0 -0.013568538283320369 -0.339729933536521 -1.0 -1.0 -0.05729504867122922 -1.0 -0.1264894025145205 -1.0 -0.3351558545848476 -0.0306762179247358 -0.0 -1.0 -1.0 -0.321686361761144 -0.3077906648073198 -0.4002818430807161 -0.0795417497323911 0.3169457092042418 0.8962864449973706 0.0 0.30259613799378654 0.19719502559447505 0.4355164190187649 0.3998890803577235 0.028648489581610405 0.07774310750092261 0.5994807682999751 1.0 0.9054640220965083 0.0 0.29429430435072246 0.5205425961316088 0.0 0.5111328443395092 1:0.7766838 2:0.49820256 3:0.73286426 4:0.9971547 5:0.9435843 6:0.7401489 7:0.0 8:1.0 9:0.10398905 10:0.24884276 11:0.50897646 12:0.0 13:0.12964018 14:0.100700095 15:1.0 16:0.24506865 17:0.00831397 18:9.49457E-4 19:1.99732E-4 20:0.0 21:2.00603E-4 
-1.0 -0.0 -1.0 -0.0 -0.1280100599709136 -0.0 -0.0 -0.7239718317356293 -0.11819864028703271 -0.0 -0.0 -1.0 -0.0 -1.0 -0.0 -0.13655280304402917 -0.0 -0.0 -0.8681686486010128 -0.0 -0.0 -0.0 -1.0 -0.0 -0.0 -0.2122318057135539 -0.0 -0.0 0.0 0.0 0.25818830311892177 0.0 0.0 0.0 0.0 0.0 0.42509495809700815 0.0 0.0 0.0 0.43902036393855703 0.17466411640340074 0.0 0.0 1:5.94982E-6 2:1.3511E-5 3:2.21207E-4 4:2.22542E-4 5:1.0 6:0.002870397 7:4.5907E-6 8:0.99674565 9:0.9967358 10:0.9976046 11:0.997594 12:0.0 13:0.99666494 14:0.9958507 15:0.15176378 16:1.0 17:0.002613558 18:6.62798E-4 19:1.84445E-4 20:0.0 21:1.95167E-4 
-0.2711646263466527 -0.0 -1.0 -0.0 -1.0 -0.0 -0.0 -0.06672019133445019 -1.0 -0.0 -0.0 -1.0 -0.0 -0.2216302575526725 -0.5637919679422333 -0.847607327617582 -0.0 -0.0 -0.13183135139898713 -0.0 -0.0 -0.0 -1.0 -0.0 -0.0 -0.7278836238188278 -0.0 -0.0 0.0 0.0 0.0 0.0 0.0 0.0 0.0 0.0 1.0 0.0 0.0 0.0 0.0 0.5904412782236466 0.0 0.0 1:1.9842E-4 2:2.24415E-4 3:7.48693E-4 4:7.58291E-4 5:1.0 6:0.005595976 7:1.4712E-4 8:0.9396449 9:0.93960065 10:0.941664 11:0.9416857 12:0.0 13:0.9394869 14:0.93930167 15:0.21645592 16:1.0 17:0.1131712 18:0.08967972 19:0.18809497 20:0.38339642 21:0.0 
-1.0 -0.15814760851350215 -0.452001315818128 -0.1292419515599927 -1.0 -0.12976199330266175 -0.14877527918884761 -0.2093079769299205 -0.3653424610015358 -0.183862189760632 -0.16041416481605753 -0.0 -0.20557219092447737 -0.037465211842319074 -0.4263269825452737 -0.12305871487341641 -0.14646775570757964 -0.15354897012474364 -0.0 -0.15133883212498317 -0.15765947522183135 -0.13886345850248316 -1.0 -1.0 -0.15069958959813767 -1.0 -0.1506716514135368 -0.12339976893538881 0.19111805528226172 0.14613024080832793 0.0 0.14111147621209838 0.0 0.14645304092803843 0.1499694622404716 0.1532372855303257 0.5749050419029919 0.15299942493293334 0.13372601753860497 0.15510331648597214 0.0 0.23489460537295262 0.1588980685838623 0.04529728779315287 1:9.44779E-5 2:1.44428E-4 3:9.65136E-4 4:9.79804E-4 5:1.0 6:0.00750294 7:6.86085E-5 8:0.84240687 9:0.8423258 10:0.84549814 11:0.84526414 12:0.0 13:0.8416951 14:0.7767308 15:0.02620026 16:0.11345888 17:0.07794705 18:0.07827254 19:1.0 20:0.33634648 21:0.0 
-1.0 -0.13493661474720547 -1.0 -0.16005645837236035 -1.0 -0.23728533858250617 -0.13728442208649907 -1.0 -1.0 -0.9102840324268543 -0.1287229836558263 -1.0 -0.5175309994787792 -1.0 -0.3583954122643304 -1.0 -0.13994292747737475 -0.3479682882309172 -1.0 -0.13495354328150727 -0.12864112493156193 -0.15277439967298084 -1.0 -0.0 -0.13900775606299604 -0.0 -0.13578717858230707 -0.19354594026885297 0.5916083083097756 0.14216176431775138 0.7418116968810782 0.14697470292510686 1.0 0.14522587964603922 0.13650867890483334 0.13590557646245444 1.0 0.15511730235281374 0.15540147066507806 0.12995597324954164 0.560979636061443 1.0 0.131476037703281 0.9547027122068471 1:8.86724E-4 2:0.001071008 3:0.003371946 4:0.003519066 5:1.0 6:0.016007837 7:4.61772E-4 8:0.9287175 9:0.92816806 10:0.936479 11:0.9379448 12:0.0 13:0.92891216 14:0.9423366 15:0.38187012 16:1.0 17:0.12903556 18:0.079529315 19:0.060542792 20:0.18926966 21:0.0 
-1.0 -0.7094743588052518 -1.0 -0.0 -0.6806045174270874 -0.36063670639463996 -0.0 -1.0 -1.0 -1.0 -0.0 -0.9761099515394733 -0.9850166184775403 -1.0 -0.7108295548581796 -1.0 -0.0 -1.0 -0.9495266143888109 -0.0 -0.0 -0.0 -1.0 -0.6163265169001391 -0.0 -1.0 -0.0 -0.06558574648977858 -0.7827263635920374 0.0 0.7722937151018264 0.0 1.0 0.0 0.0 0.0 1.0 0.02740425139928308 0.0 0.0 0.7281830885505424 1.0 0.0 1.0 1:0.1866906 2:0.17691593 3:0.36261117 4:0.42577893 5:1.0 6:0.43707004 7:0.0 8:1.0 9:0.29569915 10:0.60615796 11:0.7773505 12:0.0 13:0.31074566 14:0.29187205 15:1.0 16:0.42378357 17:0.013194491 18:0.00346856 19:1.82038E-5 20:8.45763E-4 21:0.0 
-0.0 -1.0 -0.0 -0.7473031769527124 -0.8915410178181249 -0.5131730285749675 -1.0 -0.0 -0.0 -0.5887100637848268 -1.0 -0.0 -1.0 -0.0 -0.8549993285944619 -0.0 -1.0 -0.7116522260713297 -0.0 -1.0 -1.0 -1.0 -0.9816456921390809 -0.0 -1.0 -1.0 -1.0 -0.8307006985075922 -0.0 0.9475528812342658 0.0 1.0 0.0 1.0 1.0 1.0 0.0 1.0 1.0 0.0 0.0 0.0 0.0 0.0 1:1.0 2:0.19325513 3:0.10757481 4:0.2357876 5:0.015094256 6:0.065500125 7:0.0 8:1.0 9:0.023064677 10:0.013298587 11:0.13053584 12:1.72977E-4 13:0.013675735 14:0.001753829 15:1.0 16:0.04002032 17:0.014223675 18:0.00133764 19:1.10181E-4 20:0.0 21:1.11601E-4 
-0.5782595266181082 -1.0 -0.0 -0.0 -1.0 -0.0 -1.0 -0.0 -0.0 -0.0 -1.0 -0.0 -0.0 -0.0 -1.0 -0.3094470398387261 -1.0 -0.0 -0.0 -1.0 -1.0 -1.0 -0.0 -0.004817893734481054 -1.0 -1.0 -1.0 -0.0 -0.0 0.0 0.0 0.9079877352770332 0.0 0.8130036317455087 0.9985838179365678 0.967808823928435 0.0 1.0 1.0 1.0 0.0 0.5440269870657245 0.9983945081463391 0.0 1:1.0 2:0.17204654 3:0.08629498 4:0.21267478 5:0.011231143 6:0.054847922 7:0.0 8:1.0 9:0.027608726 10:0.008878853 11:0.12656562 12:4.39495E-4 13:0.014018674 14:0.00141802 15:1.0 16:0.029716466 17:0.011364111 18:0.001037841 19:7.35561E-5 20:0.0 21:7.42535E-5 
-0.37060107061560627 -0.005980236583888586 -0.0708383733011308 -0.2526968230472876 -0.0 -1.0 -0.6796349871798698 -1.0 -0.944097458747887 -1.0 -0.6250831123345099 -0.0 -1.0 -1.0 -0.0 -1.0 -0.7124592589557883 -1.0 -0.0 -0.6369899845367485 -0.5961582369292037 -0.8956938692991508 -1.0 -0.0 -0.8222071698759069 -0.7101975178745985 -0.6872524711467851 -1.0 -0.0 0.052447118765734116 0.0 0.09201226472296678 0.0 0.18699636825449117 0.001416182063432216 0.032191176071564985 0.38839979706266076 1.0 0.8984524582118173 0.0 0.0 1.0 0.0016054918536608787 0.0 1:0.1891083 2:0.1811186 3:0.37095106 4:0.42789245 5:1.0 6:0.4400659 7:0.0 8:1.0 9:0.2893932 10:0.62202156 11:0.75978047 12:0.0 13:0.2976658 14:0.28654948 15:1.0 16:0.43897614 17:0.010795563 18:0.004270296 19:2.11117E-5 20:0.001415225 21:0.0 
-1.0 -1.0 -0.315484753078628 -1.0 -1.0 -1.0 -1.0 -0.45826939877528955 -0.573221692061862 -0.9016550601981694 -1.0 -0.29242869753390366 -1.0 -0.9217566858772203 -1.0 -0.6488463243974789 -1.0 -1.0 -0.28713710152931227 -1.0 -1.0 -1.0 -1.0 -0.31525443993753033 -1.0 -1.0 -1.0 -1.0 -0.28829200512607933 -1.0 0.2648494290349235 1.0 0.3511022106030608 1.0 1.0 1.0 0.4342677298999263 1.0 1.0 1.0 0.25870503841466586 1.0 1.0 0.39253953995222984 1:1.0 2:0.29605168 3:0.22074433 4:0.35669622 5:0.0471765 6:0.13257003 7:0.0 8:1.0 9:0.009079271 10:0.042722713 11:0.14806099 12:0.0 13:0.0110963 14:0.00438231 15:1.0 16:0.10338253 17:0.004326709 18:0.003201258 19:2.10681E-6 20:4.12531E-4 21:0.0 
-1.0 -0.2664933530607287 -1.0 -0.2708023012840312 -1.0 -0.35170949004369956 -0.261898551866137 -1.0 -1.0 -1.0 -0.2625782011528342 -1.0 -0.6988940594011762 -1.0 -1.0 -1.0 -0.26272455555866225 -0.4831323034413471 -1.0 -0.2613643316179302 -0.2596082551558302 -0.2710961370094436 -1.0 -0.708071735411889 -0.2661945155454434 -0.8815660505285328 -0.2618805236363836 -0.30259613799378654 -1.0 -0.7722937151018264 -0.2648494290349235 0.26590192816262037 1.0 0.2684685176135029 0.26185071238643315 0.2637600133000104 1.0 0.28388532909308856 0.26953423079634975 0.2591249938288015 1.0 1.0 0.2634395157346104 1.0 1:2.31587E-4 2:9.67065E-4 3:0.007740545 4:0.008215667 5:1.0 6:0.032061834 7:3.05543E-4 8:0.9721995 9:0.9684335 10:0.994823 11:1.0 12:0.0 13:0.97040766 14:0.9546415 15:0.5537416 16:1.0 17:0.02142131 18:0.001247076 19:0.0 20:3.41556E-4 21:2.50749E-5 
-1.0 -1.0 -0.3174294962590734 -1.0 -1.0 -1.0 -1.0 -0.46069506828484796 -0.5855452364708125 -0.9561486296183375 -1.0 -0.2939327106597671 -1.0 -0.9913638126147087 -1.0 -0.6571798096020303 -1.0 -1.0 -0.2885979026286036 -1.0 -1.0 -1.0 -1.0 -0.041154031538748866 -1.0 -1.0 -1.0 -1.0 -0.27056423766513527 -1.0 -0.6434590120201951 -0.26590192816262037 0.3534768661953665 1.0 1.0 1.0 0.4393647518949562 1.0 1.0 0.0 0.25967463243908556 1.0 0.0 0.39563663502036733 1:1.0 2:0.34568644 3:0.28340018 4:0.3830365 5:0.06062826 6:0.15440466 7:0.0 8:1.0 9:0.006460368 10:0.07005601 11:0.13628355 12:0.0 13:0.00813574 14:0.005475094 15:1.0 16:0.14222023 17:0.009133009 18:0.002851424 19:4.78071E-6 20:4.73343E-4 21:0.0 
