svm_type c_svc
kernel_type linear
nr_class 46
total_sv 158
rho -0.16981037445076086 0.10782278236734646 2.1231904284726517 1.719267697517448 2.0540310354052322 1.3034289721556072 0.5372718040026526 1.784377932548523 -0.09913559980260278 1.6276362601098142 -0.3042805588077182 1.0659347772598267 -0.14921252816262404 0.17595561735233584 -0.24626517838742487 -0.11967972462507134 -0.24768420742286945 -0.0598296792058331 0.07548080495131798 -0.0569077762749608 -0.09232163429260254 1.4216514943653684 0.3059165559330149 -1.1147125721318965 1.6171283631494386 -0.07322584603384596 1.624777067494906 1.725358643378711 -0.11634313819888265 1.8342683343064357 -0.14913122837812606 1.4526375376584078 0.8076428665819936 2.4131421899216843 1.578693151473999 0.5280137062072754 1.790001592299485 1.4318656093051079 1.2184786796569824 0.34461963176727295 1.3204925840338757 -0.22829749526006032 0.05521667003631592 0.13473905351779794 -0.8363852069939085 -1.5606579685318946 1.4789589548922262 1.031018604604197 1.8470409984356226 0.5034411861246361 -1.2267885680935864 1.1913544053318004 -0.306245750911168 1.2380285154682755 -1.7326820607202562 1.3225839638831316 -1.0963552327326318 -1.2281451354685202 -0.96054369014912 -1.8539218618147306 -1.343068514511414 -1.2740209164193548 -0.5161355293370007 0.10301114887589236 -0.9148922770614845 1.0267340332751855 -1.0673922176247927 -1.3216320276260376 1.0756863761265405 -1.4391031615540553 1.3190918209052898 1.1101936716079972 -1.1055383027439245 1.4098005293670566 -0.48933072838071956 1.004595002210786 1.6377359244161276 0.964292437916452 1.0716990723607784 0.7948448340406393 1.346340192220058 1.0098416466298876 1.4177073325732976 0.6437294128795118 0.9898554974201685 -1.197361652382691 0.37304769545691735 0.4363194435010704 -1.0458322606322108 0.7400162006917476 1.3458298880523523 1.854260860015981 0.4803792146863519 -0.29579877853393555 0.7720253346570345 -0.23129177544949486 1.7548629927906483 -1.3425140380859375 0.707480861051636 -0.8446438312530518 -0.7423088550567627 -1.4032124222001763 -1.3714938163757324 -1.4888003268205197 -0.4835209846496582 -0.3726376156676745 1.1853621709507822 -0.3249340057373047 0.7462171271155202 -0.742279922391109 -0.09230589866638184 0.7602957696427967 0.2619707536865795 0.7187937946971499 0.7584182130896465 0.46661615371704024 1.6780652402936556 -0.5704066993225712 0.7559557057971711 1.8935654166180427 0.9058147668838501 0.7977809893075998 0.7601079074325484 0.7858145165255697 0.7741370272057235 0.7277447184516247 0.758447894448224 0.7427757759625905 -0.9762377738952637 0.7609613465702314 0.5587656796396248 -0.12779784202575684 0.056568972605999135 2.0777846677722698 -1.8147297595658067 -0.3278712731991321 -0.8484002351760864 -0.43549085116616326 -0.46342664475068135 -0.6209800886775567 -0.9928520272990975 -0.48681378800289193 -0.4043020363168355 -0.5385569458149468 -0.5308155563541569 -0.5447689518008352 -0.5326308654633046 -0.5069184614851792 -1.8283237056377646 -0.6823779344558714 -0.15940117835998535 -0.4627747055741137 -1.8689207545242588 -0.7973544597625732 -0.8811715530615031 -0.8871479452597271 -0.2963670492172241 -1.0625001233954665 0.014965046302345186 -0.4666011172211114 0.10923707485198975 -0.21785223871695883 0.06284456811813072 -0.7219984531402588 -0.8411891460418701 -0.9222771589567136 -0.7189713318213713 -0.9807113409042358 -0.8951176454472638 -0.389034628868103 -0.5190235376584195 -0.9663503166336582 -0.19904165639137758 -1.307554960250854 1.0666589179520949 -1.5874553452779299 -1.365450893443654 -1.236990944087293 -0.5207743329902432 -1.1432046024801452 -1.1303445035097472 -1.3892554454973953 -1.079889954350305 -1.326426620068588 -0.9483372713757152 -1.4356013667054492 -1.121585900179398 -0.8509243543953902 -0.80339735834557 -1.4689670819701326 -1.3243756326532856 0.5781909574023237 -1.3140902142924908 -1.4881138376518692 -1.0746795983136646 -1.1985967946344458 -0.21189057173910897 0.3782537193167318 -1.7742426604013806 0.3120157718658447 -0.5082735903818153 0.5616248070597778 -0.14254614863817824 -1.3007587066868807 0.28088610711663864 -1.0134071904935333 -0.17482309485900394 -1.0380357070889408 -1.3522872583188563 -1.0356451348452533 -0.9564610789074972 -1.0651095717714694 -1.1151127081122927 -0.09415197236420222 -1.4515965314883754 -2.0626899705427926 -1.5978649808726992 -1.000806623903392 -1.0369699060092334 -1.5118933876271907 -1.3888307482315208 -1.2351325286921806 -1.3093506209158776 -1.5329516330728499 -1.3827786024931743 -1.583965897854129 -1.444955646761492 -1.5298328940454118 -1.6268847508540838 -2.009819655413866 -1.5538354518938062 -0.7215142153747754 -1.5401757142119057 -1.851568349899587 -0.9754103422164917 -1.9175932901623671 -1.1801433118294529 -0.9606984853744507 -2.1636846368352747 -1.0918396348887427 -1.4788092744632764 -0.7197561264038086 -0.9181662839182828 -1.5078854149957797 -1.0758604122898046 -0.9543751137543031 -1.1877411710295296 -0.9281427773095945 -1.1659448146820068 -0.9937928915023804 -0.757740643264667 -1.3305908100755441 -1.0026302986137536 -0.7664812205564691 -1.7235500484261221 -0.10388446755989711 1.7357240060721084 -0.7061012167968217 1.3632110419156254 -1.1611497501531587 0.9453202062293653 -0.7616711557321234 -0.35394912560004077 -1.0418037866139271 -0.8706932067871096 -1.0002914908394425 -0.7599809169769288 -0.5955537733605298 -0.2290883173255554 -1.0571855088782605 1.304856747571385 -0.9297635555267335 -1.4183244705200195 1.5110922821213528 -0.5028987883493767 1.5850405151609737 1.637303616492505 -0.5490457938446776 1.6614288157392145 -0.7249446511050691 1.3597701803833313 0.8199447559299888 1.9079351816652892 1.455547430287878 0.44219696521759044 1.716523079000709 1.2838822846067512 1.086222529411316 0.2829446792602539 1.1917468558464732 -0.8138294928591542 0.011130571365356445 0.026681139845173507 -1.0525110882250819 0.5554805592489316 -0.034103687389441806 1.7198355812320247 -1.1959614753723145 0.41125760595296756 -0.6810894012451172 -0.901607989753185 -1.5495474057732084 -1.1980181342637453 -1.2164714336395264 -0.4045026651860635 -0.03160892356597822 0.5006350237974293 -0.6946492195129395 0.5735185308990773 -1.0855393187203028 -0.629925012588501 0.5704414912178057 0.10265064239501975 0.43059442395064984 0.5600597689847175 -0.1861942734874596 1.4489707965932876 -0.4206981767448563 0.5650416590554137 1.6367586988579372 0.48402596587335833 0.5205387653391994 0.5863517018264045 0.532039885096972 0.5898832274585557 0.46499105784872363 0.5705472290709959 0.5754272391193442 -0.8706762790679932 0.5374300428586538 0.38431265221549893 -0.43671703338623047 -0.5070532803535177 -0.9073914898394345 -0.6860969242206026 -1.256278157234192 -0.5598328872241007 -0.5663540795686484 -0.6059592965814203 -0.6487016114274116 -0.6196463332486857 -0.6554547267046316 -0.6452253340026162 -1.3252119598884111 -0.7888378521794006 1.1782927513122559 -0.6292491507205522 -1.4489468336105347 -0.8854457139968872 -1.0649181745939116 0.9191195964813232 1.0903666019439697 -1.317790078013594 1.185337010220302 -0.531431204288937 1.1569923162460327 -0.38603050686621376 -0.538594126701355 0.9886828170442216 -0.8774121999740601 0.8049898147583008 -0.7778874635696411 -1.2231800556182861 -0.9523506164550781 0.34516215324401855 -0.5845274897381922 -1.0269339084625244 -0.25268192354974217 -1.2779094174618906 0.36543473759442147 -0.4172546382481906 0.4706176177474187 -0.9224855802672707 0.34540323358442615 -0.3285677433013916 -0.12600465077795633 -0.4623179736430293 0.28558864169245324 -0.005296041951488847 1.005410964777352 0.5578831971347133 0.5230109319604245 0.5259701010327803 0.10441597432217357 0.5163558874249388 -0.10392118711337928 0.4786260951646851 0.5108087018011679 0.023734999100470052 0.4638736772369465 -0.915413243063865 0.5148178225496252 1.101426292808815 0.7809309015124496 0.48783172712488354 0.5309396261053942 0.48290487001513505 0.5280834652904192 0.4639670166488572 0.5176094854062766 0.527045556383418 -1.2274451643709643 0.49683796627483434 0.18814992904663086 0.1864495172764955 -1.6377923717272407 -0.9371785222857301 -1.031139339177965 -1.5419204188949158 -0.9402369616373194 -1.8438577895952666 -1.2231427138589683 -1.304562667065153 -0.7541504894155922 -2.0957957559426386 -1.4424596551781204 0.9723022846715794 -1.3416482677518982 -2.0541182093808246 -0.20045672183107197 -1.5915289521217346 0.6460393369475751 0.9580524869334568 -1.9577757436331142 1.4590409013610188 -0.5643249297420555 0.964309170350648 0.1310409436241724 0.6684578752043399 0.7704520049033661 -0.6501722429618316 0.7595907771478378 -0.0609437844761464 -0.8543591499328611 -0.7322793602943423 0.9790815887608493 -1.0587411724231073 -0.8895737528800967 0.1631741865924692 -1.7111305171203177 0.6419826303295958 -0.8534090518951416 1.2378506660461426 0.9561910743523048 1.0920910835266113 0.9332189831424111 1.164931297302246 1.3893717530244647 1.665163574579101 0.9487936600032343 0.6932080987620358 0.8760337829589844 0.30775432708342443 0.6917064287173463 1.2957149938851122 0.6490576151495085 0.6880955472641709 0.46410299430191254 1.2730328540912634 0.7227077484130859 0.6899437844624176 1.4266698504120356 1.2765537985414404 0.677287879537552 0.7030958118307008 0.6777636250089522 0.7040711307222631 0.6523521353082935 0.6920319762115468 0.6952466078857061 -1.1186327934265137 0.6805473992176475 0.9762682607840991 0.4123381920798562 -0.512457190732098 -0.4559629590360029 -0.5616953686925378 -0.565460291794488 -0.56893752732531 -0.5697845623853699 -0.5493602600874872 -1.5367668205279914 -0.6839724779129028 1.2608692646026611 -0.5230976236106899 -1.5205348450237413 0.5342580080032349 -0.941465988448519 1.023202657699585 1.2857247591018677 -1.1624607793910164 1.3657734982699035 -0.4953188906351955 1.2564736604690552 -0.22444659339726386 1.4080790704132613 1.1400020122528076 -0.6644792556762695 1.1395727396011353 0.6075503826141357 0.05151772499084473 -0.7827092409133911 1.2428621053695679 -0.5415021387072243 -0.9551326036453247 -0.2210408789014845 -1.286385416984558 0.7356822490692139 0.8269636668018892 0.5364539623260498 0.7687544822692871 1.147206739823964 0.9368386711520321 1.0630698204040527 0.6101434146978102 0.5808067997741033 0.8308489322662354 0.15735130006929954 0.5736182676368736 0.8606732863539109 0.5185653907672642 0.5675843432329186 0.5895612239837646 1.142007677237705 0.809483118012702 0.5718683765375883 1.3595065823785022 0.8319757171040174 0.5338206728067478 0.5891706706597055 0.5403312167185215 0.5862061616694091 0.5146541607209072 0.5747567650373823 0.5850041175543672 -0.3361184597015381 0.5526178629102635 0.9660672187325143 0.23999793436328742 -0.8974807262420654 0.31118202209472656 -0.777052640914917 -0.31102895736694336 0.7108235461257679 1.428436517715454 0.1391918659210205 0.5906178192760101 -0.7900846004486084 -0.1450348973763147 0.582846666610634 1.0144586743665118 0.46944861487041367 0.573507221799129 0.025860118055751613 1.407555832693819 -1.0174349504395386 0.5787696830564982 1.5625169151424512 0.6775202409473685 0.5331839526616917 0.6025332471430116 0.543328073512206 0.6013947529076881 0.4964505770004477 0.583480540021301 0.5947063485727002 -0.9051203727722168 0.5528428425853763 0.3789620412460386 -0.03866457726174466 0.31754106068578425 -1.0403445420129167 0.17095685005187988 1.2439014911651611 1.4916762835583972 0.8282226191065503 0.6197453201189523 0.7710666656494141 0.2517648888912994 0.6154329761778928 0.6110705121723857 0.569436339558109 0.6109340590208553 0.31197227489956547 1.2747963059287035 0.01240341192479022 0.6136482571112165 1.433265354395413 1.1447790620408345 0.5850299291950605 0.6279082457105981 0.5916595873769943 0.6264439031751272 0.5681433669302178 0.6157838988234815 0.622573844570342 -1.0033791065216064 0.5995687898899179 0.9830144515797645 0.34666060574461466 -0.728762149810791 -0.22381496461663097 1.2557433431327136 1.8656105995178223 0.8581109046936038 0.665395703587842 -0.11929512023925781 0.13280483468224685 0.6603960627768748 1.168131197459618 0.5754030863178283 0.6542708451151983 0.2595217785109548 1.4649663899974854 -0.4830644610603192 0.6579997670224242 1.6135438808152467 0.864115871721916 0.6255505176147569 0.6760114864106026 0.6308499466979396 0.6752364719306347 0.5973525618857243 0.6611678845194617 0.6687636524636089 -0.7448415756225586 0.6400158869501856 0.719076648485335 0.24771402243601126 0.35132837295532227 1.7894061347991306 1.4554204384367364 0.8148973264569515 0.6384061958230349 0.78546142578125 0.2529220083311923 0.6320932086993181 0.6906018457513758 0.5751391147936934 0.6264130173691954 0.2810892213415736 1.356925543858509 0.6072277825410701 0.6303343979028553 1.480111780609091 1.097307813916644 0.5968261733361551 0.6477020282481227 0.6018864390234626 0.6453559119933994 0.5758479073162981 0.6331486543362916 0.6424725695653675 -0.9605495929718018 0.6126970555127946 1.0187749166095164 0.3480625887010599 0.9902998221790043 1.3719037677382782 0.7068758010864258 0.6684177520789714 -0.3020141124725342 0.07787067074730236 0.6654522851642406 0.8649180286742387 0.5803262123511592 0.6597192216790482 0.22123025709503236 1.1228404611295737 -0.2373226310308041 0.6629415563385773 1.5765859735149987 0.9341015030753796 0.634041942531253 0.679350276268205 0.6388071503320766 0.6799309665528506 0.6028169331677584 0.666008515291969 0.671224392334792 -1.3271766964925158 0.646466589486022 0.9054551309624973 0.2036361792013971 1.7419979572296147 0.28031039237976074 0.6572785127448683 -0.6435363292694092 -0.047123100588692846 0.655151005972523 0.4811613594173067 0.5615539609548698 0.6486775622594914 0.2971279683095882 1.1697510455912068 -0.4067988395690918 0.6519053189173629 1.675023930324715 0.9249571703458676 0.62244323980792 0.6688415342542576 0.6285017717820603 0.6704985217673379 0.5856135924415806 0.6553907767633466 0.6597549549230908 -1.1356065314099142 0.634221740832213 0.8511023126227015 0.08470696949959178 -1.0733975709041046 1.0407934406106767 -1.1691398620605469 -1.3314188642816245 1.1463738859768102 -0.7792613455833599 1.5221282683113468 1.2139533746996571 -0.949254594052968 1.5894757995885234 -1.058004675945172 1.1330944669575653 1.7710835851033488 1.2586622100073463 1.2096104111050723 0.9821586147507944 1.5409922446212754 1.0567590096670432 1.6159292681818307 1.1459820610833196 0.9692306247842505 -1.1563175127655079 0.8926500515452607 0.14474910248059503 -1.1555531254789893 0.7340161977972934 -0.23383212089538574 0.08170080184936523 0.7603862886832122 0.9266570999057626 0.6906633377075195 0.7682639201235579 1.0233164700667028 1.3946046548657396 -0.58450317049589 0.7597410689716486 1.5796286034701916 1.0830785359914152 0.7932647466659546 0.7306504020444295 0.8078565919169514 0.7520344792324296 0.7550821304321289 0.7571845768244472 0.7181808444963014 -0.6758159912553463 0.7844553272867807 0.08637676378075243 -0.36032986640930176 -0.6362517655751155 -1.1899602585127684 -1.0558770895004272 -0.8743762633500264 -0.858282208442688 0.7206854820251465 -1.1392962809769847 -0.5739340319125726 -0.5520019563905065 0.9584524631500244 -0.48307446064356957 -0.7630570322117141 -0.42184507846832275 -1.0006293058395386 -0.69737708568573 -1.0151782694455591 -1.2408965826034546 -1.0266109704971313 -0.9672021865844727 -0.6012989285368957 -1.0869992971420288 -0.2820497904901964 -1.0541122644594576 -0.2569493139945198 0.6374422757080316 0.9894823126407613 0.5372360925998962 0.6318184057340767 0.9602351706479109 1.3861151343710278 -0.8395315656113438 0.6344928701553576 1.5762954866789785 1.0956602096557617 0.6057423109092916 0.6471969474415472 0.6117141765392626 0.6508798546394168 0.5650467738177569 0.6376334875479192 0.6368974778992016 -1.1669673919677734 0.6181784758864486 0.2837648563682653 -0.12353345775107183 1.3028774349083236 -0.11719990443225455 1.5126719718503001 1.3709540224746595 0.2989174332064203 1.561360049935124 -0.15638844328357995 1.3148586776105418 1.866255391088283 2.110577871877278 1.2905412977791189 1.1409040992779842 1.600186166107329 1.2128800232058214 1.6097744098475655 1.2871145455141197 1.1239807565173339 -0.23319042070450463 1.3405660390853882 0.22693158311058176 -0.7906010150909424 -0.9477621032621073 0.8704273700714111 0.9951132535934448 -1.2735018664341682 1.0251781940460205 -0.5447635187983119 1.0202109813690186 -0.45763923325574507 1.057937449994192 0.9887609856958791 -0.9405685663223267 0.754665732383728 0.06192147731781006 -0.44516491889953613 -1.0001620054244995 1.0740333795547485 -0.5964004844219939 -1.0785630941390991 -0.2656816834606611 -1.1398062050048878 0.9566092798648724 0.9876902870295695 0.3590677449110319 1.5381429925993173 -0.11631657534208713 0.9530703626836973 1.9590621513998243 0.8168115252676529 0.9411360025405884 0.8414848359494442 1.1045539989863413 0.8897933229278943 1.0515041723027614 0.9368356820210693 0.8305659884993926 -1.095715045928955 1.0876156628901894 0.5539503644036446 -0.9215110540390015 1.3209978342056274 -1.1802192189201495 0.09802152900430317 -0.501331005583267 1.3503402471542358 -0.32683404092841456 -0.2629224070259451 0.4084206819534302 -0.8793232440948486 0.017047882080078125 -0.7560862302780151 -0.9918799425817932 -0.9513604640960693 -0.21802961826324463 -0.5470746182060798 -0.9958268413715701 -0.24740719625057378 -1.2903892993927002 -1.294875395226571 -0.4191277321826288 -0.5389498326603843 0.20271837711334229 -0.43568489323807713 -0.6396910387915886 -1.0509552955627441 -0.9359500408172607 -1.3091639280319214 -0.9079402685165405 -1.2614521980285645 -0.9977278709411621 -0.751412034034729 -0.5910236499839471 -1.0621472597122192 -0.26451842881376025 -1.188026354202022 1.8460958550708908 -0.04826981143520722 1.1703435731893415 1.7109594167859214 1.2459493797499979 1.1405512594884946 1.084211082671838 1.3287465465996964 1.1337095074315198 1.2752559896172397 0.9578341105068143 1.0700708664800578 -0.7041394710540771 0.674821400739946 0.5194591886823247 -1.2297292489200615 -0.673712165687451 0.5287331781533484 -0.163123152215836 -1.3549232081559637 0.33980955853528405 -0.9948016438801671 -0.09024824873845663 -1.0083975636019056 -1.3158604282609918 -1.0123599767684934 -0.8795356372340292 -1.1424910951644134 -1.0915221255694776 -0.4055343653877052 -1.524717403859541 0.5425667976238892 1.5915403768757406 0.7893310621430119 0.5122502368961364 0.5594745420361982 0.5126343402682928 0.556559249826949 0.4887486424583108 0.5453567469849628 0.5554831128976431 -1.0486998878491973 0.524289140939636 0.840814860576885 0.2350710327657718 -0.45123051943556436 -0.7167761357216733 -1.159409999847412 -0.9887658357620239 -1.345231056213379 -1.0060880184173584 -1.2376370429992676 -1.0008969524543554 -0.9342632293701172 -0.5947282774237896 -1.0666759014129639 -0.27777740320147865 -1.1473463229027683 0.18012977088457216 0.31792596332356804 -0.8025838451992326 0.3136021388169044 0.4563639209881065 0.23114015104627755 -0.8602021663158338 0.483557753962046 -1.3683893937399665 -0.9810575867033133 -0.7621983174310372 -1.7365075106918053 0.5102109909057617 -0.9830214977264407 0.34790455516395286 -0.9886494933726497 -1.366430581686993 -1.01956908988593 0.7674117405843486 -0.8783815276891994 -1.115322172334185 -0.0095782334209729 -1.3946861392328866 -0.9745837450027466 -0.32567012310028076 -0.9685604572296143 -1.104788899421692 -0.9954271909439635 -0.7110415697097778 -0.562826560158364 -0.995330456523836 -0.2569868478091009 -1.2423980236053467 0.8006776571273804 0.9877742528915405 0.6260571479797363 -0.04419231414794922 1.0068167448043823 -0.6109404244829862 -0.15153181552886963 -0.2855488031895238 -1.0201025220111437 -0.6379204988479614 -1.0929607152938843 -0.8829481601715088 -0.19798636436462402 -0.5680365227470547 -0.9854210583890061 -0.23616002390606305 -1.3461809158325195 -0.5083197355270386 -1.0159873962402344 1.0365298986434937 -0.6084263437125745 -1.0756752490997314 -0.2821910003616966 -1.0767660496257494 -0.7449437379837036 1.2239885330200195 -0.5446501751557631 -0.9125938415527344 -0.20446203584287947 -1.3255993127822876 1.0352567434310913 -0.5973449284299073 -0.10733950138092041 -0.2656114438631224 -1.1279707147555156 -0.6065828005042557 -1.080578088760376 -0.2850240745527354 -1.0039577328386178 0.5780646291936816 1.1628424036699687 0.31418296130852774 -0.22946944864274788 -1.262318730354309 -0.18183755921050543
label 23 8 20 37 12 10 1 16 24 22 19 21 48 28 5 33 32 4 15 3 36 17 38 26 31 42 34 25 41 14 7 2 45 39 43 46 11 13 9 30 18 47 35 40 29 6
nr_sv 4 4 7 8 4 15 5 5 3 3 4 2 2 1 2 6 3 3 2 5 5 1 4 1 2 2 3 4 5 2 4 4 5 3 4 4 1 4 2 2 1 3 1 1 1 1
SV
1.0 1.0 0.0 0.0 0.0 1.0 0.9536797105433833 0.0 0.32134133159294404 0.0 0.3356302667010249 0.0 0.31699007800756956 0.6054856730045097 0.3294868182548714 0.4530807508128677 0.3237976100427823 0.5298813577536076 0.6456581652795902 1.0 1.0 0.0 0.8494562306462399 1.0 0.0 1.0 0.0 0.0 1.0 0.0 0.29963600247135974 0.0 0.0 0.0 0.0 0.0 0.0 0.0 0.0 0.0 0.0 0.28295431639356244 0.0 0.20805041845118688 0.926773692831014 1:0.7792282 2:0.50662977 3:0.7744811 4:0.9976003 5:0.9616951 6:0.74085134 7:0.0 8:1.0 9:0.105126865 10:0.29529434 11:0.4896709 12:0.0 13:0.12180469 14:0.10979813 15:1.0 16:0.2646029 17:0.058457192 18:0.006098867 19:0.001500207 20:0.0 21:0.001527101 
0.705633838198016 0.0 1.0 1.0 1.0 1.0 0.046320289456616745 1.0 0.0031977000452916016 1.0 0.0 1.0 0.0 0.0 0.0 0.0 0.0 0.0 0.0 0.5039314448443744 0.0 1.0 0.0 0.0 1.0 0.0 1.0 1.0 0.5405751662612394 1.0 0.0 1.0 1.0 1.0 1.0 1.0 1.0 1.0 1.0 1.0 1.0 0.0 1.0 0.11527076394434896 0.07322630716898607 1:1.0 2:0.46235675 3:0.5603154 4:0.82655317 5:0.39931363 6:0.47124928 7:0.0 8:1.0 9:0.050809603 10:0.14684135 11:0.3589581 12:0.0 13:0.0676858 14:0.041109923 15:1.0 16:0.15729208 17:0.067776784 18:0.005441516 19:6.8942E-4 20:0.0 21:6.86212E-4 
0.4858604563040014 0.06355808316561681 0.8719780905257413 0.0 0.0 1.0 0.0 0.0 0.0 0.15658687355708556 0.0 0.0 0.0 0.0 0.0 0.0 0.0 0.0 0.0 1.0 0.0 0.0 0.0 0.798227534781331 0.0 0.19776623830006804 0.08512900042396727 0.0 0.03506968874230383 0.0 0.0 0.0 0.0 0.8818755322303885 0.0 0.0 0.01729072175228843 0.0 0.0 0.0 0.0 0.0 0.0 0.0 0.0 1:0.8291109 2:0.49297073 3:0.7240622 4:1.0 5:0.8613771 6:0.7050285 7:0.0 8:1.0 9:0.09819712 10:0.24360037 11:0.4943964 12:0.0 13:0.12352597 14:0.08950998 15:1.0 16:0.22092369 17:0.067031644 18:0.004892082 19:9.45753E-4 20:0.0 21:9.47016E-4 
0.0 0.0 1.0 0.6018532964555616 1.0 1.0 0.0 1.0 0.0 1.0 0.0 1.0 0.0 0.0 0.0 0.0 0.0 0.0 0.0 1.0 0.0 0.5125631533141279 0.0 0.20177246521866898 0.774870773947072 0.0 1.0 0.9436471827766697 0.0 0.7433752935898286 0.0 0.6370391941619279 0.22930134755104484 1.0 1.0 0.0 1.0 0.5400162810218849 1.0 0.0 0.3825197598055008 0.0 0.0 0.0 0.0 1:1.0 2:0.49842823 3:0.62762916 4:0.8806541 5:0.47254345 6:0.52620053 7:0.0 8:1.0 9:0.05286232 10:0.17042887 11:0.362073 12:0.0 13:0.06797716 14:0.046890084 15:1.0 16:0.18347573 17:0.061582267 18:0.00528938 19:0.001033822 20:0.0 21:0.001050993 
-0.0 0.555831908942663 0.0 1.0 0.8216555197925299 0.0 1.0 0.0 1.0 1.0 0.7485128470182145 0.0 0.0 0.3610156927235255 1.0 1.0 1.0 0.5579468079326954 1.0 0.05476308308804665 0.0 0.0 0.0 0.0 0.0 0.932624314465737 0.0 0.0 0.0 1.0 1.0 0.0 0.8267837998454447 0.0 0.0 0.0 0.0 0.0 0.0 0.0 0.0 0.0 0.0 0.7451227045779757 0.0 1:8.20574E-5 2:8.54576E-5 3:1.98709E-4 4:2.00164E-4 5:1.0 6:0.001991143 7:7.36212E-5 8:0.9631463 9:0.9631429 10:0.9635868 11:0.9635956 12:0.0 13:0.96313244 14:0.9705663 15:0.12258022 16:1.0 17:0.016679458 18:0.028462324 19:0.048298623 20:0.2504148 21:0.0 
-0.19149429450201738 1.0 0.025914276423114186 0.08934413482461465 0.0 0.5605128195784413 1.0 0.10111051377116444 1.0 1.0 1.0 0.04319357759735866 0.9265129898441243 1.0 1.0 1.0 1.0 1.0 1.0 1.0 0.19383659260958835 0.09146277584990081 0.47427865911253964 0.0 0.11049895588127549 1.0 0.046472247648347315 0.11191907601006837 0.5809393482798182 0.0047361113984506304 1.0 0.09942839727731348 0.0 0.6490414212006606 0.0829253406685595 0.07715092504924637 0.07847606225871355 0.09992577200798153 0.054130808164456146 0.051665876812505646 0.08212810423407436 0.9905023531126755 0.027899149461078188 0.0 0.0 1:2.10011E-5 2:2.93615E-5 3:2.52455E-4 4:2.56167E-4 5:1.0 6:0.003042893 7:2.0475E-6 8:0.9574468 9:0.95743614 10:0.9583041 11:0.9583332 12:0.0 13:0.957438 14:0.9691048 15:0.15732543 16:1.0 17:0.02097985 18:0.031021765 19:0.03458945 20:0.20489529 21:0.0 
-1.0 0.5517270659592812 1.0 1.0 1.0 1.0 0.07876342600997406 1.0 0.21593961168515555 1.0 0.0 1.0 0.0 0.0 0.0 0.0 0.0 0.0 0.0 1.0 0.0 1.0 0.0 1.0 1.0 0.06737568553426307 1.0 1.0 0.498840986183951 1.0 0.0 1.0 1.0 1.0 1.0 0.9228490749507536 1.0 1.0 1.0 0.9483341231874943 1.0 0.0 0.9721008505389218 0.23323085280048847 0.12524830361480818 1:0.88859856 2:0.5466124 3:0.7171317 4:0.8214324 5:0.5751475 6:0.5444237 7:0.0 8:1.0 9:0.049084973 10:0.32471046 11:0.31143063 12:0.0 13:0.0342992 14:0.049944706 15:1.0 16:0.31247917 17:0.071802035 18:0.04853893 19:0.001136802 20:0.017097274 21:0.0 
-1.0 1.0 0.9740857235768858 0.0 0.19873429569371762 1.0 1.0 0.13829813194570037 0.0 0.7130419983182033 0.25148715298178537 0.5581922237290147 0.07348701015587572 0.6389843072764745 0.4746319241471521 0.7853190621628505 0.4799972577314694 0.4420531920673045 0.7878661577513104 1.0 0.8061634073904117 0.0 0.5257213408874604 1.0 0.0 1.0 0.5209554546895029 0.03152096885660717 0.9202196655362308 0.0 0.3883762801639233 0.0 0.07111176686907761 1.0 0.23865634356933066 0.0 0.3643058936707302 0.0 0.5174899263492297 0.0 0.0 0.009497646887324527 0.0 0.0 0.8747516963851918 1:0.68486 2:0.5293264 3:0.7371327 4:0.82443 5:0.87909746 6:0.6686343 7:0.0 8:1.0 9:0.10490348 10:0.5040891 11:0.4309909 12:0.0 13:0.07376038 14:0.09818405 15:1.0 16:0.41115615 17:0.070581146 18:0.053774368 19:0.001626884 20:0.024087371 21:0.0 
-0.0 -0.1075589749019443 0.0 0.0 0.0 0.0 1.0 0.0 1.0 1.0 1.0 0.0 1.0 1.0 1.0 1.0 1.0 1.0 1.0 0.0 0.0 0.0 0.0 0.0 0.0 1.0 0.0 0.0 0.0 0.0 1.0 0.0 0.0 0.0 0.0 0.0 0.0 0.0 0.0 0.0 0.0 1.0 0.0 0.0 0.0 1:0.028184358 2:0.038101133 3:0.09140843 4:0.11741729 5:1.0 6:0.18723889 7:0.0 8:0.863038 9:0.7257585 10:0.8864697 11:1.0 12:0.0 13:0.7433495 14:0.73489314 15:1.0 16:0.6297432 17:0.40109682 18:0.24413376 19:0.07831178 20:0.18160808 21:0.0 
-0.0 -0.0 0.0 0.0 0.0 0.0 1.0 0.0 0.0 0.0 0.0 0.0 0.0 0.0 0.0 0.0 0.0 0.0 0.31812515797100904 0.0 0.0 0.0 0.0 0.0 0.0 0.0 0.0 0.0 0.0 0.0 0.0 0.0 0.0 0.0 0.0 0.0 0.0 0.0 0.0 0.0 0.0 0.0 0.0 0.0 0.0 1:0.03473761 2:0.045293946 3:0.09570996 4:0.12669185 5:1.0 6:0.19841538 7:0.0 8:0.86235005 9:0.73060566 10:0.8955162 11:0.9997439 12:0.0 13:0.7439601 14:0.7300158 15:1.0 16:0.6257129 17:0.59296757 18:0.34904337 19:0.16244397 20:0.26137862 21:0.0 
-0.0 -0.0 0.0 0.47958769271453117 0.0 0.0 0.0 0.0 0.13804387437884436 0.0 0.0 0.0 0.0 0.0 0.12580013788972522 0.0 0.02313342393171541 0.0 0.0 0.0 0.0 0.0 0.0 0.0 0.0 0.0 0.0 0.0 0.0 0.39035467975193405 0.008435552201580338 0.0 0.0 0.0 0.0 0.0 0.0 0.0 0.0 0.0 0.0 0.0 0.0 0.07848070231428135 0.0 1:0.00928044 2:0.015770337 3:0.04650468 4:0.05812704 5:1.0 6:0.11900612 7:0.0 8:0.8006265 9:0.75634605 10:0.8551588 11:0.89544153 12:0.0 13:0.76238334 14:0.7301863 15:1.0 16:0.8579129 17:0.7215555 18:0.50298804 19:0.36698183 20:0.50739706 21:0.0 
-1.0 -1.0 0.8594121471442573 0.06808028257924953 0.3306224615768743 1.0 0.0 0.5732216850102948 0.0 0.22710771260969154 0.0 0.6670553689851954 0.0 0.0 0.0 0.0 0.0 0.0 0.0 1.0 1.0 0.5126865614448268 0.0 1.0 0.5360369329089509 0.6470421011693973 0.6576599233722045 0.5456434311460288 1.0 0.37800575301902906 0.0 0.5355361712576213 0.22371245248760382 1.0 0.6606385672221924 0.5178387788340743 0.6269071023467208 0.5346549668858015 0.6223188714484458 0.5327472300934134 0.5034150734411306 0.0 0.5780998109616987 0.0 1.0 1:0.29464832 2:0.2407603 3:0.29176936 4:0.5288316 5:1.0 6:0.5209235 7:0.0 8:0.96779084 9:0.44719914 10:0.67197 11:0.98048574 12:0.0 13:0.49409276 14:0.4127291 15:1.0 16:0.28950268 17:0.38458762 18:0.16963252 19:0.033220563 20:0.07226591 21:0.0 
-0.06355808316561681 -1.0 0.0 0.0 0.5532104488256944 0.8329471838716624 1.0 0.0 0.0 0.0 0.0 0.0 0.0 0.0 0.0 0.0 0.0 0.0 0.0 1.0 0.0 0.0 0.5928546879986222 0.0 0.0 0.0 0.0 0.0 0.9999999999999999 0.06517969251677587 0.0 0.0 0.6973337240865306 1.0 0.0 0.0 0.0 0.0 0.0 0.0 0.0 0.0 0.0 0.0 0.0 1:0.21783863 2:0.1909355 3:0.2610757 4:0.43825692 5:1.0 6:0.45621133 7:0.0 8:0.95786405 9:0.4786933 10:0.7014806 11:0.9972425 12:0.0 13:0.52401584 14:0.44478238 15:1.0 16:0.32087094 17:0.3731443 18:0.16637954 19:0.03286998 20:0.07478861 21:0.0 
-0.0 -0.0 0.0 0.0 0.0 0.0 1.0 0.0 0.5596463952160596 0.3679474433814986 1.0 0.0 0.0 0.0 1.0 1.0 1.0 1.0 1.0 0.0 0.0 0.0 0.0 0.0 0.0 0.3529578988306027 0.0 0.0 0.0 0.0 1.0 0.0 0.0 0.0 0.0 0.0 0.0 0.0 0.0 0.0 0.0 0.0 0.0 0.0 0.0 1:0.029178286 2:0.039215066 3:0.09269591 4:0.11953051 5:1.0 6:0.18963662 7:0.0 8:0.8627943 9:0.72407997 10:0.8862802 11:1.0 12:0.0 13:0.741321 14:0.73249537 15:1.0 16:0.62637985 17:0.4160964 18:0.25303528 19:0.08388967 20:0.18770668 21:0.0 
-0.0 -1.0 0.0 0.9800053513028514 0.44686683817079054 0.0 1.0 0.0 0.0 1.0 0.0 0.0 0.0 1.0 0.6799428164759094 1.0 0.680654155789174 0.0 1.0 0.905319399678321 0.0 0.0 0.40714531200137777 0.0 0.0 1.0 0.0 0.0 0.0 0.6241032252224142 0.0 0.0 0.3938464866016178 0.0 0.0 0.0 0.0 0.0 0.0 0.0 0.0 0.0 0.0 0.7045052325587625 0.0 1:0.059720512 2:0.06926426 3:0.14137495 4:0.19133525 5:1.0 6:0.25811234 7:0.0 8:0.87196517 9:0.6252181 10:0.8141463 11:1.0 12:0.0 13:0.65395993 14:0.62860644 15:1.0 16:0.49605426 17:0.34294704 18:0.17200002 19:0.039220523 20:0.101565845 21:0.0 
-0.0 -0.0 -0.0 0.0 1.0 0.11643549727702142 0.0 0.0 0.0 0.0 0.0 0.0 0.0 0.0 0.0 0.0 0.0 0.0 0.0 0.0 0.0 0.0 0.0 0.0 0.0 0.0 0.428549076314122 1.0 0.0 0.0 0.0 1.0 0.0 0.0 0.0 0.0 0.17537412282071874 0.0 0.0 0.0 0.0 0.0 0.0 0.0 0.0 1:1.0 2:0.29502997 3:0.23284604 4:0.4887485 5:0.09254962 6:0.19971023 7:0.0 8:1.0 9:0.037011024 10:0.02822645 11:0.26056033 12:6.94376E-4 13:0.04031678 14:0.002597392 15:1.0 16:0.0713134 17:0.004942364 18:0.001252568 19:3.33749E-6 20:0.0 21:3.80352E-6 
-0.0 -0.0 -0.0 0.2708566083091468 1.0 0.0 0.0 1.0 0.0 0.0 0.0 0.6002888534085514 0.0 0.0 0.0 0.0 0.0 0.0 0.0 0.0 0.0 1.0 0.0 0.0 0.0 0.0 1.0 1.0 0.0 0.28853365807678816 0.0 1.0 0.0 0.0 1.0 0.0 1.0 0.0 1.0 0.0 0.0 0.0 0.0 0.0 0.0 1:1.0 2:0.27851763 3:0.2289974 4:0.4452537 5:0.0778728 6:0.1751435 7:0.0 8:1.0 9:0.028471738 10:0.044303063 11:0.23385188 12:0.0 13:0.031613443 14:0.009525498 15:1.0 16:0.06620152 17:0.042984653 18:0.002486468 19:1.08687E-5 20:3.36784E-4 21:0.0 
-1.0 -1.0 -0.0 0.0 1.0 1.0 0.0 0.0 0.0 1.0 0.0 1.0 0.0 0.0 0.0 0.0 0.0 0.0 0.0 1.0 0.0 0.0 0.0 0.7798595824746065 0.0 0.06801393902414911 1.0 0.0 0.37961814089849183 0.0 0.0 0.0 0.0 0.9957118320874119 0.0 0.0 1.0 0.0 1.0 0.0 0.0 0.0 0.23519384063946994 0.0 0.0 1:1.0 2:0.3779039 3:0.36485726 4:0.5561134 5:0.14949557 6:0.26144096 7:0.0 8:1.0 9:0.02118013 10:0.085519776 11:0.23412201 12:0.0 13:0.027920753 14:0.017284436 15:1.0 16:0.13133541 17:0.029408732 18:0.00496019 19:1.96717E-5 20:7.88599E-4 21:0.0 
-0.0 -0.0 -0.0 1.0 1.0 0.0 0.0 1.0 0.0 0.6700880769721225 0.0 0.0 0.0 0.0 0.0 0.0 0.0 0.0 0.0 0.0 0.0 1.0 0.0 0.0 1.0 0.0 1.0 1.0 0.0 1.0 0.0 1.0 0.0 0.0 1.0 0.0 1.0 0.42054968821637556 0.0 0.6843201590921598 1.0 0.0 0.7648061593605301 0.0 0.0 1:1.0 2:0.25214 3:0.19371895 4:0.39956012 5:0.05736184 6:0.14626263 7:0.0 8:1.0 9:0.030489376 10:0.036501355 11:0.21996279 12:0.001450072 13:0.030343983 14:0.008016926 15:1.0 16:0.05436912 17:0.03987117 18:0.001767147 19:5.95627E-6 20:1.73847E-4 21:0.0 
-0.0 -0.0 -0.0 1.0 1.0 0.0 0.0 1.0 0.0 0.0 0.0 0.0 0.0 0.0 0.0 0.0 0.0 0.0 0.0 0.0 0.0 1.0 0.0 0.0 1.0 0.0 0.571450923685878 1.0 0.0 1.0 0.0 1.0 0.3898710750723995 0.3977989598148701 1.0 1.0 0.8246258771792813 1.0 0.0 0.3156798409078402 1.0 0.0 0.0 0.0 0.0 1:1.0 2:0.21111709 3:0.15478393 4:0.38344502 5:0.04726864 6:0.13014309 7:0.0 8:1.0 9:0.045479596 10:0.03561134 11:0.24764158 12:0.002902599 13:0.040094092 14:0.006858178 15:1.0 16:0.029257879 17:0.056217883 18:0.002427029 19:6.27666E-6 20:2.2602E-4 21:0.0 
-0.8719780905257413 -0.0 -0.0 0.0 1.0 1.0 0.0 0.0 0.0 0.0 0.0 0.3997111465914485 0.0 0.0 0.0 0.0 0.0 0.0 0.0 0.19225241140904076 0.0 0.0 0.0 0.0 0.0 0.0 0.0 0.0 0.0 0.0 0.0 0.0 0.0 0.0014642030084803988 0.0 0.0 0.0 0.0 0.0 0.0 0.0 0.0 0.0 0.0 0.0 1:1.0 2:0.33237836 3:0.3145591 4:0.556106 5:0.14626692 6:0.25056425 7:0.0 8:1.0 9:0.03299522 10:0.07467163 11:0.27756417 12:0.0 13:0.041951686 14:0.019889355 15:1.0 16:0.08996242 17:0.05948096 18:0.007407133 19:6.92155E-5 20:0.001281217 21:0.0 
-1.0 -1.0 -0.8594121471442573 0.0 1.0 1.0 0.8852786099293246 0.0 0.2367119729481202 0.6079575723199541 0.28715707133868384 0.0 0.24378823916784953 0.5389914217106406 0.2667803807837044 0.40679963860172896 0.262411824272717 0.46170295463752964 0.5487284328220535 1.0 1.0 0.0 0.6799723524895052 1.0 0.0 1.0 0.0 0.0 1.0 0.0 0.22528085308521353 0.0 0.2944239892092956 1.0 0.0 0.0 0.0 0.0 0.0 0.0 0.0 0.22613190185012022 0.0 0.1421620663889818 1.0 1:1.0 2:0.36718577 3:0.39504835 4:0.74398196 5:0.29922697 6:0.3807885 7:0.0 8:1.0 9:0.06408306 10:0.11133255 11:0.40848985 12:0.0 13:0.08763307 14:0.03833218 15:1.0 16:0.08522067 17:0.10345248 18:0.01297753 19:2.51318E-4 20:0.002243538 21:0.0 
-0.0 -0.0 -0.0 1.0 1.0 0.0 0.0 0.0 0.07430990833371588 0.0 0.023896047575627046 0.0 0.05550828334594791 0.0 0.04042847012029352 0.0 0.040209477970363436 0.0 0.0 0.0 0.0 1.0 0.0 0.0 0.0 0.0 0.0 1.0 0.0 1.0 0.06050759258740783 1.0 0.6455871242270982 1.0 1.0 0.0 0.0 0.5794503117836245 0.0 0.0 1.0 0.040923261921109406 0.0 0.1935566103493102 0.0 1:1.0 2:0.20639585 3:0.1559937 4:0.40054497 5:0.055216935 6:0.13687336 7:0.0 8:1.0 9:0.051600333 10:0.04219446 11:0.27025968 12:5.05364E-4 13:0.04616629 14:0.007010426 15:1.0 16:0.023775108 17:0.071456134 18:0.004975401 19:7.41564E-6 20:1.94154E-4 21:0.0 
-0.14405186928143074 -1.0 -1.0 -0.2708566083091468 1.0 0.38247097412995146 1.0 0.03505022217043385 1.0 1.0 1.0 0.05733722034223335 0.8824376764108667 1.0 1.0 1.0 1.0 1.0 1.0 0.81153030234631 0.38632903454520195 0.23144794781953143 0.5723460683375613 0.1541344859859705 0.007130482814315553 1.0 0.21330020221601143 0.2367789151088877 0.7905132052083561 1.0 1.0 0.23064883818551854 1.0 0.5223253121913307 0.24604838373353796 0.005925529535647895 0.23696434574788336 0.013823991706143885 0.04815327552164525 0.0036880860740534094 0.001294669297544182 0.9238255120921051 0.01432369274086152 0.739566198172147 0.21403811628463126 1:2.87654E-5 2:3.66368E-5 3:2.48749E-4 4:2.52997E-4 5:1.0 6:0.00295713 7:1.44569E-6 8:0.94036055 9:0.940351 10:0.94114864 11:0.941193 12:0.0 13:0.94039667 14:0.9440717 15:0.15614653 16:1.0 17:0.111954734 18:0.10671677 19:0.49950615 20:0.6982114 21:0.0 
-1.0 -1.0 -0.527673326596632 -1.0 1.0 1.0 0.6674205200327848 1.0 0.0 1.0 0.2927121952815636 1.0 0.0 0.5506241664055508 0.3162480924832657 0.43533131369498035 0.2993513011578318 0.4163941827978408 0.45196795160841785 0.8603524457505686 0.613670965454798 1.0 0.4276539316624387 0.7130132390007357 0.9928695171856845 0.7095649878666811 1.0 1.0 0.9541779779586541 1.0 0.0 1.0 1.0 1.0 1.0 0.0 1.0 1.0 1.0 0.0 0.9987053307024558 0.0 0.9856763072591385 0.0 0.6976644459352062 1:1.0 2:0.1857767 3:0.09211498 4:0.19795005 5:0.009708045 6:0.051597316 7:0.0 8:1.0 9:0.015847864 10:0.007244566 11:0.10234623 12:0.0 13:0.008389429 14:8.76373E-4 15:1.0 16:0.0438993 17:0.001026876 18:7.99981E-5 19:0.0 20:7.30219E-6 21:5.7998E-9 
-0.0 -0.0 -0.0 -1.0 1.0 0.0 0.0 0.9649497778295661 0.36812600325796013 0.14902230839116293 0.0 0.0 0.0 0.0 0.0 0.0 0.0 0.0 0.0 0.0 0.0 1.0 0.0 0.0 0.0 0.0 1.0 1.0 0.0 1.0 0.317167199175795 1.0 0.006195514441476808 0.7217800576197044 1.0 0.9940744704643522 1.0 0.5227034445840039 0.0 0.0 1.0 0.0 0.0 0.2604338018278532 0.0 1:1.0 2:0.15286633 3:0.063894875 4:0.16671489 5:0.005921476 6:0.03827705 7:0.0 8:1.0 9:0.023227474 10:0.002171895 11:0.0980811 12:0.0 13:0.00904649 14:3.85849E-4 15:1.0 16:0.026695022 17:0.001030185 18:6.6367E-5 19:2.90542E-6 20:0.0 21:2.90495E-6 
-0.45780142717413086 -0.08934413482461467 -0.0 -1.0 1.0 0.3800837311851115 0.0 1.0 0.0 1.0 0.0 0.9426627796577668 0.11756232358913327 0.0 0.0 0.0 0.0 0.0 0.0 0.0 0.0 1.0 0.0 0.0 1.0 0.0 1.0 1.0 0.0 1.0 0.0 1.0 0.2753377258355745 1.0 1.0 0.0 1.0 0.46347256370985235 0.9518467244783548 0.9963119139259466 1.0 0.07617448790789491 0.0 0.0 0.0 1:1.0 2:0.18473023 3:0.09053139 4:0.19540134 5:0.009454963 6:0.050629288 7:0.0 8:1.0 9:0.015883762 10:0.00662332 11:0.10110083 12:0.0 13:0.008257942 14:8.77461E-4 15:1.0 16:0.043540303 17:1.6857E-4 18:2.03913E-4 19:1.02519E-8 20:1.57413E-5 21:0.0 
-0.09412771099935084 -0.8665852589273012 -0.7479073026121764 -0.17936061470406556 -0.9763713726344214 0.26331078558107873 0.7567623914168475 0.0 1.0 0.83706285561867 0.767788092645679 0.009203794951355312 0.8303803693688001 0.7230453150717753 0.8062353987250627 0.6856307094132796 0.7414598997567988 0.919394680501962 0.9864171846066191 0.5632094630458329 0.3433681560532863 0.0 0.5385070832549447 0.13999722410543242 0.0 0.7998838106958065 0.011099249340582661 0.0 0.6102939325892075 1.0 1.0 0.0 0.9759304445487591 0.6503819384474163 0.032027476925064066 0.0 0.020192415230961984 0.0 0.0 0.0 0.0 0.834955629064629 0.0 0.0 0.17599387788708004 1:7.1909E-5 2:8.10551E-5 3:3.05116E-4 4:3.12402E-4 5:1.0 6:0.003173362 7:9.59687E-5 8:0.84727734 9:0.84726834 10:0.84806854 11:0.8480675 12:0.0 13:0.8471577 14:0.78320885 15:0.002893341 16:0.015725171 17:0.021252463 18:0.018900365 19:1.0 20:0.12022516 21:0.0 
-0.0 -0.0 -0.0 -0.8206393852959344 -0.0 0.0 0.0 0.0 0.0 0.0 0.0 0.0 0.0 0.0 0.0 0.0 0.0 0.0 0.0 0.0 0.0 0.0 0.0 0.0 0.0 0.0 0.0 0.0 0.0 0.0 0.0 1.0 0.0 0.0 1.0 0.0 0.0 0.0 0.0 0.0 0.0 0.0 0.0 0.0 0.0 1:1.0 2:0.2511353 3:0.17586792 4:0.29809704 5:0.028845591 6:0.09770731 7:0.0 8:1.0 9:0.011164895 10:0.037210044 11:0.13572773 12:0.0 13:0.011099368 14:0.002828168 15:1.0 16:0.07742202 17:0.023822164 18:0.002816651 19:7.99779E-5 20:0.0 21:7.2484E-5 
-0.9058722890006492 -0.15380455655894643 -0.0 -1.0 -0.0 1.0 0.0 0.2005069819192674 0.0 1.0 0.0 0.9907962050486447 0.0 0.0 0.0 0.0 0.0 0.0 0.0 0.17268609548679484 0.0 0.0 0.0 0.0 0.0 0.0 1.0 0.0 0.21516069179533584 0.0 0.0 0.0 1.8988379634965631E-4 1.0 0.0 0.0 1.0 0.0 1.0 0.0 0.0 0.0 0.0 0.0 0.0 1:1.0 2:0.32262456 3:0.25531083 4:0.36785856 5:0.052845612 6:0.14240839 7:0.0 8:1.0 9:0.006461303 10:0.061550565 11:0.1379203 12:0.0 13:0.008345785 14:0.004743271 15:1.0 16:0.12739445 17:0.009372197 18:0.002852862 19:3.96196E-6 20:3.37592E-4 21:0.0 
-0.0 -0.0 -0.0 -0.0 -1.0 0.0 0.0 1.0 0.0 0.0 0.0 0.0 0.0 0.0 0.0 0.0 0.0 0.0 0.0 0.0 0.0 1.0 0.0 0.0 1.0 0.0 0.0 1.0 0.0 1.0 0.0 1.0 0.0 0.0 1.0 0.990930236975771 0.0 1.0 0.0 1.0 1.0 0.0 0.0 0.0 0.0 1:1.0 2:0.2280431 3:0.14987274 4:0.26875034 5:0.021971235 6:0.082241945 7:0.0 8:1.0 9:0.012603288 10:0.030339962 11:0.12898405 12:0.0 13:0.010725124 14:0.00208012 15:1.0 16:0.06470083 17:0.023814578 18:0.003236018 19:9.09555E-6 20:8.07725E-5 21:0.0 
-0.0 -0.0 -0.0 -1.0 -0.0 0.0 0.0 0.0 0.0 0.0 0.0 0.0 0.0 0.0 0.0 0.0 0.0 0.0 0.0 0.0 0.0 0.0 0.0 0.0 0.0 0.0 0.0 0.0 0.0 0.0 0.0 0.0 0.0 0.0 1.0 0.0 0.0 0.0 0.0 0.0 0.0 0.0 0.0 0.0 0.0 1:1.0 2:0.2652254 3:0.19928984 4:0.32044563 5:0.036800697 6:0.1093449 7:0.0 8:1.0 9:0.010191752 10:0.049699917 11:0.14250766 12:0.0 13:0.011213548 14:0.003398408 15:1.0 16:0.08701373 17:0.033664327 18:0.007525562 19:3.79584E-5 20:6.37824E-4 21:0.0 
-0.0 -0.0 -0.0 -0.0 -0.0 0.0 0.0 0.0 0.0 0.0 0.0 0.0 0.0 0.0 0.0 0.0 0.0 0.0 0.0 0.0 0.0 0.989671413362758 0.0 0.0 0.0 0.0 0.0 1.0 0.0 0.0 0.0 1.0 0.0 0.0 0.0 0.0 0.0 0.0 0.0 0.0 0.0 0.0 0.0 0.0 0.0 1:1.0 2:0.24980456 3:0.17304274 4:0.2901282 5:0.028502058 6:0.094029196 7:0.0 8:1.0 9:0.009329967 10:0.038374614 11:0.13043372 12:0.0 13:0.009456371 14:0.00254681 15:1.0 16:0.08030105 17:0.022203488 18:0.007647839 19:2.53817E-5 20:7.88775E-4 21:0.0 
-0.0 -0.0 -0.0 -1.0 -0.0 0.0 0.0 0.0 0.0 0.0 0.0 0.0 0.0 0.0 0.0 0.0 0.0 0.0 0.0 0.0 0.0 0.0 0.0 0.0 0.0 0.0 0.0 0.0 0.0 0.0 0.0 0.0 0.0 0.0 0.0 0.0 0.0 0.0 0.0 0.0 0.0 0.0 0.0 0.0 0.0 1:1.0 2:0.27096695 3:0.19894685 4:0.31480867 5:0.03521729 6:0.10812036 7:0.0 8:1.0 9:0.008320478 10:0.047045145 11:0.1343119 12:0.0 13:0.009517678 14:0.003242391 15:1.0 16:0.09308743 17:0.023775471 18:0.00581506 19:1.96181E-5 20:5.81005E-4 21:0.0 
-0.0 -0.0 -0.0 -0.0 -1.0 0.0 0.0 0.0 0.0 0.0 0.0 0.0 0.0 0.0 0.0 0.0 0.0 0.0 0.0 0.0 0.0 0.0 0.0 0.0 0.0 0.0 0.0 1.0 0.0 0.0 0.0 0.0 0.023879671654891143 0.0 0.0 0.0 0.0 0.0 0.0 0.0 0.0 0.0 0.0 0.0 0.0 1:1.0 2:0.2764796 3:0.19486791 4:0.29729512 5:0.03224101 6:0.10170014 7:0.0 8:1.0 9:0.005762585 10:0.044306874 11:0.119406566 12:0.0 13:0.006821546 14:0.003293873 15:1.0 16:0.10180834 17:0.012262227 18:0.006991233 19:1.5465E-5 20:0.001081438 21:0.0 
-0.0 -0.0 -0.0 -0.0 -0.02362862736557859 0.0 0.0 0.0 0.0 0.0 0.0 0.0 0.0 0.0 0.0 0.0 0.0 0.0 0.0 0.0 0.0 1.0 0.0 0.0 0.0 0.0 0.0 1.0 0.0 0.972562500695017 0.0 1.0 0.0 0.0 0.0 0.0 0.0 0.9808359395486077 0.0 0.0 1.0 0.0 0.0 0.0 0.0 1:1.0 2:0.2495349 3:0.17257322 4:0.28967246 5:0.028373951 6:0.093808815 7:0.0 8:1.0 9:0.009344892 10:0.038116574 11:0.13028286 12:0.0 13:0.009448541 14:0.002538524 15:1.0 16:0.08012712 17:0.021961426 18:0.007582458 19:2.48184E-5 20:7.83364E-4 21:0.0 
-1.0 -1.0 -0.5827924459611825 -1.0 -0.0 1.0 0.6497787937398161 1.0 0.14572409637032566 1.0 0.1752551252736642 1.0 0.16961963063119995 0.4215578950841205 0.17924653450471612 0.3143692905867203 0.17204898017227713 0.3016713658033062 0.3893564428479736 1.0 0.6566318439467137 0.0 0.46149291674505527 1.0 0.0 0.8691420354755842 1.0 0.0 1.0 0.0 0.04325663865149946 0.0 1.0 1.0 0.0 0.0 1.0 0.0 1.0 0.0 0.0 0.10663650609337433 0.8354486441612332 0.0 0.82400612211292 1:1.0 2:0.33624333 3:0.2739784 4:0.38933855 5:0.06106758 6:0.15591699 7:0.0 8:1.0 9:0.006827764 10:0.06710819 11:0.14344878 12:0.0 13:0.008730646 14:0.005435093 15:1.0 16:0.13535973 17:0.007698808 18:0.002581831 19:2.74881E-6 20:3.42033E-4 21:0.0 
-0.0 -0.0 -0.0 -0.0 -0.0 0.0 0.0 0.0 1.0 0.0 0.0 0.0 0.0 0.0 0.0 0.0 0.0 0.0 0.0 0.0 0.0 0.01032858663724201 0.0 0.0 0.0 0.0 0.0 0.0 0.0 0.02743749930498292 0.6083953187227313 0.0 1.0 0.0 0.0 0.009069763024228954 0.0 0.01916406045139223 0.0 0.0 0.01903431046626744 0.0 0.0 0.9429290703265149 0.0 1:2.5714E-5 2:3.53312E-5 3:2.59355E-4 4:2.66411E-4 5:1.0 6:0.003157439 7:0.0 8:0.8088693 9:0.8088611 10:0.8096737 11:0.80962545 12:0.0 13:0.8086346 14:0.6970771 15:0.00175796 16:0.006277119 17:0.012627695 18:0.011676339 19:1.0 20:0.072436534 21:0.0 
-0.0 -0.0 -0.0 -0.0 -1.0 0.0 0.0 0.0 0.0 0.0 0.0 0.0 0.0 0.0 0.0 0.0 0.0 0.0 0.0 0.0 0.0 1.0 0.0 0.0 1.0 0.0 0.0 1.0 0.0 1.0 0.0 1.0 0.0 0.0 0.0 0.0 0.0 0.0 0.0 0.0 0.9809656895337325 0.0 0.1645513558387668 0.05707092967348516 0.0 1:1.0 2:0.2654231 3:0.1770462 4:0.2748226 5:0.025633067 6:0.090508156 7:0.0 8:1.0 9:0.005685282 10:0.036085933 11:0.11052453 12:0.0 13:0.006322954 14:0.002595661 15:1.0 16:0.095511995 17:0.0065693 18:0.003402055 19:3.83231E-6 20:4.94486E-4 21:0.0 
-0.0 -0.0 -0.0 -1.0 -0.0 0.04756553319589165 0.0 0.0 0.0 0.07835115464683974 0.0 0.0 0.0 0.0 0.0 0.0 0.0 0.0 0.0 0.0 0.0 0.0 0.0 0.0 0.0 0.0 1.0 0.0 0.0 0.0 0.0 0.0 0.0 1.0 0.9679725230749359 0.0 1.0 0.0 0.0 0.0 0.0 0.0 0.0 0.0 0.0 1:1.0 2:0.2753715 3:0.21047433 4:0.33289945 5:0.040262677 6:0.11665736 7:0.0 8:1.0 9:0.009578071 10:0.05240612 11:0.14439783 12:0.0 13:0.011100454 14:0.00364035 15:1.0 16:0.09333967 17:0.031332716 18:0.006793523 19:3.1781E-5 20:5.47475E-4 21:0.0 
-0.0 -0.0 -0.0 -1.0 -0.0 0.0 0.0 0.0 0.0 0.0 0.0 0.0 0.0 0.0 0.0 0.0 0.0 0.0 0.0 0.0 0.0 0.0 0.0 0.0 0.0 0.0 0.0 0.0 0.0 0.0 0.0 0.0 0.0 0.0 0.0 0.0 0.0 0.0 0.0 0.0 0.0 0.0 0.0 0.0 0.0 1:1.0 2:0.2638173 3:0.19621107 4:0.31538776 5:0.0355371 6:0.106954284 7:0.0 8:1.0 9:0.009859163 10:0.048468996 11:0.13981472 12:0.0 13:0.010771728 14:0.003294224 15:1.0 16:0.08683916 17:0.03205431 18:0.007567606 19:3.62376E-5 20:6.93329E-4 21:0.0 
-0.0 -0.0 -0.0 -1.0 -0.0 0.0 0.0 0.7994930180807326 0.0 0.0 0.0 0.0 0.0 0.0 0.0 0.0 0.0 0.0 0.0 0.0 0.0 0.0 0.0 0.0 0.0 0.0 0.9889007506594173 0.0 0.0 0.0 0.0 0.0 0.0 0.08158044076875394 0.0 0.0 0.979807584769038 0.0 0.0 0.0 0.0 0.0 0.0 0.0 0.0 1:1.0 2:0.27049443 3:0.20326939 4:0.32202226 5:0.037499793 6:0.11103439 7:0.0 8:1.0 9:0.009362943 10:0.05026018 11:0.14011948 12:0.0 13:0.010580566 14:0.003460391 15:1.0 16:0.09118121 17:0.03059525 18:0.007155505 19:3.29401E-5 20:6.57006E-4 21:0.0 
-1.0 -0.0 -0.0 -1.0 -0.0 -0.8194098176910607 0.0 0.9544105907366105 0.0 0.5298985723707458 0.0 0.9961163093959404 0.0 0.0 0.0 0.0 0.0 0.0 0.0 1.0 0.0 0.3173815253323175 0.0 0.0 0.5698204437612987 0.0 1.0 0.7424255407440249 0.0 0.055172930552244565 0.0 0.4607612277808935 0.0 0.8808092549241047 0.9151984405067733 0.0 1.0 0.30813485151533376 1.0 0.0 0.1815096744115659 0.0 0.0 0.0 0.0 1:1.0 2:0.5441553 3:0.684519 4:0.8975233 5:0.5037287 6:0.559566 7:0.0 8:1.0 9:0.045192096 10:0.18608463 11:0.3305097 12:0.0 13:0.05338992 14:0.04398388 15:1.0 16:0.22475895 17:0.015018521 18:0.00160775 19:3.20688E-4 20:0.0 21:3.22478E-4 
-0.8373843372271914 -0.6391244455407118 -0.0 -1.0 -1.0 -1.0 0.0 1.0 0.0 1.0 0.0 1.0 0.0 0.0 0.0 0.0 0.0 0.0 0.0 0.15988294743574172 0.0 1.0 0.0 0.0 1.0 0.0 1.0 1.0 0.2892929514044039 1.0 0.0 1.0 0.856795416948772 1.0 1.0 1.0 1.0 1.0 1.0 1.0 1.0 0.0 1.0 0.0 0.0 1:1.0 2:0.51053673 3:0.59774935 4:0.78344095 5:0.35795137 6:0.45690343 7:0.0 8:1.0 9:0.03256686 10:0.15406129 11:0.28389278 12:0.0 13:0.039311208 14:0.03127343 15:1.0 16:0.21119405 17:0.006858371 18:0.001192815 19:2.56512E-4 20:0.0 21:2.57641E-4 
-1.0 -0.9213883740377294 -0.8329471838716624 -0.0 -0.0 -0.0 0.34574055883714194 0.0 0.0 0.0 0.0 0.0 0.0 0.007763411897998897 0.0 0.0 0.0 0.0 0.028970432910376005 1.0 0.21915681832444378 0.0 0.0 1.0 0.0 0.5738106947317587 0.0 0.0 0.7107070485955961 0.0 0.0 0.0 0.0 0.4943131061945276 0.0 0.0 0.0 0.0 0.0 0.0 0.0 0.0 0.0 0.0 0.7648554928250914 1:0.6119236 2:0.44737625 3:0.72056735 4:0.8722544 5:1.0 6:0.70115566 7:0.0 8:1.0 9:0.11782694 10:0.36084896 11:0.4998229 12:0.0 13:0.124514714 14:0.11803822 15:1.0 16:0.3260374 17:0.006886504 18:0.001138436 19:3.08039E-4 20:0.0 21:3.09338E-4 
-0.16261566277280864 -1.0 -1.0 -0.3162667460187729 -0.762554705315063 -0.4914665010859097 1.0 0.0629694944015895 0.6623910735601558 1.0 0.7148868153193325 0.003883690604059607 0.6409404239280814 1.0 0.6944897163245707 1.0 0.6746948657250487 1.0 1.0 1.0 0.7808431816755563 0.1184375581052871 1.0 0.0 0.09517999481566641 1.0 0.1986774395743791 0.07381659606061042 1.0 0.6958127348196397 0.5789445269793689 0.09203951151168219 0.5581376382737258 1.0 0.08480155949322665 0.0 0.23568250922624917 0.14441111478370364 0.0 0.0 0.13933351967653673 0.5338395093539642 0.0 0.5488254959499492 0.0 1:0.27585027 2:0.23563592 3:0.4403779 4:0.53941274 5:1.0 6:0.5090863 7:0.0 8:1.0 9:0.23120262 10:0.48802575 11:0.7127579 12:0.0 13:0.25466856 14:0.2518174 15:1.0 16:0.36343315 17:0.002752318 18:0.004242735 19:9.86995E-6 20:0.001640936 21:0.0 
-1.0 -0.0 -0.0 -0.8001687512582486 -0.0 -0.0 0.0 0.0 0.0 0.0 0.0 0.0 0.0 0.0 0.0 0.0 0.0 0.0 0.0 1.0 0.0 0.0 0.0 1.0 0.0 0.0 0.09193868026621965 0.0 0.0 0.0 0.0 0.0 0.0 0.0 0.0 0.0 0.0 0.0 0.0 0.0 0.0 0.0 0.0 0.0 0.23514450717490865 1:1.0 2:0.57779235 3:0.7620728 4:0.9619457 5:0.60653937 6:0.62572587 7:0.0 8:1.0 9:0.052165784 10:0.21609752 11:0.34549898 12:0.0 13:0.05929028 14:0.05112305 15:1.0 16:0.245978 17:0.021838935 18:0.002998412 19:5.74007E-4 20:0.0 21:5.76407E-4 
-1.0 -1.0 -1.0 -0.8852786099293246 -0.835566480351881 -1.0 -1.0 0.6488463199354986 0.0 1.0 0.0 0.7216441101434744 0.0 0.5685224848731639 0.0 0.0 0.0 0.17547487707742904 0.0 1.0 1.0 0.5929990012270123 0.7716008843807114 1.0 0.6149308759060503 1.0 0.7149838785166254 0.6228152958545616 1.0 1.0 0.0 0.613593121195218 1.0 1.0 0.7261194659833048 0.6000732697500597 0.6975145476871423 0.6162554013643304 0.6851252519710456 0.6115575451922137 0.5846294505774119 0.0 0.6509555937594363 0.1888171262141043 1.0 1:0.14208975 2:0.12316344 3:0.26860943 4:0.36514342 5:1.0 6:0.37645793 7:0.0 8:0.96614605 9:0.3553663 10:0.52258426 11:0.9159766 12:0.0 13:0.4138127 14:0.39242625 15:1.0 16:0.3207647 17:0.21627742 18:0.031582244 19:0.002249426 20:0.0 21:0.002816211 
-0.0 -1.0 -1.0 -0.0 -0.0 -0.0 -0.0 0.0 0.6384538938850226 1.0 1.0 0.0 1.0 1.0 1.0 1.0 1.0 0.824525122922571 1.0 0.0 0.0 0.0 0.22839911561928855 0.0 0.0 1.0 0.0 0.0 0.0 0.0 1.0 0.0 0.0 0.0 0.0 0.0 0.0 0.0 0.0 0.0 0.0 1.0 0.0 0.0 0.0 1:0.011324219 2:0.016431427 3:0.049484488 4:0.058823917 5:1.0 6:0.11430985 7:0.01009521 8:0.8806165 9:0.8165143 10:0.90891707 11:0.9956782 12:0.0 13:0.8351374 14:0.8611584 15:1.0 16:0.7960596 17:0.33875278 18:0.073422804 19:0.003568192 20:0.028981477 21:0.0 
-0.0 -0.0 -1.0 -0.0 -0.0 -0.0 -0.0 0.0 0.0 0.0 0.0 0.0 0.0 0.0 1.0 0.1808826242184529 1.0 0.0 1.0 0.2637661256842659 0.0 0.0 0.0 0.0 0.0 0.0 0.0 0.0 0.0 0.0 0.2892327510095855 0.0 0.0 0.0 0.0 0.0 0.0 0.0 0.0 0.0 0.0 0.0 0.0 0.0 0.0 1:0.012305845 2:0.019861456 3:0.06656255 4:0.08176705 5:1.0 6:0.14531115 7:0.008650376 8:0.8670718 9:0.75409883 10:0.8838234 11:0.9968848 12:0.0 13:0.77131283 14:0.7761843 15:1.0 16:0.69486034 17:0.40236685 18:0.12270517 19:0.017727178 20:0.06339044 21:0.0 
-0.0 -0.07876342600997406 -1.0 -0.0 -0.0 -0.40654118515666365 -0.34574055883714194 0.0 0.0 0.0 0.0 0.0 0.0 0.0 0.959687572171883 0.8191173757815472 0.0 0.0 0.9304332894951811 1.0 0.0 0.0 0.0 0.0 0.0 0.0 0.0 0.0 0.6906974136379876 0.22878793486025825 0.0 0.0 0.38535736643752116 0.6775237095320732 0.0 0.0 0.0 0.0 0.0 0.0 0.0 0.0 0.0 0.5920197612155568 0.0 1:0.026770676 2:0.03429739 3:0.094412684 4:0.118810676 5:1.0 6:0.18154131 7:0.010680395 8:0.8491247 9:0.6602492 10:0.77998924 11:1.0 12:0.0 13:0.70104444 14:0.69978213 15:1.0 16:0.54659206 17:0.32785282 18:0.054553892 19:5.40259E-4 20:0.0 21:0.002107171 
-0.0 -1.0 -1.0 -0.0 -0.8318540396809039 -0.0 -0.0 0.0 1.0 0.8908947550751259 1.0 0.0 0.0 0.4314775151268361 1.0 1.0 1.0 1.0 1.0 0.0 0.0 0.0 0.0 0.0 0.0 1.0 0.0 0.0 0.0 0.228333239050404 1.0 0.0 0.0 0.0 0.0 0.0 0.0 0.0 0.0 0.0 0.0 0.0 0.0 0.0 0.0 1:0.012426403 2:0.017530411 3:0.0505102 4:0.0605129 5:1.0 6:0.11608788 7:0.010302218 8:0.86183095 9:0.7985603 10:0.88374645 11:0.97956574 12:0.0 13:0.8209083 14:0.8277439 15:1.0 16:0.76895833 17:0.33304808 18:0.10183468 19:0.014256983 20:0.05633049 21:0.0 
-0.0 -0.0 -0.0 -1.0 -1.0 -1.0 -0.017380085138200045 -0.0 0.0 0.21819483396502207 0.0 0.0 0.0 0.0 0.0 0.0 0.0 0.0 0.0 0.0 0.0 1.0 0.0 0.0 1.0 0.0 1.0 1.0 0.0 1.0 0.0 1.0 0.0 1.0 1.0 1.0 1.0 1.0 0.0 1.0 1.0 0.0 0.0 0.31755478431091283 0.0 1:1.0 2:0.26809278 3:0.18558182 4:0.31594795 5:0.03411804 6:0.108863086 7:0.0 8:1.0 9:0.009514409 10:0.032957688 11:0.13738522 12:0.0 13:0.010346957 14:0.003201726 15:1.0 16:0.087741606 17:0.005664719 18:0.002831722 19:2.10656E-6 20:3.03786E-4 21:0.0 
-1.0 -1.0 -0.5732216850102948 -1.0 -1.0 -1.0 -1.0 -0.6488463199354986 0.026723264480202243 1.0 0.2872073063328368 1.0 0.2803126388810262 0.45826939588208654 0.2853982600060395 0.3622810842709499 0.2813695222152792 0.3998216089840133 0.45775230103763004 1.0 0.8459458486750194 1.0 0.5395147588545915 1.0 0.0 0.9217566829783803 1.0 1.0 1.0 1.0 0.26755525789778395 1.0 1.0 1.0 1.0 0.0 1.0 0.0 1.0 0.0 1.0 0.2505162566298478 1.0 0.0 0.9884650896535929 1:1.0 2:0.29605168 3:0.22074433 4:0.35669622 5:0.0471765 6:0.13257003 7:0.0 8:1.0 9:0.009079271 10:0.042722713 11:0.14806099 12:0.0 13:0.0110963 14:0.00438231 15:1.0 16:0.10338253 17:0.004326709 18:0.003201258 19:2.10681E-6 20:4.12531E-4 21:0.0 
-1.0 -0.23940864571686482 -0.0 -1.0 -1.0 -1.0 -1.0 -0.0 0.26273580294076354 1.0 0.0 1.0 0.0 0.0 0.0 0.0 0.0 0.0 0.0 0.1877862561817405 0.0 1.0 0.0 0.0 1.0 0.0 1.0 1.0 0.21103159802663257 1.0 0.0 1.0 0.28982090004827016 1.0 1.0 0.0 1.0 1.0 1.0 0.0 1.0 0.0 0.0 0.0 0.0 1:1.0 2:0.28402805 3:0.20657866 4:0.33569163 5:0.040756695 6:0.12042776 7:0.0 8:1.0 9:0.008959596 10:0.04062912 11:0.1413145 12:0.0 13:0.01048196 14:0.003865992 15:1.0 16:0.0974826 17:0.008107719 18:0.003532858 19:4.85155E-6 20:4.17313E-4 21:0.0 
-0.07923226450571325 -0.2159396116851556 -0.0 -0.10759523167623339 -0.0 -1.0 -0.12501457386810438 -0.0 -0.10203482790784683 0.5552335329791821 0.0 0.09620256850571166 0.0 0.5512946906632299 0.0 0.0 0.0 0.0 0.426540943404262 0.13869995751017267 0.11078644915918162 0.10943310588127612 0.09932753999202393 0.07774411101310826 0.10526543638964533 0.0 0.09825322229848202 0.10188406253484107 0.06577050588702342 0.44710120695222194 0.8982003706709735 0.10345129401208959 1.0 0.1267098641960419 0.10290280217083869 0.1134973803003684 0.1016600832711356 0.11216292199257391 0.09112045437801329 0.105186658229647 0.11193291626946894 0.03862019348836897 0.0974786339212083 1.0 0.08297914030055697 1:4.25694E-5 2:5.57647E-5 3:3.63088E-4 4:3.68807E-4 5:1.0 6:0.003821446 7:1.8629E-5 8:0.88269144 9:0.882675 10:0.8838098 11:0.88381773 12:0.0 13:0.8825909 14:0.85941815 15:0.023433534 16:0.12742044 17:0.062784724 18:0.06231975 19:1.0 20:0.35534704 21:0.0 
-0.24530676713252234 -1.0 -1.0 -0.20342664960560267 -0.7792557657059199 -0.14572409637032566 -0.5373764996920514 -1.0 -0.18742423951311893 1.0 1.0 0.19673434966839065 0.9680380774540975 1.0 1.0 1.0 1.0 1.0 1.0 0.9387894974511921 0.4802091058883033 0.17655246466570274 0.9006724600079761 0.2367227145651216 0.18196780791288772 1.0 0.19448266410473597 0.1855353635056391 1.0 0.24654662155866364 1.0 0.18339981777972778 0.1246092754460894 0.5906905622404984 0.1943944166609269 0.17638881078457244 0.1916889998455993 0.17875592046463915 0.19915159737760432 0.18189127439273955 0.17451942217634905 0.961379806511631 0.19206014843184344 0.0 0.2657735711683851 1:8.16417E-4 2:0.00163053 3:0.00888315 4:0.00934884 5:1.0 6:0.034204073 7:0.0 8:0.92007565 9:0.91610205 10:0.9439647 11:0.94769555 12:0.0 13:0.9170115 14:0.9365037 15:0.5566263 16:1.0 17:0.10580872 18:0.056729402 19:0.016640525 20:0.09955376 21:0.0 
-0.0 -1.0 -0.697690269594904 -0.0 -0.5888702375520402 -1.0 -0.0 -0.6384538938850226 -0.0 0.5585419926288989 0.7232076650058223 0.0 0.031961922545902466 0.0 1.0 0.5558545285473365 0.8616451392791361 0.912916858872868 1.0 0.0 0.0 0.0 0.0 0.0 0.0 0.9679022268264973 0.0 0.0 0.0 0.6164454085702105 1.0 0.0 1.0 0.0 0.0 0.0 0.0 0.0 0.0 0.0 0.0 0.0 0.0 0.0 0.0 1:5.3354E-5 2:7.54268E-5 3:5.28956E-4 4:5.3969E-4 5:1.0 6:0.004982673 7:1.82564E-5 8:0.8855473 9:0.88551533 10:0.8871838 11:0.887223 12:0.0 13:0.88544154 14:0.86422545 15:0.050035104 16:0.23750979 17:0.099365205 18:0.09779538 19:1.0 20:0.48367608 21:0.0 
-0.15658687355708556 -1.0 -1.0 -0.0 -1.0 -0.0 -0.0 -1.0 -0.0 -1.0 0.8235324970458081 0.0 0.0 0.4962764758473104 1.0 1.0 1.0 1.0 1.0 0.11778344610396381 0.0 0.0 0.0 0.0 0.0 1.0 0.0 0.0 0.0 1.0 1.0 0.0 0.8253508260050701 0.0 0.0 0.0 0.0 0.0 0.0 0.0 0.0 0.0 0.0 0.7004957513142128 0.0 1:9.29507E-5 2:1.33745E-4 3:8.73651E-4 4:8.93512E-4 5:1.0 6:0.006934081 7:6.70445E-5 8:0.99153656 9:0.9914522 10:0.99442714 11:0.9946207 12:0.0 13:0.9915469 14:0.98599976 15:0.24236083 16:1.0 17:0.014596379 18:0.004669173 19:8.21286E-4 20:0.01595342 21:0.0 
-1.0 -1.0 -0.7561374710720676 -1.0 -1.0 -1.0 -1.0 -0.8908947550751259 -1.0 -0.0 0.17646750295419186 0.9994423198469253 0.03735246238787349 0.5037235241526896 0.3585306553960391 0.6044336771435483 0.3802191502400625 0.35258781466006395 0.6031360600158681 1.0 0.6545387578921904 1.0 0.4180115976612061 1.0 0.9887178889595802 1.0 1.0 1.0 1.0 1.0 0.19351463014943543 1.0 0.19527337258892472 1.0 1.0 0.0 1.0 0.9656775415555194 1.0 0.0 1.0 0.0025674060963054466 0.0 0.0 0.8465571877722293 1:1.0 2:0.4218274 3:0.4196107 4:0.5729976 5:0.16562222 6:0.28294694 7:0.0 8:1.0 9:0.01627704 10:0.10642168 11:0.21033432 12:0.0 13:0.020129513 14:0.015647162 15:1.0 16:0.17145297 17:0.010486521 18:0.004029969 19:1.11012E-5 20:9.41504E-4 21:0.0 
-1.0 -0.7130419983182034 -0.0 -1.0 -1.0 -1.0 -1.0 -0.0 -1.0 -0.21341737311493755 0.0 1.0 0.024568822654137974 0.0 0.0 0.0 0.0 0.0 0.0 0.7011205885798318 0.0 1.0 0.0 0.34867644708965695 1.0 0.0 1.0 1.0 0.20384733113426892 1.0 0.10213793102192471 1.0 1.0 1.0 1.0 0.9929318293254078 1.0 1.0 1.0 1.0 1.0 0.0 1.0 0.26190448552701084 0.0 1:1.0 2:0.34991115 3:0.30569175 4:0.4749018 5:0.09902558 6:0.20639181 7:0.0 8:1.0 9:0.015560948 10:0.063279584 11:0.19671002 12:0.0 13:0.020181203 14:0.010254477 15:1.0 16:0.121826686 17:0.011424959 18:0.001949856 19:2.74352E-6 20:1.80494E-4 21:0.0 
-0.0 -1.0 -0.8389176849191226 -0.2780456492920765 -0.14902230839116293 -0.9154140102655097 -0.5298985723707458 -1.0 -0.21819483396502207 -0.9003581524931434 1.0 5.576801530747155E-4 0.9380787149579886 1.0 1.0 1.0 1.0 0.647412185339936 1.0 1.0 0.34546124210780965 0.17189318087207178 0.5819884023387939 0.1857434049156295 0.01128211104041979 1.0 0.2416332406357217 0.20305511691014425 0.7961526688657311 0.03366503464211437 1.0 0.18316875505629118 0.0 0.755444918188698 0.22859238149166028 0.007068170674592228 0.23883614764942346 0.03432245844448065 0.0 0.0 0.16716320787239672 0.9974325939036945 0.0 0.0 0.15344281222777065 1:1.24585E-5 2:5.89668E-5 3:8.77904E-4 4:8.9626E-4 5:1.0 6:0.007325885 7:0.0 8:0.98421794 9:0.9841184 10:0.9874301 11:0.98759377 12:0.0 13:0.9841663 14:0.9881974 15:0.24879634 16:1.0 17:8.55528E-4 18:6.07486E-4 19:0.0 20:0.002425703 21:9.93751E-6 
-0.3356302667010249 -1.0 -1.0 -0.31105311891431087 -0.2927121952815636 -0.0 -0.7148868153193325 -1.0 -0.2545882789699175 -0.7232076650058223 -1.0 0.2933057967885708 0.0 1.0 1.0 1.0 1.0 1.0 1.0 1.0 0.6322935338469933 0.22422130826113676 1.0 0.32497096118654684 0.23674996940570187 1.0 0.29262000549922884 0.24218065589983118 1.0 0.05378030777790119 1.0 0.23677206626228575 0.0 0.7811768251936009 0.2914570521572401 0.22689231069082386 0.27897742954736954 0.23544145344551673 0.2810428325924895 0.23491584895760764 0.2192685377385425 0.0 0.25852771203782127 0.0 0.3616275299742389 1:0.004080287 2:0.00700238 3:0.027488556 4:0.031083325 5:1.0 6:0.07538094 7:0.001307335 8:0.9209364 9:0.8946222 10:0.96010536 11:1.0 12:0.0 13:0.90726805 14:0.9343627 15:0.952024 16:1.0 17:0.061503332 18:0.0122526 19:6.34813E-4 20:2.54815E-4 21:0.0 
-0.0 -1.0 -1.0 -0.0 -1.0 -0.9430432179193431 -0.0 -1.0 -0.03261902736291936 -1.0 -1.0 0.0 1.0 1.0 1.0 1.0 1.0 1.0 1.0 0.1938364745495507 0.0 0.05658504558744373 0.0 0.0 0.04661354422108149 1.0 0.0 0.0423254369594335 0.1042853812938719 1.0 1.0 0.04666201968416242 0.9165474021374127 0.0 0.004604788727864406 0.05694904032748255 0.012871184165082927 0.049998243902404704 0.009901126243591296 0.048219758708725885 0.06124913794950723 1.0 0.029533198402552252 0.7273281553512194 0.0 1:6.04733E-4 2:0.001670472 3:0.01067376 4:0.011264484 5:1.0 6:0.03935561 7:0.0 8:0.9153517 9:0.90955204 10:0.94372785 11:0.94934946 12:0.0 13:0.9111483 14:0.9270842 15:0.60449785 16:1.0 17:0.04611955 18:0.041536383 19:0.005468696 20:0.07215842 21:0.0 
-1.0 -1.0 -0.6670553689851954 -1.0 -1.0 -1.0 -1.0 -0.7216441101434744 -1.0 -0.12104814615657396 -1.0 -0.24548830699066793 0.18198048899418814 0.48014354313691965 0.2119651129924453 0.3758740073020302 0.20629207671277588 0.4210792621718425 0.48904354757616714 1.0 1.0 1.0 0.5943554502642763 1.0 1.0 1.0 1.0 1.0 1.0 1.0 0.1346547827090063 1.0 0.2874795664780666 1.0 1.0 0.0 1.0 1.0 1.0 0.0 1.0 0.16963705591785708 0.0 0.0 1.0 1:1.0 2:0.4306991 3:0.43077022 4:0.5710295 5:0.16227359 6:0.28345373 7:0.0 8:1.0 9:0.015029835 10:0.111904055 11:0.20066565 12:0.0 13:0.017727606 14:0.014383417 15:1.0 16:0.1820483 17:0.005535041 18:4.29962E-4 19:2.51888E-7 20:8.46418E-5 21:0.0 
-1.0 -0.6013858013263733 -0.0 -1.0 -1.0 -1.0 -1.0 -0.0 -1.0 -0.17188877201752834 -1.0 -0.04781748979790289 0.10261147093139872 0.0 0.07858221744639181 0.0 0.08009845297865588 0.0 0.0 0.6208525206805485 0.0 1.0 0.0 0.3288147718160908 1.0 0.010441969204014738 1.0 1.0 0.2791237173790779 1.0 0.13613216002367778 1.0 1.0 1.0 1.0 1.0 1.0 1.0 1.0 1.0 1.0 0.08456040914003786 1.0 0.3178086422958464 0.0 1:1.0 2:0.32619253 3:0.27199346 4:0.4252533 5:0.07334431 6:0.17259811 7:0.0 8:1.0 9:0.018870853 10:0.058288675 11:0.18263467 12:0.0 13:0.018570201 14:0.00109719 15:1.0 16:0.11626413 17:0.008995449 18:0.002452938 19:3.05631E-6 20:4.22177E-4 21:0.0 
-0.31699007800756956 -1.0 -1.0 -0.29929652251379746 -1.0 -1.0 -0.6409404239280814 -1.0 -0.2803126388810262 -1.0 -1.0 -1.0 -0.28459195992558683 1.0 1.0 1.0 1.0 1.0 1.0 1.0 0.5730762399555811 0.27525285859426357 1.0 0.307841907600606 0.2772817836567452 1.0 0.28410098480755075 0.27818573261621476 1.0 1.0 1.0 0.2773445847864312 0.9797686762264102 0.6943174729365517 0.2873176778656774 0.27814662861532585 0.28381222113621046 0.2793754122454846 0.28281381080836304 0.2771235076919361 0.2751532598239043 1.0 0.28099166926968444 0.7809885761147088 0.34073618228697783 1:0.001089686 2:0.001525127 3:0.006016582 4:0.006263357 5:1.0 6:0.024906244 7:0.001199654 8:0.9194198 9:0.9176891 10:0.93458116 11:0.93701285 12:0.0 13:0.9183582 14:0.88581187 15:0.46799475 16:1.0 17:0.026595945 18:0.063605145 19:0.011492236 20:0.14447309 21:0.0 
-0.0 -1.0 -1.0 -0.0 -0.5506241664055508 -0.14460321015589592 -0.007763411897998897 -1.0 -0.0 -1.0 -1.0 -1.0 -0.0 -1.0 1.0 1.0 1.0 1.0 1.0 1.0 0.0 0.0 0.0 0.0 0.0 1.0 0.0 0.0 0.405728659482441 0.24699851621894878 1.0 0.0 0.12086115413114172 0.17164214899744124 0.0 0.0 0.0 0.0 0.0 0.0 0.0 1.0 0.0 0.0 0.0 1:0.005582916 2:0.011027349 3:0.046000667 4:0.054402802 5:1.0 6:0.111442715 7:0.0 8:0.8847713 9:0.8207974 10:0.9203229 11:1.0 12:0.0 13:0.8446575 14:0.7908429 15:1.0 16:0.8079754 17:0.034920897 18:0.022762433 19:7.32506E-4 20:0.021516507 21:0.0 
-0.6054856730045097 -1.0 -1.0 -0.5389914217106406 -1.0 -1.0 -1.0 -1.0 -0.45826939588208654 -0.5512946906632299 -1.0 -1.0 -0.48014354313691965 -0.0 1.0 1.0 1.0 1.0 1.0 1.0 1.0 0.4378951528549531 1.0 0.5797315676766595 0.4458057666404947 1.0 0.47805718062211333 0.44840703753766553 1.0 1.0 0.9428668382943216 0.44499433646051767 1.0 1.0 0.48620372104937365 0.4440570315363396 0.47555470480436923 0.44982428611547876 0.4690381032444854 0.44449216900464694 0.4357513741409123 0.0 0.4586572327909582 0.79670647760346 0.6787072585585727 1:0.04063599 2:0.050748948 3:0.14173084 4:0.17620479 5:1.0 6:0.24142708 7:0.0 8:0.8939989 9:0.5855103 10:0.78437454 11:1.0 12:0.0 13:0.62892157 14:0.5134481 15:1.0 16:0.5094246 17:0.012208215 18:0.003926561 19:2.42986E-5 20:0.002401241 21:0.0 
-0.0 -0.0 -0.0 -0.0 -0.0 -0.0 -0.0 -0.959687572171883 -0.0 -0.0 -0.0 -0.0 -0.0 -0.0 -0.0 0.997188135136506 1.0 0.0 1.0 0.0 0.0 0.0 0.0 0.0 0.0 0.0 0.0 0.0 0.0 0.0 0.8928758711871386 0.0 0.0 0.0 0.0 0.0 0.0 0.0 0.0 0.0 0.0 0.0 0.0 0.0 0.0 1:6.61151E-4 2:0.002245565 3:0.014711541 4:0.015338878 5:1.0 6:0.04876374 7:0.0 8:0.95344895 9:0.94273376 10:0.994761 11:1.0 12:0.0 13:0.94328266 14:0.92904395 15:0.6603753 16:1.0 17:0.006294395 18:0.002653853 19:3.41979E-5 20:0.002486294 21:0.0 
-0.0 -0.0 -0.8057429543656346 -0.0 -0.0 -0.0 -0.0 -1.0 -0.0 -0.0 -0.0 -0.7005988787518213 -0.0 -0.0 -1.0 1.0 0.2452670937276613 0.0 0.0 0.0 0.0 0.0 0.0 0.0 0.0 0.5252789875237042 0.0 0.0 0.0 0.0 0.0 0.0 0.0 0.0 0.0 0.0 0.0 0.0 0.0 0.0 0.0 0.0 0.0 0.0 0.0 1:0.00105491 2:0.003112507 3:0.018488929 4:0.019324522 5:1.0 6:0.056772374 7:0.0 8:0.94465274 9:0.92926306 10:0.9933995 11:1.0 12:0.0 13:0.9296722 14:0.92364585 15:0.7140944 16:1.0 17:0.009626877 18:0.00217452 19:9.23767E-4 20:0.0 21:9.34342E-4 
-0.0 -0.47463192414715216 -0.0 -0.0 -0.0 -0.0 -0.0 -0.0 -0.0 -0.0 -1.0 -0.0 -0.0 -0.0 -0.0 0.0 0.09583973377403074 0.0 1.0 0.0 0.0 0.0 0.0 0.0 0.0 0.0 0.0 0.0 0.0 0.0 1.0 0.0 0.0 0.0 0.0 0.0 0.0 0.0 0.0 0.0 0.0 1.0 0.0 0.0 0.0 1:1.14183E-4 2:8.86538E-4 3:0.007938696 4:0.008251315 5:1.0 6:0.032481585 7:0.0 8:0.96548814 9:0.9615034 10:0.9906666 11:0.99338526 12:0.0 13:0.9619756 14:0.9335668 15:0.53694063 16:1.0 17:0.019910071 18:0.014395346 19:8.69963E-4 20:0.027122034 21:0.0 
-0.2933360920931327 -0.0 -1.0 -0.1460727148896719 -0.0 -0.0 -0.6944897163245707 -1.0 -0.0981610761329507 -0.0 -0.0 -1.0 -0.13258359050415422 -0.0 -1.0 1.0 1.0 1.0 1.0 1.0 0.5568206511925504 0.07211071742164221 1.0 0.28469250512364763 0.08266070031906389 1.0 0.13776384038905506 0.08870052514850058 1.0 0.0 0.0 0.08253044381474393 0.0 0.7581324324736659 0.11140116790074771 0.06821811810222674 0.11607391300219415 0.07305349718541986 0.12692089359620537 0.07917134247515395 0.06610552346581285 0.0 0.10123156417203236 0.0 0.3110316310386213 1:0.001465346 2:0.004129283 3:0.02308253 4:0.024200471 5:1.0 6:0.06600113 7:0.0 8:0.9348271 9:0.91282326 10:0.9915603 11:1.0 12:0.0 13:0.91317856 14:0.8995375 15:0.7726236 16:1.0 17:0.007302353 18:0.003113373 19:3.38086E-5 20:0.002314653 21:0.0 
-0.0 -1.0 -0.0 -0.0 -0.31624809248326574 -0.0 -0.0 -0.0 -0.0 -1.0 -1.0 -0.0 -0.0 -0.7059846427269352 -0.0 0.0 0.0 0.0 1.0 0.0 0.0 0.0 0.0 0.0 0.0 0.0 0.0 0.0 0.0 0.20998928134970232 1.0 0.0 0.0 0.0 0.0 0.0 0.0 0.0 0.0 0.0 0.0 0.0 0.0 0.0 0.0 1:4.6234E-5 2:7.21865E-4 3:0.007012117 4:0.00744045 5:1.0 6:0.030332271 7:2.69089E-6 8:0.95044893 9:0.94723684 10:0.97113484 11:0.97575545 12:0.0 13:0.94921327 14:0.9250732 15:0.5376176 16:1.0 17:0.06198209 18:0.03801653 19:0.00697437 20:0.074634716 21:0.0 
-0.0361507261617387 -1.0 -1.0 -0.16113613601432597 -1.0 -0.9854819332297788 -0.0 -1.0 -0.1872371838730888 -1.0 -0.3585306553960391 -0.2994011212481787 -0.15796373993468288 -0.2940153572730649 -0.0 0.0028118648634940513 0.6588931724983079 1.0 1.0 0.16611521007045318 0.05841847898561784 0.20758638191192635 0.0 0.03450777931621129 0.19930711968102635 0.9598835871224938 0.1520991921030214 0.1942673838408123 0.09235311970591215 1.0 1.0 0.19951190899095006 0.9686524223673556 0.0 0.1821986264309753 0.21461383203917864 0.1734126953105558 0.21120621617291102 0.16154183221815782 0.20264398075038148 0.2134649259035165 0.0 0.18495127663742833 0.7635559149272516 0.043690573262462506 1:5.87853E-5 2:9.6045E-4 3:0.008705387 4:0.00931449 5:1.0 6:0.03535913 7:2.20313E-5 8:0.91049 9:0.9060928 10:0.9347061 11:0.94015175 12:0.0 13:0.907887 14:0.87140995 15:0.5804224 16:1.0 17:0.15504968 18:0.11481642 19:0.050946113 20:0.20981376 21:0.0 
-0.4530807508128677 -1.0 -1.0 -0.40679963860172896 -1.0 -1.0 -1.0 -1.0 -0.3622810842709499 -0.0 -1.0 -0.0 -0.3758740073020302 -0.0 -1.0 -1.0 1.0 1.0 1.0 1.0 1.0 0.34956168902803103 1.0 0.43603605349243374 0.3546418109458245 1.0 0.37443060105084913 0.3567964432766891 1.0 1.0 0.46327189848708594 0.35464581272999457 0.9798683463436427 1.0 0.3788057048677862 0.3536306326017348 0.37168654055502937 0.3569461858668684 0.3702920536345897 0.3540505413664921 0.34839920547322795 0.0 0.3636247776142943 0.6978550082345797 0.4976365176339486 1:0.018726299 2:0.029897291 3:0.09931403 4:0.10684216 5:1.0 6:0.1764426 7:0.0 8:0.9032182 9:0.7085032 10:0.96856195 11:1.0 12:0.0 13:0.7035658 14:0.7021568 15:1.0 16:0.7755188 17:0.016881699 18:0.00308405 19:0.00108073 20:0.0 21:0.001074556 
-0.0 -1.0 -1.0 -0.0 -0.4353313136949803 -0.0 -0.0 -1.0 -0.0 -0.5558545285473365 -1.0 -1.0 -0.0 -0.0 -1.0 -1.0 1.0 0.3243005212458333 1.0 1.0 0.0 0.0 0.0 0.0 0.0 1.0 0.0 0.0 0.30174581664341404 0.08401777011922802 1.0 0.0 0.0 0.009170553349819465 0.0 0.0 0.0 0.0 0.0 0.0 0.0 0.0 0.0 0.0 0.0 1:0.013576938 2:0.023060838 3:0.08101831 4:0.086468644 5:1.0 6:0.15336284 7:0.0 8:0.89628464 9:0.7513562 10:0.9789724 11:1.0 12:0.0 13:0.74605024 14:0.77284604 15:1.0 16:0.84316415 17:0.013521679 18:0.002358246 19:7.16205E-4 20:0.0 21:7.11274E-4 
-0.0 -0.7853190621628505 -1.0 -0.0 -0.0 -0.0 -0.0 -1.0 -0.0 -1.0 -0.6044336771435483 -1.0 -0.0 -1.0 -0.0 -1.0 1.0 0.6756994787541667 1.0 0.0 0.0 0.0 0.0 0.0 0.0 0.83158001060541 0.0 0.0 0.0 0.0 1.0 0.0 0.0 0.0 0.0 0.0 0.0 0.0 0.0 0.0 0.0 1.0 0.0 0.0 0.0 1:0.005175892 2:0.010807045 3:0.046508025 4:0.049390648 5:1.0 6:0.10573939 7:0.0 8:0.9035068 9:0.83855057 10:0.9825368 11:1.0 12:0.0 13:0.83738995 14:0.83679396 15:0.9892164 16:1.0 17:0.023292745 18:0.004653869 19:0.002388267 20:0.0 21:0.002407307 
-0.0 -1.0 -1.0 -0.3026213022430804 -1.0 -0.9135088799290759 -0.0 -1.0 -0.2813695222152792 -1.0 -1.0 -0.3511135524281539 -0.28639052969143175 -1.0 -1.0 -1.0 -1.0 1.0 1.0 0.13447669053086425 0.0 0.2757500684326946 0.0 0.0 0.27799010481289654 1.0 0.2858251418766962 0.2789779940653708 0.0827503244321368 1.0 1.0 0.27804540803551336 0.889004127540764 0.0 0.2892968109227194 0.2787878062075181 0.28540148269370336 0.280181208022803 0.2843916571024909 0.2778079860864002 0.27559964435515144 0.0 0.28212164159775655 0.7064729879171866 0.0 1:5.34242E-4 2:0.001921951 3:0.012973994 4:0.013809936 5:1.0 6:0.04544131 7:1.72279E-4 8:0.93455195 9:0.9260829 10:0.96884954 11:0.9766424 12:0.0 13:0.92819035 14:0.8894432 15:0.6572271 16:1.0 17:0.06000768 18:0.048458148 19:0.006992413 20:0.07785938 21:0.0 
-0.3237976100427823 -0.4799972577314694 -1.0 -0.0 -0.0 -0.0 -0.6746948657250487 -1.0 -0.0 -0.0 -0.3802191502400624 -1.0 -0.0 -0.0 -1.0 -1.0 -1.0 1.0 1.0 1.0 0.5996744207171923 0.0 1.0 0.31404770469966636 0.0 1.0 0.0 0.0 1.0 0.0 1.0 0.0 0.0 0.7352231564944754 0.0 0.0 0.0 0.0 0.0 0.0 0.0 0.0 0.0 0.0 0.34856112628836955 1:8.45602E-4 2:0.002786782 3:0.017326856 4:0.01836117 5:1.0 6:0.05496733 7:4.10823E-5 8:0.9410113 9:0.92716557 10:0.98546267 11:0.99456674 12:0.0 13:0.9289168 14:0.90050864 15:0.71752393 16:1.0 17:0.031279616 18:0.026097922 19:0.001678187 20:0.038332086 21:0.0 
-0.0 -1.0 -0.7037875797208893 -0.0 -0.2993513011578318 -0.0 -0.0 -1.0 -0.0 -0.8616451392791361 -1.0 -0.6488864475718461 -0.0 -0.0 -0.0 -1.0 -1.0 0.0 1.0 0.0 0.0 0.0 0.0 0.0 0.0 0.46405620868412634 0.0 0.0 0.0 0.10148147640136833 1.0 0.0 0.0 0.0 0.0 0.0 0.0 0.0 0.0 0.0 0.0 1.0 0.0 0.0 0.0 1:6.66682E-4 2:0.002226954 3:0.014450994 4:0.015274776 5:1.0 6:0.048559453 7:1.26988E-4 8:0.9479808 9:0.9377002 10:0.9866626 11:0.9942929 12:0.0 13:0.93942446 14:0.91049594 15:0.673003 16:1.0 17:0.026875485 18:0.022375094 19:0.001398477 20:0.03494121 21:0.0 
-0.5298813577536076 -1.0 -1.0 -0.46170295463752964 -0.4163941827978408 -0.5868170293751269 -1.0 -1.0 -0.3998216089840133 -0.912916858872868 -1.0 -1.0 -0.4210792621718425 -0.20375333626303851 -1.0 -1.0 -1.0 -1.0 1.0 1.0 1.0 0.3817022703261579 1.0 0.5078368920868558 0.38894540574971703 1.0 0.4188549154081462 0.39210607543914044 1.0 0.3086965619956507 1.0 0.38901904859678615 0.5403187367950288 1.0 0.4226550262115245 0.38590754058539123 0.4131924159088953 0.3906596830758792 0.41233534848817743 0.38807067849289134 0.3795879212592514 0.13446265430511092 0.4018153941328506 0.2185247202376346 0.5876167019276234 1:0.03852391 2:0.053365607 3:0.15224154 4:0.1629183 5:1.0 6:0.23412819 7:0.0 8:0.9565799 9:0.61672866 10:0.97479296 11:0.9980403 12:0.0 13:0.60613656 14:0.6389277 15:1.0 16:0.68593806 17:0.009921221 18:0.003969523 19:2.52031E-5 20:0.001988062 21:0.0 
-0.0 -1.0 -1.0 -0.0 -1.0 -0.6342490169301414 -0.0 -1.0 -0.0 -1.0 -1.0 -1.0 -0.0 -0.7962466637369615 -1.0 -1.0 -1.0 -1.0 1.0 0.5625359426020293 0.0 0.0 0.0 0.0 0.0 1.0 0.0 0.0 0.2920295882007946 1.0 1.0 0.0 0.6634892477585526 0.026462861119319885 0.0 0.0 0.0 0.0 0.0 0.0 0.0 0.865537345694889 0.0 0.6764799173317262 0.0 1:3.29953E-4 2:6.87376E-4 3:0.004481245 4:0.004622248 5:1.0 6:0.021486409 7:2.21576E-4 8:0.8899068 9:0.888678 10:0.9034406 11:0.90396255 12:0.0 13:0.8881735 14:0.8579837 15:0.42245534 16:1.0 17:0.17534286 18:0.17450847 19:0.18282725 20:0.42756116 21:0.0 
-0.0 -0.0 -1.0 -0.0 -0.0 -0.0 -0.028970432910376005 -1.0 -0.0 -0.0 -0.0 -1.0 -0.0 -0.29989760416242184 -0.9652681419337643 -1.0 -1.0 -1.0 -0.36834731624837297 1.0 0.0 0.0 0.0 0.0 0.0 0.9405440912286411 0.0 0.0 0.41874597821573833 0.0 1.0 0.0 0.0 0.18706659572959825 0.0 0.0 0.0 0.0 0.0 0.0 0.0 0.12122539537062099 0.0 0.0 0.0 1:0.007053194 2:0.013659352 3:0.05478861 4:0.059072845 5:1.0 6:0.118928544 7:0.0 8:0.89411587 9:0.8123187 10:0.9654116 11:1.0 12:0.0 13:0.8177118 14:0.8085942 15:1.0 16:0.9216917 17:0.009011206 18:0.004054143 19:3.16049E-5 20:0.00361277 21:0.0 
-0.0 -0.5297008951882355 -0.0 -0.0 -0.0 -0.0 -0.0 -0.0 -0.0 -0.0479323437815775 -1.0 -0.6568122307697831 -0.0 -0.39067232440776023 -0.0 -1.0 -0.5623044962437572 -1.0 -0.0 0.0 0.0 0.0 0.0 0.0 0.0 0.5923896331944466 0.0 0.0 0.0 0.0 1.0 0.0 0.0 0.0 0.0 0.0 0.0 0.0 0.0 0.0 0.0 0.878774604629379 0.0 0.0 0.0 1:2.04126E-5 2:3.51116E-5 3:3.77383E-4 4:3.82738E-4 5:1.0 6:0.004054028 7:1.91878E-5 8:0.9815675 9:0.981545 10:0.9829082 11:0.98296756 12:0.0 13:0.9815968 14:0.9811884 15:0.18362394 16:1.0 17:0.008118513 18:0.007784027 19:0.001899229 20:0.041993488 21:0.0 
-0.6456581652795902 -1.0 -1.0 -0.5487284328220535 -0.48908145658483354 -0.8317637885425753 -1.0 -1.0 -0.45775230103763004 -0.3786085996226845 -1.0 -0.1111261092347429 -0.48904354757616714 -0.0 -1.0 -1.0 -1.0 -0.30239917320460596 -0.721249670173629 1.0 1.0 0.4321816996010869 1.0 0.6161596424021716 0.44234151924182685 1.0 0.48590369464346783 0.4465368999205783 1.0 0.5514993602629432 0.0 0.4421736125389331 0.7995588103119824 1.0 0.489987831646824 0.43698573044400085 0.4775081611078419 0.44384708906769216 0.4752812142535696 0.4409286142624098 0.42883532997421203 0.0 0.4598982381340988 0.3437375000540111 0.725670409192881 1:0.06317957 2:0.07661744 3:0.19622508 4:0.22078381 5:1.0 6:0.2843133 7:0.0 8:0.99407554 9:0.53764296 10:0.86989063 11:0.9973124 12:0.0 13:0.5510826 14:0.5597505 15:1.0 16:0.5600434 17:0.00149591 18:0.001283816 19:1.30466E-6 20:6.01785E-4 21:0.0 
-0.0 -1.0 -0.31812515797100904 -0.0 -0.0 -0.5440098389120175 -0.0 -0.9304332894951811 -0.0 -1.0 -0.6031360600158681 -0.0 -0.0 -0.0 -0.0 -1.0 -0.0 -0.0 -0.0 0.0 0.0 0.0 0.0 0.0 0.0 0.35787992733718654 0.0 0.0 0.0 0.0 1.0 0.0 0.5465177605470285 0.0 0.0 0.0 0.0 0.0 0.0 0.0 0.0 0.0 0.0 0.6109996262623579 0.0 1:1.09193E-5 2:6.87051E-5 3:0.001028587 4:0.001044388 5:1.0 6:0.008152481 7:0.0 8:0.93101764 9:0.9308953 10:0.93468326 11:0.9347315 12:0.0 13:0.93077254 14:0.9199398 15:0.25887117 16:1.0 17:0.102195114 18:0.09814011 19:0.15061653 20:0.38258597 21:0.0 
-0.0 -0.25816526256307504 -1.0 -0.0 -0.9628864950235843 -0.0 -0.0 -1.0 -0.0 -1.0 -0.0 -0.232061659995474 -0.0 -0.309430071429818 -0.03473185806623564 -1.0 -0.4376955037562428 -0.697600826795394 -0.910403013577998 0.0 0.0 0.0 0.0 0.0 0.0 0.0 0.0 0.0 0.0 0.8254214557220155 1.0 0.0 0.0 0.0 0.0 0.0 0.0 0.0 0.0 0.0 0.0 0.0 0.0 0.0 0.0 1:8.94296E-5 2:1.88493E-4 3:0.001626544 4:0.001667795 5:1.0 6:0.010888056 7:8.19912E-5 8:0.92212284 9:0.9218813 10:0.9273677 11:0.9277074 12:0.0 13:0.92198145 14:0.9083233 15:0.30396402 16:1.0 17:0.12641719 18:0.119117744 19:0.1659074 20:0.40096974 21:0.0 
-1.0 -1.0 -0.0 -1.0 -0.14785800019646164 -0.7358955585326276 -1.0 -0.0 -0.9567253662358219 -0.0 -0.8189040346837958 -0.0 -1.0 -0.0 -0.0 -0.0 -0.0 -0.0 -0.0 -0.0 0.0 0.6603911136685594 0.0 0.6939125485177273 0.765800052099592 0.0 1.0 0.8383257740399216 0.6699538714968669 0.37129819891681864 0.0 0.7720681371570846 0.6023098999121362 1.0 1.0 0.6060691446262847 1.0 0.6714861057282192 1.0 0.7560722641483171 0.5970032517377017 0.0 0.8222884442776219 0.0 0.0 1:0.9327091 2:0.5716581 3:0.790982 4:1.0 5:0.739258 6:0.6886468 7:0.0 8:1.0 9:0.06521552 10:0.23282777 11:0.38906816 12:0.0 13:0.07592593 14:0.06280437 15:1.0 16:0.25757414 17:0.011136238 18:0.001065908 19:8.04038E-5 20:0.0 21:7.90404E-5 
-0.0 -1.0 -1.0 -0.27440347984875013 -1.0 -1.0 -0.15988294743574172 -1.0 -0.23106088994591856 -1.0 -1.0 -1.0 -0.2064423043861494 -1.0 -1.0 -1.0 -1.0 -1.0 -1.0 -1.0 0.2516766429729057 0.2376435690447217 1.0 0.0 0.23419994790040802 1.0 0.20415715820493974 0.2287568896075008 1.0 1.0 0.9360313141759936 0.22793186284291542 0.9849251409631191 0.5897653429959071 0.22572161126256893 0.255018849403196 0.24247173226180999 0.25450568219111086 0.21288386675042145 0.23585971359822533 0.24401836153981638 0.8496727181067789 0.1777115557223781 0.6821324324670038 0.0 1:0.1274398 2:0.13189846 3:0.2933788 4:0.33846465 5:1.0 6:0.37617764 7:0.0 8:1.0 9:0.3739103 10:0.7039043 11:0.8608137 12:0.0 13:0.3881548 14:0.37381777 15:1.0 16:0.46941558 17:0.007798385 18:0.001026879 19:2.81318E-4 20:0.0 21:2.82684E-4 
-0.5039314448443744 -1.0 -1.0 -0.0 -0.5240247479004171 -0.0 -1.0 -1.0 -0.0 -0.07748945496136489 -1.0 -0.1938364745495507 -0.0 -0.0 -1.0 -0.16611521007045318 -1.0 -0.13447669053086425 -0.5625359426020293 -1.0 0.0 0.0 0.0 0.0 0.0 1.0 0.0 0.0 0.33004612850313303 0.09738353833348826 0.0 0.0 0.0 1.0 0.0 0.0 0.0 0.0 0.0 0.0 0.0 0.0 0.0 0.0 0.0 1:0.14320667 2:0.14683616 3:0.31997424 4:0.36216012 5:1.0 6:0.39502513 7:0.0 8:1.0 9:0.3422024 10:0.69627863 11:0.81594807 12:0.0 13:0.34852922 14:0.34595773 15:1.0 16:0.47695783 17:0.001503455 18:8.52636E-4 19:5.72323E-7 20:3.2149E-4 21:0.0 
-1.0 -0.0 -0.905319399678321 -0.0 -0.0 -0.0 -1.0 -0.2637661256842659 -0.0 -0.0 -0.0 -0.0 -0.0 -0.0 -0.0 -0.0 -0.0 -0.0 -0.0 -0.0 0.6643887489236703 0.0 0.0 0.30608745148227257 0.0 0.2392485337404856 0.0 0.0 0.0 0.0 0.0 0.0 0.0 0.0 0.0 0.0 0.0 0.0 0.0 0.0 0.0 0.0 0.0 0.0 0.3599710785049281 1:0.37187803 2:0.30656117 3:0.54829913 4:0.6452746 5:1.0 6:0.57666534 7:0.0 8:1.0 9:0.17369859 10:0.45358986 11:0.60009396 12:0.0 13:0.18351132 14:0.17131837 15:1.0 16:0.37074816 17:0.002380876 18:2.56629E-4 19:6.87265E-5 20:0.0 21:6.88137E-5 
-1.0 -0.05476308308804687 -0.0 -0.9178489315602906 -0.0 -0.0 -1.0 -0.0 -0.0 -0.0 -0.0 -0.0 -0.41441021629439917 -0.0 -0.0 -0.0 -0.0 -0.0 -0.0 -0.0 0.08393460810342397 0.0 0.0 1.0 0.0 0.0 0.3726172673054206 0.0 0.0 0.0 0.0 0.0 0.0 0.4102346570040928 0.05541132356898992 0.0 0.20354269773926137 0.0 0.3576568707039942 0.0 0.0 0.0 0.0 0.0 0.640028921495072 1:0.9238099 2:0.5693732 3:0.79161596 4:1.0 5:0.7502043 6:0.69216955 7:0.0 8:1.0 9:0.06659376 10:0.2356824 11:0.3928616 12:0.0 13:0.0774449 14:0.06413053 15:1.0 16:0.2591305 17:0.010987612 18:0.001078683 19:6.00224E-5 20:0.0 21:5.84722E-5 
-1.0 -1.0 -1.0 -1.0 -1.0 -1.0 -1.0 -1.0 -0.8459458486750194 -0.5909955550474849 -1.0 -0.6322935338469933 -1.0 -0.5730762399555811 -1.0 -0.6152391301781683 -1.0 -0.5996744207171923 -1.0 -1.0 -1.0 0.7049865232871234 1.0 1.0 0.7573277657378478 1.0 1.0 0.7874573173446756 1.0 1.0 0.5220509037220737 0.7618279521006875 1.0 1.0 1.0 0.6935320931804706 0.9627053901657951 0.7275925082129941 1.0 0.750186562506782 0.6777393489544946 0.48245019008752693 0.8696951355428347 0.5013192751263571 1.0 1:0.3618119 2:0.30114883 3:0.49214593 4:0.6168804 5:1.0 6:0.56579775 7:0.0 8:1.0 9:0.21600151 10:0.5279998 11:0.6736351 12:0.0 13:0.22191134 14:0.21108703 15:1.0 16:0.37321818 17:0.06705971 18:0.038689207 19:0.001164486 20:0.017092338 21:0.0 
-0.5125631533141279 -0.09146277584990078 -0.0 -1.0 -1.0 -1.0 -0.43581908343760456 -0.32417464425857867 -1.0 -0.2859855705469789 -1.0 -0.2808063538485805 -1.0 -0.27525285859426357 -0.4378951528549531 -0.27969709933356857 -0.34956168902803103 -0.2757500684326946 -0.27353749715227554 -0.2600444272662061 -0.0 -0.0 0.0 0.0 1.0 0.0 1.0 1.0 0.03170189608846685 1.0 0.26385221713042634 1.0 0.28213175390393586 1.0 1.0 0.0 1.0 1.0 1.0 0.0 1.0 0.0 0.0 0.0 0.0 1:1.0 2:0.17773326 3:0.08557929 4:0.19456038 5:0.009187263 6:0.049618714 7:0.0 8:1.0 9:0.018464878 10:0.005825857 11:0.104973994 12:0.0 13:0.009178328 14:8.18032E-4 15:1.0 16:0.038444344 17:0.001794354 18:9.06286E-5 19:6.46395E-6 20:0.0 21:6.47239E-6 
-0.0 -0.0 -0.0 -1.0 -1.0 -1.0 -0.0 -0.0 -0.0 -0.0 -0.0 -0.0 -0.0 -0.0 -0.0 -0.0 -0.0 -0.0 -0.0 -0.0 -0.0 -0.0 0.0 0.0 0.0 0.0 1.0 1.0 0.0 0.24069460458319591 0.0 1.0 0.0 0.0 1.0 1.0 1.0 0.6683143914430826 0.0 0.0 1.0 0.0 0.0 0.3192469362823608 0.0 1:1.0 2:0.15693189 3:0.067781806 4:0.17134655 5:0.006431938 6:0.040053844 7:0.0 8:1.0 9:0.02239548 10:0.003185471 11:0.099358685 12:1.64657E-5 13:0.00912008 14:4.87306E-4 15:1.0 16:0.028540593 17:0.002062641 18:1.25396E-4 19:8.48811E-6 20:0.0 21:8.50294E-6 
-0.0 -0.0 -0.0 -1.0 -0.2314479478195314 -1.0 -0.0 -0.0 -1.0 -0.0 -0.17189318087207178 -0.0 -0.0 -0.0 -0.0 -0.0 -0.0 -0.0 -0.0 -0.0 -0.0 -0.0 0.0 0.0 0.0 0.0 1.0 1.0 0.0 1.0 0.0 1.0 0.0 0.6909166885373906 1.0 0.0 1.0 0.0 0.0 0.0 1.0 0.0 0.0 0.0 0.0 1:1.0 2:0.16039987 3:0.07025514 4:0.17214178 5:0.0065848 6:0.040636413 7:0.0 8:1.0 9:0.020924544 10:0.003471384 11:0.097687215 12:0.0 13:0.008692525 14:5.18403E-4 15:1.0 16:0.030759577 17:0.001614643 18:1.32782E-4 19:7.21986E-6 20:0.0 21:7.23246E-6 
-1.0 -1.0 -0.5126865614448268 -1.0 -1.0 -1.0 -1.0 -0.2688243569684337 -1.0 -0.0 -1.0 -0.0 -1.0 -0.0 -0.0 -0.0 -0.0 -0.0 -0.10816477317388233 -0.17213727233488083 -0.898034682713281 -0.7049865232871234 0.49901717607764967 0.7790036670394853 1.0 0.7276493628219605 1.0 1.0 1.0 1.0 0.0 1.0 1.0 1.0 1.0 0.0 1.0 0.3316856085569174 1.0 1.0 0.0 0.24623446218147682 1.0 0.0 0.7521274533606438 1:1.0 2:0.19228353 3:0.097852565 4:0.19749525 5:0.009940493 6:0.052132756 7:0.0 8:1.0 9:0.013808073 10:0.009399926 11:0.098158985 12:0.0 13:0.007592766 14:9.68339E-4 15:1.0 16:0.048787266 17:0.001855043 18:4.38214E-5 19:2.38865E-9 20:1.97551E-6 21:0.0 
-0.8494562306462399 -1.0 -1.0 -0.6799723524895052 -1.0 -1.0 -1.0 -1.0 -0.5395147588545915 -1.0 -1.0 -1.0 -0.5943554502642763 -1.0 -1.0 -1.0 -1.0 -1.0 -1.0 -1.0 -1.0 -1.0 -0.49901717607764967 0.8037057022442191 0.5149506157680287 1.0 0.5887758652918343 0.5223978712584039 1.0 1.0 1.0 0.5153899565299633 1.0 1.0 0.5897616184416173 0.5027347182962635 0.5701052839839041 0.5135450410769227 0.5713809595313651 0.5129132518409248 0.49238180185052394 1.0 0.5442569596240694 0.6987027240366626 0.9765664775225747 1:0.104925364 2:0.11620449 3:0.2575025 4:0.2960798 5:1.0 6:0.34863374 7:0.0 8:1.0 9:0.4387394 10:0.8309471 11:0.91049093 12:0.0 13:0.43456885 14:0.40892896 15:1.0 16:0.5265377 17:0.060218256 18:0.03663773 19:0.001234812 20:0.021717098 21:0.0 
-1.0 -1.0 -1.0 -0.7798595824746065 -0.0 -0.13999722410543236 -1.0 -1.0 -0.0 -0.3144668255782298 -0.5344198520052864 -0.32497096118654684 -0.3288147718160908 -0.307841907600606 -0.5797315676766595 -0.31920028443985893 -0.43603605349243374 -0.31404770469966636 -0.5078368920868558 -0.6161596424021716 -1.0 -1.0 -0.0 -0.8037057022442191 0.0 1.0 0.29388621645933055 0.0 1.0 0.0 0.29092316186180195 0.0 0.14277626278618077 1.0 0.08298570353835998 0.0 0.17538098999594162 0.0 0.26492715756830587 0.0 0.0 0.27522833820742276 0.0 0.31264823930227037 1.0 1:0.8040253 2:0.5225469 3:0.77319443 4:1.0 5:0.9165981 6:0.73752517 7:0.0 8:1.0 9:0.09329029 10:0.2639668 11:0.4691154 12:0.0 13:0.110858224 14:0.090058036 15:1.0 16:0.2640246 17:0.012536363 18:0.001379609 19:3.48752E-4 20:0.0 21:3.50909E-4 
-1.0 -1.0 -0.0 -1.0 -0.8671477249867061 -1.0 -1.0 -0.0 -1.0 -0.0 -1.0 -0.0 -1.0 -0.0 -0.0 -0.0 -0.0 -0.0 -0.0 -0.0 -1.0 -0.0 -0.7790036670394853 -0.0 0.8741784036258193 0.17051498731249537 1.0 0.9377316172861779 0.5334646727811351 0.9085610588966185 0.0 0.8862477130867822 1.0 1.0 1.0 0.7409024677430339 1.0 0.7979701737450149 1.0 0.8605478486674032 0.7270086980701298 0.0 1.0 0.0 0.0 1:0.8626764 2:0.5417164 3:0.77260303 4:1.0 5:0.8247153 6:0.71229845 7:0.0 8:1.0 9:0.07967474 10:0.2412947 11:0.43456748 12:0.0 13:0.09532161 14:0.076151915 15:1.0 16:0.255545 17:0.009521811 18:0.001128103 19:2.1265E-4 20:0.0 21:2.12671E-4 
-1.0 -1.0 -0.5360369329089509 -1.0 -1.0 -1.0 -1.0 -0.6149308759060503 -1.0 -0.287233244302533 -1.0 -0.28336351362678336 -1.0 -0.2772817836567452 -0.4458057666404947 -0.28196782000009024 -0.3546418109458245 -0.27799010481289654 -0.38894540574971703 -0.44234151924182685 -1.0 -0.7573277657378478 -1.0 -0.5149506157680287 -0.8741784036258193 0.7968976059377414 1.0 1.0 1.0 1.0 0.2651943338924897 1.0 1.0 1.0 1.0 0.0 1.0 1.0 1.0 0.0 1.0 0.2480002658385639 1.0 0.0 0.8354093899105615 1:1.0 2:0.23947889 3:0.14785083 4:0.26225266 5:0.021040864 6:0.08198339 7:0.0 8:1.0 9:0.010449112 10:0.021261249 11:0.1179822 12:0.0 13:0.008882245 14:0.002083542 15:1.0 16:0.0726622 17:0.002937213 18:5.68125E-4 19:4.86985E-8 20:6.73974E-5 21:0.0 
-0.774870773947072 -0.11049895588127552 -0.0 -1.0 -1.0 -1.0 -0.6650004385769651 -0.0 -1.0 -0.0 -1.0 -0.0 -1.0 -0.0 -0.0 -0.0 -0.0 -0.0 -0.0 -0.0 -0.0 -0.0 -1.0 -0.0 -0.0 0.0 1.0 1.0 0.16320341557929866 1.0 0.0 1.0 0.28591036482093835 1.0 1.0 1.0 1.0 1.0 1.0 1.0 1.0 0.0 0.0 0.31733503655135603 0.0 1:1.0 2:0.23556733 3:0.14340809 4:0.2514044 5:0.019027654 6:0.07708921 7:0.0 8:1.0 9:0.010173763 10:0.021105304 11:0.112696685 12:0.0 13:0.008295828 14:0.001898534 15:1.0 16:0.07155631 17:0.004265873 18:4.59777E-4 19:1.32184E-7 20:4.50092E-5 21:0.0 
-0.19776623830006804 -1.0 -1.0 -0.06801393902414911 -1.0 -0.6690258461713907 -0.5738106947317586 -1.0 -0.004784367179281049 -1.0 -1.0 -0.8879762629670482 -0.010441969204014738 -0.9757683147061206 -0.4531814426595978 -1.0 -1.0 -1.0 -1.0 -1.0 -0.23924853374048566 -0.0 -0.034412742082436235 -0.0 -0.17051498731249531 -0.02370300578071302 0.006403576867594974 0.01657396415157364 0.0 0.9048173253100142 1.0 0.02229718554049882 0.6425205038319174 0.3998055135765224 0.0 0.045140495889295716 0.004238293347200182 0.03835084589453634 0.00733589842064776 0.02548549670848008 0.04223744551264236 1.0 0.0 0.624716043007322 0.0 1:0.001071921 2:0.001555476 3:0.006440117 4:0.006717645 5:1.0 6:0.026321515 7:8.28738E-4 8:0.951864 9:0.9497853 10:0.96856993 11:0.97158194 12:0.0 13:0.95103043 14:0.9557034 15:0.48531124 16:1.0 17:0.018077964 18:0.016084654 19:0.001204053 20:0.03444063 21:0.0 
-0.0 -1.0 -1.0 -0.0 -0.054791990444531834 -0.0 -0.0 -1.0 -0.0 -0.8361054877489862 -1.0 -1.0 -0.0 -0.0 -1.0 -1.0 -1.0 -1.0 -0.6471490534553281 -1.0 -1.0 -0.17518558007789342 -0.0 -0.49344088544070536 -0.0 -0.0 0.0 0.0 0.8661688916358804 0.0 1.0 0.0 0.0 0.34614113967829635 0.0 0.0 0.0 0.0 0.0 0.0 0.0 0.0 0.0 0.0 0.0 1:0.001341379 2:0.002024639 3:0.008427994 4:0.008810435 5:1.0 6:0.03180126 7:0.001036446 8:0.96414614 9:0.9607641 10:0.9859769 11:0.9900658 12:0.0 13:0.9622042 14:0.9664602 15:0.53475034 16:1.0 17:0.007153559 18:0.005156477 19:1.07807E-4 20:0.009596781 21:0.0 
-1.0 -1.0 -1.0 -1.0 -0.6547729974221492 -1.0 -1.0 -1.0 -0.9169723157990992 -0.13179673907751116 -1.0 -0.11202373703295179 -1.0 -0.024231685293879392 -0.5468185573404022 -0.48516257464619794 -0.8315800106054101 -0.46405620868412645 -0.3528509465446718 -0.8908136517602743 -1.0 -0.8248144199221066 -0.6932366207395242 -0.5065591145592947 -1.0 -0.7731946001570283 1.0 0.8233964046360287 1.0 0.7195240961107648 0.2741903521835892 0.781639789902068 1.0 1.0 1.0 0.660778377650502 1.0 0.7101300213687647 1.0 0.7612858404683202 0.6488455744304401 0.0 0.9598014170497909 0.2283465884729735 1.0 1:0.564471 2:0.4083103 3:0.6643385 4:0.8346602 5:1.0 6:0.67605025 7:0.0 8:1.0 9:0.13235918 10:0.3407976 11:0.5472778 12:0.0 13:0.15131924 14:0.13200411 15:1.0 16:0.30216488 17:0.015545804 18:0.001597118 19:3.59141E-4 20:0.0 21:3.62706E-4 
-1.0 -0.5674277023378501 -0.0 -1.0 -1.0 -1.0 -1.0 -0.0 -1.0 -0.0 -1.0 -0.0 -1.0 -0.0 -0.0 -0.0 -0.0 -0.0 -0.0 -0.0 -0.5767744255103604 -0.0 -1.0 -0.0 -0.29388621645933055 -0.0 -0.006403576867594974 1.0 0.2710704184117113 1.0 0.0 1.0 0.0 1.0 1.0 0.0 1.0 0.0 1.0 0.0 1.0 0.0 0.0 0.0 0.0 1:1.0 2:0.33583197 3:0.2758861 4:0.41472968 5:0.070009224 6:0.16988368 7:0.0 8:1.0 9:0.010957443 10:0.056018528 11:0.16435528 12:0.0 13:0.014010507 14:0.006901443 15:1.0 16:0.12186883 17:0.005927586 18:1.72198E-4 19:1.01052E-5 20:0.0 21:1.01547E-5 
-0.08512900042396727 -0.0 -0.0 -1.0 -1.0 -1.0 -0.29061611984059876 -0.0 -1.0 -0.13376997864278053 -0.2416332406357217 -0.03383369606616159 -0.0 -0.07147852992369284 -0.0 -0.05459841083953371 -0.0 -0.055210543762877234 -0.0 -0.0 -0.0 -0.0 -1.0 -0.0 -0.0 -1.0 -0.0 1.0 0.0 1.0 0.09830625230900863 1.0 0.9658391108159338 1.0 1.0 0.0 1.0 1.0 0.0 0.0 1.0 0.05913206973459447 0.0 0.3196269429708295 0.0 1:1.0 2:0.26688555 3:0.19464816 4:0.35615957 5:0.04332305 6:0.12766577 7:0.0 8:1.0 9:0.016001943 10:0.032845665 11:0.1691149 12:0.0 13:0.016642103 14:0.004333116 15:1.0 16:0.075529836 17:0.017509563 18:6.62019E-4 19:8.19738E-5 20:0.0 21:8.18491E-5 
-1.0 -1.0 -0.6576599233722045 -1.0 -0.21330020221601145 -1.0 -1.0 -0.7149838785166254 -0.0 -0.15896590776043745 -1.0 -0.2587863094330673 -1.0 -0.21262245488385792 -0.47805718062211333 -0.23526462165254272 -0.37443060105084913 -0.23061459811381896 -0.4188549154081462 -0.48590369464346783 -1.0 -1.0 -1.0 -0.5887758652918343 -1.0 -0.0 -1.0 1.0 1.0 0.2179825384491503 0.1722114331946076 1.0 0.3298230887064861 1.0 1.0 0.0 1.0 0.0 0.9578246099125596 0.0 0.0 0.19464716987794475 0.3035030175279622 0.0 1.0 1:1.0 2:0.42147565 3:0.4126274 4:0.55141085 5:0.14802362 6:0.26846787 7:0.0 8:1.0 9:0.01448509 10:0.10126112 11:0.1969026 12:0.0 13:0.018072262 14:0.013379366 15:1.0 16:0.17351 17:0.005523996 18:3.40809E-4 19:4.1193E-5 20:0.0 21:4.13471E-5 
-0.0 -0.0 -0.0 -1.0 -1.0 -1.0 -0.0 -0.0 -1.0 -0.0 -0.0 -0.0 -0.0 -0.0 -0.0 -0.0 -0.0 -0.0 -0.0 -0.0 -0.0 -0.0 -1.0 -0.0 -0.0 -1.0 -0.0 1.0 0.0 1.0 0.0 1.0 0.0 0.13031440685295037 1.0 1.0 1.0 1.0 0.042175390087440395 1.0 1.0 0.0 0.6964969824720377 0.0 0.0 1:1.0 2:0.2603095 3:0.17834406 4:0.3230471 5:0.03500969 6:0.11141747 7:0.0 8:1.0 9:0.014444275 10:0.026422298 11:0.15011573 12:0.0 13:0.013882689 14:0.003546474 15:1.0 16:0.075369395 17:0.007807977 18:2.57197E-5 19:1.67658E-8 20:0.0 21:2.04136E-8 
-0.0 -0.0 -0.0 -1.0 -1.0 -1.0 -0.0 -0.0 -0.0 -0.0 -0.0 -0.0 -0.0 -0.0 -0.0 -0.0 -0.0 -0.0 -0.0 -0.0 -0.0 -0.0 -1.0 -0.0 -0.0 -1.0 -0.0 -1.0 0.0 1.0 0.0 1.0 0.0 0.0 0.0 0.0 1.0 1.0 0.0 0.0 1.0 0.0 0.0 0.0 0.0 1:1.0 2:0.25197503 3:0.15771219 4:0.2538636 5:0.020094652 6:0.080141366 7:0.0 8:1.0 9:0.006785685 10:0.026483024 11:0.104480885 12:0.0 13:0.006472925 14:0.002030748 15:1.0 16:0.085789025 17:0.001390636 18:7.17636E-5 19:7.38605E-6 20:0.0 21:7.39163E-6 
-0.9436471827766697 -0.14344004486667553 -0.0 -1.0 -0.23677891510888777 -1.0 -0.8162421368046354 -0.0 -1.0 -0.0 -1.0 -0.0 -1.0 -0.0 -0.0 -0.0 -0.0 -0.0 -0.0 -0.0 -0.0670826636474225 -0.0 -1.0 -0.0 -0.0 -0.0 -0.0 -1.0 0.18055602132162796 0.23770053687733256 0.0 1.0 0.28435606309087097 1.0 1.0 0.0 1.0 0.0 1.0 0.0 0.0 0.0 0.0 0.0 0.0 1:1.0 2:0.26819703 3:0.17668392 4:0.278479 5:0.025554383 6:0.09263311 7:0.0 8:1.0 9:0.006446592 10:0.03135922 11:0.11197269 12:0.0 13:0.006925736 14:0.002542394 15:1.0 16:0.094541185 17:2.7372E-4 18:2.82735E-4 19:2.239E-8 20:4.11486E-5 21:0.0 
-0.0 -0.0 -0.0 -1.0 -1.0 -1.0 -0.0 -0.0 -0.0 -0.0 -0.0 -0.0 -0.0 -0.0 -0.0 -0.0 -0.0 -0.0 -0.0 -0.0 -0.0 -0.0 -1.0 -0.0 -0.0 -1.0 -0.0 -0.0 0.0 1.0 0.0 1.0 0.0 0.0 1.0 1.0 0.0 1.0 0.0 1.0 1.0 0.0 0.0 0.3168479165656349 0.0 1:1.0 2:0.24114786 3:0.14721139 4:0.25278026 5:0.019492712 6:0.078401364 7:0.0 8:1.0 9:0.008775937 10:0.02177129 11:0.10998193 12:0.0 13:0.007595283 14:0.002022774 15:1.0 16:0.07640406 17:0.001084676 18:3.21778E-4 19:3.70226E-8 20:1.34754E-5 21:0.0 
-0.0 -0.0 -0.0 -1.0 -1.0 -1.0 -0.0 -0.0 -1.0 -0.0 -0.2030551169101442 -0.0 -0.0 -0.0 -0.0 -0.0 -0.0 -0.0 -0.0 -0.0 -0.0 -0.0 -1.0 -0.0 -0.0 -0.0 -0.0 -1.0 0.0 1.0 0.0 1.0 0.0 0.8978727888508674 1.0 0.0 1.0 0.0 0.0 0.0 1.0 0.0 0.0 0.0 0.0 1:1.0 2:0.25683847 3:0.16312389 4:0.26094002 5:0.021575127 6:0.08368165 7:0.0 8:1.0 9:0.006655747 10:0.027747618 11:0.106576905 12:0.0 13:0.006592992 14:0.00217729 15:1.0 16:0.08841229 17:8.174E-4 18:1.03557E-4 19:1.33848E-6 20:0.0 21:1.33896E-6 
-1.0 -1.0 -0.5456434311460288 -1.0 -0.0 -1.0 -1.0 -0.6228152958545616 -1.0 -0.28741942604048015 -1.0 -0.28450609285926465 -1.0 -0.27818573261621476 -0.44840703753766553 -0.28296790898931284 -0.3567964432766891 -0.2789779940653708 -0.39210607543914044 -0.4465368999205783 -1.0 -0.7874573173446756 -0.0 -0.5223978712584039 -0.9377316172861779 -0.0 -0.8399703687876023 -1.0 1.0 0.0 0.2656470147931917 1.0 1.0 1.0 1.0 0.0 1.0 0.0 1.0 0.0 0.0 0.24870277615318914 1.0 0.0 0.8892705854564618 1:1.0 2:0.27834743 3:0.18856026 4:0.2894517 5:0.028372455 6:0.09880957 7:0.0 8:1.0 9:0.006021108 10:0.035199236 11:0.11364588 12:0.0 13:0.006862913 14:0.002791357 15:1.0 16:0.10099509 17:2.65156E-4 18:2.15113E-4 19:1.6016E-8 20:3.22356E-5 21:0.0 
-1.0 -1.0 -1.0 -1.0 -0.7446911831670102 -1.0 -1.0 -0.6906974136379876 -1.0 -0.06577050588702336 -1.0 -0.1042853812938719 -1.0 -0.0 -0.405728659482441 -0.09235311970591215 -0.30174581664341393 -0.0827503244321368 -0.29202958820079467 -0.4187459782157384 -1.0 -0.5543981460927643 -0.8727549365181688 -0.20613436567306417 -1.0 -1.0 -0.8661688916358804 -1.0 -1.0 0.7751798295566951 0.014233388484718442 0.9685411486313147 0.886595394646407 1.0 1.0 0.8140628958823471 1.0 0.880874185920076 1.0 0.8618229734843657 0.7996771061534731 0.0 0.8965278194789643 0.04487638375988712 0.8510058813113559 1:0.98268265 2:0.5716956 3:0.7499549 4:0.96552646 5:0.6258474 6:0.63645554 7:0.0 8:1.0 9:0.053193733 10:0.20992543 11:0.35658655 12:0.0 13:0.06070627 14:0.066402614 15:1.0 16:0.24622735 17:3.64117E-4 18:0.001333016 19:1.38183E-7 20:3.99596E-4 21:0.0 
-0.5756448550035431 -1.0 -1.0 -0.37961814089849183 -1.0 -0.8254546243845433 -1.0 -1.0 -0.21103159802663257 -1.0 -1.0 -1.0 -0.2791237173790779 -1.0 -1.0 -1.0 -1.0 -1.0 -1.0 -1.0 -1.0 -0.44560185390723567 -0.15894695957029803 -0.7938656343269358 -0.533464672781135 -0.16320341557929866 -1.0 -0.2710704184117113 -0.18055602132162796 0.9108635758624668 1.0 0.150541845161471 0.741088465765686 1.0 0.23200404403873204 0.17298315166750416 0.2633833027609306 0.1710672164011255 0.26995173551585294 0.13817702651563435 0.16368050890998753 1.0 0.10347218052103574 0.6872529914601442 0.14899411868864404 1:0.035762865 2:0.048939764 3:0.13586102 4:0.15162063 5:1.0 6:0.22230515 7:0.0 8:0.9164497 9:0.63576573 10:0.9279408 11:1.0 12:0.0 13:0.6374648 14:0.72855675 15:1.0 16:0.66054976 17:0.035865985 18:0.03556257 19:0.001005757 20:0.025949843 21:0.0 
-1.0 -1.0 -0.5129408344003294 -1.0 -1.0 -1.0 -1.0 -0.6508665640043659 -1.0 -0.3100932370810961 -1.0 -0.1922556714952354 -1.0 -0.0 -0.45349089203205695 -0.20998928134970232 -0.333502442492443 -0.19904671271622648 -0.3086965619956507 -0.37692081598495875 -0.8729233506148508 -0.6345224100745102 -1.0 -0.45296672700794993 -0.7677592215319793 -1.0 -0.668348127027017 -1.0 -1.0 -1.0 0.24238527322121214 1.0 1.0 1.0 1.0 0.0 1.0 0.0 1.0 0.0 0.9958332915938064 0.0 0.9968375529694941 0.0 0.7401195463104101 1:1.0 2:0.21133944 3:0.122450605 4:0.24267173 5:0.016417777 6:0.07050229 7:0.0 8:1.0 9:0.015007639 10:0.015867952 11:0.12108515 12:0.0 13:0.010394726 14:0.001499815 15:1.0 16:0.054308593 17:0.008509928 18:7.46607E-4 19:4.30503E-7 20:3.2083E-5 21:0.0 
-0.0 -0.0 -0.0 -1.0 -1.0 -1.0 -0.0 -0.0 -0.9879916516732032 -0.0 -0.07076979779509453 -0.0 -0.0 -0.0 -0.0 -0.0 -0.0 -0.0 -0.0 -0.0 -0.0 -0.0 -1.0 -0.0 -0.0 -0.0 -0.0 -1.0 -1.0 -0.0 0.0 1.0 0.0 0.7645270092606122 1.0 0.9933209212523129 1.0 1.0 0.0 0.0 1.0 0.0 0.0 0.1552084106379039 0.0 1:1.0 2:0.18519539 3:0.092342384 4:0.211217 5:0.011145487 6:0.05609735 7:0.0 8:1.0 9:0.01897487 10:0.005877228 11:0.113797694 12:0.0 13:0.010256267 14:9.2779E-4 15:1.0 16:0.040360015 17:7.44847E-4 18:4.13591E-4 19:0.0 20:3.57102E-5 21:3.25061E-8 
-0.6142120122261637 -0.0047361113984506304 -0.0 -1.0 -1.0 -1.0 -0.42411580794522835 -0.0 -1.0 -0.0 -1.0 -0.0 -0.9686713452879943 -0.16356028775229023 -0.0 -0.0 -0.0 -0.0 -0.0 -0.0 -0.0 -0.0 -1.0 -0.0 -0.0 -1.0 -0.0 -1.0 -1.0 -9.666184092907486E-4 0.0 1.0 0.3420653833367194 1.0 1.0 0.0 1.0 0.9847917430988758 0.981359494900869 1.0 1.0 0.1184868273718929 0.0 0.0 0.0 1:1.0 2:0.21262279 3:0.120329864 4:0.23681055 5:0.015871892 6:0.06874783 7:0.0 8:1.0 9:0.01397 10:0.013698773 11:0.11585258 12:0.0 13:0.009551327 14:0.001640953 15:1.0 16:0.05605203 17:0.003598918 18:3.30259E-4 19:1.09635E-7 20:3.26582E-5 21:0.0 
-0.12916328136366492 -1.0 -0.9447025161098237 -0.28853365807678816 -1.0 -1.0 -0.326869857426656 -0.8062546099062964 -0.012008348326796708 -1.0 -0.9628952368470198 -0.8615246362826657 -0.031328654712005785 -0.8364397122477097 -0.7935076241868917 -1.0 -0.750515327626785 -0.902434763685142 -1.0 -1.0 -0.595758386635456 -0.3654775899254899 -0.24069460458319591 -0.5470332729920501 -0.14080183736463925 -0.0 -0.9559932943937621 -0.2179825384491503 -0.2377005368773326 -0.6850767870098711 1.0 0.23938990380570555 1.0 0.505328333460345 0.2653548259449587 0.006679078747687112 0.239992683379939 0.015208256901124206 0.018640505099130983 0.0 0.0041667084061935145 0.8815131726281071 0.0031624470305059997 0.8447915893620961 0.20033700349143654 1:2.21515E-4 2:2.50361E-4 3:8.0296E-4 4:8.25635E-4 5:1.0 6:0.005907216 7:1.90719E-4 8:0.89861375 9:0.8985682 10:0.9005372 11:0.9007186 12:0.0 13:0.8986844 14:0.8771344 15:0.06666779 16:0.33148843 17:0.13544072 18:0.111238845 19:1.0 20:0.5507721 21:0.0 
-0.2254925353579491 -1.0 -1.0 -0.19315968947305975 -0.6414991324306161 -0.0 -0.47238429077376987 -1.0 -0.17918908062612982 -1.0 -1.0 -1.0 -0.18647149751739625 -0.9561720809205261 -1.0 -1.0 -1.0 -1.0 -1.0 -1.0 -0.8192620694375639 -0.4186530587199509 -0.17152399555677456 -0.8894185009629858 -0.21887664417305477 -0.1753176810464602 -1.0 -0.18521261780163334 -0.1777728861495195 -0.9730062751290962 -0.24238527322121214 0.1759820392789641 0.0 0.5137243494014114 0.18490490633846518 0.1718366634224603 0.18263396044339328 0.17344120480020736 0.187216532367659 0.17481574052091015 0.17008163035152848 0.21319203258521283 0.18193304915588565 0.0 0.2427935118254573 1:8.8229E-4 2:0.001036249 3:0.00305104 4:0.003190226 5:1.0 6:0.01469834 7:5.58796E-4 8:0.9603112 9:0.9598553 10:0.96710056 11:0.968796 12:0.0 13:0.9610126 14:0.9788466 15:0.36837572 16:1.0 17:0.051150616 18:0.02004782 19:0.006013677 20:0.038411487 21:0.0 
-0.0 -1.0 -0.5759248559489706 -0.0 -0.0 -0.0 -0.0 -1.0 -0.0 -0.5820001422453887 -1.0 -1.0 -0.0 -0.0 -0.8300085516300213 -1.0 -1.0 -1.0 -0.6609648374950212 -1.0 -0.0 -0.0 -0.0 -0.0 -0.0 -0.0 -1.0 -0.0 -0.0 -0.0 -0.0 0.0 0.0 0.0 0.0 0.0 0.0 0.0 0.0 0.0 0.0 0.495111671710214 0.0 0.0 0.0 1:4.7931E-4 2:5.97021E-4 3:0.002249882 4:0.002325439 5:1.0 6:0.012410108 7:3.05194E-4 8:0.97672534 9:0.9763952 10:0.98280364 11:0.9836372 12:0.0 13:0.9768205 14:1.0 15:0.33390984 16:1.0 17:0.036734086 18:0.011267718 19:0.00737773 20:0.0 21:0.007188178 
-0.0741434671134106 -0.3584940502536516 -0.4325106962526098 -0.09262875619956162 -0.675668066745179 -1.0 -0.10656023620559908 -0.2892327510095855 -0.08836617727165416 -1.0 -0.11172455532450852 -0.0 -0.08431544521528785 -0.04382791907947396 -0.11285828666430016 -0.8928758711871386 -0.1105207829470548 -0.06961816926275098 -0.3390351625049787 -1.0 -0.11676924473842967 -0.10339784500212272 -0.09232822157365177 -0.11058149903701416 -0.07204651768874723 -0.08987665284602953 -0.09714345436288988 -0.0853050677019829 -0.08787412864367221 -0.041227113355622305 -1.0 0.08893181631958075 1.0 0.10858404523472842 0.08924735616388896 0.0949372142708008 0.0880305015984637 0.09433130474752609 0.08147512316215369 0.09011129974632867 0.09377488876006247 0.0 0.08572682180185895 0.9394570245519911 0.07744842523951762 1:1.07456E-4 2:1.44971E-4 3:8.20996E-4 4:8.53968E-4 5:1.0 6:0.006639959 7:5.4408E-5 8:0.89139503 9:0.8913315 10:0.893684 11:0.8939706 12:0.0 13:0.89148736 14:0.87459207 15:0.121623844 16:0.51544976 17:0.15798713 18:0.16465487 19:1.0 20:0.7147385 21:0.0 
-0.0 -0.029882229910271674 -0.0 -0.0 -0.0 -0.6516519573742308 -0.0 -0.0 -0.0 -0.31620022842558476 -0.1839280058468515 -0.0 -0.0 -0.0 -0.0 -1.0 -0.3527511155400312 -0.930381830737249 -0.0 -1.0 -0.0 -0.0 -0.0 -0.0 -0.0 -0.0 -0.17704689782069932 -0.0 -0.0 -0.0 -0.0 0.0 0.6590446196705237 0.0 0.0 0.0 0.0 0.0 0.0 0.0 0.0 0.2916962957045732 0.0 0.06054297544800891 0.0 1:5.94982E-6 2:1.3511E-5 3:2.21207E-4 4:2.22542E-4 5:1.0 6:0.002870397 7:4.5907E-6 8:0.99674565 9:0.9967358 10:0.9976046 11:0.997594 12:0.0 13:0.99666494 14:0.9958507 15:0.15176378 16:1.0 17:0.002613558 18:6.62798E-4 19:1.84445E-4 20:0.0 21:1.95167E-4 
-0.6370391941619279 -0.09942839727731348 -0.0 -1.0 -0.23064883818551854 -1.0 -0.5528007392925758 -0.0 -1.0 -0.0 -1.0 -0.0 -1.0 -0.0 -0.0 -0.0 -0.0 -0.0 -0.0 -0.0 -0.0 -0.0 -1.0 -0.0 -0.0 -1.0 -0.0 -1.0 -1.0 -0.1190829937927856 -0.0 -0.0 0.2812148434228502 1.0 1.0 0.0 1.0 0.0 1.0 0.0 0.0 0.0 0.0 0.0 0.0 1:1.0 2:0.20162797 3:0.105897956 4:0.19928992 5:0.010460108 6:0.053676385 7:0.0 8:1.0 9:0.01151743 10:0.012106036 11:0.094296515 12:0.0 13:0.006759297 14:0.001050494 15:1.0 16:0.055603348 17:0.002202931 18:2.87822E-4 19:4.72836E-8 20:2.96802E-5 21:0.0 
-0.0 -0.0 -0.0 -1.0 -1.0 -1.0 -0.0 -0.0 -0.0 -0.0 -0.0 -0.0 -0.0 -0.0 -0.0 -0.0 -0.0 -0.0 -0.0 -0.0 -0.0 -0.0 -1.0 -0.0 -0.0 -0.0 -0.0 -0.0 -1.0 -0.0 -1.0 -0.0 0.0 0.0 0.0 1.0 0.0 1.0 0.0 0.22840646001921217 1.0 0.0 0.0 0.3177296987161974 0.0 1:1.0 2:0.18500553 3:0.09123102 4:0.18464743 5:0.008449955 6:0.047023878 7:0.0 8:1.0 9:0.014016892 10:0.008898701 11:0.09267005 12:0.0 13:0.007051562 14:8.33502E-4 15:1.0 16:0.046030387 17:0.002958217 18:3.56815E-4 19:6.9261E-8 20:3.32772E-5 21:0.0 
