svm_type c_svc
kernel_type rbf
gamma 0.047619047619047616
nr_class 46
total_sv 159
rho -0.9959762692451477 0.9667672514915466 -0.9503957629203796 -1.001645416021347 -0.08311504125595096 -0.9997096359729767 -0.2993617057800293 -1.004280835390091 -0.047789186239242554 -0.08015316724777222 -0.9989495575428009 0.0036825835704803467 -0.06362953782081604 -0.9998032450675964 -0.14296644926071156 -0.9980891048908234 -0.1128334105014801 -0.053613901138305664 -0.9827765226364137 -0.9594101309776306 -0.5749298334121704 -1.000071495771408 -0.9485241174697876 -0.8898415565490723 -0.9739492535591125 -0.9919227659702302 -0.9135221540927887 -0.041029743641282146 -0.9989525973796844 -0.22448724508285522 -1.0023241341114044 -0.9991199076175689 -0.9793137311935426 -1.0030131042003632 -0.9923567771911621 -1.0000567734241486 -0.9990856349468232 -0.9633544981479645 -0.7648172080516815 -0.6907070279121399 -0.9642958343029022 -0.9975849390029908 -1.0153582096099854 -1.0091741979122162 -0.9632856249809265 0.9994713366031647 -0.9130567014217377 -0.9930145442485809 0.4667317867279053 -3.0359625816345215E-4 0.5946340262889862 0.9977512061595917 0.7636315822601318 0.4412786066532135 7.638335227966309E-4 0.9914595186710358 0.9969590306282043 0.0011772513389587402 0.6263878047466278 0.9839170873165131 0.48588618636131287 0.7404370009899139 -0.007036119699478149 -0.6933839321136475 0.8622095584869385 4.0021538734436035E-4 0.9270033836364746 0.9793457686901093 0.9939489662647247 7.268190383911133E-4 0.8615086078643799 0.6123982667922974 0.9850060343742371 0.4966581165790558 0.9845928847789764 1.252293586730957E-4 0.001034855842590332 1.552104949951172E-4 -7.420480251312256E-4 7.689297199249268E-4 -0.99957475066185 -0.718175858259201 -0.002963542938232422 -0.0020972788333892822 -0.708868145942688 -1.0000837743282318 -0.7389146387577057 -0.8675745725631714 -0.9171375632286072 -0.9582572281360626 -1.0012757182121277 -0.08212357759475708 -0.999210923910141 -0.29487574100494385 -1.0118814408779144 -0.041676849126815796 -0.07763591408729557 -0.9983349144458771 -0.9917627573013306 -0.03786090016365051 -0.9988952577114105 -0.13519155979156494 -0.9969708621501923 -0.08755257725715637 -0.04377928376197815 -0.9896181523799897 -0.9398763179779053 -0.6347006261348724 -0.999854564666748 -0.9510308504104614 -0.9107572436332703 -0.9816746711730957 -0.9972598552703857 -0.923273503780365 -0.04670183143307613 -0.9978840947151184 -0.21407431364059448 -1.0011072754859924 -1.0029975175857542 -0.9865728318691254 -1.0020659267902374 -0.9909021258354188 -0.9997592568397522 -1.0001870095729828 -0.9433572590351105 -0.744756281375885 -0.6691502332687378 -0.9432068169116973 -0.9999760091304779 -1.0129330158233643 -1.0055238902568817 -0.9701556861400604 0.0 0.7625839412212372 0.8791740536689758 0.9472430944442749 0.9284257590770721 0.9949860274791718 0.7527922987937927 0.8680304884910583 0.8865759968757629 0.9477022588253021 0.8739044666290283 0.8638288974761963 0.8718110620975494 0.7595018744468689 0.9811499831342149 0.998600959777832 0.0 1.0022902190685272 0.8867987394332886 0.9860579371452332 1.004360854625702 0.9460963606834412 0.9272463321685791 1.0008253753185272 0.8795316517353058 0.872417151927948 0.8098198175430298 0.8787401616573334 0.9147899448871613 0.9470618367195129 0.8854032158851624 0.994097501039505 0.8856466114521027 0.0 0.0 0.7537937164306641 0.7129912972450256 0.0 0.0 0.0 0.0 0.0 0.7337020635604858 0.999712347984314 0.8856582939624786 0.9970377087593079 0.9647097885608673 0.7240832149982452 0.9997497498989105 0.9997641742229462 1.001481294631958 0.9997573494911194 0.8213280141353607 0.9998430907726288 0.7473933398723602 0.9925418496131897 0.9547806978225708 0.0 0.9455603659152985 0.9988572299480438 1.0002032816410065 0.9909067749977112 0.9879207909107208 0.9894475936889648 0.9253190159797668 0.8275954127311707 0.9998118579387665 0.7773597240447998 1.0002271234989166 0.993817150592804 0.9831225275993347 0.9995262622833252 0.9697031080722809 0.9989138543605804 0.0 0.0 0.7263725399971008 0.6904770731925964 0.0 0.0 0.0 0.0 0.0 -0.45470643043518066 -0.8226117193698883 0.0077037811279296875 -0.45220592617988586 -0.9937049448490143 -0.4507680833339691 0.00836116075515747 -0.187261700630188 -0.45249077677726746 0.7388832867145538 0.009563922882080078 -0.6496507823467255 -0.5620855689048767 -0.6107662916183472 -0.9969038367271423 -0.12632641196250916 -0.4571709632873535 -0.3557162284851074 -0.04537126421928406 -0.19637179374694824 -0.46915820240974426 -0.4011795222759247 0.8858221471309662 -0.17065727710723877 -0.9367094039916992 0.008270889520645142 -0.46948298811912537 -0.4711702764034271 -0.46120089292526245 -0.6910569965839386 -0.45654505491256714 -0.7359019815921783 -1.0004473626613617 -0.9980755996680383 -0.9714675545692444 -1.0003625452518463 -0.7372312843799591 -0.8751893937587738 -0.9325832426548004 -0.7852191627025604 0.5849708020687103 0.9915217161178589 0.7619912326335907 0.42956605553627014 9.274482727050781E-5 1.0000360012054443 1.000116229057312 -5.742907524108887E-5 0.6099165976047516 0.9989598989486694 0.4838778078556061 0.7367455363273621 -0.008008748292922974 -0.6885053813457489 0.8233537077903748 -5.990266799926758E-6 0.8832398056983948 0.944814920425415 0.9651632905006409 -0.0019360482692718506 0.8105736374855042 0.5982788801193237 0.9991512298583984 0.4861295223236084 0.9999032616615295 -7.659196853637695E-5 -0.0055096447467803955 -1.4102458953857422E-4 0.0027137398719787598 2.6613473892211914E-5 -0.9978689551353455 -0.7126041948795319 -0.0030333399772644043 -0.0019457042217254639 -0.7034983336925507 -0.9956421852111816 -0.7414356768131256 -0.8517324924468994 -0.8853831887245178 0.02720978856086731 0.9465256929397583 0.8191896677017212 -0.5819114446640015 -4.7326087951660156E-4 0.9275868615454003 -0.5832042694091797 0.7865667343139648 -0.0019857585430145264 -0.07337895035743713 1.016795128583908 -0.7339309453964233 -0.9999361038208008 0.40154749155044556 -0.586938887834549 -0.04338511824607849 0.32822415232658386 -0.29735425114631653 -0.5963946580886841 -0.501999020576477 0.8791072070598602 -0.27490556240081787 -0.05319911241531372 -0.0025872886180877686 -0.5973566472530365 -0.5973680317401886 -0.5909624993801117 -0.8201122283935547 -0.586410254240036 -0.8964897990226746 -1.0072844624519348 -1.015392243862152 -0.9844075441360474 -1.0042245090007782 -0.8996057212352753 -0.9413411617279053 -1.032867193222046 -0.962303876876831 0.0801350176334382 -0.012715637683868604 -0.9865884780883789 0.9599643647670746 0.16874700784683228 -0.989738792181015 0.020783424377441406 -0.9512773156166077 0.03659355640411377 0.040944278240203906 -0.898768275976181 -0.7039002478122711 0.6186111569404602 -0.9944445490837097 -0.6783484518527985 0.018924444913864136 -0.9813657402992249 -0.9947241246700287 -0.7440905272960663 -0.009493589401245126 -0.9745970964431763 -0.00285428762435911 -0.9571739137172699 -1.0000717639923096 -0.983418345451355 -0.9953013956546783 -0.8404241800308228 -0.9940039217472076 -0.9994694888591766 -0.7287676334381104 -0.46509382128715515 -0.38918325304985046 -0.7197388112545013 -0.9990404546260834 -0.752364307641983 -0.8800888061523438 -0.932105302810669 -0.1875297725200653 -0.7613572180271149 -0.08394449949264526 0.9501529932022095 -0.7614545822143555 0.46712103486061096 -0.19729456305503845 -0.9644533693790436 0.010780304670333862 -0.8706426918506622 -1.0014401376247406 0.06713715195655823 -0.7621605694293976 -0.5964278876781464 -0.101541668176651 -0.4744609892368316 -0.7637162804603577 -0.6617051959037781 0.6216605305671692 -0.4712481200695038 -0.9658074975013733 -0.20575526356697083 -0.7685741186141968 -0.7597588300704956 -0.7676490843296051 -0.934572160243988 -0.7617725729942322 -0.9751873016357422 -1.0056306421756744 -1.0166822373867035 -1.003418537698235 -1.0057488679885864 -0.9778185188770294 -1.0037060322007254 -1.0462431390543314 -1.0063417878355319 -0.4258679747581482 0.013993829488754272 0.8105136454105377 -0.42748987674713135 0.861357182264328 0.015421897172927856 -0.6477026641368866 0.13947689533233643 -0.5868650376796722 -0.9975889921188354 -0.07157239317893982 -0.43196818232536316 -0.2998678386211395 -0.04134911298751831 -0.15026187896728516 -0.4437982738018036 -0.3611755967140198 0.9300428926944733 -0.12355560064315796 -0.920271635055542 0.014058738946914673 -0.44418972730636597 -0.44581037759780884 -0.4360555410385132 -0.6713140308856964 -0.43136152625083923 -0.7260319888591766 -1.000512570142746 -0.9959666430950165 -0.9645187258720398 -1.000765085220337 -0.7272627651691437 -0.8711327016353607 -0.9261587858200073 -0.7754173278808594 0.9997288286685944 0.9992711544036865 5.042552947998047E-5 0.6044580936431885 1.000040739774704 0.4827855527400971 0.7355954349040985 -0.010611146688461304 -0.6867133378982544 0.8108434677124023 -2.115964889526367E-6 0.8691357970237732 0.9328056275844574 0.9530109763145447 -0.004287451505661011 0.794245719909668 0.5932012498378754 0.9998705387115479 0.4825602173805237 1.000180184841156 -0.001248776912689209 -0.00959247350692749 -1.221299171447754E-4 0.002213031053543091 2.1120905876159668E-4 -0.9952495396137238 -0.7105741500854492 -0.0038097798824310303 -0.0024683773517608643 -0.7015089988708496 -0.992152065038681 -0.7418568134307861 -0.8463347852230072 -0.8748807609081268 0.028678705552238927 -1.000250905752182 -0.026569902896881104 -0.9991607367992401 0.03271648287773132 0.03933259844779968 -0.848160445690155 -0.6890833079814911 -0.22721228003501892 -1.000016838312149 -0.6146122515201569 -0.5491344928741455 -0.946822464466095 -0.9816755950450897 -0.6469370126724243 0.008208492817515865 -0.9998458921909332 -2.548694610595703E-4 -0.9980346262454987 -0.9909606873989105 -0.9591484367847443 -0.9998067319393158 -0.800970584154129 -1.000186413526535 -0.9989441335201263 -0.7133437097072601 -0.44111937284469604 -0.3675920069217682 -0.704168826341629 -0.9974283277988434 -0.7411559522151947 -0.8547582626342773 -0.8922808766365051 -0.9997536540031433 0.24574115872383118 -0.45373761653900146 -0.9745618670303527 -0.9366586804389954 -0.9907289743423462 -0.9974086880683899 -0.2784285247325897 -1.0002868473529816 -0.8491157591342926 -0.47869521379470825 -0.7502338290214539 -0.992147833108902 -0.9275348451870292 0.39633479714393616 -0.7438846230506897 -0.9611698389053345 -0.4622742533683777 -0.9989790916442871 -0.9795941412448883 -1.0028371810913086 -1.0122836530208588 -1.0001568794250488 -0.9999352991580963 -0.9998133182525635 -1.0000922924250648 -0.9922143816947937 -0.9972069263458252 -0.9988081753253937 -1.0172902643680573 -1.0246174037456512 -0.9622931480407715 0.6071079969406128 0.9998768270015717 0.4830617606639862 0.7359111905097961 -0.01170271635055542 -0.6873250007629395 0.8175016343593597 -1.5875697135925293E-4 0.8767040967941284 0.939289391040802 0.9598520398139954 -0.004367232322692871 0.8030392527580261 0.5954121053218842 0.999937891960144 0.48406216502189636 1.0004428029060364 -0.001489788293838501 -0.00930371880531311 -1.3151764869689941E-4 5.705058574676514E-4 -1.4215707778930664E-5 -0.9966838657855988 -0.711315393447876 -0.003730177879333496 -0.002403765916824341 -0.7022086977958679 -0.9940319359302521 -0.7413685917854309 -0.8489837050437927 -0.8803945183753967 -0.16185122728347778 -0.6208394169807434 -0.5162938237190247 -0.7685419023036957 -0.9647248387336731 -0.34755587577819824 -0.6133331656455994 -0.6216012239456177 -0.33752769231796265 -0.41647642850875854 -0.6323778927326202 -0.625467449426651 0.9286701679229736 -0.38124558329582214 -0.8681583106517792 -0.1733894944190979 -0.6334577202796936 -0.6350722908973694 -0.6194238066673279 -0.8153158724308014 -0.612352728843689 -0.8257113695144653 -0.9829116463661194 -0.9644366800785065 -0.8913199007511139 -0.9795985519886017 -0.8266507089138031 -0.8881871104240417 -0.9867403507232666 -0.8838733434677124 0.03571304678916931 0.1278114914894104 -0.8328292369842529 -0.6873362958431244 0.5674368739128113 -0.9974222481250763 -0.005313366651535034 0.7436232566833496 -0.9310249388217926 -0.9721946120262146 -0.6259224116802216 0.09478196501731875 -0.9999233782291412 -8.611679077148438E-4 7.151365280151367E-4 -0.9843423664569855 -0.9465044438838959 -0.9980694949626923 -0.7893877923488617 -0.9977074265480042 -0.996227890253067 -0.7112234830856323 -0.43820875883102417 -0.3654225170612335 -0.7021803259849548 -0.9934610426425934 -0.7428137958049774 -0.8479630351066589 -0.878426730632782 0.9202383458614349 -0.5885408818721771 -0.9920707941055298 0.09213411808013916 -0.48431825637817383 -0.014560699462890625 0.03347542881965637 -0.16145065426826477 -0.48613378405570984 -0.3208405673503876 0.7918324768543243 -0.173448383808136 0.008768171072006226 -0.035062313079833984 -0.49270299077033997 -0.4802311658859253 -0.49038451910018915 -0.6493203639984131 -0.483833372592926 -0.7457243204116821 -0.9780808985233307 -0.855882316827774 -0.91925048828125 -0.9863753914833069 -0.7454536557197571 -0.9891919791698456 -0.9171723425388336 -0.7805339395999908 -0.8607891333736557 -1.0045814514160156 0.01430666446685791 -0.7372642159461975 -0.5888514816761017 -0.11289232969284058 -0.46488541364669805 -0.7413946390151978 -0.6563979089260101 0.6564367028668382 -0.4452023506164551 -1.0223730504512787 -0.1367006003856659 -0.7456886172294617 -0.738942414522171 -0.7431699931621553 -0.9338466755504863 -0.7367847561836243 -0.9971336424350739 -1.0090003907680511 -1.020980425822436 -1.0016373533671838 -1.0077337579288035 -0.9977034032344818 -1.0111500024795532 -1.039915199031034 -0.9936553830269244 -0.7988975942134857 0.993434488773346 0.010450303554534912 1.0049692690372467 1.0028846418779453 0.9066180884838104 0.0024949610233306885 0.982801228761673 0.7481725513935089 0.8348246216773987 0.634564608335495 0.8353444039821625 0.005342632532119751 0.002440840005874634 0.008709073066711426 0.022502481937408447 0.011562049388885498 -0.9730676114559174 -0.8251887261867523 0.030471235513687134 0.028472423553466797 -0.815857470035553 -0.9776056110858917 -0.8151480257511139 -0.9720467031002045 -1.0042159855365753 0.9007784426212311 0.6892443001270294 0.864538848400116 0.9117423593997955 0.6988756358623505 0.6961665153503418 0.8222295045852661 0.9972132444381714 0.687112033367157 0.9991648197174072 0.6907322704792023 0.6949723064899445 0.7028917968273163 0.6913810968399048 0.8801345229148865 0.68893963098526 0.0 0.0 0.9910189509391785 0.9962411224842072 0.0 0.0 0.0 0.0 0.0 -0.8322337567806246 -0.9528340101242065 -0.868149071931839 -0.8239326775074008 -0.8759409487247467 -1.002793717839879 0.19389432668685916 -0.6889594793319702 -0.29293811321258545 -0.579212486743927 -0.8667103964576127 -0.8985824286937713 -0.833282470703125 -0.9807402193546295 -0.8307977914810181 -0.9636498987674713 -0.9253631830215454 -0.7950130999088287 -0.710953563451767 -0.9167526364326477 -0.968353658914566 -0.8675842881202698 -1.0017397701740265 -1.00664216216462 0.8933011293411255 0.9532102346420288 0.9734125733375549 -0.002361685037612915 0.822254478931427 0.6008991003036499 0.9978338181972504 0.48823803663253784 0.9982557892799377 -6.100237369537354E-4 -0.0056189000606536865 3.504753112792969E-5 -2.2011995315551758E-4 -2.0116567611694336E-5 -0.9989723861217499 -0.7135066986083984 -0.0034600496292114258 -0.002278745174407959 -0.7043295800685883 -0.9973664283752441 -0.7404969036579132 -0.8550483584403992 -0.8925095796585083 0.9936724901199341 -0.8373784422874451 -0.9427421689033508 -0.950950026512146 0.5081300139427185 -0.7381102740764618 0.031510382890701294 0.0011351704597473145 -0.931302934885025 -0.9584691524505615 -0.8937681615352631 -0.9803139623391943 -0.8917187750339508 -1.0082600116729736 -0.8907403349876404 -0.7354580760002136 -0.6562476754188538 -0.8814346790313721 -1.009505569934845 -0.8681304454803467 -0.997078001499176 -0.993615984916687 -0.9758176207542419 -0.9895673096179962 -1.0004405379295347 0.213789850473404 -0.8697241544723511 -0.20400190353393555 -0.7557840645313263 -0.9821359515190125 -0.9974519610404968 -0.9535588622093201 -1.0130038525130665 -0.9519228339195251 -0.9975818991661072 -0.9356410205364227 -0.7626810073852539 -0.682222992181778 -0.927335113286972 -0.9987061619758606 -0.8985710144042969 -1.0082634687423706 -1.0094208419322968 -0.998169332742691 0.027178257703781128 0.3699082732200622 0.014401078224182129 0.21936440467834473 0.9325267672538757 -0.9922718703746796 -0.9957030713558197 -0.9698511362075806 -0.8459025919437408 -0.9724662899971008 -0.9976672828197479 -0.7241277396678925 -0.461277574300766 -0.38475802540779114 -0.7146748304367065 -0.9992747008800507 -0.7386853992938995 -0.8824044764041901 -0.9478569030761719 0.8804560005664825 0.617016077041626 0.9735678434371948 0.4984886348247528 0.9730859398841858 -5.835294723510742E-4 0.0035150349140167236 0.0023861825466156006 5.94407320022583E-4 0.002960681915283203 -0.9987512826919556 -0.7211760878562927 -0.0037489235401153564 -0.0033408701419830322 -0.7117880284786224 -1.0000320076942444 -0.7402011454105377 -0.8748398423194885 -0.9304519295692444 0.569503515958786 -0.014391183853149414 0.40747761726379395 0.6317345798015594 -0.8666210770606995 -0.8996871113777161 -0.822581946849823 -0.9163899719715118 -0.8204146921634674 -0.9448974430561066 -0.8484984338283539 -0.559409886598587 -0.476878821849823 -0.8393875360488892 -0.9496332406997681 -0.8288443684577942 -0.9874515235424042 -1.0057173906533705 -0.3400776982307434 -0.9697996610949232 -0.10510653257369992 -0.6189381182193756 -0.6192172765731812 -0.607667475938797 -0.797135591506958 -0.5999123454093933 -0.832787811756134 -1.0010500879314501 -1.0012611150741575 -0.9836329817771912 -1.0008806586265564 -0.8344025909900665 -0.9526152684591095 -0.9943779408931732 -0.898282378911972 0.2006801962852478 1.0006003677845001 -0.9853415191173553 -0.9482803642749786 -0.998333066701889 -0.790736585855484 -0.9980975985527039 -0.9963498413562775 -0.7110705077648163 -0.43797042965888977 -0.36513751745224 -0.7019762396812439 -0.9935948252677917 -0.7417976260185242 -0.8482768535614014 -0.8789961338043213 -1.0198354721069336E-4 -0.4993317127227783 -0.4997639060020447 -0.4923625886440277 -0.7135519981384277 -0.4876472055912018 -0.7803879082202911 -1.0013889968395233 -1.0052450537957467 -0.9830619692802429 -1.0033788979053497 -0.781769871711731 -0.9236901700496674 -0.964228093624115 -0.8313773572444916 -0.9857639968395233 -0.947265625 -0.9994803667068481 -0.792548418045044 -0.9985112249851227 -0.9977767765522003 -0.7148157060146332 -0.4448413550853729 -0.37173813581466675 -0.7057847082614899 -0.9953606128692627 -0.7452012002468109 -0.8531480133533478 -0.8851558864116669 6.941854953765869E-4 4.994869232177734E-4 0.001065373420715332 9.407997131347656E-4 -0.9995200634002686 -0.7197935879230499 -0.002784520387649536 -0.0020638108253479004 -0.7105183005332947 -0.999443531036377 -0.7427785992622375 -0.8699318468570709 -0.9189388751983643 0.006027787923812866 -0.0034181177616119385 0.006554603576660156 -0.9966533780097961 -0.7281610667705536 -0.010453611612319946 -0.01000925898551941 -0.718718558549881 -0.999454915523529 -0.7422794997692108 -0.8861375153064728 -0.949139803647995 0.0021764636039733887 -2.7835369110107422E-5 -0.9984450042247772 -0.7156071662902832 -0.003188103437423706 -0.002103269100189209 -0.7065457105636597 -0.9963179230690002 -0.7441816329956055 -0.856269359588623 -0.8914130330085754 9.582936763763428E-4 -0.9828945398330688 -0.9046977758407593 0.03627055883407593 0.03555619716644287 -0.8961703181266785 -0.9861823320388794 -0.8745600581169128 -1.0128801465034485 -1.003957450389862 -0.9988165199756622 -0.7131788730621338 -0.0036762654781341553 -0.0024302303791046143 -0.7039974629878998 -0.9971498250961304 -0.7403037250041962 -0.8543830215930939 -0.8914127945899963 0.0 0.7281814813613892 0.6913202404975891 0.0 0.0 0.0 0.0 0.0 1.0001870691776276 0.9806106090545654 0.0 0.0 0.0 0.0 0.0 0.00487557053565979 -0.9992756843566895 -0.7293557524681091 -0.8678829967975616 -0.9265232980251312 -0.7763122022151947 -0.9894445538520813 -0.6921990811824799 -0.894065648317337 -0.8859827220439911 -0.7348753809928894 0.0 0.0 0.0 0.0 0.0 0.0 0.0 0.0 0.0 0.0
label 7 40 10 31 9 4 18 34 37 8 33 27 45 22 12 16 47 2 19 17 35 36 42 43 1 30 25 23 20 38 15 11 13 48 46 26 41 24 5 21 3 28 39 29 14 6
nr_sv 7 2 12 1 1 7 2 4 5 5 5 2 7 6 2 8 4 4 5 2 1 6 2 4 5 3 2 3 10 3 4 4 2 2 2 2 2 1 1 2 2 1 1 1 1 1
SV
1.0 1.0 0.8138680807757377 0.0 1.0 0.06496575342465749 1.0 1.0 1.0 1.0 0.0 1.0 1.0 0.0 1.0 0.0 1.0 1.0 1.0 0.0 1.0 1.0 1.0 1.0 1.0 1.0 1.0 1.0 0.0 1.0 0.0 1.0 1.0 0.0 1.0 1.0 1.0 0.22204442871547678 1.0 1.0 0.19040486174893 0.999826981358365 0.0 0.5266143491250294 0.7909923574070798 1:1.0 2:0.22960001 3:0.15129204 4:0.30197194 5:0.02778009 6:0.096703276 7:0.0 8:1.0 9:0.018843904 10:0.024009285 11:0.15503126 12:2.25366E-4 13:0.015832225 14:0.002626085 15:1.0 16:0.057140704 17:0.01887314 18:0.001106906 19:0.0 20:1.3037E-4 21:5.43533E-7 
0.9921747011340778 1.0 0.0 0.0 1.0 0.0 1.0 1.0 1.0 1.0 0.0 1.0 0.0 0.0 1.0 0.0 0.0 1.0 0.6003896680951029 0.0 1.0 0.0 1.0 1.0 1.0 0.9774544531546944 1.0 1.0 0.0 1.0 0.0 0.9817559165546553 0.9500626577235743 0.9893582137136209 0.41908593809910855 0.0 0.0 0.0 0.0 0.0 0.0 0.0 0.0 0.0 0.0 1:1.0 2:0.2350751 3:0.14180417 4:0.25561243 5:0.019569686 6:0.078802094 7:0.0 8:1.0 9:0.010304793 10:0.01910019 11:0.11546821 12:0.0 13:0.008545254 14:0.001940967 15:1.0 16:0.07075546 17:8.32634E-4 18:2.69232E-4 19:0.0 20:3.36923E-5 21:3.9415E-8 
0.0 1.0 0.0 0.0 1.0 0.0 1.0 1.0 1.0 1.0 0.0 1.0 1.0 0.0 1.0 0.9982241814352181 1.0 1.0 0.0 0.0 1.0 0.0 1.0 1.0 0.0 0.0 0.22291879015391855 1.0 0.0 1.0 0.9843627267400434 0.0 0.0 0.0 0.0 0.0 0.0 0.0 0.0 0.0 0.0 0.0 0.0 0.0 0.0 1:1.0 2:0.21133944 3:0.122450605 4:0.24267173 5:0.016417777 6:0.07050229 7:0.0 8:1.0 9:0.015007639 10:0.015867952 11:0.12108515 12:0.0 13:0.010394726 14:0.001499815 15:1.0 16:0.054308593 17:0.008509928 18:7.46607E-4 19:4.30503E-7 20:3.2083E-5 21:0.0 
0.0 1.0 0.0 0.0 0.0 0.0 0.0 0.8893267950205086 0.0 0.0 0.0 1.0 1.0 0.0 0.8867614562248958 1.0 0.0 0.0 0.0 0.0 1.0 0.0 0.0 0.0 0.0 0.0 0.0 0.3633494448793175 1.0 0.0 1.0 0.0 0.0 0.0 0.0 0.0 0.0 0.0 0.0 0.0 0.0 0.0 0.0 0.0 0.0 1:1.0 2:0.20287322 3:0.11070048 4:0.22977677 5:0.01445531 6:0.06491775 7:0.0 8:1.0 9:0.015766632 10:0.010973241 11:0.11664655 12:0.0 13:0.010021331 14:0.001465617 15:1.0 16:0.050045833 17:0.003136199 18:4.02316E-4 19:1.34647E-7 20:3.35638E-5 21:0.0 
0.0 1.0 0.0 0.0 0.0 0.9350342465753425 0.0 0.0 0.0 0.0 1.0 1.0 1.0 1.0 0.0 1.0 1.0 0.0 0.0 0.0 0.0 0.0 0.0 0.0 0.0 0.0 0.0 0.0 1.0 0.0 1.0 0.0 0.0 0.0 0.0 0.0 0.0 0.0 0.0 0.0 0.0 0.0 0.0 0.0 0.0 1:1.0 2:0.18519539 3:0.092342384 4:0.211217 5:0.011145487 6:0.05609735 7:0.0 8:1.0 9:0.01897487 10:0.005877228 11:0.113797694 12:0.0 13:0.010256267 14:9.2779E-4 15:1.0 16:0.040360015 17:7.44847E-4 18:4.13591E-4 19:0.0 20:3.57102E-5 21:3.25061E-8 
0.007825298865922162 1.0 0.18613191922426237 0.00662873612828946 1.0 0.0 1.0 0.1106732049794914 1.0 1.0 0.0 1.0 1.0 0.0 1.0 0.001775818564781928 1.0 1.0 0.399610331904897 0.844456353114241 1.0 0.0 1.0 1.0 0.0627660983252904 0.02254554684530545 0.7770812098460814 1.0 0.0 1.0 0.015637273259956563 0.01824408344534477 0.04993734227642561 0.010641786286379129 0.5809140619008915 0.0 0.0 0.7779555712845232 1.0 1.0 0.80959513825107 1.7301864163490367E-4 0.8542083268740263 0.47338565087497064 0.20900764259292012 1:2.21515E-4 2:2.50361E-4 3:8.0296E-4 4:8.25635E-4 5:1.0 6:0.005907216 7:1.90719E-4 8:0.89861375 9:0.8985682 10:0.9005372 11:0.9007186 12:0.0 13:0.8986844 14:0.8771344 15:0.06666779 16:0.33148843 17:0.13544072 18:0.111238845 19:1.0 20:0.5507721 21:0.0 
0.0 1.0 0.0 0.9933712638717105 0.5304702716272998 1.0 0.0 1.0 1.0 0.3378525140646274 1.0 1.0 1.0 1.0 1.0 1.0 0.0 1.0 0.0 0.15554364688575895 1.0 1.0 0.0 1.0 0.9372339016747095 0.0 0.0 1.0 1.0 0.0 1.0 0.0 0.0 1.0 0.0 1.0 0.0 0.0 0.0 0.0 0.0 0.0 0.14579167312597374 0.0 0.0 1:1.0 2:0.21262279 3:0.120329864 4:0.23681055 5:0.015871892 6:0.06874783 7:0.0 8:1.0 9:0.01397 10:0.013698773 11:0.11585258 12:0.0 13:0.009551327 14:0.001640953 15:1.0 16:0.05605203 17:0.003598918 18:3.30259E-4 19:1.09635E-7 20:3.26582E-5 21:0.0 
-1.0 1.0 0.0 1.0 1.0 1.0 1.0 1.0 1.0 1.0 1.0 1.0 1.0 1.0 1.0 1.0 1.0 1.0 1.0 0.0 1.0 1.0 1.0 1.0 1.0 1.0 1.0 1.0 1.0 1.0 1.0 1.0 1.0 1.0 1.0 1.0 1.0 0.0 1.0 1.0 0.0 0.0 0.0 0.0 0.0 1:1.0 2:0.3333083 3:0.2660512 4:0.3655894 5:0.053134523 6:0.14317907 7:0.0 8:1.0 9:0.005903978 10:0.06557971 11:0.13126758 12:0.0 13:0.007491306 14:0.004837361 15:1.0 16:0.1360827 17:0.008804241 18:0.001981873 19:2.87385E-6 20:2.09542E-4 21:0.0 
-1.0 1.0 1.0 0.0 1.0 1.0 1.0 1.0 1.0 1.0 1.0 1.0 1.0 1.0 1.0 1.0 1.0 1.0 1.0 1.0 1.0 1.0 1.0 1.0 1.0 1.0 1.0 1.0 1.0 1.0 1.0 1.0 1.0 1.0 1.0 1.0 0.0 1.0 1.0 1.0 1.0 1.0 1.0 1.0 1.0 1:1.0 2:0.35436168 3:0.30252343 4:0.42816156 5:0.07751066 6:0.18048197 7:0.0 8:1.0 9:0.008828092 10:0.07195521 11:0.15859795 12:0.0 13:0.011402564 14:0.007216006 15:1.0 16:0.1408263 17:0.007186268 18:0.0010536 19:6.98052E-7 20:1.77872E-4 21:0.0 
-0.0 -0.0 0.0 0.0 0.0 0.0 0.0 0.0 0.0 0.0 0.0 0.9882009703376861 0.0 0.0 0.0 0.0 0.0 0.0 0.0 0.0 1.0 0.0 0.0 0.0 0.0 0.0 0.0 0.0 0.0 0.0 0.0 0.0 0.0 0.0 0.0 0.0 0.0 0.0 0.0 0.0 0.0 0.0 0.0 0.0 0.0 1:1.0 2:0.29319927 3:0.21250592 4:0.3115593 5:0.03612656 6:0.11072802 7:0.0 8:1.0 9:0.005172932 10:0.04911496 11:0.119273655 12:0.0 13:0.006468666 14:0.003606863 15:1.0 16:0.11292779 17:0.009005462 18:0.005060702 19:8.71955E-6 20:8.32854E-4 21:0.0 
-0.0 -0.0 0.0 0.0 0.5049803947596386 0.0 0.0 1.0 1.0 0.31214944248782345 0.0 0.0 1.0 0.0 1.0 0.0 1.0 1.0 0.0 0.0 1.0 0.0 0.0 1.0 0.0 0.0 0.0 1.0 0.0 0.0 0.0 0.0 0.0 0.0 0.0 0.0 0.0 0.0 0.0 0.0 0.0 0.0 0.0 0.0 0.0 1:1.0 2:0.26984698 3:0.2046632 4:0.3257991 5:0.03851224 6:0.11252011 7:0.0 8:1.0 9:0.009954716 10:0.051281247 11:0.14332233 12:0.0 13:0.011187577 14:0.003554169 15:1.0 16:0.08985892 17:0.03332427 18:0.007501623 19:3.79176E-5 20:6.48382E-4 21:0.0 
-1.0 -0.0 0.16024791811880132 0.007514950268259344 1.0 0.0018186261005653337 1.0 0.09020453242907976 1.0 1.0 0.009592726228053294 0.011799029662313942 1.0 0.004067054871907608 1.0 0.01669439258342653 1.0 1.0 0.3680879606069337 0.8410716748968126 1.0 0.0 1.0 1.0 0.020219303313313695 0.007222631454067929 0.7364592782706817 1.0 0.008652334681729778 1.0 0.029902701418156277 0.015332131459049192 0.02107512378444422 0.009474465617748111 0.5605916035384473 0.0 0.0 0.7685151871534555 1.0 1.0 0.799704551747732 0.0 0.9322858267595769 0.4729556059695866 0.18646404939428335 1:7.23425E-5 2:8.11522E-5 3:2.96649E-4 4:3.03524E-4 5:1.0 6:0.003100918 7:6.53063E-5 8:0.8342851 9:0.83427685 10:0.8350492 11:0.83503205 12:0.0 13:0.8341285 14:0.7592848 15:0.003139837 16:0.011736655 17:0.017998423 18:0.016346838 19:1.0 20:0.099677816 21:0.0 
-0.0 -0.0 0.0 0.0 1.0 0.0 1.0 1.0 1.0 1.0 0.0 0.0 1.0 0.0 1.0 0.0 1.0 1.0 0.0 0.0 1.0 0.0 1.0 1.0 0.9797806966866863 0.0 0.2635407217293183 1.0 0.0 1.0 0.0 0.0 0.0 0.0 0.0 0.0 0.0 0.0 0.0 0.0 0.0 0.0 0.0 0.0 0.0 1:1.0 2:0.2753715 3:0.21047433 4:0.33289945 5:0.040262677 6:0.11665736 7:0.0 8:1.0 9:0.009578071 10:0.05240612 11:0.14439783 12:0.0 13:0.011100454 14:0.00364035 15:1.0 16:0.09333967 17:0.031332716 18:0.006793523 19:3.1781E-5 20:5.47475E-4 21:0.0 
-1.0 -0.0 0.0 0.9924850497317407 0.0 1.0 0.0 0.0 0.0 0.0 1.0 1.0 1.0 1.0 0.0 1.0 0.0 0.0 0.0 0.0 0.0 1.0 0.0 0.0 0.0 0.0 0.0 0.0 1.0 0.0 1.0 0.0 0.0 1.0 0.0 1.0 0.0 0.0 0.0 0.0 0.0 0.0 0.0 0.0 0.0 1:1.0 2:0.2280431 3:0.14987274 4:0.26875034 5:0.021971235 6:0.082241945 7:0.0 8:1.0 9:0.012603288 10:0.030339962 11:0.12898405 12:0.0 13:0.010725124 14:0.00208012 15:1.0 16:0.06470083 17:0.023814578 18:0.003236018 19:9.09555E-6 20:8.07725E-5 21:0.0 
-1.0 -0.0 0.0 0.0 0.0 0.0 0.0 0.0 0.0 0.0 0.0 1.0 0.0 0.0 0.0 0.0 0.0 0.0 0.0 0.0 0.0 0.0 0.0 0.0 0.0 0.0 0.0 0.0 0.0 0.0 0.0 0.0 0.0 0.0 0.0 0.0 0.0 0.0 0.0 0.0 0.0 0.0 0.0 0.0 0.0 1:1.0 2:0.2764796 3:0.19486791 4:0.29729512 5:0.03224101 6:0.10170014 7:0.0 8:1.0 9:0.005762585 10:0.044306874 11:0.119406566 12:0.0 13:0.006821546 14:0.003293873 15:1.0 16:0.10180834 17:0.012262227 18:0.006991233 19:1.5465E-5 20:0.001081438 21:0.0 
-1.0 -0.0 0.0 0.0 0.0 0.9981813738994346 0.0 0.0 0.0 0.0 0.9904072737719467 1.0 0.0 0.9959329451280924 0.0 1.0 0.0 0.0 0.0 0.0 0.0 0.0 0.0 0.0 0.0 0.0 0.0 0.0 0.9913476653182701 0.0 0.9700972985818436 0.0 0.0 0.0 0.0 0.0 0.0 0.0 0.0 0.0 0.0 0.0 0.0 0.0 0.0 1:1.0 2:0.2654231 3:0.1770462 4:0.2748226 5:0.025633067 6:0.090508156 7:0.0 8:1.0 9:0.005685282 10:0.036085933 11:0.11052453 12:0.0 13:0.006322954 14:0.002595661 15:1.0 16:0.095511995 17:0.0065693 18:0.003402055 19:3.83231E-6 20:4.94486E-4 21:0.0 
-1.0 -0.0 0.0 0.0 0.0 0.0 0.0 0.0 0.0 0.0 0.0 1.0 1.0 0.0 0.0 1.0 0.0 0.0 0.0 0.0 0.0 0.0 0.0 0.0 0.0 0.0 0.0 0.0 1.0 0.0 1.0 0.0 0.0 0.0 0.0 0.0 0.0 0.0 0.0 0.0 0.0 0.0 0.0 0.0 0.0 1:1.0 2:0.25114095 3:0.17168948 4:0.2865994 5:0.027656145 6:0.092881955 7:0.0 8:1.0 9:0.008733588 10:0.036749903 11:0.12703235 12:0.0 13:0.008903157 14:0.002496566 15:1.0 16:0.08188006 17:0.018368684 18:0.006884707 19:1.90266E-5 20:7.35425E-4 21:0.0 
-0.0 -1.0 0.0 0.0 1.0 0.0 1.0 1.0 1.0 1.0 0.0 0.0 0.0 0.0 1.0 0.0 0.0 1.0 0.6319120393930662 0.0 1.0 0.0 1.0 1.0 1.0 0.992777368545932 1.0 1.0 0.0 1.0 0.0 0.9846678685409509 0.9789248762155558 0.0 0.43940839646155266 0.0 0.0 0.0 0.0 0.0 0.0 0.0 0.0 0.0 0.0 1:1.0 2:0.32262456 3:0.25531083 4:0.36785856 5:0.052845612 6:0.14240839 7:0.0 8:1.0 9:0.006461303 10:0.061550565 11:0.1379203 12:0.0 13:0.008345785 14:0.004743271 15:1.0 16:0.12739445 17:0.009372197 18:0.002852862 19:3.96196E-6 20:3.37592E-4 21:0.0 
-1.0 -0.0 0.0 0.0 0.0 0.0 0.0 0.0 0.0 0.0 0.0 1.0 1.0 0.0 0.0 0.9833056074165735 0.0 0.0 0.0 0.0 0.0 0.0 0.0 0.0 0.0 0.0 0.0 0.0 0.0 0.0 1.0 0.0 0.0 0.9905255343822519 0.0 0.0 0.0 0.0 0.0 0.0 0.0 0.0 0.0 0.0 0.0 1:1.0 2:0.2495349 3:0.17257322 4:0.28967246 5:0.028373951 6:0.093808815 7:0.0 8:1.0 9:0.009344892 10:0.038116574 11:0.13028286 12:0.0 13:0.009448541 14:0.002538524 15:1.0 16:0.08012712 17:0.021961426 18:0.007582458 19:2.48184E-5 20:7.83364E-4 21:0.0 
-0.0 -1.0 0.8397520818811987 0.0 1.0 0.0 1.0 1.0 1.0 1.0 0.0 0.0 0.0 0.0 1.0 0.0 0.0 1.0 1.0 0.15892832510318747 1.0 0.0 1.0 1.0 1.0 1.0 1.0 1.0 0.0 1.0 0.0 1.0 1.0 0.0 1.0 0.0 0.0 0.23148481284654454 1.0 1.0 0.200295448252268 1.0 0.0 0.5270443940304134 0.8135359506057167 1:1.0 2:0.33624333 3:0.2739784 4:0.38933855 5:0.06106758 6:0.15591699 7:0.0 8:1.0 9:0.006827764 10:0.06710819 11:0.14344878 12:0.0 13:0.008730646 14:0.005435093 15:1.0 16:0.13535973 17:0.007698808 18:0.002581831 19:2.74881E-6 20:3.42033E-4 21:0.0 
-1.0 -0.0 0.0 0.0 0.0 0.0 0.0 0.9097954675709201 0.0 0.0 0.0 1.0 0.0 0.0 0.9333781659255556 0.0 1.0 0.0 0.0 0.0 0.0 1.0 0.0 0.0 0.0 0.0 0.0 0.3699941950307047 0.0 0.0 0.0 0.0 0.0 0.0 0.0 1.0 1.0 0.0 0.0 0.0 0.0 0.0 0.06771417324042306 0.0 0.0 1:1.0 2:0.27270094 3:0.20153609 4:0.31911892 5:0.036211416 6:0.11026324 7:0.0 8:1.0 9:0.008508842 10:0.047644492 11:0.13624157 12:0.0 13:0.009796669 14:0.003301944 15:1.0 16:0.09358956 17:0.024087967 18:0.0056682 19:1.97103E-5 20:5.09574E-4 21:0.0 
-1.0 -1.0 -1.0 1.0 1.0 1.0 1.0 1.0 1.0 1.0 1.0 1.0 1.0 1.0 1.0 1.0 1.0 1.0 1.0 1.0 1.0 1.0 1.0 1.0 1.0 1.0 1.0 1.0 1.0 1.0 1.0 1.0 1.0 1.0 1.0 1.0 1.0 1.0 1.0 1.0 1.0 1.0 1.0 1.0 1.0 1:0.8040253 2:0.5225469 3:0.77319443 4:1.0 5:0.9165981 6:0.73752517 7:0.0 8:1.0 9:0.09329029 10:0.2639668 11:0.4691154 12:0.0 13:0.110858224 14:0.090058036 15:1.0 16:0.2640246 17:0.012536363 18:0.001379609 19:3.48752E-4 20:0.0 21:3.50909E-4 
-1.0 -1.0 -1.0 -1.0 1.0 1.0 1.0 1.0 1.0 1.0 1.0 1.0 1.0 1.0 1.0 1.0 1.0 1.0 1.0 1.0 1.0 1.0 1.0 1.0 1.0 1.0 1.0 1.0 1.0 1.0 1.0 1.0 1.0 1.0 1.0 1.0 1.0 1.0 1.0 1.0 1.0 1.0 1.0 1.0 1.0 1:1.0 2:0.14983143 3:0.07774018 4:0.20908654 5:0.009703222 6:0.05086234 7:0.0 8:1.0 9:0.036723677 10:0.017272063 11:0.1401753 12:0.001615763 13:0.01820307 14:0.001838285 15:1.0 16:0.018518435 17:0.027968975 18:5.04293E-4 19:1.31645E-7 20:3.1736E-5 21:0.0 
-1.0 -0.0 -1.0 -0.0 -0.0 0.0 0.0 1.0 1.0 1.0 0.0 1.0 1.0 0.0 1.0 1.0 1.0 1.0 0.0 0.0 1.0 0.0 1.0 1.0 1.0 0.0 1.0 1.0 1.0 1.0 1.0 0.0 0.0 0.0 0.0 0.0 0.0 0.0 0.0 0.0 0.0 0.0 0.0 0.0 0.0 1:0.002097421 2:0.00562781 3:0.02859945 4:0.030706245 5:1.0 6:0.07766746 7:0.0 8:0.8841693 9:0.8553115 10:0.94548625 11:0.95764583 12:0.0 13:0.8554035 14:0.8146336 15:0.85094404 16:1.0 17:0.12549348 18:0.109245464 19:0.020541245 20:0.13675219 21:0.0 
-1.0 -1.0 -1.0 -1.0 -1.0 1.0 0.7076344707923655 1.0 1.0 0.0 1.0 1.0 1.0 1.0 1.0 1.0 0.0 0.0 1.0 0.0 1.0 1.0 1.0 1.0 1.0 1.0 1.0 1.0 1.0 1.0 1.0 1.0 1.0 1.0 1.0 1.0 1.0 0.0 0.2667485022202584 0.0 0.0 1.0 0.0 1.0 1.0 1:0.003327804 2:0.007979468 3:0.0362777 4:0.039277665 5:1.0 6:0.09165013 7:0.0 8:0.8574536 9:0.8171647 10:0.9280518 11:0.940788 12:0.0 13:0.81505567 14:0.76978743 15:0.9205297 16:1.0 17:0.17473845 18:0.16138814 19:0.03742022 20:0.18839388 21:0.0 
-0.5304702716272998 -0.0 -0.5049803947596386 -0.0 -0.0 0.0 0.2923655292076345 0.0 0.0 1.0 0.0 0.0 0.9693561990441383 0.0 1.0 0.0 0.0 1.0 0.0 0.0 1.0 0.0 1.0 1.0 0.0 0.0 0.0 1.0 0.0 0.0 0.0 0.0 0.0 0.0 0.0 0.0 0.0 0.0 0.0 0.0 0.0 0.0 0.0 0.0 0.0 1:0.001651793 2:0.00462409 3:0.024903722 4:0.026692905 5:1.0 6:0.070548795 7:0.0 8:0.9108338 9:0.8868183 10:0.966444 11:0.9796325 12:0.0 13:0.8884842 14:0.85731 15:0.81873477 16:1.0 17:0.07602353 18:0.061592806 19:0.007372545 20:0.08002027 21:0.0 
-0.0 -0.0 -0.0 -0.0 -0.0 0.0 1.0 0.0 1.0 1.0 0.0 0.0 1.0 0.0 1.0 0.0 1.0 1.0 0.0 1.0 0.0 0.0 0.0 0.0 0.0 0.0 0.0 1.0 0.0 0.619772584623918 0.0 0.0 0.0 0.0 0.0 0.0 0.0 0.6017105380765105 0.0 1.0 0.8844129871290669 0.0 0.0 0.0 0.0 1:6.66682E-4 2:0.002226954 3:0.014450994 4:0.015274776 5:1.0 6:0.048559453 7:1.26988E-4 8:0.9479808 9:0.9377002 10:0.9866626 11:0.9942929 12:0.0 13:0.93942446 14:0.91049594 15:0.673003 16:1.0 17:0.026875485 18:0.022375094 19:0.001398477 20:0.03494121 21:0.0 
-0.0 -0.0 -0.0 -0.0 -0.0 0.0 1.0 0.0 1.0 1.0 0.0 0.0 0.030643800955861722 0.0 1.0 0.0 1.0 1.0 0.0 0.0 0.36976599899519463 0.0 0.0 0.0 0.0 0.0 0.0 1.0 0.0 0.0 0.0 0.0 0.0 0.0 0.0 0.0 0.0 0.0 0.6230500841836217 0.0 0.0 0.0 0.0 0.0 0.0 1:8.45602E-4 2:0.002786782 3:0.017326856 4:0.01836117 5:1.0 6:0.05496733 7:4.10823E-5 8:0.9410113 9:0.92716557 10:0.98546267 11:0.99456674 12:0.0 13:0.9289168 14:0.90050864 15:0.71752393 16:1.0 17:0.031279616 18:0.026097922 19:0.001678187 20:0.038332086 21:0.0 
-1.0 -0.0 -1.0 -0.0 -0.0 0.0 1.0 0.7872518688821833 1.0 0.4855967769011247 0.0 0.634204376062981 1.0 0.0 1.0 0.6214284545751411 1.0 1.0 0.0 0.0 1.0 0.0 0.0 0.9255722721111116 0.0 0.0 0.0 1.0 0.0 1.0 0.6484365675903894 0.0 0.0 0.0 0.0 0.0 0.0 0.0 0.11020141359611985 1.0 0.0 0.0 1.0 0.0 0.0 1:7.44694E-4 2:0.002641033 3:0.01650486 4:0.017711371 5:1.0 6:0.053886373 7:0.0 8:0.8907258 9:0.87881315 10:0.9310676 11:0.9399956 12:0.0 13:0.8804677 14:0.8438194 15:0.7143941 16:1.0 17:0.15022773 18:0.12229252 19:0.03718902 20:0.18240322 21:0.0 
-1.0 -1.0 -1.0 -0.0 -0.0 1.0 0.0 1.0 0.0 0.5144032230988753 1.0 1.0 1.0 1.0 1.0 1.0 0.0 0.0 1.0 0.0 1.0 1.0 1.0 1.0 1.0 1.0 1.0 1.0 1.0 0.38022741537608196 1.0 1.0 1.0 1.0 1.0 1.0 0.0 0.39828946192348946 1.0 0.0 0.11558701287093309 0.0 0.0 0.0 0.0 1:0.002350665 2:0.006164592 3:0.03056722 4:0.033225067 5:1.0 6:0.08180163 7:0.0 8:0.8836718 9:0.8515052 10:0.94465405 11:0.9616484 12:0.0 13:0.85311997 14:0.8130296 15:0.88946605 16:1.0 17:0.13914055 18:0.114813276 19:0.021708675 20:0.1391782 21:0.0 
-1.0 -1.0 -1.0 -0.0 -1.0 -1.0 1.0 1.0 1.0 1.0 1.0 1.0 1.0 1.0 1.0 1.0 1.0 1.0 1.0 0.0 1.0 1.0 1.0 1.0 1.0 1.0 1.0 1.0 1.0 1.0 1.0 1.0 1.0 1.0 1.0 1.0 0.0 0.0 1.0 1.0 0.0 0.0 1.0 0.0 0.0 1:1.0 2:0.1801788 3:0.0891069 4:0.18890066 5:0.008839911 6:0.04793244 7:0.0 8:1.0 9:0.016796121 10:0.008812221 11:0.099228755 12:0.0 13:0.008248309 14:8.46766E-4 15:1.0 16:0.041206006 17:0.005707352 18:6.89099E-4 19:3.64027E-7 20:4.61604E-5 21:0.0 
-1.0 -1.0 -1.0 -1.0 -0.0 -1.0 1.0 1.0 1.0 1.0 1.0 1.0 1.0 1.0 1.0 1.0 1.0 1.0 1.0 1.0 1.0 1.0 1.0 1.0 1.0 1.0 1.0 1.0 1.0 1.0 1.0 1.0 1.0 1.0 1.0 1.0 1.0 1.0 1.0 1.0 1.0 1.0 0.0 1.0 1.0 1:1.0 2:0.23730451 3:0.14658882 4:0.249083 5:0.019177776 6:0.07638425 7:0.0 8:1.0 9:0.009705381 10:0.023937155 11:0.11039652 12:0.0 13:0.007945168 14:0.002017868 15:1.0 16:0.073421165 17:0.007963117 18:0.001330488 19:1.07551E-6 20:1.61969E-4 21:0.0 
-1.0 -0.0 -1.0 -0.0 -0.0 -1.0 -0.0 1.0 1.0 1.0 0.0 1.0 1.0 0.0 1.0 1.0 1.0 1.0 0.0 0.0 1.0 0.0 1.0 1.0 1.0 0.0 1.0 1.0 1.0 1.0 1.0 0.0 0.0 0.0 0.0 0.0 0.0 0.0 0.8105869948967007 1.0 0.0 0.0 0.0 0.0 0.0 1:0.001071921 2:0.001555476 3:0.006440117 4:0.006717645 5:1.0 6:0.026321515 7:8.28738E-4 8:0.951864 9:0.9497853 10:0.96856993 11:0.97158194 12:0.0 13:0.95103043 14:0.9557034 15:0.48531124 16:1.0 17:0.018077964 18:0.016084654 19:0.001204053 20:0.03444063 21:0.0 
-1.0 -1.0 -1.0 -1.0 -0.9761238032725663 -1.0 -1.0 1.0 1.0 1.0 1.0 1.0 1.0 1.0 1.0 1.0 1.0 1.0 1.0 0.0 1.0 1.0 1.0 1.0 1.0 1.0 1.0 1.0 1.0 1.0 1.0 1.0 1.0 1.0 1.0 1.0 1.0 0.0676180184494399 0.18941300510329934 0.0 0.03237111225930032 1.0 0.30666786104162325 0.6958570672446821 1.0 1:0.42169368 2:0.3231207 3:0.55839604 4:0.70000887 5:1.0 6:0.60081303 7:0.0 8:1.0 9:0.1693981 10:0.3975235 11:0.61483026 12:0.0 13:0.19040717 14:0.17108542 15:1.0 16:0.3213785 17:0.026080387 18:0.003006466 19:2.80256E-4 20:0.0 21:2.89418E-4 
-1.0 -0.0 -1.0 -0.0 -0.0 -1.0 -0.0 1.0 1.0 1.0 0.0 0.9015237703224706 1.0 0.0 1.0 0.8825806229375731 1.0 1.0 0.0 0.8453140386179732 1.0 0.0 1.0 1.0 0.0 0.0 0.0 1.0 0.0 1.0 0.9100412734592913 0.0 0.0 0.0 0.5465599177976623 0.0 0.0 0.9323819815505602 1.0 0.0 0.9676288877406998 0.0 0.0 0.30414293275531784 0.0 1:0.001341379 2:0.002024639 3:0.008427994 4:0.008810435 5:1.0 6:0.03180126 7:0.001036446 8:0.96414614 9:0.9607641 10:0.9859769 11:0.9900658 12:0.0 13:0.9622042 14:0.9664602 15:0.53475034 16:1.0 17:0.007153559 18:0.005156477 19:1.07807E-4 20:0.009596781 21:0.0 
-1.0 -1.0 -1.0 -0.0 -0.023876196727433647 -1.0 -1.0 1.0 1.0 1.0 1.0 1.0 1.0 1.0 1.0 1.0 1.0 1.0 1.0 0.15468596138202684 1.0 1.0 1.0 1.0 1.0 1.0 1.0 1.0 1.0 1.0 1.0 1.0 1.0 1.0 0.45344008220233767 1.0 0.0 0.0 0.0 1.0 0.0 0.0 0.6933321389583768 0.0 0.0 1:7.89919E-4 2:0.00106628 3:0.004225695 4:0.004400698 5:1.0 6:0.019501442 7:6.27796E-4 8:0.94108003 9:0.94011724 10:0.9518644 11:0.9538475 12:0.0 13:0.94118255 14:0.9415823 15:0.41746268 16:1.0 17:0.042867165 18:0.039864313 19:0.010202541 20:0.10033369 21:0.0 
-1.0 -0.0 -1.0 -1.0 -0.0 -1.0 -0.0 -1.0 1.0 1.0 0.0 1.0 1.0 0.0 1.0 0.0 1.0 1.0 1.0 1.0 1.0 0.0 1.0 1.0 1.0 0.0 1.0 1.0 0.0 1.0 0.0 0.0 1.0 0.0 1.0 0.0 0.0 1.0 1.0 1.0 1.0 0.0 0.7251600990060111 1.0 1.0 1:1.0 2:0.2875774 3:0.25984612 4:0.5823318 5:0.14846516 6:0.2517076 7:0.0 8:1.0 9:0.05807053 10:0.06287944 11:0.35462767 12:0.002242697 13:0.07129947 14:0.01809163 15:1.0 16:0.049695514 17:0.07733432 18:0.007462589 19:5.37748E-5 20:6.49044E-4 21:0.0 
-1.0 -0.0 -1.0 -0.0 -0.0 -0.7872518688821833 -0.0 -1.0 1.0 0.6037636244940592 0.0 1.0 1.0 0.0 1.0 1.0 0.0 1.0 0.0 0.0 1.0 0.0 1.0 1.0 1.0 1.0 1.0 1.0 1.0 0.795819636774702 1.0 0.0 0.0 0.0 0.0 0.0 0.0 0.0 0.0 0.0 0.0 0.0 0.0 0.0 0.0 1:1.0 2:0.29502997 3:0.23284604 4:0.4887485 5:0.09254962 6:0.19971023 7:0.0 8:1.0 9:0.037011024 10:0.02822645 11:0.26056033 12:6.94376E-4 13:0.04031678 14:0.002597392 15:1.0 16:0.0713134 17:0.004942364 18:0.001252568 19:3.33749E-6 20:0.0 21:3.80352E-6 
-1.0 -0.0 -1.0 -0.0 -1.0 -1.0 -1.0 -1.0 1.0 1.0 1.0 1.0 1.0 1.0 1.0 1.0 1.0 1.0 0.0 0.0 1.0 1.0 1.0 1.0 0.0 0.0 0.0 1.0 1.0 1.0 1.0 0.0 0.0 1.0 0.0 1.0 0.0 0.0 1.0 1.0 0.0 0.0 0.2748399009939889 0.0 0.0 1:1.0 2:0.21111709 3:0.15478393 4:0.38344502 5:0.04726864 6:0.13014309 7:0.0 8:1.0 9:0.045479596 10:0.03561134 11:0.24764158 12:0.002902599 13:0.040094092 14:0.006858178 15:1.0 16:0.029257879 17:0.056217883 18:0.002427029 19:6.27666E-6 20:2.2602E-4 21:0.0 
-1.0 -1.0 -1.0 -0.0 -0.0 -1.0 -0.0 -1.0 1.0 1.0 0.0 1.0 1.0 0.0 1.0 1.0 0.5254719748293224 1.0 1.0 0.0 1.0 0.0 1.0 1.0 1.0 1.0 1.0 1.0 0.0 1.0 1.0 1.0 1.0 0.0 1.0 0.0 0.0 0.0 0.0 0.0 0.0 0.5768782432127547 0.0 0.0 0.0 1:1.0 2:0.3110183 3:0.27146208 4:0.4906489 5:0.10252496 6:0.20705399 7:0.0 8:1.0 9:0.026767734 10:0.053971134 11:0.24206114 12:0.0 13:0.032546315 14:0.012677368 15:1.0 16:0.08373423 17:0.0388332 18:0.003257358 19:1.52457E-5 20:4.56633E-4 21:0.0 
-1.0 -1.0 -1.0 -0.0 -0.0 -0.0 -1.0 -0.0 0.5410297501024541 0.0 1.0 1.0 1.0 1.0 1.0 1.0 1.0 0.41377137798716146 0.0 0.0 1.0 1.0 0.0 1.0 0.0 0.0 0.0 0.6824750012914146 1.0 0.0 1.0 1.0 0.0 1.0 0.0 1.0 1.0 0.0 0.0 0.0 0.0 0.4231217567872453 0.0 0.0 0.0 1:1.0 2:0.24268 3:0.18206242 4:0.38517234 5:0.053346153 6:0.13774802 7:0.0 8:1.0 9:0.030212697 10:0.03403647 11:0.2157831 12:0.0 13:0.028673312 14:0.006683418 15:1.0 16:0.049865544 17:0.0414078 18:0.003147392 19:1.4259E-5 20:3.71813E-4 21:0.0 
-1.0 -0.0 -1.0 -0.021615763562443786 -0.0 -1.0 -0.0 -1.0 -1.0 1.0 0.0 1.0 1.0 0.0 1.0 0.8920216188304849 1.0 1.0 0.0 0.0 1.0 0.0 0.25606381830674807 1.0 0.045178709335691056 0.0 0.0 1.0 0.22491707762827864 1.0 0.8906815409393113 0.0 0.0 0.0 0.0 0.0 0.0 0.0 0.0 0.01794110978106161 0.0 0.0 0.18548428866491887 0.0 0.02307412482779783 1:6.35397E-5 2:6.8325E-5 3:2.11099E-4 4:2.12737E-4 5:1.0 6:0.002307946 7:4.81814E-5 8:0.87298447 9:0.87298 10:0.8735153 11:0.87349576 12:0.0 13:0.8728621 14:0.8413357 15:0.001687136 16:0.032503 17:0.020396156 18:0.022190802 19:1.0 20:0.18916078 21:0.0 
-1.0 -0.0 -1.0 -0.0 -0.0 -1.0 -0.0 -1.0 -0.541029750102454 1.0 0.0 0.38976306669781735 1.0 0.0 1.0 0.10797838116951507 1.0 1.0 0.0 0.0 1.0 0.0 0.7439361816932519 1.0 0.0 0.0 0.0 1.0 0.0 1.0 0.10931845906068872 0.0 0.0 0.0 0.0 0.0 0.0 0.0 0.7435813546862683 0.957886650963633 0.0 0.0 0.0 0.0 0.0 1:8.20574E-5 2:8.54576E-5 3:1.98709E-4 4:2.00164E-4 5:1.0 6:0.001991143 7:7.36212E-5 8:0.9631463 9:0.9631429 10:0.9635868 11:0.9635956 12:0.0 13:0.96313244 14:0.9705663 15:0.12258022 16:1.0 17:0.016679458 18:0.028462324 19:0.048298623 20:0.2504148 21:0.0 
-1.0 -1.0 -1.0 -0.9783842364375562 -0.8300059525427539 -1.0 -1.0 -1.0 -1.0 1.0 1.0 1.0 1.0 1.0 1.0 1.0 0.06686773426998648 1.0 1.0 0.02862364884633745 1.0 1.0 1.0 1.0 1.0 1.0 1.0 1.0 1.0 0.8299613775805679 1.0 1.0 1.0 1.0 1.0 1.0 0.890468606096012 0.10483390241787312 0.2564186453137317 0.024172239255305365 0.07279696203680665 0.9085949511195802 0.005863570464744601 0.5396889568208002 0.9405358439871945 1:0.88859856 2:0.5466124 3:0.7171317 4:0.8214324 5:0.5751475 6:0.5444237 7:0.0 8:1.0 9:0.049084973 10:0.32471046 11:0.31143063 12:0.0 13:0.0342992 14:0.049944706 15:1.0 16:0.31247917 17:0.071802035 18:0.04853893 19:0.001136802 20:0.017097274 21:0.0 
-1.0 -0.8391780522748804 -1.0 -0.0 -0.16999404745724606 -1.0 -0.9005771752637151 -0.0 -1.0 1.0 0.9190971355080325 1.0 1.0 0.9099769372553818 1.0 1.0 1.0 1.0 0.5998201793454467 0.0 1.0 0.8867294176884477 1.0 1.0 1.0 0.8272397200924937 1.0 1.0 1.0 0.17003862241943218 1.0 0.8588536774511876 0.78819078278858 0.8998062264355067 0.41864391870508905 0.8876543035121901 0.10953139390398804 0.0 0.0 0.0 0.0 0.09140504888041981 0.8086521408703364 0.07466468019270107 0.0 1:5.48017E-5 2:5.75846E-5 3:1.32359E-4 4:1.32842E-4 5:1.0 6:0.001604511 7:2.8303E-5 8:0.68286717 9:0.6828666 10:0.68310845 11:0.68304694 12:0.20311454 13:0.6826591 14:0.5 15:0.0 16:1.12116E-4 17:0.001002678 18:0.001007217 19:1.0 20:0.011111789 21:2.73568E-4 
-1.0 -0.1608219477251196 -1.0 -0.0 -0.0 -1.0 -0.09942282473628494 -1.0 -1.0 1.0 0.08090286449196749 1.0 1.0 0.09002306274461824 1.0 1.0 0.9331322657300136 1.0 0.40017982065455326 0.9713763511536625 1.0 0.11327058231155229 1.0 1.0 0.954821290664309 0.1727602799075063 1.0 1.0 0.7750829223717214 1.0 1.0 0.14114632254881243 0.21180921721142 0.10019377356449333 0.581356081294911 0.1123456964878099 0.0 0.8951660975821268 1.0 1.0 0.9272030379631934 0.0 0.0 0.3856463629864987 0.03639003118500764 1:2.10011E-5 2:2.93615E-5 3:2.52455E-4 4:2.56167E-4 5:1.0 6:0.003042893 7:2.0475E-6 8:0.9574468 9:0.95743614 10:0.9583041 11:0.9583332 12:0.0 13:0.957438 14:0.9691048 15:0.15732543 16:1.0 17:0.02097985 18:0.031021765 19:0.03458945 20:0.20489529 21:0.0 
-1.0 -0.0 -1.0 -0.0 -0.0 -1.0 -0.0 -0.19661541261031756 -1.0 -1.0 0.0 1.0 1.0 0.0 1.0 1.0 0.9748203075243381 1.0 0.0 0.0 1.0 0.0 1.0 1.0 1.0 0.0 1.0 1.0 1.0 1.0 1.0 0.0 0.0 0.0 0.0 0.0 0.0 0.0 0.0 0.0 0.0 0.0 0.0 0.0 0.0 1:0.001465346 2:0.004129283 3:0.02308253 4:0.024200471 5:1.0 6:0.06600113 7:0.0 8:0.9348271 9:0.91282326 10:0.9915603 11:1.0 12:0.0 13:0.91317856 14:0.8995375 15:0.7726236 16:1.0 17:0.007302353 18:0.003113373 19:3.38086E-5 20:0.002314653 21:0.0 
-1.0 -1.0 -1.0 -0.0 -0.0 -1.0 -1.0 -0.8033845873896824 -1.0 -1.0 1.0 1.0 1.0 1.0 1.0 1.0 0.025179692475661875 1.0 1.0 0.0 1.0 1.0 1.0 1.0 1.0 1.0 1.0 1.0 1.0 1.0 1.0 1.0 1.0 1.0 1.0 1.0 0.0 0.0 1.0 0.0 0.0 0.0 0.0 0.0 0.0 1:0.001359071 2:0.004255095 3:0.024026094 4:0.026084999 5:1.0 6:0.06959127 7:0.0 8:0.9133043 9:0.89016473 10:0.96450067 11:0.98239917 12:0.0 13:0.8944667 14:0.8613781 15:0.83331406 16:1.0 17:0.10264228 18:0.06666559 19:0.008805828 20:0.08478446 21:0.0 
-1.0 -0.0 -1.0 -0.0 -0.0 -1.0 -0.0 -1.0 -0.6037636244940594 -1.0 0.0 0.4610280585811413 1.0 0.0 1.0 0.44940251527395103 1.0 1.0 0.0 0.0 1.0 0.0 1.0 1.0 0.0 0.0 0.0 1.0 0.0 0.0 0.4740955270026205 0.0 0.0 0.0 0.0 0.0 0.0 0.0 0.0 1.0 0.0 0.0 0.0 0.0 0.0 1:0.00105491 2:0.003112507 3:0.018488929 4:0.019324522 5:1.0 6:0.056772374 7:0.0 8:0.94465274 9:0.92926306 10:0.9933995 11:1.0 12:0.0 13:0.9296722 14:0.92364585 15:0.7140944 16:1.0 17:0.009626877 18:0.00217452 19:9.23767E-4 20:0.0 21:9.34342E-4 
-0.33785251406462746 -0.0 -0.3121494424878234 -0.0 -0.0 -1.0 -0.0 -1.0 -0.0 -1.0 0.0 0.0 1.0 0.0 1.0 0.0 1.0 1.0 0.0 1.0 1.0 0.0 0.0 0.6804752346246354 0.0 0.0 0.0 1.0 0.0 1.0 0.0 0.0 0.0 0.0 0.0 0.0 0.0 0.42325864329502366 0.0 1.0 0.7149336766633987 0.0 0.8362941614202526 0.0 0.0 1:4.71707E-4 2:0.001884672 3:0.013262269 4:0.013871194 5:1.0 6:0.04568723 7:0.0 8:0.9566961 9:0.9475369 10:0.99439377 11:1.0 12:0.0 13:0.9485628 14:0.9273576 15:0.64400655 16:1.0 17:0.003349122 18:0.001980918 19:1.32535E-5 20:0.002077588 21:0.0 
-1.0 -1.0 -1.0 -1.0 -1.0 -1.0 -1.0 -1.0 -1.0 -1.0 1.0 1.0 1.0 1.0 1.0 1.0 1.0 1.0 1.0 0.0 1.0 1.0 1.0 1.0 1.0 1.0 1.0 1.0 1.0 1.0 1.0 1.0 1.0 1.0 1.0 1.0 1.0 0.5767413567049764 1.0 0.0 0.2850663233366013 1.0 0.1637058385797474 1.0 1.0 1:0.002008808 2:0.005477791 3:0.02831972 4:0.030320497 5:1.0 6:0.07695686 7:0.0 8:0.8893981 9:0.8603853 10:0.9495445 11:0.9632156 12:0.0 13:0.86131114 14:0.8280432 15:0.84981865 16:1.0 17:0.10755867 18:0.08752118 19:0.013036113 20:0.10732911 21:0.0 
-1.0 -1.0 -1.0 -0.0 -0.0 -1.0 -1.0 -1.0 -1.0 -1.0 -1.0 1.0 1.0 1.0 1.0 1.0 1.0 1.0 1.0 0.0 1.0 1.0 1.0 1.0 1.0 1.0 1.0 1.0 1.0 1.0 1.0 1.0 1.0 1.0 1.0 1.0 0.0 0.0 1.0 1.0 0.0 0.0 0.0 0.0 0.0 1:1.0 2:0.14415245 3:0.056562837 4:0.1583772 5:0.005078352 6:0.0349983 7:0.0 8:1.0 9:0.025641935 10:9.20474E-4 11:0.09676564 12:0.0 13:0.009200987 14:2.47812E-4 15:1.0 16:0.022596339 17:1.69953E-4 18:1.24802E-5 19:5.92339E-7 20:0.0 21:5.92373E-7 
-1.0 -1.0 -1.0 -1.0 -1.0 -1.0 -1.0 -1.0 -1.0 -1.0 -1.0 1.0 1.0 1.0 1.0 1.0 1.0 1.0 1.0 1.0 1.0 1.0 1.0 1.0 1.0 1.0 1.0 1.0 1.0 1.0 1.0 1.0 1.0 1.0 1.0 1.0 1.0 1.0 1.0 1.0 1.0 1.0 1.0 1.0 1.0 1:1.0 2:0.1686033 3:0.07594724 4:0.1736492 5:0.006889875 6:0.04190703 7:0.0 8:1.0 9:0.017964387 10:0.004203056 11:0.093810886 12:0.0 13:0.007806286 14:5.8364E-4 15:1.0 16:0.036066458 17:3.49426E-4 18:2.49166E-5 19:3.91116E-7 20:0.0 21:3.91265E-7 
-1.0 -0.0 -1.0 -0.0 -0.0 -0.634204376062981 -0.0 -0.9015237703224706 -1.0 -1.0 -0.4610280585811413 -0.0 0.0 0.0 1.0 0.0 0.0 1.0 0.0 0.0 1.0 0.0 1.0 1.0 1.0 0.0 1.0 1.0 0.0 0.6526139236826117 0.0 0.0 0.0 0.0 0.0 0.0 0.0 0.0 0.0 0.0 0.0 0.0 0.0 0.0 0.0 1:1.0 2:0.19999766 3:0.10357613 4:0.19505633 5:0.00989178 6:0.05203293 7:0.0 8:1.0 9:0.011238387 10:0.01143506 11:0.09197536 12:0.0 13:0.006473309 14:9.87522E-4 15:1.0 16:0.055372413 17:0.001241989 18:1.71635E-4 19:1.42187E-8 20:1.76188E-5 21:0.0 
-1.0 -0.0 -1.0 -0.0 -0.0 -0.0 -0.0 -0.0 -1.0 -0.38976306669781735 -0.0 -0.0 0.989728906345048 0.0 0.8868926042137075 1.0 0.0 0.2741895305202065 0.0 0.0 1.0 0.0 0.0 1.0 0.0 0.0 0.0 0.3739968214826988 1.0 0.0 1.0 0.0 0.0 0.0 0.0 0.0 0.0 0.0 0.0 0.0 0.0 0.0 0.0 0.0 0.0 1:1.0 2:0.1926079 3:0.09740844 4:0.19052067 5:0.00921296 6:0.049741834 7:0.0 8:1.0 9:0.01278619 10:0.009945758 11:0.09286889 12:0.0 13:0.006859959 14:9.05596E-4 15:1.0 16:0.05041409 17:0.002031768 18:2.22561E-4 19:3.34476E-8 20:2.08818E-5 21:0.0 
-1.0 -0.0 -1.0 -0.0 -0.0 -1.0 -0.0 -1.0 -1.0 -1.0 -1.0 -0.0 0.3069363902618271 0.0 1.0 1.0 0.0 1.0 0.0 0.0 1.0 0.0 1.0 1.0 0.0 0.0 0.0 1.0 0.0 1.0 1.0 0.0 0.0 0.0 0.0 0.0 0.0 0.0 0.0 0.0 0.0 0.0 0.0 0.0 0.0 1:1.0 2:0.19668178 3:0.10130547 4:0.19573237 5:0.009858864 6:0.051941782 7:0.0 8:1.0 9:0.012247754 10:0.010769354 11:0.09429834 12:0.0 13:0.006907214 14:9.76642E-4 15:1.0 16:0.0525892 17:0.001902956 18:5.79451E-5 19:4.41463E-6 20:0.0 21:4.41613E-6 
-1.0 -0.0 -1.0 -0.0 -1.0 -0.0 -0.0 -0.0 -0.0 -0.0 -0.0 -1.0 1.0 1.0 0.0 1.0 1.0 0.0 0.0 0.0 0.0 0.0 0.0 0.0 0.0 0.0 0.0 0.0 1.0 0.0 1.0 0.0 0.0 1.0 0.0 0.18227196626774977 0.0 0.0 0.0 0.0 0.0 0.0 0.9842706462162037 0.0 0.0 1:1.0 2:0.1729878 3:0.07977302 4:0.17292602 5:0.006950698 6:0.042077262 7:0.0 8:1.0 9:0.016038934 10:0.005701403 11:0.090503305 12:0.0 13:0.007155576 14:6.32134E-4 15:1.0 16:0.039513525 17:0.00119926 18:5.77379E-5 19:2.18312E-6 20:0.0 21:2.18581E-6 
-1.0 -1.0 -1.0 -0.0 -0.0 -1.0 -1.0 -1.0 -1.0 -1.0 -1.0 -0.0 1.0 0.0 1.0 0.0 1.0 1.0 1.0 0.0 1.0 1.0 1.0 1.0 1.0 1.0 1.0 1.0 0.0 1.0 0.0 1.0 1.0 0.0 1.0 0.8177280337322502 0.0 0.0 1.0 1.0 0.0 0.0 0.0 0.0 0.0 1:1.0 2:0.24692231 3:0.15288068 4:0.24740592 5:0.018891692 6:0.07686786 7:0.0 8:1.0 9:0.007277104 10:0.025550919 11:0.10324873 12:0.0 13:0.006547181 14:0.001903559 15:1.0 16:0.082470976 17:0.003269637 18:3.85262E-4 19:1.21147E-7 20:4.20566E-5 21:0.0 
-1.0 -0.0 -1.0 -0.0 -0.0 -0.0 -1.0 -0.0 -0.0 -0.0 -0.0 -1.0 1.0 0.7389977810650887 0.0 1.0 0.4215124454254746 0.0 0.0 0.0 1.0 0.0 0.0 0.0 0.0 0.0 0.0 0.0 1.0 0.0 1.0 0.0 0.0 0.0 0.0 0.0 0.0 0.0 0.0 0.0 0.0 0.0 0.0 0.0 0.0 1:1.0 2:0.18500553 3:0.09123102 4:0.18464743 5:0.008449955 6:0.047023878 7:0.0 8:1.0 9:0.014016892 10:0.008898701 11:0.09267005 12:0.0 13:0.007051562 14:8.33502E-4 15:1.0 16:0.046030387 17:0.002958217 18:3.56815E-4 19:6.9261E-8 20:3.32772E-5 21:0.0 
-1.0 -1.0 -1.0 -1.0 -0.0 -1.0 -0.0 -1.0 -1.0 -1.0 -1.0 -0.0 1.0 0.26100221893491127 1.0 0.0 1.0 1.0 1.0 1.0 1.0 1.0 1.0 1.0 1.0 1.0 1.0 1.0 0.0 1.0 0.0 1.0 1.0 1.0 1.0 1.0 1.0 1.0 1.0 1.0 1.0 1.0 0.01572935378379625 1.0 1.0 1:1.0 2:0.25751165 3:0.16490255 4:0.25994283 5:0.021591855 6:0.08330755 7:0.0 8:1.0 9:0.00673875 10:0.029206434 11:0.10598873 12:0.0 13:0.006591205 14:0.002162605 15:1.0 16:0.08879752 17:0.003495055 18:5.15025E-4 19:1.79813E-7 20:6.61374E-5 21:0.0 
-1.0 -0.0 -1.0 -0.0 -0.0 -1.0 -0.0 -1.0 -0.6468392774486884 -0.9335863713950893 -1.0 -0.0 -0.8018283062863762 0.0 1.0 0.0 0.8761346670783035 1.0 0.0 0.0 1.0 0.0 0.3724958480381981 1.0 0.0 0.0 0.0 1.0 0.0 1.0 0.0 0.0 0.0 0.0 0.0 0.0 0.0 0.0 0.8223454265819073 1.0 0.0 0.0 0.0 0.0 0.0 1:3.86995E-5 2:6.52385E-5 3:5.95518E-4 4:6.07004E-4 5:1.0 6:0.005491949 7:1.50815E-5 8:0.92319787 9:0.9231537 10:0.92515624 11:0.9252472 12:0.0 13:0.92317444 14:0.91987467 15:0.21400349 16:1.0 17:0.13191837 18:0.13876788 19:0.42704907 20:0.6607557 21:0.0 
-1.0 -0.0 -1.0 -0.0 -0.0 -1.0 -0.0 -0.3983963517381568 -0.3531607225513116 -1.0 -1.0 -0.0 -0.49483699032049877 0.0 1.0 0.0 1.0 0.8680220665041782 0.0 0.0 1.0 0.0 0.0 0.0 0.0 0.0 0.0 1.0 0.0 1.0 0.0 0.0 0.0 0.0 0.0 0.0 0.0 0.0 0.0 0.0 0.0 0.0 0.0 0.0 0.0 1:9.20799E-5 2:1.09303E-4 3:4.88214E-4 4:4.97521E-4 5:1.0 6:0.004448835 7:5.56978E-5 8:0.9056848 9:0.9056605 10:0.90705603 11:0.90711945 12:0.0 13:0.90566975 14:0.8958081 15:0.09071889 16:0.447637 17:0.13612789 18:0.12824084 19:1.0 20:0.65688676 21:0.0 
-1.0 -0.05036456992505894 -1.0 -0.2725142815572018 -0.005688644170572352 -1.0 -0.005795415155649162 -1.0 -1.0 -1.0 -1.0 -0.0 -1.0 6.299491651344802E-4 1.0 1.0 0.8797326168362156 1.0 0.5459191283454365 1.0 1.0 0.012077039937964273 1.0 1.0 0.7598193579120232 0.07288745531425112 0.9765935049790564 1.0 0.5953291296335761 1.0 1.0 0.05286797566038992 0.11916758517319126 0.017358350849984272 0.7629971721378768 0.010635574001550907 0.01743337502356478 0.9825537530330151 1.0 1.0 1.0 0.024728016849069875 0.0 0.6069391937501141 0.30098333539419564 1:8.16417E-4 2:0.00163053 3:0.00888315 4:0.00934884 5:1.0 6:0.034204073 7:0.0 8:0.92007565 9:0.91610205 10:0.9439647 11:0.94769555 12:0.0 13:0.9170115 14:0.9365037 15:0.5566263 16:1.0 17:0.10580872 18:0.056729402 19:0.016640525 20:0.09955376 21:0.0 
-1.0 -1.0 -1.0 -0.7274857184427982 -0.9943113558294276 -1.0 -1.0 -0.9125861219053552 -1.0 -1.0 -1.0 -1.0 -1.0 0.9993700508348655 1.0 1.0 0.24413271608548087 1.0 1.0 0.0 1.0 0.9879229600620357 1.0 1.0 1.0 0.9271125446857489 1.0 1.0 1.0 0.0 1.0 0.9471320243396101 0.8808324148268087 0.9826416491500157 0.23700282786212323 0.9893644259984491 0.0 0.0 0.11304562171142017 0.0 0.0 0.0 0.0 0.0 0.0 1:1.0 2:0.14434241 3:0.058091376 4:0.17034186 5:0.005988023 6:0.03851088 7:0.0 8:1.0 9:0.031737816 10:0.002321268 11:0.10936045 12:2.81124E-4 13:0.01192123 14:4.7339E-4 15:1.0 16:0.01935713 17:0.003309465 18:1.48536E-4 19:8.30454E-6 20:0.0 21:8.32745E-6 
-1.0 -0.0 -1.0 -0.0 -0.0 -1.0 -0.0 -0.689017526356488 -1.0 -1.0 -1.0 -0.0 -1.0 0.0 1.0 1.0 1.0 1.0 0.0 0.0 1.0 0.0 0.6275041519618019 1.0 0.24018064208797682 0.0 0.041468017739009544 1.0 0.4046708703664239 0.382379671655442 1.0 0.0 0.0 0.0 0.0 0.0 0.0 0.0 0.0 0.0 0.0 0.0 0.8878327856814557 0.0 0.0 1:4.25694E-5 2:5.57647E-5 3:3.63088E-4 4:3.68807E-4 5:1.0 6:0.003821446 7:1.8629E-5 8:0.88269144 9:0.882675 10:0.8838098 11:0.88381773 12:0.0 13:0.8825909 14:0.85941815 15:0.023433534 16:0.12742044 17:0.062784724 18:0.06231975 19:1.0 20:0.35534704 21:0.0 
-1.0 -0.9496354300749411 -1.0 -0.0 -0.0 -1.0 -0.9942045848443508 -0.0 -1.0 -0.0664136286049107 -0.0 -1.0 -1.0 1.0 1.0 1.0 0.0 0.13197793349582174 0.45408087165456346 0.0 1.0 1.0 1.0 1.0 1.0 1.0 0.9819384772819341 1.0 1.0 0.617620328344558 1.0 1.0 1.0 1.0 1.0 1.0 0.9825666249764352 0.017446246966984935 0.06460895170667244 0.0 0.0 0.9752719831509301 0.11216721431854426 0.39306080624988593 0.6990166646058044 1:1.0 2:0.14268799 3:0.056074202 4:0.16481657 5:0.005520368 6:0.036505852 7:0.0 8:1.0 9:0.02668671 10:8.00822E-4 11:0.10282868 12:0.0 13:0.010067613 14:2.71998E-4 15:1.0 16:0.021403506 17:2.30039E-4 18:0.001119175 19:4.52428E-5 20:0.0 21:4.52971E-5 
-1.0 -1.0 -1.0 -0.0 -0.0 -1.0 -1.0 -1.0 -1.0 -1.0 -1.0 -1.0 -1.0 -1.0 1.0 1.0 1.0 1.0 1.0 0.0 1.0 1.0 1.0 1.0 1.0 1.0 1.0 1.0 1.0 1.0 1.0 1.0 1.0 1.0 1.0 1.0 0.0 0.0 1.0 1.0 0.0 0.0 0.0 0.0 0.0 1:1.0 2:0.18473023 3:0.09053139 4:0.19540134 5:0.009454963 6:0.050629288 7:0.0 8:1.0 9:0.015883762 10:0.00662332 11:0.10110083 12:0.0 13:0.008257942 14:8.77461E-4 15:1.0 16:0.043540303 17:1.6857E-4 18:2.03913E-4 19:1.02519E-8 20:1.57413E-5 21:0.0 
-1.0 -1.0 -1.0 -1.0 -1.0 -1.0 -1.0 -1.0 -1.0 -1.0 -1.0 -1.0 -1.0 -1.0 1.0 1.0 1.0 1.0 1.0 1.0 1.0 1.0 1.0 1.0 1.0 1.0 1.0 1.0 1.0 1.0 1.0 1.0 1.0 1.0 1.0 1.0 1.0 1.0 1.0 1.0 1.0 1.0 1.0 1.0 1.0 1:1.0 2:0.1857767 3:0.09211498 4:0.19795005 5:0.009708045 6:0.051597316 7:0.0 8:1.0 9:0.015847864 10:0.007244566 11:0.10234623 12:0.0 13:0.008389429 14:8.76373E-4 15:1.0 16:0.0438993 17:0.001026876 18:7.99981E-5 19:0.0 20:7.30219E-6 21:5.7998E-9 
-1.0 -1.0 -1.0 -1.0 -1.0 -0.0 -1.0 -0.0 -1.0 -1.0 -0.0 -1.0 -1.0 -1.0 -1.0 1.0 0.0 0.0 1.0 0.0 1.0 1.0 1.0 1.0 1.0 1.0 1.0 1.0 1.0 0.0 1.0 1.0 1.0 1.0 1.0 1.0 1.0 0.0 0.0 0.0 0.0 1.0 0.5686145432448856 1.0 1.0 1:0.061990596 2:0.06475434 3:0.17254944 4:0.23159897 5:1.0 6:0.28094083 7:0.0 8:0.9322513 9:0.48316494 10:0.6451019 11:1.0 12:0.0 13:0.54009354 14:0.5071562 15:1.0 16:0.40078565 17:0.2390249 18:0.03318399 19:0.003299414 20:0.0 21:0.004574593 
-0.8867614562248957 -0.0 -0.9333781659255556 -0.0 -0.0 -1.0 -0.0 -0.0 -0.0 -0.0 -1.0 -0.0 -0.0 -0.0 -0.0 0.0 1.0 1.0 0.0 0.0 0.5592045601761886 0.0 0.0 0.0 0.0 0.0 0.0 1.0 0.0 1.0 0.0 0.0 0.0 0.0 0.0 0.0 0.0 0.0 0.0 0.0 0.0 0.0 0.4313854567551144 0.0 0.0 1:0.026770676 2:0.03429739 3:0.094412684 4:0.118810676 5:1.0 6:0.18154131 7:0.010680395 8:0.8491247 9:0.6602492 10:0.77998924 11:1.0 12:0.0 13:0.70104444 14:0.69978213 15:1.0 16:0.54659206 17:0.32785282 18:0.054553892 19:5.40259E-4 20:0.0 21:0.002107171 
-0.0 -0.0 -0.0 -0.0 -0.0 -1.0 -0.0 -1.0 -0.0 -1.0 -1.0 -0.0 -0.0 -1.0 -0.0 0.0 1.0 1.0 0.0 0.0 0.4407954398238114 0.0 0.0 0.0 0.0 0.0 0.0 1.0 0.0 1.0 0.0 0.0 0.0 0.0 0.0 0.0 0.0 0.0 1.0 1.0 0.0 0.0 0.0 0.0 0.0 1:0.019176599 2:0.029010467 3:0.09846368 4:0.11868355 5:1.0 6:0.18583126 7:1.6532E-4 8:0.88065004 9:0.6668082 10:0.8511559 11:1.0 12:0.0 13:0.682869 14:0.6857093 15:1.0 16:0.61906195 17:0.24413595 18:0.056577742 19:0.001392294 20:0.01421811 21:0.0 
-1.0 -0.0 -1.0 -0.0 -0.0 -1.0 -0.0 -1.0 -1.0 -1.0 -1.0 -0.0 -0.8868926042137075 -1.0 -0.0 0.0 1.0 1.0 0.0 0.0 1.0 0.0 0.0 1.0 0.0 0.0 0.0 1.0 0.0 1.0 0.0 0.0 0.0 0.0 0.0 0.0 0.0 0.0 0.0 0.0 0.0 0.0 0.0 0.0 0.0 1:0.027865307 2:0.037874978 3:0.11593138 4:0.13788748 5:1.0 6:0.20371746 7:0.0 8:0.8960719 9:0.6330953 10:0.83089334 11:1.0 12:0.0 13:0.6509444 14:0.6503947 15:1.0 16:0.5952813 17:0.20190561 18:0.037284233 19:0.007167799 20:0.0 21:0.00905923 
-1.0 -1.0 -1.0 -0.0 -0.0 -1.0 -1.0 -0.0 -1.0 -0.18430654578781372 -0.0 -1.0 -1.0 -1.0 -1.0 1.0 0.0 0.0 1.0 0.0 1.0 1.0 1.0 1.0 1.0 1.0 1.0 1.0 1.0 0.0 1.0 1.0 1.0 1.0 1.0 1.0 0.0 0.0 0.0 0.0 0.0 0.0 0.0 0.0 0.0 1:0.05437748 2:0.062174957 3:0.16547087 4:0.20406842 5:1.0 6:0.2613385 7:0.0 8:0.94581014 9:0.53064436 10:0.7385858 11:0.9998639 12:0.0 13:0.55873394 14:0.5629666 15:1.0 16:0.48303193 17:0.23627055 18:0.041974682 19:0.003931932 20:0.0 21:0.005497225 
-1.0 -0.0 -1.0 -0.0 -0.0 -1.0 -0.0 -1.0 -1.0 -1.0 -1.0 -0.0 -1.0 -1.0 -0.0 1.0 0.0 1.0 0.0 0.0 1.0 0.0 1.0 1.0 0.0 0.0 0.0 1.0 0.0 0.0 1.0 0.0 0.0 0.0 0.0 0.0 0.0 0.0 0.0 0.0 0.0 0.0 0.0 0.0 0.0 1:0.027015412 2:0.035860296 3:0.11028 4:0.13620947 5:1.0 6:0.20045362 7:0.0 8:0.8761849 9:0.6245487 10:0.78601235 11:1.0 12:0.0 13:0.65529007 14:0.65101266 15:1.0 16:0.5510531 17:0.2535662 18:0.043398444 19:0.004912552 20:0.0 21:0.006867098 
-0.0 -0.0 -0.0 -0.0 -0.0 -1.0 -0.0 -1.0 -0.0 -0.8156934542121863 -1.0 -0.0 -0.0 -1.0 -0.0 0.0 1.0 1.0 0.0 1.0 0.0 0.0 0.0 0.0 0.0 0.0 0.0 1.0 0.0 1.0 0.0 0.0 0.0 0.0 0.0 0.0 0.0 1.0 1.0 1.0 1.0 0.0 0.0 0.0 0.0 1:0.012305845 2:0.019861456 3:0.06656255 4:0.08176705 5:1.0 6:0.14531115 7:0.008650376 8:0.8670718 9:0.75409883 10:0.8838234 11:0.9968848 12:0.0 13:0.77131283 14:0.7761843 15:1.0 16:0.69486034 17:0.40236685 18:0.12270517 19:0.017727178 20:0.06339044 21:0.0 
-1.0 -0.0 -1.0 -0.0 -0.0 -1.0 -0.0 -0.0 -1.0 -0.0 -0.0 -0.0 -1.0 -0.0 -0.0 1.0 0.0 0.0 0.0 0.0 1.0 0.0 1.0 1.0 1.0 0.0 1.0 1.0 1.0 0.0 1.0 0.0 0.0 0.0 0.0 0.0 0.0 0.0 0.0 0.0 0.0 0.0 0.0 0.0 0.0 1:0.031967983 2:0.041511707 3:0.12454158 4:0.1522146 5:1.0 6:0.21649249 7:0.0 8:0.89796555 9:0.60325956 10:0.793271 11:1.0 12:0.0 13:0.62547016 14:0.64227486 15:1.0 16:0.54524827 17:0.26433975 18:0.049669664 19:0.0 20:0.001280502 21:0.001015138 
-1.0 -1.0 -1.0 -0.0 -0.0 -1.0 -1.0 -1.0 -1.0 -1.0 -1.0 -1.0 -1.0 -1.0 -1.0 -1.0 0.42897572115138305 1.0 1.0 0.0 1.0 1.0 1.0 1.0 1.0 1.0 1.0 1.0 1.0 1.0 1.0 1.0 1.0 1.0 1.0 1.0 0.0 0.0 0.0 0.0 0.0 0.0 0.0 0.0 0.0 1:1.0 2:0.17725046 3:0.08450128 4:0.18104509 5:0.007856878 6:0.045063093 7:0.0 8:1.0 9:0.016335428 10:0.006919034 11:0.0946677 12:0.0 13:0.007661437 14:7.20414E-4 15:1.0 16:0.040692333 17:0.002703996 18:3.40745E-4 19:8.69812E-8 20:1.27206E-5 21:0.0 
-1.0 -0.0 -1.0 -0.0 -0.0 -0.6214284545751411 -0.0 -0.8825806229375731 -1.0 -1.0 -0.44940251527395103 -1.0 -1.0 -1.0 -0.0 -1.0 1.0 1.0 0.0 0.0 1.0 0.0 1.0 1.0 0.0 0.0 0.0 1.0 0.0 0.6415625220475522 1.0 0.0 0.0 0.0 0.0 0.0 0.0 0.0 0.0 0.0 0.0 0.0 0.0 0.0 0.0 1:1.0 2:0.13957031 3:0.056363523 4:0.15608056 5:0.00489849 6:0.033848003 7:0.0 8:1.0 9:0.027361982 10:0.004073487 11:0.0979794 12:2.807E-4 13:0.009795953 14:5.13039E-4 15:1.0 16:0.02046431 17:0.005954828 18:3.96273E-4 19:1.54943E-7 20:7.00121E-6 21:0.0 
-1.0 -1.0 -1.0 -1.0 -1.0 -1.0 -1.0 -1.0 -1.0 -1.0 -1.0 -0.0 -1.0 -1.0 -1.0 -1.0 1.0 1.0 1.0 0.0 1.0 1.0 1.0 1.0 1.0 1.0 1.0 1.0 1.0 1.0 1.0 1.0 1.0 1.0 1.0 1.0 1.0 0.0 1.0 1.0 0.0 1.0 0.0 1.0 1.0 1:1.0 2:0.17896785 3:0.08667124 4:0.18507914 5:0.008284422 6:0.046532966 7:0.0 8:1.0 9:0.016453778 10:0.007552782 11:0.09681562 12:0.0 13:0.007925843 14:7.59562E-4 15:1.0 16:0.041129243 17:0.003547602 18:3.31579E-4 19:9.42279E-8 20:4.31814E-6 21:0.0 
-1.0 -0.0 -1.0 -0.0 -0.0 -1.0 -0.0 -1.0 -1.0 -1.0 -1.0 -0.0 -1.0 -1.0 -0.0 -1.0 1.0 1.0 0.0 1.0 1.0 0.0 1.0 1.0 1.0 0.0 1.0 1.0 1.0 1.0 1.0 0.0 0.0 0.0 0.0 0.0 0.0 1.0 1.0 1.0 1.0 0.0 1.0 0.0 0.0 1:1.0 2:0.13794152 3:0.05645897 4:0.15851387 5:0.00507019 6:0.03436568 7:0.0 8:1.0 9:0.02890671 10:0.005200529 11:0.10139487 12:3.86177E-4 13:0.010515794 14:6.11463E-4 15:1.0 16:0.019180965 17:0.008093152 18:5.59898E-4 19:3.09227E-7 20:1.26133E-5 21:0.0 
-1.0 -0.0 -1.0 -0.0 -0.0 -1.0 -0.0 -1.0 -0.5254719748293224 -1.0 -1.0 -0.0 -0.4215124454254746 -1.0 -0.0 -1.0 -0.42897572115138305 1.0 0.0 0.0 1.0 0.0 1.0 1.0 0.0 0.0 0.0 1.0 0.0 1.0 0.45422284534160123 0.0 0.0 0.0 0.0 0.0 0.0 0.0 0.0 0.0 0.0 0.0 0.0 0.0 0.0 1:1.63722E-5 2:2.30799E-5 3:2.0751E-4 4:2.0993E-4 5:1.0 6:0.002685694 7:6.02411E-6 8:0.88361675 9:0.8836098 10:0.88430613 11:0.88428473 12:0.0 13:0.88348943 14:0.84803134 15:0.010614627 16:0.060319588 17:0.03747828 18:0.03647686 19:1.0 20:0.2402821 21:0.0 
-1.0 -1.0 -1.0 -0.41350532739819656 -0.5347476121251653 -1.0 -1.0 -1.0 -1.0 -1.0 -1.0 -1.0 -1.0 -1.0 -1.0 -1.0 -1.0 1.0 1.0 0.0 1.0 1.0 1.0 1.0 1.0 1.0 1.0 1.0 1.0 1.0 1.0 1.0 1.0 1.0 1.0 1.0 0.5050574720619512 0.0 1.0 1.0 0.0 0.4909546989005194 0.49131509715046434 0.22911420512304537 0.3994486984217301 1:9.44779E-5 2:1.44428E-4 3:9.65136E-4 4:9.79804E-4 5:1.0 6:0.00750294 7:6.86085E-5 8:0.84240687 9:0.8423258 10:0.84549814 11:0.84526414 12:0.0 13:0.8416951 14:0.7767308 15:0.02620026 16:0.11345888 17:0.07794705 18:0.07827254 19:1.0 20:0.33634648 21:0.0 
-1.0 -0.0 -1.0 -0.0 -0.0 -1.0 -0.0 -1.0 -1.0 -1.0 -1.0 -0.02542282501288669 -1.0 -1.0 -0.0146598868077806 -1.0 -1.0 1.0 0.0 0.0 1.0 0.0 1.0 1.0 1.0 0.0 1.0 1.0 1.0 1.0 1.0 0.0 0.0 0.009685261904307348 0.0 0.0 0.0 0.0 0.0 0.0 0.0 0.0 0.5086849028495357 0.0 0.0 1:8.6696E-6 2:1.52318E-5 3:1.95419E-4 4:1.97798E-4 5:1.0 6:0.002640903 7:0.0 8:0.8720984 9:0.8720919 10:0.87276953 11:0.8727424 12:0.0 13:0.8719548 14:0.82781184 15:0.007090121 16:0.0376269 17:0.029199922 18:0.028560823 19:1.0 20:0.1888777 21:0.0 
-1.0 -1.0 -1.0 -0.5864946726018034 -0.46525238787483475 -1.0 -1.0 -1.0 -1.0 -1.0 -1.0 -0.9745771749871133 -1.0 -1.0 -0.9853401131922194 -1.0 -1.0 1.0 1.0 1.0 1.0 1.0 1.0 1.0 1.0 1.0 1.0 1.0 1.0 1.0 1.0 1.0 1.0 0.9903147380956927 1.0 1.0 0.4949425279380488 1.0 1.0 1.0 1.0 0.5090453010994807 0.0 0.7708857948769546 0.60055130157827 1:8.86724E-4 2:0.001071008 3:0.003371946 4:0.003519066 5:1.0 6:0.016007837 7:4.61772E-4 8:0.9287175 9:0.92816806 10:0.936479 11:0.9379448 12:0.0 13:0.92891216 14:0.9423366 15:0.38187012 16:1.0 17:0.12903556 18:0.079529315 19:0.060542792 20:0.18926966 21:0.0 
-1.0 -0.0 -1.0 -0.0 -0.0 -1.0 -0.0 -1.0 -1.0 -1.0 -1.0 -0.0 -1.0 -1.0 -0.0 -1.0 -1.0 -1.0 0.019244828891658253 0.0 1.0 0.0 0.6558441558441559 1.0 0.1423953145737725 0.0 0.0 1.0 0.2137725717486354 1.0 1.0 0.0 0.0 0.0 0.0970481964913605 0.0 0.0 0.0 0.7033879231261927 1.0 0.13252989575697316 0.0 0.0 0.07229860058846946 0.0036613543269635434 1:9.97344E-6 2:5.11579E-5 3:7.90236E-4 4:8.15523E-4 5:1.0 6:0.006880804 7:2.30725E-5 8:0.9425451 9:0.9424656 10:0.9452335 11:0.94549674 12:0.0 13:0.94265836 14:0.9257371 15:0.2474592 16:1.0 17:0.107836016 18:0.09539594 19:0.16458552 20:0.38510135 21:0.0 
-1.0 -0.6227531617785786 -1.0 -0.011690827216962126 -0.044610263135494564 -1.0 -0.681145892941315 -0.1241124461883557 -1.0 -1.0 -1.0 -0.6990935124307354 -1.0 -1.0 -0.6898514862274039 -1.0 -1.0 -1.0 0.42984325834902004 0.0 1.0 0.6669850602031538 1.0 1.0 1.0 0.6143411588819034 0.9417268024180004 1.0 1.0 0.4884660514503009 1.0 0.6480501924371364 0.5788341566110143 0.6858641987223995 0.26886869599115515 0.6673692495356419 0.014617710689201816 0.0 0.0 0.008187267794459233 0.0 0.007643250707276257 0.9258204735082607 0.04707993333043484 0.017617207389332472 1:1.81845E-4 2:2.66638E-4 3:0.001453714 4:0.00151705 5:1.0 6:0.009945701 7:4.14629E-5 8:0.8388569 9:0.83870745 10:0.8429635 11:0.84305555 12:0.0 13:0.8384066 14:0.7662949 15:0.03315238 16:0.105071515 17:0.10229647 18:0.08750671 19:1.0 20:0.30780783 21:0.0 
-1.0 -0.3772468382214213 -1.0 -0.11412418768970292 -0.0 -1.0 -0.31885410705868505 -1.0 -1.0 -1.0 -1.0 -0.3009064875692646 -1.0 -1.0 -0.31014851377259606 -1.0 -1.0 -1.0 0.5509119127593216 0.0 1.0 0.33301493979684615 1.0 1.0 0.8576046854262275 0.38565884111809656 1.0 1.0 0.7862274282513646 1.0 1.0 0.35194980756286365 0.42116584338898566 0.3141358012776005 0.6340831075174843 0.3326307504643581 0.0 0.0 1.0 0.20277630043156436 0.8134326181168041 0.0 0.0 0.3922457647077956 0.0 1:1.24585E-5 2:5.89668E-5 3:8.77904E-4 4:8.9626E-4 5:1.0 6:0.007325885 7:0.0 8:0.98421794 9:0.9841184 10:0.9874301 11:0.98759377 12:0.0 13:0.9841663 14:0.9881974 15:0.24879634 16:1.0 17:8.55528E-4 18:6.07486E-4 19:0.0 20:0.002425703 21:9.93751E-6 
-1.0 -1.0 -1.0 -0.874184985093335 -0.9553897368645055 -1.0 -1.0 -0.8758875538116443 -1.0 -1.0 -1.0 -1.0 -1.0 -1.0 -1.0 -1.0 -1.0 -0.33022428658044684 1.0 0.022473465071032372 1.0 1.0 1.0 1.0 1.0 1.0 1.0 1.0 1.0 0.511533948549699 1.0 1.0 1.0 1.0 1.0 1.0 0.9853822893107982 0.08884146234253025 0.19291636342950502 0.0033424683950895456 0.05403748612622278 0.9923567492927238 0.07417952649173937 0.4883757013733001 0.8425920314866782 1:1.0 2:0.4218274 3:0.4196107 4:0.5729976 5:0.16562222 6:0.28294694 7:0.0 8:1.0 9:0.01627704 10:0.10642168 11:0.21033432 12:0.0 13:0.020129513 14:0.015647162 15:1.0 16:0.17145297 17:0.010486521 18:0.004029969 19:1.11012E-5 20:9.41504E-4 21:0.0 
-1.0 -0.0 -1.0 -0.0 -0.0 -1.0 -0.0 -1.0 -0.4137713779871614 -1.0 -1.0 -0.0 -0.2741895305202065 -1.0 -0.0 -1.0 -0.0 -0.6697757134195532 0.0 0.9775265349289677 1.0 0.0 0.3441558441558441 1.0 0.0 0.0 0.05827319758199961 1.0 0.0 1.0 0.0 0.0 0.0 0.0 0.0 0.0 0.0 0.9111585376574698 0.1036957134443024 0.7856939633788869 0.0 0.0 0.0 0.0 0.1361294067970258 1:9.29507E-5 2:1.33745E-4 3:8.73651E-4 4:8.93512E-4 5:1.0 6:0.006934081 7:6.70445E-5 8:0.99153656 9:0.9914522 10:0.99442714 11:0.9946207 12:0.0 13:0.9915469 14:0.98599976 15:0.24236083 16:1.0 17:0.014596379 18:0.004669173 19:8.21286E-4 20:0.01595342 21:0.0 
-1.0 -1.0 -1.0 -0.5621326374191038 -0.0 -1.0 -1.0 -1.0 -1.0 -1.0 -1.0 -1.0 -1.0 -1.0 -1.0 -1.0 -1.0 -1.0 -1.0 1.0 1.0 1.0 1.0 1.0 1.0 1.0 1.0 1.0 1.0 1.0 1.0 1.0 1.0 1.0 1.0 1.0 0.0 1.0 1.0 1.0 1.0 0.0 1.0 1.0 0.6327398438152259 1:0.3618119 2:0.30114883 3:0.49214593 4:0.6168804 5:1.0 6:0.56579775 7:0.0 8:1.0 9:0.21600151 10:0.5279998 11:0.6736351 12:0.0 13:0.22191134 14:0.21108703 15:1.0 16:0.37321818 17:0.06705971 18:0.038689207 19:0.001164486 20:0.017092338 21:0.0 
-1.0 -1.0 -1.0 -0.43786736258089615 -1.0 -1.0 -1.0 -1.0 -1.0 -1.0 -1.0 -1.0 -1.0 -1.0 -1.0 -1.0 -1.0 -1.0 -1.0 0.0 1.0 1.0 1.0 1.0 1.0 1.0 1.0 1.0 1.0 1.0 1.0 1.0 1.0 1.0 1.0 1.0 1.0 0.0 1.0 1.0 0.0 1.0 0.0 0.0 0.36726015618477414 1:1.0 2:0.46849915 3:0.5168373 4:0.6819181 5:0.25733268 6:0.3684323 7:0.0 8:1.0 9:0.02395348 10:0.14272784 11:0.24603769 12:0.0 13:0.027693588 14:0.022001399 15:1.0 16:0.19716622 17:0.017943166 18:0.005100166 19:2.23994E-5 20:9.27205E-4 21:0.0 
-1.0 -1.0 -1.0 -1.0 -1.0 -1.0 -1.0 -1.0 -1.0 -1.0 -1.0 -1.0 -1.0 -1.0 -1.0 -1.0 -1.0 -1.0 -1.0 -1.0 1.0 1.0 1.0 1.0 1.0 1.0 1.0 1.0 1.0 1.0 1.0 1.0 1.0 1.0 1.0 1.0 1.0 1.0 1.0 1.0 1.0 1.0 1.0 1.0 1.0 1:1.81335E-4 2:5.99092E-4 3:0.004969941 4:0.005221542 5:1.0 6:0.02356815 7:6.32576E-5 8:0.9816603 9:0.9798891 10:0.9969036 11:1.0 12:0.0 13:0.9814169 14:0.9780366 15:0.46942216 16:1.0 17:0.005692024 18:0.001314189 19:0.0 20:1.0103E-4 21:5.96976E-6 
-1.0 -0.0 -1.0 -0.0 -0.0 -1.0 -0.0 -1.0 -1.0 -1.0 -1.0 -0.0 -1.0 -1.0 -0.0 -1.0 -1.0 -1.0 -1.0 -0.0 -0.0 0.0 0.059449464154352163 1.0 0.4637467347614189 0.0 1.0 1.0 0.27649121639861474 1.0 1.0 0.0 0.0 0.0 0.0 0.0 0.0 0.0 0.0 0.0 0.0 0.0 0.0 0.0 0.18410409620425777 1:0.555373 2:0.40960458 3:0.67048573 4:0.8234094 5:1.0 6:0.67267954 7:0.0 8:1.0 9:0.13115157 10:0.3594074 11:0.5365506 12:0.0 13:0.1452217 14:0.12869018 15:1.0 16:0.3173645 17:0.013998555 18:0.002253792 19:8.52578E-6 20:1.3775E-4 21:0.0 
-1.0 -0.8872219480232143 -1.0 -0.0 -0.0 -1.0 -0.46109116076949697 -1.0 -1.0 -1.0 -1.0 -0.32396140034378884 -1.0 -1.0 -0.4006316977835265 -1.0 -1.0 -1.0 -1.0 -0.5839833576490895 -0.0 0.5608144367535055 1.0 0.07558957514281986 1.0 1.0 0.0 1.0 1.0 1.0 1.0 0.8717646134531966 0.8230413286876951 0.4911528271808725 0.0 0.5520051511592892 0.0 0.0 0.0 0.0 0.0 0.0 0.0 0.0 0.0 1:0.37187803 2:0.30656117 3:0.54829913 4:0.6452746 5:1.0 6:0.57666534 7:0.0 8:1.0 9:0.17369859 10:0.45358986 11:0.60009396 12:0.0 13:0.18351132 14:0.17131837 15:1.0 16:0.37074816 17:0.002380876 18:2.56629E-4 19:6.87265E-5 20:0.0 21:6.88137E-5 
-1.0 -0.0 -1.0 -0.0 -0.1701684182511636 -1.0 -0.0 -1.0 -0.0 -1.0 -1.0 -0.0 -1.0 -1.0 -0.0 -1.0 -0.0 -1.0 -1.0 -0.0 -1.0 0.0 0.9405505358456479 1.0 0.0 0.0 0.5653158756784291 1.0 0.0 1.0 0.0 0.1020602736855335 0.0 0.0 1.0 0.0 0.09794994761457287 1.0 1.0 1.0 1.0 0.08008948727088128 1.0 0.0 0.0 1:0.1274398 2:0.13189846 3:0.2933788 4:0.33846465 5:1.0 6:0.37617764 7:0.0 8:1.0 9:0.3739103 10:0.7039043 11:0.8608137 12:0.0 13:0.3881548 14:0.37381777 15:1.0 16:0.46941558 17:0.007798385 18:0.001026879 19:2.81318E-4 20:0.0 21:2.82684E-4 
-1.0 -1.0 -1.0 -0.16055848752109977 -0.8298315817488364 -0.36976599899519463 -1.0 -0.0 -1.0 -1.0 -0.0 -1.0 -1.0 -1.0 -1.0 -1.0 -1.0 -0.0 -1.0 -1.0 -0.0 1.0 1.0 1.0 1.0 1.0 0.8142774376896227 1.0 1.0 0.0 1.0 1.0 1.0 1.0 0.8993089984122355 1.0 0.9020500523854271 0.0 0.0 0.0 0.0 0.9199105127291187 0.0 0.0 0.15315235854137882 1:1.0 2:0.5619987 3:0.70929986 4:0.8865706 5:0.49420047 6:0.5569144 7:0.0 8:1.0 9:0.040961757 10:0.192291 11:0.30976796 12:0.0 13:0.046858635 14:0.039901096 15:1.0 16:0.24214105 17:0.006433121 18:5.86508E-4 19:7.91971E-5 20:0.0 21:7.89939E-5 
-1.0 -0.0 -1.0 -0.8394415124789002 -0.0 -1.0 -0.0 -0.0 -1.0 -0.0 -1.0 -0.0 -1.0 -1.0 -0.0 -1.0 -0.0 -0.0 -0.0 -0.0 -0.0 0.0 0.0 1.0 0.536253265238581 0.0 0.6204066866319481 1.0 0.0 0.0 0.0 0.0 0.17695867131230497 0.0 0.0 0.0 0.0 0.0 0.0 0.0 0.0 0.0 0.0 0.02571278885875611 0.6134934058489843 1:0.74436826 2:0.5280808 3:0.81815785 4:0.9753313 5:0.9904344 6:0.7551198 7:0.0 8:1.0 9:0.096583895 10:0.3294226 11:0.4521785 12:0.0 13:0.10265886 14:0.098153695 15:1.0 16:0.31818542 17:0.007086713 18:8.10988E-4 19:7.58994E-5 20:0.0 21:7.51922E-5 
-1.0 -0.11277805197678574 -1.0 -0.0 -0.0 -1.0 -0.538908839230503 -1.0 -1.0 -1.0 -1.0 -0.6760385996562112 -1.0 -1.0 -0.5993683022164735 -1.0 -1.0 -1.0 -1.0 -0.4160166423509105 -0.0 0.43918556324649427 1.0 0.9244104248571802 0.0 0.0 0.0 1.0 0.7235087836013853 1.0 1.0 0.026175112861269903 0.0 0.5088471728191275 0.10069100158776445 0.44799484884071095 0.0 0.0 1.0 1.0 0.0 0.0 0.0 0.9742872111412438 0.049250139405379076 1:0.14320667 2:0.14683616 3:0.31997424 4:0.36216012 5:1.0 6:0.39502513 7:0.0 8:1.0 9:0.3422024 10:0.69627863 11:0.81594807 12:0.0 13:0.34852922 14:0.34595773 15:1.0 16:0.47695783 17:0.001503455 18:8.52636E-4 19:5.72323E-7 20:3.2149E-4 21:0.0 
-1.0 -1.0 -1.0 -0.0 -1.0 -1.0 -1.0 -1.0 -1.0 -1.0 -1.0 -1.0 -1.0 -1.0 -1.0 -1.0 -1.0 -1.0 -1.0 -1.0 -0.0 -1.0 1.0 1.0 1.0 1.0 1.0 1.0 1.0 1.0 1.0 1.0 1.0 1.0 1.0 1.0 0.0 0.0 1.0 1.0 0.0 0.0 0.0 0.0 0.0 1:1.0 2:0.23556733 3:0.14340809 4:0.2514044 5:0.019027654 6:0.07708921 7:0.0 8:1.0 9:0.010173763 10:0.021105304 11:0.112696685 12:0.0 13:0.008295828 14:0.001898534 15:1.0 16:0.07155631 17:0.004265873 18:4.59777E-4 19:1.32184E-7 20:4.50092E-5 21:0.0 
-1.0 -1.0 -1.0 -1.0 -0.0 -1.0 -1.0 -1.0 -1.0 -1.0 -1.0 -1.0 -1.0 -1.0 -1.0 -1.0 -1.0 -1.0 -1.0 -1.0 -1.0 -1.0 1.0 1.0 1.0 1.0 1.0 1.0 1.0 1.0 1.0 1.0 1.0 1.0 1.0 1.0 1.0 1.0 1.0 1.0 1.0 1.0 1.0 1.0 1.0 1:1.0 2:0.25522366 3:0.16364363 4:0.2685361 5:0.022948053 6:0.08664187 7:0.0 8:1.0 9:0.008007911 10:0.027030095 11:0.11307957 12:0.0 13:0.00765859 14:0.002284474 15:1.0 16:0.08464976 17:0.002651223 18:2.96778E-4 19:5.60119E-8 20:3.10011E-5 21:0.0 
-1.0 -0.0 -1.0 -0.0 -0.0 -1.0 -0.0 -1.0 -1.0 -1.0 -1.0 -0.0 -1.0 -1.0 -0.0 -1.0 -1.0 -1.0 -1.0 -0.0 -1.0 -1.0 -0.0 1.0 0.0 0.0 0.41641997478050713 1.0 0.0 1.0 1.0 0.0 0.0 0.0 0.9371139289712693 0.0 0.0 1.0 1.0 1.0 1.0 0.0 0.911801998629546 1.0 0.0 1:0.1891083 2:0.1811186 3:0.37095106 4:0.42789245 5:1.0 6:0.4400659 7:0.0 8:1.0 9:0.2893932 10:0.62202156 11:0.75978047 12:0.0 13:0.2976658 14:0.28654948 15:1.0 16:0.43897614 17:0.010795563 18:0.004270296 19:2.11117E-5 20:0.001415225 21:0.0 
-1.0 -1.0 -1.0 -0.06870586254618555 -1.0 -1.0 -1.0 -1.0 -1.0 -1.0 -1.0 -1.0 -1.0 -1.0 -1.0 -1.0 -1.0 -1.0 -1.0 -0.6472358330916572 -0.0 -1.0 -1.0 1.0 1.0 1.0 0.5835800252194929 1.0 1.0 1.0 1.0 1.0 1.0 1.0 0.5969247712894475 1.0 0.9029955595729734 0.0 0.0 0.0 0.0 0.8692559303401121 0.08819800137045394 0.0 0.06014719248965554 1:1.0 2:0.17204654 3:0.08629498 4:0.21267478 5:0.011231143 6:0.054847922 7:0.0 8:1.0 9:0.027608726 10:0.008878853 11:0.12656562 12:4.39495E-4 13:0.014018674 14:0.00141802 15:1.0 16:0.029716466 17:0.011364111 18:0.001037841 19:7.35561E-5 20:0.0 21:7.42535E-5 
-1.0 -0.0 -1.0 -0.0 -0.0 -1.0 -0.0 -1.0 -1.0 -1.0 -1.0 -0.0 -1.0 -1.0 -0.0 -1.0 -1.0 -1.0 -1.0 -0.3527641669083427 -0.0 -1.0 -0.0 1.0 1.0 0.0 1.0 1.0 1.0 1.0 1.0 0.0 0.0 0.0 0.0 0.0 0.0 0.0 1.0 1.0 0.0 0.0 0.0 0.0 0.0 1:0.25809786 2:0.22883423 3:0.43888408 4:0.5170911 5:1.0 6:0.49739146 7:0.0 8:1.0 9:0.23446178 10:0.53333354 11:0.69555885 12:0.0 13:0.24693225 14:0.23157892 15:1.0 16:0.3969963 17:0.010568334 18:0.003533427 19:1.51316E-5 20:9.71026E-4 21:0.0 
-1.0 -1.0 -1.0 -0.9312941374538144 -0.0 -1.0 -1.0 -1.0 -1.0 -1.0 -1.0 -1.0 -1.0 -1.0 -1.0 -1.0 -1.0 -1.0 -1.0 -1.0 -0.0 -1.0 -1.0 1.0 1.0 1.0 1.0 1.0 1.0 1.0 1.0 1.0 1.0 1.0 0.4659612997392831 1.0 0.0970044404270266 0.0 0.0 0.0 0.0 0.13074406965988794 0.0 0.0 0.9398528075103445 1:0.39514434 2:0.31422803 3:0.55063397 4:0.67024934 5:1.0 6:0.5875816 7:0.0 8:1.0 9:0.17320144 10:0.42513922 11:0.61149675 12:0.0 13:0.18927513 14:0.16827933 15:1.0 16:0.34415576 17:0.016281474 18:0.003063862 19:1.54936E-5 20:3.91987E-4 21:0.0 
-1.0 -1.0 -1.0 -0.0 -1.0 -1.0 -1.0 -1.0 -1.0 -1.0 -1.0 -1.0 -1.0 -1.0 -1.0 -1.0 -1.0 -1.0 -1.0 -0.11472115430197763 -0.0 -1.0 -1.0 -1.0 1.0 1.0 0.0 1.0 1.0 1.0 1.0 1.0 1.0 1.0 0.46706373404504864 1.0 1.0 0.0 0.0 0.0 0.0 1.0 0.1170158074591853 0.0 0.0 1:1.0 2:0.33243075 3:0.27326185 4:0.4304297 5:0.07580463 6:0.17777517 7:0.0 8:1.0 9:0.013225527 10:0.051552843 11:0.17768648 12:0.0 13:0.01676224 14:0.007665886 15:1.0 16:0.115027525 17:0.004144227 18:4.46861E-4 19:6.30404E-5 20:0.0 21:6.32268E-5 
-1.0 -0.0 -1.0 -0.7228428434948758 -0.0 -1.0 -0.0 -1.0 -1.0 -1.0 -1.0 -0.0 -1.0 -1.0 -0.0 -1.0 -1.0 -0.0 -1.0 -0.0 -0.0 -1.0 -0.0 -1.0 0.9537506193061015 0.0 1.0 1.0 0.6601549153862838 1.0 1.0 0.0 0.0 0.0 0.46521633173226384 0.0 0.0 0.0 0.0 0.0 0.0 0.0 0.0 0.0 0.614883239968733 1:1.0 2:0.5441553 3:0.684519 4:0.8975233 5:0.5037287 6:0.559566 7:0.0 8:1.0 9:0.045192096 10:0.18608463 11:0.3305097 12:0.0 13:0.05338992 14:0.04398388 15:1.0 16:0.22475895 17:0.015018521 18:0.00160775 19:3.20688E-4 20:0.0 21:3.22478E-4 
-1.0 -0.9778908093823551 -1.0 -0.0 -0.0 -0.9255722721111116 -0.9034168274676517 -0.0 -1.0 -1.0 -0.6804752346246354 -0.8731741844501578 -1.0 -1.0 -0.890940398714456 -1.0 -1.0 -1.0 -1.0 -0.9900706955055919 -0.0 -1.0 -0.9250813183269211 -0.0 1.0 0.9932150442774106 0.6776068926122971 1.0 1.0 0.0 1.0 0.9614826300742294 1.0 0.9008378928106212 0.10384075409158063 0.9235483549348356 0.0 0.0 0.0 0.0 0.0 0.0 0.0 0.0 0.0 1:1.0 2:0.51053673 3:0.59774935 4:0.78344095 5:0.35795137 6:0.45690343 7:0.0 8:1.0 9:0.03256686 10:0.15406129 11:0.28389278 12:0.0 13:0.039311208 14:0.03127343 15:1.0 16:0.21119405 17:0.006858371 18:0.001192815 19:2.56512E-4 20:0.0 21:2.57641E-4 
-1.0 -0.0 -1.0 -0.2771571565051242 -0.0 -1.0 -0.0 -1.0 -1.0 -1.0 -1.0 -0.0 -1.0 -1.0 -0.0 -1.0 -0.4021208231612682 -1.0 -1.0 -0.8952081501924305 -0.0 -1.0 -0.0 -1.0 0.0 0.0 1.0 1.0 0.0 1.0 0.41122073171754797 0.0 0.0 0.0 0.16656810121817042 0.0 0.0 0.0 1.0 1.0 0.0 0.0 0.0 0.544851886341326 0.385116760031267 1:0.27585027 2:0.23563592 3:0.4403779 4:0.53941274 5:1.0 6:0.5090863 7:0.0 8:1.0 9:0.23120262 10:0.48802575 11:0.7127579 12:0.0 13:0.25466856 14:0.2518174 15:1.0 16:0.36343315 17:0.002752318 18:0.004242735 19:9.86995E-6 20:0.001640936 21:0.0 
-1.0 -0.022109190617644953 -1.0 -0.0 -0.0 -1.0 -0.09658317253234826 -1.0 -1.0 -1.0 -1.0 -0.12682581554984218 -1.0 -1.0 -0.10905960128554404 -1.0 -0.5978791768387318 -1.0 -1.0 -0.0 -1.0 -1.0 -0.07491868167307891 -1.0 0.0462493806938985 0.006784955722589414 0.32239310738770294 1.0 0.3398450846137162 1.0 0.588779268282452 0.038517369925770595 0.0 0.09916210718937879 0.7973110789129364 0.07645164506516444 0.0 1.0 1.0 1.0 1.0 0.0 0.8829841925408147 0.455148113658674 0.0 1:0.06783404 2:0.0811721 3:0.20448855 4:0.22995251 5:1.0 6:0.29214248 7:0.0 8:0.9957843 9:0.5220891 10:0.8684637 11:0.9804766 12:0.0 13:0.5295141 14:0.53242284 15:1.0 16:0.55964184 17:0.015077139 18:0.002227244 19:8.19739E-5 20:0.0 21:7.29867E-5 
-1.0 -0.0 -1.0 -1.0 -0.0 -1.0 -0.0 -1.0 -1.0 -1.0 -1.0 -0.0 -1.0 -1.0 -0.0 -1.0 -1.0 -1.0 -1.0 -1.0 -0.6075076520961584 -1.0 -0.0 -1.0 -1.0 0.06738813806185007 1.0 1.0 1.0 1.0 1.0 0.0 1.0 0.0 1.0 0.0 0.0 0.6510065598572864 1.0 1.0 0.6398231887003353 0.0 0.1744368401141796 1.0 1.0 1:1.0 2:0.4874285 3:0.53379077 4:0.66685724 5:0.24316616 6:0.36339033 7:0.0 8:1.0 9:0.020544726 10:0.14367403 11:0.22465444 12:0.0 13:0.022895327 14:0.02077343 15:1.0 16:0.21413684 17:0.004834842 18:9.1554E-4 19:0.0 20:3.50011E-5 21:1.60383E-7 
-1.0 -1.0 -1.0 -0.0 -1.0 -1.0 -1.0 -1.0 -1.0 -1.0 -1.0 -1.0 -1.0 -1.0 -1.0 -1.0 -1.0 -1.0 -1.0 -0.0 -0.3924923479038415 -1.0 -1.0 -1.0 -1.0 1.0 1.0 1.0 1.0 1.0 1.0 1.0 1.0 1.0 0.0 1.0 1.0 0.3489934401427136 1.0 1.0 0.3601768112996647 1.0 0.8255631598858204 0.0 0.0 1:1.0 2:0.37751052 3:0.3278121 4:0.42902544 5:0.079585835 6:0.18527816 7:0.0 8:1.0 9:0.007411295 10:0.08293945 11:0.14571293 12:0.0 13:0.008800609 14:0.007123488 15:1.0 16:0.16184281 17:0.003177344 18:3.26735E-4 19:5.58951E-5 20:0.0 21:5.59767E-5 
-1.0 -1.0 -1.0 -0.0 -0.0 -1.0 -1.0 -1.0 -1.0 -1.0 -1.0 -1.0 -1.0 -1.0 -1.0 -1.0 -1.0 -1.0 -1.0 -1.0 -0.0 -1.0 -1.0 -1.0 -1.0 0.9326118619381499 1.0 1.0 1.0 1.0 1.0 1.0 0.0 1.0 1.0 1.0 0.0 0.0 0.0 0.0 0.0 0.0 0.0 0.0 0.0 1:1.0 2:0.41133335 3:0.3805499 4:0.47932944 5:0.1063469 6:0.22133888 7:0.0 8:1.0 9:0.009015773 10:0.10191579 11:0.1561258 12:0.0 13:0.009447672 14:0.009050637 15:1.0 16:0.18392786 17:0.00125301 18:3.60792E-4 19:4.91891E-8 20:6.629E-5 21:0.0 
-1.0 -1.0 -1.0 -0.0 -1.0 -1.0 -1.0 -1.0 -1.0 -1.0 -1.0 -1.0 -1.0 -1.0 -1.0 -1.0 -1.0 -1.0 -1.0 -1.0 -0.20442131065684152 -1.0 -1.0 -1.0 -1.0 -1.0 1.0 1.0 1.0 1.0 1.0 1.0 1.0 1.0 1.0 1.0 1.0 0.13888846858024784 1.0 1.0 0.15708362965092526 0.941018929019958 1.0 0.0 0.0 1:1.0 2:0.32100147 3:0.25646544 4:0.40282556 5:0.06413268 6:0.1608212 7:0.0 8:1.0 9:0.012006656 10:0.048654523 11:0.16616718 12:0.0 13:0.014860003 14:0.006428458 15:1.0 16:0.110860586 17:0.006174525 18:1.28387E-4 19:1.59974E-5 20:0.0 21:1.60332E-5 
-1.0 -1.0 -1.0 -1.0 -0.0 -1.0 -1.0 -1.0 -1.0 -1.0 -1.0 -1.0 -1.0 -1.0 -1.0 -1.0 -1.0 -1.0 -1.0 -1.0 -0.7955786893431585 -1.0 -1.0 -1.0 -1.0 -1.0 1.0 1.0 1.0 1.0 1.0 1.0 1.0 1.0 1.0 1.0 0.0 0.8611115314197522 1.0 1.0 0.8429163703490747 0.058981070980042016 0.0 1.0 1.0 1:1.0 2:0.42147565 3:0.4126274 4:0.55141085 5:0.14802362 6:0.26846787 7:0.0 8:1.0 9:0.01448509 10:0.10126112 11:0.1969026 12:0.0 13:0.018072262 14:0.013379366 15:1.0 16:0.17351 17:0.005523996 18:3.40809E-4 19:4.1193E-5 20:0.0 21:4.13471E-5 
-1.0 -0.6942679589534477 -1.0 -0.0 -0.22624148084430623 -1.0 -1.0 -1.0 -1.0 -1.0 -1.0 -1.0 -1.0 -1.0 -1.0 -1.0 -1.0 -1.0 -1.0 -0.8690391315971943 -1.0 -1.0 -0.9332678350573725 -1.0 -1.0 -1.0 -0.5812426776332806 1.0 1.0 1.0 1.0 0.7214827099766771 0.4200435592516677 0.9836696278553154 1.0 0.9411118694613564 0.13136910275921393 1.0 1.0 1.0 1.0 0.1074174551710448 1.0 1.0 0.09955864740263834 1:0.21988368 2:0.18820941 3:0.37032437 4:0.47332132 5:1.0 6:0.4593 7:0.0 8:1.0 9:0.28422305 10:0.5176588 11:0.7982205 12:0.0 13:0.319113 14:0.27849126 15:1.0 16:0.34670973 17:0.07951839 18:0.00716402 19:0.00198532 20:0.0 21:0.002011376 
-1.0 -1.0 -1.0 -0.13764213257012342 -0.7737585191556937 -1.0 -1.0 -1.0 -1.0 -1.0 -1.0 -1.0 -1.0 -1.0 -1.0 -1.0 -1.0 -1.0 -1.0 -1.0 -0.0 -1.0 -1.0 -1.0 -1.0 -1.0 -1.0 1.0 1.0 1.0 1.0 1.0 1.0 1.0 1.0 1.0 0.8686308972407861 0.0 0.0 0.0 0.0 0.8925825448289552 0.0 0.0 0.10030804264537625 1:0.96782345 2:0.50333554 3:0.67180777 4:0.99072003 5:0.65526545 6:0.6321314 7:0.0 8:1.0 9:0.075415 10:0.1809309 11:0.4459704 12:0.0 13:0.10107714 14:0.061973687 15:1.0 16:0.17651074 17:0.066982865 18:0.003754168 19:4.39235E-4 20:0.0 21:4.31416E-4 
-1.0 -0.30573204104655227 -1.0 -0.8623578674298766 -0.0 -1.0 -0.0 -1.0 -1.0 -1.0 -1.0 -0.0 -1.0 -1.0 -0.0 -1.0 -1.0 -1.0 -1.0 -0.1309608684028057 -0.0 -1.0 -0.06673216494262742 -1.0 -1.0 -1.0 -0.41875732236671936 1.0 1.0 1.0 1.0 0.2785172900233229 0.5799564407483323 0.01633037214468453 0.0 0.05888813053864361 0.0 0.0 1.0 1.0 0.0 0.0 0.0 0.0 0.8001333099519854 1:0.7792282 2:0.50662977 3:0.7744811 4:0.9976003 5:0.9616951 6:0.74085134 7:0.0 8:1.0 9:0.105126865 10:0.29529434 11:0.4896709 12:0.0 13:0.12180469 14:0.10979813 15:1.0 16:0.2646029 17:0.058457192 18:0.006098867 19:0.001500207 20:0.0 21:0.001527101 
-0.0 -0.0 -0.0 -0.0 -0.0 -0.9310669155827982 -0.0 -0.0 -0.0 -0.0 -0.0 -0.0 -0.0 -0.0 -0.0 -0.0 -0.0 -0.0 -0.0 -0.0 -0.0 -0.0 -0.0 -0.0 -0.0 -0.0 -0.0 -0.0 0.0 0.10876737989053596 0.0 0.0 0.0 0.0 0.0 0.0 0.0 0.0 0.0 0.0 0.0 0.0 0.0 0.0 0.0 1:0.00928044 2:0.015770337 3:0.04650468 4:0.05812704 5:1.0 6:0.11900612 7:0.0 8:0.8006265 9:0.75634605 10:0.8551588 11:0.89544153 12:0.0 13:0.76238334 14:0.7301863 15:1.0 16:0.8579129 17:0.7215555 18:0.50298804 19:0.36698183 20:0.50739706 21:0.0 
-1.0 -1.0 -1.0 -0.0 -0.0 -1.0 -1.0 -0.7750404920072299 -1.0 -1.0 -1.0 -0.9891885657421017 -1.0 -1.0 -1.0 -1.0 -1.0 -0.8362168936487075 -0.9858446278134539 -1.0 -0.0 -1.0 -1.0 -1.0 -1.0 -1.0 -1.0 -1.0 1.0 0.2635303398492149 1.0 1.0 1.0 1.0 1.0 1.0 0.0 0.10282673906647696 0.0 0.0 0.0 0.0 0.0 0.0 0.0 1:0.059720512 2:0.06926426 3:0.14137495 4:0.19133525 5:1.0 6:0.25811234 7:0.0 8:0.87196517 9:0.6252181 10:0.8141463 11:1.0 12:0.0 13:0.65395993 14:0.62860644 15:1.0 16:0.49605426 17:0.34294704 18:0.17200002 19:0.039220523 20:0.101565845 21:0.0 
-0.06485994216824842 -0.0 -0.0 -0.0 -0.0 -0.0 -0.0 -0.0 -0.0 -0.0 -0.0 -0.0 -0.0 -0.0 -0.0 -1.0 -0.0 -0.0 -0.0 -0.0 -0.0 -1.0 -0.0 -0.0 -0.7630357818473164 -0.0 -0.0 -0.0 0.0 0.0 0.0 0.0 0.0 0.0 0.0 0.0 0.0 0.0 0.0 0.0 0.0 0.0 0.0 0.0 0.0 1:0.047305606 2:0.060047876 3:0.10767475 4:0.15181749 5:1.0 6:0.22927402 7:0.0 8:0.8286747 9:0.69643915 10:0.8767359 11:0.9639954 12:0.0 13:0.7047309 14:0.6755037 15:1.0 16:0.60493296 17:0.8062165 18:0.48848888 19:0.3036101 20:0.36605716 21:0.0 
-0.9351400578317516 -0.0 -0.8366804440335951 -0.0 -0.0 -1.0 -0.0 -1.0 -0.0 -1.0 -1.0 -0.0 -0.24920622519363464 -1.0 -0.0 -1.0 -0.17927910268004985 -1.0 -1.0 -0.0 -1.0 -0.1553120238137425 -0.0 -0.0 -0.2369642181526836 -0.0 -0.0 -0.0 0.0 1.0 0.16633377042980493 0.0 0.0 0.0 0.0 0.0 0.0 0.7714402614612139 1.0 1.0 0.8501805690839394 0.0 0.0 0.033985980162988545 0.0 1:5.69247E-4 2:0.001039553 3:0.005768565 4:0.006133076 5:1.0 6:0.025539886 7:0.0 8:0.910786 9:0.9089145 10:0.92569125 11:0.9293642 12:0.0 13:0.9105277 14:0.941765 15:0.4941151 16:1.0 17:0.07085683 18:0.0631306 19:0.019825129 20:0.13374916 21:0.0 
-0.3633494448793175 -0.0 -0.5333137509971095 -0.0 -0.0 -1.0 -0.0 -0.0 -1.0 -0.0 -0.0 -0.0 -0.23587346762645345 -0.0 -0.0 -1.0 -0.0 -0.0 -0.0 -0.0 -0.0 -1.0 -0.0 -1.0 -1.0 -0.0 -0.0 -0.0 0.0 0.0 0.0 0.0 0.0 0.0 0.0 0.0 0.0 0.0 0.0 0.0 0.0 0.0 0.0 0.0 0.0 1:0.03473761 2:0.045293946 3:0.09570996 4:0.12669185 5:1.0 6:0.19841538 7:0.0 8:0.86235005 9:0.73060566 10:0.8955162 11:0.9997439 12:0.0 13:0.7439601 14:0.7300158 15:1.0 16:0.6257129 17:0.59296757 18:0.34904337 19:0.16244397 20:0.26137862 21:0.0 
-1.0 -0.0 -1.0 -0.0 -0.0 -0.0 -0.0 -0.0 -0.6824750012914145 -1.0 -0.0 -0.010811434257898272 -0.8889171286626107 -1.0 -0.0 -0.0 -0.8207208973199501 -1.0 -0.480700713171386 -0.0 -0.0 -0.0 -0.0 -0.0 -0.0 -0.3265039428640804 -0.0 -0.04326348121105054 0.399191447584141 0.0 0.8336662295701951 0.0 0.0 0.0 0.0 0.0 0.0 0.0 0.0 0.0 0.0 0.0 0.35261015006554636 0.0 0.0 1:0.031763908 2:0.044905912 3:0.07895627 4:0.112307124 5:1.0 6:0.19283248 7:0.0 8:0.73760617 9:0.6710212 10:0.8159117 11:0.8501653 12:0.0 13:0.66992044 14:0.57666475 15:0.7735983 16:0.5705259 17:1.0 18:0.68180704 19:0.8053339 20:0.60812354 21:0.0 
-1.0 -1.0 -1.0 -1.0 -1.0 -0.06893308441720178 -1.0 -1.0 -1.0 -1.0 -0.0 -1.0 -1.0 -1.0 -1.0 -1.0 -1.0 -0.1637831063512925 -1.0 -1.0 -0.0 -1.0 -1.0 -1.0 -1.0 -1.0 -1.0 -1.0 1.0 0.11224894894757188 1.0 1.0 1.0 1.0 1.0 1.0 1.0 0.0 0.0 0.0 0.0 1.0 0.1962984615746973 0.9660140198370114 1.0 1:0.20154096 2:0.17776567 3:0.2716022 4:0.423608 5:1.0 6:0.43867898 7:0.0 8:0.96730864 9:0.44601044 10:0.66002935 11:0.9764835 12:0.0 13:0.4951791 14:0.41885817 15:1.0 16:0.32275167 17:0.29149875 18:0.11212098 19:0.016288262 20:0.046925183 21:0.0 
-0.0 -0.0 -0.0 -0.0 -0.0 -1.0 -0.0 -0.2249595079927701 -0.0 -0.0 -1.0 -0.0 -0.0 -0.0 -0.0 -1.0 -0.0 -0.0 -0.53345465901516 -0.0 -0.0 -0.8446879761862575 -0.0 -0.0 -0.0 -0.0 -0.0 -0.0 0.0 1.0 0.0 0.0 0.0 0.0 0.0 0.0 0.0 0.12573299947230912 0.9102698151894983 0.0 0.14981943091606062 0.0 0.0 0.0 0.0 1:0.009917121 2:0.016377136 3:0.051022608 4:0.06295796 5:1.0 6:0.12377571 7:0.0 8:0.8388898 9:0.78043234 10:0.8848355 11:0.94739485 12:0.0 13:0.7938038 14:0.78280365 15:1.0 16:0.7970601 17:0.41629386 18:0.2877123 19:0.11662453 20:0.27100322 21:0.0 
-1.0 -0.0 -1.0 -0.0 -0.0 -1.0 -0.0 -0.0 -1.0 -0.0 -1.0 -0.0 -1.0 -1.0 -0.0 -1.0 -1.0 -0.0 -0.0 -0.0 -0.0 -1.0 -0.0 -1.0 -1.0 -0.6734960571359196 -0.0 -0.9567365187889495 0.6008085524158591 0.5154533313126772 1.0 0.0 0.0 0.0 0.0 0.0 0.0 0.0 0.0 0.0 0.0 0.0 0.0 0.0 0.0 1:0.029178286 2:0.039215066 3:0.09269591 4:0.11953051 5:1.0 6:0.18963662 7:0.0 8:0.8627943 9:0.72407997 10:0.8862802 11:1.0 12:0.0 13:0.741321 14:0.73249537 15:1.0 16:0.62637985 17:0.4160964 18:0.25303528 19:0.08388967 20:0.18770668 21:0.0 
-0.0 -0.0 -0.0 -0.0 -0.0 -1.0 -0.0 -1.0 -0.0 -1.0 -1.0 -0.0 -0.0 -1.0 -0.0 -1.0 -0.0 -1.0 -1.0 -0.0 -0.0 -0.0 -0.0 -0.0 -0.0 -0.0 -0.0 -0.0 0.0 1.0 0.0 0.0 0.0 0.0 0.0 0.0 0.0 0.0 0.08973018481050174 1.0 0.0 0.0 0.4510913883597564 0.0 0.0 1:2.07084E-4 2:3.25406E-4 3:0.001972932 4:0.00204281 5:1.0 6:0.012123268 7:0.0 8:0.92736197 9:0.92705435 10:0.93320405 11:0.9338528 12:0.0 13:0.92737657 14:0.9496574 15:0.3261249 16:1.0 17:0.09105645 18:0.07057857 19:0.057013407 20:0.22148672 21:0.0 
-1.0 -1.0 -1.0 -0.0 -0.0 -1.0 -1.0 -1.0 -1.0 -1.0 -1.0 -1.0 -1.0 -1.0 -1.0 -1.0 -1.0 -1.0 -1.0 -1.0 -0.0 -1.0 -1.0 -1.0 -1.0 -1.0 -1.0 -1.0 -1.0 1.0 1.0 1.0 1.0 1.0 1.0 1.0 0.0 0.0 1.0 1.0 0.0 0.0 0.0 0.0 0.0 1:1.0 2:0.17847553 3:0.08532242 4:0.18637443 5:0.008365253 6:0.04697178 7:0.0 8:1.0 9:0.016524665 10:0.006266828 11:0.09783262 12:0.0 13:0.008031896 14:7.68545E-4 15:1.0 16:0.040743124 17:0.001341991 18:6.82575E-5 19:5.41909E-6 20:0.0 21:5.42395E-6 
-1.0 -0.0 -1.0 -0.0 -1.0 -1.0 -0.0 -1.0 -1.0 -1.0 -1.0 -1.0 -1.0 -1.0 -0.0 -1.0 -1.0 -1.0 -1.0 -0.0 -0.0 -1.0 -0.0 -1.0 -1.0 -1.0 -0.0 -1.0 -1.0 1.0 1.0 0.0 0.0 0.0 0.0 0.0 0.0 0.0 0.0 0.0 0.0 0.0 0.0 0.0 0.0 1:1.0 2:0.15693189 3:0.067781806 4:0.17134655 5:0.006431938 6:0.040053844 7:0.0 8:1.0 9:0.02239548 10:0.003185471 11:0.099358685 12:1.64657E-5 13:0.00912008 14:4.87306E-4 15:1.0 16:0.028540593 17:0.002062641 18:1.25396E-4 19:8.48811E-6 20:0.0 21:8.50294E-6 
-1.0 -1.0 -1.0 -1.0 -0.0 -1.0 -1.0 -1.0 -1.0 -1.0 -1.0 -0.0 -1.0 -1.0 -1.0 -1.0 -1.0 -1.0 -1.0 -1.0 -1.0 -1.0 -1.0 -1.0 -1.0 -1.0 -1.0 -1.0 -1.0 1.0 1.0 1.0 1.0 1.0 1.0 1.0 1.0 1.0 1.0 1.0 1.0 1.0 1.0 1.0 1.0 1:1.0 2:0.17921332 3:0.08584746 4:0.19041893 5:0.00876716 6:0.048387617 7:0.0 8:1.0 9:0.016881661 10:0.005805637 11:0.10051112 12:0.0 13:0.00837755 14:7.92897E-4 15:1.0 16:0.04054364 17:5.32207E-4 18:7.41408E-5 19:1.30003E-6 20:0.0 21:1.29759E-6 
-1.0 -0.0 -1.0 -0.0 -0.0 -1.0 -0.0 -1.0 -0.795819636774702 -1.0 -1.0 -0.0 -0.6526139236826117 -1.0 -0.0 -1.0 -0.6415625220475522 -1.0 -1.0 -0.0 -0.7198739504396047 -1.0 -0.0 -1.0 -1.0 -0.0 -0.0 -0.0 -1.0 -0.0 0.6667389977131177 0.0 0.0 0.0 0.0 0.0 0.0 0.14660252781207156 0.6673412721682718 1.0 0.4034523801403734 0.0 0.0 0.0 0.0 1:1.83832E-4 2:4.43621E-4 3:0.00344475 4:0.003583631 5:1.0 6:0.01819451 7:0.0 8:0.9137338 9:0.91288453 10:0.92433053 11:0.9252668 12:0.0 13:0.9128454 14:0.9134862 15:0.40220407 16:1.0 17:0.13586858 18:0.10135945 19:0.07879755 20:0.23281603 21:0.0 
-1.0 -0.5853603523603168 -1.0 -0.0 -0.0 -1.0 -0.6241253152417149 -1.0 -1.0 -1.0 -1.0 -0.6326039853656804 -1.0 -1.0 -0.6274754614665103 -1.0 -1.0 -1.0 -1.0 -0.3965030369765212 -0.0 -1.0 -0.6153814276749665 -1.0 -1.0 -1.0 -0.5661877360612841 -1.0 -1.0 -1.0 1.0 0.5774529653441315 0.5449010762618549 0.6133999928959614 0.316219704235191 0.6165636581063001 0.0 0.0 0.0503502386052237 0.5206419682923075 0.0 0.0 0.6861760922031552 0.0 0.0 1:1.1294E-4 2:5.85445E-4 3:0.005199786 4:0.00533965 5:1.0 6:0.02439493 7:0.0 8:0.85493946 9:0.8533044 10:0.8717389 11:0.87117004 12:0.0 13:0.85166913 14:0.7997642 15:0.44126987 16:1.0 17:0.2961644 18:0.2986673 19:0.47995102 20:0.6941257 21:0.0 
-1.0 -1.0 -1.0 -1.0 -1.0 -1.0 -1.0 -1.0 -1.0 -1.0 -1.0 -1.0 -1.0 -1.0 -1.0 -1.0 -1.0 -1.0 -1.0 -1.0 -0.0 -1.0 -1.0 -1.0 -1.0 -1.0 -1.0 -1.0 -1.0 -1.0 1.0 1.0 1.0 1.0 1.0 1.0 1.0 0.0 0.28230848922650453 0.0 0.0 1.0 0.3138239077968447 1.0 1.0 1:0.03852391 2:0.053365607 3:0.15224154 4:0.1629183 5:1.0 6:0.23412819 7:0.0 8:0.9565799 9:0.61672866 10:0.97479296 11:0.9980403 12:0.0 13:0.60613656 14:0.6389277 15:1.0 16:0.68593806 17:0.009921221 18:0.003969523 19:2.52031E-5 20:0.001988062 21:0.0 
-1.0 -0.4146396476396832 -1.0 -0.0 -0.0 -1.0 -0.3758746847582851 -1.0 -1.0 -1.0 -1.0 -0.3673960146343196 -1.0 -1.0 -0.37252453853348966 -1.0 -1.0 -1.0 -1.0 -0.6034969630234788 -0.28012604956039533 -1.0 -0.3846185723250335 -1.0 -1.0 -1.0 -0.43381226393871586 -1.0 -1.0 -1.0 1.0 0.4225470346558685 0.4550989237381451 0.38660000710403863 0.6837802957648089 0.3834363418936999 0.0 0.8533974721879285 1.0 0.47935803170769253 0.5965476198596267 0.0 0.0 0.0 0.0 1:0.001465237 2:0.005396274 3:0.03129402 4:0.0347378 5:1.0 6:0.08429445 7:0.0 8:0.91452223 9:0.87623775 10:0.9723205 11:1.0 12:0.0 13:0.8806294 14:0.866024 15:0.9444084 16:1.0 17:0.12034822 18:0.028017554 19:3.13683E-4 20:0.018722592 21:0.0 
-1.0 -1.0 -1.0 -1.0 -0.0 -1.0 -1.0 -1.0 -1.0 -1.0 -1.0 -0.0 -1.0 -1.0 -0.7256066183746982 -1.0 -1.0 -1.0 -1.0 -1.0 -0.38477219649289474 -1.0 -1.0 -1.0 -1.0 -1.0 -1.0 -1.0 -1.0 -0.7069876266758534 -1.0 1.0 1.0 1.0 1.0 1.0 1.0 0.5100146459248703 1.0 1.0 0.459189328266635 1.0 0.0 1.0 1.0 1:1.0 2:0.23444892 3:0.15109055 4:0.26208267 5:0.020935573 6:0.080728285 7:0.0 8:1.0 9:0.010679731 10:0.028530069 11:0.120168 12:0.0 13:0.009277419 14:0.002153873 15:1.0 16:0.07039556 17:0.016870413 18:0.00165937 19:7.52847E-5 20:0.0 21:7.2945E-5 
-1.0 -1.0 -1.0 -0.0 -0.0 -0.6484365675903894 -1.0 -0.9100412734592913 -1.0 -1.0 -0.4740955270026205 -1.0 -1.0 -1.0 -1.0 -1.0 -1.0 -0.45422284534160123 -1.0 -0.0 -0.0 -1.0 -1.0 -1.0 -1.0 -1.0 -1.0 -1.0 -1.0 -1.0 -0.6667389977131177 0.0 0.0 0.0 0.0 0.0 0.0 0.0 0.0 0.0 0.0 0.0 0.0 0.0 0.0 1:1.0 2:0.14585601 3:0.06595301 4:0.18047705 5:0.006733806 6:0.04138582 7:0.0 8:1.0 9:0.029650778 10:0.007993274 11:0.11513468 12:5.44615E-5 13:0.012271725 14:2.58213E-4 15:1.0 16:0.020573916 17:0.013519077 18:6.67217E-4 19:3.44574E-5 20:0.0 21:3.41444E-5 
-1.0 -0.0 -1.0 -0.0 -0.0 -1.0 -0.0 -1.0 -1.0 -1.0 -1.0 -1.0 -1.0 -1.0 -0.0 -1.0 -1.0 -1.0 -1.0 -0.0 -0.0 -1.0 -0.0 -1.0 -1.0 -0.0 -0.0 -0.0 -1.0 -0.29301237332414665 -1.0 0.0 0.0 0.0 0.0 0.0 0.0 0.0 0.0 0.0 0.0 0.0 0.0 0.0 0.0 1:1.0 2:0.11646601 3:0.044781238 4:0.15943804 5:0.004366532 6:0.0321702 7:0.0 8:1.0 9:0.04252958 10:0.009041098 11:0.11914191 12:7.64159E-4 13:0.014973561 14:3.46829E-4 15:1.0 16:0.008613147 17:0.014288094 18:0.001086854 19:3.99386E-6 20:0.0 21:2.83241E-6 
-1.0 -0.0 -1.0 -0.0 -1.0 -1.0 -0.0 -1.0 -1.0 -1.0 -1.0 -0.0 -1.0 -1.0 -0.2743933816253018 -1.0 -1.0 -1.0 -1.0 -1.0 -0.6152278035071053 -1.0 -0.0 -1.0 -1.0 -1.0 -0.0 -1.0 -1.0 -1.0 -1.0 1.0 1.0 1.0 1.0 1.0 0.0 0.48998535407512966 1.0 1.0 0.540810671733365 0.0 1.0 0.0 0.0 1:1.0 2:0.13063225 3:0.05957886 4:0.18407482 5:0.006604274 6:0.040264104 7:0.0 8:1.0 9:0.039211225 10:0.013565489 11:0.13119416 12:0.001088293 13:0.016633285 14:8.52258E-4 15:1.0 16:0.012791298 17:0.022190604 18:0.00289627 19:6.56492E-6 20:3.18801E-5 21:0.0 
-1.0 -1.0 -1.0 -0.0 -1.0 -1.0 -1.0 -1.0 -1.0 -1.0 -1.0 -1.0 -1.0 -1.0 -1.0 -1.0 -1.0 -1.0 -1.0 -1.0 -0.0 -1.0 -1.0 -1.0 -1.0 -1.0 -1.0 -1.0 -1.0 -1.0 -1.0 -1.0 1.0 1.0 1.0 1.0 1.0 0.0 1.0 1.0 0.0 0.0 1.0 0.0 0.0 1:1.0 2:0.2807182 3:0.21598971 4:0.4062845 5:0.060575712 6:0.15455033 7:0.0 8:1.0 9:0.020194072 10:0.035184886 11:0.19755603 12:0.0 13:0.022508513 14:0.005935889 15:1.0 16:0.07712451 17:0.016988227 18:1.19978E-4 19:0.0 20:1.76184E-5 21:3.02354E-8 
-1.0 -1.0 -1.0 -1.0 -0.0 -1.0 -1.0 -1.0 -1.0 -1.0 -1.0 -1.0 -1.0 -1.0 -1.0 -1.0 -1.0 -1.0 -1.0 -1.0 -1.0 -1.0 -1.0 -1.0 -1.0 -1.0 -1.0 -1.0 -1.0 -1.0 -1.0 -1.0 1.0 1.0 1.0 1.0 0.0 1.0 1.0 1.0 1.0 1.0 0.0 1.0 1.0 1:1.0 2:0.32355502 3:0.2782446 4:0.46678504 5:0.08973321 6:0.195444 7:0.0 8:1.0 9:0.018130174 10:0.056047466 11:0.20841424 12:0.0 13:0.023169627 14:0.00905467 15:1.0 16:0.10276727 17:0.021036768 18:3.46515E-4 19:3.58992E-7 20:2.2729E-5 21:0.0 
-1.0 -1.0 -1.0 -1.0 -0.0 -1.0 -1.0 -1.0 -1.0 -1.0 -1.0 -1.0 -1.0 -1.0 -1.0 -1.0 -1.0 -1.0 -1.0 -1.0 -0.5116444743795658 -1.0 -1.0 -1.0 -1.0 -1.0 -1.0 -1.0 -1.0 -1.0 -1.0 -1.0 -1.0 1.0 1.0 1.0 0.0 0.5367356983724011 1.0 1.0 0.5300928153241505 0.0 0.07560119016779293 1.0 1.0 1:1.0 2:0.52687794 3:0.59744805 4:0.68828076 5:0.2701606 6:0.39016017 7:0.0 8:1.0 9:0.021812866 10:0.1912371 11:0.20475547 12:0.0 13:0.014806942 14:0.020560173 15:1.0 16:0.26089585 17:0.002396754 18:9.82418E-4 19:3.47405E-7 20:2.30709E-4 21:0.0 
-1.0 -1.0 -1.0 -0.0 -1.0 -1.0 -1.0 -1.0 -1.0 -1.0 -1.0 -1.0 -1.0 -1.0 -1.0 -1.0 -1.0 -1.0 -1.0 -1.0 -0.48835552562043416 -1.0 -1.0 -1.0 -1.0 -1.0 -1.0 -1.0 -1.0 -1.0 -1.0 -1.0 -1.0 1.0 1.0 1.0 1.0 0.4632643016275989 1.0 1.0 0.46990718467584947 1.0 0.9243988098322071 0.0 0.0 1:1.0 2:0.32619253 3:0.27199346 4:0.4252533 5:0.07334431 6:0.17259811 7:0.0 8:1.0 9:0.018870853 10:0.058288675 11:0.18263467 12:0.0 13:0.018570201 14:0.00109719 15:1.0 16:0.11626413 17:0.008995449 18:0.002452938 19:3.05631E-6 20:4.22177E-4 21:0.0 
-1.0 -1.0 -1.0 -1.0 -0.0 -1.0 -1.0 -1.0 -1.0 -1.0 -1.0 -1.0 -1.0 -1.0 -1.0 -1.0 -1.0 -1.0 -1.0 -1.0 -1.0 -1.0 -1.0 -1.0 -1.0 -1.0 -1.0 -1.0 -1.0 -1.0 -1.0 -1.0 -1.0 -1.0 1.0 1.0 1.0 1.0 1.0 1.0 1.0 1.0 0.0 1.0 1.0 1:1.0 2:0.21722768 3:0.14072469 4:0.28428006 5:0.025078515 6:0.08760612 7:0.0 8:1.0 9:0.023583936 10:0.024754949 11:0.15333499 12:8.01791E-4 13:0.017657569 14:0.003745912 15:1.0 16:0.04857567 17:0.02698247 18:0.001875144 19:1.50176E-4 20:0.0 21:1.5176E-4 
-1.0 -1.0 -1.0 -0.0 -1.0 -1.0 -1.0 -1.0 -1.0 -1.0 -1.0 -1.0 -1.0 -1.0 -1.0 -1.0 -1.0 -1.0 -1.0 -1.0 -0.0 -1.0 -1.0 -1.0 -1.0 -1.0 -1.0 -1.0 -1.0 -1.0 -1.0 -1.0 -1.0 -1.0 1.0 1.0 0.0 0.0 1.0 1.0 0.0 0.0 1.0 0.0 0.0 1:1.0 2:0.19203624 3:0.11032307 4:0.25447085 5:0.018238615 6:0.07268858 7:0.0 8:1.0 9:0.028413069 10:0.015068962 11:0.14821367 12:2.9867E-4 13:0.017310979 14:0.002020486 15:1.0 16:0.03515131 17:0.01986552 18:0.00121631 19:1.90495E-6 20:9.9077E-5 21:0.0 
-1.0 -1.0 -1.0 -0.2590780619448645 -0.017732835651509234 -1.0 -1.0 -1.0 -1.0 -1.0 -1.0 -1.0 -1.0 -1.0 -1.0 -1.0 -1.0 -1.0 -1.0 -1.0 -1.0 -1.0 -1.0 -1.0 -1.0 -1.0 -1.0 -1.0 -1.0 -1.0 -1.0 -1.0 -1.0 -1.0 -1.0 1.0 0.0 1.0 1.0 1.0 1.0 0.0 0.986102210027738 0.8840895359976502 0.32185594264141876 1:0.104925364 2:0.11620449 3:0.2575025 4:0.2960798 5:1.0 6:0.34863374 7:0.0 8:1.0 9:0.4387394 10:0.8309471 11:0.91049093 12:0.0 13:0.43456885 14:0.40892896 15:1.0 16:0.5265377 17:0.060218256 18:0.03663773 19:0.001234812 20:0.021717098 21:0.0 
-1.0 -1.0 -1.0 -0.7409219380551355 -0.9822671643484908 -1.0 -1.0 -1.0 -1.0 -1.0 -1.0 -1.0 -1.0 -1.0 -1.0 -1.0 -1.0 -1.0 -1.0 -1.0 -0.0 -1.0 -1.0 -1.0 -1.0 -1.0 -1.0 -1.0 -1.0 -1.0 -1.0 -1.0 -1.0 -1.0 -1.0 1.0 1.0 0.0 1.0 1.0 0.0 1.0 0.013897789972261987 0.11591046400234983 0.6781440573585813 1:1.0 2:0.47216064 3:0.5138328 4:0.6587973 5:0.24087913 6:0.35391274 7:0.0 8:1.0 9:0.02111246 10:0.14420865 11:0.2302162 12:0.0 13:0.023493644 14:0.020866573 15:1.0 16:0.20393784 17:0.016333014 18:0.006341214 19:2.83363E-5 20:0.001605757 21:0.0 
-1.0 -1.0 -1.0 -1.0 -0.0 -1.0 -1.0 -1.0 -1.0 -1.0 -1.0 -1.0 -1.0 -1.0 -1.0 -1.0 -1.0 -1.0 -1.0 -1.0 -1.0 -1.0 -1.0 -1.0 -1.0 -1.0 -1.0 -1.0 -1.0 -1.0 -1.0 -1.0 -1.0 -1.0 -1.0 -1.0 0.0 0.0 1.0 1.0 0.0 0.0 0.0 0.0 0.0 1:1.0 2:0.2451788 3:0.15129021 4:0.2534887 5:0.019830544 6:0.07922418 7:0.0 8:1.0 9:0.007984262 10:0.023637215 11:0.108065166 12:0.0 13:0.007171274 14:0.002035155 15:1.0 16:0.079842836 17:0.00141229 18:2.19077E-4 19:3.73801E-8 20:2.80647E-5 21:0.0 
-1.0 -1.0 -1.0 -0.0 -1.0 -1.0 -1.0 -1.0 -1.0 -1.0 -1.0 -1.0 -1.0 -1.0 -1.0 -1.0 -1.0 -1.0 -1.0 -1.0 -0.0 -1.0 -1.0 -1.0 -1.0 -1.0 -1.0 -1.0 -1.0 -1.0 -1.0 -1.0 -1.0 -1.0 -1.0 -1.0 1.0 1.0 1.0 1.0 1.0 1.0 1.0 1.0 1.0 1:1.0 2:0.24114786 3:0.14721139 4:0.25278026 5:0.019492712 6:0.078401364 7:0.0 8:1.0 9:0.008775937 10:0.02177129 11:0.10998193 12:0.0 13:0.007595283 14:0.002022774 15:1.0 16:0.07640406 17:0.001084676 18:3.21778E-4 19:3.70226E-8 20:1.34754E-5 21:0.0 
-1.0 -1.0 -1.0 -1.0 -1.0 -1.0 -1.0 -1.0 -1.0 -1.0 -1.0 -1.0 -1.0 -1.0 -1.0 -1.0 -1.0 -1.0 -1.0 -1.0 -1.0 -1.0 -1.0 -1.0 -1.0 -1.0 -1.0 -1.0 -1.0 -1.0 -1.0 -1.0 -1.0 -1.0 -1.0 -1.0 -1.0 1.0 1.0 1.0 1.0 1.0 1.0 1.0 1.0 1:1.0 2:0.29605168 3:0.22074433 4:0.35669622 5:0.0471765 6:0.13257003 7:0.0 8:1.0 9:0.009079271 10:0.042722713 11:0.14806099 12:0.0 13:0.0110963 14:0.00438231 15:1.0 16:0.10338253 17:0.004326709 18:0.003201258 19:2.10681E-6 20:4.12531E-4 21:0.0 
-1.0 -1.0 -1.0 -1.0 -1.0 -1.0 -1.0 -1.0 -1.0 -1.0 -1.0 -1.0 -1.0 -1.0 -1.0 -1.0 -1.0 -1.0 -1.0 -1.0 -1.0 -1.0 -1.0 -1.0 -1.0 -1.0 -1.0 -1.0 -1.0 -1.0 -1.0 -1.0 -1.0 -1.0 -1.0 -1.0 -1.0 -1.0 1.0 1.0 1.0 1.0 1.0 1.0 1.0 1:6.21195E-4 2:0.002797305 3:0.018735578 4:0.02124141 5:1.0 6:0.060359687 7:0.0 8:0.93593085 9:0.91929823 10:0.9712943 11:1.0 12:0.0 13:0.93022656 14:0.8726429 15:0.85359657 16:1.0 17:0.017579826 18:0.020373523 19:6.76735E-4 20:0.025569549 21:0.0 
-1.0 -1.0 -1.0 -0.0 -0.0 -1.0 -1.0 -1.0 -1.0 -1.0 -1.0 -1.0 -1.0 -1.0 -1.0 -1.0 -1.0 -1.0 -1.0 -1.0 -0.5247610253253305 -1.0 -1.0 -1.0 -1.0 -1.0 -1.0 -1.0 -1.0 -1.0 -1.0 -1.0 -1.0 -1.0 -1.0 -1.0 -1.0 -0.0 -0.8499247593153098 1.0 0.5942218574189025 0.0 0.0 0.24897399066331505 0.0 1:0.004080287 2:0.00700238 3:0.027488556 4:0.031083325 5:1.0 6:0.07538094 7:0.001307335 8:0.9209364 9:0.8946222 10:0.96010536 11:1.0 12:0.0 13:0.90726805 14:0.9343627 15:0.952024 16:1.0 17:0.061503332 18:0.0122526 19:6.34813E-4 20:2.54815E-4 21:0.0 
-1.0 -1.0 -1.0 -1.0 -1.0 -1.0 -1.0 -1.0 -1.0 -1.0 -1.0 -1.0 -1.0 -1.0 -1.0 -1.0 -1.0 -1.0 -1.0 -1.0 -0.4752389746746695 -1.0 -1.0 -1.0 -1.0 -1.0 -1.0 -1.0 -1.0 -1.0 -1.0 -1.0 -1.0 -1.0 -1.0 -1.0 -1.0 -1.0 -0.15007524068469022 1.0 0.40577814258109746 1.0 1.0 0.751026009336685 1.0 1:0.001699314 2:0.003850758 3:0.019073194 4:0.020680409 5:1.0 6:0.058932927 7:0.0 8:0.8571298 9:0.84358317 10:0.89772886 11:0.9094663 12:0.0 13:0.8458112 14:0.85677713 15:0.75626785 16:1.0 17:0.1687123 18:0.15084457 19:0.048867244 20:0.21597016 21:0.0 
-1.0 -1.0 -1.0 -1.0 -1.0 -1.0 -1.0 -1.0 -1.0 -1.0 -1.0 -1.0 -1.0 -1.0 -1.0 -1.0 -1.0 -1.0 -1.0 -1.0 -0.0 -1.0 -1.0 -1.0 -1.0 -1.0 -1.0 -1.0 -1.0 -1.0 -1.0 -1.0 -1.0 -1.0 -1.0 -1.0 -1.0 -1.0 -0.3499062180288735 -1.0 0.34119586222575876 1.0 1.0 0.9569064737978856 1.0 1:1.09193E-5 2:6.87051E-5 3:0.001028587 4:0.001044388 5:1.0 6:0.008152481 7:0.0 8:0.93101764 9:0.9308953 10:0.93468326 11:0.9347315 12:0.0 13:0.93077254 14:0.9199398 15:0.25887117 16:1.0 17:0.102195114 18:0.09814011 19:0.15061653 20:0.38258597 21:0.0 
