svm_type c_svc
kernel_type linear
nr_class 45
total_sv 159
rho -0.6721381289159243 -0.06779348850250244 0.8274029493331909 1.0521334409713745 -0.7765148586006363 -0.8729250431060791 -0.6596993130775436 -0.4778149493057703 -0.39725313334622087 -0.6442510386330443 -0.5600597910070282 -0.38128343684685173 -0.27269472926755267 -1.0853532552719116 -1.1839789152145386 -0.588766090950784 -0.6486775761541719 -0.5377693595378268 -0.6587454408583031 -1.0621472597122192 -1.5520430486427492 -0.9475692441733073 0.24650001525878906 -0.6770589351654053 -0.4540578911620359 -0.6597192232071831 -1.202795831031831 -1.0710459560344523 0.26920604705810547 -0.9805001832843961 -1.068337479204171 -0.9571391039204795 -0.999968888791072 -0.6195158392227429 -1.0163226127624512 -1.4185810089111328 -0.6308223659421623 -0.7727640867233276 -1.0007472421003265 -0.9010406732559204 -1.711218456776362 -1.2543039321899414 -0.600347300284219 -0.768263992495279 0.6734084533113294 1.7657671928911889 0.6917574438633998 1.908551057975378 0.6935702357247941 -1.2546301675328508 1.0304525516290832 1.3975956438461599 -1.042808166928411 1.4919048646845887 0.3401207861040026 0.6177178815250866 0.6717265083172254 0.672468297862479 -1.1295103298329936 -0.18269687870713733 1.4910170043325501 -1.5509854810935053 0.6629805639058435 0.21277098620727694 1.2728835704841408 0.6710363469053369 0.6704955643811491 -0.4302047160701118 0.018895149230955366 0.9633990547176463 -0.24225044250488298 0.6820395548868325 -0.21014402611425131 0.8709978431227855 1.0782628772781415 0.6773760728649117 -1.2768762111663818 0.6806704024863341 0.47202794162492984 -1.2964820861816406 0.6760789133229387 0.6752564712091846 0.6919392523286925 0.154817041363641 0.5925521128189473 -1.1116158962249756 -0.4440314769744873 0.9850527752250815 1.0894109010696411 -0.5950467170223281 -0.7057034969329834 -0.6318666822270975 -0.5065387418536592 -0.45319723341919027 -0.6138845672056077 -0.5205387471747809 -0.3724473975305642 -0.2643500500027334 -1.0011618887574987 -1.0607953071594238 -0.5511736831860565 -0.6224432258144388 -0.3712760354056681 -0.6318470239643785 -0.9976728562600656 -1.5491577972714903 -0.9029294284423875 0.40786850452423096 -0.6874710321426392 -0.43382311873942736 -0.6340419451186471 -1.1663787532739858 -1.1191433668136597 0.44702303409576416 -0.9311971664428711 -1.0321687219188511 -0.7969174960002672 -0.9980485783824502 -0.5917773157061468 -0.999733612714774 -1.2799208164215088 -0.6031664666545913 -0.8075922727584839 -0.9946209887025816 -0.9908746480941772 -1.5338171357952597 -1.1221753358840942 -0.5666449007574961 -0.7932647466659546 -0.6051930538192369 -1.268641710281372 -1.5524149974031267 -1.3829996362785184 -1.104215376344925 -0.6200186621310263 -1.3752622257414997 -1.6413293266023343 -0.9248184549549727 -0.6804538257628333 -1.027483744990557 -1.1024844102354154 -1.5742728802732016 -1.62650247989801 -1.5693125838314819 -1.590944843425854 -0.997545185766326 -1.8056924026270997 -1.1115291055127887 -0.5045299223509654 -0.5569905949421169 -0.6011664155557369 -1.5876904805960994 -1.9983777664926026 -1.6865023809825683 -0.5254037902580453 -1.8817475098934924 -1.9130431776155725 -1.6912479254540413 -0.9727813005447388 -1.4163570321486556 -0.9999999376543851 -1.4268904292125255 -1.4457626775992827 -0.6374089680768756 -0.9386398792266846 -0.8731861527168034 -2.1822818858686373 -1.1879884803206944 -1.391028333958732 -1.5538354516917752 -0.7667558705699556 -1.4971767663955688 -0.6671075771903173 -0.5214219458102914 -0.4290619000238378 -0.6517331810220709 -0.579162364632827 -0.380809698437315 -0.27014765794570605 -1.0924235582351685 -1.2021671533584595 -0.6017260254219035 -0.6610836599150809 -0.5670848148051157 -0.6683366479672961 -1.0656741857528687 -1.53892699287219 -0.924277504509923 -0.8197171688079834 -0.8066576719284058 -0.45777001404421097 -0.6699401143107868 -1.1707259298779933 -1.065735720617694 -0.7710627317428589 -0.9727281838554557 -1.050098189803889 -0.9537420534574708 -1.001848578453064 -0.6260648326486923 -1.018514633178711 -1.414027214050293 -0.6375804579978144 -0.8891118764877319 -1.0050750235944794 -0.9549938440322876 -1.6524551300644248 -1.2634248733520508 -0.6074008665449675 -0.77703596029945 0.32390532823721413 -1.4129015050866345 -0.06826907396316528 -0.17778359001659166 -1.41242284021937 -1.680815270686373 -0.8891797205070593 -0.6265710845518051 -0.9466601939484911 -0.748862515556989 -1.5719583803983976 -1.591481248041756 -1.030202469638775 -1.5904545639513703 -0.889729082584381 0.31088011262571724 -1.2430332335479595 0.8243073622983808 0.7952900283435225 -0.4840188315083898 -1.4734425312757369 -2.153039181666703 -1.7215788673196897 0.7546828020641007 -1.9418106086286269 -2.0810296103587405 -1.660444455432383 -0.7618335339560036 -1.42594290278599 -0.8210376850559524 -1.1601130366325378 -1.4569757769756027 0.7681124470919083 -0.27693124931010515 -0.15254961827188346 -1.4710077709208935 -0.8725446209029769 -1.4249313778330404 -1.5648021910349506 -0.6313365003556465 -0.15317655636044997 -0.2532601641058697 -0.6108729920373611 -0.5197346561137437 -0.3210920546204282 -0.2110209478447771 -0.9874694004209081 -0.9914126198469214 -0.5514190086267532 -0.6245941987823441 -0.10362698796468388 -0.6325834914266812 -0.9772298642583509 -1.397092342376709 -1.2065744710318935 1.1368143558502197 0.40725135803222656 -0.4067151824772073 -0.6343136787676706 -1.4530305731312392 -1.2907465696334839 1.1350599527359009 -1.1275710149560088 -1.389127057848632 -0.7864570100197099 -0.9073426723480225 -0.5911676691465892 -0.9550313949584961 -1.230248212814331 -0.6028013471003792 0.2530604600906372 -0.8033193349838257 -0.6778883934020996 -1.5399572699210364 -0.9809038853714416 -0.5620012165327315 -0.8311126232147217 0.9483372631839254 1.234515110675465 -0.07642936706542969 1.871067982756676 0.6734137254288064 0.9791915099328432 0.6424054015068408 0.6360992892231195 1.6000502407817958 0.8653688430786133 1.3646411501990128 -0.432208776473999 0.6464633167384441 0.5350100994218285 1.1713396114027836 0.6688020356910406 0.6737236281763987 0.2575673234651979 1.105971097946167 1.5627076966932556 0.3914241607111992 0.6747906245813743 0.6321767262008192 1.4970058143763563 0.7677072260415754 0.6659059777414822 -1.06666898727417 0.6602938529616191 0.5527573234317619 -1.0550739931000575 0.6661526178497754 0.663317348632885 0.6802339408993594 1.235195898452468 0.5894704034851694 -0.7599276431589164 0.8445423033754998 -0.418102396988984 -1.0086370597804442 -1.3994552012810866 -0.33098237176088097 -0.10252547233099846 -1.1422597400566086 -1.2984269828939219 -1.3103299753845223 -0.7954698145207743 -1.3615810512699122 -1.4518114695076965 -1.115998575722235 -0.8827115862518904 -0.8627930776648209 0.5735628871868228 0.6004804111386063 -0.4626463439409061 -0.836691565503747 -1.463192558468383 -1.402329679964251 0.5516096212180265 -1.1132770556532667 -1.4935584748948683 -1.4441855549812317 -1.0381363737881069 -1.1913844516578447 -1.0712629779453895 -1.5213708891832134 -1.2431471883840701 0.5663534163213677 -1.0774676051270569 -1.0182835471125884 -1.6301064139938177 -1.3594425459814672 -1.0218417035861402 -1.324375632647246 -1.244529734635163 -1.300646154026916 -0.7435881879671749 -0.5086580421522848 -1.117564188959186 0.13089497917932646 -1.3321890483171415 -1.1527303575734331 0.28767727101067303 -1.4126003133665783 -1.0918956423933817 0.07936060524532265 -0.5247640675554714 0.4705170904052084 0.48480918745580637 -0.7187341648000992 -1.2138622607348404 -1.3489061985952375 -1.2749923281598372 0.4792705030126423 -1.275398259997865 -1.4019847040965596 -1.5259486450686492 -1.0424187011550181 -1.187856152146856 -1.0659334259904636 -0.22226453912112162 -1.2374877177702999 0.47737092945758197 0.3965872884768842 0.4510999821959351 -1.1194545287939845 0.046541357032592066 -1.2707556820635295 -1.266076501097245 2.067654491984477 0.746214207465594 1.030125300723424 0.6252223624089992 0.6182905208767508 0.8939568996429443 0.3953923035696745 1.3177895180975174 -0.8353548049926758 0.6301307515048985 0.5077149909577777 1.119533067848357 0.6538866092798798 0.6587200307929129 -0.15890861899266784 0.44241275713829786 1.5225406460888475 0.33508315187239746 0.6571458676553825 0.5008081380703396 1.4451572421438044 0.945986261343295 0.650872206857406 -1.215071678161621 0.6447577686748576 0.5281018605659775 -1.1843983666717541 0.6510428350688886 0.6480804428129341 0.6652311545521692 1.2053124904632568 0.5683856251124118 -0.9040732684037235 0.8014380543778112 0.022454797526468968 0.35780064623889896 0.5376829802287163 0.5320398898041032 -1.5208563804626465 -0.8637715619508013 1.0237522962388945 -1.3775155544281006 0.5374300519973942 0.09093998022919549 1.058372659129092 0.5706369692003727 0.5721699522231698 -0.6033350319497658 -0.5547650303628106 0.310593843460083 -0.5848813056945802 0.5736839424585677 -0.18911480903625488 -0.07258868217468262 0.9051461281284761 0.5702088062386421 -0.9824039936065674 0.565869299417972 0.28056944687034435 -1.0279550552368164 0.5704080732696416 0.5664077737288626 0.5890532407144353 -0.2504446404585821 0.43059442914701573 -0.9766519069671631 -0.7924425601959229 0.49189305305480957 0.344344989025407 0.337763710516922 -0.20928257094999825 -0.39557422018671506 0.25314307697513083 -0.43128741472118914 0.3501782608590876 0.2910695247250108 0.929496819666842 0.3947804365333525 0.4000507785045673 0.7439618110656738 -0.42970483951304483 0.1982834257539745 0.008049923572057804 0.40269017483927505 -0.2792259033396836 0.0691153441618424 -0.17133991942146312 0.3816408448624703 -0.9050543876434745 0.37150795506256185 0.29884851008360386 -0.8722354336024836 0.3977754893709624 0.38367368406367464 0.3999371741815111 0.25887072632960795 0.34913745172925736 -0.6670243102437023 0.1593882407912981 0.22963602253394672 0.2214203341878508 -0.43147842252680113 -0.8517902373250325 -0.016292835704164847 -0.7501705905248741 0.23789110987907613 0.17926082086534356 0.6143346802059699 0.28787295311766026 0.292862373560491 0.11756157875061035 -0.979866200220622 -0.124282556026583 -0.17017263921979653 0.29378955701386267 -0.52073592583806 -0.2857746118608022 -0.4232183894921172 0.27286695560842344 -1.1368327373722862 0.26100260185397767 0.18946727976993727 -1.1096459237557859 0.2905169573213896 0.2751831908177571 0.2904781411481342 -0.014629355789760323 0.23565680038953163 -0.9164818182799882 -0.07107785489226681 0.9985100030899048 -0.5669044414081389 -0.6339471262320032 1.1654330650458995 -0.6420969526982153 0.034174323081970215 0.9953324794769287 -0.17168176608064817 1.106200933456421 1.1002023220062256 -0.42902616251781084 -0.6446661262377271 -0.8123206618285121 -1.1936931610107422 1.083130955696106 -1.0794853568077087 -1.0108739766846888 0.5270317814387642 0.13861238956451416 -0.6026384610303686 0.10019564628601074 0.8475244045257568 -0.6139398747048759 1.0932992696762085 1.092964768409729 1.1006709337234497 0.034565091133117676 1.0013272135890263 -0.579326084244664 -0.8022695900140997 -0.5600697880570337 -0.6285017784602429 -0.3133850036214494 -0.6362049075958243 -0.957187294960022 0.8903272151947021 -1.1529181396073176 1.221779704093933 1.200473427772522 -0.4217274070396652 -0.6388071467212209 -1.376602674115436 -1.2166436910629272 1.1741536855697632 -1.0997439100784074 -1.236690269295857 -0.888357499219748 -0.8179820775985718 -0.5967368143479709 -0.8782761096954346 -0.5128889083862305 -0.607975203017284 1.1836247444152832 0.3032137155532837 0.3864409923553467 -1.1499898433685303 -0.1297849416732788 -0.5721980101087291 -0.807856633891576 -0.325329065322876 1.2862377166748047 -1.1546483371322507 0.5694271861527438 0.3624940644493076 1.3068673320463366 0.6011851719489012 0.6070536666734792 -0.49296141812950045 0.005295396717228784 0.7455172538757324 0.054740991782258 0.6002948536841965 0.741313099861145 0.512076364101494 0.8616160121452104 0.5976968615334446 -0.8900535106658936 0.5913475877881476 0.39226275785479886 -0.9197766780853271 0.5983515014566152 0.5942376429198715 0.6165758808637327 0.1982062998717817 0.4901529365405754 -0.49135375022888184 0.16104555130004888 1.6903036227454966 -1.4653924190724346 0.6342217405097301 0.37807290118007336 1.0591940316397004 0.6551688118572523 0.6561935550116145 -0.5799936122669027 -0.10642886161804199 1.7438824176788337 0.1262650128062911 0.6576168659313038 0.5359880128584816 1.2783045768737793 0.633016577881271 0.6551796916867718 -1.3028597890975768 0.6522112670313984 0.46286974795251357 -1.3039312172470563 0.6551529594872307 0.6526265038403969 0.6703704600991832 0.5091647619207688 0.5615539607810671 -0.988544727797904 0.2793083190917971 -1.5596668913063358 -1.13129955190899 -0.21069410875083874 -0.4773734103975206 0.6228190923101542 0.6357478448160789 -0.7137092918749453 -1.3413148144285028 -1.6239003252376585 -1.4290089547849558 0.5916380176002183 -1.061354257526625 -1.6180857880210513 -0.8710444573637034 -1.0382814866228227 -1.1169463606215735 -1.0800390986368678 -0.3247603178024292 -1.1751830628262736 0.5909727115937884 0.5710676805851093 0.6374153383885404 -1.600604745576442 0.18136002506297044 -1.1052539870185032 -1.1542838032925697 0.6449075877819583 0.48792775237449204 1.5389481566457472 0.6673312999358374 0.668939091534767 0.31017112731933594 1.423093318939209 1.887966194835676 0.31961474309301513 0.6671172226342439 1.5273602565572895 1.8579679445332138 1.077694894813728 0.6653387423088502 -0.8848681449890137 0.6604940648217097 0.5048558572753656 -0.9241726398468018 0.6654603097599436 0.662617891104978 0.6807365491563545 0.892827749252319 0.5820227200433219 0.1035308837890625 0.8929059635401719 0.9539973735809326 -0.2522609469930621 1.089666724205017 1.0845082998275757 -0.4361340718810906 -0.6464665838088178 -0.908819255283172 -1.161114109574161 1.0631723403930664 -1.082946059896513 -1.1090216355534774 0.4664240791241896 0.10443806648254395 -0.6066133369637254 0.06602132320404053 0.7964236736297607 -0.6178706979756208 1.0744043588638306 1.0713932514190674 1.0797865390777588 -0.05521667003631592 0.9833734035491943 -0.5850474296547548 -0.7844553272867807 -0.8860979413402132 1.3955980504637195 1.297160007448415 -0.35436975699683215 -0.44230713551411865 -1.049519658088684 -0.7009707689285278 1.3092319151177716 -0.39702367117116155 -0.6642079743303018 -0.5542935556944685 -0.8036221265792847 -0.5122738695007233 -0.8673688173294067 -1.0281978652464852 -0.5206322378147678 1.3126894294688145 -0.19647860527038574 0.08287608623504639 -1.4343325494402694 -1.0040243751495255 -0.47477708343057556 -0.1929974190035358 0.8997981011811422 0.8643971950573854 -1.1132067719257983 -1.189410604362114 -0.2879861173672073 -1.0409835485607672 0.8268527719312968 -1.1870874422259547 -0.6808918194495828 -0.24797797600331367 0.4681224389443503 -1.2903392394653073 0.3745282904676594 1.3278634075899876 -1.3285718678453593 0.8725531241187243 0.9169371403451831 0.8675189628461215 0.08431603952091779 1.10934484505964 -1.0787861983768612 -0.9946323045040563 -0.9440479278564453 -0.4656143358772507 -0.6664183322163797 -1.0431752771781422 -0.9715921326640315 0.028673887252807617 -0.8721076957126126 -0.9297524470258139 -0.9470384390768554 -1.027405858039856 -0.6288362292642793 -1.0539038181304932 -1.3797106742858887 -0.6400945515435911 -1.00617253780365 -1.0583226680755615 -1.0069411993026733 -1.3995594386242376 -1.2684954404830933 -0.6114336417609016 -0.7354381451669487 -0.46997441257045897 -0.667515706256663 -1.0045647834087024 -0.9495102782472681 0.9780172081990754 -0.8486526821534 -0.9001536337142313 -0.924753986335248 -1.032907485961914 -0.634243504706894 -1.0556740760803223 -1.3174830675125122 -0.6455157903346938 -0.06159484386444092 -1.0674471855163574 -1.021459937095642 -1.3020996610227058 -1.2334789037704468 -0.61712718670139 -0.7268052124041405 0.4040482516517331 0.8203549123632737 0.14116771303454176 0.47375146523408046 0.0708256078894966 0.6172616563160928 0.04242763451498016 0.4584369832910176 -1.13866094876491 0.4506517203926291 0.3714293063814577 -1.1254415512084956 0.46423259129820893 0.4596254725244566 0.47208305681818086 0.6446982504556068 0.4121643781219706 -0.6039643287658691 0.42915546414087724 1.3719037677382782 0.25310268818484527 0.6678312616628217 0.26701392181305944 1.208196290413163 0.48755090904460263 0.6657686295283727 -1.392063232917115 0.6621355784249727 0.4943655112357448 -1.4324724696787041 0.6657240277278839 0.6633059902997929 0.6802309278986812 0.5955874919891356 0.5803262123511592 -1.4001842470107877 0.682074785232544 -1.1163343414052025 1.1529651634039808 -0.7587524329547012 -1.1877554353552435 0.48861569639052754 1.1454563601587544 -1.3281296014075696 1.0560747173129132 1.2546294369857416 -1.3855507373809817 1.1254089649845584 1.13979091708515 1.015820816488777 -0.14140507540087374 1.2391451388742594 -1.2109203770043786 -1.0314758104841764 1.0368470197034563 1.0168367624282837 1.0779788245227868 1.5614006434796832 1.0300071768392456 -0.37883553274143067 1.0919888724381799 1.1163917779922485 -0.38673064212514396 1.0192635250089428 1.0456935044984392 0.9661294311221289 0.9789309888831661 1.1488326787948608 -0.28267875686222976 0.3258786201477051 -0.9413922919418788 -1.0148299111659147 -0.8842331306304179 -0.9981335530757329 -0.636732444697999 -1.0266759395599365 -1.2893860340118408 -0.647885055818779 -1.0049792528152466 -1.03317391872406 -1.0064783236299901 -1.3168224575228245 -1.205024242401123 -0.6165196610533643 -0.7637117969062627 0.5958477160898262 1.074155204979867 0.9343104246865925 -1.0838336396788635 1.0033718182275897 0.8487531069696268 -1.0385160446166992 0.9229858527297085 0.9520906841858988 0.8605930159020563 0.4457406501594403 0.9372617588287866 -0.9786026813480839 -0.9266571169955907 0.7531563975206458 1.0065939619786934 -1.2391748428344727 1.0925939003802199 1.0733154964972713 -1.2992680072784424 0.9922448687666742 1.0292754240815822 0.9120399393986025 -0.23088094192299646 1.1301335818698757 -1.093234996444215 -1.00373629455923 -0.2550472666487271 -0.7631966638190594 -0.342540079024216 0.5722187672127302 -0.8173238261947507 0.9183479566577413 0.9446101864576413 0.9321547514120725 0.1622145084741018 0.7531035449632633 -0.7822836612506187 -1.28929129742393 -0.6254301740495829 -0.03841674327850342 0.5920559167861938 -0.6367894160740124 1.0052942037582397 1.007346272468567 1.0254592895507812 -0.3168438673019409 0.8240877389907837 -0.6074136165265456 -0.7588720378659148 0.619790380689832 0.52801832117374 0.012202262878417969 0.6258959546756429 0.6230283447375937 0.6388481050836634 1.0291778362339121 0.559668453664388 1.212026834487915 0.7407321113486023 0.6761273145675659 -0.6311707475905541 1.0348880290985107 1.0237892866134644 1.050979733467102 -0.2057654857635498 0.8910267353057861 -0.6004241662514394 -0.7791721377863694 -0.5369606588855222 1.3214712142944336 0.8532508611679077 0.9592002630233765 -0.3831561803817749 0.3558673858642578 -0.495155519995345 -0.5953562259674072 0.6372177902806508 0.6343546583630888 0.6504786809869332 1.078461618037631 0.568931837368286 1.2207415103912354 0.768210741590126 -1.0334988832473755 -1.0094403579329496 -1.3995677990369988 -1.2233891487121582 -0.607821552406095 -0.7545175814732439 0.07999992370605469 -1.5637233275030742 -0.4643744230270386 -0.604490984558336 -0.7625238672863734 -1.354040455008004 -0.5666662454605103 -0.6216399709125013 -0.7432060296287781 0.9418296813964844 -1.009732302230459 -1.0246437250215945 -0.5302150359179841 -0.6844568252563477 0.6776861152469937
label 41 20 46 10 7 19 37 33 12 22 4 16 39 29 48 13 5 3 43 32 40 1 8 45 47 2 15 36 31 11 34 6 26 18 35 24 30 28 38 42 9 23 25 21 17
nr_sv 5 7 5 8 6 3 5 7 3 4 6 7 1 1 1 2 4 4 5 2 1 3 6 5 4 6 4 5 1 5 3 4 2 1 1 1 2 1 4 2 2 5 2 2 1
SV
0.0 1.0 1.0 1.0 0.0 1.0 0.0 1.0 1.0 0.0 0.0 0.2809027186840898 0.31508740275171804 0.0 0.0 0.0 0.0 0.0 0.0 0.0 0.0 0.0 1.0 1.0 0.017174450190055958 0.0 0.0 0.0 1.0 0.0 0.0 0.0 0.9652830800254135 0.0 0.0 0.0 0.0 1.0 1.0 1.0 0.0 0.0 0.0 0.0 1:1.0 2:0.24114786 3:0.14721139 4:0.25278026 5:0.019492712 6:0.078401364 7:0.0 8:1.0 9:0.008775937 10:0.02177129 11:0.10998193 12:0.0 13:0.007595283 14:0.002022774 15:1.0 16:0.07640406 17:0.001084676 18:3.21778E-4 19:3.70226E-8 20:1.34754E-5 21:0.0 
0.0 1.0 1.0 1.0 0.0 1.0 0.0 1.0 0.2447701849243169 0.0 0.0 0.0 0.0 0.0 0.0 0.0 0.0 0.0 0.0 0.0 0.0 0.0 1.0 1.0 0.0 0.0 0.0 0.0 1.0 0.0 0.0 0.0 0.0 0.0 0.0 0.0 0.0 1.0 0.872723317114368 1.0 0.0 0.0 0.0 0.0 1:1.0 2:0.2451788 3:0.15129021 4:0.2534887 5:0.019830544 6:0.07922418 7:0.0 8:1.0 9:0.007984262 10:0.023637215 11:0.108065166 12:0.0 13:0.007171274 14:0.002035155 15:1.0 16:0.079842836 17:0.00141229 18:2.19077E-4 19:3.73801E-8 20:2.80647E-5 21:0.0 
0.0 1.0 1.0 1.0 0.24035748717867036 1.0 0.0 0.23618844551464732 0.0 0.0 0.0 0.0 0.0 0.0 0.0 0.0 0.0 0.0 0.0 0.0 0.7429797826998706 0.0 1.0 1.0 0.0 0.0 0.0 0.0 1.0 0.0 0.0 0.0 0.0 0.0 0.0 0.0 0.0 1.0 0.0 0.0 0.0 0.0 0.0 0.0 1:1.0 2:0.25197503 3:0.15771219 4:0.2538636 5:0.020094652 6:0.080141366 7:0.0 8:1.0 9:0.006785685 10:0.026483024 11:0.104480885 12:0.0 13:0.006472925 14:0.002030748 15:1.0 16:0.085789025 17:0.001390636 18:7.17636E-5 19:7.38605E-6 20:0.0 21:7.39163E-6 
0.5521469541968064 1.0 1.0 1.0 1.0 1.0 0.28966698964078397 0.0 0.0 0.31224396353821404 0.6228153203445047 0.0 0.0 1.0 1.0 0.42743077131726104 0.4465369094854037 1.0 0.3459629100067816 1.0 1.0 1.0 1.0 0.0 0.0 0.39210607634739186 1.0 0.8229289762664239 1.0 0.8402690182747277 0.9049030269097207 1.0 0.0 0.25671101620087416 0.0 1.0 0.26272455557377733 0.0 0.0 0.0 1.0 1.0 0.3021787896188797 0.7874573915244462 1:1.0 2:0.27834743 3:0.18856026 4:0.2894517 5:0.028372455 6:0.09880957 7:0.0 8:1.0 9:0.006021108 10:0.035199236 11:0.11364588 12:0.0 13:0.006862913 14:0.002791357 15:1.0 16:0.10099509 17:2.65156E-4 18:2.15113E-4 19:1.6016E-8 20:3.22356E-5 21:0.0 
0.0 1.0 1.0 1.0 1.0 1.0 0.0 0.0 0.0 0.0 0.0 0.0 0.0 0.0 1.0 0.0 0.0 0.7752702007355236 0.0 0.0 1.0 0.1938865778216158 1.0 1.0 0.26916183344810457 0.0 0.05370767710340777 0.0 1.0 0.0 0.0 0.19129927341045913 0.03471691997458648 0.0 1.0 1.0 0.0 1.0 0.127276682885632 0.0 0.9436471783088972 1.0 0.0 0.0 1:1.0 2:0.26819703 3:0.17668392 4:0.278479 5:0.025554383 6:0.09263311 7:0.0 8:1.0 9:0.006446592 10:0.03135922 11:0.11197269 12:0.0 13:0.006925736 14:0.002542394 15:1.0 16:0.094541185 17:2.7372E-4 18:2.82735E-4 19:2.239E-8 20:4.11486E-5 21:0.0 
-0.0 0.0 0.0 0.0 0.0 0.0 0.0 0.06647630156259587 0.3770642246606149 0.0 0.32225557231809415 0.15918443582256522 0.09411571248713463 0.0 0.0 0.0 0.0 0.0 0.0 0.0 0.0 0.10534749174742314 0.0 0.0 0.0 0.0 0.0 0.0 0.0 0.0 0.0 0.6868272562011873 0.0 0.0 0.0 0.0 0.0 0.0 0.0 0.0 0.0 0.0 0.0 0.0 1:0.047305606 2:0.060047876 3:0.10767475 4:0.15181749 5:1.0 6:0.22927402 7:0.0 8:0.8286747 9:0.69643915 10:0.8767359 11:0.9639954 12:0.0 13:0.7047309 14:0.6755037 15:1.0 16:0.60493296 17:0.8062165 18:0.48848888 19:0.3036101 20:0.36605716 21:0.0 
-0.0 0.0 0.45737674866495637 0.0 0.42676466521653406 0.0 1.0 0.8959718895050495 0.8080139086756312 1.0 1.0 0.6219853241203246 0.49365261959968054 0.0 0.0 1.0 1.0 0.0 0.9752982603362483 0.0 0.0 1.0 0.0 0.0 1.0 1.0 0.11324953233879145 0.0 0.0 1.0 0.048810197253980565 0.23410978283980338 0.0 1.0 0.0 0.0 1.0 0.0 0.0 0.0 0.0 0.0 1.0 0.0 1:5.69247E-4 2:0.001039553 3:0.005768565 4:0.006133076 5:1.0 6:0.025539886 7:0.0 8:0.910786 9:0.9089145 10:0.92569125 11:0.9293642 12:0.0 13:0.9105277 14:0.941765 15:0.4941151 16:1.0 17:0.07085683 18:0.0631306 19:0.019825129 20:0.13374916 21:0.0 
-0.0 0.0 0.0 0.0 0.0 0.0 1.0 0.0 0.0 1.0 1.0 0.0 0.0 0.0 0.0 1.0 1.0 0.0 0.0 0.0 0.0 0.0 0.0 0.0 0.9938241027696801 1.0 0.0 0.0 0.0 0.0 0.0 0.0 0.0 0.0 0.0 0.0 0.0 0.0 0.0 0.0 0.0 0.0 0.0 0.0 1:0.029178286 2:0.039215066 3:0.09269591 4:0.11953051 5:1.0 6:0.18963662 7:0.0 8:0.8627943 9:0.72407997 10:0.8862802 11:1.0 12:0.0 13:0.741321 14:0.73249537 15:1.0 16:0.62637985 17:0.4160964 18:0.25303528 19:0.08388967 20:0.18770668 21:0.0 
-0.0 0.0 0.0 0.0 0.0 0.0 1.0 0.0 0.0 1.0 1.0 0.0 0.0 0.0 0.0 1.0 1.0 0.5168458754039849 0.8483103045260089 0.0 0.0 0.0 0.0 0.0 1.0 1.0 0.33776048671937264 0.0 0.0 0.28132229772252326 0.5721616467933058 0.0 0.0 0.0 0.0 0.0 0.0 0.0 0.0 0.0 0.0 0.0 1.0 0.0 1:0.028184358 2:0.038101133 3:0.09140843 4:0.11741729 5:1.0 6:0.18723889 7:0.0 8:0.863038 9:0.7257585 10:0.8864697 11:1.0 12:0.0 13:0.7433495 14:0.73489314 15:1.0 16:0.6297432 17:0.40109682 18:0.24413376 19:0.07831178 20:0.18160808 21:0.0 
-0.0 0.0 0.0 0.0 0.0 0.0 0.7967061191167722 0.0 0.0 1.0 1.0 0.0 0.0 0.0 0.0 0.0 0.5107554179748871 0.0 0.0 0.0 0.0 0.0 0.0 0.0 0.0 0.9999999999999999 0.0 0.0 0.0 0.0 0.0 0.0 0.0 0.0 0.0 0.0 0.0 0.0 0.0 0.0 0.0 0.0 0.0 0.0 1:0.03473761 2:0.045293946 3:0.09570996 4:0.12669185 5:1.0 6:0.19841538 7:0.0 8:0.86235005 9:0.73060566 10:0.8955162 11:0.9997439 12:0.0 13:0.7439601 14:0.7300158 15:1.0 16:0.6257129 17:0.59296757 18:0.34904337 19:0.16244397 20:0.26137862 21:0.0 
-0.5521469541968064 0.6506637864843464 1.0 0.5622441572509671 1.0 0.7132837730005853 0.0 0.5928700225238487 0.475999736605128 0.0 1.0 0.1970687173692879 0.3189183470742774 0.6054285184799681 0.622169728839149 0.6547222864688016 0.0 1.0 0.1763914351377429 0.579690507258016 0.760475667356378 1.0 0.5243344701653173 0.5193541048216501 0.0 0.0 1.0 1.0 0.5473120860146871 1.0 1.0 0.8375249425454548 0.5427178521288906 0.0 0.5626763139967002 0.6793261063488549 0.0 0.5390163175289391 0.5459746985299245 0.5387228771128343 1.0 0.6438529925516281 0.0 1.0 1:0.20154096 2:0.17776567 3:0.2716022 4:0.423608 5:1.0 6:0.43867898 7:0.0 8:0.96730864 9:0.44601044 10:0.66002935 11:0.9764835 12:0.0 13:0.4951791 14:0.41885817 15:1.0 16:0.32275167 17:0.29149875 18:0.11212098 19:0.016288262 20:0.046925183 21:0.0 
-0.0 0.0 0.0 0.0 0.23247910828625065 0.0 0.0 0.0 0.0 0.17455305200433696 1.0 0.0 0.0 0.0 0.0 0.34527771353119846 0.4187584024292528 1.0 0.0 0.0 0.0 1.0 0.0 0.0 0.0 0.0 1.0 0.0 0.0 0.7186777022774767 1.0 0.0 0.0 0.0 0.0 0.0 0.0 0.0 0.0 0.0 0.5583739622488055 0.0 0.0 0.0 1:0.13784863 2:0.13625887 3:0.22174662 4:0.32496002 5:1.0 6:0.3714209 7:0.0 8:0.93492126 9:0.523117 10:0.7622079 11:1.0 12:0.0 13:0.55354005 14:0.49627975 15:1.0 16:0.39878577 17:0.36805624 18:0.17744629 19:0.03777172 20:0.0887214 21:0.0 
-1.0 -0.0 1.0 1.0 0.27642386570178734 1.0 0.0 0.0 0.0 0.0 0.0 0.0 0.0 0.1115981135573611 0.0 0.0 0.0 0.0 0.0 0.470741954799414 0.9884225803491768 0.0 1.0 1.0 0.0 0.0 0.0 0.0 1.0 0.0 0.0 0.0 0.0 0.0 0.2318315756273967 0.0 0.0 1.0 1.0 0.0 0.10481189550592214 0.0 0.0 0.0 1:1.0 2:0.21722768 3:0.14072469 4:0.28428006 5:0.025078515 6:0.08760612 7:0.0 8:1.0 9:0.023583936 10:0.024754949 11:0.15333499 12:8.01791E-4 13:0.017657569 14:0.003745912 15:1.0 16:0.04857567 17:0.02698247 18:0.001875144 19:1.50176E-4 20:0.0 21:1.5176E-4 
-1.0 -0.0 1.0 1.0 0.0 1.0 0.0 1.0 1.0 0.0 0.0 0.0 0.0 0.14339948207281092 0.0 0.0 0.0 0.0 0.0 0.0 0.0 0.0 1.0 1.0 0.0 0.0 0.0 0.0 1.0 0.0 0.0 0.0 0.7587240977670353 0.0 0.4146893239296964 0.0 0.0 1.0 0.7740762589065817 1.0 0.0 0.0 0.0 0.0 1:1.0 2:0.15592353 3:0.07706964 4:0.19972098 5:0.009467277 6:0.048797436 7:0.0 8:1.0 9:0.031134978 10:0.011972374 11:0.12643538 12:7.84936E-4 13:0.01472102 14:0.001501181 15:1.0 16:0.022808176 17:0.018634435 18:9.41153E-4 19:8.91637E-7 20:1.69183E-5 21:0.0 
-1.0 -0.0 1.0 1.0 0.0 1.0 0.0 1.0 0.257851491636845 0.0 0.0 0.1465099739254041 0.19037507147215615 0.0 0.0 0.0 0.0 0.0 0.0 0.0 0.0 0.0 1.0 1.0 0.06388910591690523 0.0 0.0 0.0 1.0 0.0 0.0 0.0 0.0 0.0 0.0 0.0 0.0 1.0 0.0 1.0 0.0 0.0 0.0 0.0 1:1.0 2:0.16999654 3:0.09316983 4:0.23020118 5:0.013848112 6:0.0607114 7:0.0 8:1.0 9:0.032641582 10:0.016660472 11:0.14396895 12:0.001130403 13:0.017999591 14:0.002368466 15:1.0 16:0.026046619 17:0.025236303 18:0.001442078 19:1.71156E-6 20:1.02617E-5 21:0.0 
-1.0 -0.0 1.0 1.0 1.0 1.0 0.0 0.0 0.0 0.0 0.0 0.0 0.0 0.0 1.0 0.0 0.0 0.9158184831937446 0.0 0.0 1.0 0.3725390702972713 1.0 1.0 0.0 0.0 0.24157707519869503 0.0 1.0 0.0 0.08503273348330087 0.21407399676856137 0.0 0.0 0.0 1.0 0.0 1.0 0.0 0.0 1.0 1.0 0.0 0.0 1:1.0 2:0.22911288 3:0.1507764 4:0.31717718 5:0.032645922 6:0.10375828 7:0.0 8:1.0 9:0.027714193 10:0.020936698 11:0.17364071 12:1.23573E-4 13:0.021340944 14:0.003410118 15:1.0 16:0.048392173 17:0.022088856 18:0.001345968 19:2.57095E-6 20:1.19494E-4 21:0.0 
-1.0 -0.6506637864843464 1.0 1.0 1.0 1.0 0.3015956261380253 0.24936724815441957 0.0 0.3263724686707877 0.7261194406450615 0.14208837222081014 0.13313966812515515 0.7450024043698279 1.0 0.46119757759142416 0.48998782063114404 1.0 0.3669835252948885 0.5292580452005861 1.0 1.0 1.0 0.0 0.23167384264161028 0.42265502793629234 1.0 1.0 1.0 1.0 1.0 1.0 0.2412759022329647 0.2652615917706566 0.353479100442907 1.0 0.27185366260154226 0.0 0.22592374109341848 0.0 1.0 1.0 0.31404075107790347 1.0 1:1.0 2:0.33542526 3:0.32306525 4:0.49571383 5:0.11344495 6:0.21404782 7:0.0 8:1.0 9:0.021617072 10:0.09057584 11:0.22199829 12:1.88933E-4 13:0.027494043 14:0.014297136 15:1.0 16:0.10862715 17:0.067120425 18:0.005619031 19:1.15545E-4 20:0.0 21:9.27E-5 
-0.0 -0.8975240429439426 -0.04323266096834832 0.02223883008712102 1.0 0.1073152208055229 0.8065220141990951 0.9704198718270141 1.0 0.810217922870116 0.7716251174510214 0.9807219751820575 0.9187972165463337 0.004986935835506973 0.012495781654723415 0.7781656314610079 0.9863670293726562 0.6868035517851784 0.6911342257084505 0.0 0.07198753329208057 1.0 0.0032063276198018853 0.020231725178160298 1.0 1.0 0.5644436246944899 0.21599105358411058 0.0445046559203813 0.8416735301378298 0.6171339003501193 0.7982589417414896 0.0 0.7843377381175034 0.0 0.007251550492111439 0.7583528368204936 0.010054632514735956 0.0 0.02253224966072198 0.3240562302327708 0.005918408834387471 0.7543227190792378 0.3433681561971096 1:7.1909E-5 2:8.10551E-5 3:3.05116E-4 4:3.12402E-4 5:1.0 6:0.003173362 7:9.59687E-5 8:0.84727734 9:0.84726834 10:0.84806854 11:0.8480675 12:0.0 13:0.8471577 14:0.78320885 15:0.002893341 16:0.015725171 17:0.021252463 18:0.018900365 19:1.0 20:0.12022516 21:0.0 
-1.0 -0.0 -1.0 1.0 0.0 1.0 0.0 0.0 0.0 0.0 0.0 0.0 0.0 0.0 0.0 0.0 0.0 0.0 0.0 0.0 0.0 0.0 1.0 0.9797682748218397 0.0 0.0 0.0 0.0 1.0 0.0 0.0 0.0 0.0 0.0 0.0 0.0 0.0 0.989945367485264 0.0 0.0 0.0 0.0 0.0 0.0 1:1.0 2:0.27049443 3:0.20326939 4:0.32202226 5:0.037499793 6:0.11103439 7:0.0 8:1.0 9:0.009362943 10:0.05026018 11:0.14011948 12:0.0 13:0.010580566 14:0.003460391 15:1.0 16:0.09118121 17:0.03059525 18:0.007155505 19:3.29401E-5 20:6.57006E-4 21:0.0 
-1.0 -0.0 -1.0 1.0 0.0 0.0 0.0 1.0 0.17709099672142858 0.0 0.0 0.0 0.0 0.0 0.0 0.0 0.0 0.0 0.0 0.0 0.0 0.0 1.0 1.0 0.0 0.0 0.0 0.0 1.0 0.0 0.0 0.0 0.0 0.0 0.0 0.0 0.0 1.0 1.0 0.9774677503392781 0.0 0.0 0.0 0.0 1:1.0 2:0.26724282 3:0.18949312 4:0.30214787 5:0.03166517 6:0.10213321 7:0.0 8:1.0 9:0.007612961 10:0.0421301 11:0.12771279 12:0.0 13:0.008576107 14:0.002921278 15:1.0 16:0.092241704 17:0.017223092 18:0.004997105 19:1.17321E-5 20:5.50393E-4 21:0.0 
-0.0 -0.0 -0.0 0.977761169912879 1.0 1.0 0.0 0.0 0.0 0.0 0.0 0.0 0.0 0.0 0.9875042183452766 0.0 0.0 0.9962048560197426 0.0 0.0 1.0 0.3946233712493111 0.0 0.0 0.0 0.0 0.15532140961195098 0.0 0.0 0.0 0.0 0.041318288412379896 0.0 0.0 0.0 0.9927484495078887 0.0 0.0 0.0 0.0 1.0 0.9940815911656125 0.0 0.0 1:1.0 2:0.32262456 3:0.25531083 4:0.36785856 5:0.052845612 6:0.14240839 7:0.0 8:1.0 9:0.006461303 10:0.061550565 11:0.1379203 12:0.0 13:0.008345785 14:0.004743271 15:1.0 16:0.12739445 17:0.009372197 18:0.002852862 19:3.96196E-6 20:3.37592E-4 21:0.0 
-0.0 -0.5598527057210138 -0.0 0.0 1.0 1.0 0.17925704163512035 0.0 0.0 0.15791336528371025 0.7253770970365704 0.0 0.0 0.995013064164493 1.0 0.4361162469205839 0.38922458364379786 1.0 0.2967984037501315 0.8743012023365376 1.0 1.0 0.0 0.0 0.2555321249491075 0.31295368419210295 1.0 0.7840089464158894 0.0 0.8710976943879595 0.9774535706282642 1.0 0.0 0.1261750586210276 0.1645271338877707 1.0 0.13936396561531159 0.0 0.0 0.0 1.0 1.0 0.19859581518177 0.6566318438028904 1:1.0 2:0.33624333 3:0.2739784 4:0.38933855 5:0.06106758 6:0.15591699 7:0.0 8:1.0 9:0.006827764 10:0.06710819 11:0.14344878 12:0.0 13:0.008730646 14:0.005435093 15:1.0 16:0.13535973 17:0.007698808 18:0.002581831 19:2.74881E-6 20:3.42033E-4 21:0.0 
-1.0 -0.0 -0.9567673390316517 1.0 0.0 0.8926847791944772 0.0 1.0 0.0 0.0 0.0 0.0 0.0 0.0 0.0 0.0 0.0 0.0 0.0 0.0 0.0 0.0 1.0 1.0 0.0 0.0 0.0 0.0 1.0 0.0 0.0 0.0 0.0 0.0 0.0 0.0 0.0 1.0 0.0 0.0 0.0 0.0 0.0 0.0 1:1.0 2:0.27096695 3:0.19894685 4:0.31480867 5:0.03521729 6:0.10812036 7:0.0 8:1.0 9:0.008320478 10:0.047045145 11:0.1343119 12:0.0 13:0.009517678 14:0.003242391 15:1.0 16:0.09308743 17:0.023775471 18:0.00581506 19:1.96181E-5 20:5.81005E-4 21:0.0 
-1.0 -0.0 -1.0 1.0 0.0 1.0 0.0 0.0 0.0 0.0 0.0 0.0 0.0 0.0 0.0 0.0 0.0 0.0 0.0 0.0 0.9280124667079194 0.0 0.9967936723801981 0.0 0.0 0.0 0.0 0.0 0.9554953440796188 0.0 0.0 0.0 0.0 0.0 0.0 0.0 0.0 0.0 0.0 0.0 0.1750140565324619 0.0 0.0 0.0 1:1.0 2:0.26984698 3:0.2046632 4:0.3257991 5:0.03851224 6:0.11252011 7:0.0 8:1.0 9:0.009954716 10:0.051281247 11:0.14332233 12:0.0 13:0.011187577 14:0.003554169 15:1.0 16:0.08985892 17:0.03332427 18:0.007501623 19:3.79176E-5 20:6.48382E-4 21:0.0 
-1.0 -0.0 -1.0 1.0 0.0 0.0 0.0 0.029580128172985973 1.0 0.0 0.0 0.019278024817942552 0.0812027834536663 0.0 0.0 0.0 0.0 0.0 0.0 0.12569879766346237 0.0 0.0 1.0 1.0 0.0 0.0 0.0 0.0 1.0 0.0 0.0 0.0 1.0 0.0 0.8354728661122293 0.0 0.0 1.0 1.0 1.0 0.0 0.0 0.0 0.0 1:1.0 2:0.2511353 3:0.17586792 4:0.29809704 5:0.028845591 6:0.09770731 7:0.0 8:1.0 9:0.011164895 10:0.037210044 11:0.13572773 12:0.0 13:0.011099368 14:0.002828168 15:1.0 16:0.07742202 17:0.023822164 18:0.002816651 19:7.99779E-5 20:0.0 21:7.2484E-5 
-1.0 -0.5622441572509671 -1.0 -1.0 1.0 1.0 0.29125312027626443 0.0 0.0 0.3138875483507984 0.6348570425153407 0.284426766214257 0.3189561628114281 1.0 1.0 0.43274485572644944 0.45103047425482745 1.0 0.34861386801367283 1.0 1.0 1.0 0.0 0.0 0.289549331459868 0.39512017689072043 1.0 0.8107303217033962 0.0 0.8311337250486147 0.8937441557230338 1.0 0.0 0.2580312243510522 1.0 1.0 0.2641055864148072 0.0 0.4861243824989808 0.0 1.0 1.0 0.3037365871829182 0.7859492037843785 1:1.0 2:0.22960001 3:0.15129204 4:0.30197194 5:0.02778009 6:0.096703276 7:0.0 8:1.0 9:0.018843904 10:0.024009285 11:0.15503126 12:2.25366E-4 13:0.015832225 14:0.002626085 15:1.0 16:0.057140704 17:0.01887314 18:0.001106906 19:0.0 20:1.3037E-4 21:5.43533E-7 
-1.0 -0.0 -1.0 -1.0 0.25379077531378463 1.0 0.0 0.0 0.0 0.0 0.0 0.0 0.0 0.0 0.0 0.0 0.0 0.0 0.0 0.0 0.6908188044289966 0.0 1.0 1.0 0.0 0.0 0.0 0.0 1.0 0.0 0.0 0.0 1.0 0.0 0.0 0.0 0.0 1.0 1.0 0.0 0.0 0.0 0.0 0.0 1:1.0 2:0.2350751 3:0.14180417 4:0.25561243 5:0.019569686 6:0.078802094 7:0.0 8:1.0 9:0.010304793 10:0.01910019 11:0.11546821 12:0.0 13:0.008545254 14:0.001940967 15:1.0 16:0.07075546 17:8.32634E-4 18:2.69232E-4 19:0.0 20:3.36923E-5 21:3.9415E-8 
-1.0 -0.0 -1.0 -1.0 0.0 1.0 0.0 0.9024549780882293 0.0 0.0 0.0 0.0 0.0 0.0 0.0 0.0 0.0 0.0 0.0 0.0 0.0 0.0 1.0 1.0 0.0 0.0 0.0 0.0 1.0 0.0 0.0 0.0 0.0 0.0 0.0 0.0 0.0 1.0 0.0 0.0 0.0 0.0 0.0 0.0 1:1.0 2:0.2115708 3:0.11944084 4:0.23600605 5:0.015714452 6:0.0683147 7:0.0 8:1.0 9:0.01417684 10:0.013554452 11:0.11592528 12:0.0 13:0.009609098 14:0.001625035 15:1.0 16:0.05537459 17:0.003871678 18:3.24856E-4 19:1.10236E-7 20:3.10489E-5 21:0.0 
-1.0 -0.0 -1.0 -1.0 1.0 1.0 0.0 0.33495920524830924 0.0 0.0 0.0 0.0 0.0 0.0 1.0 0.0 0.0 0.7816812373169559 0.0 0.0 1.0 0.1983101600337331 1.0 0.0 0.0 0.0 0.03223702195310648 0.0 1.0 0.0 0.0 0.19246287565887438 0.0 0.0 0.0 1.0 0.0 0.0 0.0 0.0 0.887686507122287 1.0 0.0 0.0 1:1.0 2:0.22256584 3:0.14430992 4:0.28722978 5:0.024419712 6:0.089356594 7:0.0 8:1.0 9:0.018388486 10:0.02429821 11:0.14826724 12:3.67545E-4 13:0.01482964 14:0.002434756 15:1.0 16:0.05513586 17:0.020836456 18:0.001564073 19:0.0 20:1.80039E-4 21:1.04568E-6 
-0.0 -0.0 -0.0 -1.0 0.0 0.0 0.0 1.0 1.0 0.0 0.0 0.0 0.0 0.0 0.0 0.0 0.0 0.0 0.0 0.0 0.0 0.0 1.0 1.0 0.0 0.0 0.0 0.0 1.0 0.0 0.0 0.0 0.0 0.0 0.0 0.0 0.0 1.0 0.0 1.0 0.0 0.0 0.0 0.0 1:1.0 2:0.20287322 3:0.11070048 4:0.22977677 5:0.01445531 6:0.06491775 7:0.0 8:1.0 9:0.015766632 10:0.010973241 11:0.11664655 12:0.0 13:0.010021331 14:0.001465617 15:1.0 16:0.050045833 17:0.003136199 18:4.02316E-4 19:1.34647E-7 20:3.35638E-5 21:0.0 
-1.0 -0.0 -1.0 -1.0 0.0 1.0 0.0 0.0 0.2488105007047632 0.0 0.0 0.0 0.0 0.0 0.0 0.0 0.0 0.0 0.0 0.0 0.0 0.0 1.0 1.0 0.0 0.0 0.0 0.0 1.0 0.0 0.0 0.0 0.0 0.0 0.0 0.0 0.0 1.0 0.5138756175010193 1.0 0.0 0.0 0.0 0.0 1:1.0 2:0.21262279 3:0.120329864 4:0.23681055 5:0.015871892 6:0.06874783 7:0.0 8:1.0 9:0.01397 10:0.013698773 11:0.11585258 12:0.0 13:0.009551327 14:0.001640953 15:1.0 16:0.05605203 17:0.003598918 18:3.30259E-4 19:1.09635E-7 20:3.26582E-5 21:0.0 
-1.0 -0.0 -1.0 -1.0 -1.0 1.0 0.0 1.0 1.0 0.0 0.0 0.017477718581377283 0.07926822291754448 0.9990371584381561 1.0 0.0 0.0 1.0 0.0 1.0 1.0 0.7575859555192449 1.0 1.0 0.05547353356554292 0.0 0.48018521365204325 0.0 1.0 0.0 0.2690183973183437 0.017357733533722396 0.9946765212708931 0.0 0.9971396419428007 1.0 0.0 1.0 1.0 1.0 1.0 1.0 0.0 0.0 1:1.0 2:0.34991115 3:0.30569175 4:0.4749018 5:0.09902558 6:0.20639181 7:0.0 8:1.0 9:0.015560948 10:0.063279584 11:0.19671002 12:0.0 13:0.020181203 14:0.010254477 15:1.0 16:0.121826686 17:0.011424959 18:0.001949856 19:2.74352E-6 20:1.80494E-4 21:0.0 
-1.0 -0.6685481434366553 -1.0 -1.0 -1.0 1.0 0.1794171121978448 1.0 0.16737394444409873 0.1734109560201286 0.8214753513954667 0.0 0.0 0.0 0.9859864087835195 0.46790049425480806 0.4313121196310173 1.0 0.3013614645930929 0.0 1.0 1.0 1.0 1.0 0.21519929494768059 0.33473759037322853 1.0 0.8243389599480128 1.0 0.9223447081147602 1.0 1.0 0.0 0.13039689981417574 0.0 1.0 0.14431313667787618 1.0 0.9648678465238865 0.9252389945554491 1.0 0.9995323249182202 0.22514317369839576 0.6837200419607837 1:1.0 2:0.4218274 3:0.4196107 4:0.5729976 5:0.16562222 6:0.28294694 7:0.0 8:1.0 9:0.01627704 10:0.10642168 11:0.21033432 12:0.0 13:0.020129513 14:0.015647162 15:1.0 16:0.17145297 17:0.010486521 18:0.004029969 19:1.11012E-5 20:9.41504E-4 21:0.0 
-0.24035748717867036 -0.9906956300661295 -0.27642386570178723 -1.0 -0.25379077531378463 0.31230363602686284 0.8688356780625461 1.0 1.0 0.8632842313996077 0.8543446535939071 0.9825222814186227 0.9207317770824555 9.628415618437858E-4 0.014013591216480437 0.8193535101367677 1.0 0.7732507148912677 0.6986385354069071 0.0 0.2805770269199516 1.0 0.2274886960361111 0.2222187287459151 1.0 1.0 0.5945073689602884 0.1756610400519873 0.2371390166356626 0.8955549512137586 0.6384234123755756 0.9826422664662776 0.005323478729106879 0.8142166640139179 0.0028603580571992526 0.0 0.7897853410578942 0.22379231906550057 0.03513215347611365 0.07476100544455092 0.4446377085725585 4.676750817798059E-4 0.8171388166829326 0.31627995803921627 1:1.81845E-4 2:2.66638E-4 3:0.001453714 4:0.00151705 5:1.0 6:0.009945701 7:4.14629E-5 8:0.8388569 9:0.83870745 10:0.8429635 11:0.84305555 12:0.0 13:0.8384066 14:0.7662949 15:0.03315238 16:0.105071515 17:0.10229647 18:0.08750671 19:1.0 20:0.30780783 21:0.0 
-1.0 -0.7132837730005853 -1.0 -1.0 -1.0 -0.5775824563378561 0.3106229191053894 0.0 0.0 0.33595117053053614 0.7943566481649913 0.29706568694466473 0.2673078522358141 0.0 0.0 0.48690484561070824 0.5171637455500382 1.0 0.3812724962375515 0.0 1.0 0.7570074982710365 1.0 0.0 0.3051793537520781 0.44124734557279893 0.5374085338567687 0.0 1.0 0.27740785660027834 0.3779106362435071 0.23702751642129352 0.0 0.272637830348918 0.0 0.0 0.2795764289364852 0.0 0.0 0.0 1.0 0.0 0.32266031291757447 1.0 1:1.0 2:0.2875774 3:0.25984612 4:0.5823318 5:0.14846516 6:0.2517076 7:0.0 8:1.0 9:0.05807053 10:0.06287944 11:0.35462767 12:0.002242697 13:0.07129947 14:0.01809163 15:1.0 16:0.049695514 17:0.07733432 18:0.007462589 19:5.37748E-5 20:6.49044E-4 21:0.0 
-1.0 -0.0 -1.0 -1.0 -1.0 -0.0 0.0 1.0 1.0 0.0 0.0 0.0 0.0641510925022305 0.0 0.0 0.0 0.0 0.08196061161227458 0.0 0.0 0.0 0.0 1.0 1.0 0.0 0.0 0.0 0.0 1.0 0.0 0.0 0.0 0.0 0.0 0.0 0.0 0.0 1.0 1.0 1.0 0.0 0.0 0.0 0.0 1:1.0 2:0.21111709 3:0.15478393 4:0.38344502 5:0.04726864 6:0.13014309 7:0.0 8:1.0 9:0.045479596 10:0.03561134 11:0.24764158 12:0.002902599 13:0.040094092 14:0.006858178 15:1.0 16:0.029257879 17:0.056217883 18:0.002427029 19:6.27666E-6 20:2.2602E-4 21:0.0 
-1.0 -0.0 -1.0 -1.0 -1.0 -0.7347211796890067 0.0 0.25319518491943493 0.0 0.0 0.0 0.0 0.0 0.6989343863679733 1.0 0.0 0.0 0.0 0.0 0.4023771385437214 1.0 0.0 1.0 1.0 0.0 0.0 0.0 0.0 1.0 0.0 0.0 0.0 0.0 0.0 0.0 1.0 0.0 1.0 0.0 0.0 0.4919690663730121 1.0 0.0 0.0 1:1.0 2:0.3110183 3:0.27146208 4:0.4906489 5:0.10252496 6:0.20705399 7:0.0 8:1.0 9:0.026767734 10:0.053971134 11:0.24206114 12:0.0 13:0.032546315 14:0.012677368 15:1.0 16:0.08373423 17:0.0388332 18:0.003257358 19:1.52457E-5 20:4.56633E-4 21:0.0 
-1.0 -0.0 -1.0 -1.0 -1.0 -0.0 0.0 1.0 0.2662326110797669 0.0 0.0 0.0 0.0 0.3010656136320266 0.67724805927641 0.0 0.0 0.0 0.0 0.5976228614562786 0.0 0.0 1.0 1.0 0.0 0.0 0.0 0.0 1.0 0.0 0.0 0.0 1.0 0.0 1.0 0.0 0.0 1.0 1.0 1.0 0.0 0.11093001036091402 0.0 0.0 1:1.0 2:0.24268 3:0.18206242 4:0.38517234 5:0.053346153 6:0.13774802 7:0.0 8:1.0 9:0.030212697 10:0.03403647 11:0.2157831 12:0.0 13:0.028673312 14:0.006683418 15:1.0 16:0.049865544 17:0.0414078 18:0.003147392 19:1.4259E-5 20:3.71813E-4 21:0.0 
-1.0 -0.0 -1.0 -1.0 -1.0 -1.0 0.0 0.0 0.0 0.0 0.0 0.0 0.0 0.0 0.32275194072359 0.0 0.0 1.0 0.0 0.0 1.0 1.0 1.0 1.0 0.0 0.0 1.0 1.0 1.0 0.7699824729266934 1.0 1.0 0.0 0.0 0.0 1.0 0.0 1.0 0.0 0.0 1.0 0.889069989639086 0.0 0.0 1:1.0 2:0.33237836 3:0.3145591 4:0.556106 5:0.14626692 6:0.25056425 7:0.0 8:1.0 9:0.03299522 10:0.07467163 11:0.27756417 12:0.0 13:0.041951686 14:0.019889355 15:1.0 16:0.08996242 17:0.05948096 18:0.007407133 19:6.92155E-5 20:0.001281217 21:0.0 
-0.0 -0.7967061191167722 -0.0 -0.0 -0.0 -0.04825279026039099 -0.0 0.31624808896432405 0.2939155496673019 1.0 0.0 0.0 0.0 0.0 0.0 0.0 1.0 0.0 0.0 0.0 0.0 1.0 0.0 0.0 1.0 1.0 0.0 0.0 0.0 0.40676538970724424 0.0 0.0 0.0 0.0 0.0 0.0 0.0 0.0 0.0 0.0 0.0 0.0 0.129155693427094 0.0 1:4.6234E-5 2:7.21865E-4 3:0.007012117 4:0.00744045 5:1.0 6:0.030332271 7:2.69089E-6 8:0.95044893 9:0.94723684 10:0.97113484 11:0.97575545 12:0.0 13:0.94921327 14:0.9250732 15:0.5376176 16:1.0 17:0.06198209 18:0.03801653 19:0.00697437 20:0.074634716 21:0.0 
-0.0 -1.0 -0.0 -0.0 -0.0 -0.0 -0.0 0.0 0.0 1.0 1.0 0.0 0.0 0.0 0.0 1.0 1.0 0.0 1.0 0.0 0.0 0.0 0.0 0.0 0.0 0.0 0.23157596722264845 0.0 0.0 1.0 0.4018838013627883 0.0 0.0 0.0 0.0 0.0 0.0 0.0 0.0 0.0 0.0 0.0 0.0 0.0 1:0.001465346 2:0.004129283 3:0.02308253 4:0.024200471 5:1.0 6:0.06600113 7:0.0 8:0.9348271 9:0.91282326 10:0.9915603 11:1.0 12:0.0 13:0.91317856 14:0.8995375 15:0.7726236 16:1.0 17:0.007302353 18:0.003113373 19:3.38086E-5 20:0.002314653 21:0.0 
-0.0 -0.0 -0.0 -0.0 -0.0 -0.0 -0.0 0.0 0.0 1.0 0.34456897814705434 0.0 0.0 0.0 0.0 1.0 0.0 0.0 0.0 0.0 0.0 0.0 0.0 0.0 0.48676011739750535 0.0 0.0 0.0 0.0 0.0 0.0 0.0 0.0 0.0 0.0 0.0 0.0 0.0 0.0 0.0 0.0 0.0 0.0 0.0 1:6.61151E-4 2:0.002245565 3:0.014711541 4:0.015338878 5:1.0 6:0.04876374 7:0.0 8:0.95344895 9:0.94273376 10:0.994761 11:1.0 12:0.0 13:0.94328266 14:0.92904395 15:0.6603753 16:1.0 17:0.006294395 18:0.002653853 19:3.41979E-5 20:0.002486294 21:0.0 
-0.28966698964078397 -1.0 -0.3015956261380253 -0.0 -0.29125312027626443 -0.0 -0.3106229191053894 0.0 0.0 1.0 1.0 0.0 0.0 0.29608999666945335 0.2971084358875628 1.0 1.0 0.9761098608539331 1.0 0.2933398599846586 0.30613639851547153 0.0 0.2858238544036819 0.28529653623629114 0.0 1.0 1.0 0.4010757693274384 0.28950690399754486 0.07058682874648024 1.0 0.27659475436865294 0.2884906325457659 0.0 0.2909008390516899 0.29869562063801214 0.0 0.2878287887815175 0.2887863554514716 0.29013663660158884 0.870187731723716 0.29764542582306325 0.870844306572906 0.6487425217948909 1:0.001359071 2:0.004255095 3:0.024026094 4:0.026084999 5:1.0 6:0.06959127 7:0.0 8:0.9133043 9:0.89016473 10:0.96450067 11:0.98239917 12:0.0 13:0.8944667 14:0.8613781 15:0.83331406 16:1.0 17:0.10264228 18:0.06666559 19:0.008805828 20:0.08478446 21:0.0 
-0.0 -0.0 -0.0 -0.0 -0.0 -0.0 -0.0 0.0 0.0 1.0 0.0 0.0 0.0 0.0 0.0 0.5878596300628933 0.0 0.0 0.0 0.0 0.0 0.0 0.0 0.0 1.0 0.0 0.0 0.0 0.0 0.0 0.0 0.0 0.0 0.0 0.0 0.0 0.1749599024078935 0.0 0.0 0.0 0.0 0.0 0.0 0.0 1:4.71707E-4 2:0.001884672 3:0.013262269 4:0.013871194 5:1.0 6:0.04568723 7:0.0 8:0.9566961 9:0.9475369 10:0.99439377 11:1.0 12:0.0 13:0.9485628 14:0.9273576 15:0.64400655 16:1.0 17:0.003349122 18:0.001980918 19:1.32535E-5 20:0.002077588 21:0.0 
-0.0 -0.0 -0.0 -0.0 -0.0 -0.0 -0.0 0.0 0.0 0.0 0.0 0.0 0.0 0.0 0.0 0.0 0.0 0.0 0.0 0.0 0.0 0.5075969416434479 0.0 0.0 1.0 1.0 0.0 0.0 0.0 0.0 0.0 0.0 0.0 1.0 0.0 0.0 0.8250400975921065 0.0 0.0 0.0 0.0 0.0 0.0 0.0 1:1.14183E-4 2:8.86538E-4 3:0.007938696 4:0.008251315 5:1.0 6:0.032481585 7:0.0 8:0.96548814 9:0.9615034 10:0.9906666 11:0.99338526 12:0.0 13:0.9619756 14:0.9335668 15:0.53694063 16:1.0 17:0.019910071 18:0.014395346 19:8.69963E-4 20:0.027122034 21:0.0 
-0.0 -1.0 -0.0 -0.9857790558342155 -0.0 -1.0 -0.0 1.0 1.0 1.0 1.0 0.880383522866094 0.7791132369993778 0.0 0.0 0.4121403699371067 1.0 0.0 0.0 0.0 0.0 1.0 0.0 0.0 1.0 1.0 0.0 0.0 0.0 1.0 0.0 1.0 0.0 0.0 0.0 0.0 0.0 0.0 0.0 0.0 0.0 0.0 1.0 0.0 1:5.87853E-5 2:9.6045E-4 3:0.008705387 4:0.00931449 5:1.0 6:0.03535913 7:2.20313E-5 8:0.91049 9:0.9060928 10:0.9347061 11:0.94015175 12:0.0 13:0.907887 14:0.87140995 15:0.5804224 16:1.0 17:0.15504968 18:0.11481642 19:0.050946113 20:0.20981376 21:0.0 
-0.23618844551464716 -1.0 -0.24936724815441966 -1.0 -0.23741418333653852 -1.0 -0.25319518491943493 -1.0 1.0 1.0 1.0 0.8163165386316004 0.7479443904334128 0.01966219480403361 0.04057709173545785 1.0 1.0 0.7288646303878042 1.0 0.014532076148875318 0.13685985880917642 1.0 0.23091284828858744 0.22978419966400268 1.0 1.0 0.8166716272190664 0.24644966378305938 0.24344436965870422 1.0 0.9265207131263987 1.0 0.004007217265269803 0.9050702821824258 0.008179779937196933 0.08003486425113909 0.8917809365062883 0.2339294865200929 0.007384394920767007 0.012773959125395778 0.46772214696790404 0.049597640405505156 1.0 0.3863290345476162 1:2.87654E-5 2:3.66368E-5 3:2.48749E-4 4:2.52997E-4 5:1.0 6:0.00295713 7:1.44569E-6 8:0.94036055 9:0.940351 10:0.94114864 11:0.941193 12:0.0 13:0.94039667 14:0.9440717 15:0.15614653 16:1.0 17:0.111954734 18:0.10671677 19:0.49950615 20:0.6982114 21:0.0 
-1.0 -0.555318213591494 -1.0 -1.0 -1.0 -1.0 -1.0 -0.31624808896432405 1.0 0.33856010688406024 0.6706045427319254 0.18368346136839955 0.2520556095665874 0.0 1.0 0.5047707589536125 0.45098466071392207 1.0 0.3951028924268528 0.0 1.0 1.0 1.0 1.0 0.3403041721368945 0.44537529056034636 0.8534867685981253 0.6616314935190922 1.0 0.7183509528144031 0.7589879515488135 0.0 0.0 0.0 0.0 0.9199651357488609 0.0 1.0 0.992615605079233 0.9872260408746042 1.0 0.9504023595944948 0.061357515918445696 0.6136709654523839 1:1.0 2:0.1857767 3:0.09211498 4:0.19795005 5:0.009708045 6:0.051597316 7:0.0 8:1.0 9:0.015847864 10:0.007244566 11:0.10234623 12:0.0 13:0.008389429 14:8.76373E-4 15:1.0 16:0.0438993 17:0.001026876 18:7.99981E-5 19:0.0 20:7.30219E-6 21:5.7998E-9 
-1.0 -0.0 -1.0 -1.0 -1.0 -1.0 -1.0 -0.0 0.20948865131693073 0.0 0.0 0.0 0.0 0.9803378051959664 0.9594229082645422 0.0 0.0 0.834799244318047 0.0 0.9854679238511247 1.0 0.17933101922292158 1.0 1.0 0.0 0.0 0.0 0.0 1.0 0.0 0.0 1.0 0.9959927827347302 0.09492971781757417 0.991820220062803 1.0 0.10821906349371169 1.0 1.0 1.0 0.397415666131766 1.0 0.2981580632160195 0.0 1:1.0 2:0.18765552 3:0.09337497 4:0.19494092 5:0.009538863 6:0.050766133 7:0.0 8:1.0 9:0.014619703 10:0.0079536 11:0.09881073 12:0.0 13:0.007788792 14:9.34465E-4 15:1.0 16:0.04604163 17:9.38395E-4 18:2.5501E-4 19:2.18766E-8 20:1.34288E-5 21:0.0 
-0.0 -0.20179364682864964 -0.0 -0.0 -0.0 -0.0 -0.0 -0.07434451025501354 -0.2094886513169308 0.045238809375520404 0.0 0.0 0.0 0.0 0.0 0.0 0.5364277575330639 0.0 0.0 0.0 0.0 1.0 0.0 0.0 1.0 0.8369190983002774 0.0 0.0 0.0 0.020558344883841943 0.0 0.03065718686284566 0.0 0.8456713238360781 0.0 0.0 0.678896246317494 0.0 0.0 0.0 0.0 0.0 0.011173868792323264 0.0 1:6.55421E-6 2:1.04025E-5 3:1.34075E-4 4:1.35215E-4 5:1.0 6:0.002032021 7:2.6356E-6 8:0.9294124 9:0.9294086 10:0.9298812 11:0.9298855 12:0.0 13:0.92939216 14:0.92163926 15:0.05248931 16:0.40821502 17:0.08015783 18:0.08171611 19:1.0 20:0.6419793 21:0.0 
-0.24477018492431682 -0.0 -0.2578514916368449 -1.0 -0.24881050070476324 -1.0 -0.2662326110797669 -0.0 -0.0 0.0 0.0 0.9338542690960593 0.8676328826666134 0.0 0.23807566620918413 0.0 0.0 0.5009271346906834 0.0 0.0 0.2293352630869482 1.0 0.24725211375754277 0.251852712052576 1.0 0.0 0.0 0.0 0.25985913524174087 0.0 0.0 0.0 0.0 0.0 0.0 0.02691645745061787 0.0 0.25061249961643933 0.24481691586412174 0.26127090001485637 0.0 0.22127584317307614 0.0 0.0 1:5.3354E-5 2:7.54268E-5 3:5.28956E-4 4:5.3969E-4 5:1.0 6:0.004982673 7:1.82564E-5 8:0.8855473 9:0.88551533 10:0.8871838 11:0.887223 12:0.0 13:0.88544154 14:0.86422545 15:0.050035104 16:0.23750979 17:0.099365205 18:0.09779538 19:1.0 20:0.48367608 21:0.0 
-1.0 -0.4592842231127245 -1.0 -1.0 -1.0 -1.0 -1.0 -0.21957103941228828 -1.0 0.2274722161606489 0.6295448585473572 0.06614573090394069 0.13236711733338657 0.9798629473200982 1.0 0.46497778827763664 0.31599642754134744 1.0 0.30538462994898635 0.9867539079841178 1.0 1.0 1.0 1.0 0.2548766709321499 0.2819998793099072 0.711602767046145 0.5743005772256414 1.0 0.5727893997661516 0.6328216249708372 0.9693428131371543 0.9967832140799426 0.15432867616392187 0.9921503709900785 1.0 0.1667525662706448 1.0 1.0 1.0 1.0 1.0 0.26239568006694275 0.616943160533446 1:1.0 2:0.10430159 3:0.02944433 4:0.12177322 5:0.002254365 6:0.02190746 7:0.0 8:1.0 9:0.039494857 10:0.00119418 11:0.0909685 12:2.37003E-4 13:0.010069153 14:0.0 15:1.0 16:0.007255419 17:7.27766E-4 18:1.91678E-5 19:2.51323E-10 20:6.53079E-7 21:0.0 
-0.0 -1.0 -0.0 -0.17709099672142858 -0.0 -0.16737394444409873 -0.0 -1.0 -1.0 1.0 0.7827030834175865 0.0 0.0 0.020137052679901873 0.0 0.821638303147326 1.0 0.0 0.7598903762506097 0.013246092015882283 0.0 1.0 0.0 0.0 1.0 1.0 0.6049562885279355 0.21946757549977616 0.0 1.0 0.6815647087188602 1.0 0.0032167859200574467 0.0 0.00784962900992156 0.1613443739007597 0.15435118741186116 0.0 0.0 0.0 0.38914294408942574 0.0 1.0 0.383056839466554 1:9.20799E-5 2:1.09303E-4 3:4.88214E-4 4:4.97521E-4 5:1.0 6:0.004448835 7:5.56978E-5 8:0.9056848 9:0.9056605 10:0.90705603 11:0.90711945 12:0.0 13:0.90566975 14:0.8958081 15:0.09071889 16:0.447637 17:0.13612789 18:0.12824084 19:1.0 20:0.65688676 21:0.0 
-0.0 -0.0 -0.0 -0.9681312881538263 -0.0 -0.9330389372358032 -0.0 -1.0 -0.8994436563015468 -1.0 0.0 0.8733744783860853 0.7651548253677204 0.0 0.0 0.0 1.0 0.0 0.0 0.0 0.0 1.0 0.0 0.0 1.0 1.0 0.0 0.0 0.0 1.0 0.0 0.0 0.0 1.0 0.0 0.0 0.5670848713432646 0.0 0.0 0.0 0.0 0.0 1.0 0.0 1:2.40134E-4 2:8.15659E-4 3:0.006367329 4:0.006685847 5:1.0 6:0.027895998 7:1.63894E-4 8:0.9397084 9:0.9371632 10:0.95858544 11:0.96162856 12:0.0 13:0.93822354 14:0.911522 15:0.50496703 16:1.0 17:0.07065551 18:0.053837474 19:0.014562319 20:0.110756345 21:0.0 
-0.31224396353821404 -1.0 -0.3263724686707877 -0.0 -0.3138875483507984 -0.10365625018393324 -0.33595117053053614 -1.0 -0.4391164505825134 -0.27271102553616927 1.0 0.0 0.0 0.31972796693511074 0.3208864709049832 1.0 1.0 1.0 1.0 0.316703275215664 0.3315943180321684 0.5804749181906644 0.30760087298837563 0.3068236953699957 0.0 1.0 1.0 0.43986342038573917 0.31182833325773957 0.5384652747892401 1.0 1.0 0.31081317733798847 0.0 0.31364727497797296 0.3231210982249935 0.0 0.30998213923740553 0.3111631798901104 0.31225894591185444 1.0 0.32179478894395636 0.7289728249463225 0.736840904353558 1:0.003327804 2:0.007979468 3:0.0362777 4:0.039277665 5:1.0 6:0.09165013 7:0.0 8:0.8574536 9:0.8171647 10:0.9280518 11:0.940788 12:0.0 13:0.81505567 14:0.76978743 15:0.9205297 16:1.0 17:0.17473845 18:0.16138814 19:0.03742022 20:0.18839388 21:0.0 
-0.0 -1.0 -0.0 -0.0 -0.0 -0.0 -0.0 -1.0 -0.0 -0.0 0.9541063742213469 0.0 0.0 0.0 0.0 0.0 1.0 0.0 0.0 0.0 0.0 1.0 0.0 0.0 1.0 1.0 0.0 0.0 0.0 0.8574430939899966 0.0 0.2600201653031997 0.0 0.0 0.0 0.0 0.0 0.0 0.0 0.0 0.0 0.0 0.27102717505367746 0.0 1:6.62616E-4 2:0.002245648 3:0.014421055 4:0.015238324 5:1.0 6:0.04862699 7:9.83385E-5 8:0.90778184 9:0.898099 10:0.9461435 11:0.9516972 12:0.0 13:0.8985005 14:0.86457944 15:0.6647489 16:1.0 17:0.09660704 18:0.08208793 19:0.018658482 20:0.12944299 21:0.0 
-0.0 -0.174553052004337 -0.0 -0.0 -0.0 -0.0 -0.0 -1.0 -0.0 -0.0 0.0 0.0 0.0 0.0 0.0 1.0 0.8259101263746449 0.0 0.0 0.0 0.0 0.0 0.0 0.0 1.0 0.018251851468751815 0.0 0.0 0.0 0.0 0.0 0.0 0.0 0.0 0.0 0.0 0.4329151286567354 0.0 0.0 0.0 0.0 0.0 0.0 0.0 1:5.34242E-4 2:0.001921951 3:0.012973994 4:0.013809936 5:1.0 6:0.04544131 7:1.72279E-4 8:0.93455195 9:0.9260829 10:0.96884954 11:0.9766424 12:0.0 13:0.92819035 14:0.8894432 15:0.6572271 16:1.0 17:0.06000768 18:0.048458148 19:0.006992413 20:0.07785938 21:0.0 
-0.0 -1.0 -0.0 -0.0 -0.0 -0.0 -0.0 -1.0 -0.0 -0.0 1.0 0.0 0.0 0.0 0.0 1.0 0.17408987362535508 0.08729312793154224 0.0 0.0 0.0 0.0 0.0 0.0 0.3066894494443822 0.9817481485312481 0.4188403306809497 0.0 0.0 0.0 0.6091940572629504 0.08682031425853667 0.0 0.0 0.0 0.0 0.0 0.0 0.0 0.0 0.0 0.0 0.0 0.0 1:0.002097421 2:0.00562781 3:0.02859945 4:0.030706245 5:1.0 6:0.07766746 7:0.0 8:0.8841693 9:0.8553115 10:0.94548625 11:0.95764583 12:0.0 13:0.8554035 14:0.8146336 15:0.85094404 16:1.0 17:0.12549348 18:0.109245464 19:0.020541245 20:0.13675219 21:0.0 
-0.0 -1.0 -0.0 -0.0 -0.0 -0.0 -0.0 -1.0 -0.0 -0.0 1.0 0.0 0.0 0.0 0.0 1.0 0.0 0.0 1.0 0.0 0.0 0.0 0.0 0.0 1.0 0.0 0.0 0.0 0.0 0.1188654847721669 0.0 0.0 0.0 0.0 0.0 0.0 0.0 0.0 0.0 0.0 0.0 0.0 0.0 0.0 1:0.001651793 2:0.00462409 3:0.024903722 4:0.026692905 5:1.0 6:0.070548795 7:0.0 8:0.9108338 9:0.8868183 10:0.966444 11:0.9796325 12:0.0 13:0.8884842 14:0.85731 15:0.81873477 16:1.0 17:0.07602353 18:0.061592806 19:0.007372545 20:0.08002027 21:0.0 
-0.0 -1.0 -0.0 -0.0 -0.0 -0.0 -0.0 -1.0 -0.0 -0.0 -1.0 0.0 0.0 0.0 0.0 1.0 1.0 0.0 1.0 0.0 0.0 0.0 0.0 0.0 1.0 1.0 0.0 0.0 0.0 1.0 0.0 0.0 0.0 0.0 0.0 0.0 0.0 0.0 0.0 0.0 0.0 0.0 1.0 0.0 1:0.019176599 2:0.029010467 3:0.09846368 4:0.11868355 5:1.0 6:0.18583126 7:1.6532E-4 8:0.88065004 9:0.6668082 10:0.8511559 11:1.0 12:0.0 13:0.682869 14:0.6857093 15:1.0 16:0.61906195 17:0.24413595 18:0.056577742 19:0.001392294 20:0.01421811 21:0.0 
-0.0 -1.0 -0.0 -0.4970022144875917 -0.0 -0.6758200049893739 -0.0 -0.0 -0.0 -0.0 -0.0 0.0 0.0 0.0 0.0 0.0 0.0 1.0 0.0 0.0 0.0 1.0 0.0 0.0 0.0 0.0 1.0 0.0 0.0 0.0 1.0 0.6525495290794708 0.0 0.0 0.0 0.0 0.0 0.0 0.0 0.0 0.5670365277567483 0.0 0.0 0.0 1:0.070990026 2:0.07465088 3:0.18680872 4:0.24261834 5:1.0 6:0.2918355 7:0.0 8:0.9464293 9:0.48337433 10:0.6711356 11:0.98814005 12:0.0 13:0.52812713 14:0.5244113 15:1.0 16:0.41726565 17:0.20959558 18:0.039950773 19:0.0 20:4.26602E-4 21:7.28058E-4 
-0.0 -1.0 -0.0 -0.0 -0.0 -0.0 -0.0 -1.0 -0.0 -0.0 -1.0 0.0 0.0 0.0 0.0 1.0 1.0 0.0 0.0 0.0 0.0 0.0 0.0 0.0 0.310823147791322 1.0 0.0 0.0 0.0 0.0 0.0 0.0 0.0 0.0 0.0 0.0 0.0 0.0 0.0 0.0 0.0 0.0 0.0 0.0 1:0.027015412 2:0.035860296 3:0.11028 4:0.13620947 5:1.0 6:0.20045362 7:0.0 8:0.8761849 9:0.6245487 10:0.78601235 11:1.0 12:0.0 13:0.65529007 14:0.65101266 15:1.0 16:0.5510531 17:0.2535662 18:0.043398444 19:0.004912552 20:0.0 21:0.006867098 
-0.6228153203445047 -0.32225557231809415 -0.7261194406450615 -1.0 -0.6348570425153407 -1.0 -0.7943566481649913 -0.0 -0.9058791544858722 -0.8057718615004292 -0.0 0.0 0.0 0.6793838550068807 0.6975145538582821 0.0 0.0 1.0 0.0 0.6509556048286245 0.8206815855545347 1.0 0.5933576375382186 0.5880837269439027 0.0 0.0 1.0 1.0 0.6181382584062255 1.0 1.0 1.0 0.613101534630154 0.0 0.6346508407877764 0.7446726651404033 0.0 0.6092773389296376 0.6165235835134633 0.609578893388455 1.0 0.7149838871449716 0.0 1.0 1:0.14208975 2:0.12316344 3:0.26860943 4:0.36514342 5:1.0 6:0.37645793 7:0.0 8:0.96614605 9:0.3553663 10:0.52258426 11:0.9159766 12:0.0 13:0.4138127 14:0.39242625 15:1.0 16:0.3207647 17:0.21627742 18:0.031582244 19:0.002249426 20:0.0 21:0.002816211 
-0.0 -1.0 -0.0 -0.0 -0.0 -0.0 -0.0 -1.0 -0.7647253882460532 -0.08062187296131265 -1.0 0.08612216089609438 0.0 0.0 0.0 1.0 1.0 0.0 1.0 0.0 0.0 0.09508155011491383 0.0 0.0 1.0 1.0 0.0 0.0 0.0 1.0 0.0 0.04085579083124681 0.0 1.0 0.0 0.0 1.0 0.0 0.0 0.0 0.0 0.0 1.0 0.0 1:0.011324219 2:0.016431427 3:0.049484488 4:0.058823917 5:1.0 6:0.11430985 7:0.01009521 8:0.8806165 9:0.8165143 10:0.90891707 11:0.9956782 12:0.0 13:0.8351374 14:0.8611584 15:1.0 16:0.7960596 17:0.33875278 18:0.073422804 19:0.003568192 20:0.028981477 21:0.0 
-0.0 -1.0 -0.0 -0.0 -0.0 -0.0 -0.0 -0.0 -0.0 -0.0 -0.0 0.0 0.0 0.0 0.0 0.0 0.0 1.0 0.0 0.0 0.0 0.8562252345028301 0.0 0.0 0.0 0.0 1.0 0.0 0.0 0.0 1.0 0.0 0.0 0.0 0.0 0.0 0.0 0.0 0.0 0.0 0.0 0.0 0.0 0.0 1:0.05437748 2:0.062174957 3:0.16547087 4:0.20406842 5:1.0 6:0.2613385 7:0.0 8:0.94581014 9:0.53064436 10:0.7385858 11:0.9998639 12:0.0 13:0.55873394 14:0.5629666 15:1.0 16:0.48303193 17:0.23627055 18:0.041974682 19:0.003931932 20:0.0 21:0.005497225 
-0.0 -1.0 -0.0 -0.0 -0.0 -0.0 -0.0 -0.34456897814705434 -0.0 -0.525854207503202 -0.9541063742213469 0.7147545812776599 0.8032090807228167 0.0 0.0 1.0 0.4623468531136365 0.5249221153416022 0.0 0.0 0.0 0.0 0.0 0.0 0.0 0.07010112376921881 0.0 0.0 0.0 0.0 0.0 0.0 0.0 0.0 0.0 0.0 0.0 0.0 0.0 0.0 0.0 0.0 0.0 0.0 1:0.032102898 2:0.04030457 3:0.123211876 4:0.15961763 5:1.0 6:0.22226375 7:0.0 8:0.8776973 9:0.58226556 10:0.73785967 11:1.0 12:0.0 13:0.6268756 14:0.6005397 15:1.0 16:0.48485997 17:0.23224273 18:0.038120218 19:0.0 20:3.30827E-4 21:8.64711E-4 
-0.2809027186840898 -0.9782384773121777 -0.2885983461462142 -1.0 -0.284426766214257 -1.0 -0.29706568694466473 -0.880383522866094 -1.0 -1.0 -0.8733744783860853 -0.8008767421737543 1.0 0.28270821353398107 0.28398766454108815 0.8052927088702102 1.0 0.5670332678030375 0.7458384165177191 0.27965111447143887 0.28461016428938035 1.0 0.28144413825289066 0.28328263093803646 1.0 1.0 0.6389930571637108 0.33087193530282155 0.2868717923130937 0.9647697173811068 0.6993965178145332 1.0 0.28131431965245113 0.832274536181555 0.28182583601809286 0.2769584736016986 0.8111971738861412 0.2828246891727259 0.28134306475870874 0.28712073260633214 0.5533165757251147 0.2815940242410096 0.8320589729142269 0.4551244424516278 1:6.62651E-5 2:1.04477E-4 3:7.49836E-4 4:7.70709E-4 5:1.0 6:0.006458393 7:2.17396E-5 8:0.8151245 9:0.81507325 10:0.81741714 11:0.8173513 12:0.0 13:0.814677 14:0.7217212 15:0.005857974 16:0.029726107 17:0.037465435 18:0.03692529 19:1.0 20:0.17373039 21:0.0 
-0.31508740275171804 -0.9066866791610926 -0.3235147395973113 -1.0 -0.3189561628114281 -1.0 -0.3314589447380446 -0.7791132369993778 -1.0 -1.0 -0.7651548253677204 -0.8032090807228167 -1.0 0.3162466370781213 0.3174633244229922 0.7938701627121323 0.9761960317542204 0.6211444106346201 0.7009947126518044 0.31288952217284643 0.31762614736085837 1.0 0.316065182423409 0.3182236589361443 1.0 1.0 0.6844243759412639 0.3639561090947496 0.32219572728718415 0.8994890802364426 0.7270293108145943 1.0 0.315547273525043 0.7198150816112009 0.31585943252929394 0.30888191866373294 0.708071735411889 0.31766273149790986 0.315639025185086 0.32238443089869234 0.6085366303000587 0.3150626945006827 0.7421600507501728 0.5016610818080234 1:4.44924E-4 2:5.86549E-4 3:0.002079182 4:0.002162297 5:1.0 6:0.012442662 7:7.00922E-5 8:0.7239067 9:0.72374403 10:0.72936267 11:0.7284683 12:0.05242413 13:0.7222084 14:0.5 15:0.004768158 16:0.013813403 17:0.03293672 18:0.031203013 19:1.0 20:0.11161778 21:0.0 
-1.0 -0.6054285184799681 -1.0 -1.0 -1.0 -1.0 -1.0 -0.29608999666945335 -1.0 -1.0 -0.31972796693511074 -0.6793838550068807 -0.28270821353398107 -0.3162466370781213 1.0 0.44650727545313185 0.47138042918017536 1.0 0.35745905968808617 1.0 1.0 1.0 1.0 1.0 0.29055751591274237 0.40939231610427734 1.0 1.0 1.0 1.0 1.0 1.0 1.0 0.26139511177573976 1.0 1.0 0.26771405499665857 1.0 1.0 1.0 1.0 1.0 0.30832975445886895 0.9244712461446506 1:1.0 2:0.32619253 3:0.27199346 4:0.4252533 5:0.07334431 6:0.17259811 7:0.0 8:1.0 9:0.018870853 10:0.058288675 11:0.18263467 12:0.0 13:0.018570201 14:0.00109719 15:1.0 16:0.11626413 17:0.008995449 18:0.002452938 19:3.05631E-6 20:4.22177E-4 21:0.0 
-1.0 -0.622169728839149 -1.0 -1.0 -1.0 -1.0 -1.0 -0.2971084358875628 -1.0 -0.23807566620918413 -0.3208864709049832 -0.6975145538582821 -0.28398766454108815 -0.3174633244229922 -0.0 0.45131249087098024 0.47750816618163305 1.0 0.3599219643112154 0.0 1.0 1.0 1.0 1.0 0.2917845144839407 0.41319241357332614 1.0 1.0 1.0 1.0 1.0 1.0 0.0 0.26209366991909383 0.0 1.0 0.26846852269897997 1.0 1.0 1.0 1.0 1.0 0.3092535728174688 0.9627054401860554 1:1.0 2:0.32355502 3:0.2782446 4:0.46678504 5:0.08973321 6:0.195444 7:0.0 8:1.0 9:0.018130174 10:0.056047466 11:0.20841424 12:0.0 13:0.023169627 14:0.00905467 15:1.0 16:0.10276727 17:0.021036768 18:3.46515E-4 19:3.58992E-7 20:2.2729E-5 21:0.0 
-1.0 -0.0 -1.0 -1.0 -1.0 -1.0 -1.0 -0.0 -1.0 -1.0 -0.0 -0.0 -0.0 -0.0 -1.0 0.0 0.0 0.9500208884756536 0.0 1.0 1.0 0.4965392752925919 1.0 1.0 0.0 0.0 0.3131881209874702 0.0 1.0 0.006949458522354057 0.13546502449278708 0.2153837690280423 1.0 0.0 1.0 1.0 0.0 1.0 1.0 1.0 1.0 1.0 0.0 0.0 1:1.0 2:0.32485446 3:0.26566708 4:0.43319628 5:0.07574327 6:0.17776541 7:0.0 8:1.0 9:0.014156599 10:0.04893509 11:0.18392438 12:0.0 13:0.017922074 14:0.00757232 15:1.0 16:0.10902419 17:0.00499435 18:8.66646E-6 19:0.0 20:1.3902E-6 21:6.73184E-10 
-0.42743077131726104 -1.0 -0.46119757759142416 -1.0 -0.43274485572644944 -1.0 -0.48690484561070824 -1.0 -1.0 -1.0 -1.0 -1.0 -0.2542422828080445 -0.7938701627121323 -0.44650727545313185 -0.45131249087098024 1.0 1.0 0.33399244395450334 0.43673876910768306 0.4807660438661683 1.0 0.41751201411479716 0.4159494730586438 0.0 0.36395206194194163 1.0 0.7207603155402436 0.4264874523618262 1.0 1.0 1.0 0.42442389479263354 0.0 0.4316916971165302 0.4587956686518757 0.0 0.42303693473851084 0.42538918877370213 0.42683113623014357 1.0 0.45365281016412495 0.0 1.0 1:0.034657273 2:0.04567361 3:0.13124897 4:0.15900445 5:1.0 6:0.22670187 7:0.0 8:0.8923309 9:0.6147813 10:0.82597876 11:1.0 12:0.0 13:0.64821225 14:0.55140007 15:1.0 16:0.5550495 17:0.025608756 18:0.009778226 19:1.22772E-4 20:0.006502676 21:0.0 
-0.0 -1.0 -0.0 -0.0 -0.0 -0.0 -0.0 -1.0 -0.5047707589536125 -0.0 -1.0 -1.0 -0.10663069771121808 -0.0 -0.0 -0.0 1.0 0.0 0.6660075560454967 0.0 0.0 0.5255981811525359 0.0 0.0 1.0 1.0 0.0 0.0 0.0 1.0 0.0 0.0 0.0 1.0 0.0 0.0 1.0 0.0 0.0 0.0 0.0 0.0 1.0 0.0 1:6.21195E-4 2:0.002797305 3:0.018735578 4:0.02124141 5:1.0 6:0.060359687 7:0.0 8:0.93593085 9:0.91929823 10:0.9712943 11:1.0 12:0.0 13:0.93022656 14:0.8726429 15:0.85359657 16:1.0 17:0.017579826 18:0.020373523 19:6.76735E-4 20:0.025569549 21:0.0 
-0.0 -1.0 -0.0 -0.21428187838159193 -0.0 -0.2872540043915759 -0.0 -1.0 -0.0 -0.28661609142496275 -1.0 -1.0 -0.4444197283509476 -0.0 -0.0 -0.0 1.0 1.0 0.0 0.0 0.0 1.0 0.0 0.0 1.0 1.0 1.0 0.0 0.0 1.0 1.0 0.31454630670788136 0.0 0.0 0.0 0.0 0.0 0.0 0.0 0.0 0.07391558031371874 0.0 0.0 0.0 1:0.017281985 2:0.026412264 3:0.08845673 4:0.10687037 5:1.0 6:0.17394072 7:0.0 8:0.8647191 9:0.69867635 10:0.8560248 11:1.0 12:0.0 13:0.7325782 14:0.6378858 15:1.0 16:0.62557817 17:0.012722706 18:0.006607928 19:5.46794E-5 20:0.004913185 21:0.0 
-0.0 -1.0 -0.0 -0.0 -0.0 -0.0 -0.0 -1.0 -0.0 -0.0 -1.0 -1.0 -0.0 -0.0 -0.0 -0.0 1.0 0.0 1.0 0.0 0.0 0.0 0.0 0.0 1.0 1.0 0.0 0.0 0.0 0.0 0.03247357121402761 0.0 0.0 0.0 0.0 0.0 0.0 0.0 0.0 0.0 0.0 0.0 1.0 0.0 1:0.005582916 2:0.011027349 3:0.046000667 4:0.054402802 5:1.0 6:0.111442715 7:0.0 8:0.8847713 9:0.8207974 10:0.9203229 11:1.0 12:0.0 13:0.8446575 14:0.7908429 15:1.0 16:0.8079754 17:0.034920897 18:0.022762433 19:7.32506E-4 20:0.021516507 21:0.0 
-0.0 -0.92951382040414 -0.0 -0.0 -0.0 -0.0 -0.0 -1.0 -0.0 -0.42388259315223176 -1.0 -0.4623468531136365 -0.0 -0.0 -0.0 -0.0 -1.0 0.0 0.0 0.0 0.0 1.0 0.0 0.0 1.0 1.0 0.0 0.0 0.0 0.978463511969053 0.0 0.0 0.0 0.6157947030689407 0.0 0.0 0.527781476936762 0.0 0.0 0.0 0.0 0.0 0.0 0.0 1:1.21918E-5 2:4.16667E-5 3:6.17549E-4 4:6.31636E-4 5:1.0 6:0.005782457 7:7.38025E-6 8:0.9461166 9:0.9460643 10:0.9482552 11:0.94840986 12:0.0 13:0.9461928 14:0.94040304 15:0.2221845 16:1.0 17:0.077268146 18:0.072543494 19:0.114912294 20:0.3335545 21:0.0 
-0.0 -1.0 -0.0 -0.0 -0.0 -0.0 -0.0 -1.0 -0.0 -0.0 -1.0 -1.0 -0.0 -0.0 -0.0 -0.0 -1.0 0.7261047780089567 1.0 0.0 0.0 0.07740560185537522 0.0 0.0 1.0 1.0 1.0 0.0 0.0 0.9142540777107929 1.0 0.0 0.0 0.3842052969310593 0.0 0.0 0.472218523063238 0.0 0.0 0.0 0.06385666034584839 0.0 1.0 0.0 1:0.00714498 2:0.013803432 3:0.055233292 4:0.059529856 5:1.0 6:0.11954411 7:0.0 8:0.89397115 9:0.8111735 10:0.965555 11:1.0 12:0.0 13:0.8164277 14:0.8072848 15:1.0 16:0.9200807 17:0.008683838 18:0.003718271 19:2.76576E-5 20:0.003245119 21:0.0 
-0.4465369094854037 -1.0 -0.48998782063114404 -0.8315983101359125 -0.45103047425482745 -0.8664190953720222 -0.5171637455500382 -1.0 -0.5161949205423703 -0.4285415919221797 -1.0 -1.0 -0.2312370230886519 -0.3383954853012854 -0.47138042918017536 -0.47750816618163305 -1.0 1.0 0.6552794655672807 0.45989823790025425 0.525725219576947 1.0 0.4324105353970021 0.4299001671646811 1.0 1.0 1.0 0.8351937452368936 0.443876897904933 1.0 1.0 0.722238061798797 0.4416487023198489 0.0 0.4513356287769569 0.49759430678303407 0.0 0.4398031030636578 0.4433126467942417 0.44109865503740975 1.0 0.48590369449307924 0.012759570187111423 1.0 1:0.06317957 2:0.07661744 3:0.19622508 4:0.22078381 5:1.0 6:0.2843133 7:0.0 8:0.99407554 9:0.53764296 10:0.86989063 11:0.9973124 12:0.0 13:0.5510826 14:0.5597505 15:1.0 16:0.5600434 17:0.00149591 18:0.001283816 19:1.30466E-6 20:6.01785E-4 21:0.0 
-0.0 -1.0 -0.0 -0.5439933028805415 -0.0 -0.5648930242589951 -0.0 -1.0 -0.9347897401715518 -1.0 -1.0 -1.0 -0.7687629769113481 -0.637800546452935 -0.0 -0.0 -1.0 0.0 0.34472053443271927 0.0 0.0 1.0 0.0 0.0 1.0 1.0 0.0 0.0 0.0 0.0 0.0 0.7669702670117534 0.0 0.0 0.0 0.0 0.0 0.0 0.0 0.0 0.0 0.0 0.9872404298128886 0.0 1:1.09193E-5 2:6.87051E-5 3:0.001028587 4:0.001044388 5:1.0 6:0.008152481 7:0.0 8:0.93101764 9:0.9308953 10:0.93468326 11:0.9347315 12:0.0 13:0.93077254 14:0.9199398 15:0.25887117 16:1.0 17:0.102195114 18:0.09814011 19:0.15061653 20:0.38258597 21:0.0 
-0.7752702007355236 -0.0 -0.9158184831937446 -1.0 -0.7816812373169559 -1.0 -1.0 -0.0 -0.0 -0.0 -0.0 -0.5249221153416022 -0.0 -0.0 -0.11464850526454166 -0.9500208884756537 -0.0 -0.0 0.0 0.08825119561906551 1.0 0.0 0.6828906620976919 0.6591243399483663 0.0 0.0 1.0 0.8851875771116908 0.7109667294819546 0.0 1.0 0.0 0.022538698299855456 0.0 0.0511932666264641 1.0 0.0 0.704456441426047 0.7442841980657976 0.698845530502363 1.0 0.9862726728388188 0.0 0.9778145388433243 1:0.23971179 2:0.21300194 3:0.41422337 4:0.4959213 5:1.0 6:0.48199016 7:0.0 8:1.0 9:0.2509883 10:0.53542185 11:0.72649986 12:0.0 13:0.26898947 14:0.24818584 15:1.0 16:0.38929954 17:0.016165532 18:0.002953108 19:1.59547E-5 20:3.84612E-4 21:0.0 
-1.0 -0.0 -1.0 -1.0 -1.0 -1.0 -1.0 -0.0 -1.0 -0.9556613078030985 -0.0 -0.0 -0.0 -0.004817893734481054 -0.8853514947354584 -1.0 -0.0 -0.0 0.0 0.9117488043809345 1.0 0.3902233319252706 1.0 1.0 0.0 0.0 0.6107749823323599 0.11481242288830915 1.0 0.0 0.13223111439699076 0.6119767614679034 0.9774613017001446 0.0 0.9488067333735359 1.0 0.0 1.0 1.0 1.0 1.0 1.0 0.0 0.02218546115667576 1:1.0 2:0.17204654 3:0.08629498 4:0.21267478 5:0.011231143 6:0.054847922 7:0.0 8:1.0 9:0.027608726 10:0.008878853 11:0.12656562 12:4.39495E-4 13:0.014018674 14:0.00141802 15:1.0 16:0.029716466 17:0.011364111 18:0.001037841 19:7.35561E-5 20:0.0 21:7.42535E-5 
-0.0 -1.0 -0.0 -0.0 -0.0 -0.0 -0.0 -0.0 -0.5636638747058513 -0.0 -0.08729312793154224 -1.0 -0.0 -0.0 -0.0 -0.0 -1.0 -0.7261047780089567 0.28793362475829265 0.0 0.0 1.0 0.0 0.0 0.0 0.3086333264296765 1.0 0.0 0.0 1.0 1.0 0.9848652960676106 0.0 0.0 0.0 0.0 0.0 0.0 0.0 0.0 0.14427955602445489 0.0 0.0 0.0 1:0.1891083 2:0.1811186 3:0.37095106 4:0.42789245 5:1.0 6:0.4400659 7:0.0 8:1.0 9:0.2893932 10:0.62202156 11:0.75978047 12:0.0 13:0.2976658 14:0.28654948 15:1.0 16:0.43897614 17:0.010795563 18:0.004270296 19:2.11117E-5 20:0.001415225 21:0.0 
-0.0 -1.0 -0.0 -0.0 -0.0 -0.0 -0.0 -0.9761098608539331 -1.0 -0.5452658268875848 -1.0 -1.0 -0.5670332678030375 -0.6163265169001391 -0.0 -0.0 -1.0 -1.0 1.0 0.0 0.0 1.0 0.0 0.0 0.7830074655506699 1.0 1.0 0.0 0.0 1.0 0.8677688856030092 0.0 0.0 0.7281831016432738 0.0 0.0 0.7722937104919557 0.0 0.0 0.0 0.0 0.0 0.9981262073525778 0.0 1:0.1866906 2:0.17691593 3:0.36261117 4:0.42577893 5:1.0 6:0.43707004 7:0.0 8:1.0 9:0.29569915 10:0.60615796 11:0.7773505 12:0.0 13:0.31074566 14:0.29187205 15:1.0 16:0.42378357 17:0.013194491 18:0.00346856 19:1.82038E-5 20:8.45763E-4 21:0.0 
-0.0 -0.5168458754039849 -0.0 -0.6830084078049208 -0.0 -0.7732507148912677 -0.08196061161227458 -0.0 -0.0 -0.0 -0.0 -1.0 -0.0 -0.0 -0.0 -0.0 -0.0 -0.0 0.0 0.0 0.14982071363152638 0.99859564611925 0.0 0.0 0.0 0.0 1.0 0.0 0.0 0.11329584862713145 1.0 0.0 0.0 0.0 0.0 0.0 0.0 0.0 0.0 0.0 1.0 0.0 0.0 0.0 1:0.22469726 2:0.20586307 3:0.40672323 4:0.4754592 5:1.0 6:0.47085968 7:0.0 8:1.0 9:0.25822088 10:0.5701083 11:0.7252072 12:0.0 13:0.26955652 14:0.25522736 15:1.0 16:0.4135509 17:0.011432794 18:0.003641071 19:1.73773E-5 20:9.49858E-4 21:0.0 
-0.3459629100067816 -1.0 -0.3669835252948885 -0.987932629458582 -0.34861386801367283 -1.0 -0.3812724962375515 -1.0 -1.0 -1.0 -1.0 -1.0 -0.7458384165177191 -0.7009947126518044 -0.35745905968808617 -0.3599219643112154 -1.0 -1.0 -1.0 0.3523208376939795 0.37819071784910974 1.0 0.3393390540647034 0.33822496991346285 1.0 1.0 1.0 0.5304034859875858 0.34513133711386845 1.0 1.0 1.0 0.343863239052301 0.0 0.348274275628326 0.3654079446126745 0.0 0.3428338030915947 0.3444736997300855 0.3453443640523469 1.0 0.3621577434014137 1.0 0.9616996491770594 1:0.018636996 2:0.029298237 3:0.09205181 4:0.101489656 5:1.0 6:0.17079906 7:0.0 8:0.8889671 9:0.72363424 10:0.9634146 11:0.9994641 12:0.0 13:0.71745497 14:0.7820767 15:1.0 16:0.77920943 17:0.07605405 18:0.078324646 19:0.005709758 20:0.065971725 21:0.0 
-0.0 -1.0 -0.0 -0.0 -0.0 -0.0 -0.0 -1.0 -0.3951028924268528 -0.06527500619959595 -1.0 -1.0 -0.0 -0.0 -0.0 -0.0 -1.0 -1.0 -0.28793362475829265 0.0 0.0 1.0 0.0 0.0 1.0 1.0 0.685592168187227 0.0 0.0 1.0 0.8897544170110124 0.15786555727176382 0.0 1.0 0.0 0.0 1.0 0.0 0.0 0.0 0.0 0.0 1.0 0.0 1:0.005175892 2:0.010807045 3:0.046508025 4:0.049390648 5:1.0 6:0.10573939 7:0.0 8:0.9035068 9:0.83855057 10:0.9825368 11:1.0 12:0.0 13:0.83738995 14:0.83679396 15:0.9892164 16:1.0 17:0.023292745 18:0.004653869 19:0.002388267 20:0.0 21:0.002407307 
-1.0 -0.579690507258016 -1.0 -1.0 -1.0 -1.0 -1.0 -0.2933398599846586 -1.0 -1.0 -0.316703275215664 -0.6509556048286245 -0.27965111447143887 -0.31288952217284643 -1.0 -1.0 -0.43673876910768306 -0.45989823790025425 -1.0 -0.3523208376939795 1.0 1.0 1.0 1.0 0.28781134554688537 0.4018153906041485 1.0 0.9456347078301562 1.0 0.9598158171366422 1.0 1.0 1.0 0.25927593235527446 1.0 1.0 0.26547205528396606 1.0 1.0 1.0 1.0 1.0 0.30581256428106707 0.8696951355428347 1:1.0 2:0.3333083 3:0.2660512 4:0.3655894 5:0.053134523 6:0.14317907 7:0.0 8:1.0 9:0.005903978 10:0.06557971 11:0.13126758 12:0.0 13:0.007491306 14:0.004837361 15:1.0 16:0.1360827 17:0.008804241 18:0.001981873 19:2.87385E-6 20:2.09542E-4 21:0.0 
-0.7429797826998706 -0.5909293908679207 -0.9884225803491768 -1.0 -0.6908188044289967 -0.29539674516028464 -1.0 -0.14409102266143425 -0.13685985880917648 -0.0 -0.1567401694241144 -0.5530734091809826 -0.07159072196593871 -0.06777803133268118 -0.0 -0.0 -0.26385713735468846 -0.3331989978845148 -0.5972944036910047 -0.20465053779321274 -0.0 1.0 0.4172018454597499 0.30151409425331815 0.10515952861615373 0.2664807085344464 1.0 1.0 0.3977660971321887 1.0 1.0 0.5141449500301167 0.0 0.12045810707177065 0.0 0.45593334931261337 0.12467969209404751 0.4150907402535079 0.0 0.0 1.0 0.07340043402010579 0.13890988247170302 0.9500285971991049 1:1.0 2:0.57779235 3:0.7620728 4:0.9619457 5:0.60653937 6:0.62572587 7:0.0 8:1.0 9:0.052165784 10:0.21609752 11:0.34549898 12:0.0 13:0.05929028 14:0.05112305 15:1.0 16:0.245978 17:0.021838935 18:0.002998412 19:5.74007E-4 20:0.0 21:5.76407E-4 
-1.0 -0.0 -1.0 -1.0 -1.0 -0.9851802817596669 -1.0 -0.0 -1.0 -0.2293352630869482 -0.0 -0.0 -0.0 -0.0 -0.0 -1.0 -0.0 -0.0 -0.5525263099405217 -0.0 -0.0 1.0 1.0 1.0 0.0 0.0 1.0 0.0 1.0 0.07084681960781183 0.7815197525695218 0.0 0.0 0.0 0.0 1.0 0.0 1.0 1.0 1.0 1.0 1.0 0.0 0.0 1:1.0 2:0.376876 3:0.34351185 4:0.49241334 5:0.10989556 6:0.22187401 7:0.0 8:1.0 9:0.013837706 10:0.0774846 11:0.1895413 12:0.0 13:0.018072424 14:0.010682016 15:1.0 16:0.1429524 17:0.010429323 18:0.001328233 19:9.66967E-5 20:0.0 21:9.61306E-5 
-1.0 -0.16954627648845727 -1.0 -1.0 -1.0 -1.0 -1.0 -0.1620453758540373 -1.0 -1.0 -0.17485414860805407 -0.2676081763735521 -0.2130194423234416 -0.24984811602817716 -1.0 -1.0 -0.21690890651147982 -0.1925262216924322 -1.0 -0.17354018005589697 -1.0 0.08852946436276805 1.0 1.0 0.19044183893275726 0.17818203096021448 0.0 0.0 1.0 0.0 0.0 0.7252898079934035 1.0 0.14793800076574454 1.0 0.5440666506873866 0.1505425327014099 1.0 1.0 1.0 0.9616594708471259 0.9265995659798942 0.17867493054937048 0.04997140280089507 1:1.0 2:0.33243075 3:0.27326185 4:0.4304297 5:0.07580463 6:0.17777517 7:0.0 8:1.0 9:0.013225527 10:0.051552843 11:0.17768648 12:0.0 13:0.01676224 14:0.007665886 15:1.0 16:0.115027525 17:0.004144227 18:4.46861E-4 19:6.30404E-5 20:0.0 21:6.32268E-5 
-0.0013295699291218733 -1.0 -0.19902699740885302 -0.22821133890337442 -0.0 -0.6379811777765164 -0.569157343918112 -0.4125838846628336 -0.0 -0.0 -0.5193201933974412 -1.0 -0.0 -0.0 -0.0 -0.32242741871280883 -0.8693953594281498 -0.6827797108904086 -1.0 -0.569661477856029 -0.0 -1.0 0.0 0.0 0.2972268686820384 0.751460641376267 1.0 0.9718239513157567 0.0 1.0 1.0 0.01895005002362365 0.0 0.0278870030670991 0.0 0.8658415598856729 0.047190931665984474 0.0 0.0 0.0 1.0 0.44234308463374017 0.3628570339586037 0.7933695118985261 1:0.68486 2:0.5293264 3:0.7371327 4:0.82443 5:0.87909746 6:0.6686343 7:0.0 8:1.0 9:0.10490348 10:0.5040891 11:0.4309909 12:0.0 13:0.07376038 14:0.09818405 15:1.0 16:0.41115615 17:0.070581146 18:0.053774368 19:0.001626884 20:0.024087371 21:0.0 
-0.0 -1.0 -0.0 -0.0 -0.0 -0.0 -0.0 -1.0 -0.4441757881121537 -0.18797107825095133 -1.0 -1.0 -0.0 -0.0 -0.0 -0.0 -1.0 -1.0 -0.9745032829315362 -1.0 -0.0 -0.0 0.0 0.0 1.0 1.0 0.8822345324469014 0.0 0.0 1.0 1.0 0.0 0.0 0.9721129969329009 0.0 0.0 0.9528090683340156 0.0 0.0 0.0 0.28266024389697086 0.0 1.0 0.14003589987977458 1:1.74073E-5 2:3.55353E-5 3:4.35875E-4 4:4.44416E-4 5:1.0 6:0.004515032 7:0.0 8:0.9600369 9:0.96000814 10:0.96157074 11:0.96164143 12:0.0 13:0.96002275 14:0.9725299 15:0.19396023 16:1.0 17:0.011825327 18:0.019460084 19:0.008039493 20:0.10286298 21:0.0 
-0.19255700789249394 -0.0 -0.17351207288841827 -1.0 -0.1983101600337331 -1.0 -0.1878501543529244 -0.0 -0.32324246035721627 -1.0 -0.0 -0.5830580667755108 -0.9528738920002658 -0.937795199497541 -0.08376812167647314 -0.17411185657978312 -0.0 -0.0 -0.4143156951129843 -0.0 -0.08539496193732485 -0.08852946436276805 0.1719217771675016 0.16472057134119036 1.0 0.0 0.2867014980681151 0.028176048684243254 0.16920974020099933 0.0 0.3374795658216367 0.0 0.1180240108653033 0.0 0.10613196584948625 0.09355187822487065 0.0 0.17232278310740803 0.18424650415978155 0.18251693663191115 0.35049896776141154 0.1396699728148374 0.0 0.06659458822169931 1:5.81084E-5 2:6.58112E-5 3:2.63781E-4 4:2.6589E-4 5:1.0 6:0.002879667 7:2.77849E-5 8:0.83156216 9:0.83155507 10:0.83230555 11:0.8322377 12:0.0 13:0.8313067 14:0.76083034 15:0.001485585 16:0.011640094 17:0.015551809 18:0.015347297 19:1.0 20:0.10833585 21:0.0 
-1.0 -0.19512480341850919 -1.0 -1.0 -1.0 -1.0 -1.0 -0.0 -1.0 -0.8120289217490486 -0.0 -0.368248717842233 -0.009366953925249902 -0.06220480050245901 -0.9162318783235268 -1.0 -0.0 -0.0 -1.0 -0.0 -0.9146050380626751 -1.0 1.0 1.0 0.0 0.0 1.0 0.0 1.0 0.16779565554367423 1.0 1.0 0.8819759891346967 0.0 0.8938680341505137 1.0 0.0 1.0 1.0 1.0 1.0 1.0 0.0 0.0 1:0.93384135 2:0.5743732 3:0.75407845 4:0.85383886 5:0.5504901 6:0.5615413 7:0.0 8:1.0 9:0.044535372 10:0.29712227 11:0.28700957 12:0.0 13:0.030654851 14:0.040825088 15:1.0 16:0.3127041 17:0.03561961 18:0.023822775 19:2.81789E-4 20:0.008405578 21:0.0 
-0.0 -0.415690534769596 -0.0 -0.16641203234593666 -0.0 -0.11960477774272868 -0.0 -0.1369185663588807 -0.0 -1.0 -0.06115472479322359 -0.0 -0.0 -0.0 -0.0 -0.0 -0.3669742380002935 -0.3946258909649668 -0.0 -0.0 -0.0 -0.0 0.0 0.0 1.0 0.6036552015440998 0.0 0.0 0.0 0.32655541923597065 0.0 0.0 0.0 0.0 0.0 0.0 0.0 0.0 0.0 0.0 0.0 0.0 0.0 0.0 1:6.35397E-5 2:6.8325E-5 3:2.11099E-4 4:2.12737E-4 5:1.0 6:0.002307946 7:4.81814E-5 8:0.87298447 9:0.87298 10:0.8735153 11:0.87349576 12:0.0 13:0.8728621 14:0.8413357 15:0.001687136 16:0.032503 17:0.020396156 18:0.022190802 19:1.0 20:0.18916078 21:0.0 
-0.0 -0.49453215355931807 -0.0 -0.0 -0.0 -0.0 -0.0 -0.9580944906217335 -0.4119127707535517 -1.0 -1.0 -0.0 -0.037759154074484234 -0.0 -0.0 -0.0 -0.28922858372409277 -1.0 -0.0 -0.4303385221439708 -0.0 -0.0 0.0 0.0 1.0 1.0 0.0 0.0 0.0 0.5056489252203551 0.0 0.9810499499763764 0.0 0.0 0.0 0.0 0.0 0.0 0.0 0.0 0.0 0.0 0.6371429660413963 0.0 1:7.7392E-5 2:1.07652E-4 3:6.8772E-4 4:7.06739E-4 5:1.0 6:0.005915358 7:6.8275E-5 8:0.9110694 9:0.91101867 10:0.91315436 11:0.913297 12:0.0 13:0.9110628 14:0.9132863 15:0.20479335 16:0.9776784 17:0.24117033 18:0.18905188 19:1.0 20:0.9280694 21:0.0 
-1.0 -0.0 -1.0 -1.0 -1.0 -0.2274886960361111 -1.0 -0.0 -1.0 -0.0 -0.0 -0.0 -0.0 -0.0 -0.0 -0.0 -0.0 -0.0 -0.0 -0.0 -0.0 -0.4172018454597499 -0.0 1.0 0.0 0.0 0.0 0.0 1.0 0.0 0.0 0.0 0.0 0.0 0.0 0.0 0.0 1.0 0.0 0.0 0.0 0.0 0.0 0.0 1:1.0 2:0.19522789 3:0.09976503 4:0.19299981 5:0.009551143 6:0.050849743 7:0.0 8:1.0 9:0.012379355 10:0.010480719 11:0.093223184 12:0.0 13:0.006819626 14:9.44113E-4 15:1.0 16:0.05193522 17:0.001928381 18:2.1923E-4 19:3.14432E-8 20:2.11313E-5 21:0.0 
-1.0 -0.0 -1.0 -1.0 -1.0 -1.0 -1.0 -0.0 -0.0 -0.0 -0.0 -0.0 -0.0 -0.0 -0.0 -1.0 -0.0 -0.0 -0.6828906620976919 -0.0 -0.0 -1.0 -0.1719217771675016 1.0 0.0 0.0 0.0 0.0 1.0 0.0 0.0 0.1741844648310067 0.0 0.0 0.0 1.0 0.0 0.0 1.0 0.0 0.5452334967252408 1.0 0.0 0.0 1:1.0 2:0.19999766 3:0.10357613 4:0.19505633 5:0.00989178 6:0.05203293 7:0.0 8:1.0 9:0.011238387 10:0.01143506 11:0.09197536 12:0.0 13:0.006473309 14:9.87522E-4 15:1.0 16:0.055372413 17:0.001241989 18:1.71635E-4 19:1.42187E-8 20:1.76188E-5 21:0.0 
-1.0 -0.5243344701653173 -1.0 -1.0 -1.0 -1.0 -1.0 -0.2858238544036819 -1.0 -0.0 -0.30760087298837563 -0.5933576375382186 -0.0 -0.0 -1.0 -1.0 -0.41751201411479716 -0.4324105353970021 -1.0 -0.3393390540647034 -1.0 -1.0 -1.0 0.0 0.0 0.3819079096820701 0.8965366922620152 0.7123244764395108 1.0 0.7331588837864972 0.7814084929026763 1.0 1.0 0.25399822918303394 1.0 1.0 0.25982627652505935 1.0 1.0 0.0 1.0 1.0 0.29837702204225697 0.7084494282215505 1:1.0 2:0.20162797 3:0.105897956 4:0.19928992 5:0.010460108 6:0.053676385 7:0.0 8:1.0 9:0.01151743 10:0.012106036 11:0.094296515 12:0.0 13:0.006759297 14:0.001050494 15:1.0 16:0.055603348 17:0.002202931 18:2.87822E-4 19:4.72836E-8 20:2.96802E-5 21:0.0 
-1.0 -0.0 -1.0 -1.0 -1.0 -0.0 -1.0 -0.0 -0.0 -1.0 -0.0 -0.0 -0.28144413825289066 -0.316065182423409 -0.0 -0.0 -0.0 -0.0 -0.0 -0.0 -0.0 -0.0 -0.0 1.0 0.015388717534029612 0.0 0.0 0.0 1.0 0.0 0.0 0.0 0.0 0.0 0.0 0.0 0.0 1.0 0.0 1.0 0.0 0.0 0.0 0.0 1:1.0 2:0.1729878 3:0.07977302 4:0.17292602 5:0.006950698 6:0.042077262 7:0.0 8:1.0 9:0.016038934 10:0.005701403 11:0.090503305 12:0.0 13:0.007155576 14:6.32134E-4 15:1.0 16:0.039513525 17:0.00119926 18:5.77379E-5 19:2.18312E-6 20:0.0 21:2.18581E-6 
-1.0 -0.0 -1.0 -1.0 -1.0 -0.0 -1.0 -0.0 -0.23091284828858732 -0.24725211375754277 -0.0 -0.0 -0.0 -0.0 -0.0 -0.0 -0.0 -0.0 -0.0 -0.0 -0.0 -0.0 -0.0 1.0 0.2697560156964415 0.0 0.0 0.0 1.0 0.0 0.0 0.0 0.0 0.0 0.0 0.0 0.0 1.0 0.0 1.0 0.0 0.0 0.0 0.0 1:1.0 2:0.18500553 3:0.09123102 4:0.18464743 5:0.008449955 6:0.047023878 7:0.0 8:1.0 9:0.014016892 10:0.008898701 11:0.09267005 12:0.0 13:0.007051562 14:8.33502E-4 15:1.0 16:0.046030387 17:0.002958217 18:3.56815E-4 19:6.9261E-8 20:3.32772E-5 21:0.0 
-1.0 -0.0 -1.0 -1.0 -1.0 -1.0 -1.0 -0.0 -1.0 -0.0 -0.0 -0.0 -0.0 -0.0 -0.0 -1.0 -0.0 -0.0 -0.6591243399483663 -0.0 -0.0 -1.0 -0.16472057134119047 -1.0 0.0 0.0 0.0 0.0 1.0 0.0 0.0 0.16836277492195398 0.0 0.0 0.0 1.0 0.0 1.0 1.0 0.0 0.44738697219488455 1.0 0.0 0.0 1:1.0 2:0.1596206 3:0.07112236 4:0.17115124 5:0.006543555 6:0.040206756 7:0.0 8:1.0 9:0.021264471 10:0.005086146 11:0.09760812 12:9.25892E-5 13:0.008804234 14:6.02411E-4 15:1.0 16:0.0303873 17:0.004534542 18:5.00224E-4 19:1.98623E-7 20:1.72869E-5 21:0.0 
-1.0 -0.0 -1.0 -1.0 -1.0 -0.2222187287459151 -1.0 -0.28529653623629114 -0.22978419966400268 -0.2518527120525759 -0.2863465194143563 -0.0 -0.0 -0.0 -0.0 -0.0 -0.32009680665086815 -0.0 -0.0 -0.0 -0.0 -0.30151409425331815 -0.0 -1.0 0.0 0.0 0.0 0.0 1.0 0.0 0.0 0.0 0.0 0.0 0.0 0.0 0.0 1.0 0.0 0.0 0.0 0.0 0.0 0.0 1:1.0 2:0.14474995 3:0.060378857 4:0.16277246 5:0.005568161 6:0.036220804 7:0.0 8:1.0 9:0.025463931 10:0.004296592 11:0.09990908 12:2.21935E-4 13:0.009696618 14:5.57305E-4 15:1.0 16:0.022956885 17:0.005573307 18:0.001074849 19:6.09216E-7 20:5.27186E-5 21:0.0 
-1.0 -0.5193541048216501 -1.0 -1.0 -1.0 -1.0 -1.0 -0.0 -1.0 -0.0 -0.02047717595563944 -0.5880837269439027 -0.0 -0.0 -1.0 -1.0 -0.09585266640777568 -0.4299001671646811 -1.0 -0.33822496991346285 -1.0 -1.0 -1.0 -1.0 0.0 0.3800903804672922 0.8645912862390612 0.6904497901915428 1.0 0.7124249121190287 0.757765310136288 1.0 1.0 0.0 1.0 1.0 0.0 1.0 1.0 1.0 1.0 1.0 0.0 0.6926395361459258 1:1.0 2:0.17725046 3:0.08450128 4:0.18104509 5:0.007856878 6:0.045063093 7:0.0 8:1.0 9:0.016335428 10:0.006919034 11:0.0946677 12:0.0 13:0.007661437 14:7.20414E-4 15:1.0 16:0.040692333 17:0.002703996 18:3.40745E-4 19:8.69812E-8 20:1.27206E-5 21:0.0 
-1.0 -0.0 -1.0 -1.0 -1.0 -0.0 -1.0 -0.0 -0.0 -1.0 -0.0 -0.0 -0.28328263093803646 -0.3182236589361443 -0.0 -0.0 -0.0 -0.0 -0.0 -0.0 -0.0 -0.0 -0.0 -1.0 0.2861726886088465 0.0 0.0 0.0 1.0 0.0 0.0 0.0 0.0 0.25373357777260913 0.0 0.0 0.2595099590834319 1.0 0.0 1.0 0.0 0.0 0.29768452362262826 0.0 1:1.0 2:0.13957031 3:0.056363523 4:0.15608056 5:0.00489849 6:0.033848003 7:0.0 8:1.0 9:0.027361982 10:0.004073487 11:0.0979794 12:2.807E-4 13:0.009795953 14:5.13039E-4 15:1.0 16:0.02046431 17:0.005954828 18:3.96273E-4 19:1.54943E-7 20:7.00121E-6 21:0.0 
-0.0 -1.0 -0.0 -0.23461532022250162 -0.0 -0.0 -0.0 -1.0 -0.0 -0.0 -1.0 -1.0 -0.0 -0.0 -0.0 -0.0 -1.0 -1.0 -0.0 -1.0 -0.0 -0.0 -0.2972268686820385 -0.0 -0.0 1.0 0.0 0.0 0.0 1.0 0.0 0.0 0.0 0.8524665929297506 0.0 0.0 1.0 0.0 0.0 0.0 0.0 0.0 1.0 0.0 1:8.8229E-4 2:0.001036249 3:0.00305104 4:0.003190226 5:1.0 6:0.01469834 7:5.58796E-4 8:0.9603112 9:0.9598553 10:0.96710056 11:0.968796 12:0.0 13:0.9610126 14:0.9788466 15:0.36837572 16:1.0 17:0.051150616 18:0.02004782 19:0.006013677 20:0.038411487 21:0.0 
-0.0 -0.6171445610751586 -0.0 -0.0 -0.0 -0.0 -0.0 -1.0 -0.0 -0.0 -1.0 -0.13838576508016373 -0.0 -0.0 -0.0 -0.0 -0.9593137581372175 -1.0 -0.0 -0.0 -0.0 -0.0 -0.0 -0.0 -0.0 0.32411117020020164 0.0 0.0 0.0 0.2704544237216014 0.0 0.0 0.0 0.14753340707024942 0.0 0.0 0.0 0.0 0.0 0.0 0.0 0.0 0.0 0.0 1:4.7931E-4 2:5.97021E-4 3:0.002249882 4:0.002325439 5:1.0 6:0.012410108 7:3.05194E-4 8:0.97672534 9:0.9763952 10:0.98280364 11:0.9836372 12:0.0 13:0.9768205 14:1.0 15:0.33390984 16:1.0 17:0.036734086 18:0.011267718 19:0.00737773 20:0.0 21:0.007188178 
-0.0 -0.0 -0.0 -0.0 -0.0 -0.0 -0.0 -1.0 -0.0 -1.0 -1.0 -0.0 -0.0 -0.0 -0.0 -0.0 -0.0 -0.7022698686302548 -0.0 -0.0 -0.0 -0.0 -1.0 -0.0 -0.0 1.0 0.0 0.0 0.0 0.0 0.0 0.0 0.0 0.0 0.0 0.0 0.0 0.0 0.0 0.0 0.0 0.0 0.0 0.0 1:1.9842E-4 2:2.24415E-4 3:7.48693E-4 4:7.58291E-4 5:1.0 6:0.005595976 7:1.4712E-4 8:0.9396449 9:0.93960065 10:0.941664 11:0.9416857 12:0.0 13:0.9394869 14:0.93930167 15:0.21645592 16:1.0 17:0.1131712 18:0.08967972 19:0.18809497 20:0.38339642 21:0.0 
-0.0 -0.08609836532416308 -0.0 -0.020916804726605825 -0.0 -0.04250817325909279 -0.0 -0.32278933818124855 -0.4557532474580123 -1.0 -0.3066894494443822 -0.0 -0.0 -0.0 -0.0 -0.0 -0.0 -0.0 -0.0 -0.0 -0.0 -0.0 -1.0 -0.0 -0.0 0.6758888297997984 0.0 0.0 0.0 0.0 0.0 0.9406809345539379 0.0 0.0 0.0 0.0 0.0 0.0 0.0 0.0 0.0 0.0 0.0 0.0 1:1.07456E-4 2:1.44971E-4 3:8.20996E-4 4:8.53968E-4 5:1.0 6:0.006639959 7:5.4408E-5 8:0.89139503 9:0.8913315 10:0.893684 11:0.8939706 12:0.0 13:0.89148736 14:0.87459207 15:0.121623844 16:0.51544976 17:0.15798713 18:0.16465487 19:1.0 20:0.7147385 21:0.0 
-0.13892510574828415 -1.0 -0.14670081498528234 -0.0 -0.13649053718041448 -0.2281646552541307 -0.14944102563313325 -1.0 -0.7659867066581284 -0.25487667093214994 -1.0 -1.0 -0.0 -0.0 -0.14603492012028324 -0.1450582878760407 -1.0 -1.0 -0.5918905538428871 -1.0 -0.1469302443639 -0.157630934894305 -1.0 -0.1313107176987259 -0.12825797889956148 1.0 0.7992707699625782 0.2369144226971999 0.12992011086798086 1.0 0.9093295863585131 0.33639591426154675 0.1360970145134091 0.0 0.1389690484605142 0.15666032602123456 0.0 0.1333036884930888 0.13514601273637536 0.1312288878845098 0.5171121949850798 0.14863117603804057 1.0 0.39632498608337124 1:8.86724E-4 2:0.001071008 3:0.003371946 4:0.003519066 5:1.0 6:0.016007837 7:4.61772E-4 8:0.9287175 9:0.92816806 10:0.936479 11:0.9379448 12:0.0 13:0.92891216 14:0.9423366 15:0.38187012 16:1.0 17:0.12903556 18:0.079529315 19:0.060542792 20:0.18926966 21:0.0 
-0.14741117788987637 -0.2905811763703584 -0.14886213357323314 -1.0 -0.15305879427945354 -1.0 -0.1557383281189448 -0.16397077921625677 -0.11856421802075373 -1.0 -0.0 -0.1724373827111583 -1.0 -1.0 -0.14452259579245913 -0.14672622660790005 -0.04068624186278246 -0.29773013136974524 -0.19111691170778275 -0.0 -0.14088110118298539 -0.137970432654606 -1.0 -0.1538340155317452 -0.15791470970928503 0.0 0.20072923003742188 0.13012566490323682 0.16006162531479803 0.07003614673501475 0.18438260142796625 0.0 0.15041969968953442 0.0 0.148846590581276 0.13164591301667583 0.0 0.15311895562376174 0.15116997250373476 0.15935150333559406 0.20591591167163406 0.14105689361764423 0.0 0.1628790414699394 1:9.44779E-5 2:1.44428E-4 3:9.65136E-4 4:9.79804E-4 5:1.0 6:0.00750294 7:6.86085E-5 8:0.84240687 9:0.8423258 10:0.84549814 11:0.84526414 12:0.0 13:0.8416951 14:0.7767308 15:0.02620026 16:0.11345888 17:0.07794705 18:0.07827254 19:1.0 20:0.33634648 21:0.0 
-0.0 -1.0 -0.0 -0.6740646636694513 -0.0 -0.7655166145343095 -0.0 -1.0 -0.9582331301217741 -1.0 -1.0 -0.07010112376921881 -0.7873902650027464 -0.7218556855868452 -0.0 -0.0 -0.36395206194194163 -1.0 -0.1322722334503682 -0.0 -0.0 -0.0 -1.0 -0.0 -0.0 -1.0 0.0 0.0 0.0 0.0 0.0 1.0 0.0 0.0 0.0 0.0 0.0 0.0 0.0 0.0 0.0 0.0 0.0 0.0 1:1.1294E-4 2:5.85445E-4 3:0.005199786 4:0.00533965 5:1.0 6:0.02439493 7:0.0 8:0.85493946 9:0.8533044 10:0.8717389 11:0.87117004 12:0.0 13:0.85166913 14:0.7997642 15:0.44126987 16:1.0 17:0.2961644 18:0.2986673 19:0.47995102 20:0.6941257 21:0.0 
-0.39210607634739186 -1.0 -0.42265502793629234 -0.6388890205226517 -0.39512017689072043 -0.5692209758389191 -0.44124734557279893 -1.0 -0.48714216043857234 -0.11891897761018466 -1.0 -1.0 -0.2126097349972535 -0.2781443144131548 -0.40939231610427734 -0.41319241357332614 -1.0 -1.0 -1.0 -1.0 -0.4018153906041485 -0.44466273949466084 -1.0 -0.3819079096820701 -0.3800903804672922 -1.0 1.0 0.6643164328965312 0.39023731249217397 1.0 1.0 0.4210588842950554 0.3885878527375367 0.08974189006814476 0.3953317318765953 0.42616548369860313 0.16015752928265523 0.3871687670842121 0.3897271711186543 0.3887942292230154 1.0 0.4188549154081462 0.5693893717697106 1.0 1:0.03852391 2:0.053365607 3:0.15224154 4:0.1629183 5:1.0 6:0.23412819 7:0.0 8:0.9565799 9:0.61672866 10:0.97479296 11:0.9980403 12:0.0 13:0.60613656 14:0.6389277 15:1.0 16:0.68593806 17:0.009921221 18:0.003969523 19:2.52031E-5 20:0.001988062 21:0.0 
-0.0 -1.0 -0.0 -0.0 -0.0 -0.0 -0.0 -1.0 -0.0 -0.0 -1.0 -1.0 -0.0 -0.0 -0.0 -0.0 -1.0 -1.0 -0.0 -1.0 -0.0 -0.0 -0.35511584292036674 -0.0 -0.0 -1.0 0.0 0.0 0.0 1.0 0.17691512561575679 0.0 0.0 0.9102581099318552 0.0 0.0 0.8398424707173447 0.0 0.0 0.0 0.0 0.0 1.0 0.0 1:1.83832E-4 2:4.43621E-4 3:0.00344475 4:0.003583631 5:1.0 6:0.01819451 7:0.0 8:0.9137338 9:0.91288453 10:0.92433053 11:0.9252668 12:0.0 13:0.9128454 14:0.9134862 15:0.40220407 16:1.0 17:0.13586858 18:0.10135945 19:0.07879755 20:0.23281603 21:0.0 
-0.0 -1.0 -0.0 -0.0 -0.0 -0.0 -0.0 -1.0 -0.0 -1.0 -1.0 -1.0 -0.0 -0.0 -0.0 -0.0 -1.0 -1.0 -0.1763610929793083 -0.0 -0.0 -0.0 -1.0 -0.0 -0.0 -1.0 0.5625359426020293 0.0 0.0 0.6943348178543456 0.5239027534466131 0.0 0.0 0.0 0.0 0.0 0.0 0.0 0.0 0.0 0.0 0.0 0.4306106282302894 0.0 1:3.29953E-4 2:6.87376E-4 3:0.004481245 4:0.004622248 5:1.0 6:0.021486409 7:2.21576E-4 8:0.8899068 9:0.888678 10:0.9034406 11:0.90396255 12:0.0 13:0.8881735 14:0.8579837 15:0.42245534 16:1.0 17:0.17534286 18:0.17450847 19:0.18282725 20:0.42756116 21:0.0 
-0.0 -1.0 -0.0 -0.0 -0.0 -0.07469258261233153 -0.0 -0.23157596722264845 -0.5376798107733692 -0.13507668804281653 -0.4188403306809497 -1.0 -0.0 -0.0 -0.0 -0.3131881209874702 -1.0 -1.0 -1.0 -0.685592168187227 -0.0 -0.0 -1.0 -0.0 -0.0 -0.0 -0.5625359426020293 0.0 0.0 1.0 1.0 0.0 0.0 0.0 0.0 0.0 0.0 0.0 0.0 0.0 0.9670153431156657 0.2216911898786385 0.20137322941268224 0.0 1:0.14320667 2:0.14683616 3:0.31997424 4:0.36216012 5:1.0 6:0.39502513 7:0.0 8:1.0 9:0.3422024 10:0.69627863 11:0.81594807 12:0.0 13:0.34852922 14:0.34595773 15:1.0 16:0.47695783 17:0.001503455 18:8.52636E-4 19:5.72323E-7 20:3.2149E-4 21:0.0 
-0.22743933109948344 -1.0 -0.24157707519869503 -1.0 -0.24131777625843598 -1.0 -0.21401966853404802 -1.0 -1.0 -1.0 -1.0 -1.0 -0.6389930571637108 -0.6844243759412639 -0.1702685301569359 -0.0 -1.0 -1.0 -1.0 -1.0 -0.17879915219403428 -0.0 -1.0 -0.23581939488400047 -0.23876442464038836 -1.0 -1.0 0.0 0.23802230620416495 1.0 1.0 0.9203754870882618 0.23507927000181425 0.9501890542614404 0.21419743969328223 0.0 1.0 0.23481699051660337 0.2288448664736148 0.2551498074838487 0.0 0.0 1.0 0.32060232365015406 1:0.1274398 2:0.13189846 3:0.2933788 4:0.33846465 5:1.0 6:0.37617764 7:0.0 8:1.0 9:0.3739103 10:0.7039043 11:0.8608137 12:0.0 13:0.3881548 14:0.37381777 15:1.0 16:0.46941558 17:0.007798385 18:0.001026879 19:2.81318E-4 20:0.0 21:2.82684E-4 
-0.8262683460039244 -0.0 -1.0 -0.719765034306441 -0.7909192456946705 -1.0 -1.0 -0.0 -0.13247858504382232 -0.1814823675312639 -0.0 -0.0 -0.0 -0.0 -0.8297314698430641 -1.0 -0.0 -0.0 -0.6107749823323599 -0.0 -0.8212008478059657 -1.0 -1.0 -0.6607172973780147 -0.6258268615986728 -0.0 -0.0 0.20104619665998627 0.7596774427361895 0.0 0.3115560767563318 0.6508979086183835 0.7536498701360002 0.0 0.7858025603067178 1.0 0.0 0.7354298233897973 0.7711551335263852 0.6325477777686824 1.0 1.0 0.0 0.021375258062940994 1:0.9238099 2:0.5693732 3:0.79161596 4:1.0 5:0.7502043 6:0.69216955 7:0.0 8:1.0 9:0.06659376 10:0.2356824 11:0.3928616 12:0.0 13:0.0774449 14:0.06413053 15:1.0 16:0.2591305 17:0.010987612 18:0.001078683 19:6.00224E-5 20:0.0 21:5.84722E-5 
-0.0 -0.0 -0.0 -0.0 -0.0 -0.0 -0.0 -0.0 -0.0 -0.0 -0.0 -0.0 -0.0 -0.0 -0.0 -0.0 -0.0 -0.0 -1.0 -0.0 -0.0 -1.0 -0.0 -0.0 -0.0 -0.0 -0.0 0.7989538033400136 0.0 0.0 0.6884439232436682 0.0 0.0 0.0 0.0 0.0 0.0 0.0 0.0 0.0 1.0 0.0 0.0 0.3515371895583587 1:0.5250424 2:0.39820102 3:0.6614864 4:0.7954733 5:1.0 6:0.6607215 7:0.0 8:1.0 9:0.13285235 10:0.37606433 11:0.53374827 12:0.0 13:0.14424399 14:0.12932606 15:1.0 16:0.33407393 17:0.002561228 18:2.68917E-4 19:1.67122E-5 20:0.0 21:1.66019E-5 
-0.0 -0.4510100190581641 -0.0 -0.0 -0.0 -0.0 -0.32338886532272054 -0.0 -0.0 -0.0 -0.0 -1.0 -0.0 -0.0 -0.0 -0.0 -0.0 -0.0 -1.0 -0.0 -0.0 -0.0 -0.16893603051501666 -0.0 -0.0 -0.0 -0.0 0.0 0.0 0.23237246111791532 1.0 0.0 0.0 0.0 0.0 0.6314398153983216 0.0 0.0 0.0 0.0 1.0 0.1391285730997661 0.0 0.3064852287285464 1:0.37187803 2:0.30656117 3:0.54829913 4:0.6452746 5:1.0 6:0.57666534 7:0.0 8:1.0 9:0.17369859 10:0.45358986 11:0.60009396 12:0.0 13:0.18351132 14:0.17131837 15:1.0 16:0.37074816 17:0.002380876 18:2.56629E-4 19:6.87265E-5 20:0.0 21:6.88137E-5 
-0.8229289762664239 -1.0 -1.0 -1.0 -0.8107303217033962 -1.0 -1.0 -0.4010757693274384 -0.9080811573021517 -0.7937681527254176 -0.43986342038573917 -1.0 -0.33087193530282155 -0.3639561090947496 -1.0 -1.0 -0.7207603155402436 -0.8351937452368936 -1.0 -0.5304034859875858 -0.9456347078301562 -1.0 -1.0 -0.7123244764395108 -0.6904497901915428 -0.3670400876004367 -0.6643164328965312 -1.0 0.7793795203525599 1.0 1.0 1.0 0.7731013177829321 0.34074796795616874 0.8439588210980888 1.0 0.35170949004369956 0.7615138537468594 0.791605513876259 0.7059284781983082 1.0 1.0 0.41253478228968365 1.0 1:0.60944504 2:0.43906462 3:0.7026656 4:0.87250996 5:1.0 6:0.69876283 7:0.0 8:1.0 9:0.122177295 10:0.3357105 11:0.5219407 12:0.0 13:0.13784163 14:0.12107998 15:1.0 16:0.3058264 17:0.010572203 18:0.001286802 19:2.44169E-4 20:0.0 21:2.43812E-4 
-1.0 -0.0 -1.0 -1.0 -1.0 -0.2371390166356626 -1.0 -0.0 -0.0 -0.0 -0.0 -0.0 -0.0 -0.0 -0.0 -1.0 -0.0 -0.0 -0.0 -0.0 -0.0 -1.0 -0.0 -1.0 -1.0 -0.0 -0.0 -0.0 -0.0 0.0 0.0 0.0 0.0 0.0 0.0 1.0 0.0 1.0 1.0 0.0 0.5539149213242133 1.0 0.0 0.0 1:1.0 2:0.14585601 3:0.06595301 4:0.18047705 5:0.006733806 6:0.04138582 7:0.0 8:1.0 9:0.029650778 10:0.007993274 11:0.11513468 12:5.44615E-5 13:0.012271725 14:2.58213E-4 15:1.0 16:0.020573916 17:0.013519077 18:6.67217E-4 19:3.44574E-5 20:0.0 21:3.41444E-5 
-1.0 -0.5473120860146871 -1.0 -1.0 -1.0 -1.0 -1.0 -0.16741554716436025 -1.0 -0.0 -0.2337180018604679 -0.6181382584062255 -0.0 -0.0 -1.0 -1.0 -0.4178087397471195 -0.443876897904933 -1.0 -0.34513133711386845 -1.0 -1.0 -1.0 -1.0 -0.7097319628435623 -0.0 -0.39023731249217397 -0.9976997489403545 -0.7793795203525599 0.7990367936841065 0.8571233287177925 1.0 0.9969593089293998 0.08626675560083821 1.0 1.0 0.09767910122445168 1.0 1.0 0.510108847018618 1.0 1.0 0.17258580685803204 0.7603126625346203 1:1.0 2:0.23444892 3:0.15109055 4:0.26208267 5:0.020935573 6:0.080728285 7:0.0 8:1.0 9:0.010679731 10:0.028530069 11:0.120168 12:0.0 13:0.009277419 14:0.002153873 15:1.0 16:0.07039556 17:0.016870413 18:0.00165937 19:7.52847E-5 20:0.0 21:7.2945E-5 
-1.0 -0.0 -1.0 -1.0 -1.0 -0.0 -1.0 -0.0 -0.0 -0.0 -0.0 -0.0 -0.0 -0.0 -0.0 -0.0 -0.0 -0.0 -0.0 -0.0 -0.0 -0.0 -0.0 -1.0 -1.0 -0.0 -0.0 -0.0 -0.0 0.0 0.0 0.0 0.0 0.0 0.0 0.0 0.0 1.0 0.0 0.0 0.0 0.0 0.0 0.0 1:1.0 2:0.120534755 3:0.045258738 4:0.1563669 5:0.004198433 6:0.031872842 7:0.0 8:1.0 9:0.038629916 10:0.005955331 11:0.11238851 12:3.1729E-4 13:0.013145997 14:0.0 15:1.0 16:0.010595082 17:0.010189294 18:5.40594E-4 19:1.73544E-5 20:0.0 21:1.70615E-5 
-1.0 -0.0 -1.0 -1.0 -1.0 -1.0 -1.0 -0.12209135683318464 -1.0 -0.25985913524174087 -0.07811033139727167 -0.0 -0.2868717923130937 -0.32219572728718415 -0.0 -0.0 -0.008678712614706707 -0.0 -0.7109667294819545 -0.0 -0.0 -0.3977660971321887 -0.16920974020099933 -1.0 -0.2902680371564375 -0.28998173618277884 -0.0 -0.0 -0.0 0.0 0.0 0.17643383403583143 0.0 0.17066299595718792 0.0 0.0 0.16521380178285078 1.0 0.0 1.0 0.0 0.0 0.1295570240226182 0.0 1:1.0 2:0.13063225 3:0.05957886 4:0.18407482 5:0.006604274 6:0.040264104 7:0.0 8:1.0 9:0.039211225 10:0.013565489 11:0.13119416 12:0.001088293 13:0.016633285 14:8.52258E-4 15:1.0 16:0.012791298 17:0.022190604 18:0.00289627 19:6.56492E-6 20:3.18801E-5 21:0.0 
-1.0 -0.0 -1.0 -1.0 -1.0 -0.0 -1.0 -0.0 -0.2434443696587042 -1.0 -0.0 -0.0 -0.0 -0.0 -0.0 -0.0 -0.0 -0.0 -0.0 -0.0 -0.0 -0.0 -0.0 -1.0 -1.0 -0.0 -0.0 -0.0 -0.0 0.0 0.0 0.0 0.003040691070600232 0.0 0.0 0.0 0.0 0.0 0.0 0.4898911529813821 0.0 0.0 0.0 0.0 1:1.0 2:0.11646601 3:0.044781238 4:0.15943804 5:0.004366532 6:0.0321702 7:0.0 8:1.0 9:0.04252958 10:0.009041098 11:0.11914191 12:7.64159E-4 13:0.014973561 14:3.46829E-4 15:1.0 16:0.008613147 17:0.014288094 18:0.001086854 19:3.99386E-6 20:0.0 21:2.83241E-6 
-0.8200973142421984 -1.0 -1.0 -0.9981599811331483 -0.8061836393889154 -1.0 -1.0 -0.4773522184537245 -0.6619861627369729 -0.5933477446499936 -0.5147738535514037 -1.0 -0.1649207874553922 -0.22674683920492475 -1.0 -1.0 -1.0 -0.8927175896798458 -1.0 -0.35147030147976793 -0.9570898520599953 -1.0 -1.0 -0.6964564049197588 -0.6720590459385464 -0.340490570456616 -0.6943348178543457 -1.0 -1.0 -0.7709056488980224 1.0 1.0 0.7638518483232307 0.0 0.8437100831789178 1.0 0.0 0.7510688278537958 0.7848561411765591 0.6856667586158633 1.0 1.0 0.128826364966515 0.8248144347392412 1:0.564471 2:0.4083103 3:0.6643385 4:0.8346602 5:1.0 6:0.67605025 7:0.0 8:1.0 9:0.13235918 10:0.3407976 11:0.5472778 12:0.0 13:0.15131924 14:0.13200411 15:1.0 16:0.30216488 17:0.015545804 18:0.001597118 19:3.59141E-4 20:0.0 21:3.62706E-4 
-0.02017170403252928 -1.0 -0.0 -0.7146112433926409 -0.02495008565969932 -0.8178996593285188 -0.0473903295269717 -1.0 -1.0 -1.0 -1.0 -1.0 -0.7998489299257147 -0.6727422410315179 -0.0 -0.006949458522354057 -1.0 -1.0 -0.11329584862713162 -0.648529698520232 -0.002725965076646833 -0.07084681960781183 -1.0 -0.03670247886673841 -0.0403658661804823 -1.0 -1.0 -0.23237246111791532 -0.0 -0.028131144786084077 0.33185229644532965 0.8918402957414431 0.028342631304426626 0.15466014533302816 0.01800909502615245 0.03033371842607384 0.0 0.02970896862876848 0.02507337049700889 0.04479283058026001 0.0 0.006260423048214896 0.871173635033485 0.0 1:7.89919E-4 2:0.00106628 3:0.004225695 4:0.004400698 5:1.0 6:0.019501442 7:6.27796E-4 8:0.94108003 9:0.94011724 10:0.9518644 11:0.9538475 12:0.0 13:0.94118255 14:0.9415823 15:0.41746268 16:1.0 17:0.042867165 18:0.039864313 19:0.010202541 20:0.10033369 21:0.0 
-0.0 -1.0 -0.0 -0.0 -0.0 -0.0 -0.0 -1.0 -0.05636479007743032 -0.0 -1.0 -1.0 -0.0 -0.0 -0.0 -0.0 -1.0 -1.0 -1.0 -1.0 -0.0 -0.0 -1.0 -0.0 -0.0 -1.0 -1.0 -1.0 -0.0 -0.0 1.0 0.0 0.0 0.8453398546669718 0.0 0.0 1.0 0.0 0.0 0.0 0.5750013546203018 0.0 1.0 0.17518556526075874 1:0.001341379 2:0.002024639 3:0.008427994 4:0.008810435 5:1.0 6:0.03180126 7:0.001036446 8:0.96414614 9:0.9607641 10:0.9859769 11:0.9900658 12:0.0 13:0.9622042 14:0.9664602 15:0.53475034 16:1.0 17:0.007153559 18:0.005156477 19:1.07807E-4 20:0.009596781 21:0.0 
-0.14336642099299793 -1.0 -0.08503273348330087 -0.8529519163990331 -0.16142221889649672 -0.30374799619165127 -0.008027776241870429 -0.4018838013627883 -0.6652002301726323 -0.1680583357141599 -0.6091940572629504 -1.0 -0.0 -0.0 -0.09044668528989568 -0.13546502449278708 -1.0 -1.0 -1.0 -0.8897544170110124 -0.10594348888974851 -0.0 -1.0 -0.17520277980990054 -0.1833034156931127 -0.09371218778647938 -0.7008178790623699 -1.0 -0.0 -0.16185226303012837 -1.0 0.0 0.16107947384370255 0.0 0.14409804117258174 0.0 0.0 0.1634240690721108 0.15427213895689368 0.19861302976793563 1.0 0.0 0.3560058709930225 0.0 1:0.14304633 2:0.14294596 3:0.30283454 4:0.36188108 5:1.0 6:0.39293578 7:0.0 8:1.0 9:0.36543128 10:0.6938208 11:0.8521616 12:0.0 13:0.3773369 14:0.3492572 15:1.0 16:0.4500148 17:0.039778404 18:0.005344295 19:6.36045E-5 20:0.00117652 21:0.0 
-0.0 -1.0 -0.0 -0.19154793274880408 -0.0 -0.603693813502268 -0.0 -1.0 -1.0 -1.0 -1.0 -1.0 -0.6993965178145332 -0.7270293108145943 -0.0 -0.0 -1.0 -1.0 -1.0 -1.0 -0.0 -0.0 -1.0 -0.0 -0.0 -1.0 -1.0 -1.0 -0.0 -0.0 -1.0 0.8329978367863972 0.0 1.0 0.0 0.0 1.0 0.0 0.0 0.0 0.11222791439732664 0.0 1.0 0.1728020426424579 1:0.09448681 2:0.103402615 3:0.23735164 4:0.28054038 5:1.0 6:0.3322394 7:0.0 8:1.0 9:0.46485415 10:0.7954225 11:0.94654465 12:0.0 13:0.47764483 14:0.44600186 15:1.0 16:0.49640626 17:0.050181393 18:0.008532413 19:1.64111E-4 20:0.002645703 21:0.0 
-0.7615366059167228 -0.0 -1.0 -0.5500876218305462 -0.7323219368265369 -1.0 -1.0 -0.0 -0.020308434502580013 -0.14632799797553717 -0.0 -0.0 -0.0 -0.0 -0.9095533147101044 -1.0 -0.0 -0.0 -1.0 -0.0 -0.8940565111102515 -1.0 -1.0 -0.6062057130927757 -0.5744618944431752 -0.0 -0.0 -1.0 -0.7268395374190524 -0.6952710656876641 -0.0 0.7841469629743679 0.6880114448829022 0.0 0.7851683895305219 1.0 0.0 0.6725341687043834 0.7149723197512692 0.5798450009118746 1.0 1.0 0.0 0.0 1:0.714176 2:0.47913834 3:0.70841646 4:0.92977935 5:0.9164892 6:0.7068518 7:0.0 8:1.0 9:0.10663426 10:0.31556278 11:0.49064454 12:0.0 13:0.11956139 14:0.10617878 15:1.0 16:0.28255388 17:0.03293114 18:0.003154905 19:1.82017E-5 20:0.001140243 21:0.0 
