svm_type c_svc
kernel_type linear
nr_class 43
total_sv 161
rho 0.5100846290588379 -0.7471488577912546 -1.0152397155761719 -0.05645776806842062 0.7089587842191656 1.002539038658142 -0.8387820725809295 -0.5717801882140601 -0.6576929522244293 0.6335233449935913 -0.6630189760799252 -1.0332492589950562 -0.8880357477330549 0.9854937791824341 -1.1264793047417703 -0.5352057218551636 -0.09111392498016357 0.5586072206497192 0.8425213239629934 0.9076777696609497 -0.2839685341254166 -0.9199588298797607 0.9954581260681152 -0.19684064388275146 -0.6691899829105143 0.9657118320465088 -0.483499179642759 0.9407700300216675 -1.282287061884865 -0.4694605643316063 1.0051591396331787 -1.1479603973640737 -0.6652638300332525 -0.6690046686666578 -0.6137678834321905 -0.5811634018883697 -0.7047763216310061 -0.6348626532571536 -1.0953673124313354 -1.0336307287216187 -1.300603545090226 -0.6028551933039215 -0.07707736140791359 -0.9373862743377686 -0.4940275881943763 -0.19440046840563752 1.404375242325753 -0.8388977171672849 -0.286332713501901 -0.5693663126436085 0.9640617370605469 -0.5494317703044325 -0.9828740358352661 -0.4785804754874576 0.8827089748372321 -1.452647042335384 -0.9992598316204221 -0.7419620752334595 -0.7800084352493286 1.5693293336681737 1.349929690361023 -0.23317138018664568 -1.0046674394966177 1.4773255108739407 -0.9346685409545898 -0.5412156455749493 1.4906346797943115 -0.33265771853690407 1.6792794501644068 -1.4494543075561523 -0.41023391260703523 0.469928503036499 -1.8802139325444334 -0.5753872860805975 -0.5534648689596174 -0.5279306668581771 -0.5026334376942049 -0.45192792249657965 -0.37987715665006166 -1.003365086088723 -0.9839832782745361 -1.509171962738037 -0.5311522176411171 -1.0105786791458518 0.3659736767222351 1.5364761144615329 0.7533216550638366 -1.0712006241714156 -0.8033164634454228 -1.2772409915924072 0.10368620780330319 -1.2099687786275153 -1.036054677407214 -0.9350300064745265 1.3499087213511978 -2.1727729815726087 0.23617815971374514 0.7248687912196522 0.6000049913146799 1.5499065821618112 0.5609869956970215 0.01750518376702005 -0.3584250211715698 0.7183098159046339 0.681494771880741 -1.65262596636835 0.7201445552827753 -0.2905395406705551 1.3927655967801096 -1.5788043239558647 -0.7089581334483747 0.7488087321854663 -2.249269306251572 -1.2675292491912842 -1.3629792718513554 -1.1528763057330755 -0.9469966872025655 -0.14157266894847675 -1.2120592594146729 -1.1514532813550644 -1.0372047576343961 -1.8780746459960938 -0.9878532198532838 0.7002764747143242 0.9963719572664986 1.01755690574646 -0.8818706074601024 -0.5898832108640873 -0.6655914804592025 0.8787839412689209 -0.6737023521196492 -0.026450514793395996 0.48415042601983505 1.0191761917367121 -0.7021904253936475 0.8477627038955688 0.9803274869918823 0.8421828746795654 0.9800281324814265 0.9997137545771849 -0.2790791408449429 0.6181272268295288 1.0059463292061757 0.9131207466125488 -0.6948491740559392 1.003268837928772 1.0319484680650866 1.0114992116269306 -1.3554086685180664 -0.4701600544712515 1.016868233680725 -1.2128800232058214 -0.673561528289111 -0.6798975226145194 -0.6202502719280486 -0.5862061616694091 -0.36433560789654373 -0.6508798546394168 -0.17292559146881104 -0.027166008949279785 -0.4323614835739136 -0.6084263406641102 1.406220692082747 0.9568528358176893 -1.3127702666585275 -1.7267773731660299 -1.060276442596479 0.42919767944433146 -0.9414632714428137 -0.7366669774055481 -0.8468636172472322 1.0440532355426826 -2.111254677294026 -0.7808270529146788 -0.1831439387679495 0.8020125157387796 1.549701732155418 0.7624613015120774 0.13044866359286073 -1.1278012662469883 0.9379008761640559 -0.3942021527541886 -1.5072097816623167 0.9619713017269089 0.18067204366260758 1.3747064046758792 -1.708271741748021 -0.43696919606720414 0.9280461141140954 -2.0304652314083778 -1.5138093525172431 -1.8889789498698435 -1.7102314104013512 -1.3233604612606595 -0.7420700240314531 -1.3452643757938878 -0.9433518648147582 -0.7405291199684144 -1.9115644651134036 -1.048204097155927 0.5106393470800127 -1.9501177961568945 -1.6932977841605459 -1.4487633590313147 0.19641559680360862 -1.573576249224392 -1.001234113549356 -1.6713643794050976 0.45512960913060097 -1.869434857178245 -1.1927940047344632 -0.8584196769077689 0.19753219363702124 0.8859930702306152 0.29281835262531836 -0.08455943623313443 -1.3651126801330737 0.48012481225691905 -0.9967503915172202 -1.7927532102958772 0.4463132757403175 -0.6371146618213919 0.6906151812595926 -1.7159770384495194 -0.6105744831694658 0.48059162149292445 -1.8325567247110792 -1.5235265571151566 -1.6287255723248064 -1.448468102308967 -1.3751831610412015 -0.5370526495307963 -1.593356184012964 -1.0213291644666747 -1.0026004468877263 -1.8259307151942432 -1.3806172669278773 -0.8343632757631337 -0.5737977436282613 -0.6606358642022748 -0.5528659820556641 -0.6662577229087334 -1.0347850322723389 -0.8940147017792459 -0.6099497823026758 -1.1352342714106483 -1.2079540491104126 -1.0646336078643799 -1.252112627029419 0.5945068650280851 0.6024694442749023 -0.2850240745504081 -1.2874592542648315 0.9720479249954224 -1.117556095123291 -0.6712022383621037 0.8944113254547119 -0.484969477252084 0.8207555723944354 -1.2723347413440464 -0.4710356915215835 -1.0048737525939941 -1.1412434070028157 -0.6682412957179703 -0.6721257814707025 -0.6178594760782483 -0.5850041253520543 -0.7085029769737684 -0.6363431903863417 -1.0965583324432373 -1.0352203845977783 -1.3117726077176637 -0.6065828005067601 -0.17443962169573896 -0.7174909483646759 0.8542266270749699 -0.5582881352339298 0.9319617295694775 1.4393291991138515 1.09716976671091 0.7246765318769659 0.8912787437438965 0.9398956455519158 1.091217279434204 1.88167463068639 0.9311971664428713 0.4678600786172582 0.8093176450458859 0.9230036729933065 1.0319845451444287 0.165329556010664 0.9453300897594862 1.4147927472511466 1.5241980560477009 -0.45551550388336115 0.014858777184124483 0.8332130593940653 0.16491388311625632 -1.5599842737061742 -1.4760163329011782 -1.2613785548981613 -0.9980764206673344 0.9957328524661039 -0.9894823282360896 1.0838627219200134 0.934426459296905 0.5943118634255522 -1.1655027973540442 -1.774914026260376 0.3278712707300304 -0.44013079826734525 0.568630167828422 1.61732720739432 1.3655625656186086 -0.07559418678283703 0.43059442395064984 0.5704414912178057 0.5360857123106034 1.6292481759367146 0.5205387653391994 0.29398852352969274 0.28056944686663343 0.570408063798655 0.5610135949046926 -1.2187857509930806 0.5650416590554137 1.4292992484204838 1.4813868294566839 -0.3192359826590683 -0.4296808217772214 0.5863517018264045 -0.4580879305552332 -1.7745373249053955 -1.5156970024108887 -1.2986912727355957 -0.9503850936889648 0.9817189669702971 -1.0811458666496399 0.5215174089822734 0.5702088002044297 -0.10931460792665056 -0.9502167701721191 0.5556980068741932 0.2273106575012207 0.6518041240087117 1.786283624759613 1.0139121490333345 1.5351537429606905 0.5875413833269697 0.6519127271596574 0.6371331660224436 1.382478304103895 0.6165459118761567 0.9324614070785119 0.5453637663536086 0.652907166849523 0.6435176424552598 1.31479229709293 0.6501770486559366 1.2982221888407282 1.289833886029276 0.2628717095764914 0.2251853698153754 0.6675759609774783 0.35767784977640166 -1.0229913449682848 -0.6858217716217041 -0.996792909178255 -0.8761200172393404 0.9792928145214197 0.49303197860717773 0.6233525509976199 0.652635954123343 0.427577385454834 -0.99249267578125 -0.5297221562003636 -0.8958796058859564 -0.4221446830706621 0.20419637059055282 -1.2828143708326838 -0.9898532629013062 -0.7856616973876953 -0.9128940514018806 1.7116470054000161 0.926984429359436 -0.19836138983095422 -1.0275471417382562 1.512902826909206 -0.9096206426620483 -0.7400162669784058 1.481919527053833 -0.2721036372428296 1.8437908063896002 -1.473105549812317 -0.3802916362962838 -0.3173929452896118 -1.7825810380088452 -0.5617512478786426 -0.5413993088115671 -0.5103599456467399 -0.48662981783128473 -0.40141122802656537 -0.46277473976591077 -0.9891109312127504 -0.8977159120582354 -1.5508697032928467 -0.5188859812394497 0.6576562794932781 1.017680734042233 0.7748676377079124 1.3789925250985702 0.5748784378976705 0.6581355786987663 0.6363855967520684 1.4945764003662019 0.6229095026883836 0.9687783199621073 0.5154370503301497 0.6588821993591376 0.6499750022119906 0.5856548043483141 0.6557072516648128 1.2960100211386147 1.0880173887071773 0.2092128921593529 0.028005055707845283 0.6747566532522691 0.30027823843943846 -0.8694944381713867 -1.002591609954834 -1.5435242652893066 -1.4887200943140093 0.9286868009155681 0.004351139068603627 0.6272626988390735 0.6586767531098653 0.38632423138125155 -1.3133281825160346 0.5375530790301912 1.0355944478279493 -0.6294676897829643 0.9058558940887451 0.9969159364700317 0.8859596252441406 0.995750904083252 0.995238940141296 -0.2645184293083553 0.6979459524154663 1.0047173500061035 0.9550571441650391 -0.675168079169172 0.9995104074478149 1.028684377670288 1.0010570287704468 -1.3289581537246704 -0.45793062285638847 1.0301965475082397 -1.2915203621281426 -0.6595361398518657 -0.6643077615932983 -0.6066082031233964 -0.5737286802596974 -0.3318143642517344 -0.6361582349092811 -0.14647507667541504 -7.154941558837891E-4 -0.32398247718811035 -0.5963999191030581 0.9260422903705838 -0.30568525794250284 0.661665917468901 0.8986777855853343 0.8144334757818098 1.6763361930250056 0.7342714669813343 0.16576410517594714 0.4421796285475856 0.8801051097383986 0.8794789659661847 -1.6628849515316049 0.9082901857039637 0.6762780113772879 1.3097598771470498 -1.7437399616948674 -0.21913307672680177 0.8867504336921351 -1.6603385708106404 -1.8646560939408865 -1.4513898876200486 -1.3818719519983427 -1.161819088406838 -0.7964810791676178 -1.0281631385714696 -0.7792593571958375 -0.5406432677279638 -0.38016547674702283 -1.1361005117796874 -1.6284428617382982 -1.3219431559355086 -1.0651667054589837 -1.3419371265432178 1.037955674898893 0.40353529889295775 0.11923216279558281 -1.4814341778543911 0.5618609129282486 -1.1553148797270165 -0.8334163711593738 0.5559758090477341 -0.33306711661377464 1.0610224402793944 -1.56304683774826 -0.46745559403096704 -0.9774874462622145 -1.4025954681882993 -1.2678898604625897 -1.4518114695322908 -1.186008827554634 -0.8900603694103612 -0.7133981007288187 -1.3140902113152084 -1.1411253921929734 -1.0372716807785793 -1.6518903154198605 -1.0651322850060465 1.3379346978658189 1.1941557685818804 1.4424678768014652 1.974025927923026 1.2181525566844058 0.10687635977615977 1.418471012342379 1.1472186495945043 1.2773899079669355 -0.9832329750061035 1.2258177375659498 1.5140178806490994 1.8051409929803304 -1.041411592375472 -0.8203549115582167 1.127088910665322 -1.6460987323171168 -1.560634398529652 -1.8879661982568665 -1.4146912545957508 -1.0308688587948143 0.2671046953595174 -1.1691398620605469 0.2730736347658612 0.6248874426123945 -0.17006749017872108 -1.1563175356976862 0.4181145429611206 1.1005504131317139 1.1583749881010643 1.082098126411438 -0.24740719614339557 -0.33908700942993164 1.2064733505249023 0.2918570041656494 -0.7187938277799819 1.2331596612930298 -0.1581009183902629 1.2650406681255455 -1.490636944770813 -0.4259070194898152 1.1966824531555176 -1.3470338464604044 -0.5945734430005635 -0.5820227291717646 -0.5453174530033613 -0.51856165097924 -0.6127169402180297 -0.5372360925998962 -0.9911798366567905 -0.9074418544769287 -1.4440945386886597 -0.547121445718149 0.7387453317642212 0.9613363742828369 0.9958563900985513 -0.2693139827150007 -0.8020362854003906 1.0250102281570435 -0.10558569431304932 -0.6779440283825998 1.0032920182238907 -0.42082867022002224 1.0053099393844604 -1.4156121015548706 -0.45810867138778266 1.0578477382659912 -1.3028774349083236 -0.6596730516781335 -0.664830975620905 -0.6065588956941609 -0.5736182676368736 -0.769982804298364 -0.6374422757080316 -1.0995692014694214 -0.997597336769104 -1.5389232982354697 -0.5964004836177975 1.1138345822205555 1.0821624994277954 -0.23616002390606305 -1.3271288871765137 1.2326772212982178 -0.888678789138794 -0.7339051614775297 1.2092543840408325 -0.243729779144286 1.275476334286265 -1.5655601024627686 -0.43945282132481234 0.503046989440918 -1.4812250240872182 -0.6398107271749923 -0.6414391925354076 -0.5898976444308215 -0.5571995306770482 -0.7582313822058264 -0.6146835519041002 -1.0010406970977783 -0.8872274160385132 -1.8620259761810303 -0.5828737611231997 -1.0776029850020308 0.02385365582655827 -1.3674259617149092 -0.44478345610471354 -1.00050711860218 -1.709716461325118 -0.5314122438430786 -0.5551768802567699 -0.914718747138977 -1.712279489563942 -0.5272287804403768 -0.7472731751778121 -1.8046836376958992 -1.4819575045378286 -1.5909448434279179 -1.3864918907852826 -1.3093506208992596 -0.4899842871340029 -1.540175714185886 -1.0218496322631836 -0.9967336654663086 -1.9825325148901933 -1.3306412983720024 -0.2589754796603061 -1.2421152591705322 1.2146692276000977 -0.9973345868523134 -0.797640574129408 1.1347755193710327 -0.4390579477618741 1.2442395749172852 -1.4891573190689087 -0.4362507558628027 -0.8162471055984497 -1.2699763646435518 -0.6249510812852295 -0.6318470141294156 -0.5666449094015851 -0.5360604100889185 -0.6318940151217289 -0.6057422951184389 -0.9974024174564813 -0.9980486325223892 -1.6304177045822144 -0.5628265601335024 0.19928687646906074 0.2824400555871342 0.2526819236000637 -0.7354373308978709 0.27643125694200876 0.1110631260971014 -0.14106885843538808 -0.142998152146823 -0.9473950862884521 0.28554880225125934 -0.18162395084352145 -0.9782189577161068 -0.6838664318628194 -0.7918613290110283 -0.9027740261941459 0.785108662058501 -0.17527386866653627 0.2160855027599865 0.2646657141629778 0.01770364658754226 -1.1136600237169905 1.311843752861023 0.674538254737854 -0.6136273423092029 1.392693042755127 0.09542034522835108 1.4444291693416953 -1.4522147178649902 -0.38278353449604163 1.2709609270095825 -1.512309160349447 -0.5534038261361887 -0.519909735230412 -0.5054592139515937 -0.4819658446721639 -0.5035764695075073 -0.42069797873374726 -0.9549151659011841 -0.7000054121017456 -1.1093590259552002 -0.5123926295718665 -1.0921568870544434 -0.676078911989758 0.8612308502197266 -0.47927247267507783 -0.637783380242354 -1.3708090782165527 -0.46371110079877287 -0.9853699207305908 -1.2773769632041596 -0.6606380159143295 -0.6654603087542388 -0.6078215341062012 -0.5749006773877998 -0.7382233404574088 -0.6370594354068724 -1.0955921411514282 -1.0052942037582397 -1.4203771989170701 -0.5974537206201566 -0.6983523159752606 1.0692293643951416 -0.3351422204001498 1.069480810715309 -1.5060137510299683 -0.44718116157647375 1.1089128255844116 -1.4361008405685425 -0.6514332666448042 -0.6573617279497144 -0.5968499463858532 -0.5638924588151131 -0.7890710675308974 -0.633104612473955 -1.0731079578399658 -0.956051230430603 -1.7950042379505389 -0.5880717179050593 0.6732855621755041 1.4365992100941538 1.2512858784860887 0.0774871558228658 -0.2530960121134861 0.6865006743497747 -0.07056094963923376 -1.3953635692596436 -1.5762714567981426 -1.5503058433532715 -1.13201642036438 1.4903947348129447 -0.9415448658263783 0.712912447742073 0.6773760892612678 0.2743094065778311 -1.2093853950500486 -0.46277399453812557 -0.5463682508278511 -1.444355845451355 -0.45632637235231904 -0.9315873384475708 -1.3148586143443306 -0.657945421692891 -0.6624705856118775 -0.6048180676933164 -0.5718683863754703 -0.7970663014924458 -0.6344928665531445 -1.1026910543441772 -1.0008186208681629 -1.6279474292208773 -0.5947282885866358 0.3912507509286252 -1.4892825822137994 -0.40395517213427407 0.4700877105279081 -1.3603488583344514 -1.4208681066178408 -1.458036511529561 -1.3062219682750242 -1.198878644447005 -0.1455361421085555 -1.3765705726597153 -1.1146392178012734 -1.0322279930114746 -1.0931873565054793 -1.1690454793772542 -1.634822613489634 -0.30970192910586364 -0.9118335486743558 -1.6004711329282357 -1.4463936024427766 -1.4807387226157342 -1.3276984997660464 -1.2022819572596286 -0.45514955365818704 -1.4014571860888538 -1.0945261004013567 -1.0024324272897762 -1.8087711591934543 -1.1482730366649962 -0.09690613274745218 1.266543320108644 0.7835063934326172 -0.2677362883980625 -0.22277848382465204 -0.20959535973246968 -0.20704867086463463 1.1519696712493896 0.05725286961462284 1.1824830770492554 1.3282426595687866 1.2060840129852295 -0.2704401615751917 0.47371679983774967 0.14113721214305897 -0.5209818245833772 -0.12936592102050726 -0.6409487724304201 -0.9458177089691162 1.4621384310481398 0.5127974853068411 0.4265106563005925 0.45858023336624426 0.2510312253358256 -1.0322087888270524 -1.1409039847988778 -0.6754146468939725 -0.6806517412752431 -0.6228516164832739 -0.5891706678763903 -0.6863526184089278 -0.6471969183680832 -1.0901241302490234 -1.0307923555374146 -1.3072629079834464 -0.6109404239698653 -0.3651483783023332 -0.3196147431100537 -0.28267876551949783 -0.27334433013309833 0.7790740123838656 0.092046499252319 1.2116343975067139 1.2953423767235743 0.6670267581939697 -0.3499774520411274 -0.7021896839141846 -1.001333948623968 -0.7200829982757568 1.1100260646201574 0.48697876930236816 0.6312965890461866 0.6604346220865098 0.43745892958353516 -0.9162251949310303 -0.2226252555847168 -0.19216108322143555 1.2492407705139412 0.0380859375 0.6355236576105012 0.6653387423088502 0.3871293667091195 -0.7387819290161133 0.008040428161621094 0.9933449996746239 0.5034675945429641 0.575261041021333 0.6074136165265456 0.3836877609392778 -1.0613235313001792 0.9500322727996564 0.5942835807800293 0.5432549638009774 0.574274209614244 0.3665600587138055 -1.0664735732538313 -1.1703396022377226 0.07627843101681217 0.32721618607358793 0.04243741860448893 -1.0368263073688786 0.6073131800639112 0.6375588801783408 0.10914764305242595 -1.1669673919677734 0.14575958251953125 0.06379568576812744 -0.5699088866489999 -0.32050907611846924 -0.5969330382035107 -0.4134727202544178
label 27 48 43 9 19 39 47 34 16 33 37 15 41 3 12 36 25 42 13 10 46 29 30 38 24 20 45 22 7 14 2 11 31 4 32 21 28 8 26 40 18 1 35
nr_sv 2 4 6 1 4 3 4 4 8 8 5 3 1 7 4 6 2 2 3 10 5 2 2 6 2 7 7 3 6 1 7 3 3 3 2 2 2 5 1 1 1 2 1
SV
1.0 0.6873378816069903 0.0 1.0 1.0 1.0 0.0 0.0 0.0 1.0 0.0 0.0 0.3145481759756492 1.0 0.17564076951592028 1.0 1.0 1.0 1.0 1.0 0.31950511221609307 1.0 1.0 1.0 0.0 1.0 1.0 1.0 0.0 0.28577899947029983 1.0 0.0 0.0 0.0 0.0 0.0 0.17919958042936998 0.0 0.0 0.0 0.3305630635200906 0.0 1:1.0 2:0.14415245 3:0.056562837 4:0.1583772 5:0.005078352 6:0.0349983 7:0.0 8:1.0 9:0.025641935 10:9.20474E-4 11:0.09676564 12:0.0 13:0.009200987 14:2.47812E-4 15:1.0 16:0.022596339 17:1.69953E-4 18:1.24802E-5 19:5.92339E-7 20:0.0 21:5.92373E-7 
1.0 1.0 1.0 1.0 1.0 1.0 0.7039958937488959 0.5853454296590579 0.2941148001165911 1.0 0.34104362535843136 1.0 1.0 1.0 1.0 1.0 1.0 1.0 1.0 1.0 0.0 1.0 1.0 1.0 0.5167874293586896 1.0 0.2538420540213405 1.0 0.9325533279972479 0.0 1.0 0.7456340949609713 0.2964925897925959 0.3375948785128208 0.29732277266564416 0.2744063445940929 1.0 0.49327170960530453 1.0 1.0 1.0 0.24566106998079945 1:1.0 2:0.1686033 3:0.07594724 4:0.1736492 5:0.006889875 6:0.04190703 7:0.0 8:1.0 9:0.017964387 10:0.004203056 11:0.093810886 12:0.0 13:0.007806286 14:5.8364E-4 15:1.0 16:0.036066458 17:3.49426E-4 18:2.49166E-5 19:3.91116E-7 20:0.0 21:3.91265E-7 
-0.0 0.38417692274064846 0.0 0.0 0.2842423576549341 1.0 0.04641051759118429 0.0 0.0 1.0 0.0 0.0 0.0 1.0 1.0 0.6674151974883871 0.0 1.0 1.0 1.0 0.0 0.0 1.0 0.0 0.0 1.0 0.0 1.0 0.0 0.0 1.0 0.9056896682304401 0.0 0.0 0.0 0.0 0.28459993090965613 0.0 0.0 0.0 1.0 0.0 1:1.0 2:0.4306991 3:0.43077022 4:0.5710295 5:0.16227359 6:0.28345373 7:0.0 8:1.0 9:0.015029835 10:0.111904055 11:0.20066565 12:0.0 13:0.017727606 14:0.014383417 15:1.0 16:0.1820483 17:0.005535041 18:4.29962E-4 19:2.51888E-7 20:8.46418E-5 21:0.0 
-0.0 1.0 0.0 0.8834471314925644 0.0 0.6316062528900941 1.0 0.6106987312448439 0.20577472520984189 1.0 0.26748856095376905 0.0 0.8533241831790276 0.16544656793387047 1.0 0.0 0.0 0.0 1.0 1.0 0.03860851216553625 1.0 0.9745664067945097 0.0 0.7072134567021793 1.0 0.0 1.0 1.0 0.13367562024750312 0.0 1.0 0.21036833714209743 0.27392515030565395 0.19355293466894097 0.17239982905640935 1.0 0.5920409381053352 0.23696891242042797 0.0 1.0 0.1585561881204224 1:1.0 2:0.52687794 3:0.59744805 4:0.68828076 5:0.2701606 6:0.39016017 7:0.0 8:1.0 9:0.021812866 10:0.1912371 11:0.20475547 12:0.0 13:0.014806942 14:0.020560173 15:1.0 16:0.26089585 17:0.002396754 18:9.82418E-4 19:3.47405E-7 20:2.30709E-4 21:0.0 
-1.0 0.0 1.0 0.3828372419134803 1.0 1.0 0.0 0.0 0.10601443059418635 1.0 0.1024242907954179 1.0 0.0 1.0 0.0 0.3325848025116126 1.0 1.0 1.0 1.0 0.1681088004808102 0.12421535004327676 1.0 1.0 0.0 1.0 1.0 1.0 0.0 0.15835176304194862 1.0 0.0 0.10449859603509648 0.09372624575863141 0.11976012634210226 0.11473248209297815 0.0 0.02188341302598631 0.5215016665026655 1.0 0.0 0.09753723809793882 1:1.0 2:0.25832492 3:0.16787268 4:0.26663205 5:0.023053482 6:0.08616153 7:0.0 8:1.0 9:0.007304213 10:0.030261818 11:0.11018484 12:0.0 13:0.00716533 14:0.002319806 15:1.0 16:0.08795006 17:0.005581493 18:9.95415E-4 19:7.3002E-7 20:8.06796E-5 21:0.0 
-1.0 0.894352668672061 0.0 1.0 1.0 1.0 0.0 0.12725047897777295 0.0 1.0 0.0 0.0 0.6489105501345644 1.0 0.24957057816422967 1.0 1.0 1.0 1.0 1.0 0.1113875777561524 0.8757846499567232 1.0 1.0 0.0 1.0 0.24525918323814652 1.0 0.0 0.0 1.0 0.0 0.0 0.0 0.0 0.0 0.0 0.0 0.24152942107690642 0.0 0.0 0.0 1:1.0 2:0.32619253 3:0.27199346 4:0.4252533 5:0.07334431 6:0.17259811 7:0.0 8:1.0 9:0.018870853 10:0.058288675 11:0.18263467 12:0.0 13:0.018570201 14:0.00109719 15:1.0 16:0.11626413 17:0.008995449 18:0.002452938 19:3.05631E-6 20:4.22177E-4 21:0.0 
-0.6873378816069903 -1.0 0.0 0.0 0.0 0.6898916220124551 0.0 0.0 0.0 1.0 0.0 0.032096790038301404 0.0 0.0 1.0 1.0 0.8162723678336524 1.0 0.24827469534267865 1.0 0.0 1.0 0.7702230688545401 0.9425276881897633 0.0 0.8422689528386397 0.0 0.0 0.723231290169749 0.0 0.6800728407502049 1.0 0.0 0.0 0.0 0.0 0.4128094969735648 0.0 0.15080308256727745 0.03371773868640854 1.0 0.0 1:0.39514434 2:0.31422803 3:0.55063397 4:0.67024934 5:1.0 6:0.5875816 7:0.0 8:1.0 9:0.17320144 10:0.42513922 11:0.61149675 12:0.0 13:0.18927513 14:0.16827933 15:1.0 16:0.34415576 17:0.016281474 18:0.003063862 19:1.54936E-5 20:3.91987E-4 21:0.0 
-0.0 -0.0 0.0 1.0 0.0 0.0 1.0 1.0 1.0 0.0 1.0 0.0 1.0 1.0 0.7657728655127222 0.0 0.0 0.0 0.0 0.0 0.6009023288820011 0.0 0.0 0.0 1.0 0.0 0.5611750907256311 0.9756402119548725 0.0 0.7744885888309885 0.0 0.0 1.0 1.0 0.9904682511329936 0.817065259644088 0.9827484296871979 1.0 0.0 0.0 0.0 0.6607092678931087 1:0.1891083 2:0.1811186 3:0.37095106 4:0.42789245 5:1.0 6:0.4400659 7:0.0 8:1.0 9:0.2893932 10:0.62202156 11:0.75978047 12:0.0 13:0.2976658 14:0.28654948 15:1.0 16:0.43897614 17:0.010795563 18:0.004270296 19:2.11117E-5 20:0.001415225 21:0.0 
-0.0 -0.27852959141270944 0.0 0.0 0.0 0.0 0.0 0.7258611669395909 0.0 0.3401745342790523 0.0 0.0 0.0 0.0 1.0 0.0 0.0 0.01972389822054029 0.0 0.0 0.0 0.0 0.0 0.0 0.018826653092888043 0.0 0.0 0.0 0.0 0.0 0.0 1.0 0.0 0.0 0.0 0.0 0.0 0.0 0.0 0.0 0.0 0.0 1:0.25809786 2:0.22883423 3:0.43888408 4:0.5170911 5:1.0 6:0.49739146 7:0.0 8:1.0 9:0.23446178 10:0.53333354 11:0.69555885 12:0.0 13:0.24693225 14:0.23157892 15:1.0 16:0.3969963 17:0.010568334 18:0.003533427 19:1.51316E-5 20:9.71026E-4 21:0.0 
-0.0 -0.0 0.0 1.0 0.5056159766484276 0.0 1.0 1.0 0.0 0.0 0.11432139286210605 0.0 1.0 0.5155391593884594 1.0 0.0 0.0 0.0 0.36814735405502136 0.0 0.0 0.0 0.0 0.0 1.0 0.0 0.0 0.0 0.0 0.0 0.0 0.0 0.0 0.18748457270374233 0.0 0.0 0.0 0.0 0.0 0.0 0.0 0.0 1:0.22469726 2:0.20586307 3:0.40672323 4:0.4754592 5:1.0 6:0.47085968 7:0.0 8:1.0 9:0.25822088 10:0.5701083 11:0.7252072 12:0.0 13:0.26955652 14:0.25522736 15:1.0 16:0.4135509 17:0.011432794 18:0.003641071 19:1.73773E-5 20:9.49858E-4 21:0.0 
-1.0 -1.0 0.9904857021681629 1.0 1.0 1.0 0.0 0.0 0.0 1.0 0.0 0.9679032099616987 0.4177886940174587 1.0 0.7439882667876089 1.0 1.0 1.0 1.0 1.0 0.01221441336877139 1.0 1.0 1.0 0.0 1.0 0.9489017162335232 1.0 0.27676870983025104 0.0 1.0 0.42065487076639585 0.0 0.0 0.0 0.0 0.4450686278422997 0.0 0.8491969174327225 0.9662822613135915 1.0 0.0 1:1.0 2:0.17204654 3:0.08629498 4:0.21267478 5:0.011231143 6:0.054847922 7:0.0 8:1.0 9:0.027608726 10:0.008878853 11:0.12656562 12:4.39495E-4 13:0.014018674 14:0.00141802 15:1.0 16:0.029716466 17:0.011364111 18:0.001037841 19:7.35561E-5 20:0.0 21:7.42535E-5 
-0.0 -0.0 0.009514297831837104 0.04636298753760439 1.0 0.0 0.04635907807263654 1.0 0.0 0.0 0.0 0.0 0.48865921179714006 0.0 1.0 0.0 0.0 0.0 1.0 0.0 0.0 0.0 0.0 0.0 1.0 0.0 0.0 0.4951482815151375 0.0 0.0 0.017559922582303877 0.20983374090092302 0.0 0.0 0.0 0.0 0.0 0.0 0.0 0.0 0.0 0.0 1:0.23971179 2:0.21300194 3:0.41422337 4:0.4959213 5:1.0 6:0.48199016 7:0.0 8:1.0 9:0.2509883 10:0.53542185 11:0.72649986 12:0.0 13:0.26898947 14:0.24818584 15:1.0 16:0.38929954 17:0.016165532 18:0.002953108 19:1.59547E-5 20:3.84612E-4 21:0.0 
-1.0 -1.0 -1.0 1.0 1.0 1.0 0.7491756727485186 0.6162553840279656 0.30028152432606486 1.0 0.3500718141839911 1.0 1.0 1.0 1.0 1.0 1.0 1.0 1.0 1.0 0.32402307545835823 1.0 1.0 1.0 0.5448582557893862 1.0 1.0 1.0 1.0 0.29077766262929283 1.0 0.7979701737450149 0.30283868337947517 0.34652237782052286 0.3033460174437492 0.2793754122454846 1.0 0.5135450410769227 1.0 1.0 1.0 0.249929439316274 1:1.0 2:0.16403736 3:0.09137723 4:0.22854568 5:0.01289908 6:0.059134103 7:0.0 8:1.0 9:0.033601906 10:0.01937364 11:0.14625643 12:0.001294524 13:0.018517628 14:0.002118019 15:1.0 16:0.023881106 17:0.030399352 18:0.001218252 19:5.71296E-7 20:8.71331E-5 21:0.0 
-1.0 -1.0 -1.0 -0.9940487780342234 1.0 1.0 0.06213412711606105 0.0 0.0 1.0 0.0 1.0 0.6044032648579601 1.0 0.9699443397526719 1.0 1.0 1.0 1.0 1.0 0.24107657690445375 0.9962826842351371 1.0 1.0 0.0 1.0 1.0 1.0 0.0 0.33009651573177046 1.0 0.37540444893852437 0.0 0.0 0.0 0.0 0.08345511564570991 0.0 1.0 1.0 0.9427630385148443 0.0 1:1.0 2:0.34991115 3:0.30569175 4:0.4749018 5:0.09902558 6:0.20639181 7:0.0 8:1.0 9:0.015560948 10:0.063279584 11:0.19671002 12:0.0 13:0.020181203 14:0.010254477 15:1.0 16:0.121826686 17:0.011424959 18:0.001949856 19:2.74352E-6 20:1.80494E-4 21:0.0 
-0.02947418744813926 -0.2662843734060446 -0.3296016313901576 -0.005951221965776542 0.9899322823691807 0.17371622080855198 1.0 1.0 1.0 0.29139219978231784 1.0 0.0 1.0 1.0 0.08896961248491543 0.0023642035410410115 0.014632133942934916 0.24216723652617356 1.0 0.2404812556953846 0.8799861713189667 0.0 0.18514876579415446 0.007735244906922329 1.0 0.2054874075704626 1.0 1.0 0.0 1.0 0.18006412219561427 0.0 1.0 0.6577801644959769 0.7888834645730852 0.9062200463970098 1.0 0.08199746992193697 0.0 0.0 0.0 0.0 1:9.97344E-6 2:5.11579E-5 3:7.90236E-4 4:8.15523E-4 5:1.0 6:0.006880804 7:2.30725E-5 8:0.9425451 9:0.9424656 10:0.9452335 11:0.94549674 12:0.0 13:0.94265836 14:0.9257371 15:0.2474592 16:1.0 17:0.107836016 18:0.09539594 19:0.16458552 20:0.38510135 21:0.0 
-0.9705258125518608 -1.0 -1.0 -0.0 1.0 1.0 1.0 0.9411089127499611 0.3457057122172117 1.0 0.4882021334193085 0.0 1.0 1.0 1.0 0.997635796458959 0.9853678660570651 1.0 1.0 1.0 0.0 1.0 1.0 0.9922647550930777 0.8459850821112653 1.0 0.10442126318745848 1.0 0.9659466785623189 0.0 1.0 1.0 0.39098257940517006 0.3422198355040231 0.21111653542691472 0.09377995360299024 1.0 0.4177559253798528 0.0 0.0 1.0 0.006203207391918509 1:1.0 2:0.4218274 3:0.4196107 4:0.5729976 5:0.16562222 6:0.28294694 7:0.0 8:1.0 9:0.01627704 10:0.10642168 11:0.21033432 12:0.0 13:0.020129513 14:0.015647162 15:1.0 16:0.17145297 17:0.010486521 18:0.004029969 19:1.11012E-5 20:9.41504E-4 21:0.0 
-0.0 -0.0 -0.7167613561474468 -0.0 0.0 0.0 1.0 1.0 1.0 0.0 1.0 0.0 1.0 0.17839106794932477 1.0 0.0 0.0 0.0 0.02109163664289318 0.0 0.0 0.003717315764862894 0.0 0.0 1.0 0.0 0.08968483835917551 0.10964050512948295 0.03405332143768108 1.0 0.0 0.24555892057948567 1.0 1.0 1.0 1.0 0.49591250064518466 0.5002466046982101 0.0 0.0 0.05723696148515567 0.9937967926080815 1:9.29507E-5 2:1.33745E-4 3:8.73651E-4 4:8.93512E-4 5:1.0 6:0.006934081 7:6.70445E-5 8:0.99153656 9:0.9914522 10:0.99442714 11:0.9946207 12:0.0 13:0.9915469 14:0.98599976 15:0.24236083 16:1.0 17:0.014596379 18:0.004669173 19:8.21286E-4 20:0.01595342 21:0.0 
-0.9730321190094597 -1.0 -1.0 -0.0 -1.0 1.0 0.8491436173667591 0.7221908416244636 0.15740104132933047 1.0 0.20037458704761693 0.02959221099267745 1.0 1.0 1.0 1.0 0.9892734754883028 1.0 1.0 1.0 0.0 1.0 1.0 0.9955530630232121 0.5201863468194824 1.0 0.17875683669664974 1.0 0.9425727425904429 0.23843514653643647 1.0 1.0 0.17680097613950144 0.2744154713990127 0.19561555658618476 0.1480180347959743 1.0 0.4496353423381325 0.9999717136013238 0.03923511570047533 1.0 0.08814987370703127 1:1.0 2:0.34568644 3:0.28340018 4:0.3830365 5:0.06062826 6:0.15440466 7:0.0 8:1.0 9:0.006460368 10:0.07005601 11:0.13628355 12:0.0 13:0.00813574 14:0.005475094 15:1.0 16:0.14222023 17:0.009133009 18:0.002851424 19:4.78071E-6 20:4.73343E-4 21:0.0 
-1.0 -1.0 -0.8507350902498051 -0.9878268950389979 -1.0 1.0 0.0 0.0 0.0 1.0 0.0 0.9700959604812796 0.24392340146703465 1.0 0.34284638910434223 0.9807110076185599 1.0 1.0 1.0 1.0 0.3573956231882817 0.9713884965751296 1.0 1.0 0.0 1.0 1.0 1.0 0.0 0.0 1.0 0.0 0.0 0.0 0.0 0.0 0.2568594402036984 0.0 0.0 0.9597109083213847 0.7721300311350753 0.0 1:1.0 2:0.2401523 3:0.1471252 4:0.24259502 5:0.017885555 6:0.07404442 7:0.0 8:1.0 9:0.007939256 10:0.02456312 11:0.103636034 12:0.0 13:0.006799495 14:0.001813156 15:1.0 16:0.07797533 17:0.005418823 18:7.08438E-4 19:4.13185E-7 20:2.74835E-5 21:0.0 
-0.026967880990540222 -0.2842423576549341 -0.6548808863986225 -0.012173104961002046 -0.9899322823691807 0.2838900756756978 0.8236947341175448 0.7765432711046981 0.7946920848427266 0.32927370516414567 1.0 3.118285260429454E-4 0.9636917690592014 1.0 0.521376897289751 0.01928899238144026 0.01072652451169731 0.29690315611623747 1.0 0.3195620942843255 1.0 0.0286115034248704 0.282362425467493 0.004446936976787887 1.0 0.28291801496360086 1.0 1.0 0.05742725740955701 1.0 0.2943100927856295 0.17099415848852476 0.6644925364249743 0.6762012285707178 0.7234543815690563 0.812659195719325 1.0 0.5503646576618675 2.828639867624716E-5 0.0010539759781399982 0.10987509194250504 0.7953854021701371 1:4.45502E-5 2:1.02202E-4 3:9.70316E-4 4:9.94694E-4 5:1.0 6:0.007888402 7:2.27379E-5 8:0.80154 9:0.8014573 10:0.80471927 11:0.8044976 12:0.0 13:0.8007884 14:0.67944914 15:0.00717918 16:0.031681657 17:0.042395163 18:0.04174599 19:1.0 20:0.1785243 21:0.0 
-1.0 -1.0 -1.0 -1.0 -1.0 -1.0 0.7008827519753563 0.5861689388785185 0.0 1.0 0.0 1.0 1.0 1.0 1.0 1.0 1.0 1.0 1.0 1.0 0.0 1.0 1.0 1.0 0.5175142878387435 1.0 0.0 1.0 0.923924800283779 0.0 0.0 0.7402760873702652 0.0 0.0 0.0 0.0 1.0 0.493628284484235 1.0 1.0 1.0 0.0 1:1.0 2:0.1596206 3:0.07112236 4:0.17115124 5:0.006543555 6:0.040206756 7:0.0 8:1.0 9:0.021264471 10:0.005086146 11:0.09760812 12:9.25892E-5 13:0.008804234 14:6.02411E-4 15:1.0 16:0.0303873 17:0.004534542 18:5.00224E-4 19:1.98623E-7 20:1.72869E-5 21:0.0 
-1.0 -0.6316062528900941 -0.0 -0.0 -0.0 -0.0 0.0 0.0 0.0 1.0 0.0 0.0 0.0 0.23086909164834335 0.0 0.0 0.0 0.0 1.0 1.0 0.0 0.0 1.0 0.0 0.0 1.0 0.2566770881918465 1.0 0.0 0.0 1.0 0.0 0.0 0.0 0.0 0.0 0.0 0.0 0.0 0.0 0.0 0.0 1:1.0 2:0.13957031 3:0.056363523 4:0.15608056 5:0.00489849 6:0.033848003 7:0.0 8:1.0 9:0.027361982 10:0.004073487 11:0.0979794 12:2.807E-4 13:0.009795953 14:5.13039E-4 15:1.0 16:0.02046431 17:0.005954828 18:3.96273E-4 19:1.54943E-7 20:7.00121E-6 21:0.0 
-0.0 -1.0 -0.0 -0.0 -0.17371622080855198 -0.2838900756756978 0.0 0.0 0.0 1.0 0.0 0.0 0.0 1.0 0.0 0.0 0.0 1.0 1.0 1.0 0.32056771070094753 0.0 1.0 0.0 0.0 1.0 1.0 1.0 0.0 0.2867363587220519 1.0 0.0 0.0 0.0 0.2981192731054532 0.27515326349150077 0.0 0.0 0.0 0.0 0.0 0.24635592632101685 1:1.0 2:0.13794152 3:0.05645897 4:0.15851387 5:0.00507019 6:0.03436568 7:0.0 8:1.0 9:0.02890671 10:0.005200529 11:0.10139487 12:3.86177E-4 13:0.010515794 14:6.11463E-4 15:1.0 16:0.019180965 17:0.008093152 18:5.59898E-4 19:3.09227E-7 20:1.26133E-5 21:0.0 
-0.0 -1.0 -0.6898916220124551 -0.0 -1.0 -1.0 0.0 0.0 0.2945800093923293 1.0 0.3415747727869097 0.0 0.31702497888166836 1.0 0.17867067456039523 1.0 1.0 1.0 1.0 1.0 0.0 1.0 1.0 1.0 0.0 1.0 0.0 1.0 0.0 0.0 1.0 0.0 0.29696475831466523 0.3380680191457595 0.0 0.0 0.18122404614737483 0.0 0.0 0.0 0.3321655977062227 0.0 1:1.0 2:0.14474995 3:0.060378857 4:0.16277246 5:0.005568161 6:0.036220804 7:0.0 8:1.0 9:0.025463931 10:0.004296592 11:0.09990908 12:2.21935E-4 13:0.009696618 14:5.57305E-4 15:1.0 16:0.022956885 17:0.005573307 18:0.001074849 19:6.09216E-7 20:5.27186E-5 21:0.0 
-0.0 -0.0 -1.0 -0.0 -0.06213412711606105 -0.0 -0.0 1.0 1.0 0.0 0.675123033438175 0.0 1.0 0.0 1.0 0.0 0.0 0.0 0.0 0.0 0.0 0.0 0.0 0.0 1.0 0.0 0.0 0.0 0.0 1.0 0.0 0.0 1.0 1.0 1.0 1.0 0.0 0.4934408719193244 0.0 0.0 0.0 0.0 1:0.001341379 2:0.002024639 3:0.008427994 4:0.008810435 5:1.0 6:0.03180126 7:0.001036446 8:0.96414614 9:0.9607641 10:0.9859769 11:0.9900658 12:0.0 13:0.9622042 14:0.9664602 15:0.53475034 16:1.0 17:0.007153559 18:0.005156477 19:1.07807E-4 20:0.009596781 21:0.0 
-0.6622604424563894 -1.0 -1.0 -0.7075494347643916 -1.0 -1.0 -0.6578594878305408 1.0 0.4975902275156 1.0 0.324876966561825 0.7614602853687605 1.0 0.6543799847282412 1.0 1.0 0.7696911545776401 1.0 0.9981980900029829 1.0 0.2146742453948898 1.0 0.7510856438345764 0.8795073320538679 1.0 0.778136222623671 0.6285993493531267 0.7748917895957254 1.0 0.2293596237996449 0.6582342574842017 1.0 0.23353877389427657 0.3404789796486049 0.16930872648848938 0.02357279881833439 1.0 0.5065591280806756 1.0 0.7639613113700393 1.0 0.0 1:0.564471 2:0.4083103 3:0.6643385 4:0.8346602 5:1.0 6:0.67605025 7:0.0 8:1.0 9:0.13235918 10:0.3407976 11:0.5472778 12:0.0 13:0.15131924 14:0.13200411 15:1.0 16:0.30216488 17:0.015545804 18:0.001597118 19:3.59141E-4 20:0.0 21:3.62706E-4 
-0.04173545129250653 -0.04641051759118429 -0.0 -0.04162623798412697 -1.0 -0.6728383514843039 -0.043023264144815554 1.0 1.0 0.06725989522009662 1.0 0.02812561135874265 1.0 1.0 0.0 0.0 0.027322919690495898 0.0 0.7143644458540701 0.0 0.716804816549114 0.02297678622356512 0.029703675514267284 0.013493416369529545 1.0 0.02596931291331292 0.9383230863177461 0.9553926773561398 0.0 1.0 0.04836697680068445 0.0 0.7664612261057235 0.0 0.0 0.9549897966906665 1.0 0.0 0.0 0.02830848660696708 0.08023299513499735 0.6341741102756846 1:7.89919E-4 2:0.00106628 3:0.004225695 4:0.004400698 5:1.0 6:0.019501442 7:6.27796E-4 8:0.94108003 9:0.94011724 10:0.9518644 11:0.9538475 12:0.0 13:0.94118255 14:0.9415823 15:0.41746268 16:1.0 17:0.042867165 18:0.039864313 19:0.010202541 20:0.10033369 21:0.0 
-0.0 -0.0 -0.04635907807263648 -0.0 -1.0 -0.0 -0.0 1.0 1.0 0.0 1.0 0.0 1.0 0.06553706449825639 0.211082955624263 0.0 0.0 0.0 0.0 0.0 0.0 0.0 0.0 0.0 0.9792459053832969 0.0 0.0 0.0 0.0 1.0 0.0 0.26980210477968025 1.0 0.6595210203513951 0.8306912735115107 0.021437404490999068 0.19736203704532534 0.0 0.0 0.0 0.0 0.3658258897243154 1:0.001071921 2:0.001555476 3:0.006440117 4:0.006717645 5:1.0 6:0.026321515 7:8.28738E-4 8:0.951864 9:0.9497853 10:0.96856993 11:0.97158194 12:0.0 13:0.95103043 14:0.9557034 15:0.48531124 16:1.0 17:0.018077964 18:0.016084654 19:0.001204053 20:0.03444063 21:0.0 
-0.0 -0.0 -1.0 -0.0 -0.0 -0.49873411272916185 -0.0 -0.0 0.0 0.0 0.0 0.0 0.0 0.0 1.0 0.0 0.0 0.0 0.5262837552518301 0.0 0.0 0.0 0.0 0.0 0.9483731304016653 0.0 0.17959323865534377 0.33944465108611116 0.0 0.0 0.0 0.06641255179928256 0.0 0.0 0.0 0.0 0.987850365316724 0.0 0.0 0.0 0.0 0.0 1:0.085681066 2:0.08375113 3:0.20211434 4:0.2701931 5:1.0 6:0.30930373 7:0.0 8:0.94472647 9:0.4331805 10:0.58800566 11:0.97694856 12:0.0 13:0.494945 14:0.45651883 15:1.0 16:0.37147802 17:0.24461813 18:0.03540643 19:0.006851115 20:0.0 21:0.008596792 
-0.0 -0.0 -0.7258611669395909 -0.0 -0.0 -0.0 -0.0 -0.6984124432749432 0.0 0.0 0.0 0.0 0.2261923499191179 0.0 0.0 0.0 0.0 0.0 0.0 0.0 0.0 0.0 0.0 0.0 1.0 0.0 0.0 0.0 0.0 0.0 0.0 0.0 0.0 0.0 0.0 0.0 0.0 0.0 0.0 0.0 0.0 0.0 1:0.05437748 2:0.062174957 3:0.16547087 4:0.20406842 5:1.0 6:0.2613385 7:0.0 8:0.94581014 9:0.53064436 10:0.7385858 11:0.9998639 12:0.0 13:0.55873394 14:0.5629666 15:1.0 16:0.48303193 17:0.23627055 18:0.041974682 19:0.003931932 20:0.0 21:0.005497225 
-0.0 -0.0 -0.0 -0.0 -0.0 -0.0 -0.0 -0.30158755672505655 1.0 0.0 1.0 0.0 0.7762273707550301 0.0 0.0 0.0 0.0 0.0 0.0 0.0 0.0 0.0 0.0 0.0 1.0 0.0 0.0 0.0 0.0 1.0 0.0 0.0 1.0 0.0 1.0 1.0 0.0 0.0 0.0 0.0 0.0 0.0 1:0.012305845 2:0.019861456 3:0.06656255 4:0.08176705 5:1.0 6:0.14531115 7:0.008650376 8:0.8670718 9:0.75409883 10:0.8838234 11:0.9968848 12:0.0 13:0.77131283 14:0.7761843 15:1.0 16:0.69486034 17:0.40236685 18:0.12270517 19:0.017727178 20:0.06339044 21:0.0 
-0.0 -0.0 -0.0 -0.0 -1.0 -0.0 -0.0 -1.0 1.0 0.0 0.0 0.0 1.0 0.0 0.0 0.0 0.0 0.0 0.0 0.0 0.14782987439063247 0.0 0.0 0.0 0.18472155929564749 0.0 0.0 0.0 0.0 0.0 0.0 0.0 0.0 0.0 0.0 0.0 0.0 0.4142967876331922 0.0 0.0 0.0 0.0 1:0.027865307 2:0.037874978 3:0.11593138 4:0.13788748 5:1.0 6:0.20371746 7:0.0 8:0.8960719 9:0.6330953 10:0.83089334 11:1.0 12:0.0 13:0.6509444 14:0.6503947 15:1.0 16:0.5952813 17:0.20190561 18:0.037284233 19:0.007167799 20:0.0 21:0.00905923 
-0.5853454296590579 -0.7379492102226168 -1.0 -0.6162553840279656 -0.8253047827505448 -1.0 -0.5861689388785185 -0.0 0.0 0.8852786032625526 0.0 0.6109341453420193 0.920488301997117 0.8348205487800392 1.0 0.7149838785166254 0.6149308759060503 0.6783803056631433 1.0 0.7261194659833048 0.0 0.7446726651305549 0.6092773288132705 0.6423697021175484 1.0 0.613593121195218 1.0 1.0 0.8016917651054374 0.0 0.6000732697500597 1.0 0.0 0.0 0.0 0.0 1.0 0.5857032123668078 0.6649631364688215 0.613101528142031 0.7988820601518793 0.0 1:0.14208975 2:0.12316344 3:0.26860943 4:0.36514342 5:1.0 6:0.37645793 7:0.0 8:0.96614605 9:0.3553663 10:0.52258426 11:0.9159766 12:0.0 13:0.4138127 14:0.39242625 15:1.0 16:0.3207647 17:0.21627742 18:0.031582244 19:0.002249426 20:0.0 21:0.002816211 
-0.0 -0.0 -0.0 -0.0 -0.11580412999941642 -0.0 -0.0 -1.0 1.0 0.0 0.9220738347948708 0.0 1.0 0.0 0.0 0.0 0.0 0.0 0.0 0.0 0.0 0.0 0.0 0.0 1.0 0.0 0.0 0.0 0.0 0.2965991236233141 0.0 0.0 1.0 1.0 0.0 0.0 0.0 0.0 0.0 0.0 0.0 0.0 1:0.019176599 2:0.029010467 3:0.09846368 4:0.11868355 5:1.0 6:0.18583126 7:1.6532E-4 8:0.88065004 9:0.6668082 10:0.8511559 11:1.0 12:0.0 13:0.682869 14:0.6857093 15:1.0 16:0.61906195 17:0.24413595 18:0.056577742 19:0.001392294 20:0.01421811 21:0.0 
-0.0 -0.0 -1.0 -0.0 -0.0 -0.0 -0.0 -0.0 0.0 0.0 0.0 0.0 0.0 0.0 1.0 0.0 0.0 0.0 0.0 0.0 0.4772033316441756 0.0 0.0 0.0 0.0 0.0 0.0 0.0 0.0 0.0 0.0 0.0 0.0 0.0 0.0 0.0 0.0 0.0 0.0 0.0 0.0 0.0 1:0.061990596 2:0.06475434 3:0.17254944 4:0.23159897 5:1.0 6:0.28094083 7:0.0 8:0.9322513 9:0.48316494 10:0.6451019 11:1.0 12:0.0 13:0.54009354 14:0.5071562 15:1.0 16:0.40078565 17:0.2390249 18:0.03318399 19:0.003299414 20:0.0 21:0.004574593 
-0.0 -0.0 -0.0 -0.0 -1.0 -0.0 -0.0 -1.0 1.0 0.0 1.0 0.0 1.0 0.8324536406558418 0.0 0.0 0.0 0.0 0.0 0.0 0.17743757681025824 0.0 0.0 0.0 1.0 0.0 0.2363639247654538 0.20087312394420373 0.0 1.0 0.0 0.0 1.0 1.0 1.0 1.0 0.0 0.0 0.0 0.0 0.0 1.0 1:0.012426403 2:0.017530411 3:0.0505102 4:0.0605129 5:1.0 6:0.11608788 7:0.010302218 8:0.86183095 9:0.7985603 10:0.88374645 11:0.97956574 12:0.0 13:0.8209083 14:0.8277439 15:1.0 16:0.76895833 17:0.33304808 18:0.10183468 19:0.014256983 20:0.05633049 21:0.0 
-0.0 -0.0 -0.0 -0.0 -0.0 -0.0 -0.0 -0.0 -1.0 0.0 1.0 0.0 0.6618909595084728 0.0 0.30818055899367347 0.0 0.0 0.0 0.0 0.0 0.0 0.0 0.0 0.0 1.0 0.0 0.0 0.0 0.0 0.0 0.0 0.0 1.0 1.0 0.9569326016706298 0.0 0.0 0.0 0.0 0.0 0.0 0.0 1:0.001359071 2:0.004255095 3:0.024026094 4:0.026084999 5:1.0 6:0.06959127 7:0.0 8:0.9133043 9:0.89016473 10:0.96450067 11:0.98239917 12:0.0 13:0.8944667 14:0.8613781 15:0.83331406 16:1.0 17:0.10264228 18:0.06666559 19:0.008805828 20:0.08478446 21:0.0 
-0.0 -0.0 -0.0 -0.0 -1.0 -0.9520931261720571 -0.0 -0.9467883969562377 -1.0 0.0 1.0 0.0 1.0 1.0 0.0 0.0 0.0 0.0 0.9855332768571712 0.0 0.8254966791566842 0.0 0.0 0.0 1.0 0.0 1.0 1.0 0.0 1.0 0.0 0.0 0.24665836666702173 0.0 0.04306739832937021 0.5448364558133347 1.0 0.0 0.0 0.0 0.0 0.0 1:5.87853E-5 2:9.6045E-4 3:0.008705387 4:0.00931449 5:1.0 6:0.03535913 7:2.20313E-5 8:0.91049 9:0.9060928 10:0.9347061 11:0.94015175 12:0.0 13:0.907887 14:0.87140995 15:0.5804224 16:1.0 17:0.15504968 18:0.11481642 19:0.050946113 20:0.20981376 21:0.0 
-0.0 -0.0 -0.0 -0.0 -0.0 -0.0 -0.0 -0.0 -0.0 0.0 0.0 0.0 0.3928215312029378 0.0 0.0 0.0 0.0 0.0 0.0 0.0 0.0 0.0 0.0 0.0 0.0 0.0 0.0 0.0 0.0 0.3430055998980667 0.0 0.0 0.0 0.0 0.0 0.0 0.0 0.0 0.0 0.0 0.0 0.0 1:0.00105491 2:0.003112507 3:0.018488929 4:0.019324522 5:1.0 6:0.056772374 7:0.0 8:0.94465274 9:0.92926306 10:0.9933995 11:1.0 12:0.0 13:0.9296722 14:0.92364585 15:0.7140944 16:1.0 17:0.009626877 18:0.00217452 19:9.23767E-4 20:0.0 21:9.34342E-4 
-0.0 -0.0 -0.0 -0.0 -0.0 -0.0 -0.0 -0.0 -0.0 0.0 0.0 0.0 1.0 0.0 0.0 0.0 0.0 0.0 0.0 0.0 0.0 0.0 0.0 0.0 0.0 0.0 0.0 0.0 0.0 1.0 0.0 0.0 0.0 0.0 0.0 0.0 0.0 0.0 0.0 0.0 0.0 0.0 1:6.61151E-4 2:0.002245565 3:0.014711541 4:0.015338878 5:1.0 6:0.04876374 7:0.0 8:0.95344895 9:0.94273376 10:0.994761 11:1.0 12:0.0 13:0.94328266 14:0.92904395 15:0.6603753 16:1.0 17:0.006294395 18:0.002653853 19:3.41979E-5 20:0.002486294 21:0.0 
-0.0 -0.0 -0.0 -0.0 -1.0 -0.0 -0.0 -1.0 -0.0 0.0 0.0 0.0 1.0 0.0 0.0 0.0 0.0 0.0 0.0 0.0 0.0 0.0 0.0 0.0 0.0 0.0 0.14094588247757991 0.2062153723184534 0.0 1.0 0.0 0.0 0.0 0.0 0.0 1.0 0.0 0.0 0.0 0.0 0.0 1.0 1:1.14183E-4 2:8.86538E-4 3:0.007938696 4:0.008251315 5:1.0 6:0.032481585 7:0.0 8:0.96548814 9:0.9615034 10:0.9906666 11:0.99338526 12:0.0 13:0.9619756 14:0.9335668 15:0.53694063 16:1.0 17:0.019910071 18:0.014395346 19:8.69963E-4 20:0.027122034 21:0.0 
-0.0 -0.0 -0.0 -0.0 -0.0 -0.0 -0.0 -0.0 -1.0 0.0 0.0 0.0 0.0 0.0 0.0 0.0 0.0 0.0 0.0 0.0 0.0 0.0 0.0 0.0 0.534548718096108 0.0 0.0 0.0 0.0 0.0 0.0 0.0 0.7533416333329783 0.0 0.0 0.0 0.0 0.0 0.0 0.0 0.0 0.0 1:0.001465346 2:0.004129283 3:0.02308253 4:0.024200471 5:1.0 6:0.06600113 7:0.0 8:0.9348271 9:0.91282326 10:0.9915603 11:1.0 12:0.0 13:0.91317856 14:0.8995375 15:0.7726236 16:1.0 17:0.007302353 18:0.003113373 19:3.38086E-5 20:0.002314653 21:0.0 
-0.2941148001165911 -0.3117891558040282 -1.0 -0.30028152432606486 -0.0 -0.0 -0.2945800093923293 -0.7211157051817063 -1.0 0.3274881068298966 1.0 0.2976128174215793 1.0 0.3303862422399633 1.0 0.30804406244210053 0.29808485562583026 0.3051042914463836 0.0 0.31198084432768997 0.0 0.309363346812024 0.2973765829214096 0.3017381240749626 1.0 0.29821544100987907 0.0 0.0 0.3052567463269611 0.0 0.2984932494478101 0.4173181862516102 1.0 1.0 1.0 0.0 0.5188803238131214 1.0 0.3050218238367899 0.2980900139430122 0.30874516596522855 0.0 1:0.002008808 2:0.005477791 3:0.02831972 4:0.030320497 5:1.0 6:0.07695686 7:0.0 8:0.8893981 9:0.8603853 10:0.9495445 11:0.9632156 12:0.0 13:0.86131114 14:0.8280432 15:0.84981865 16:1.0 17:0.10755867 18:0.08752118 19:0.013036113 20:0.10732911 21:0.0 
-0.0 -0.0 -0.0 -0.0 -0.3457057122172117 -0.0 -0.0 -0.829686125377656 -0.0 0.0 0.0 0.0 1.0 0.0 0.0 0.0 0.0 0.0 0.0 0.0 0.0 0.0 0.0 0.0 0.0 0.0 0.0 0.0 0.0 1.0 0.0 0.0 0.0 0.0 0.0 0.45516354418666527 0.0 0.0 0.0 0.0 0.0 0.0 1:4.71707E-4 2:0.001884672 3:0.013262269 4:0.013871194 5:1.0 6:0.04568723 7:0.0 8:0.9566961 9:0.9475369 10:0.99439377 11:1.0 12:0.0 13:0.9485628 14:0.9273576 15:0.64400655 16:1.0 17:0.003349122 18:0.001980918 19:1.32535E-5 20:0.002077588 21:0.0 
-1.0 -1.0 -0.0 -0.0 -0.6489392497059114 -1.0 -1.0 -0.0 -0.0 -0.0 0.0 0.7691079000040449 0.0 1.0 0.10102445205958145 1.0 1.0 1.0 1.0 1.0 0.0 0.4118213674358827 1.0 1.0 0.0 1.0 0.0 1.0 0.0 0.0 1.0 0.0 0.0 0.0 0.0 0.0 0.0 0.0 0.652164957184713 0.7533875282620474 0.0 0.0 1:1.0 2:0.25214 3:0.19371895 4:0.39956012 5:0.05736184 6:0.14626263 7:0.0 8:1.0 9:0.030489376 10:0.036501355 11:0.21996279 12:0.001450072 13:0.030343983 14:0.008016926 15:1.0 16:0.05436912 17:0.03987117 18:0.001767147 19:5.95627E-6 20:1.73847E-4 21:0.0 
-1.0 -1.0 -0.0 -1.0 -0.0 -1.0 -1.0 -0.0 -0.0 -0.0 0.0 0.23089209999595506 0.0 1.0 0.0 0.0 1.0 1.0 1.0 1.0 0.0 0.0 1.0 1.0 0.0 1.0 1.0 1.0 0.0 0.0 1.0 0.0 0.0 0.0 0.0 0.0 0.0 0.0 0.0 0.24661247173795264 0.0 0.0 1:1.0 2:0.21111709 3:0.15478393 4:0.38344502 5:0.04726864 6:0.13014309 7:0.0 8:1.0 9:0.045479596 10:0.03561134 11:0.24764158 12:0.002902599 13:0.040094092 14:0.006858178 15:1.0 16:0.029257879 17:0.056217883 18:0.002427029 19:6.27666E-6 20:2.2602E-4 21:0.0 
-0.0 -1.0 -1.0 -0.0 -1.0 -0.0017410258454645944 -1.0 -0.06725989522009662 -0.0 -0.0 0.0 0.0 0.37530987441103103 0.2556404522069196 1.0 1.0 0.0 0.9893478642467766 1.0 1.0 0.0 1.0 1.0 0.0 0.0 1.0 0.0 1.0 0.0 0.0 0.0 0.7121600215286958 0.0 0.0 0.0 0.0 0.33130280945497304 0.0 0.347835042815287 0.0 1.0 0.0 1:1.0 2:0.33237836 3:0.3145591 4:0.556106 5:0.14626692 6:0.25056425 7:0.0 8:1.0 9:0.03299522 10:0.07467163 11:0.27756417 12:0.0 13:0.041951686 14:0.019889355 15:1.0 16:0.08996242 17:0.05948096 18:0.007407133 19:6.92155E-5 20:0.001281217 21:0.0 
-0.0 -0.0 -0.3401745342790524 -0.0 -0.0 -0.327532679318681 -1.0 -0.0 -0.0 -0.03474838637153562 0.0 0.0 0.19203533860082933 1.0 0.0 0.0 0.0 0.01065213575322349 1.0 1.0 0.19198907397991877 0.0 1.0 0.0 0.0 1.0 0.2775488522178648 1.0 0.0 0.09085835782042889 1.0 0.0 0.030912432535830734 0.0 0.05032322564166021 0.055142114222880935 0.0 0.0 0.0 0.0 0.0 0.04064720087738328 1:1.0 2:0.20639585 3:0.1559937 4:0.40054497 5:0.055216935 6:0.13687336 7:0.0 8:1.0 9:0.051600333 10:0.04219446 11:0.27025968 12:5.05364E-4 13:0.04616629 14:0.007010426 15:1.0 16:0.023775108 17:0.071456134 18:0.004975401 19:7.41564E-6 20:1.94154E-4 21:0.0 
-0.0 -1.0 -1.0 -0.0 -0.6424529500764063 -0.0 -0.0 -1.0 -0.8852786032625526 -0.292739720458361 0.3960176355893256 0.0 1.0 0.0 1.0 0.0 0.0 0.0 1.0 1.0 0.14364748013650255 0.5881786325641173 0.988194644409587 0.0 0.8594122241257603 1.0 0.0 1.0 1.0 0.2177229000350948 0.0 1.0 0.3001548969788561 0.3936839247819443 0.2781272342773307 0.24416501290364673 1.0 0.6799724027288039 0.0 0.0 1.0 0.2264169260189614 1:1.0 2:0.36718577 3:0.39504835 4:0.74398196 5:0.29922697 6:0.3807885 7:0.0 8:1.0 9:0.06408306 10:0.11133255 11:0.40848985 12:0.0 13:0.08763307 14:0.03833218 15:1.0 16:0.08522067 17:0.10345248 18:0.01297753 19:2.51318E-4 20:0.002243538 21:0.0 
-0.34104362535843136 -0.369912851749187 -1.0 -0.3500718141839911 -1.0 -0.39406443760267046 -0.3415747727869097 -1.0 -1.0 -1.0 -0.3960176355893256 0.34649624682234964 1.0 0.33653633479804684 1.0 0.3646086529903017 0.3473167441398666 0.359187203630415 0.4728316922609932 0.36986782943538077 0.15715717428841303 0.3675732058328317 0.3461483775831645 0.35312959071505323 1.0 0.34727741704890497 0.19325717885211555 0.29221560340985675 0.3676462454669838 1.0 0.34702622225747426 0.531468321875612 1.0 1.0 1.0 0.998704687342838 0.04461790725525731 1.0 0.35811998599763123 0.34716476928087314 0.37041077158742686 0.19885534533076488 1:0.013780818 2:0.023478938 3:0.083298184 4:0.09150951 5:1.0 6:0.15885915 7:0.0 8:0.889692 9:0.7333024 10:0.9498074 11:0.99694115 12:0.0 13:0.7314824 14:0.72710866 15:1.0 16:0.79064673 17:0.09256084 18:0.02625647 19:2.4903E-4 20:0.010012855 21:0.0 
-0.0 -0.0 -0.0 -0.0 -1.0 -0.0 -0.0 -1.0 -1.0 -1.0 -0.0 0.0 1.0 0.1790088408855618 0.40921864063637564 0.0 0.0 0.0 0.0 0.0 0.0 0.0 0.0 0.0 1.0 0.0 0.35481946161819894 0.0 0.0 1.0 0.0 0.0 1.0 1.0 1.0 1.0 0.9896423576639753 0.0 0.0 0.0 0.0 0.8011446546692351 1:3.29953E-4 2:6.87376E-4 3:0.004481245 4:0.004622248 5:1.0 6:0.021486409 7:2.21576E-4 8:0.8899068 9:0.888678 10:0.9034406 11:0.90396255 12:0.0 13:0.8881735 14:0.8579837 15:0.42245534 16:1.0 17:0.17534286 18:0.17450847 19:0.18282725 20:0.42756116 21:0.0 
-0.0 -0.0 -0.11432139286210605 -0.0 -0.4882021334193085 -0.8063101494449465 -0.0 -1.0 -0.9220738347948708 -1.0 -0.0 0.0 1.0 0.8767896144777313 0.0 0.0 0.0 0.0 0.7461409762372987 0.0 0.8506589155782731 0.0 0.0 0.0 1.0 0.0 1.0 1.0 0.0 1.0 0.0 0.0 1.0 0.0 0.0 0.0012953126571620252 1.0 0.0 0.0 0.0 0.0 0.0 1:1.1294E-4 2:5.85445E-4 3:0.005199786 4:0.00533965 5:1.0 6:0.02439493 7:0.0 8:0.85493946 9:0.8533044 10:0.8717389 11:0.87117004 12:0.0 13:0.85166913 14:0.7997642 15:0.44126987 16:1.0 17:0.2961644 18:0.2986673 19:0.47995102 20:0.6941257 21:0.0 
-1.0 -1.0 -1.0 -1.0 -1.0 -1.0 -1.0 -0.7895858967275029 -0.6109341453420193 -0.2976128174215793 -1.0 -0.34649624682234964 1.0 1.0 1.0 1.0 1.0 1.0 1.0 1.0 0.3168479171580752 1.0 1.0 1.0 0.5406388683616955 1.0 1.0 1.0 1.0 0.2860623527720678 1.0 0.8647573549606414 0.30010167431226736 0.3432034917248674 0.30056220764779124 0.27691967313940075 1.0 0.5126279481130085 1.0 1.0 1.0 0.24768035716653805 1:1.0 2:0.24114786 3:0.14721139 4:0.25278026 5:0.019492712 6:0.078401364 7:0.0 8:1.0 9:0.008775937 10:0.02177129 11:0.10998193 12:0.0 13:0.007595283 14:0.002022774 15:1.0 16:0.07640406 17:0.001084676 18:3.21778E-4 19:3.70226E-8 20:1.34754E-5 21:0.0 
-0.0 -0.0 -0.0 -0.0 -0.2986118056062916 -0.0 -0.0 -1.0 -0.400339725406092 -1.0 -0.0 -0.0 -0.0 0.0 0.0 0.0 0.0 0.0 0.0 0.0 0.0 0.0 0.0 0.0 0.0 0.0 0.0 0.0 0.0 1.0 0.0 0.0 0.6098333462060244 0.08931102994566574 0.07123203350307018 1.0 0.0 0.0 0.0 0.0 0.0 0.8790614236658926 1:2.04126E-5 2:3.51116E-5 3:3.77383E-4 4:3.82738E-4 5:1.0 6:0.004054028 7:1.91878E-5 8:0.9815675 9:0.981545 10:0.9829082 11:0.98296756 12:0.0 13:0.9815968 14:0.9811884 15:0.18362394 16:1.0 17:0.008118513 18:0.007784027 19:0.001899229 20:0.041993488 21:0.0 
-0.0 -0.0 -0.9064479058145987 -0.0 -0.0 -0.0 -0.0 -0.7294893776271077 -1.0 -1.0 -0.0 -0.574301681645565 -0.0 0.0 0.7526492059467055 0.0 0.0 0.0 0.0 0.0 0.0 0.0 0.0 0.0 1.0 0.0 0.0 0.0 0.0 1.0 0.0 0.0 1.0 1.0 1.0 0.7257134944960154 0.0 0.0 0.0 0.0 0.0 0.12093857633410748 1:0.00714498 2:0.013803432 3:0.055233292 4:0.059529856 5:1.0 6:0.11954411 7:0.0 8:0.89397115 9:0.8111735 10:0.965555 11:1.0 12:0.0 13:0.8164277 14:0.8072848 15:1.0 16:0.9200807 17:0.008683838 18:0.003718271 19:2.76576E-5 20:0.003245119 21:0.0 
-0.0 -0.0 -0.0 -0.01912140676680586 -0.0 -0.30906428376404627 -0.0 -0.0 -1.0 -1.0 -0.0 -1.0 -0.007855194130986221 1.0 0.0 0.0 0.0 0.0 0.0 0.0 0.0 0.0 0.0 0.0 1.0 0.0 1.0 0.9536524674325265 0.0 1.0 0.0 0.0 0.8403247188233268 0.27005143224985223 0.7385152305411237 0.12062781184090018 1.0 0.0 0.0023916644072320926 0.00840944841901478 0.0 0.0 1:8.94296E-5 2:1.88493E-4 3:0.001626544 4:0.001667795 5:1.0 6:0.010888056 7:8.19912E-5 8:0.92212284 9:0.9218813 10:0.9273677 11:0.9277074 12:0.0 13:0.92198145 14:0.9083233 15:0.30396402 16:1.0 17:0.12641719 18:0.119117744 19:0.1659074 20:0.40096974 21:0.0 
-0.3145481759756492 -0.5022347333135921 -1.0 -0.0 -1.0 -0.5507650651674393 -0.3170249788816683 -1.0 -1.0 -1.0 -0.5673452130118604 -0.368947259040716 -0.0 0.19403417748193622 1.0 0.456050801652218 0.3581997031039968 0.4362596139353084 0.6454872927024974 0.44297000288987587 0.0 0.49367062800868916 0.34238092015945865 0.39607480290045505 1.0 0.36540320260548265 0.0 0.33604111509565954 0.11167760489288757 0.009014316547761067 0.3277158382380872 0.6885847615781487 0.5498419349706488 0.6406375378044821 0.19025273595580616 0.0 0.0 0.9028089789733815 0.0 0.0 0.4876268727790191 0.0 1:0.06317957 2:0.07661744 3:0.19622508 4:0.22078381 5:1.0 6:0.2843133 7:0.0 8:0.99407554 9:0.53764296 10:0.86989063 11:0.9973124 12:0.0 13:0.5510826 14:0.5597505 15:1.0 16:0.5600434 17:0.00149591 18:0.001283816 19:1.30466E-6 20:6.01785E-4 21:0.0 
-0.0 -0.0 -0.0 -0.0 -1.0 -0.3477858215947505 -0.0 -0.0 -0.6345865582854325 -1.0 -0.0 -1.0 -0.0 0.12810861725968423 0.0 0.0 0.0 0.0 0.6366019867720809 0.0 0.8729342265428519 0.0 0.0 0.0 1.0 0.0 0.267965120668344 0.0 0.0 1.0 0.0 0.0 0.0 0.0 0.0 0.0 0.8326217748140006 0.0 0.0 0.0 0.0 0.0 1:1.09193E-5 2:6.87051E-5 3:0.001028587 4:0.001044388 5:1.0 6:0.008152481 7:0.0 8:0.93101764 9:0.9308953 10:0.93468326 11:0.9347315 12:0.0 13:0.93077254 14:0.9199398 15:0.25887117 16:1.0 17:0.102195114 18:0.09814011 19:0.15061653 20:0.38258597 21:0.0 
-0.0 -0.0 -0.0 -0.0 -0.30579145925166873 -0.0 -0.0 -0.8283421043890515 -0.0 -1.0 -0.0 -0.0 -0.0 0.0 0.0 0.0 0.0 0.0 0.0 0.0 0.0 0.0 0.0 0.0 0.03072604600358254 0.0 0.0 0.0 0.0 1.0 0.0 0.0 0.0 0.0 0.0 0.15365869366308438 0.0 0.0 0.0 0.0 0.0 0.0 1:1.21918E-5 2:4.16667E-5 3:6.17549E-4 4:6.31636E-4 5:1.0 6:0.005782457 7:7.38025E-6 8:0.9461166 9:0.9460643 10:0.9482552 11:0.94840986 12:0.0 13:0.9461928 14:0.94040304 15:0.2221845 16:1.0 17:0.077268146 18:0.072543494 19:0.114912294 20:0.3335545 21:0.0 
-1.0 -1.0 -1.0 -0.9808785932331942 -1.0 -1.0 -1.0 -0.4421685179838409 -0.8879817389797406 -0.05471249071141053 -1.0 -0.05675105931371892 -0.9921448058690138 1.0 1.0 1.0 1.0 1.0 1.0 1.0 0.22376711344045905 1.0 1.0 1.0 0.7482413536105742 1.0 1.0 1.0 0.8883223951071124 0.0 1.0 1.0 0.0 0.0 0.0 0.0 1.0 0.0971910210266185 0.997608335592768 0.9915905515809852 1.0 0.0 1:1.0 2:0.41800725 3:0.40836954 4:0.56662136 5:0.1567978 6:0.27750355 7:0.0 8:1.0 9:0.017122816 10:0.09096512 11:0.21182501 12:0.0 13:0.022310035 14:0.015049495 15:1.0 16:0.1631084 17:0.002032972 18:4.84814E-4 19:0.0 20:3.0524E-5 21:4.31834E-8 
-1.0 -1.0 -0.0 -0.0 -0.17839106794932477 -0.17251756685394834 -1.0 -0.0 -0.0 -0.0 -1.0 -0.0 -0.0 -0.0 0.0 0.0 0.0 0.9450626521104369 1.0 1.0 0.3262488449948887 0.0 1.0 0.0 0.0 1.0 1.0 1.0 0.0 0.341006164468365 1.0 0.0 0.0 0.0 0.0 0.0 0.0 0.0 0.0 0.0 0.0 0.0 1:1.0 2:0.15286633 3:0.063894875 4:0.16671489 5:0.005921476 6:0.03827705 7:0.0 8:1.0 9:0.023227474 10:0.002171895 11:0.0980811 12:0.0 13:0.00904649 14:3.85849E-4 15:1.0 16:0.026695022 17:0.001030185 18:6.6367E-5 19:2.90542E-6 20:0.0 21:2.90495E-6 
-0.0 -0.16544656793387047 -0.6907418776969388 -0.0069794661129614745 -1.0 -0.8274824331460516 -0.23086909164834327 -1.0 -1.0 -1.0 -0.2556404522069196 -1.0 -0.0031337706864782047 -1.0 0.6809224334574225 0.045790652184517194 0.006374363132099603 0.054937347889563004 1.0 0.25419102092251766 1.0 0.0741088945910344 0.2343000211159012 0.01827375088376973 1.0 0.23088205705064455 1.0 1.0 0.12223017122199539 1.0 0.010527002890217685 0.24644156696007802 1.0 1.0 1.0 1.0 1.0 0.5723460695276739 0.018689624132049117 0.0037921190353682904 0.12191995389523914 0.9237938417620483 1:2.87654E-5 2:3.66368E-5 3:2.48749E-4 4:2.52997E-4 5:1.0 6:0.00295713 7:1.44569E-6 8:0.94036055 9:0.940351 10:0.94114864 11:0.941193 12:0.0 13:0.94039667 14:0.9440717 15:0.15614653 16:1.0 17:0.111954734 18:0.10671677 19:0.49950615 20:0.6982114 21:0.0 
-1.0 -1.0 -0.8247972816915204 -0.0 -1.0 -1.0 -1.0 -0.0 -0.0 -0.0 -1.0 -0.0 -0.0 -0.3221427947416205 0.166673345815148 0.9542093478154827 0.9936256368679004 1.0 1.0 1.0 0.0 0.9258911054089656 1.0 0.9817262491162303 0.0 1.0 0.0 1.0 0.0 0.0 0.9894729971097824 0.0 0.0 0.0 0.0 0.0 0.17777520600857524 0.0 0.0 0.0 0.37465015132913704 0.0 1:1.0 2:0.18473023 3:0.09053139 4:0.19540134 5:0.009454963 6:0.050629288 7:0.0 8:1.0 9:0.015883762 10:0.00662332 11:0.10110083 12:0.0 13:0.008257942 14:8.77461E-4 15:1.0 16:0.043540303 17:1.6857E-4 18:2.03913E-4 19:1.02519E-8 20:1.57413E-5 21:0.0 
-0.0 -1.0 -1.0 -0.9930205338870385 -1.0 -1.0 -1.0 -0.7199170492264977 -0.667274189435881 -0.3303862422399632 -1.0 -0.39233479016133993 -0.9968662293135218 -1.0 1.0 1.0 1.0 1.0 1.0 1.0 0.0 1.0 1.0 1.0 0.5406300142759035 1.0 0.22608855868073813 1.0 0.8777698287780046 0.0 1.0 0.6617891482804745 0.3420499849222808 0.3951028924371354 0.32903787617833063 0.29269035485376843 1.0 0.42765393047232614 0.9813103758679509 0.9962078809646318 1.0 0.07620615823795171 1:1.0 2:0.1857767 3:0.09211498 4:0.19795005 5:0.009708045 6:0.051597316 7:0.0 8:1.0 9:0.015847864 10:0.007244566 11:0.10234623 12:0.0 13:0.008389429 14:8.76373E-4 15:1.0 16:0.0438993 17:0.001026876 18:7.99981E-5 19:0.0 20:7.30219E-6 21:5.7998E-9 
-0.17564076951592028 -0.0 -1.0 -0.14356631953118548 -1.0 -0.864223286394093 -0.17867067456039523 -1.0 -1.0 -1.0 -0.3074109790323083 -1.0 -0.11026898364280496 -1.0 -1.0 0.2627895004792877 0.2566883292847532 0.30082810214725236 0.9646378615352491 0.2942706828057439 0.6828052545624492 0.2192698354745744 0.22633338252102075 0.3034120567212019 1.0 0.27467330548986196 0.884924675876996 0.8708107292938407 0.0 1.0 0.1882742375099889 0.0 1.0 1.0 1.0 1.0 1.0 1.0 0.06433966732947403 0.11086775818925167 0.029340432933550396 0.849672734957554 1:0.1274398 2:0.13189846 3:0.2933788 4:0.33846465 5:1.0 6:0.37617764 7:0.0 8:1.0 9:0.3739103 10:0.7039043 11:0.8608137 12:0.0 13:0.3881548 14:0.37381777 15:1.0 16:0.46941558 17:0.007798385 18:0.001026879 19:2.81318E-4 20:0.0 21:2.82684E-4 
-1.0 -1.0 -1.0 -0.8564336804688145 -1.0 -1.0 -1.0 -0.0 -0.0 -0.0 -1.0 -0.0 -0.889731016357195 -0.658608832891722 -0.664888418307154 1.0 1.0 1.0 1.0 1.0 0.0 1.0 1.0 1.0 0.0 1.0 0.6341901559177634 1.0 0.4674505609754791 0.0 1.0 0.43665191877285725 0.0 0.0 0.0 0.0 0.7122286325854923 0.0 0.935660332670526 0.8891322418107483 1.0 0.0 1:1.0 2:0.5619987 3:0.70929986 4:0.8865706 5:0.49420047 6:0.5569144 7:0.0 8:1.0 9:0.040961757 10:0.192291 11:0.30976796 12:0.0 13:0.046858635 14:0.039901096 15:1.0 16:0.24214105 17:0.006433121 18:5.86508E-4 19:7.91971E-5 20:0.0 21:7.89939E-5 
-0.0 -0.24957057816422967 -1.0 -0.0 -1.0 -0.0 -0.0 -1.0 -1.0 -0.30818055899367347 -0.0 -0.40921864063637564 -0.0 -1.0 -0.1827073609654168 0.0 0.0 0.0 0.0 0.0 0.0 0.0 0.0 0.0 1.0 0.0 0.0 0.0 0.0 0.0 0.0 0.0 0.3297838508830328 0.6855921707089445 0.2921019223986809 0.021355248864354415 0.0752057704802601 0.0 0.0 0.0 0.0 0.0 1:0.14320667 2:0.14683616 3:0.31997424 4:0.36216012 5:1.0 6:0.39502513 7:0.0 8:1.0 9:0.3422024 10:0.69627863 11:0.81594807 12:0.0 13:0.34852922 14:0.34595773 15:1.0 16:0.47695783 17:0.001503455 18:8.52636E-4 19:5.72323E-7 20:3.2149E-4 21:0.0 
-0.0 -1.0 -0.5097611323003309 -0.0 -0.05891395223758743 -0.0 -0.0 -0.0 -0.0 -0.0 -0.7936134730272731 -0.0 -0.0 -0.0 -0.0 0.4119501636710426 0.0 0.2869802610959221 0.0 0.21804424763842434 0.0 0.7807301645254257 0.0 0.06325191032392329 0.0 0.0 0.0 0.0 0.5325494390245209 0.0 0.0 1.0 0.0 0.0 0.0 0.0 0.0 0.0 0.0 0.0 0.9706595670664496 0.0 1:0.9238099 2:0.5693732 3:0.79161596 4:1.0 5:0.7502043 6:0.69216955 7:0.0 8:1.0 9:0.06659376 10:0.2356824 11:0.3928616 12:0.0 13:0.0774449 14:0.06413053 15:1.0 16:0.2591305 17:0.010987612 18:0.001078683 19:6.00224E-5 20:0.0 21:5.84722E-5 
-0.0 -0.0 -1.0 -0.0 -0.0 -0.0 -0.0 -0.21108295562426305 -1.0 -0.0 -0.0 -0.0 -0.0 -0.09404037305498329 -0.0 0.0 0.0 0.0 0.0 0.0 0.0 0.0 0.0 0.0 1.0 0.0 0.0 0.0 0.0 0.0 0.0 0.5633480812271427 0.0 0.0 0.0 0.0 0.0 0.0 0.0 0.0 0.0 0.0 1:0.4656251 2:0.36348408 3:0.6193403 4:0.7396811 5:1.0 6:0.6302238 7:0.0 8:1.0 9:0.14608076 10:0.39987135 11:0.55714124 12:0.0 13:0.1576648 14:0.14368579 15:1.0 16:0.34548455 17:0.001840912 18:1.93771E-4 19:5.32571E-5 20:0.0 21:5.32798E-5 
-0.0 -0.0 -1.0 -0.0 -0.0 -0.0 -0.0 -0.0 -0.0 -0.0 -0.0 -0.0 -0.0 -0.0 -0.0 0.0 0.0 0.0 0.0 0.0 0.0 0.0 0.0 0.0 0.0 0.0 0.0 0.0 0.0 0.0 0.0 1.0 0.0 0.0 0.0 0.0 0.0 0.0 0.0 0.0 0.0 0.0 1:0.555373 2:0.40960458 3:0.67048573 4:0.8234094 5:1.0 6:0.67267954 7:0.0 8:1.0 9:0.13115157 10:0.3594074 11:0.5365506 12:0.0 13:0.1452217 14:0.12869018 15:1.0 16:0.3173645 17:0.013998555 18:0.002253792 19:8.52578E-6 20:1.3775E-4 21:0.0 
-1.0 -1.0 -1.0 -1.0 -1.0 -1.0 -1.0 -0.0 -0.0 -0.04206991841884959 -1.0 -0.007627086707888411 -1.0 -0.456050801652218 -1.0 -0.6747396641503302 1.0 1.0 1.0 1.0 0.31962694283236537 1.0 1.0 1.0 0.0 1.0 1.0 1.0 0.0 0.1702751177279292 1.0 0.2041583899909179 0.040520466468490314 0.0 0.066852043955635 0.07147853094247204 0.2600616401850577 0.0 0.5875339223565986 1.0 1.0 0.059307354380946684 1:1.0 2:0.26688555 3:0.19464816 4:0.35615957 5:0.04332305 6:0.12766577 7:0.0 8:1.0 9:0.016001943 10:0.032845665 11:0.1691149 12:0.0 13:0.016642103 14:0.004333116 15:1.0 16:0.075529836 17:0.017509563 18:6.62019E-4 19:8.19738E-5 20:0.0 21:8.18491E-5 
-1.0 -1.0 -1.0 -0.0 -1.0 -1.0 -1.0 -1.0 -0.7149838785166254 -0.2659741440232509 -1.0 -0.3569815662824133 -0.0 -1.0 -1.0 -1.0 1.0 1.0 1.0 1.0 0.0 1.0 1.0 1.0 0.6576599536413206 1.0 0.2362520209845439 1.0 1.0 0.12061803143596776 1.0 1.0 0.27022620232755246 0.3621577490814948 0.2428676896512973 0.2126160207910214 1.0 0.5887758652918343 0.4124660776434014 0.0 1.0 0.19446863027598713 1:1.0 2:0.42147565 3:0.4126274 4:0.55141085 5:0.14802362 6:0.26846787 7:0.0 8:1.0 9:0.01448509 10:0.10126112 11:0.1969026 12:0.0 13:0.018072262 14:0.013379366 15:1.0 16:0.17351 17:0.005523996 18:3.40809E-4 19:4.1193E-5 20:0.0 21:4.13471E-5 
-1.0 -1.0 -0.8162723678336524 -1.0 -1.0 -1.0 -1.0 -0.0 -0.0 -0.0 -1.0 -0.0 -0.0 -0.3581997031039968 -1.0 -0.2566883292847532 -1.0 1.0 1.0 1.0 0.31792139049638546 1.0 1.0 1.0 0.0 1.0 1.0 1.0 0.0 0.01648923356825127 1.0 0.0 0.0 0.0 0.0 0.0 0.2297746197053223 0.0 0.0 0.0 0.6183507193383236 0.0 1:1.0 2:0.22009721 3:0.12737131 4:0.23928766 5:0.01638619 6:0.070438184 7:0.0 8:1.0 9:0.01250187 10:0.015993262 11:0.1133214 12:0.0 13:0.008949506 14:0.001605961 15:1.0 16:0.061313067 17:0.003815205 18:4.43226E-4 19:2.19543E-8 20:4.98769E-5 21:0.0 
-1.0 -1.0 -1.0 -0.0 -1.0 -1.0 -1.0 -0.797014074268136 -0.6149308759060503 -0.29808485562583026 -1.0 -0.3473167441398666 -1.0 -1.0 -1.0 -1.0 -1.0 1.0 1.0 1.0 0.0 1.0 1.0 1.0 0.5442142921435438 1.0 0.2511029251447769 1.0 1.0 0.2701113801358816 1.0 0.8741784036258193 0.30058849678618044 0.3440254646862203 0.301000684733419 0.2772817836567452 1.0 0.5149506157680287 1.0 1.0 1.0 0.24800026550415616 1:1.0 2:0.23947889 3:0.14785083 4:0.26225266 5:0.021040864 6:0.08198339 7:0.0 8:1.0 9:0.010449112 10:0.021261249 11:0.1179822 12:0.0 13:0.008882245 14:0.002083542 15:1.0 16:0.0726622 17:0.002937213 18:5.68125E-4 19:4.86985E-8 20:6.73974E-5 21:0.0 
-0.0 -1.0 -1.0 -0.0 -1.0 -0.2969031561162374 -1.0 -1.0 -0.6783803056631433 -0.030277741939599118 -1.0 -0.243412798377435 -0.0 -1.0 -1.0 -1.0 -1.0 -0.0 1.0 1.0 0.0 1.0 1.0 0.0 0.6072475330370238 1.0 0.0 1.0 1.0 0.0 1.0 1.0 0.15298176280833636 0.30920461120383613 0.0 0.0 1.0 0.5585681665016294 1.0 0.0 1.0 0.0 1:1.0 2:0.32485446 3:0.26566708 4:0.43319628 5:0.07574327 6:0.17776541 7:0.0 8:1.0 9:0.014156599 10:0.04893509 11:0.18392438 12:0.0 13:0.017922074 14:0.00757232 15:1.0 16:0.10902419 17:0.00499435 18:8.66646E-6 19:0.0 20:1.3902E-6 21:6.73184E-10 
-1.0 -1.0 -0.019723898220540343 -1.0 -0.24216723652617353 -1.0 -1.0 -0.0 -0.0 -0.0 -1.0 -0.0 -1.0 -0.0 -1.0 -0.0 -1.0 -1.0 1.0 1.0 0.0 1.0 1.0 1.0 0.0 1.0 0.25379119750023404 1.0 0.0 0.0 1.0 0.0 0.0 0.0 0.0 0.0 0.0 0.0 0.0 1.0 0.0 0.0 1:1.0 2:0.29079717 3:0.2217783 4:0.39195117 5:0.05724917 6:0.14946061 7:0.0 8:1.0 9:0.016012171 10:0.036602095 11:0.1790584 12:0.0 13:0.018255347 14:0.005754271 15:1.0 16:0.08784391 17:0.009203105 18:1.90756E-4 19:4.28141E-8 20:2.40682E-5 21:0.0 
-1.0 -1.0 -1.0 -0.0 -1.0 -1.0 -1.0 -0.0 -0.0 -0.27482654950678453 -1.0 -0.11577440525298 -0.0 -0.4362596139353084 -1.0 -0.5878083632431745 -0.0 -1.0 1.0 1.0 0.32066187372782223 0.0 1.0 1.0 0.0 1.0 1.0 1.0 0.0 0.2914091721315186 1.0 0.10043786552905279 0.15467380273668635 0.046936538618818135 0.3072578219600494 0.2823469697997761 0.27012071396953824 0.0 0.0 0.0 1.0 0.25237271386651094 1:1.0 2:0.2807182 3:0.21598971 4:0.4062845 5:0.060575712 6:0.15455033 7:0.0 8:1.0 9:0.020194072 10:0.035184886 11:0.19755603 12:0.0 13:0.022508513 14:0.005935889 15:1.0 16:0.07712451 17:0.016988227 18:1.19978E-4 19:0.0 20:1.76184E-5 21:3.02354E-8 
-0.0 -0.0 -0.0 -0.0 -0.0 -0.0 -1.0 -0.0 -0.0 -0.0 -0.8697308138498824 -0.0 -0.0 -0.0 -0.0 -0.0 -0.0 -0.0 -0.0 1.0 0.09158463588042573 0.0 1.0 0.0 0.0 1.0 0.2135083753704658 1.0 0.0 0.15887577492657962 0.9740057552900662 0.0 0.0 0.0 0.0 0.0 0.0 0.0 0.0 0.0 0.0 0.0 1:1.0 2:0.2503763 3:0.18582794 4:0.31359568 5:0.033966728 6:0.10379686 7:0.0 8:1.0 9:0.012727688 10:0.04633424 11:0.14768143 12:1.27577E-4 13:0.012911797 14:0.003281292 15:1.0 16:0.07572218 17:0.038584355 18:0.007397977 19:3.99732E-5 20:5.40968E-4 21:0.0 
-0.0 -1.0 -0.0 -0.0 -1.0 -1.0 -0.0 -0.0 -0.0 -0.0 -0.0 -0.0 -0.0 -0.0 -1.0 -0.0 -0.0 -0.0 -0.0 0.0 0.0 0.0 0.0 0.0 0.0 1.0 0.0 0.0 0.0 0.0 0.0 0.0 0.0 0.0 0.0 0.0 0.0 0.0 0.0 0.0 0.0 0.0 1:1.0 2:0.29319927 3:0.21250592 4:0.3115593 5:0.03612656 6:0.11072802 7:0.0 8:1.0 9:0.005172932 10:0.04911496 11:0.119273655 12:0.0 13:0.006468666 14:0.003606863 15:1.0 16:0.11292779 17:0.009005462 18:0.005060702 19:8.71955E-6 20:8.32854E-4 21:0.0 
-0.0 -1.0 -0.9771088420333771 -0.0 -0.0838434107291008 -0.0 -0.0 -0.0 -0.0 -0.0 -1.0 -0.0 -0.0 -0.31171652038406567 -0.0 -0.4327588865151231 -0.9918461487602096 -0.0 -1.0 0.0 0.0 0.9898960877676214 0.0 0.0 0.0 0.0 0.0 0.0 0.0 0.0 0.0 0.0 0.0 0.0 0.0 0.0 0.3046564226444588 0.0 0.0 0.0 0.9195417030213405 0.0 1:1.0 2:0.2753715 3:0.21047433 4:0.33289945 5:0.040262677 6:0.11665736 7:0.0 8:1.0 9:0.009578071 10:0.05240612 11:0.14439783 12:0.0 13:0.011100454 14:0.00364035 15:1.0 16:0.09333967 17:0.031332716 18:0.006793523 19:3.1781E-5 20:5.47475E-4 21:0.0 
-0.9956702772958809 -0.0 -0.0 -0.0 -0.0 -0.664074132138607 -1.0 -0.0 -0.0 -0.0 -0.0 -0.0 -0.0 -0.0 -1.0 -0.0 -0.0 -1.0 -0.0 0.9602000210882835 0.0 0.0 1.0 0.0 0.0 1.0 0.0 1.0 0.0 0.0 1.0 0.0 0.0 0.0 0.0 0.0 0.0 0.0 0.0 0.0 0.0 0.0 1:1.0 2:0.25114095 3:0.17168948 4:0.2865994 5:0.027656145 6:0.092881955 7:0.0 8:1.0 9:0.008733588 10:0.036749903 11:0.12703235 12:0.0 13:0.008903157 14:0.002496566 15:1.0 16:0.08188006 17:0.018368684 18:0.006884707 19:1.90266E-5 20:7.35425E-4 21:0.0 
-0.0 -0.9767671958749357 -0.0 -0.0 -0.0 -0.0 -0.0 -0.0 -0.0 -0.0 -1.0 -0.0 -0.0 -0.0 -0.0 -0.0 -0.0 -0.0 -0.9894352825384077 1.0 0.0 0.0 0.9885434102408585 0.0 0.0 1.0 0.0 0.0 0.0 0.0 0.0 0.0 0.0 0.0 0.0 0.0 0.0 0.0 0.0 0.0 0.0 0.0 1:1.0 2:0.26984698 3:0.2046632 4:0.3257991 5:0.03851224 6:0.11252011 7:0.0 8:1.0 9:0.009954716 10:0.051281247 11:0.14332233 12:0.0 13:0.011187577 14:0.003554169 15:1.0 16:0.08985892 17:0.03332427 18:0.007501623 19:3.79176E-5 20:6.48382E-4 21:0.0 
-1.0 -0.0 -0.0 -0.9922903523768994 -0.0 -0.0 -1.0 -0.0 -0.0 -0.0 -0.0 -0.0 -1.0 -0.0 -1.0 -0.0 -0.0 -1.0 -0.0 1.0 0.2937059060086582 0.0 1.0 1.0 0.0 1.0 1.0 1.0 0.0 0.0 1.0 0.0 0.0 0.0 0.0 0.0 0.0 0.0 0.0 1.0 0.0 0.0 1:1.0 2:0.2280431 3:0.14987274 4:0.26875034 5:0.021971235 6:0.082241945 7:0.0 8:1.0 9:0.012603288 10:0.030339962 11:0.12898405 12:0.0 13:0.010725124 14:0.00208012 15:1.0 16:0.06470083 17:0.023814578 18:0.003236018 19:9.09555E-6 20:8.07725E-5 21:0.0 
-0.004329722704119131 -0.02323280412506431 -0.639313207364323 -0.007709647623100557 -0.9372482259137924 -0.9693098695849631 -0.018391730528178267 -0.8413942911046531 -0.773003075453314 -0.8064394403332691 -0.13026918615011762 -0.9791236534092814 -0.0 -0.9703727590905126 -0.9762306117844914 -0.531878975020126 -0.00815385123979037 -0.0 -0.010564717461592314 0.03979997891171643 1.0 0.010103912232378585 0.011456589759141508 0.0 1.0 0.0 1.0 1.0 0.056527518853974806 1.0 0.025994244709933795 0.1655849690371576 0.6946034433137559 0.6911342257083061 0.7285176739536036 0.8303803693806301 1.0 0.5385070832734675 0.0 0.0 0.0804582969786594 0.8349979004736582 1:7.1909E-5 2:8.10551E-5 3:3.05116E-4 4:3.12402E-4 5:1.0 6:0.003173362 7:9.59687E-5 8:0.84727734 9:0.84726834 10:0.84806854 11:0.8480675 12:0.0 13:0.8471577 14:0.78320885 15:0.002893341 16:0.015725171 17:0.021252463 18:0.018900365 19:1.0 20:0.12022516 21:0.0 
-0.0 -1.0 -1.0 -0.0 -1.0 -0.3666159982764298 -0.0 -0.8711682447524 -0.753280679798516 -0.17909383652390204 -1.0 -0.23984901508901055 -0.0 -1.0 -0.0 -1.0 -1.0 -0.0 -1.0 0.0 0.0 1.0 0.0 0.7764197620401985 0.5561010976289747 0.0 0.0 0.0 0.9434724811460252 0.10854011573465891 0.0 1.0 0.18241648368370117 0.29679840375096406 0.21623243064764366 0.16961963061936997 1.0 0.4614929167265324 1.0 0.0 1.0 0.1066419047971444 1:1.0 2:0.33624333 3:0.2739784 4:0.38933855 5:0.06106758 6:0.15591699 7:0.0 8:1.0 9:0.006827764 10:0.06710819 11:0.14344878 12:0.0 13:0.008730646 14:0.005435093 15:1.0 16:0.13535973 17:0.007698808 18:0.002581831 19:2.74881E-6 20:3.42033E-4 21:0.0 
-0.0 -0.0 -0.0 -0.0 -0.0 -0.0 -0.0 -0.0 -0.0 -0.0 -1.0 -0.0 -0.0 -0.0 -0.0 -0.0 -0.0 -0.0 -0.0 0.0 0.0 0.0 1.0 0.0 0.0 1.0 0.0 1.0 0.0 0.0 0.0 0.0 0.0 0.0 0.0 0.0 0.0 0.0 0.0 0.0 0.0 0.0 1:1.0 2:0.27049443 3:0.20326939 4:0.32202226 5:0.037499793 6:0.11103439 7:0.0 8:1.0 9:0.009362943 10:0.05026018 11:0.14011948 12:0.0 13:0.010580566 14:0.003460391 15:1.0 16:0.09118121 17:0.03059525 18:0.007155505 19:3.29401E-5 20:6.57006E-4 21:0.0 
-0.0 -0.0 -0.0 -0.0 -0.0 -0.0 -0.9816082694718218 -0.0 -0.0 -0.0 -0.0 -0.0 -0.0 -0.0 -0.023769388215508527 -0.0 -0.0 -0.0 -0.0 1.0 0.0 0.0 1.0 0.22358023795980153 0.0 1.0 0.0 1.0 0.0 0.0 0.0 0.0 0.0 0.0 0.0 0.0 0.0 0.0 0.0 0.0 0.0 0.0 1:1.0 2:0.2638173 3:0.19621107 4:0.31538776 5:0.0355371 6:0.106954284 7:0.0 8:1.0 9:0.009859163 10:0.048468996 11:0.13981472 12:0.0 13:0.010771728 14:0.003294224 15:1.0 16:0.08683916 17:0.03205431 18:0.007567606 19:3.62376E-5 20:6.93329E-4 21:0.0 
-1.0 -1.0 -0.0 -0.0 -0.24048125569538453 -0.0 -1.0 -0.0 -0.0 -0.0 -1.0 -0.0 -0.8991783049745583 -0.0 -1.0 -0.0 -0.0 -1.0 -1.0 -1.0 0.0 0.0 1.0 1.0 0.0 1.0 0.0 1.0 0.0 0.0 1.0 0.0 0.0 0.0 0.0 0.0 0.0 0.0 0.28617389999062287 0.0 0.0 0.0 1:1.0 2:0.21722768 3:0.14072469 4:0.28428006 5:0.025078515 6:0.08760612 7:0.0 8:1.0 9:0.023583936 10:0.024754949 11:0.15333499 12:8.01791E-4 13:0.017657569 14:0.003745912 15:1.0 16:0.04857567 17:0.02698247 18:0.001875144 19:1.50176E-4 20:0.0 21:1.5176E-4 
-0.0 -1.0 -1.0 -0.0 -1.0 -1.0 -0.0 -1.0 -0.7261194659833048 -0.31198084432768997 -1.0 -0.36986782943538077 -0.0 -1.0 -0.0 -1.0 -1.0 -0.15071679189027565 -1.0 -1.0 0.06496879785070932 1.0 1.0 0.6372287284748254 0.6605222900942838 1.0 0.0 1.0 1.0 0.2026061313223645 0.0 1.0 0.31502229325647235 0.3669835195826364 0.3140407558685513 0.2774669345511695 1.0 0.5897616030673588 0.7138261000093772 0.2412756881368205 1.0 0.2565223683349617 1:1.0 2:0.33542526 3:0.32306525 4:0.49571383 5:0.11344495 6:0.21404782 7:0.0 8:1.0 9:0.021617072 10:0.09057584 11:0.22199829 12:1.88933E-4 13:0.027494043 14:0.014297136 15:1.0 16:0.10862715 17:0.067120425 18:0.005619031 19:1.15545E-4 20:0.0 21:9.27E-5 
-0.0 -1.0 -1.0 -0.0 -1.0 -0.0 -1.0 -0.0 -0.0 -0.0 -1.0 -0.0 -0.0 -0.44297000288987587 -0.25419102092251766 -0.5123149304441683 -1.0 -0.0 -1.0 -1.0 0.0 1.0 1.0 0.0 0.0 1.0 0.0 1.0 0.0 0.0 0.0 0.08659204759859745 0.0 0.0 0.0 0.0 0.2613832754294075 0.0 0.0 0.0 1.0 0.0 1:1.0 2:0.22911288 3:0.1507764 4:0.31717718 5:0.032645922 6:0.10375828 7:0.0 8:1.0 9:0.027714193 10:0.020936698 11:0.17364071 12:1.23573E-4 13:0.021340944 14:0.003410118 15:1.0 16:0.048392173 17:0.022088856 18:0.001345968 19:2.57095E-6 20:1.19494E-4 21:0.0 
-0.0 -1.0 -0.0 -0.3019937316036144 -0.0 -0.3195620942843257 -1.0 -0.0 -0.0 -0.0 -1.0 -0.0 -0.0 -0.0 -1.0 -0.0 -0.0 -0.0 -0.0 -1.0 0.2608354468322547 0.0 1.0 0.0 0.0 1.0 0.4315666015979122 1.0 0.0 0.09327475756083022 1.0 0.0 0.0 0.0 0.0 0.00972149023370538 0.0 0.0 0.0 0.0 0.0 0.0 1:1.0 2:0.19177815 3:0.12379732 4:0.2984249 5:0.025352454 6:0.08919074 7:0.0 8:1.0 9:0.035079405 10:0.025205402 11:0.1853212 12:0.0 13:0.024772082 14:0.001997357 15:1.0 16:0.029955959 17:0.040579848 18:6.89631E-4 19:1.41906E-5 20:0.0 21:1.52744E-5 
-1.0 -0.0 -0.0 -0.6980062683963856 -0.0 -1.0 -1.0 -0.0 -0.0 -0.0 -1.0 -0.0 -0.10082169502544172 -0.0 -1.0 -0.0 -0.0 -0.8492832081097244 -0.0 -1.0 0.0 0.0 1.0 0.36277127152517463 0.0 1.0 0.8333821328189062 1.0 0.0 0.0 1.0 0.0 0.0 0.0 0.0 0.0 0.0 0.0 0.0 0.7587243118631795 0.0 0.0 1:1.0 2:0.15592353 3:0.07706964 4:0.19972098 5:0.009467277 6:0.048797436 7:0.0 8:1.0 9:0.031134978 10:0.011972374 11:0.12643538 12:7.84936E-4 13:0.01472102 14:0.001501181 15:1.0 16:0.022808176 17:0.018634435 18:9.41153E-4 19:8.91637E-7 20:1.69183E-5 21:0.0 
-0.31950511221609307 -0.31810489040249884 -0.6131167422507725 -0.32402307545835823 -0.12106274822342052 -1.0 -0.32056771070094753 -0.0 -0.0 -0.0 -0.33563655411642135 -0.007816089866686188 -0.3168479171580752 -0.09670133998331076 -0.3262488449948887 -0.4268482409715509 -0.31962694283236537 -0.31792139049638546 -0.32066187372782223 -0.9870236619388845 -0.325804244682964 0.31236238307491376 0.319527121789114 0.3175547843741537 0.14030399081792916 0.3174526849124248 1.0 0.3981066728904986 0.28940278496209015 1.0 0.32403738941830396 0.36457676329489297 0.0 0.0 0.0 0.0 1.0 0.0 0.3139096598650028 0.317296274817454 0.30186341431341734 0.0 1:4.12408E-4 2:4.92843E-4 3:0.001461884 4:0.001503023 5:1.0 6:0.009294309 7:1.13869E-4 8:0.71654224 9:0.7164696 10:0.7200185 11:0.71936834 12:0.08450535 13:0.7152952 14:0.5 15:0.001617005 16:0.006429527 17:0.018982867 18:0.018240424 19:1.0 20:0.078660004 21:0.0 
-0.0 -0.0 -0.0 -0.0 -1.0 -0.3573956231882817 -0.0 -0.9314790619440038 -0.8024707828450663 -0.8254966791566842 -0.0 -1.0 -0.0 -1.0 -1.0 -0.2559570135908983 -0.0 -0.0 -0.0 -0.3982668799501994 -0.0 0.0 0.0 0.0 1.0 0.0 1.0 1.0 0.0 1.0 0.0 0.0 0.7166098046814542 0.7252605202963781 0.7721247903567654 0.8365682573531698 1.0 0.7059217850883729 0.0 0.0 0.0 0.7868953156206213 1:8.40288E-4 2:0.00105082 3:0.003153748 4:0.003288921 5:1.0 6:0.015878217 7:2.46683E-4 8:0.74777067 9:0.74743956 10:0.7556188 11:0.75465435 12:0.0 13:0.7456487 14:0.5483593 15:0.011339065 16:0.032875597 17:0.06010472 18:0.055870652 19:1.0 20:0.17596981 21:0.0 
-1.0 -1.0 -1.0 -0.0 -1.0 -1.0 -1.0 -1.0 -0.7446726651305549 -0.22001384823941944 -1.0 -0.32041179254804525 -0.0 -1.0 -1.0 -1.0 -1.0 -1.0 -1.0 -1.0 -1.0 -0.018089566330869312 1.0 1.0 0.7073661238370109 1.0 0.204534192754763 1.0 1.0 0.12005282690934949 1.0 1.0 0.2202600598573622 0.33281383788230134 0.19262762605602016 0.16775122603600565 1.0 0.6123802862928709 0.0 0.0 1.0 0.15909979974495644 1:1.0 2:0.4874285 3:0.53379077 4:0.66685724 5:0.24316616 6:0.36339033 7:0.0 8:1.0 9:0.020544726 10:0.14367403 11:0.22465444 12:0.0 13:0.022895327 14:0.02077343 15:1.0 16:0.21413684 17:0.004834842 18:9.1554E-4 19:0.0 20:3.50011E-5 21:1.60383E-7 
-1.0 -1.0 -1.0 -1.0 -1.0 -1.0 -1.0 -0.02297678622356512 -0.0 -0.08934949857260455 -1.0 -0.04716141328478645 -1.0 -0.49367062800868916 -1.0 -1.0 -1.0 -1.0 -1.0 -1.0 -1.0 -0.2942728167440445 1.0 1.0 0.0 1.0 1.0 1.0 0.0 0.16907278018405858 1.0 0.5007490064577463 0.09191638718403498 0.03268311165342834 0.11790240648532944 0.1168530017940291 0.2754711320639128 0.0 1.0 1.0 1.0 0.09515549013370256 1:1.0 2:0.37751052 3:0.3278121 4:0.42902544 5:0.079585835 6:0.18527816 7:0.0 8:1.0 9:0.007411295 10:0.08293945 11:0.14571293 12:0.0 13:0.008800609 14:0.007123488 15:1.0 16:0.16184281 17:0.003177344 18:3.26735E-4 19:5.58951E-5 20:0.0 21:5.59767E-5 
-1.0 -0.0 -0.0 -0.0 -0.0 -0.0 -1.0 -0.0 -0.0 -0.0 -0.0 -0.0 -0.0 -0.0 -1.0 -0.0 -0.0 -0.0 -0.0 -1.0 -0.0 -0.319527121789114 -0.0 0.0 0.0 1.0 1.0 0.23344600944323368 0.0 0.100419105844602 1.0 0.0 0.0 0.0 0.0 0.0 0.0 0.0 0.0 0.0 0.0 0.0 1:1.0 2:0.15390052 3:0.06517611 4:0.17142068 5:0.006347536 6:0.039781738 7:0.0 8:1.0 9:0.023907388 10:0.002441098 11:0.101509444 12:2.38799E-5 13:0.009598424 14:4.44945E-4 15:1.0 16:0.026504405 17:0.001534436 18:1.20134E-4 19:7.8188E-6 20:0.0 21:7.83121E-6 
-0.0 -1.0 -0.0 -0.7620241343377678 -0.18514876579415446 -0.282362425467493 -1.0 -0.0 -0.0 -0.0 -1.0 -0.0 -0.0 -0.0 -0.23430002111590126 -0.0 -0.0 -0.0 -1.0 -1.0 -1.0 -0.0 -0.0 0.0 0.0 1.0 0.11102830215987866 1.0 0.0 0.0 0.0 0.0 0.0 0.0 0.0 0.0 0.0 0.0 0.0 0.0 0.0 0.0 1:1.0 2:0.16874486 3:0.07752409 4:0.18787919 5:0.008207495 6:0.046478745 7:0.0 8:1.0 9:0.020708464 10:0.003965903 11:0.10535719 12:0.0 13:0.009574619 14:6.53324E-4 15:1.0 16:0.03343669 17:0.001173059 18:5.49907E-5 19:3.98736E-6 20:0.0 21:3.99034E-6 
-0.0 -0.0 -0.0 -0.0 -0.0 -0.0 -1.0 -0.0 -0.0 -0.0 -0.988194644409587 -0.0 -0.0 -0.0 -1.0 -0.0 -0.0 -0.0 -0.0 -1.0 -1.0 -0.0 -0.0 0.0 0.0 1.0 0.14367699521032504 1.0 0.0 0.0 1.0 0.0 0.0 0.0 0.0 0.0 0.0 0.0 0.0 0.0 0.0 0.0 1:1.0 2:0.15693189 3:0.067781806 4:0.17134655 5:0.006431938 6:0.040053844 7:0.0 8:1.0 9:0.02239548 10:0.003185471 11:0.099358685 12:1.64657E-5 13:0.00912008 14:4.87306E-4 15:1.0 16:0.028540593 17:0.002062641 18:1.25396E-4 19:8.48811E-6 20:0.0 21:8.50294E-6 
-1.0 -0.9745664067945097 -0.0 -0.0 -0.0 -0.0 -1.0 -0.0 -0.0 -0.0 -1.0 -0.0 -0.0 -0.0 -0.0 -0.0 -0.0 -0.0 -0.0 -1.0 -1.0 -0.0 -0.0 0.0 0.0 1.0 0.0 1.0 0.0 0.0 1.0 0.0 0.0 0.0 0.0 0.0 0.0 0.0 0.0 0.0 0.0 0.0 1:1.0 2:0.16162622 3:0.0718571 4:0.17521435 5:0.006893644 6:0.04170111 7:0.0 8:1.0 9:0.021072319 10:0.00402084 11:0.0994825 12:0.0 13:0.008937403 14:5.51872E-4 15:1.0 16:0.031006174 17:0.002491499 18:1.56347E-4 19:1.04891E-5 20:0.0 21:1.05126E-5 
-0.0 -1.0 -0.7702230688545402 -0.0 -1.0 -1.0 -0.0 -0.0 -0.0 -0.0 -1.0 -0.0 -0.0 -0.34238092015945865 -0.0 -0.22633338252102075 -1.0 -1.0 -1.0 -1.0 -1.0 -0.0 -1.0 1.0 0.0 1.0 0.0 1.0 0.0 0.0 0.0 0.0 0.0 0.0 0.0 0.0 0.21758597662643125 0.0 0.0 0.0 0.5082145078465957 0.0 1:1.0 2:0.19228353 3:0.097852565 4:0.19749525 5:0.009940493 6:0.052132756 7:0.0 8:1.0 9:0.013808073 10:0.009399926 11:0.098158985 12:0.0 13:0.007592766 14:9.68339E-4 15:1.0 16:0.048787266 17:0.001855043 18:4.38214E-5 19:2.38865E-9 20:1.97551E-6 21:0.0 
-0.0 -1.0 -1.0 -0.23797586566223214 -1.0 -1.0 -0.0 -0.7807893193488437 -0.6092773288132705 -0.2973765829214096 -1.0 -0.3461483775831645 -1.0 -1.0 -1.0 -1.0 -1.0 -1.0 -1.0 -1.0 -1.0 -0.0 -1.0 1.0 0.5390163164660362 1.0 0.0 1.0 1.0 0.18588668682629161 0.0 0.8521782521351245 0.299859569592972 0.34283380257347273 0.30035246770041885 0.27675746339275603 1.0 0.5111098942056308 1.0 1.0 1.0 0.2475577815976312 1:1.0 2:0.23274313 3:0.13920973 4:0.24634387 5:0.018143862 6:0.07480158 7:0.0 8:1.0 9:0.010081604 10:0.019524757 11:0.1105687 12:0.0 13:0.008066298 14:0.001871511 15:1.0 16:0.070400335 17:0.002488086 18:2.49777E-4 19:3.55203E-8 20:1.6656E-6 21:0.0 
-1.0 -1.0 -0.9425276881897631 -1.0 -1.0 -1.0 -1.0 -0.0 -0.0 -0.0 -1.0 -0.0 -1.0 -0.39607480290045505 -1.0 -0.3666639670451252 -1.0 -1.0 -1.0 -1.0 -1.0 -0.3175547843741537 -1.0 -1.0 0.0 1.0 1.0 1.0 0.0 0.0 1.0 0.0 0.0 0.0 0.0 0.0 0.250839937861764 0.0 0.0 1.0 0.9540486157618859 0.0 1:1.0 2:0.26809278 3:0.18558182 4:0.31594795 5:0.03411804 6:0.108863086 7:0.0 8:1.0 9:0.009514409 10:0.032957688 11:0.13738522 12:0.0 13:0.010346957 14:0.003201726 15:1.0 16:0.087741606 17:0.005664719 18:0.002831722 19:2.10656E-6 20:3.03786E-4 21:0.0 
-1.0 -1.0 -1.0 -0.0 -1.0 -1.0 -1.0 -0.8930007484233975 -0.6423697021175484 -0.3017381240749626 -1.0 -0.35312959071505323 -0.0 -1.0 -1.0 -1.0 -1.0 -1.0 -1.0 -1.0 -1.0 -0.0 -1.0 -1.0 0.570471312932482 1.0 0.2489846658405395 1.0 1.0 0.2883460069791594 1.0 1.0 0.304364869910868 0.34999489702321995 0.304384848681629 0.2799281928633155 1.0 0.5349113110688654 1.0 0.0 1.0 0.2501861455251684 1:1.0 2:0.28402805 3:0.20657866 4:0.33569163 5:0.040756695 6:0.12042776 7:0.0 8:1.0 9:0.008959596 10:0.04062912 11:0.1413145 12:0.0 13:0.01048196 14:0.003865992 15:1.0 16:0.0974826 17:0.008107719 18:0.003532858 19:4.85155E-6 20:4.17313E-4 21:0.0 
-0.0 -0.0 -0.018826653092888043 -0.0 -1.0 -0.37040923770741846 -0.0 -1.0 -1.0 -1.0 -0.0 -1.0 -0.0 -1.0 -0.8120707846136803 -0.0 -0.0 -0.0 -0.0 -0.41602333921513257 -0.0 -0.5347461751739788 -0.0 -0.0 -0.0 0.0 0.8140906208061071 0.5015082840034419 0.0 1.0 0.0 0.0 1.0 0.7946775744606085 1.0 1.0 1.0 0.1419355469641001 0.0 0.0 0.0 1.0 1:2.07084E-4 2:3.25406E-4 3:0.001972932 4:0.00204281 5:1.0 6:0.012123268 7:0.0 8:0.92736197 9:0.92705435 10:0.93320405 11:0.9338528 12:0.0 13:0.92737657 14:0.9496574 15:0.3261249 16:1.0 17:0.09105645 18:0.07057857 19:0.057013407 20:0.22148672 21:0.0 
-0.0 -0.0 -0.0 -0.0 -0.0 -0.0 -0.0 -0.0 -1.0 -1.0 -0.0 -0.771510634759675 -0.0 -0.7789673996141567 -0.0 -0.0 -0.0 -0.0 -0.0 -0.0 -0.0 -0.0 -0.0 -0.0 -0.0 0.0 0.0 0.0 0.0 0.8118840340032598 0.0 0.0 1.0 0.0 0.0 0.0 0.0 0.0 0.0 0.0 0.0 0.0 1:0.03473761 2:0.045293946 3:0.09570996 4:0.12669185 5:1.0 6:0.19841538 7:0.0 8:0.86235005 9:0.73060566 10:0.8955162 11:0.9997439 12:0.0 13:0.7439601 14:0.7300158 15:1.0 16:0.6257129 17:0.59296757 18:0.34904337 19:0.16244397 20:0.26137862 21:0.0 
-0.0 -0.7072134567021793 -1.0 -0.0 -0.18151614219063333 -0.0 -0.0 -0.0 -1.0 -0.0 -0.8594122241257603 -0.0 -0.0 -0.0 -0.0 -1.0 -0.6576599536413206 -0.0 -0.37145605859085 -0.0 -0.6605222900942838 -0.0 -0.7073661238370109 -0.0 -0.1206091937436383 0.0 0.0 0.0 0.8376064069947357 0.0 0.0 1.0 0.0 0.0 0.0 0.0 1.0 0.0 0.3414512005337589 0.0 0.814917389123469 0.0 1:0.29464832 2:0.2407603 3:0.29176936 4:0.5288316 5:1.0 6:0.5209235 7:0.0 8:0.96779084 9:0.44719914 10:0.67197 11:0.98048574 12:0.0 13:0.49409276 14:0.4127291 15:1.0 16:0.28950268 17:0.38458762 18:0.16963252 19:0.033220563 20:0.07226591 21:0.0 
-0.0 -0.0 -1.0 -0.0 -0.0 -0.0 -0.0 -0.979245905383297 -1.0 -0.534548718096108 -0.0 -0.0 -0.0 -1.0 -0.0 -1.0 -0.0 -0.0 -0.0 -0.0 -0.0 -0.0 -0.0 -0.0 -0.0 0.0 0.0 0.0 0.0 0.0 0.0 0.0 0.0 0.0 0.0 0.0 0.0 0.0 0.0 0.0 0.0 0.0 1:0.13784863 2:0.13625887 3:0.22174662 4:0.32496002 5:1.0 6:0.3714209 7:0.0 8:0.93492126 9:0.523117 10:0.7622079 11:1.0 12:0.0 13:0.55354005 14:0.49627975 15:1.0 16:0.39878577 17:0.36805624 18:0.17744629 19:0.03777172 20:0.0887214 21:0.0 
-0.0 -0.0 -0.0 -0.0 -0.664468939920632 -0.0 -0.0 -1.0 -1.0 -1.0 -0.0 -1.0 -0.0 -1.0 -0.0 -0.0 -0.0 -0.0 -0.0 -0.0 -0.0 -0.0 -0.0 -0.0 -0.0 0.0 0.0 0.0 0.0 1.0 0.0 0.0 1.0 1.0 1.0 1.0 0.0 0.0 0.0 0.0 0.0 0.0 1:0.029178286 2:0.039215066 3:0.09269591 4:0.11953051 5:1.0 6:0.18963662 7:0.0 8:0.8627943 9:0.72407997 10:0.8862802 11:1.0 12:0.0 13:0.741321 14:0.73249537 15:1.0 16:0.62637985 17:0.4160964 18:0.25303528 19:0.08388967 20:0.18770668 21:0.0 
-0.0 -0.0 -0.0 -0.0 -0.0 -0.2976958183849093 -0.0 -0.0 -0.13309468969731272 -0.0 -0.0 -0.22848936524032507 -0.0 -0.0 -0.24649684958839627 -0.0 -0.0 -0.0 -0.0 -0.25182912317860223 -0.0 -0.44880974165907767 -0.0 -0.0 -0.0 0.0 0.6074447161088047 0.43634942536923027 0.0 0.0 0.0 0.0 0.0 0.0 0.0 0.0 0.7104573927706873 0.0 0.0 0.0 0.0 0.0 1:0.031763908 2:0.044905912 3:0.07895627 4:0.112307124 5:1.0 6:0.19283248 7:0.0 8:0.73760617 9:0.6710212 10:0.8159117 11:0.8501653 12:0.0 13:0.66992044 14:0.57666475 15:0.7735983 16:0.5705259 17:1.0 18:0.68180704 19:0.8053339 20:0.60812354 21:0.0 
-0.5167874293586896 -0.0 -1.0 -0.5448582557893862 -1.0 -0.8520812907271545 -0.5175142878387435 -1.0 -1.0 -0.0 -0.0 -0.0 -0.5406388683616955 -1.0 -0.48206238007382707 -1.0 -0.0 -0.5442142921435438 -0.23579147444617382 -0.8882486352352398 -0.0 -0.1567480739848728 -0.0 -0.5390163164660362 -0.4498621191888436 0.5434314970014125 0.4328496378309403 0.601833581787753 0.0 0.0 0.5300295690830299 0.21638655767075543 0.0 0.20532242553939128 0.0 0.0 0.11423687968751663 0.8580644530358998 0.25477814777386554 0.5427178652657513 0.0 0.0 1:0.20154096 2:0.17776567 3:0.2716022 4:0.423608 5:1.0 6:0.43867898 7:0.0 8:0.96730864 9:0.44601044 10:0.66002935 11:0.9764835 12:0.0 13:0.4951791 14:0.41885817 15:1.0 16:0.32275167 17:0.29149875 18:0.11212098 19:0.016288262 20:0.046925183 21:0.0 
-0.0 -1.0 -1.0 -0.0 -1.0 -1.0 -0.0 -0.8041055355369839 -0.613593121195218 -0.29821544100987907 -1.0 -0.34727741704890497 -0.0 -1.0 -0.0 -1.0 -1.0 -0.0 -1.0 -1.0 -1.0 -0.0 -1.0 -0.0 -1.0 -0.5434314970014125 0.0 1.0 1.0 0.28613935126168294 0.0 0.8862476704437698 0.3007300635175435 0.344010599753369 0.3011497211581114 0.27734458955760494 1.0 0.5153899536039345 1.0 0.7798606043444027 1.0 0.24800390246340767 1:1.0 2:0.25751165 3:0.16490255 4:0.25994283 5:0.021591855 6:0.08330755 7:0.0 8:1.0 9:0.00673875 10:0.029206434 11:0.10598873 12:0.0 13:0.006591205 14:0.002162605 15:1.0 16:0.08879752 17:0.003495055 18:5.15025E-4 19:1.79813E-7 20:6.61374E-5 21:0.0 
-0.0 -1.0 -0.8422689528386397 -0.0 -1.0 -1.0 -0.0 -0.0 -0.0 -0.0 -1.0 -0.0 -0.0 -0.36540320260548265 -0.0 -0.27467330548986196 -1.0 -0.4981892627644951 -1.0 -1.0 -1.0 -0.0 -1.0 -1.0 -1.0 -0.0 0.0 1.0 0.0 0.0 0.0 0.0 0.0 0.0 0.0 0.0 0.2353275394305707 0.0 0.0 0.0 0.705690181829583 0.0 1:1.0 2:0.25349432 3:0.16011004 4:0.25571644 5:0.02065514 6:0.08106458 7:0.0 8:1.0 9:0.007071158 10:0.027385972 11:0.10544962 12:0.0 13:0.006661902 14:0.00207733 15:1.0 16:0.086081415 17:0.003007803 18:5.59994E-4 19:1.79424E-7 20:7.3799E-5 21:0.0 
-0.0 -1.0 -0.0 -0.0 -0.2054874075704626 -0.2829180149636008 -0.0 -0.0 -0.0 -0.0 -1.0 -0.0 -1.0 -0.0 -0.0 -0.0 -0.0 -1.0 -1.0 -1.0 -1.0 -0.0 -0.0 -1.0 -0.0 -0.0 0.0 0.81154338903644 0.0 0.0 0.0 0.0 0.0 0.0 0.0 0.0 0.0 0.0 0.0 0.0 0.0 0.0 1:1.0 2:0.24692231 3:0.15288068 4:0.24740592 5:0.018891692 6:0.07686786 7:0.0 8:1.0 9:0.007277104 10:0.025550919 11:0.10324873 12:0.0 13:0.006547181 14:0.001903559 15:1.0 16:0.082470976 17:0.003269637 18:3.85262E-4 19:1.21147E-7 20:4.20566E-5 21:0.0 
-1.0 -0.0 -0.0 -0.0 -0.0 -0.0 -1.0 -0.0 -0.0 -0.0 -0.0 -0.0 -0.0 -0.0 -1.0 -0.0 -0.0 -0.0 -0.0 -1.0 -0.0 -0.3174526849124248 -0.0 -1.0 -0.0 -0.0 1.0 1.0 0.0 0.0 1.0 0.0 0.0 0.0 0.0 0.0 0.0 0.0 0.0 0.0 0.0 0.0 1:1.0 2:0.1926079 3:0.09740844 4:0.19052067 5:0.00921296 6:0.049741834 7:0.0 8:1.0 9:0.01278619 10:0.009945758 11:0.09286889 12:0.0 13:0.006859959 14:9.05596E-4 15:1.0 16:0.05041409 17:0.002031768 18:2.22561E-4 19:3.34476E-8 20:2.08818E-5 21:0.0 
-1.0 -0.0 -0.0 -0.0 -0.0 -0.0 -1.0 -0.0 -0.0 -0.0 -0.0 -0.0 -0.0 -0.0 -1.0 -0.0 -0.0 -0.0 -0.0 -1.0 -0.0 -0.0 -0.0 -1.0 -0.0 -0.0 0.0 0.0 0.0 0.0 1.0 0.0 0.0 0.0 0.0 0.0 0.0 0.0 0.0 0.0 0.0 0.0 1:1.0 2:0.19522789 3:0.09976503 4:0.19299981 5:0.009551143 6:0.050849743 7:0.0 8:1.0 9:0.012379355 10:0.010480719 11:0.093223184 12:0.0 13:0.006819626 14:9.44113E-4 15:1.0 16:0.05193522 17:0.001928381 18:2.1923E-4 19:3.14432E-8 20:2.11313E-5 21:0.0 
-0.0 -0.0 -0.0 -1.0 -0.0 -0.0 -1.0 -0.0 -0.0 -0.0 -1.0 -0.0 -0.0 -0.0 -1.0 -0.0 -0.0 -0.0 -0.0 -1.0 -1.0 -0.0 -0.0 -1.0 -0.0 -0.0 0.0 1.0 0.0 0.0 1.0 0.0 0.0 0.0 0.0 0.0 0.0 0.0 0.0 0.0 0.0 0.0 1:1.0 2:0.19668178 3:0.10130547 4:0.19573237 5:0.009858864 6:0.051941782 7:0.0 8:1.0 9:0.012247754 10:0.010769354 11:0.09429834 12:0.0 13:0.006907214 14:9.76642E-4 15:1.0 16:0.0525892 17:0.001902956 18:5.79451E-5 19:4.41463E-6 20:0.0 21:4.41613E-6 
-0.0 -1.0 -0.0 -0.0 -0.0 -0.0 -1.0 -0.0 -0.0 -0.0 -1.0 -0.0 -0.0 -0.0 -0.23088205705064455 -0.0 -0.0 -0.501810737235505 -0.0 -1.0 -1.0 -0.0 -0.0 -1.0 -0.0 -0.0 0.25057072342828257 0.4198993070442706 0.0 0.0 0.0 0.0 0.0 0.0 0.0 0.0 0.0 0.0 0.0 0.22013939565559726 0.0 0.0 1:1.0 2:0.20162797 3:0.105897956 4:0.19928992 5:0.010460108 6:0.053676385 7:0.0 8:1.0 9:0.01151743 10:0.012106036 11:0.094296515 12:0.0 13:0.006759297 14:0.001050494 15:1.0 16:0.055603348 17:0.002202931 18:2.87822E-4 19:4.72836E-8 20:2.96802E-5 21:0.0 
-1.0 -1.0 -1.0 -0.9939334049886064 -1.0 -1.0 -1.0 -0.5815032029332965 -0.6429601071935682 -0.18481667112240743 -1.0 -0.21465560440245188 -1.0 -1.0 -1.0 -1.0 -1.0 -1.0 -1.0 -1.0 -1.0 -0.23900611614991943 -1.0 -1.0 -1.0 -0.4190310262811685 -1.0 1.0 0.8448611873059312 0.31728654091885294 1.0 0.6088077297459684 0.21175310743197998 0.28374383901174804 0.2120602453242559 0.1738002376646732 1.0 0.4417517745034756 0.9901433380846854 1.0 1.0 0.11064991734242156 1:1.0 2:0.14434241 3:0.058091376 4:0.17034186 5:0.005988023 6:0.03851088 7:0.0 8:1.0 9:0.031737816 10:0.002321268 11:0.10936045 12:2.81124E-4 13:0.01192123 14:4.7339E-4 15:1.0 16:0.01935713 17:0.003309465 18:1.48536E-4 19:8.30454E-6 20:0.0 21:8.32745E-6 
-0.2538420540213405 -0.24525918323814647 -0.30502961167282533 -0.0 -0.19410610154663394 -1.0 -0.25667708819184654 -0.0 -0.0 -0.0 -0.2775488522178648 -0.3334210360678625 -0.0 -0.267965120668344 -0.22608855868073824 -0.0 -0.2362520209845439 -0.25110292514477683 -0.25379119750023404 -1.0 -0.2649487344168184 -1.0 -0.0 -0.25470529737020364 -0.2489846658405395 -0.43535394846468356 -0.25057072342828257 0.26377653378202726 0.0 1.0 0.2639786801938727 0.0 0.0 0.0 0.0 0.0 1.0 0.0 0.0 0.0 0.0 0.0 1:4.25694E-5 2:5.57647E-5 3:3.63088E-4 4:3.68807E-4 5:1.0 6:0.003821446 7:1.8629E-5 8:0.88269144 9:0.882675 10:0.8838098 11:0.88381773 12:0.0 13:0.8825909 14:0.85941815 15:0.023433534 16:0.12742044 17:0.062784724 18:0.06231975 19:1.0 20:0.35534704 21:0.0 
-0.0 -0.0 -0.20504719528632895 -0.006066595011393627 -1.0 -0.17875683669664982 -0.0 -0.9854192327375763 -0.7729970562272293 -0.9561292113551726 -0.0 -1.0 -0.0 -1.0 -1.0 -0.5191148317947594 -0.0 -0.0 -0.0 -0.21350837537046577 -0.0 -0.7609938838500806 -0.204534192754763 -0.0 -0.0 -1.0 -0.0 1.0 0.11165680489363237 1.0 0.0 0.22514617893191965 0.8008063321646092 0.716256160988252 0.8128849038189904 0.9331498088808077 1.0 0.5582482254965244 0.009856661915314646 0.0 0.1323154298229826 0.8893500826575784 1:5.3354E-5 2:7.54268E-5 3:5.28956E-4 4:5.3969E-4 5:1.0 6:0.004982673 7:1.82564E-5 8:0.8855473 9:0.88551533 10:0.8871838 11:0.887223 12:0.0 13:0.88544154 14:0.86422545 15:0.050035104 16:0.23750979 17:0.099365205 18:0.09779538 19:1.0 20:0.48367608 21:0.0 
-0.0 -0.06798303120123661 -0.6276902503752783 -0.006718047626200686 -1.0 -0.9073095368043396 -0.006795934359684357 -1.0 -0.8073326741849127 -1.0 -0.16570552862060492 -1.0 -0.0 -1.0 -0.9832170075416582 -0.4996419359743729 -0.018232604449715847 -0.0 -0.02181002337371006 -1.0 -0.05000855736350751 -1.0 -0.032057494563368476 -0.23344600944323368 -3.0330024797148303E-4 -1.0 -0.23144269608071055 -1.0 0.08327816056509817 1.0 0.015052812535134345 0.19032514923032456 0.846089035603051 0.7416833835332797 0.8580888981855335 0.982862406199463 1.0 0.5399131648077998 1.221575446213527E-4 2.6236167933061375E-4 0.09791097460597276 0.880395404207424 1:2.21515E-4 2:2.50361E-4 3:8.0296E-4 4:8.25635E-4 5:1.0 6:0.005907216 7:1.90719E-4 8:0.89861375 9:0.8985682 10:0.9005372 11:0.9007186 12:0.0 13:0.8986844 14:0.8771344 15:0.06666779 16:0.33148843 17:0.13544072 18:0.111238845 19:1.0 20:0.5507721 21:0.0 
-1.0 -0.9320169687987634 -0.0 -0.0 -0.0 -0.0 -1.0 -0.0 -0.0 -0.0 -1.0 -0.0 -0.0 -0.0 -1.0 -0.0 -0.0 -0.0 -0.0 -1.0 -1.0 -0.0 -0.0 -1.0 -0.0 -0.0 -1.0 -0.1589786086407525 0.0 0.0 1.0 0.0 0.0 0.0 0.0 0.0 0.0 0.0 0.0 0.0 0.0 0.0 1:1.0 2:0.20287322 3:0.11070048 4:0.22977677 5:0.01445531 6:0.06491775 7:0.0 8:1.0 9:0.015766632 10:0.010973241 11:0.11664655 12:0.0 13:0.010021331 14:0.001465617 15:1.0 16:0.050045833 17:0.003136199 18:4.02316E-4 19:1.34647E-7 20:3.35638E-5 21:0.0 
-0.0 -1.0 -1.0 -0.12611496818728843 -1.0 -1.0 -0.0 -0.730284466951865 -0.7329851008454022 -0.2062153723184534 -1.0 -0.29221560340985675 -0.0 -1.0 -0.0 -1.0 -1.0 -0.0 -1.0 -1.0 -1.0 -0.0 -1.0 -1.0 -1.0 -0.5396912911604252 -1.0 -0.10479792514127476 0.9167218394349018 0.3414250222433629 0.0 0.8071894640209718 0.24276111874833853 0.3071027867093168 0.23253668652136206 0.0 1.0 0.4600868351922001 0.9998778424553787 0.0 1.0 0.0 1:1.0 2:0.22960001 3:0.15129204 4:0.30197194 5:0.02778009 6:0.096703276 7:0.0 8:1.0 9:0.018843904 10:0.024009285 11:0.15503126 12:2.25366E-4 13:0.015832225 14:0.002626085 15:1.0 16:0.057140704 17:0.01887314 18:0.001106906 19:0.0 20:1.3037E-4 21:5.43533E-7 
-0.0 -1.0 -0.0 -0.0 -0.10964050512948295 -0.09269046319566047 -1.0 -0.0 -0.0 -0.0 -1.0 -0.0 -0.0 -0.0 -0.016782992458341934 -0.0 -0.0 -1.0 -0.9781899766262899 -1.0 -1.0 -0.0 -0.0 -1.0 -0.0 -0.0 -1.0 -0.0 0.0 0.0 0.9849471874648656 0.0 0.0 0.0 0.0 0.0 0.0 0.0 0.0 0.0 0.0 0.0 1:1.0 2:0.21133944 3:0.122450605 4:0.24267173 5:0.016417777 6:0.07050229 7:0.0 8:1.0 9:0.015007639 10:0.015867952 11:0.12108515 12:0.0 13:0.010394726 14:0.001499815 15:1.0 16:0.054308593 17:0.008509928 18:7.46607E-4 19:4.30503E-7 20:3.2083E-5 21:0.0 
-1.0 -0.0 -0.0 -0.8671669841865108 -0.0 -0.0 -1.0 -0.0 -0.0 -0.0 -0.834294471379395 -0.0 -0.0 -0.0 -1.0 -0.0 -0.0 -0.0 -0.0 -1.0 -0.9499914426364925 -0.3981066728904986 -0.0 -1.0 -0.0 -0.0 -1.0 -1.0 0.0 0.0 1.0 0.0 0.0 0.0 0.0 0.0 0.0 0.0 0.0 0.0 0.0 0.0 1:1.0 2:0.18519539 3:0.092342384 4:0.211217 5:0.011145487 6:0.05609735 7:0.0 8:1.0 9:0.01897487 10:0.005877228 11:0.113797694 12:0.0 13:0.010256267 14:9.2779E-4 15:1.0 16:0.040360015 17:7.44847E-4 18:4.13591E-4 19:0.0 20:3.57102E-5 21:3.25061E-8 
-0.0 -1.0 -0.8430982430947318 -0.0 -1.0 -1.0 -0.9932040656403156 -0.0 -0.0 -0.0 -1.0 -0.0 -1.0 -0.28969358252818606 -1.0 -0.37116879331946795 -0.9817673955502841 -1.0 -1.0 -1.0 -1.0 -0.0 -0.9679425054366315 -1.0 -0.9996966997520285 -0.0 -1.0 -0.0 0.0 0.0 0.0 0.0 0.0 0.0 0.0 0.1920309732636986 0.3042312798959251 0.0 0.0 0.9997376383206694 0.6394425128275999 0.11960459579257599 1:1.0 2:0.2350751 3:0.14180417 4:0.25561243 5:0.019569686 6:0.078802094 7:0.0 8:1.0 9:0.010304793 10:0.01910019 11:0.11546821 12:0.0 13:0.008545254 14:0.001940967 15:1.0 16:0.07075546 17:8.32634E-4 18:2.69232E-4 19:0.0 20:3.36923E-5 21:3.9415E-8 
-0.9325533279972479 -1.0 -1.0 -1.0 -1.0 -1.0 -0.923924800283779 -1.0 -0.8016917651054374 -0.3052567463269611 -1.0 -0.3676462454669838 -1.0 -1.0 -1.0 -1.0 -1.0 -1.0 -1.0 -1.0 -1.0 -0.28940278496209015 -1.0 -1.0 -1.0 -0.8376064069947357 -1.0 -0.9565179921995636 -1.0 0.2795683194004979 0.9208971071913838 1.0 0.3081853681448781 0.367226867679608 0.30407562564265317 0.2787162950938236 1.0 0.6507220010191349 1.0 1.0 1.0 0.25064339766286026 1:0.98268265 2:0.5716956 3:0.7499549 4:0.96552646 5:0.6258474 6:0.63645554 7:0.0 8:1.0 9:0.053193733 10:0.20992543 11:0.35658655 12:0.0 13:0.06070627 14:0.066402614 15:1.0 16:0.24622735 17:3.64117E-4 18:0.001333016 19:1.38183E-7 20:3.99596E-4 21:0.0 
-0.15722491398134741 -0.137975579754402 -0.18481859642496742 -0.15860821037275422 -0.253090129510601 -1.0 -0.15795860072709156 -0.02177718603638265 -0.24098139194640894 -0.12455058595961029 -0.1539415455602107 -0.0 -0.15015103868033264 -0.009014316547760956 -0.12532484565383864 -0.20072923144858842 -0.14424937965643134 -0.15043733340235185 -0.15021024842440905 -1.0 -0.15069589771026945 -1.0 -0.13385802323393464 -0.15284530485043046 -0.14762915166776164 -0.20368557001095236 -0.14833624496679168 -1.0 -1.0 -0.11384044968026026 0.15968107874392576 0.13015518840716314 0.0 0.0 0.0 0.0 1.0 0.15809917966257003 0.13894863708437308 0.14997152491073132 0.12462145953628105 0.0 1:9.44779E-5 2:1.44428E-4 3:9.65136E-4 4:9.79804E-4 5:1.0 6:0.00750294 7:6.86085E-5 8:0.84240687 9:0.8423258 10:0.84549814 11:0.84526414 12:0.0 13:0.8416951 14:0.7767308 15:0.02620026 16:0.11345888 17:0.07794705 18:0.07827254 19:1.0 20:0.33634648 21:0.0 
-0.0 -0.0 -0.0 -0.0 -0.2760161999734508 -0.0 -0.0 -0.2727835536296192 -0.0556177316769052 -1.0 -0.0 -1.0 -0.0 -1.0 -0.0 -0.0 -0.0 -0.0 -0.0 -0.0 -0.0 -0.0 -0.0 -0.0 -0.0 -0.40584768037471886 -0.0 -0.0 -0.0 -0.0 0.0 0.0 0.8688053086368702 0.0 0.0 0.0 0.5644912595661663 0.0 0.0 0.0 0.0 0.0 1:1.9842E-4 2:2.24415E-4 3:7.48693E-4 4:7.58291E-4 5:1.0 6:0.005595976 7:1.4712E-4 8:0.9396449 9:0.93960065 10:0.941664 11:0.9416857 12:0.0 13:0.9394869 14:0.93930167 15:0.21645592 16:1.0 17:0.1131712 18:0.08967972 19:0.18809497 20:0.38339642 21:0.0 
-0.0 -0.0 -0.0 -0.0 -0.8009901862477187 -0.0 -0.0 -1.0 -1.0 -1.0 -0.0 -0.48956858372801126 -0.0 -1.0 -0.0 -0.0 -0.0 -0.0 -0.0 -0.12962057829363752 -0.0 -0.0 -0.0 -0.0 -0.0 -1.0 -0.0 -0.0 -0.0 -0.0 0.0 0.0 1.0 1.0 1.0 1.0 0.0494208577889088 0.0 0.0 0.0 0.0 0.7788313827143301 1:4.7931E-4 2:5.97021E-4 3:0.002249882 4:0.002325439 5:1.0 6:0.012410108 7:3.05194E-4 8:0.97672534 9:0.9763952 10:0.98280364 11:0.9836372 12:0.0 13:0.9768205 14:1.0 15:0.33390984 16:1.0 17:0.036734086 18:0.011267718 19:0.00737773 20:0.0 21:0.007188178 
-0.0 -0.0 -0.0 -0.0 -0.0 -0.0 -0.0 -0.0 -0.0 -0.21845501393845643 -0.0 -0.5104314162719887 -0.0 -1.0 -0.4508347468695323 -0.0 -0.0 -0.0 -0.0 -0.0 -0.0 -0.0 -0.0 -0.0 -0.0 -0.20235078361758851 -0.0 -0.06708663494685 -0.06399951449367404 -0.0 0.0 0.0 0.0 0.0 0.0 0.0 1.0 0.0 0.0 0.0 0.0 0.0 1:1.07456E-4 2:1.44971E-4 3:8.20996E-4 4:8.53968E-4 5:1.0 6:0.006639959 7:5.4408E-5 8:0.89139503 9:0.8913315 10:0.893684 11:0.8939706 12:0.0 13:0.89148736 14:0.87459207 15:0.121623844 16:0.51544976 17:0.15798713 18:0.16465487 19:1.0 20:0.7147385 21:0.0 
-0.12855408548895247 -0.15405180353504974 -0.5896699924060211 -0.13216945225653864 -1.0 -0.10958433929899916 -0.12877775799496036 -1.0 -1.0 -1.0 -0.15463971229531298 -1.0 -0.13591131409173518 -1.0 -0.7648465719449942 -0.7992707685514117 -0.14664376950746566 -0.13616328030178101 -0.1411989237071096 -0.0 -0.14518499117292527 -0.0 -0.15526758385947345 -0.13346048782046308 -0.1407168553113978 -1.0 -0.13780310629489123 -0.250199905972003 -0.277425507749689 -0.16572786972023767 0.13022287492722937 0.2368777306867546 1.0 1.0 1.0 1.0 0.2703847815215158 0.84190082033743 0.14948707530328892 0.1365105564446776 0.16109328124014952 0.0 1:8.86724E-4 2:0.001071008 3:0.003371946 4:0.003519066 5:1.0 6:0.016007837 7:4.61772E-4 8:0.9287175 9:0.92816806 10:0.936479 11:0.9379448 12:0.0 13:0.92891216 14:0.9423366 15:0.38187012 16:1.0 17:0.12903556 18:0.079529315 19:0.060542792 20:0.18926966 21:0.0 
-0.0 -0.0 -0.0 -0.0 -0.0 -0.0 -0.0 -0.9347988841336431 -0.0 -1.0 -0.0 -0.0 -0.0 -1.0 -0.0 -0.0 -0.0 -0.0 -0.0 -0.0 -0.0 -0.0 -0.0 -0.0 -0.0 -0.0 -0.0 -0.0 -0.0 -0.0 0.0 0.0 0.13119469136312978 0.0 0.0 0.0 0.021081317708945228 0.0 0.0 0.0 0.0 0.22116861728567 1:5.94982E-6 2:1.3511E-5 3:2.21207E-4 4:2.22542E-4 5:1.0 6:0.002870397 7:4.5907E-6 8:0.99674565 9:0.9967358 10:0.9976046 11:0.997594 12:0.0 13:0.99666494 14:0.9958507 15:0.15176378 16:1.0 17:0.002613558 18:6.62798E-4 19:1.84445E-4 20:0.0 21:1.95167E-4 
-0.0 -0.0 -0.0 -0.0 -0.0 -0.1288508072374373 -0.0 -0.0 -0.0 -0.0 -0.0 -0.0 -0.0 -0.0 -0.0 -0.0 -0.0 -0.0 -0.0 -0.137795312367601 -0.0 -1.0 -0.0 -0.0 -0.0 -0.0 -0.0 -1.0 -0.0 -0.0 0.0 0.0 0.0 0.0 0.0 0.0 1.0 0.0 0.0 0.0 0.0 0.0 1:8.50957E-5 2:1.12314E-4 3:6.38453E-4 4:6.58459E-4 5:1.0 6:0.005581343 7:4.53172E-5 8:0.87376237 9:0.87372214 10:0.87559164 11:0.8756991 12:0.0 13:0.87367076 14:0.8426481 15:0.03583904 16:0.16991863 17:0.084115125 18:0.08570976 19:1.0 20:0.4101735 21:0.0 
-1.0 -1.0 -0.6976327633325088 -0.0 -1.0 -1.0 -1.0 -0.0 -0.0 -0.0 -1.0 -0.0 -0.0 -0.3277158382380872 -1.0 -0.18827423750998906 -1.0 -1.0 -1.0 -1.0 -1.0 -0.0 -1.0 -1.0 -1.0 -0.0 -1.0 -0.0 -1.0 -0.0 -0.0 0.0 0.0 0.0 0.0 0.0 0.18337215368151824 0.0 0.0 0.0 0.32897516196894705 0.0 1:1.0 2:0.13458587 3:0.056175955 4:0.16772139 5:0.00545541 6:0.036417633 7:0.0 8:1.0 9:0.03264916 10:0.006810413 11:0.11209366 12:4.23856E-4 13:0.012457828 14:4.37636E-4 15:1.0 16:0.016315537 17:0.011421881 18:0.001074598 19:5.19551E-6 20:0.0 21:4.17641E-6 
-0.0 -1.0 -1.0 -1.0 -1.0 -1.0 -1.0 -0.7066012342848862 -0.6000732697500597 -0.2984932494478101 -1.0 -0.34702622225747426 -1.0 -1.0 -1.0 -1.0 -1.0 -1.0 -1.0 -1.0 -1.0 -0.32403738941830396 -1.0 -1.0 -1.0 -0.5300295690830299 -1.0 -1.0 -1.0 -0.9208971071913838 -0.2899039536711551 0.7409023934003679 0.30097522106258906 0.34341883148855074 0.3016780831786038 0.27814662730132667 1.0 0.5027346957123503 1.0 1.0 1.0 0.24892449888053098 1:1.0 2:0.13063225 3:0.05957886 4:0.18407482 5:0.006604274 6:0.040264104 7:0.0 8:1.0 9:0.039211225 10:0.013565489 11:0.13119416 12:0.001088293 13:0.016633285 14:8.52258E-4 15:1.0 16:0.012791298 17:0.022190604 18:0.00289627 19:6.56492E-6 20:3.18801E-5 21:0.0 
-1.0 -1.0 -0.0 -0.0 -0.18006412219561424 -0.2943100927856295 -1.0 -0.0 -0.0 -0.0 -1.0 -0.0 -0.0 -0.0 -1.0 -0.0 -0.0 -0.0 -1.0 -1.0 -1.0 -0.0 -0.0 -1.0 -0.0 -0.0 -1.0 -0.2639786801938728 -1.0 -0.0 -0.0 0.0 0.0 0.0 0.0 0.0 0.0 0.0 0.0 0.0 0.0 0.0 1:1.0 2:0.120534755 3:0.045258738 4:0.1563669 5:0.004198433 6:0.031872842 7:0.0 8:1.0 9:0.038629916 10:0.005955331 11:0.11238851 12:3.1729E-4 13:0.013145997 14:0.0 15:1.0 16:0.010595082 17:0.010189294 18:5.40594E-4 19:1.73544E-5 20:0.0 21:1.70615E-5 
-0.0 -0.9056896682304401 -1.0 -0.0 -0.0 -0.0 -0.0 -0.26980210477968036 -0.06641255179928256 -0.0 -0.7121600215286958 -0.0 -0.0 -0.0 -0.0 -1.0 -0.2041583899909179 -0.0 -0.0 -0.0 -0.0 -0.0 -0.5007490064577463 -0.0 -0.0 -0.21638655767075543 -0.0 -0.0 -0.0 -0.0 -0.0 -0.0 0.0 0.0 0.0 0.0 0.0 0.0 0.0 0.0 1.0 0.0 1:0.8040253 2:0.5225469 3:0.77319443 4:1.0 5:0.9165981 6:0.73752517 7:0.0 8:1.0 9:0.09329029 10:0.2639668 11:0.4691154 12:0.0 13:0.110858224 14:0.090058036 15:1.0 16:0.2640246 17:0.012536363 18:0.001379609 19:3.48752E-4 20:0.0 21:3.50909E-4 
-0.0 -0.0 -1.0 -0.0 -0.62096336951801 -0.17765398512363878 -0.0 -1.0 -1.0 -0.4173181862516102 -0.0 -0.531468321875612 -0.0 -1.0 -0.9082307152405525 -1.0 -0.0 -0.0 -0.10043786552905279 -0.16961279055956474 -0.08659204759859745 -0.36457676329489297 -0.0 -0.0 -0.0 -1.0 -0.0 -0.8339539086778879 -0.5340843289938235 -0.0 -0.3670329190939178 -0.0 0.4222892098043846 0.5304034860158616 0.4125347949238987 0.3699829858680903 1.0 1.0 0.0 0.0 0.0 0.32558437966259823 1:0.60944504 2:0.43906462 3:0.7026656 4:0.87250996 5:1.0 6:0.69876283 7:0.0 8:1.0 9:0.122177295 10:0.3357105 11:0.5219407 12:0.0 13:0.13784163 14:0.12107998 15:1.0 16:0.3058264 17:0.010572203 18:0.001286802 19:2.44169E-4 20:0.0 21:2.43812E-4 
