svm_type c_svc
kernel_type linear
nr_class 48
total_sv 227
rho -1.0176533908496008 -0.6685239699355559 -0.8953470181047665 -0.6344854121381134 -1.3925928127096352 -0.5818424216565494 -0.8307817489482132 -0.757348189766923 -0.7077800885024915 -1.4069664935988777 -1.3922689963691175 -1.0634840726852417 -0.44741848336628387 -0.6434628168143738 -0.33225619856894073 -0.6624720655688201 -1.4730489847087256 -0.48175967177655504 -1.2016703826413053 -0.6736860729904642 -0.9374643687124667 -1.6322872859461717 -1.0825408697128296 -1.0341706290822679 -1.5272417370894962 -1.004078984260559 -0.6715380734391095 -0.6099500904270907 -1.4179223512497592 -1.1593469381332397 -0.5135253667831421 -0.5893146329780519 -1.0596189498901367 -0.4869410131830409 -0.6558987587392908 -0.7996495962142944 -0.5534801615498541 -1.3616129159927368 -1.3202731609344482 -0.5471679393069084 -0.7916075150954729 -1.2360684300684266 -1.0223106145858765 -0.8788550957421801 -0.557834270426439 -0.6868549815320063 -1.0474215745925903 -0.6877387622532231 -0.8693871885036093 -0.6490733110093455 0.9998475554342793 -0.036348023493527726 0.8180708887463679 0.9944872725155149 0.8783305394818364 -1.394307588967212 -1.3258523181710957 1.0167696400582227 1.0700890519171287 -0.6500594877058018 -0.30718782573203146 -0.6719225098187729 0.5528335571289062 1.0187082978957664 -1.173997352999727 -0.6830590415721277 -0.9745498914383076 0.9127320051193237 1.0073533533971717 0.5220298767089844 0.28486764430999756 1.0201106210813882 -0.6827509672327834 -0.6154094102433246 0.6829801797866821 -0.2129383087158203 1.013906144579781 1.0103235611049868 1.0171813826087965 -0.4816251573713985 -0.6691851311150084 -0.5545408725738525 -0.5643998902304589 -0.8960192203521729 0.963819146156311 -0.5449278011545529 -0.8268126947451534 -0.5944668188984283 -1.0027862787246704 -0.909477826405003 -0.5618977283399904 -0.6938745681334695 -1.0290964841842651 1.2523152301778255 -0.461212862864103 0.4905055314142812 1.3659943140509412 1.6481447643649136 1.26952903001033 0.8250255282857228 0.33765123990923646 0.5293873739679599 0.675787497291736 0.9929309176395452 -0.9482884586834612 1.4794956474022578 -0.6520543313744578 0.7503026864369677 1.0906397819033737 0.42480582556771335 -1.4519855841147475 0.9725397826394152 0.6695962664298111 0.6806959876566022 0.9644695603010567 1.3732106685638428 0.6751754412892796 -1.4390523855768012 -0.7757793901235852 0.3484323628174697 0.6920963424102883 0.6828058983387537 1.318987177007642 0.6768742074276005 -0.8799905831613938 -0.2568374971110801 0.8988331367812815 -0.6124190076159997 0.6016284051439382 0.5852516509453273 -0.9562001992840116 2.2459468936703093 0.9153978251530305 0.674819882379175 0.5154602407223732 -1.0447242365522384 -1.128544569015503 0.6824974460786812 -0.8456378473981839 0.5079159981301146 1.306353219178888 1.7076342605290697 1.1262724870782912 1.0332635615948056 -0.5262856413979409 0.5133202178264789 0.8728199863068141 1.5639975936633583 -0.6924947245617832 0.5717058181762695 -1.3087474520799471 0.4362150442836819 1.5586668545771363 -0.7696796561075409 -0.7505216598510742 -0.9435565214921077 0.5777091206171895 0.8643127670097304 0.28379202019900773 0.6322122304695337 0.8517693858317312 -0.4091555658214946 -1.0196042261837834 0.6010452168941173 0.8364407406071759 0.8759901999027924 1.5912845024728972 0.8798824557516447 -0.14824019824856152 -0.6939390298278332 0.6147449630605634 -0.8740292230873266 0.5582202327004402 0.5594397680900415 -0.28179144859313965 -0.005734720750035421 0.5444961721231697 -0.5646037850910579 -1.426633358001709 -0.6423907279968262 -1.338754415512085 -0.6302143613155773 0.3273842544833667 1.487809373227363 1.4936265464129892 1.2835755944538694 1.1257524994186097 -0.16704311484945045 0.5437596955600509 0.6278223598687224 1.506153464261496 -0.16116929054260254 1.7044738789992049 0.3119690418243408 0.40219562620172633 1.5196410271694039 0.6691833734512329 -0.843380546049296 1.1102015229044968 0.4984342956867247 0.6304174728156697 0.8888159488418786 1.1676555523289804 0.6316153491454973 -0.18992406945434626 -0.9074182010717387 0.3670434137268946 0.6277585401832759 0.6270891706565297 1.7335152214210947 0.627508346406258 -0.7947923872513086 0.6784618546258848 0.6114859580993652 -0.7503236155173041 0.4014435366198625 0.42710205989874833 -0.5978957633049462 1.8344106674194336 0.7579585051011938 0.6339429638865587 0.5210395910193646 -0.7239420619055893 -1.2944639007770329 0.6316927948150592 -0.019537581277396923 -0.008661759214623074 -0.10373536225489066 -0.15840287590822014 -1.4041309909466704 -0.6966995993643414 1.3564726114273071 1.5316053376929146 -0.5386306890315256 0.1613292606209493 -0.5210643125104177 -1.002290964126587 -0.31414984343130864 -0.744460570138636 -0.6012761571247004 -0.7523890113710131 0.981623649597168 1.3743431568145752 -0.6817537486712633 -0.902345967358062 -0.3139333724975586 -0.5605772317924997 -0.5131571862952736 -0.9704143438856756 -1.0032135907378965 1.3143235445022583 -0.06783018197884555 1.324646970732319 -0.3963565061003407 -0.42441016781386737 -0.6389563367297938 -0.3060745700967607 -1.0306430393478179 -0.9965103404419633 -0.45028827109631203 -0.3596241741074415 -0.5387939419167123 -0.9987344112012465 -0.4933118031650866 -0.4730693660495513 -0.598299140435031 -0.9993736508578092 0.5297676838105222 0.4166087782174457 0.012158591529421076 -1.6589477083984954 -0.9168455879898323 0.5476842606079935 0.6501504424882927 -1.4780783196083418 -0.4265255890491146 -1.470669915970447 -0.043201878171425956 0.06506810670925882 -1.940792343733608 -1.363565076685516 -1.9078926874609867 0.03259697663704057 0.5272513831277738 -0.3141150530269172 -0.14831827476961665 0.5575524074090017 -1.4291706107335371 -1.4298221727268956 -0.2174952518799791 -0.3209979342915523 0.5233100644233454 0.5502855129898059 0.5218040543732623 -1.1558774933668714 -1.4793175873142752 -0.6180014094904069 -1.5250635432932913 -0.9449696382668802 0.10637157673231556 -1.2152134893719733 -2.2874600184556964 -1.307229273155063 -0.7202920335270846 -1.772814156434298 -1.2286367290752471 -1.4312133572853856 -0.766535073306635 0.6595125817848168 0.10687147285629613 -1.9157517903312378 -1.568934764027337 0.8841718487478781 0.5872458537174977 -1.8599592867641455 -0.5307122974539642 -2.3252585142103452 -0.10635508726366123 -0.22465309876968265 -1.954669725865078 -1.4240229984273285 -2.041419539281814 0.06306465448796343 0.8449317319719838 -1.2921069961694096 -0.524350258601618 0.8141556122109123 -1.996242050733048 -1.2302327148017302 -0.2321447303948113 -1.0292948095721939 0.8190013629320526 0.8626369432024394 0.7932579430475533 -0.8222001141548311 -1.8996920904053844 -1.068334460023638 -1.0503875388150357 -1.1125255689983717 0.3429750264282856 -1.3502336968160964 -1.5387129768989272 -1.3189678378795555 -1.000786189304156 -1.435283289115829 -1.1633723253412915 -1.475363133399566 -1.0028887788082896 -0.4983032947144954 -1.6947164538062705 -1.4246394151988362 0.6982495232764977 1.3145562847145063 -1.1552556507441005 -0.1554962230068207 -1.458388312040561 -1.635153368560168 -0.31145068239509377 -1.8145540465604144 -0.7712851866026768 -1.2815243397209741 0.48484251831407954 0.6902230967783364 -1.6194051527810247 -1.8196352077664917 -0.5353665947914124 -0.8549710915218967 -1.2288111601731 -1.5143245094942217 -1.1046106561439286 0.6894754637084074 1.2482057872314423 0.7008190626737705 -0.376392753580081 -0.857739436605617 -1.119453390904941 -1.1776735872235928 -1.2866922852006972 -1.3336667385286671 -0.7055371751136897 -1.0364181189167896 -1.6270240446006805 -1.0075891693024739 -1.4014668171212543 -0.6819291970812265 -1.4112127262971321 -1.032474547472372 -2.4896229707934756 -1.8060735408241952 0.7428053877850557 0.38140468522563 -1.3386656233538086 4.4692101268641873E-4 -1.9023013218447866 0.07737553853638551 -1.1624770473578259 -1.425486693181651 -2.0220303900704986 -1.2585953388537603 0.19758658084548752 0.7206891179349338 -0.3566452859118463 0.2760629274703733 0.6964082431455462 -2.42822305841341 -1.0094130801171246 0.230870158182593 -1.089348327831658 0.6936305716116027 0.6996947654656499 0.7295946649673423 -2.5450998557628393 -1.5524198863860832 -1.0121085037645385 -0.8790927861145892 -1.5362153555871372 0.2911698818206791 -1.7162878255871432 -0.6922687429844341 -1.291671033407907 -0.9479233587511082 -1.2351476409163165 -1.5862342354903145 -1.274879718708311 -0.9864063235994842 1.3054900169372559 1.4851620042006615 1.5045404776118556 -0.2567862703735031 1.1058324794210967 -0.22397127069029787 1.7686208398432288 1.7175040521004952 0.12655325498311853 -0.3774437797664374 0.23321248465291644 1.7669254932998824 1.5108180202745898 2.667928328005112 2.944310695338606 1.350943408520322 -0.2794238051294031 -0.22878862560547364 2.163580256277129 1.8591982914654135 1.6447068775316698 2.0520705877061087 1.5645911262982601 -0.11894977608523115 -0.04129618902419985 1.5584634054978876 0.21613811549003925 1.1228697299957275 1.4288088083267212 -0.17730524386572935 0.8192110751548238 1.1969007301807153 0.4250326156616208 0.4800079507242172 -0.22186208715477473 -0.3666329300525748 0.31414532661437994 1.4689891858528312 1.4368903911595372 -0.9794882102127374 0.4399549192621462 -0.8290069103240967 0.8320886779815345 1.6737387570460214 -0.6315824160761088 -1.1475259106078541 -0.6781934499740601 0.9931397158566365 1.4114451064729212 1.0803869862050421 1.0784157817191589 1.3310549957023612 -1.0774808514062033 -0.8540313359098406 0.9697050105174627 0.7230993772819927 1.4906752280204763 1.8012918538912128 1.4381948253345753 -0.5942937472944515 -0.5466367556793168 0.3163303673065615 -0.6051504611968994 -0.2812156677246094 0.9860189964980516 -0.7328885343928975 -0.1994840927219771 -0.13385690150517304 -0.5996031761169436 -0.3681962490081787 -0.698269275322327 -1.087763303782663 -0.6776967048645022 -0.2204590316757672 -0.6361186130698149 -0.2956525944914982 -0.6552225912862697 -1.4663909673690796 -0.47126017492259226 -1.2564701066355157 -0.6691117594727283 -1.019810941237325 0.09606468677520752 -0.02162301540374756 -1.12399868624364 -1.607583344220588 -1.0072388477762706 -0.6624730806221004 -0.6018190568370091 -1.3360702369902109 -1.1244301795959473 0.9283771514892578 -0.5166358070163622 -1.0086283180160165 -0.48340764632396627 -0.6491095639985849 -0.7654174566268921 -0.5416257536166704 -1.384779930114746 -1.2576905488967896 -0.539838382939314 -0.8486412533835775 -1.2629835619806893 -1.0051428079605103 -0.9508190981081955 -0.5498299094483197 -0.6800108864898544 -1.012797474861145 -1.3720833345516645 -0.2555033082292832 -1.4687375297272716 -1.5110069727955917 -0.47198278369634106 -1.7347087937894212 -1.0684609742056708 -1.5296886875066238 -0.6123865731069603 0.19286432287642305 -1.7517819864139874 -1.7125931160248788 -1.056856751441956 -1.0601791715253377 -1.3004926363703877 -1.7574616057123773 -1.1942005571083403 0.0868337746636244 -0.8367020054844863 -1.107640266418457 -0.46035680580152916 -1.234019195163314 -1.346592927649023 -1.255952461753704 -1.4080209528680392 -1.4952544179319451 -0.8522468371541099 -1.2425984821645775 -1.7868331879330783 -1.0323182344436646 -1.4176444745607848 -1.0768293260313517 -1.458546385893383 -1.0506749153137207 1.7374387082255314 0.26221752166748047 0.4915524014921788 1.3898757579556311 1.125659704208374 -0.7320330142974854 0.6130247534199034 0.5646302323592747 0.6349334992127236 0.9543714765724733 1.0773727549580625 0.6386433750604767 0.2527717293350682 -0.940006146455133 0.41481863328663526 0.6254504259045958 0.6383833429542104 1.4533460542697867 0.6347627744336389 -0.6694660106413671 0.5031700134277344 0.8157130294175003 0.1955578327178955 0.5417286804798686 0.5812214474234368 -0.1266641616821289 1.8914930464085815 0.6561035600184423 0.640093237179343 0.6276953220367432 -0.7628629207611084 -1.2837257979067533 0.6351595350657748 -1.828672341821923 -0.20810810494148443 0.05410171705144962 -1.4597655769985929 -1.2609401008911223 -1.9656569556936478 -0.05420902472164819 0.2809206671455257 -0.48901317181464476 -0.43556478850893865 0.29325981914694127 -1.5578228339201547 -1.2294516050467 -0.33785030450225034 0.21343928932008804 0.2765154007398229 0.22588507956647585 0.29187316233474286 -1.039779559466074 -1.7710846252654548 -0.05014953853384513 -1.2154662239222336 -0.07342163245650399 -0.11766417306005951 -1.5212769057187678 -1.243575146688315 -0.4306083749883179 -0.5736960073611556 -1.7636197800549696 -1.2431971609857426 -1.4026326680219054 -0.6304473404867945 0.5016409121139097 1.4771219955418247 0.42896199226379395 -0.48234741288539285 1.0782567577032283 0.5548010960760484 0.6553628230222737 1.4685766735654708 1.3684084382128687 0.6581657689601648 -0.6334197521209717 -0.6236610412597656 0.4150613682352842 0.6487964961241102 0.6526826872661251 1.6276843263100116 0.654270845126016 -0.06480943378888959 0.07195019721984863 0.8014611394845528 -0.11461400985717773 0.5362008366003693 0.575344521014586 0.0821714549725865 2.351389123990527 0.8892298336435415 0.6599635052827444 0.5770094656580403 -0.12328267097473145 -1.0625344308401723 0.6559383663428431 -0.02211232186842345 -0.9333378586061503 -0.5652237235052978 -0.9645670273106738 1.004404902458191 1.4376251352212406 -0.7895343795914573 0.4603755474090576 1.2665262560337744 -0.5179074436032716 -0.45343096833729746 0.9892860990939948 -0.9169420003890991 1.569087266921997 1.506833290990692 1.3394496744715532 -0.3228580733291883 -0.46273937789534814 -0.42584881838011923 -0.283871136663262 -1.0911148325085198 0.7151294946670532 -0.3823628094591848 -0.5608644962922978 -0.6381333095133257 -0.8730289936065674 -0.697140671181092 -0.4135154014283006 -0.5554124372137504 -0.9207037687301636 -1.8594168864987015 -1.0829880579061337 -1.6114964167791483 0.35183978970103763 0.4468523511651852 -0.5970245754767128 -0.3770692977452846 0.4764962397081807 -1.3378415373553258 -1.2846828364799248 -0.141988971758728 -1.1909424240257702 0.4441645642150453 0.7449817049833323 0.46197566645354166 -0.42599182524873447 -1.331072891349569 -1.3446285067753534 -1.2417118324821792 -1.4778802594787785 0.3503168386629902 -1.4094329986348926 -1.2915106521277078 -1.3697797545289425 -1.0109615635390732 -1.4889843384759143 -1.0776930775438558 -1.4686186127236767 -1.0436695050628768 -1.3892698286417302 -0.4014869250754244 1.1914863154430766 1.2549058362021563 1.0378782191684865 1.0247122567915268 1.1576256208703475 -1.2528247833251953 -0.9632477760314941 0.5226142013857674 1.365741284141843 1.3266519647992594 2.0894216402839567 1.2949765176254033 -0.5611309130376408 -0.5022140227418526 0.9833903343304738 -0.7188849250806465 0.9627687624921452 0.8427899593887431 -0.7212357667748797 1.2432969417675592 1.6044026653768144 0.9324727912475654 -1.1125321220007027 -0.561877783550119 -1.360482931137085 0.8308341234241092 0.9078769971221833 0.6169214663701668 0.66865805668367 0.7116658576012971 1.5006387233734129 0.6727949812731927 0.4256148399997801 -0.8352187311910155 0.5876335101471821 0.665051826980099 0.6739599540542917 1.3651845134258436 0.6680660482371589 0.8659425136934575 0.9341123104095459 0.8023566277865863 0.6350979804992676 0.5988552030539066 0.6399452663369211 -0.13664935543103077 1.8125193799340076 0.5943448948731567 0.6716485489230125 1.0997815132141113 -1.0327573215284032 -1.050981779847245 0.6691164043285861 1.2367425499746745 1.051744081638284 0.4377939972316478 1.0431038639884473 1.0012381199560914 -0.7494903098210252 -1.0549163274586322 0.42956664624625035 1.1699016139683245 1.0687583523144293 2.1750960577370266 1.0359335139519426 -0.6027813896587955 -0.5065457856265537 0.772374006177596 -0.8997297928637467 0.9559909924981038 0.800134937455377 -0.3491235193450101 1.4119191153878075 1.3379371482378015 0.9910324757919282 -0.8125311643093176 -0.6296689510345459 -1.29394867408429 1.058714525695752 -0.1363760232925415 -0.9275164757088348 -0.977964362034695 -0.7076704502105713 -0.5966568680523392 -0.5394287623840706 -1.297928402550047 -1.0022878116739538 1.4950066309719403 -0.3003794682818762 -0.7474814653396606 -0.43113357884482467 -0.5343581030942597 -0.6420284659201225 -0.39280719896786864 -1.0036195994489772 -0.978985267863223 -0.4865513262815876 -0.8243709780201223 -0.8144252473828874 -0.9848097562789917 -0.9672121509248355 -0.49806960011975926 -0.6182338477356705 -1.0003191877622508 -1.082516528263022 -1.495957840188557 -1.0008973994877728 -0.662597186564629 -0.6003285244729384 -1.3464330379770622 -1.1100674867630005 0.9531680345535278 -0.5139092817871468 -0.999794991286713 -0.46912077033219574 -0.651099360121741 -0.7538703680038452 -0.5420322660679484 -1.3590887784957886 -1.253068208694458 -0.5297807539039358 -0.8762474135244499 -1.212628433113498 -1.0003471093094833 -0.9784638518297893 -0.5482939720677491 -0.679259186499776 -1.0023610591888428 0.6850809713838526 1.020670935721319 -1.1074475259956644 -0.9019291400909429 0.42427123572093234 -0.823522686958313 1.208497804876675 1.863797546946346 1.1253949235592264 0.021808047242602546 -0.8179151260534924 -0.9116186722908757 -0.8209978922619515 -1.121393762546058 1.0005357924596125 0.06782865524291937 -0.041883668556363475 -0.771926303291032 -0.8350400924682617 -0.9847794422978877 -0.28698878261644906 -1.234290361404419 -0.8853527307510376 1.3269116503624758 -1.1916314812693019 -1.105253969588695 0.6309089899087024 -0.710861086845398 1.6877480745315554 1.8823731259998755 1.415124469154386 -0.7594014735408535 -1.4145891294535187 -0.7533838228923668 -0.9496877193450928 -1.0556825514065296 0.6544380187988281 -0.9470821355865414 -0.7313332531457826 -0.8070735427294232 -0.791343331336975 -1.419079917665819 -0.8532748793239779 -1.4182555450669163 -0.8461722135543823 -0.6730829439006594 -0.6081663714193811 -1.2009139557278308 -1.135475516319275 0.995261872475977 0.5041381242194489 0.9522879123687744 -0.4900574953463262 -0.6526264974616576 -0.778153657913208 -0.5464411946418049 -1.3184080123901367 -0.9490787982940674 -0.5490349917256477 -0.8377950825043196 -1.2028249063358156 -1.0014397349947273 -0.9345796883852443 -0.5597002272080264 -0.6866410547918234 -1.02152681350708 -0.8368571167596456 0.5101657966635332 0.6560156336987195 0.6764341723111862 1.5927357238763014 0.6690964954915587 0.7513056565413393 0.21919631172133103 0.8884179492095057 0.1366424560546875 0.5779442265002889 0.6187778063152282 -0.25527127486559653 2.0387759315999228 0.67151528426336 0.6680204705357433 0.6073973557597628 -0.7111458464702795 -1.1497261642770094 0.6630922299794217 0.8007968664169312 0.5898976444308215 0.6084289016153297 1.4225312197312758 0.6035775351128048 0.6347801198657301 0.9239511803393928 0.7249151640512408 0.8611154556274414 0.5170708150564396 0.5540798644972283 0.7106143859626279 1.5297618413419554 1.0217564746027348 0.6060102712280089 0.971200704574585 0.7743115425109863 -0.4102444648742676 0.6004241662514394 -1.0075882696000225 1.532263982859187 1.2981223646062892 1.2388586548470388 -0.1970485465438901 -0.48164887102701903 -0.9765608250601701 -0.7952514645354224 -0.9990316853837781 -0.2605042530871563 -0.2691159063490031 0.026373450437802454 -0.6460777373442138 -0.9319921731948853 -0.8766595707562135 -0.3317909043541437 -1.1091041564941408 -0.9753310680389404 1.0870789289474487 1.0019592761380907 1.1051714420318604 -0.45655562779428743 -0.6480204817409231 -0.26005399227142334 -0.5319034690516375 -0.6277090311050415 1.0197884160470814 -0.5198737751716687 -0.9621827801795583 -0.12513983607038964 -0.8950676918029785 -1.0788910292292642 -0.538295003424361 -0.6718346972211688 -0.9393949508666992 -0.4341118237267547 -0.9957366144591103 -0.4903391398937413 -0.6480134269948008 -0.7325402498245239 -0.5378547023240059 -1.4107319116592407 -1.2139365673065186 -0.5505981824910555 -0.8862948894740299 -1.2810932922647313 -0.9990818209424318 -0.9928045639068023 -0.5593972436747786 -0.6864113080722468 -1.0026274074200998 0.5026699107258414 -0.7781288682502381 -1.7516869252361955 -1.2162690817074318 -1.4684455050476193 -1.3018006682395935 -1.244682588652287 -1.2316430464322596 -1.7701827289289316 -1.7722479822197166 -1.0000647386787838 -1.970366714648528 -1.357908854484218 -1.5386098354721875 -1.0001357802508881 -0.4882110002526182 -0.6486775758544183 -0.7450559139251709 -0.5402273718522372 -1.3840173482894897 -1.2052568197250366 -0.5463139953498065 -0.8613865312251882 -1.2368695075491263 -1.0038187503814697 -0.9648543482289095 -0.5555569825655285 -0.6819823208913625 -1.006651759147644 0.28980734117727164 0.49911632311573995 0.5359507122055938 0.42308479002644284 0.4449890076201193 -0.9834407058834947 1.2789644536238647 0.25858841342540956 0.4734121926654331 0.886602255293416 -0.9808963307540588 -1.0061044692993162 0.46717663800199744 0.7837447868693372 -0.5986464917565161 0.4720040263088309 0.5039474249534597 -0.431518665021593 2.1810766870058584 0.598326657063748 0.654815920630612 0.6375470778591917 -0.8231472969055176 -1.135174383064445 0.6522112612335046 -0.5100865364074707 -0.4927823543548584 0.6138532649033129 -0.6109135066142409 -0.6089705607247559 0.13744289348414424 -1.0550441240602209 -0.691303709388469 -0.620979612583352 -0.818686955259585 -1.0781405759695837 0.3750678308950726 0.40133047385538817 -0.4665857802949339 1.213695464260322 1.0107555174783913 0.5492387131207452 0.7989044189453125 -0.7079360485076904 -1.271359920501709 0.542659403362253 1.0789895057678223 -0.4710999586925667 -0.5655870447828615 0.6261339659899743 -0.7641957998275757 -0.6983284290495019 -0.4806923623771451 -0.6023494962812735 -0.8344979286193848 -0.5028673272203785 -0.4704367135716454 -0.8174111101566752 -1.0011320942878412 -0.5801409309290115 -0.5101917087944253 -0.6383851478921914 -1.0049628104754815 1.443194706114967 0.39607405204309365 0.5354109784986097 0.9376173496124908 -0.3259434700012207 -0.9356377124786377 0.529420243545553 0.914013356307959 0.831604622304558 -1.14489967433236 -1.193345550414238 -1.863698003478698 0.8824271341794404 -0.29724643937984147 -1.6849865534042516 -0.24123870304746411 -1.270763015832192 -0.3727201265645427 -0.925744259254656 -0.553834803851972 -0.6838801611558762 -0.03339695930480957 -0.9574058749387335 -1.3814451694488525 0.9845298880925751 -1.009489134388561 0.5482910808906281 0.679533550435835
label 47 9 16 26 6 46 30 8 12 20 23 1 45 22 4 19 32 40 7 14 15 34 10 38 37 43 42 33 21 25 13 11 39 41 2 3 27 31 48 18 28 44 17 29 36 35 5 24
nr_sv 12 2 7 4 2 5 3 8 5 10 4 3 8 8 4 4 5 4 4 3 5 4 12 8 7 6 4 7 1 7 2 12 5 5 8 4 2 1 2 4 2 4 3 1 2 2 1 1
SV
0.0 0.0 0.0 0.0 0.0 0.0 0.0 0.0 0.0 0.0 0.0 1.0 1.0 0.0 0.0 0.0 0.0 0.0 0.0 0.0 0.0 1.0 1.0 0.0 0.0 0.0 0.0 0.0 0.0 0.0 1.0 0.0 0.0 0.0 0.0 0.0 0.0 0.0 0.0 0.0 0.0 0.0 0.0 0.0 0.0 0.0 0.0 1:1.0 2:0.1743689 3:0.08232521 4:0.18381836 5:0.00800872 6:0.04570558 7:0.0 8:1.0 9:0.018464979 10:0.005925703 11:0.09898922 12:0.0 13:0.00850491 14:6.96405E-4 15:1.0 16:0.037574098 17:0.002776334 18:1.35774E-4 19:3.32963E-6 20:0.0 21:3.31719E-6 
0.8687933350581102 0.0 0.0 0.0 1.0 0.3229114762515449 0.9904181543739213 1.0 0.5694388157030069 0.0 0.0 1.0 0.0 0.0 0.0 0.0 1.0 1.0 0.0 0.0 0.0 1.0 1.0 0.4496853485887411 1.0 1.0 0.0 0.0 1.0 0.0 1.0 1.0 1.0 0.0 0.0 0.0 0.0 0.0 1.0 0.0 0.0 0.14865012007759393 0.0 0.0 0.0 0.0 0.0 1:1.0 2:0.19494149 3:0.09942714 4:0.20749697 5:0.011099803 6:0.05590977 7:0.0 8:1.0 9:0.016366618 10:0.007476702 11:0.10563128 12:0.0 13:0.008928123 14:0.00101415 15:1.0 16:0.04697253 17:6.30371E-6 18:7.21987E-6 19:1.35646E-11 20:4.0653E-7 21:0.0 
0.0 0.0 0.0 0.0 1.0 0.0 0.0 1.0 0.0 0.0 0.0 1.0 0.0 0.0 0.0 0.0 0.7609724871735382 0.0 0.0 0.0 0.0 1.0 1.0 0.0 0.5751977114705238 0.0 0.0 0.0 1.0 0.0 1.0 1.0 1.0 0.0 0.0 0.0 0.0 0.0 1.0 0.0 0.0 0.0 0.0 0.0 0.0 0.0 0.0 1:1.0 2:0.19518347 3:0.10012134 4:0.20314479 5:0.01064028 6:0.054377094 7:0.0 8:1.0 9:0.014878033 10:0.008887641 11:0.10160294 12:0.0 13:0.008193417 14:0.001008393 15:1.0 16:0.04874981 17:0.00124863 18:1.00736E-4 19:1.14093E-6 20:0.0 21:1.13312E-6 
0.0 0.0 0.0 0.0 0.0 0.0 0.0 0.16992243322370743 0.0 0.0 0.0 0.0 1.0 0.0 0.0 0.0 0.0 0.0 0.0 0.0 0.0 1.0 0.0 0.0 0.0 0.0 0.0 0.0 0.0 0.0 1.0 0.0 0.0 0.0 0.0 0.0 0.0 0.0 0.0 0.0 0.0 0.0 0.0 0.0 0.0 0.0 0.0 1:1.0 2:0.16507953 3:0.07509881 4:0.18333484 5:0.00771353 6:0.04459935 7:0.0 8:1.0 9:0.02275163 10:0.004406275 11:0.105013855 12:5.62561E-5 13:0.009943165 14:6.49881E-4 15:1.0 16:0.030898146 17:0.003368458 18:2.0322E-4 19:1.3708E-5 20:0.0 21:1.37323E-5 
0.13120666494188984 0.0 0.0 0.0 0.0 0.0 0.0 0.0 0.0 0.0 0.0 0.0 1.0 0.0 0.0 0.0 0.0 0.0 0.0 0.0 0.0 0.6914806698752406 0.0 0.0 0.0 1.0 0.0 0.0 0.0 0.0 1.0 0.0 0.0 0.28003670648887763 0.0 0.0 0.0 0.0 0.0 0.1964631778553882 0.0 0.0 0.0 0.0 0.0 0.0 0.0 1:1.0 2:0.13794152 3:0.05645897 4:0.15851387 5:0.00507019 6:0.03436568 7:0.0 8:1.0 9:0.02890671 10:0.005200529 11:0.10139487 12:3.86177E-4 13:0.010515794 14:6.11463E-4 15:1.0 16:0.019180965 17:0.008093152 18:5.59898E-4 19:3.09227E-7 20:1.26133E-5 21:0.0 
1.0 0.4162754332526549 1.0 0.496600357251962 1.0 1.0 1.0 1.0 1.0 1.0 1.0 1.0 0.0 0.3114560708235857 1.0 0.3515592795985923 1.0 1.0 1.0 0.2888328021712891 0.7529371021529405 1.0 1.0 1.0 1.0 1.0 0.32402685038521295 0.2993805185264983 1.0 1.0 1.0 1.0 1.0 0.0 0.43629712309245494 1.0 0.47054293884999665 1.0 1.0 0.088547968689781 0.7688357170924547 1.0 1.0 0.7576044435859128 0.2623238229966819 0.2806217496241614 1.0 1:1.0 2:0.21521305 3:0.11980609 4:0.22442998 5:0.014061047 6:0.064284846 7:0.0 8:1.0 9:0.012375581 10:0.013592929 11:0.10578366 12:0.0 13:0.00814847 14:0.001392265 15:1.0 16:0.059746925 17:0.001591856 18:1.81777E-4 19:2.8446E-8 20:1.19125E-5 21:0.0 
0.0 0.0 0.0 0.0 0.0 0.0 0.0 0.0 0.0 0.0 0.0 0.0 1.0 0.0 0.0 0.0 0.0 0.0 0.0 0.0 0.0 0.0 0.0 0.0 0.0 0.0 0.0 0.0 0.0 0.0 1.0 0.0 0.0 0.0 0.0 0.0 0.0 0.0 0.0 0.0 0.0 0.0 0.0 0.0 0.0 0.0 0.0 1:1.0 2:0.13957031 3:0.056363523 4:0.15608056 5:0.00489849 6:0.033848003 7:0.0 8:1.0 9:0.027361982 10:0.004073487 11:0.0979794 12:2.807E-4 13:0.009795953 14:5.13039E-4 15:1.0 16:0.02046431 17:0.005954828 18:3.96273E-4 19:1.54943E-7 20:7.00121E-6 21:0.0 
0.0 0.0 0.27839419906944585 0.0 1.0 1.0 1.0 1.0 1.0 0.3134648964266766 0.9817971615107166 1.0 0.0 0.0 0.3545754911378365 0.0 1.0 0.25963914017391665 0.09085513877235374 0.0 0.0 1.0 1.0 1.0 1.0 1.0 0.0 0.0 1.0 1.0 1.0 1.0 1.0 0.0 0.0 1.0 0.0 1.0 1.0 0.0 0.0 1.0 0.0 0.0 0.0 0.0 0.0 1:1.0 2:0.21124381 3:0.115223154 4:0.21641776 5:0.012799908 6:0.06086003 7:0.0 8:1.0 9:0.012088859 10:0.012762968 11:0.10199052 12:0.0 13:0.007682491 14:0.001261958 15:1.0 16:0.05857705 17:0.001119812 18:9.1964E-5 19:1.03201E-6 20:0.0 21:1.02523E-6 
0.0 0.0 0.0 0.0 0.0 0.0 0.0 0.0 0.0 0.0 0.0 1.0 1.0 0.0 0.0 0.0 0.0 0.0 0.0 0.0 0.0 1.0 1.0 0.0 0.0 0.0 0.0 0.0 0.0 0.0 1.0 0.0 0.0 0.0 0.0 0.0 0.0 0.0 0.0 0.0 0.0 0.0 0.0 0.0 0.0 0.0 0.0 1:1.0 2:0.17466392 3:0.082434386 4:0.18323363 5:0.007962286 6:0.045544416 7:0.0 8:1.0 9:0.018204376 10:0.005945177 11:0.09831254 12:0.0 13:0.008383127 14:6.94981E-4 15:1.0 16:0.03792854 17:0.002608853 18:1.49866E-4 19:3.34283E-7 20:0.0 21:3.13953E-7 
0.0 0.0 0.0 0.0 0.0 0.0 0.0 0.0 0.0 0.0 0.0 0.0 1.0 0.0 0.0 0.0 0.0 0.0 0.0 0.0 0.0 1.0 0.0 0.0 0.0 0.0 0.0 0.0 0.0 0.0 1.0 0.0 0.0 0.0 0.0 0.0 0.0 0.0 0.0 0.0 0.0 0.0 0.0 0.0 0.0 0.0 0.0 1:1.0 2:0.16143471 3:0.071581796 4:0.17495637 5:0.006853748 6:0.04160671 7:0.0 8:1.0 9:0.022096556 10:0.003959397 11:0.100060016 12:4.11775E-5 13:0.009204248 14:5.5673E-4 15:1.0 16:0.030281937 17:0.002812169 18:1.42653E-4 19:6.39798E-6 20:0.0 21:6.39661E-6 
0.0 0.0 0.0 0.0 0.0 0.0 0.0 0.0 0.0 0.0 0.0 1.0 1.0 0.0 0.0 0.0 0.0 0.0 0.0 0.0 0.0 1.0 1.0 0.0 0.0 0.0 0.0 0.0 0.0 0.0 1.0 0.0 0.0 0.0 0.0 0.0 0.0 0.0 0.0 0.0 0.0 0.0 0.0 0.0 0.0 0.0 0.0 1:1.0 2:0.17725046 3:0.08450128 4:0.18104509 5:0.007856878 6:0.045063093 7:0.0 8:1.0 9:0.016335428 10:0.006919034 11:0.0946677 12:0.0 13:0.007661437 14:7.20414E-4 15:1.0 16:0.040692333 17:0.002703996 18:3.40745E-4 19:8.69812E-8 20:1.27206E-5 21:0.0 
0.0 0.0 0.0 0.0 0.8617800130125357 0.0 0.0 0.0 0.0 0.0 0.0 1.0 0.22592564337033635 0.0 0.0 0.0 0.0 0.0 0.0 0.0 0.0 1.0 1.0 0.0 0.0 0.0 0.0 0.0 0.1054261695544106 0.0 1.0 0.2688683174672962 1.0 0.0 0.0 0.0 0.0 0.0 0.0 0.0 0.0 0.0 0.0 0.0 0.0 0.0 0.0 1:1.0 2:0.17896785 3:0.08667124 4:0.18507914 5:0.008284422 6:0.046532966 7:0.0 8:1.0 9:0.016453778 10:0.007552782 11:0.09681562 12:0.0 13:0.007925843 14:7.59562E-4 15:1.0 16:0.041129243 17:0.003547602 18:3.31579E-4 19:9.42279E-8 20:4.31814E-6 21:0.0 
-1.0 0.0 0.29368697999152915 0.0 1.0 1.0 1.0 1.0 1.0 0.34240378594227244 0.9868720750192819 1.0 1.0 0.0 0.3615901072949379 0.0 1.0 1.0 0.11511843881958936 0.0 0.0 1.0 1.0 1.0 1.0 1.0 0.0 0.0 1.0 1.0 1.0 1.0 1.0 0.016761232225379136 0.0 1.0 0.0 1.0 1.0 0.0 0.0 1.0 0.0 0.0 0.0 0.0 0.0 1:1.0 2:0.16403736 3:0.09137723 4:0.22854568 5:0.01289908 6:0.059134103 7:0.0 8:1.0 9:0.033601906 10:0.01937364 11:0.14625643 12:0.001294524 13:0.018517628 14:0.002118019 15:1.0 16:0.023881106 17:0.030399352 18:0.001218252 19:5.71296E-7 20:8.71331E-5 21:0.0 
-1.0 0.4313982268010209 1.0 0.5149068351530599 1.0 1.0 1.0 1.0 1.0 1.0 1.0 1.0 1.0 0.3172741114293502 1.0 0.3598385529762049 1.0 1.0 1.0 0.29414568602212404 0.7946812316232537 1.0 1.0 1.0 1.0 1.0 0.33217697090957904 0.30461580949050504 1.0 1.0 1.0 1.0 1.0 0.26756717743646696 0.4502546424333752 1.0 0.48690205461068026 1.0 1.0 0.2906294334125147 0.8062745054237884 1.0 1.0 0.7962696286640686 0.2663758763957797 0.28548340367978764 1.0 1:1.0 2:0.19342172 3:0.11988333 4:0.274955 5:0.021973789 6:0.08011133 7:0.0 8:1.0 9:0.029023474 10:0.02200116 11:0.16284245 12:0.0 13:0.019587142 14:0.002316374 15:1.0 16:0.035092093 17:0.031114051 18:0.002683103 19:0.0 20:1.85103E-4 21:5.64131E-7 
-0.0 -0.0 0.5425432816417973 0.0 0.0 0.0 0.0 0.0 0.9140666969283274 0.0 0.0 0.0 0.0 1.0 0.0 1.0 0.0 0.0 0.0 0.5584628471415023 0.3539072238614837 0.0 0.0 0.9973869590108574 0.0 0.0 1.0 0.0 0.0 0.0 0.0 0.0 0.0 0.0 0.7518226455214712 0.0 0.0 0.0 0.0 0.0 0.0 0.0 0.0 0.0 0.0 0.0 0.0 1:0.023541039 2:0.027336841 3:0.05625856 4:0.06669665 5:1.0 6:0.11569528 7:0.0 8:0.74580455 9:0.67329663 10:0.7206624 11:0.87997586 12:0.0 13:0.7065225 14:0.87816656 15:1.0 16:0.7014284 17:0.83147997 18:0.20468722 19:0.059148867 20:0.0 21:0.10909822 
-0.0 -0.0 1.0 0.9405561670097006 0.0 0.0 1.0 0.0 1.0 0.0 0.0 0.0 0.0 1.0 0.3008384401063515 1.0 0.0 0.0 0.4602434585787276 1.0 1.0 0.0 0.0 1.0 0.0 0.0 1.0 0.9974774098025221 0.0 0.0 0.0 0.0 0.0 1.0 1.0 0.0 0.0 0.0 0.0 1.0 0.7312779219864758 0.16459464695350928 0.0 0.0 1.0 1.0 0.0 1:0.011324219 2:0.016431427 3:0.049484488 4:0.058823917 5:1.0 6:0.11430985 7:0.01009521 8:0.8806165 9:0.8165143 10:0.90891707 11:0.9956782 12:0.0 13:0.8351374 14:0.8611584 15:1.0 16:0.7960596 17:0.33875278 18:0.073422804 19:0.003568192 20:0.028981477 21:0.0 
-0.0 -0.0 0.0 0.0 0.0 0.0 0.0 0.0 0.0 0.0 0.0 0.0 0.0 0.18543648003406185 0.0 0.0 0.0 0.0 0.0 0.0 0.0 0.0 0.0 0.0 0.0 0.0 0.0 0.0 0.0 0.0 0.0 0.0 0.0 0.0 0.0 0.0 0.0 0.0 0.0 0.0 0.0 0.0 0.0 0.0 0.0 0.0 0.0 1:0.027831266 2:0.02998281 3:0.047465496 4:0.05402619 5:1.0 6:0.09312102 7:0.0 8:0.7407827 9:0.70261097 10:0.72641784 11:0.86069065 12:0.0 13:0.74031234 14:0.8528505 15:0.78081954 16:0.61557835 17:1.0 18:0.2497664 19:0.119040325 20:0.0 21:0.21729358 
-0.0 -0.0 0.0435187750128468 0.0 0.0 0.0 0.6424300943106074 0.39517225603987133 1.0 0.0 0.0 0.0 0.7930987653408154 0.0 0.9558516476513191 0.0 0.0 1.0 0.0 0.34392227733697983 0.22667373897351115 0.0 0.0 0.0 0.0 0.0 0.2543165418028878 0.0025225901974779536 0.0 0.0 0.0 0.7893809371377151 0.0 0.9508393223676811 0.08756942880723598 0.0 0.0 0.0 0.0 0.9273455175740101 0.0 0.0 0.0 0.0 0.5196117340433606 0.0 0.0 1:0.014775642 2:0.016939493 3:0.032459404 4:0.036366194 5:1.0 6:0.074170135 7:0.006287636 8:0.73735994 9:0.7171803 10:0.7508006 11:0.80561334 12:0.0 13:0.7185564 14:0.93178576 15:0.33810914 16:0.35616466 17:1.0 18:0.14648344 19:0.5203907 20:0.0 21:0.09957565 
-0.0 -0.0 0.07730300698607233 0.0 0.0 0.3506916531136868 0.0 0.0 0.0 0.0 0.0 0.0 0.0 0.0 0.0 0.0 0.0 0.0 0.0 0.0 0.0 0.0 0.0 0.0026130409891426207 0.0 0.0 0.0 0.0 0.0 0.0 0.0 0.0 0.0 0.0 0.0 0.0 0.0 0.0 0.0 0.0 0.0 0.0 0.0 0.0 0.0 0.0 0.0 1:0.046796843 2:0.05256867 3:0.097872145 4:0.113970324 5:1.0 6:0.16819067 7:0.0 8:0.6142068 9:0.4962872 10:0.5633499 11:0.75536 12:0.0 13:0.51539236 14:0.9612014 15:0.7600454 16:0.3568178 17:1.0 18:0.3665726 19:0.32743248 20:0.12324475 21:0.0 
-0.21468276618404875 -0.22802884200843707 1.0 0.05944383299029943 0.533503415022953 0.11149867296048559 0.5838870517914134 0.4599425568254655 1.0 0.7402986984979055 0.5537768741448608 0.24235310770988208 0.1204927689458568 0.2803566755287409 0.3001284670926295 0.38297611893198186 0.6025605460912417 0.1142972157412534 0.7113003213944826 0.0 0.8276081837396478 0.3982362394203047 0.24888080054091583 1.0 1.0 0.23524308217952875 0.0 0.0 0.7133262335090383 0.2761293573664144 0.2523497415029173 0.0 0.2458167105812626 0.0 0.30555439163094966 0.997490975061762 0.15733483062734083 0.45710600844974897 0.48885057912398067 0.0 1.0 0.4923104379130581 0.23101150644800522 0.6696250885881537 0.0 0.0 0.25064668375279975 1:0.27017254 2:0.2949286 3:0.34103402 4:0.41084325 5:1.0 6:0.48107055 7:0.0 8:0.8778723 9:0.42370918 10:0.93699175 11:0.89720315 12:0.15262291 13:0.38784328 14:0.5 15:1.0 16:0.5864756 17:0.67603713 18:0.55308294 19:0.25719538 20:0.35974365 21:0.0 
-0.20159266706860618 -0.20336938479258382 1.0 1.0 0.056082681826340325 0.35630984118403825 0.9868757264799732 0.8768535239885497 1.0 0.07964025482144736 0.5212133042039677 0.18354644317487254 0.5027092283656546 1.0 1.0 1.0 0.0416522022595691 0.6160641554779712 1.0 1.0 1.0 0.10198439418578173 0.1823645765756414 1.0 1.0 0.18886062770100273 1.0 0.0 1.0 0.17459745343761923 0.18050545654901895 0.5021081451138222 0.1819978437369281 0.6015891224271099 1.0 0.0025090249382380414 0.8426651693726592 0.05267737683843072 0.05538570751483529 0.07265448242598993 1.0 1.0 0.19230627940206746 0.817057067626889 0.4803882659566394 0.0 0.18219631081141524 1:0.026770676 2:0.03429739 3:0.094412684 4:0.118810676 5:1.0 6:0.18154131 7:0.010680395 8:0.8491247 9:0.6602492 10:0.77998924 11:1.0 12:0.0 13:0.70104444 14:0.69978213 15:1.0 16:0.54659206 17:0.32785282 18:0.054553892 19:5.40259E-4 20:0.0 21:0.002107171 
-0.0 -0.0 -1.0 0.7374950765409068 0.0 0.06547152529398557 0.8784316463641281 0.0 1.0 0.0 0.0 0.0 0.0 1.0 0.0 1.0 0.0 0.0 0.7327752205085384 1.0 1.0 0.0 0.0 1.0 0.3328897698767161 0.0 1.0 0.0 0.276150996400137 0.0 0.0 0.0 0.0 0.3718927450384235 1.0 0.5705264773803597 0.0 0.0 0.0 0.0 1.0 0.13290947990627458 0.0 0.0 0.0 0.0 0.0 1:0.005074684 2:0.011536108 3:0.04458865 4:0.050188836 5:1.0 6:0.10959645 7:0.0 8:0.7992154 9:0.7497247 10:0.8807345 11:0.8889216 12:0.0 13:0.7432331 14:0.66959006 15:0.98667794 16:1.0 17:0.48500475 18:0.38265473 19:0.20250084 20:0.42353866 21:0.0 
-0.2783941990694458 -0.29368697999152915 -1.0 1.0 0.4230362835005393 0.574943447542647 1.0 0.4340396208879714 1.0 0.4080773576749296 0.8588658048532776 0.29157597118089645 0.18633239727958867 1.0 1.0 1.0 0.44254229245069654 0.2268410623663634 1.0 1.0 1.0 0.3623350460383982 0.29703304765562766 1.0 1.0 0.2802124203513596 1.0 0.7183668655193313 1.0 0.32782471201585195 0.3063206358730955 0.48680053534219525 0.2979756707697798 1.0 1.0 0.0823737367916399 0.8108606899335331 0.36046052386078314 0.4050551479619827 1.0 1.0 1.0 0.0 1.0 1.0 1.0 0.0 1:0.012265637 2:0.021870019 3:0.07326888 4:0.08331129 5:1.0 6:0.15151513 7:0.0 8:0.86639434 9:0.7503316 10:0.9474925 11:0.980024 12:0.0 13:0.74784005 14:0.72344404 15:1.0 16:0.8205093 17:0.23525326 18:0.16495812 19:0.032828458 20:0.14973536 21:0.0 
-1.0 -1.0 -0.6633650636407163 0.2506389929207976 1.0 1.0 1.0 1.0 1.0 1.0 1.0 1.0 1.0 0.21804568365475085 1.0 0.3305706495541338 1.0 1.0 1.0 0.0 1.0 1.0 1.0 1.0 1.0 1.0 0.07381047734841782 0.0 1.0 1.0 1.0 1.0 1.0 0.0 0.287059944783798 1.0 0.18913931006646678 1.0 1.0 0.0 1.0 1.0 0.9955100716265957 1.0 0.0 0.0 0.9969404399381026 1:1.0 2:0.40550292 3:0.39477965 4:0.56331265 5:0.1554893 6:0.2725233 7:0.0 8:1.0 9:0.01840599 10:0.08960459 11:0.21887918 12:0.0 13:0.024082122 14:0.015085143 15:1.0 16:0.15297768 17:0.011495109 18:0.002552153 19:5.14667E-6 20:5.52618E-4 21:0.0 
-0.0 -0.0 -1.0 0.01186593053829552 0.0 0.0 1.0 1.0 1.0 0.0 0.0 0.0 1.0 1.0 1.0 1.0 0.0 1.0 0.0 1.0 0.9353500566935412 0.0 0.0 0.8928191299029286 0.0 0.0 1.0 0.28163313448066873 0.0 0.0 0.0 0.3712772190657719 0.0 1.0 1.0 0.0 0.0 0.0 0.0 1.0 0.028809790006585727 0.2750890828119484 0.004489928373404339 0.0 1.0 0.0 0.0030595600618973373 1:5.88066E-4 2:0.002580909 3:0.01596623 4:0.017455578 5:1.0 6:0.054110218 7:6.31123E-5 8:0.82876074 9:0.8186052 10:0.8687084 11:0.8738303 12:0.0 13:0.8172116 14:0.73124033 15:0.7006685 16:1.0 17:0.4502756 18:0.38913938 19:0.3843087 20:0.5973383 21:0.0 
-0.0 -0.0 -1.0 -1.0 0.0 0.0 1.0 0.6834192943960583 1.0 0.0 0.05890173818451575 0.0 0.3402572229929469 1.0 1.0 1.0 0.0 0.4061762026857295 1.0 1.0 1.0 0.0 0.0 1.0 0.48455484333709137 0.0 1.0 0.895525594657471 0.5025247124104643 0.0 0.0 0.15358446778379667 0.0 1.0 1.0 0.0 0.2002009813045537 0.0 0.0 1.0 1.0 0.6462819212227608 0.0 0.31862420140963715 1.0 0.9157672385757029 0.0 1:0.009246331 2:0.010572769 3:0.021310875 4:0.022563541 5:1.0 6:0.053723734 7:0.004879564 8:0.8966991 9:0.8882953 10:0.92747414 11:0.9380992 12:0.0 13:0.889889 14:0.99952143 15:0.69068915 16:1.0 17:0.15537165 18:0.040760767 19:0.023082983 20:0.0 21:0.025479442 
-0.496600357251962 -0.5149068351530599 -1.0 -1.0 0.6856068893299032 0.9297189631101791 1.0 1.0 1.0 0.9745151342308086 1.0 0.5086440243746366 1.0 1.0 1.0 1.0 0.7286709109107748 1.0 1.0 1.0 1.0 0.5909678065345328 0.5158760213655251 1.0 1.0 0.5067167339258809 1.0 0.10447440534252905 1.0 0.5410954347740278 0.5175852507126315 1.0 0.5114114296067045 0.9866004330375706 1.0 1.0 0.7997990186954463 0.589773478842337 0.6397915966470203 0.7395854772950259 1.0 1.0 0.5060233930742654 1.0 0.8370188162874402 0.08423276142429714 0.5180370979147376 1:0.09448681 2:0.103402615 3:0.23735164 4:0.28054038 5:1.0 6:0.3322394 7:0.0 8:1.0 9:0.46485415 10:0.7954225 11:0.94654465 12:0.0 13:0.47764483 14:0.44600186 15:1.0 16:0.49640626 17:0.050181393 18:0.008532413 19:1.64111E-4 20:0.002645703 21:0.0 
-1.0 -0.5830570421638993 -0.0 -0.0 -0.0 0.3877585043931383 0.9973385860158578 1.0 0.0 0.3787733841900694 0.8012751436823311 1.0 1.0 0.0 0.0 0.0 1.0 0.04151186430592046 0.0 0.0 0.0 1.0 1.0 1.0 1.0 1.0 0.0 0.0 1.0 1.0 1.0 1.0 1.0 0.0 0.0 0.0 0.0 0.45337396678069486 1.0 0.0 0.0 0.32538496284386104 0.08688634203334747 0.0 0.0 0.0 0.1454179035112027 1:1.0 2:0.22911288 3:0.1507764 4:0.31717718 5:0.032645922 6:0.10375828 7:0.0 8:1.0 9:0.027714193 10:0.020936698 11:0.17364071 12:1.23573E-4 13:0.021340944 14:0.003410118 15:1.0 16:0.048392173 17:0.022088856 18:0.001345968 19:2.57095E-6 20:1.19494E-4 21:0.0 
-1.0 -1.0 -0.0 -0.0 -0.0 0.0 0.0 1.0 0.2688152038279755 0.0 0.0 1.0 1.0 0.0 0.0 0.0 1.0 1.0 0.0 0.0 0.0 1.0 1.0 0.3393315992443458 1.0 1.0 0.0 0.0 1.0 0.0 1.0 1.0 1.0 0.0 0.0 0.31265993794917996 0.0 0.0 0.4537468157111796 0.0 0.0 0.0 0.0 0.0 0.0 0.0 0.0 1:1.0 2:0.16999654 3:0.09316983 4:0.23020118 5:0.013848112 6:0.0607114 7:0.0 8:1.0 9:0.032641582 10:0.016660472 11:0.14396895 12:0.001130403 13:0.017999591 14:0.002368466 15:1.0 16:0.026046619 17:0.025236303 18:0.001442078 19:1.71156E-6 20:1.02617E-5 21:0.0 
-0.8617800130125358 -0.002372136056651239 -0.5895860968492932 -0.7912039895553902 -0.5921675212173341 0.7332083261748272 1.0 0.19497835466592198 1.0 1.0 1.0 1.0 0.5853738607469016 0.23722255025073746 0.7652864475848449 0.30935246092905416 1.0 0.2615610358519904 1.0 0.226244489951945 1.0 1.0 1.0 1.0 1.0 0.0 0.26203545564540537 0.21629413551118667 1.0 0.0 1.0 0.34250254386383605 0.9988862274944789 0.1822810709788632 0.47020894105327227 0.5846360618172373 0.465817040880549 0.5466260332193051 0.5462531842888203 0.19965108845161678 1.0 1.0 0.0 1.0 0.1822009142065285 0.21268323226733288 0.0 1:1.0 2:0.42652878 3:0.5208545 4:0.94136655 5:0.5138867 6:0.53871113 7:0.0 8:1.0 9:0.08602539 10:0.1321542 11:0.48494467 12:0.004132438 13:0.122682095 14:0.053918347 15:1.0 16:0.11189952 17:0.08740586 18:0.01047319 19:0.001328515 20:0.0 21:0.001288289 
-1.0 -0.0 -0.0 -0.0 -0.0 1.0 1.0 1.0 0.8075369139614768 1.0 1.0 1.0 1.0 0.0 0.0 0.0 1.0 0.0 0.6390884145663773 0.0 0.37279698624028923 1.0 1.0 1.0 1.0 1.0 0.0 0.0 1.0 0.8992409536051509 1.0 1.0 1.0 0.0 0.0 0.10270400023358305 0.0 1.0 1.0 0.0 0.33574985260044105 1.0 0.23350483002850356 0.2855205632828265 0.0 0.0 0.3654429903742998 1:1.0 2:0.33542526 3:0.32306525 4:0.49571383 5:0.11344495 6:0.21404782 7:0.0 8:1.0 9:0.021617072 10:0.09057584 11:0.22199829 12:1.88933E-4 13:0.027494043 14:0.014297136 15:1.0 16:0.10862715 17:0.067120425 18:0.005619031 19:1.15545E-4 20:0.0 21:9.27E-5 
-1.0 -0.4145708217794494 -0.0 -0.6318322939451493 -0.09343936811256909 0.2708376707436581 0.3730409429384268 1.0 1.0 0.0 0.0 1.0 1.0 0.11316691488236676 0.7103831381019472 0.10438680433207395 0.0 1.0 0.0 0.09766847068983782 0.0 1.0 1.0 0.0 0.3733937463281094 1.0 0.10992795964991622 0.1162552612196854 1.0 0.10075904639484935 1.0 1.0 1.0 0.12251265005662192 0.09434417842869013 1.0 0.13432713578239444 0.0 1.0 0.11505723274044018 0.0 0.0 0.679608827938149 0.0 0.1043794758011469 0.09985862200301794 0.4891391061144976 1:1.0 2:0.15592353 3:0.07706964 4:0.19972098 5:0.009467277 6:0.048797436 7:0.0 8:1.0 9:0.031134978 10:0.011972374 11:0.12643538 12:7.84936E-4 13:0.01472102 14:0.001501181 15:1.0 16:0.022808176 17:0.018634435 18:9.41153E-4 19:8.91637E-7 20:1.69183E-5 21:0.0 
-1.0 -1.0 -0.0 -0.1850695576914096 -0.0 -1.0 1.0 1.0 1.0 1.0 1.0 1.0 1.0 0.0 0.23915514534797372 0.0 1.0 1.0 0.39477955770785483 0.0 0.06916543613877792 1.0 1.0 1.0 1.0 1.0 0.0 0.0 1.0 1.0 1.0 1.0 1.0 0.0 0.0 1.0 0.0 1.0 1.0 0.0 0.0 1.0 0.9805711453133596 0.030814195672305613 0.0 0.0 0.9859480923002597 1:1.0 2:0.41133335 3:0.3805499 4:0.47932944 5:0.1063469 6:0.22133888 7:0.0 8:1.0 9:0.009015773 10:0.10191579 11:0.1561258 12:0.0 13:0.009447672 14:0.009050637 15:1.0 16:0.18392786 17:0.00125301 18:3.60792E-4 19:4.91891E-8 20:6.629E-5 21:0.0 
-1.0 -0.8756961064850287 -0.28569881320674406 -1.0 -0.4773544762922498 -1.0 1.0 1.0 1.0 1.0 1.0 1.0 1.0 0.15352326576234213 1.0 0.2264148917116466 1.0 0.9647656358744625 1.0 0.11831051009105033 1.0 1.0 1.0 1.0 1.0 1.0 0.15905127248090345 0.13175309076557 1.0 0.9354675571459597 1.0 1.0 1.0 0.09991670785572876 0.3691985301395901 0.7504605949083993 0.4092135877570936 0.9920580075798969 1.0 0.11662397682380059 0.9492693234684785 1.0 0.0 1.0 0.08636890375726436 0.12382614093002797 0.0 1:1.0 2:0.4874285 3:0.53379077 4:0.66685724 5:0.24316616 6:0.36339033 7:0.0 8:1.0 9:0.020544726 10:0.14367403 11:0.22465444 12:0.0 13:0.022895327 14:0.02077343 15:1.0 16:0.21413684 17:0.004834842 18:9.1554E-4 19:0.0 20:3.50011E-5 21:1.60383E-7 
-0.3229114762515449 -0.12430389351497133 -0.5328013540514666 -0.45534541514522325 -0.45236448681792923 -0.3918045013116235 1.0 0.6767905599751963 0.7615019422030035 0.12536044678961614 0.4704015806644326 0.3533802287826716 0.5136121594621779 0.4767637851845859 0.7095907684355219 0.433847843013947 0.45402303154668044 0.40253704224165165 0.41444119947781816 0.4530117161270159 0.4344614960539655 0.3935553325733542 0.3420371845928884 0.6376133677351241 0.6229545008899172 0.3205727491722361 0.4282945181014479 0.4921537006488144 0.6561957597691794 0.06453244285404025 0.37058177517619434 0.5526139282332199 0.35428910850499523 0.42007676550508877 0.4312112313829383 0.24953940509160055 0.5881026218825354 0.007941992420103072 0.4079378986114463 0.4010236222376045 0.9819298280064817 0.49622447845064793 0.01942885468664035 0.4527654403083049 0.4417290607171137 0.40129059509814546 0.014051907699740185 1:0.025582228 2:0.026083976 3:0.03133877 4:0.031765424 5:1.0 6:0.05157679 7:0.0 8:0.05283289 9:0.051832344 10:0.06719133 11:0.07001244 12:0.0 13:0.06756821 14:1.0 15:0.5071121 16:1.0 17:0.054289307 18:0.013991188 19:0.005136437 20:0.0 21:0.004414161 
-1.0 -1.0 -0.0 -0.5882229790756264 -0.0 -1.0 -0.5827855372325393 1.0 1.0 0.23859608887832806 0.5714172490762454 1.0 1.0 0.016778644447619312 0.7342173698417181 0.0 1.0 1.0 0.0 0.0 0.0 1.0 1.0 1.0 1.0 1.0 0.0 0.010808402280994492 1.0 1.0 1.0 1.0 1.0 0.0607739615151949 0.0 1.0 0.02774869078671519 0.32658864543495464 1.0 0.0 0.0 0.11911227317973308 0.9989237516266036 0.0 0.0 0.0 0.7241410881732208 1:1.0 2:0.23473297 3:0.14962 4:0.27445742 5:0.023895454 6:0.086201645 7:0.0 8:1.0 9:0.014255079 10:0.023533523 11:0.13136937 12:0.0 13:0.011548527 14:0.002785664 15:1.0 16:0.065271094 17:0.012760647 18:0.002312377 19:2.9018E-7 20:1.96832E-4 21:0.0 
-0.0 -0.0 -0.0474001796826615 -0.3112533770680639 -0.2390335233647982 -0.0 -0.0 0.0 0.6231032826230569 0.0 0.0 0.0 0.0 1.0 0.0 0.9892739529683845 0.0 0.0 0.0 1.0 1.0 0.0 0.0 0.0 0.0 0.0 1.0 0.0 0.0 0.0 0.0 0.0 0.0 1.0 1.0 0.0 0.0 0.0 0.0 0.0 0.09908709490396482 0.0 0.0 0.0 0.850868353496161 0.0 0.0 1:8.20574E-5 2:8.54576E-5 3:1.98709E-4 4:2.00164E-4 5:1.0 6:0.001991143 7:7.36212E-5 8:0.9631463 9:0.9631429 10:0.9635868 11:0.9635956 12:0.0 13:0.96313244 14:0.9705663 15:0.12258022 16:1.0 17:0.016679458 18:0.028462324 19:0.048298623 20:0.2504148 21:0.0 
-0.0 -0.0 -1.0 -1.0 -0.21523205698028075 -0.0 -0.0 0.7821905210616696 1.0 0.0 0.0 0.0 0.13141063992154434 1.0 0.4329610918538861 0.5456804131935299 0.0 0.9900122718477335 0.2602500075776046 1.0 0.5590511867766418 0.0 0.0 1.0 0.01700343791914074 0.0 1.0 0.43643070048018734 0.0 0.0 0.0 0.0 0.0 1.0 1.0 0.24342875747689846 0.2258560525969743 0.0 0.0 1.0 0.335770773598868 0.22166353327928545 0.0 0.0 0.11533183769240656 0.02310810712259826 0.0 1:3.43753E-4 2:4.53573E-4 3:0.001996404 4:0.00206171 5:1.0 6:0.011757946 7:2.35343E-4 8:0.90152246 9:0.9012577 10:0.90691304 11:0.90742546 12:0.0 13:0.90139 14:0.8921736 15:0.31554285 16:1.0 17:0.17982543 18:0.17738746 19:0.34563008 20:0.57715994 21:0.0 
-0.0 -0.0 -1.0 -1.0 -1.0 -0.0 -0.2870627618512277 0.0 1.0 0.046035921457774895 0.3191333715069321 0.0 0.0 1.0 0.5873453720705466 1.0 0.03585368971966834 0.0 1.0 1.0 1.0 0.0 0.0 0.8079119743900992 0.5154036892262599 0.0 1.0 0.4513510489278448 0.7024029220410054 0.0 0.0 0.0 0.0 1.0 1.0 0.0 0.367657912899715 0.0 0.0 0.35966620038736496 1.0 0.6592241935409815 0.0 0.6116830918651059 1.0 0.8689157868821069 0.0 1:2.10011E-5 2:2.93615E-5 3:2.52455E-4 4:2.56167E-4 5:1.0 6:0.003042893 7:2.0475E-6 8:0.9574468 9:0.95743614 10:0.9583041 11:0.9583332 12:0.0 13:0.957438 14:0.9691048 15:0.15732543 16:1.0 17:0.02097985 18:0.031021765 19:0.03458945 20:0.20489529 21:0.0 
-0.7859038070886422 -0.0 -0.8513659500767541 -0.9482558561288192 -0.5457344196549211 -1.0 -0.5871167784568986 0.9723939391833583 1.0 1.0 1.0 1.0 0.5272138737881112 0.5608439399824267 0.4307612552794392 0.693495832005193 1.0 0.0 1.0 0.19583658281763638 1.0 1.0 0.9884116566049738 1.0 1.0 0.7996382379459874 0.24021855938615447 0.10140984831097344 1.0 0.09686147096299486 1.0 1.0 0.9995088161512395 0.15058847027629815 0.6672356722252628 0.2850213732672245 0.35997173706371577 0.6734113545650453 1.0 0.08984723468602875 1.0 1.0 0.0 1.0 0.03379980881143248 0.10797610599529471 0.0026750688504574493 1:0.88859856 2:0.5466124 3:0.7171317 4:0.8214324 5:0.5751475 6:0.5444237 7:0.0 8:1.0 9:0.049084973 10:0.32471046 11:0.31143063 12:0.0 13:0.0342992 14:0.049944706 15:1.0 16:0.31247917 17:0.071802035 18:0.04853893 19:0.001136802 20:0.017097274 21:0.0 
-0.1221789608037409 -0.027330875750114565 -0.3144267428225783 -0.0 -0.0 -0.20548910953671407 -0.0 0.43490487976273523 1.0 0.059813254552251165 0.03698569778097071 0.09589110053859047 1.0 0.0 1.0 0.0 0.10416559702040494 1.0 0.00479181567933895 0.607296764971761 0.0 0.09622607416604047 0.10288371873128102 0.05203558117686735 0.215236064453599 0.12121301764694259 0.5796296417635725 0.0 0.19446651573528417 0.0 0.10348379926148825 1.0 0.08862772009820412 1.0 0.0905688917805223 0.009083178252219675 0.01876560665287981 0.0 0.15635719861202985 0.5504865649266064 0.0 0.0 0.0 0.09024173626322685 0.0 0.0 0.0 1:6.35397E-5 2:6.8325E-5 3:2.11099E-4 4:2.12737E-4 5:1.0 6:0.002307946 7:4.81814E-5 8:0.87298447 9:0.87298 10:0.8735153 11:0.87349576 12:0.0 13:0.8728621 14:0.8413357 15:0.001687136 16:0.032503 17:0.020396156 18:0.022190802 19:1.0 20:0.18916078 21:0.0 
-1.0 -0.9726691242498854 -0.0 -0.0 -0.0 -1.0 -1.0 1.0 1.0 1.0 1.0 1.0 1.0 0.0 0.0 0.0 1.0 1.0 0.7349581767430564 0.0 0.44094881322335827 1.0 1.0 1.0 1.0 1.0 0.0 0.0 1.0 0.9031385290370051 1.0 1.0 1.0 0.0 0.0 0.4624666910036575 0.0 1.0 1.0 0.0 0.6903794122520135 1.0 0.0 0.2794357214858502 0.0 0.0 0.2731838429763219 1:1.0 2:0.3386106 3:0.28100377 4:0.40342256 5:0.06603412 6:0.16381207 7:0.0 8:1.0 9:0.00793948 10:0.06815944 11:0.15133692 12:0.0 13:0.010291778 14:0.006171702 15:1.0 16:0.1334424 17:0.010468798 18:0.001342677 19:1.90006E-6 20:1.99829E-5 21:0.0 
-0.0823353864815384 -0.0 -0.0 -0.03069943409161851 -0.0 -0.1648904194175707 -0.5430349224593343 0.058513307302726275 0.11122961796530283 0.0800033797416674 0.0724636816358519 0.09760872491461374 0.12801667790328694 0.0 0.81471491095441 0.0 0.2755915398720656 0.00998772815226652 0.0 0.0 0.0 0.23672251089362076 0.07716300784266243 0.0 0.21366661755522076 0.07914874440706983 0.0 0.0 0.1799237380840689 0.0 0.1369640845061992 0.15183024735685804 0.08301636389729673 0.1635633717332193 0.0 0.0 0.0 0.0 0.16107787588659006 0.0 0.1729224996713729 0.0 0.0010762483733963712 0.0186394503858169 0.0 0.0 0.0 1:0.25605398 2:0.2560793 3:0.256818 4:0.25683975 5:1.0 6:0.26106206 7:0.0 8:0.0 9:3.34318E-5 10:9.56013E-4 11:9.74885E-4 12:1.0 13:0.006551488 14:0.28062436 15:0.22310552 16:1.0 17:0.16155845 18:0.13688593 19:0.42437705 20:0.6056241 21:0.0 
-1.0 -0.9632934620976852 -0.0 -0.0 -0.0 -1.0 -0.0 -0.2480026473104894 0.0 0.0 0.0 1.0 1.0 0.0 0.0 0.0 0.8759721648635322 1.0 0.0 0.0 0.0 1.0 1.0 0.0 0.736428479300265 1.0 0.0 0.0 1.0 0.0 1.0 1.0 1.0 0.0 0.0 0.0 0.0 0.0 0.9543746992917128 0.0 0.0 0.0 0.0 0.0 0.0 0.0 0.0 1:1.0 2:0.18145406 3:0.08797781 4:0.19399658 5:0.009174667 6:0.04981821 7:0.0 8:1.0 9:0.017150212 10:0.00609021 11:0.102268934 12:0.0 13:0.008628389 14:8.14415E-4 15:1.0 16:0.041084234 17:8.36967E-4 18:4.81312E-5 19:6.49111E-7 20:0.0 21:6.46483E-7 
-1.0 -0.0 -0.0 -0.0 -0.0 -1.0 -1.0 -1.0 0.8320438365998284 0.0 0.018402256629887023 1.0 1.0 0.0 0.0 0.0 1.0 0.5843498152522903 0.0 0.0 0.0 1.0 1.0 0.6084036578188083 1.0 1.0 0.0 0.0 1.0 0.4837886352532758 1.0 1.0 1.0 0.0 0.0 0.0 0.0 0.006546874930383934 1.0 0.0 0.0 0.077799500695954 0.16620469855696976 0.0 0.0 0.0 0.0 1:1.0 2:0.18765552 3:0.09337497 4:0.19494092 5:0.009538863 6:0.050766133 7:0.0 8:1.0 9:0.014619703 10:0.0079536 11:0.09881073 12:0.0 13:0.007788792 14:9.34465E-4 15:1.0 16:0.04604163 17:9.38395E-4 18:2.5501E-4 19:2.18766E-8 20:1.34288E-5 21:0.0 
-1.0 -0.8440005482795765 -0.0 -0.4340396208879713 -0.0 -1.0 -1.0 -1.0 1.0 0.5241805562480298 1.0 1.0 1.0 0.0 0.4626966929497279 0.0 1.0 0.01113632971872607 0.23510171521857473 0.0 0.0 1.0 1.0 1.0 1.0 1.0 0.0 0.0 1.0 1.0 1.0 1.0 1.0 0.0 0.0 0.7866051133615021 0.0 1.0 1.0 0.0 0.25559671379429705 1.0 0.8337953014430302 0.0 0.0 0.0 0.9985802655049045 1:1.0 2:0.21438853 3:0.1250818 4:0.2825729 5:0.022830209 6:0.08673298 7:0.0 8:1.0 9:0.023893796 10:0.009864901 11:0.15364419 12:0.0 13:0.016788699 14:0.001749167 15:1.0 16:0.045879077 17:0.004548012 18:3.68341E-4 19:0.0 20:2.86375E-5 21:1.18E-7 
-1.0 -0.1927059896227383 -0.7319683368538865 -1.0 -0.6834192943960583 -1.0 -0.2665129526883788 -1.0 1.0 1.0 1.0 1.0 1.0 0.43493143476603596 1.0 0.47462026557553283 1.0 0.6552671421453403 1.0 0.3512889335906961 0.9215111990964028 1.0 1.0 1.0 1.0 1.0 0.3671434664692576 0.17567570472122152 1.0 0.5162113647467241 1.0 1.0 1.0 0.35206951177471807 0.5455732817979786 1.0 0.42699397117300397 0.9761134408229923 1.0 0.42813560470468187 0.7222994352953869 1.0 0.0 0.9078904238106451 0.2905897768587933 0.16942161817206478 0.0 1:1.0 2:0.116961025 3:0.17938961 4:0.42223683 5:0.056361157 6:0.0822968 7:0.0 8:1.0 9:0.07900355 10:0.16960263 11:0.3682634 12:0.012202943 13:0.060882546 14:0.0 15:1.0 16:0.011077975 17:0.23803024 18:0.17150995 19:0.010393262 20:0.00605897 21:0.0 
-0.16992243322370745 -0.0 -1.0 -1.0 -1.0 -0.19497835466592198 -0.41027760728681745 -1.0 1.0 0.08772749704349767 0.40698042534501877 0.17780913966015938 1.0 1.0 1.0 1.0 0.12402783513646776 1.0 0.9329757228240666 1.0 1.0 0.19694826352191525 0.17926546692767176 1.0 0.3694007701449059 0.0 1.0 0.8243242952787785 0.7190315057754602 0.0 0.19541545978787733 0.9618553645017224 0.1848912341781216 1.0 1.0 0.2133948866384981 0.5730060288269959 0.017339684246623674 0.04562530070828723 1.0 1.0 0.922200499304046 0.0 0.6029546598847646 1.0 0.8305783818279352 0.0014197344950955602 1:2.87654E-5 2:3.66368E-5 3:2.48749E-4 4:2.52997E-4 5:1.0 6:0.00295713 7:1.44569E-6 8:0.94036055 9:0.940351 10:0.94114864 11:0.941193 12:0.0 13:0.94039667 14:0.9440717 15:0.15614653 16:1.0 17:0.111954734 18:0.10671677 19:0.49950615 20:0.6982114 21:0.0 
-0.0 -0.0 -0.7274146719638007 -0.17191979647468764 -0.0 -0.0 -0.0 -1.0 -0.0 0.0 0.0 0.0 0.0 0.4432244164188305 0.0 0.2714780177266305 0.0 1.0 0.0 0.5195991803647831 0.33834598416740114 0.0 0.0 0.0 0.0 0.0 0.753939693627079 0.0691872587368125 0.0 0.0 0.0 0.0 0.0 1.0 0.6276041976810518 0.0 0.0 0.0 0.0 0.883627686341544 0.0 0.020191603306669286 0.0 0.0 0.6327097288931647 0.05330402085695687 0.0 1:2.50442E-4 2:2.71991E-4 3:6.99135E-4 4:7.17541E-4 5:1.0 6:0.005068346 7:2.20304E-4 8:0.8304196 9:0.8303934 10:0.8318512 11:0.83193445 12:0.0 13:0.8302714 14:0.76606905 15:0.009308814 16:0.03469415 17:0.03397873 18:0.03847878 19:1.0 20:0.18703164 21:0.0 
-0.065688945083696 -0.03314108891314518 -0.0 -0.0 -0.0 -0.0 -0.0 -0.0 -0.6266819412217582 0.0 0.0 0.011882776136468862 1.0 0.0 1.0 0.0 0.0 0.0 0.0 0.0 0.0 0.0 0.00858349551987812 0.04093501001763129 0.0 0.05785284762122184 0.0 0.0 0.0 0.0 0.0 0.9101211769904739 0.0 0.5359383150921502 0.0 0.0 0.0 0.0 0.0 0.0 0.0 0.0 0.0 0.0 0.0 0.0 0.0 1:6.52038E-4 2:7.30137E-4 3:0.00175552 4:0.001833397 5:1.0 6:0.009764449 7:6.05716E-4 8:0.766235 9:0.76613486 10:0.76962525 11:0.7696893 12:0.0 13:0.7654928 14:0.61401224 15:0.011693153 16:0.023831202 17:0.038446996 18:0.04034877 19:1.0 20:0.13760045 21:0.0 
-0.5037498706193108 -0.0 -0.18665202496452668 -0.0 -0.3777039474930739 -1.0 -0.6722596731443974 -0.922574286710994 -0.5633688123282868 1.0 1.0 0.629045656384533 0.34766497051933626 0.0 0.37314716924409064 0.5240435973814956 1.0 0.0 1.0 0.0 1.0 1.0 0.6432385418203184 1.0 1.0 0.5214779694113671 0.0 0.0 1.0 0.07279435105271838 0.7215700921213952 0.888972081683496 0.6625217540074165 0.0 0.1124138887100622 0.0 0.18528714830229515 0.27159506314013254 1.0 0.0 1.0 0.8795379798976912 0.0 1.0 0.0 0.0 0.0 1:0.25625357 2:0.20332208 3:0.36303684 4:0.5247562 5:1.0 6:0.49193272 7:0.0 8:1.0 9:0.28647298 10:0.47899297 11:0.8302626 12:0.0 13:0.33579066 14:0.30290374 15:1.0 16:0.2991785 17:0.06372018 18:0.015196465 19:1.75108E-4 20:0.005069227 21:0.0 
-0.0 -0.0 -1.0 -0.0 -0.0 -0.0763521177894522 -0.0 -0.0 -0.0 0.22954689761880798 0.2745414355268208 0.0 0.0 0.04576813219054973 0.0 0.0 0.02902404563481861 0.0 1.0 0.0 0.1858528650018241 0.0 0.0 1.0 1.0 0.0 0.0 0.0 1.0 0.0 0.0 0.0 0.0 0.0 0.0 0.421870617733836 0.0 0.0 0.0 0.0 1.0 0.0 0.0 0.7030294470088114 0.0 0.0 0.0 1:0.21783863 2:0.1909355 3:0.2610757 4:0.43825692 5:1.0 6:0.45621133 7:0.0 8:0.95786405 9:0.4786933 10:0.7014806 11:0.9972425 12:0.0 13:0.52401584 14:0.44478238 15:1.0 16:0.32087094 17:0.3731443 18:0.16637954 19:0.03286998 20:0.07478861 21:0.0 
-1.0 -0.9668589110868548 -0.0 -0.8280802035253123 -0.0 -1.0 -1.0 -1.0 -1.0 1.0 1.0 1.0 1.0 0.0 1.0 0.0 1.0 0.8464461445680405 0.5321970519645863 0.0 0.23610291247799867 1.0 1.0 1.0 1.0 1.0 0.0 0.0 1.0 0.9439550772703831 1.0 1.0 1.0 0.0 0.0 0.5138974336289782 0.0 1.0 1.0 0.0 0.7446262464715419 1.0 0.0 0.29697055299118846 0.0 0.0 0.0 1:1.0 2:0.30448487 3:0.22338311 4:0.32023567 5:0.03774057 6:0.116509184 7:0.0 8:1.0 9:0.005151681 10:0.049835928 11:0.11881488 12:0.0 13:0.006554932 14:0.003582158 15:1.0 16:0.11918752 17:0.004523767 18:0.001602207 19:1.05645E-6 20:2.60796E-4 21:0.0 
-0.0 -0.0 -1.0 -1.0 -0.45959092991880646 -0.0 -0.0 -0.0 -0.0 0.0 0.0 0.0 0.0 1.0 0.0 1.0 0.0 0.0 0.44810048923892676 0.48040081963521686 1.0 0.0 0.0 1.0 0.39007088412188223 0.0 1.0 0.0 0.28791546645454813 0.0 0.0 0.0 0.0 0.0 1.0 0.0 0.6960890309931144 0.0 0.0 0.0 1.0 0.0 0.0 0.0 0.0 0.0 0.0 1:0.059720512 2:0.06926426 3:0.14137495 4:0.19133525 5:1.0 6:0.25811234 7:0.0 8:0.87196517 9:0.6252181 10:0.8141463 11:1.0 12:0.0 13:0.65395993 14:0.62860644 15:1.0 16:0.49605426 17:0.34294704 18:0.17200002 19:0.039220523 20:0.101565845 21:0.0 
-0.0 -0.0 -0.0 -0.0 -0.1240680174901105 -0.0 -0.0 -0.9475877703925182 -0.0 0.0 0.0 0.0 0.10310081231057769 0.0 0.9310599152431102 0.0 0.0 0.9154353522793149 0.0 0.0 0.0 0.0 0.0 0.0 0.0 0.0 0.0 0.0 0.0 0.0 0.0 0.0 0.0 1.0 0.0 0.0 0.0 0.0 0.0 0.0 0.0 0.0 0.00398537144773516 0.0 0.0 0.0 0.003773527574008554 1:5.5411E-4 2:5.73459E-4 3:9.49831E-4 4:9.66493E-4 5:1.0 6:0.00503234 7:5.91782E-4 8:0.79260504 9:0.7925856 10:0.79389286 11:0.7938805 12:0.0 13:0.792283 14:0.682069 15:0.009076605 16:0.016265314 17:0.02354991 18:0.02459563 19:1.0 20:0.102628246 21:0.0 
-0.0 -0.0 -1.0 -1.0 -1.0 -0.0 -0.1423701878431762 -1.0 -0.6419930830497834 0.0 0.0 0.0 0.137993118552137 1.0 0.6236061992964371 1.0 0.0 0.2381185031526446 0.019702458796486983 1.0 1.0 0.0 0.0 0.5846101259125528 0.0 0.0 1.0 0.9308127412631875 0.0 0.0 0.0 0.0 0.0 1.0 1.0 0.06423194863718572 0.08916364295364995 0.0 0.0 1.0 0.2553737535284582 0.6403215633983631 0.0 0.0 1.0 0.9466959791430432 0.0 1:0.009917121 2:0.016377136 3:0.051022608 4:0.06295796 5:1.0 6:0.12377571 7:0.0 8:0.8388898 9:0.78043234 10:0.8848355 11:0.94739485 12:0.0 13:0.7938038 14:0.78280365 15:1.0 16:0.7970601 17:0.41629386 18:0.2877123 19:0.11662453 20:0.27100322 21:0.0 
-0.0 -0.0 -1.0 -1.0 -0.03863710509800913 -0.0 -0.0 -0.8641708434848475 -0.0 0.0 0.0 0.0 0.0 1.0 0.0 1.0 0.0 0.0 0.0 1.0 0.23969823835277604 0.0 0.0 1.0 0.0 0.0 1.0 0.0 0.0 0.0 0.0 0.0 0.0 0.7452819521635923 1.0 0.0 0.0 0.0 0.0 0.11637231365845607 0.0 0.0 0.0 0.0 0.36729027110683543 0.0 0.0 1:0.028184358 2:0.038101133 3:0.09140843 4:0.11741729 5:1.0 6:0.18723889 7:0.0 8:0.863038 9:0.7257585 10:0.8864697 11:1.0 12:0.0 13:0.7433495 14:0.73489314 15:1.0 16:0.6297432 17:0.40109682 18:0.24413376 19:0.07831178 20:0.18160808 21:0.0 
-1.0 -1.0 -0.0 -0.0 -0.0 -1.0 -0.9468720812154301 -1.0 -1.0 0.35769276159778013 0.7254585644731792 1.0 1.0 0.0 0.04413456389281468 0.0 1.0 1.0 0.0 0.0 0.0 1.0 1.0 1.0 1.0 1.0 0.0 0.0 1.0 0.9832505716768986 1.0 1.0 1.0 0.0 0.0 1.0 0.02946017775094086 0.7284049368598675 1.0 0.0 0.0 0.4599488533972763 0.9960146285522649 0.0 0.0 0.0 0.9962264724259915 1:1.0 2:0.30269727 3:0.22172305 4:0.31839064 5:0.037337195 6:0.11536133 7:0.0 8:1.0 9:0.005217557 10:0.049642827 11:0.118747376 12:0.0 13:0.006601008 14:0.003572024 15:1.0 16:0.1179688 17:0.005625848 18:0.001983389 19:1.6319E-6 20:3.2587E-4 21:0.0 
-0.0 -0.0 -0.0 -0.0 -0.0 -0.3787733841900694 -0.12536044678961614 -0.4244486446300215 -0.0 -0.0 0.0 0.0 0.0 0.0 0.0 0.0 0.5016020384692371 0.0 0.5515818465893048 0.0 0.9356461192708727 0.2661586135323539 0.0 0.7138661396354884 0.8399533140170949 0.0 0.0 0.0 1.0 0.0 0.0 0.0 0.0 0.0 0.0 0.0 0.0 0.0 0.0 0.0 1.0 0.0 0.0 0.8650009019822864 0.0 0.0 0.0 1:0.8291109 2:0.49297073 3:0.7240622 4:1.0 5:0.8613771 6:0.7050285 7:0.0 8:1.0 9:0.09819712 10:0.24360037 11:0.4943964 12:0.0 13:0.12352597 14:0.08950998 15:1.0 16:0.22092369 17:0.067031644 18:0.004892082 19:9.45753E-4 20:0.0 21:9.47016E-4 
-0.3134648964266766 -0.34240378594227244 -0.0 -0.0 -0.0 -1.0 -1.0 -1.0 -0.6119080532915274 -0.5872396592165882 1.0 0.43670229396337557 0.24752092499365885 0.0 0.0 0.0 1.0 0.43217979848412386 0.0 0.0 0.0 1.0 0.4784962675918144 1.0 1.0 0.3354677270888129 0.0 0.0 1.0 0.8538654579644065 0.589923929363335 0.9557466961111105 0.5044830821034147 0.0 0.0 0.5692360588343577 0.0 1.0 1.0 0.0 0.0 1.0 0.0 0.0 0.0 0.0 0.0 1:0.96782345 2:0.50333554 3:0.67180777 4:0.99072003 5:0.65526545 6:0.6321314 7:0.0 8:1.0 9:0.075415 10:0.1809309 11:0.4459704 12:0.0 13:0.10107714 14:0.061973687 15:1.0 16:0.17651074 17:0.066982865 18:0.003754168 19:4.39235E-4 20:0.0 21:4.31416E-4 
-1.0 -1.0 -0.0 -1.0 -0.0 -1.0 -1.0 -1.0 -1.0 -1.0 1.0 1.0 1.0 0.0 1.0 0.0 1.0 1.0 0.44841815341069524 0.0 0.0 1.0 1.0 1.0 1.0 1.0 0.0 0.0 1.0 1.0 1.0 1.0 1.0 0.0 0.0 1.0 0.0 1.0 1.0 0.0 0.07856887284424903 1.0 1.0 0.0 0.0 0.0 1.0 1:1.0 2:0.46235675 3:0.5603154 4:0.82655317 5:0.39931363 6:0.47124928 7:0.0 8:1.0 9:0.050809603 10:0.14684135 11:0.3589581 12:0.0 13:0.0676858 14:0.041109923 15:1.0 16:0.15729208 17:0.067776784 18:0.005441516 19:6.8942E-4 20:0.0 21:6.86212E-4 
-0.0 -0.0 -0.819938953319353 -0.4080773576749296 -0.9745151342308086 -0.0 -0.0 -0.0 -0.0 -1.0 1.0 0.0 0.0 0.4162438414886934 0.39255524130874897 0.5145065742786034 0.0 0.0 1.0 0.38451330634796876 1.0 0.0 0.0 1.0 1.0 0.0 0.44822042243643717 0.38889489705143815 1.0 0.0 0.0 0.0 0.0 0.3439985101844266 0.7610661892329414 0.1730972327323031 0.7922633845973911 0.0 0.0 0.3612460078336404 1.0 0.26151925840956824 0.0 1.0 0.32750040811039816 0.3671656931542805 0.0 1:0.7154656 2:0.42581302 3:0.65152943 4:0.9639738 5:0.9677661 6:0.70251846 7:0.0 8:1.0 9:0.13692172 10:0.26852578 11:0.59764594 12:0.0 13:0.17726216 14:0.13578397 15:1.0 16:0.19960137 17:0.11710281 18:0.012843587 19:0.002878767 20:0.0 21:0.003062913 
-0.8610611821191322 -0.8283194680559629 -0.0 -0.0 -0.0 -1.0 -0.9352427471150756 -1.0 -0.4316143147398317 -1.0 -1.0 1.0 0.1739920278256363 0.0 0.0 0.0 1.0 0.5339765012949683 1.0 0.0 1.0 1.0 1.0 1.0 1.0 0.8677539092435832 0.0 0.0 1.0 0.9429435732650959 1.0 1.0 1.0 0.0 0.0 0.3156542251452305 0.0 1.0 1.0 0.0 1.0 0.6665010126586345 0.0 1.0 0.0 0.0 0.0 1:1.0 2:0.5441553 3:0.684519 4:0.8975233 5:0.5037287 6:0.559566 7:0.0 8:1.0 9:0.045192096 10:0.18608463 11:0.3305097 12:0.0 13:0.05338992 14:0.04398388 15:1.0 16:0.22475895 17:0.015018521 18:0.00160775 19:3.20688E-4 20:0.0 21:3.22478E-4 
-1.0 -1.0 -0.07499017834882862 -0.8588658048532776 -0.05890173818451575 -1.0 -1.0 -1.0 -1.0 -1.0 -1.0 1.0 1.0 0.0 0.8482763018972433 0.0 1.0 1.0 0.1845619284550001 0.0 0.0 1.0 1.0 1.0 1.0 1.0 0.0 0.0 1.0 1.0 1.0 1.0 1.0 0.0 0.007868471472437286 1.0 0.0 1.0 1.0 0.0 0.2050124476372122 1.0 1.0 0.0 0.0 0.0 1.0 1:1.0 2:0.376876 3:0.34351185 4:0.49241334 5:0.10989556 6:0.22187401 7:0.0 8:1.0 9:0.013837706 10:0.0774846 11:0.1895413 12:0.0 13:0.018072424 14:0.010682016 15:1.0 16:0.1429524 17:0.010429323 18:0.001328233 19:9.66967E-5 20:0.0 21:9.61306E-5 
-0.1207359793915843 -0.1585526069633189 -1.0 -1.0 -1.0 -0.8012751436823311 -0.535158833549357 -1.0 -0.993768367235074 -1.0 -1.0 0.13326193429881533 0.7864330016648867 0.8419221933387459 1.0 1.0 0.8970507962413977 0.7047248713459195 1.0 0.7509512374229522 1.0 0.6982660791880945 0.13486669744596486 1.0 1.0 0.11406002530990957 0.9210110159766668 0.7525920129110578 1.0 0.057056426734904075 0.23897256450051357 0.6435591625840903 0.15702104571378156 0.6046142500281071 1.0 0.6843457748547694 1.0 0.0 0.5418741350827216 0.6532064886522644 1.0 1.0 0.0 1.0 0.5705174505681767 0.7040397597203905 0.0 1:0.27585027 2:0.23563592 3:0.4403779 4:0.53941274 5:1.0 6:0.5090863 7:0.0 8:1.0 9:0.23120262 10:0.48802575 11:0.7127579 12:0.0 13:0.25466856 14:0.2518174 15:1.0 16:0.36343315 17:0.002752318 18:0.004242735 19:9.86995E-6 20:0.001640936 21:0.0 
-1.0 -0.3128860883322991 -0.0 -0.2525577477063334 -0.0 -1.0 -1.0 -1.0 -1.0 -0.6409284325210018 -0.0 -0.965443939584208 1.0 0.0 0.0 0.0 1.0 0.0 0.16638961557979168 0.0 0.0 1.0 1.0 0.5802408709326955 1.0 0.0 0.0 0.0 1.0 0.0 1.0 1.0 1.0 0.0 0.0 1.0 0.0 0.0 1.0 0.0 0.0 0.1733640218349402 0.0 0.0 0.0 0.0 0.0 1:1.0 2:0.24692231 3:0.15288068 4:0.24740592 5:0.018891692 6:0.07686786 7:0.0 8:1.0 9:0.007277104 10:0.025550919 11:0.10324873 12:0.0 13:0.006547181 14:0.001903559 15:1.0 16:0.082470976 17:0.003269637 18:3.85262E-4 19:1.21147E-7 20:4.20566E-5 21:0.0 
-1.0 -0.0 -0.0 -0.0 -0.0 -0.0 -0.0 -0.0 -0.0 -0.0 -0.0 -0.0 1.0 0.0 0.0 0.0 0.0 0.0 0.0 0.0 0.0 1.0 1.0 0.0 0.0 1.0 0.0 0.0 0.0 0.0 1.0 0.0 0.2501142650872925 0.0 0.0 0.0 0.0 0.0 0.0 0.0 0.0 0.0 0.0 0.0 0.0 0.0 0.0 1:1.0 2:0.17265376 3:0.0787457 4:0.17013255 5:0.006681122 6:0.04116448 7:0.0 8:1.0 9:0.015800873 10:0.00523717 11:0.08860677 12:0.0 13:0.006914982 14:5.96825E-4 15:1.0 16:0.03971969 17:3.17517E-4 18:4.10363E-5 19:6.74381E-10 20:3.45731E-6 21:0.0 
-1.0 -0.0 -0.0 -0.0 -0.0 -1.0 -0.0 -0.0 -0.17780913966015977 -0.0 -0.0 -0.0 1.0 0.0 0.0 0.0 0.0 0.0 0.0 0.0 0.0 1.0 1.0 0.0 0.0 0.0 0.0 0.0 0.14648770115085621 0.0 1.0 0.26350989693711946 0.0 0.0 0.0 0.0 0.0 0.0 0.0 0.0 0.0 0.0 0.0 0.0 0.0 0.0 0.0 1:1.0 2:0.19668178 3:0.10130547 4:0.19573237 5:0.009858864 6:0.051941782 7:0.0 8:1.0 9:0.012247754 10:0.010769354 11:0.09429834 12:0.0 13:0.006907214 14:9.76642E-4 15:1.0 16:0.0525892 17:0.001902956 18:5.79451E-5 19:4.41463E-6 20:0.0 21:4.41613E-6 
-1.0 -0.0 -0.4258995508847546 -1.0 -0.5086440243746366 -1.0 -1.0 -1.0 -1.0 -1.0 -1.0 -1.0 0.19741221481653293 0.3145006417758623 1.0 0.3558999613527845 1.0 1.0 1.0 0.29131498403380546 0.8218575777995945 1.0 1.0 1.0 1.0 0.4589500517847883 0.326482205618942 0.30181164164118585 1.0 1.0 1.0 1.0 1.0 0.12792811137555443 0.444602150798795 1.0 0.47808510833154694 1.0 1.0 0.2078181768620851 0.8341866336519461 1.0 0.0 0.8262842610943025 0.2639405526162879 0.2828350738569874 1.0 1:1.0 2:0.27472505 3:0.18330364 4:0.27585724 5:0.025252609 6:0.09224689 7:0.0 8:1.0 9:0.005377816 10:0.035284378 11:0.10672807 12:0.0 13:0.006068029 14:0.002484946 15:1.0 16:0.10105973 17:0.001639932 18:1.18584E-4 19:1.24187E-5 20:0.0 21:1.24323E-5 
-1.0 -0.6871139116677009 -0.0 -0.0 -0.0 -0.0 -0.0 -0.0 -1.0 -0.0 -0.0 -0.0 1.0 0.0 0.0 0.0 0.0 0.8438377815884468 0.0 0.0 0.0 1.0 1.0 0.0 0.0 1.0 0.0 0.0 0.0 0.0 1.0 0.0 1.0 0.15220721352166414 0.0 0.0 0.0 0.0 0.0 0.0782358462526667 0.0 0.0 0.0 0.0 0.0 0.0 0.0 1:1.0 2:0.11721151 3:0.038048916 4:0.13325654 5:0.0030205 6:0.025785133 7:0.0 8:1.0 9:0.034209643 10:0.001035618 11:0.09264022 12:2.07068E-4 13:0.009776031 14:1.27452E-4 15:1.0 16:0.011652325 17:0.001498982 18:5.84457E-5 19:4.14029E-9 20:1.99279E-6 21:0.0 
-1.0 -0.0 -0.0 -0.0 -0.0 -1.0 -0.0 -0.1934998254532042 -0.0 -0.0 -0.0 -0.0 1.0 0.0 0.0 0.0 1.0 0.0 0.0 0.0 0.0 1.0 1.0 0.0 0.9942112192040886 0.0 0.0 0.0 1.0 0.0 1.0 1.0 0.7498857349127075 0.0 0.0 0.0 0.0 0.0 1.0 0.0 0.0 0.0 0.0 0.0 0.0 0.0 0.0 1:1.0 2:0.23279208 3:0.1352358 4:0.22643389 5:0.014889145 6:0.0669674 7:0.0 8:1.0 9:0.007668849 10:0.019768327 11:0.0964472 12:0.0 13:0.006067668 14:0.001487634 15:1.0 16:0.075173214 17:2.35606E-4 18:1.81116E-5 19:1.99444E-6 20:0.0 21:1.99465E-6 
-1.0 -0.0 -0.0 -0.0 -0.0 -0.0 -0.0 -0.0 -0.0 -0.0 -0.0 -0.0 1.0 0.0 0.0 0.0 0.0 0.0 0.0 0.0 0.0 1.0 1.0 0.0 0.0 0.5410499482152117 0.0 0.0 0.0 0.0 1.0 0.0 0.0 0.0 0.0 0.0 0.0 0.0 0.0 0.0 0.0 0.0 0.0 0.0 0.0 0.0 0.0 1:1.0 2:0.1926079 3:0.09740844 4:0.19052067 5:0.00921296 6:0.049741834 7:0.0 8:1.0 9:0.01278619 10:0.009945758 11:0.09286889 12:0.0 13:0.006859959 14:9.05596E-4 15:1.0 16:0.05041409 17:0.002031768 18:2.22561E-4 19:3.34476E-8 20:2.08818E-5 21:0.0 
-1.0 -1.0 -0.0 -0.03901822347456306 -0.0 -1.0 -0.3533802287826715 -1.0 -1.0 -1.0 -0.43670229396337557 -0.16781799471460723 1.0 0.0 0.36657093780148425 0.0 1.0 0.4180416739519577 0.0 0.0 0.0 1.0 1.0 1.0 1.0 1.0 0.0 0.0 1.0 1.0 1.0 1.0 1.0 0.0 0.0 0.0 0.0 1.0 1.0 0.0 0.0 1.0 1.0 0.0 0.0 0.0 0.0 1:1.0 2:0.24563591 3:0.15164389 4:0.24855489 5:0.01899967 6:0.077172734 7:0.0 8:1.0 9:0.007662384 10:0.02469428 11:0.10477096 12:0.0 13:0.006808887 14:0.001960197 15:1.0 16:0.08100445 17:0.002909478 18:3.34141E-4 19:0.0 20:2.15964E-5 21:1.37985E-8 
-0.22592564337033633 -0.010232913683521977 -1.0 -1.0 -0.8388828279860814 -0.11703883481745175 -0.303483027186736 -1.0 -1.0 -1.0 -0.11153278705209452 -0.34831456730619376 -0.19741221481653293 0.9007224404864628 1.0 0.7306016680681964 0.09437486709133648 1.0 0.6657415135679067 1.0 0.9430143314905672 0.17495420277770934 0.20063551299275736 0.7712844613774457 0.2873921893099926 0.0 1.0 0.790063290157692 0.45477374947083704 0.019222849150385784 0.2249770864096784 0.92200688862756 0.0 1.0 1.0 0.27178429209564714 0.5930270150142107 0.05911465354870249 0.09509955077734031 1.0 0.6895783145004322 0.8538415316328267 0.0 0.5730987373714906 1.0 0.7394968350395699 0.0 1:5.3354E-5 2:7.54268E-5 3:5.28956E-4 4:5.3969E-4 5:1.0 6:0.004982673 7:1.82564E-5 8:0.8855473 9:0.88551533 10:0.8871838 11:0.887223 12:0.0 13:0.88544154 14:0.86422545 15:0.050035104 16:0.23750979 17:0.099365205 18:0.09779538 19:1.0 20:0.48367608 21:0.0 
-1.0 -0.0 -0.0 -0.0 -0.0 -0.0 -0.0 -0.0 -0.0 -0.0 -0.0 -0.0 -1.0 0.0 0.0 0.0 0.0 0.0 0.0 0.0 0.0 1.0 1.0 0.0 0.0 0.0 0.0 0.0 0.0 0.0 1.0 0.0 0.0 0.0 0.0 0.0 0.0 0.0 0.0 0.0 0.0 0.0 0.0 0.0 0.0 0.0 0.0 1:1.0 2:0.10321439 3:0.0286891 4:0.12948404 5:0.002530733 6:0.023624826 7:0.0 8:1.0 9:0.043713342 10:0.00180478 11:0.100046284 12:3.8274E-4 13:0.011885574 14:0.0 15:1.0 16:0.005903713 17:7.27609E-4 18:2.02516E-5 19:6.01824E-7 20:0.0 21:6.01743E-7 
-1.0 -0.0 -0.0 -0.0 -0.0 -0.0 -0.0 -0.0 -0.0 -0.0 -0.0 -0.0 -1.0 0.0 0.0 0.0 0.0 0.0 0.0 0.0 0.0 1.0 1.0 0.0 0.0 0.0 0.0 0.0 0.0 0.0 1.0 0.0 0.0 0.0 0.0 0.0 0.0 0.0 0.0 0.0 0.0 0.0 0.0 0.0 0.0 0.0 0.0 1:1.0 2:0.10430159 3:0.02944433 4:0.12177322 5:0.002254365 6:0.02190746 7:0.0 8:1.0 9:0.039494857 10:0.00119418 11:0.0909685 12:2.37003E-4 13:0.010069153 14:0.0 15:1.0 16:0.007255419 17:7.27766E-4 18:1.91678E-5 19:2.51323E-10 20:6.53079E-7 21:0.0 
-1.0 -1.0 -0.41630076265232663 -1.0 -0.5013743950068655 -1.0 -1.0 -1.0 -1.0 -1.0 -1.0 -1.0 -1.0 0.22980509071055086 1.0 0.3218321667125423 1.0 1.0 0.8825243019233258 0.1885282221326869 0.6128038347219527 1.0 1.0 1.0 1.0 1.0 0.17589761506096271 0.20993670984230803 1.0 1.0 1.0 1.0 1.0 0.0 0.3561914885211391 1.0 0.4069729849857893 1.0 1.0 0.296915615848261 0.7098875075838328 1.0 1.0 0.6596154845398386 0.1544562686500651 0.19325166752226303 1.0 1:1.0 2:0.13756989 3:0.0686603 4:0.19445275 5:0.010346671 6:0.04336112 7:0.0 8:1.0 9:0.036290307 10:0.019583901 11:0.13677178 12:0.0 13:0.013399774 14:6.85982E-4 15:1.0 16:0.023174647 17:0.022471713 18:0.027080795 19:1.53688E-4 20:0.001650217 21:0.0 
-1.0 -0.0 -0.0 -0.0 -0.0 -1.0 -0.21012913227544203 -0.7866411916129427 -1.0 -0.5887589013820511 -0.0 -0.0 -1.0 0.0 0.0 0.0 1.0 0.0 0.0 0.0 0.0 1.0 1.0 0.2899337310079565 1.0 1.0 0.0 0.0 1.0 0.0 1.0 1.0 1.0 0.0 0.0 0.0 0.0 0.0 1.0 0.0 0.0 0.056528333755433584 0.0 0.0 0.0 0.0 0.0 1:1.0 2:0.13940139 3:0.05332811 4:0.15679929 5:0.004864227 6:0.034085214 7:0.0 8:1.0 9:0.028317861 10:9.07072E-4 11:0.09899891 12:0.0 13:0.009824548 14:1.75404E-4 15:1.0 16:0.01973647 17:9.41002E-4 18:1.40126E-4 19:0.0 20:3.15187E-6 21:5.17384E-9 
-1.0 -0.0 -0.0 -0.0 -0.0 -0.46833502592944976 -0.0 -0.0 -0.17593040736935328 -0.0 -0.0 -0.0 -1.0 0.0 0.0 0.0 0.0 1.0 0.0 0.0 0.0 1.0 1.0 0.0 0.0 0.0 0.0 0.0 0.0 0.0 1.0 0.07799311137244001 1.0 0.2975869104270394 0.0 0.0 0.0 0.0 0.0 0.0 0.0 0.0 0.0 0.0 0.0 0.0 0.0 1:1.0 2:0.09585469 3:0.031247871 4:0.14579828 5:0.003122977 6:0.02608599 7:0.0 8:1.0 9:0.059133075 10:0.014541902 11:0.12657735 12:0.001288527 13:0.017305568 14:0.0 15:1.0 16:0.010395706 17:0.006399225 18:0.007777547 19:1.42393E-5 20:1.93556E-4 21:0.0 
-1.0 -0.989767086316478 -0.0 -0.18633239727958867 -0.0 -1.0 -1.0 -1.0 -1.0 -1.0 -0.1359881379415643 -0.6121104621843293 -1.0 0.0 0.40441774546020637 0.0 1.0 0.2804732589412386 0.0 0.0 0.0 1.0 1.0 1.0 1.0 1.0 0.0 0.0 1.0 0.9807771508496141 1.0 1.0 1.0 0.0 0.0 0.7282157079043529 0.0 0.9408853464512975 1.0 0.0 0.0 1.0 0.0 0.0 0.0 0.0 0.0 1:1.0 2:0.14813347 3:0.05986085 4:0.15705946 5:0.005090877 6:0.03497344 7:0.0 8:1.0 9:0.023571758 10:0.001920387 11:0.09312136 12:0.0 13:0.008501869 14:3.11166E-4 15:1.0 16:0.025194984 17:0.00115996 18:5.34226E-5 19:1.3188E-6 20:0.0 21:1.32172E-6 
-1.0 -0.0 -0.0 -0.0 -0.0 -1.0 -0.0 -0.0 -0.8240695926306467 -0.0 -0.0 -0.0 -1.0 0.0 0.0 0.0 0.3182914433335002 0.0 0.0 0.0 0.0 1.0 1.0 0.0 0.026054356171750354 1.0 0.0 0.0 0.632875540795822 0.0 1.0 1.0 1.0 0.0 0.0 0.0 0.0 0.0 0.9049004492226597 0.0 0.0 0.0 0.0 0.0 0.0 0.0 0.0 1:1.0 2:0.13520455 3:0.050262112 4:0.14877652 5:0.004244326 6:0.03146129 7:0.0 8:1.0 9:0.028215984 10:9.20124E-4 11:0.09449452 12:0.0 13:0.00922948 14:1.33124E-4 15:1.0 16:0.018723343 17:0.001168176 18:4.27974E-5 19:1.16747E-6 20:0.0 21:1.1697E-6 
-0.0 -0.0 -1.0 -1.0 -1.0 -0.0 -0.0 -1.0 -0.0 -1.0 -0.0 -0.0 -0.0 -0.0 0.0 1.0 0.0 0.0 1.0 1.0 1.0 0.0 0.0 0.9519596825364931 0.019342399464811085 0.0 1.0 0.0 0.16188351490109099 0.0 0.0 0.0 0.0 1.0 1.0 0.0 0.0 0.0 0.0 0.0 0.8232811015347956 0.0 0.0 0.0 1.0 0.3377071521227269 0.0 1:0.003626264 2:0.00789721 3:0.034570646 4:0.036967196 5:1.0 6:0.087516814 7:0.0 8:0.8573787 9:0.82107383 10:0.9249615 11:0.93665993 12:0.0 13:0.82013905 14:0.80960226 15:0.89209473 16:1.0 17:0.14647034 18:0.13169044 19:0.02578852 20:0.15679048 21:0.0 
-0.0 -0.0 -1.0 -1.0 -0.0 -0.0 -0.24391906670820787 -1.0 -0.9522871226385481 -1.0 -0.0 -0.0 -0.0 -0.3790098809906064 1.0 1.0 0.0 0.5224820711145655 0.0 1.0 0.07511772207075486 0.0 0.0 1.0 0.0 0.0 1.0 0.4888450686432948 0.0 0.0 0.0 0.09778825466730987 0.0 0.9895592603389781 1.0 0.5853817335591707 0.0 0.0 0.0 1.0 0.0 0.21990943203747734 0.0 0.0 0.0 0.0 0.0 1:0.004243579 2:0.008269144 3:0.032846108 4:0.03571863 5:1.0 6:0.08511766 7:3.60456E-4 8:0.8368619 9:0.8063628 10:0.89835376 11:0.91148084 12:0.0 13:0.8060324 14:0.7896663 15:0.88733536 16:1.0 17:0.26676774 18:0.21570109 19:0.07676705 20:0.2598723 21:0.0 
-0.3114560708235857 -0.3172741114293502 -1.0 -1.0 -1.0 -0.35038946513310426 -0.3863679842387201 -0.577622584430046 -0.0 -1.0 -0.4162438414886934 -0.8419221933387459 -0.3145006417758623 -0.0 0.07892955346185873 1.0 0.3667528475745224 0.0 1.0 1.0 1.0 0.3289897124032504 0.3158311392326129 1.0 1.0 0.3138588699688378 1.0 0.0 1.0 0.320992878189601 0.31635840043039815 0.0 0.31496601552514847 1.0 1.0 0.0 1.0 0.32850659795659937 0.3432080819749175 0.0 1.0 1.0 0.313599271057823 1.0 0.0 0.0 0.3163583988498887 1:0.003971362 2:0.00869396 3:0.037480082 4:0.040027034 5:1.0 6:0.092525125 7:0.0 8:0.8482956 9:0.80733126 10:0.92131954 11:0.93082243 12:0.0 13:0.8043022 14:0.7774466 15:0.90952265 16:1.0 17:0.16155604 18:0.15747452 19:0.034174193 20:0.18322511 21:0.0 
-0.0 -0.0 -0.46579315556280276 -0.21804568365475085 -0.0 -0.0 -0.0 -1.0 -0.4826443121274878 -0.48899254860938024 -0.0 -0.0 -0.0 -0.7515176502064073 1.0 1.0 0.0 0.7005466003284168 0.0 1.0 1.0 0.0 0.0 0.0 0.0 0.0 1.0 0.5111549313567052 0.0 0.0 0.0 0.7280036180517145 0.0 1.0 1.0 0.0 0.0 0.0 0.0 1.0 0.0 0.15909304027021148 0.0 0.0 1.0 0.6622928478772732 0.0 1:6.62616E-4 2:0.002245648 3:0.014421055 4:0.015238324 5:1.0 6:0.04862699 7:9.83385E-5 8:0.90778184 9:0.898099 10:0.9461435 11:0.9516972 12:0.0 13:0.8985005 14:0.86457944 15:0.6647489 16:1.0 17:0.09660704 18:0.08208793 19:0.018658482 20:0.12944299 21:0.0 
-0.1023807778277001 -0.0944975658737342 -1.0 -1.0 -1.0 -0.17387107921949663 -0.4200901955562532 -1.0 -0.6197259136871281 -1.0 -0.1773909083580254 -0.49136804820773133 -0.10864493968781722 -0.23083488964176657 -1.0 1.0 0.18049029731124805 0.8910186030914228 1.0 1.0 1.0 0.14167151413177384 0.11078241516990793 1.0 0.6866946190457053 0.10358179238484173 1.0 0.7985523670939495 0.8471680186896121 0.1251847580290086 0.11499133898622121 0.31484150729447596 0.11142654315385137 1.0 1.0 0.13377100033106207 0.5392546529272095 0.14235325426170442 0.1696568938263099 1.0 1.0 1.0 0.0 0.7274823746619279 1.0 0.9051685171877107 0.0 1:9.29507E-5 2:1.33745E-4 3:8.73651E-4 4:8.93512E-4 5:1.0 6:0.006934081 7:6.70445E-5 8:0.99153656 9:0.9914522 10:0.99442714 11:0.9946207 12:0.0 13:0.9915469 14:0.98599976 15:0.24236083 16:1.0 17:0.014596379 18:0.004669173 19:8.21286E-4 20:0.01595342 21:0.0 
-0.2521947133101365 -0.23687323020064022 -0.0 -0.0 -0.0 -0.3017985064672955 -0.5286557182272426 -1.0 -0.07801658893695532 -0.9719478476764527 -0.2151643329507235 -0.3569082536895121 -0.25792599811366707 -0.21608672742367582 -0.0 0.0 0.29982842533265835 0.6315164394751975 0.08840943977688648 0.0 0.0 0.28069234002648397 0.2604080985977756 0.0 0.369641976770143 0.2503921065382666 0.0 0.0 0.30074935696680916 0.27350863681447585 0.26579799589518066 0.5053397296865733 0.261811498559842 0.37716386683404446 0.0 0.17820989994654 0.0 0.2777446497382317 0.2895776814614565 0.0 0.19475040548940956 0.2231287052335663 0.011262723887476057 0.17811407993286843 0.0 0.0 0.00793284629464894 1:0.106224805 2:0.12760851 3:0.23638114 4:0.1788984 5:1.0 6:0.21968716 7:0.003284571 8:0.16250324 9:0.15905146 10:0.20944153 11:0.20790285 12:1.0 13:0.18195105 14:0.21161036 15:4.57616E-4 16:0.0 17:0.05508397 18:0.054758843 19:1.0 20:0.05307263 21:1.93492E-4 
-1.0 -1.0 -0.5568185548503003 -1.0 -0.5213088229524487 -1.0 -1.0 -1.0 -1.0 -1.0 -1.0 -1.0 -1.0 -1.0 -0.28113746075324136 0.4834017472162477 1.0 1.0 1.0 0.13205467658599193 1.0 1.0 1.0 1.0 1.0 1.0 0.18722097334845444 0.10291179627260229 1.0 1.0 1.0 1.0 1.0 0.04236394613506731 0.4228356603709527 1.0 0.34081173082253907 1.0 1.0 0.020486797517576587 1.0 1.0 0.9766341304148716 1.0 0.07435260611149253 0.0948314828122893 0.9815778023752755 1:1.0 2:0.4218274 3:0.4196107 4:0.5729976 5:0.16562222 6:0.28294694 7:0.0 8:1.0 9:0.01627704 10:0.10642168 11:0.21033432 12:0.0 13:0.020129513 14:0.015647162 15:1.0 16:0.17145297 17:0.010486521 18:0.004029969 19:1.11012E-5 20:9.41504E-4 21:0.0 
-0.0 -0.030219311220563434 -1.0 -1.0 -0.47869117704755126 -0.0 -0.0 -1.0 -0.7649541903256445 -1.0 -0.0 -0.0 -0.0 -0.957496128394764 -0.7977920927086174 0.47237129248080895 0.0 1.0 0.2693626427360254 1.0 0.809566131918815 0.0 0.0 0.8177943419626909 0.0 0.0 1.0 0.0985358366334482 0.009481491826194665 0.0 0.0 0.6086123785746069 0.0 1.0 0.9601567548338926 0.34227696078792486 0.11993361625025138 0.0 0.0 0.9795132024824235 0.2542399832434705 0.09503300516871352 0.01210314569765245 0.0 0.9256473938885075 0.0 0.01048935133007558 1:3.1954E-4 2:0.001599035 3:0.010252981 4:0.010914261 5:1.0 6:0.040303387 7:3.66687E-4 8:0.76245254 9:0.7580501 10:0.7939488 11:0.79126287 12:0.0 13:0.7529411 14:0.591077 15:0.17480704 16:0.3404414 17:0.33000293 18:0.2827287 19:1.0 20:0.55835027 21:0.0 
-0.3515592795985923 -0.3598385529762049 -1.0 -1.0 -1.0 -0.41373926526112814 -0.6602627347255936 -1.0 -1.0 -1.0 -0.5145065742786034 -1.0 -0.3558999613527845 -1.0 -0.0 -1.0 0.43294093235985354 1.0 1.0 0.0 1.0 0.38102022853697026 0.3583651426759129 1.0 1.0 0.3551489856830255 1.0 0.0 1.0 0.367197588738437 0.35895388584057897 0.9146037504293899 0.35679644328258836 0.0 1.0 0.6579005216873791 1.0 0.3802442752949037 0.4011312461335417 0.0 1.0 1.0 0.35491105067546824 1.0 0.0 0.0 0.35919762893761176 1:0.018726299 2:0.029897291 3:0.09931403 4:0.10684216 5:1.0 6:0.1764426 7:0.0 8:0.9032182 9:0.7085032 10:0.96856195 11:1.0 12:0.0 13:0.7035658 14:0.7021568 15:1.0 16:0.7755188 17:0.016881699 18:0.00308405 19:0.00108073 20:0.0 21:0.001074556 
-0.0 -0.0 -1.0 -1.0 -1.0 -0.0 -0.0 -1.0 -0.04427230292614045 -1.0 -0.0 -0.0 -0.0 -0.05243383478073871 -1.0 -0.9557730396970567 0.0 0.10361759373982783 1.0 0.7379426817977097 1.0 0.0 0.0 1.0 0.4550317477368225 0.0 1.0 0.0 0.38484976432598 0.0 0.0 0.0 0.0 0.0 0.0 0.0 0.0 0.0 0.0 0.0 1.0 0.4925577128928117 0.0 0.1645260805620782 0.0 0.0 0.0 1:0.015915351 2:0.026463266 3:0.09108918 4:0.09742206 5:1.0 6:0.16625756 7:0.0 8:0.9001753 9:0.7281103 10:0.97987646 11:1.0 12:0.0 13:0.7215204 14:0.69863474 15:1.0 16:0.8092894 17:6.39283E-4 18:6.8671E-5 19:3.3963E-7 20:0.0 21:3.22342E-7 
-0.0 -0.0 -0.3829761189319819 -0.33057064955413373 -0.0 -0.0 -0.0 -0.0 -0.0 -1.0 -0.0 -0.0 -0.0 -0.0 -1.0 -0.0 0.0 0.0 0.0 1.0 1.0 0.0 0.0 1.0 0.0 0.0 1.0 0.0 0.0 0.0 0.0 0.0 0.0 1.0 1.0 0.0 0.0 0.0 0.0 0.723993314422204 0.328067231419562 0.0 0.0 0.0 0.0 0.0 0.0 1:0.007894376 2:0.015330584 3:0.06126199 4:0.06641687 5:1.0 6:0.12878647 7:0.0 8:0.8921187 9:0.79369134 10:0.9681171 11:1.0 12:0.0 13:0.7950898 14:0.7347769 15:1.0 16:0.88882303 17:0.009907343 18:0.006068085 19:4.50483E-5 20:0.005452623 21:0.0 
-0.0 -0.0 -0.0 -0.0 -0.0 -0.0 -0.0 -0.22845019816710732 -0.0 -0.0 -0.0 -0.0 -0.0 -0.0 -1.0 -0.0 0.0 0.0 0.0 1.0 0.0 0.0 0.0 0.0 0.0 0.0 1.0 0.0 0.0 0.0 0.0 0.0 0.0 1.0 1.0 0.0 0.0 0.0 0.0 0.032447079769419684 0.0 0.0 0.0 0.0 1.0 0.7109237136244454 0.0 1:0.005175892 2:0.010807045 3:0.046508025 4:0.049390648 5:1.0 6:0.10573939 7:0.0 8:0.9035068 9:0.83855057 10:0.9825368 11:1.0 12:0.0 13:0.83738995 14:0.83679396 15:0.9892164 16:1.0 17:0.023292745 18:0.004653869 19:0.002388267 20:0.0 21:0.002407307 
-0.0 -0.0 -1.0 -1.0 -0.0 -0.0 -0.0 -1.0 -0.43034796264939246 -0.7955216151081261 -0.0 -0.0 -0.0 -0.0 -1.0 -0.0 0.0 0.0 0.0 1.0 0.363717855316551 0.0 0.0 0.37660556996041633 0.0 0.0 1.0 1.0 0.0 0.0 0.0 0.0 0.0 1.0 1.0 0.0 0.0 0.0 0.0 1.0 0.0 0.0 0.0 0.0 1.0 0.2890762863755546 0.0 1:0.00407055 2:0.009334827 3:0.042157542 4:0.04560228 5:1.0 6:0.10070613 7:0.0 8:0.90452737 9:0.84879065 10:0.9800233 11:1.0 12:0.0 13:0.8485414 14:0.78096515 15:0.98235273 16:1.0 17:0.064585894 18:0.06035881 19:0.004492087 20:0.06616304 21:0.0 
-1.0 -1.0 -0.0 -0.5250568143210644 -0.0 -1.0 -1.0 -1.0 -1.0 -1.0 -0.0 -0.0 -1.0 -1.0 -0.0 -0.658586022335535 -0.0 1.0 0.0 0.0 0.0 1.0 1.0 0.3997606577443735 1.0 1.0 0.0 0.0 1.0 1.0 1.0 1.0 1.0 0.0 0.0 1.0 0.0 0.0 1.0 0.0 0.0 0.0 1.0 0.0 0.0 0.0 1.0 1:1.0 2:0.3333083 3:0.2660512 4:0.3655894 5:0.053134523 6:0.14317907 7:0.0 8:1.0 9:0.005903978 10:0.06557971 11:0.13126758 12:0.0 13:0.007491306 14:0.004837361 15:1.0 16:0.1360827 17:0.008804241 18:0.001981873 19:2.87385E-6 20:2.09542E-4 21:0.0 
-1.0 -1.0 -0.0 -0.0 -0.0 -1.0 -0.45402303154668033 -0.5314401326325986 -1.0 -1.0 -0.5016020384692371 -0.8970507962413977 -1.0 -1.0 -0.0 -0.0 -0.0 1.0 0.0 0.0 0.0 1.0 1.0 1.0 1.0 1.0 0.0 0.0 1.0 1.0 1.0 1.0 1.0 0.0 0.0 0.46466781428210246 0.0 0.5340907952596939 1.0 0.0 0.0 0.3423340511467473 0.0 0.0 0.0 0.0 0.0 1:1.0 2:0.35593653 3:0.30145335 4:0.4031365 5:0.06901703 6:0.1667674 7:0.0 8:1.0 9:0.006872636 10:0.079151206 11:0.14172898 12:0.0 13:0.008273513 14:0.006078987 15:1.0 16:0.14977252 17:0.011803149 18:0.003352025 19:6.95143E-6 20:5.27627E-4 21:0.0 
-1.0 -0.0 -0.0 -0.0 -0.0 -1.0 -0.0 -0.8841706939795404 -1.0 -0.02902404563481861 -1.0 -1.0 -1.0 -1.0 -0.0 -0.0 -0.0 0.23147300257038644 0.657260901395637 0.0 0.37740047340486926 1.0 1.0 1.0 1.0 1.0 0.0 0.0 1.0 0.0 1.0 1.0 1.0 0.0 0.0 0.0 0.0 1.0 1.0 0.0 0.3407478578445668 1.0 0.0 0.2948070094803482 0.0 0.0 0.0 1:1.0 2:0.38632968 3:0.37722903 4:0.5193282 5:0.14249036 6:0.2388771 7:0.0 8:1.0 9:0.013890744 10:0.11363214 11:0.20070633 12:0.0 13:0.01609271 14:0.014061616 15:1.0 16:0.15838002 17:0.040879097 18:0.026080146 19:2.68288E-4 20:0.005748641 21:0.0 
-0.7609724871735382 -0.0 -0.6442127483508108 -0.9174854781296321 -0.7286709109107748 -1.0 -1.0 -1.0 -1.0 -1.0 -1.0 -1.0 -1.0 -0.4126663104248366 -0.3667528475745224 -0.8217327003083713 -0.43294093235985354 0.0 1.0 0.33585180709533663 1.0 1.0 0.9972642371454583 1.0 1.0 0.5778388057488208 0.38455337556095665 0.34568879916056533 1.0 0.0 1.0 1.0 0.9383933332046145 0.3067462897051901 0.5950634389631067 0.5353321857178975 0.6300429013081779 0.4659092047403058 1.0 0.32164287386032026 1.0 1.0 0.0 1.0 0.29519735043286705 0.32255445735191113 0.0 1:0.9100887 2:0.46846905 3:0.57474613 4:0.748755 5:0.45168743 6:0.445307 7:0.0 8:1.0 9:0.04204973 10:0.24351878 11:0.33185923 12:0.0 13:0.041073065 14:0.034031495 15:1.0 16:0.22833942 17:0.09598338 18:0.07134317 19:0.002516128 20:0.020813443 21:0.0 
-1.0 -0.9812145341330757 -0.0 -1.0 -0.5211605141380867 -1.0 -1.0 -1.0 -1.0 -1.0 -1.0 -1.0 -1.0 -1.0 -0.25525411132327314 -1.0 -0.3413610711017164 -1.0 1.0 0.18818608996800307 0.6879955176485609 1.0 1.0 1.0 1.0 1.0 0.17408607030872061 0.21084583860821432 1.0 1.0 1.0 1.0 1.0 0.0 0.35579159990294695 1.0 0.4100523056467759 1.0 1.0 0.2098202301868882 0.780473391020617 1.0 0.9993655169469065 0.7349604221812962 0.1625196961057617 0.20744576987739208 0.9971405647670876 1:1.0 2:0.2347596 3:0.14081326 4:0.2491627 5:0.018575294 6:0.07620779 7:0.0 8:1.0 9:0.009643755 10:0.019569647 11:0.11103426 12:0.0 13:0.007948142 14:0.001898912 15:1.0 16:0.07186274 17:0.001063782 18:9.4412E-5 19:9.15595E-9 20:7.34117E-6 21:0.0 
-0.0 -0.0 -1.0 -1.0 -0.8850156885476428 -0.0 -0.3673026781161142 -1.0 -1.0 -1.0 -0.12097490226144127 -0.32834995755382196 -0.0 -0.5426067407154067 -0.9677745601197091 -1.0 -0.7622565226381114 -0.1481670429860386 0.6867993584186647 1.0 1.0 0.0 0.0 0.8663742509706394 0.38711112496937394 0.0 1.0 0.7891541613917856 0.4880030264160796 0.01782781250800473 0.0 0.1732183700879807 0.0 1.0 1.0 0.27192552958471233 0.5899476943532241 0.04823164443463243 0.0 1.0 0.7231849499124214 0.984057536433621 6.344830530936041E-4 0.5868560531316999 1.0 0.7800424471227042 0.0028594352329123383 1:2.21515E-4 2:2.50361E-4 3:8.0296E-4 4:8.25635E-4 5:1.0 6:0.005907216 7:1.90719E-4 8:0.89861375 9:0.8985682 10:0.9005372 11:0.9007186 12:0.0 13:0.8986844 14:0.8771344 15:0.06666779 16:0.33148843 17:0.13544072 18:0.111238845 19:1.0 20:0.5507721 21:0.0 
-1.0 -1.0 -0.4270212481771386 -0.2268410623663634 -0.0 -1.0 -1.0 -1.0 -1.0 -1.0 -0.31120489622268255 -0.910351415087066 -1.0 -1.0 -0.0 -0.5225350425666204 -0.0 -1.0 0.019723480358772274 0.0 0.0 1.0 1.0 1.0 1.0 1.0 0.0 0.0 1.0 0.9821721874919952 1.0 1.0 1.0 0.2944975785898711 0.0 0.7280744704152877 0.0 0.9517683555653677 1.0 0.0 0.0 1.0 0.0 0.0 0.0 0.0 0.0 1:1.0 2:0.21133944 3:0.122450605 4:0.24267173 5:0.016417777 6:0.07050229 7:0.0 8:1.0 9:0.015007639 10:0.015867952 11:0.12108515 12:0.0 13:0.010394726 14:0.001499815 15:1.0 16:0.054308593 17:0.008509928 18:7.46607E-4 19:4.30503E-7 20:3.2083E-5 21:0.0 
-0.25963914017391654 -0.018785465866924266 -0.3033401230420859 -0.0 -0.0 -0.3030729001579108 -0.0 -1.0 -0.2507532871163567 -1.0 -0.0 -0.0 -0.2618794555404045 -0.7378665182258318 -0.0 -1.0 -0.0 -0.08330595958434783 0.0 0.11427703416467724 0.0 0.26688294321482514 0.26317375268353915 0.0 0.05617342399360766 0.2672582484983774 0.2661739848249007 0.0 0.18536502000600005 0.0 0.2746813890627321 1.0 0.26814051068003836 1.0 0.22015911806629698 0.0 0.0 0.0 0.284776915129807 0.672124720506401 0.0 0.0 0.0 0.0 0.07095801345048995 0.0 0.0 1:0.001325205 2:0.001333992 3:0.001555662 4:0.001564995 5:1.0 6:0.004398086 7:0.001007821 8:0.8725595 9:0.87255025 10:0.8733181 11:0.87337226 12:0.0 13:0.87256235 14:0.8448108 15:0.0 16:0.03323521 17:0.027819 18:0.023954455 19:1.0 20:0.1873241 21:0.014025538 
-0.1591213974684042 -0.16802742892779715 -1.0 -1.0 -1.0 -0.0 -0.0 -1.0 -1.0 -1.0 -0.0 -0.1845619284550001 -0.16638961557979168 -0.8855898814227277 -1.0 -1.0 -1.0 -0.0 -0.9090468033693894 1.0 1.0 0.0 0.17472121014243935 1.0 0.9201468095715525 0.14986275184078265 1.0 1.0 0.8845777544125962 0.0 0.10505431274425482 0.4037679354423553 0.17825056061635924 1.0 1.0 0.22390799232955164 0.6181746173756303 0.0 0.0 1.0 1.0 0.7911687706795213 0.13473055348221732 0.2420340339585231 1.0 1.0 0.12330875894789846 1:0.035762865 2:0.048939764 3:0.13586102 4:0.15162063 5:1.0 6:0.22230515 7:0.0 8:0.9164497 9:0.63576573 10:0.9279408 11:1.0 12:0.0 13:0.6374648 14:0.72855675 15:1.0 16:0.66054976 17:0.035865985 18:0.03556257 19:0.001005757 20:0.025949843 21:0.0 
-0.9317337413039495 -0.9470910098917922 -0.17154377997321024 -0.7327752205085384 -0.0 -1.0 -1.0 -1.0 -0.7627506393839945 -1.0 -1.0 -1.0 -1.0 -0.6626759340685048 -0.0 -0.6016959484522522 -0.0 -1.0 -0.7974760354080476 0.0 0.9295487211050991 1.0 1.0 1.0 1.0 0.9666465293265576 0.0 0.0 1.0 1.0 1.0 1.0 1.0 0.0 0.01817169093960315 1.0 0.024181016450500158 1.0 1.0 0.0 1.0 1.0 0.8652694465177826 0.7579659660414769 0.0 0.0 0.8766912410521016 1:0.98268265 2:0.5716956 3:0.7499549 4:0.96552646 5:0.6258474 6:0.63645554 7:0.0 8:1.0 9:0.053193733 10:0.20992543 11:0.35658655 12:0.0 13:0.06070627 14:0.066402614 15:1.0 16:0.24622735 17:3.64117E-4 18:0.001333016 19:1.38183E-7 20:3.99596E-4 21:0.0 
-0.0 -0.0 -1.0 -1.0 -1.0 -0.6390884145663774 -0.8092207571856731 -1.0 -0.4053267986586469 -1.0 -1.0 -1.0 -0.0 -0.0 -1.0 -0.7560761340606595 -1.0 -0.657260901395637 -0.0 0.7143656729824703 1.0 0.5098960331279672 0.0 1.0 1.0 0.0 1.0 0.0 1.0 0.3133912506303569 0.11561955874202613 0.4147921141734099 0.002767083531399102 0.3527684441560448 1.0 0.37591861605787863 0.3576443661738695 0.46547158327265303 0.4688062508771443 0.4079218524954433 1.0 1.0 0.0 1.0 0.26685637918122246 0.0 0.0 1:0.13716288 2:0.14141767 3:0.30228934 4:0.34763968 5:1.0 6:0.3848656 7:0.0 8:1.0 9:0.3688791 10:0.7316191 11:0.85306734 12:0.0 13:0.37182438 14:0.4365826 15:1.0 16:0.481386 17:0.015070606 18:0.017412279 19:1.69024E-4 20:0.009519 21:0.0 
-0.0 -0.0 -0.0 -0.0 -0.0 -0.0 -0.0 -1.0 -0.0 -0.0 -0.0 -0.0 -0.0 -0.0 -1.0 -0.0 -0.7379426817977097 -0.0 -0.0 -0.0 0.2154213961459997 0.0 0.0 0.0 0.0 0.0 1.0 0.0 0.0 0.0 0.0 0.0 0.0 1.0 1.0 0.0 0.0 0.0 0.0 0.0 0.0 0.0 0.0 0.0 0.12244014954860243 0.1125588234110515 0.0 1:6.32647E-5 2:6.62247E-5 3:1.68221E-4 4:1.69813E-4 5:1.0 6:0.00184455 7:6.57133E-5 8:0.9949514 9:0.99494845 10:0.995351 11:0.99537253 12:0.0 13:0.9949874 14:0.9933521 15:0.12231685 16:1.0 17:5.42227E-4 18:9.15352E-4 19:4.20028E-5 20:0.007615224 21:0.0 
-0.24245213761580825 -0.25039241014934177 -1.0 -1.0 -1.0 -0.3154362072345094 -0.23996109069761384 -0.0 -0.1766110735727163 -1.0 -0.38451330634796876 -0.7509512374229522 -0.24847005526120153 -0.0 -1.0 -0.21888472673858542 -1.0 -0.32448417167846005 -0.0 -1.0 1.0 0.2833573348548516 0.2507743738431742 1.0 1.0 0.24671260508195986 1.0 0.5647949688686538 1.0 0.2615959831785761 0.24983969150584434 0.0 0.24904617941953922 1.0 1.0 0.3676392958340132 1.0 0.2845790903677291 0.300542474053489 0.3927598057211564 1.0 0.7702759795864049 0.24634987327179975 1.0 0.0 0.82951616709616 0.25148522941106327 1:0.001465237 2:0.005396274 3:0.03129402 4:0.0347378 5:1.0 6:0.08429445 7:0.0 8:0.91452223 9:0.87623775 10:0.9723205 11:1.0 12:0.0 13:0.8806294 14:0.866024 15:0.9444084 16:1.0 17:0.12034822 18:0.028017554 19:3.13683E-4 20:0.018722592 21:0.0 
-0.0 -0.0 -1.0 -1.0 -0.6759783475735286 -0.0 -0.0 -0.8031333477893974 -0.0 -1.0 -0.0 -0.0 -0.0 -0.0 -1.0 -0.0 -1.0 -0.0 -0.0 -0.39952597662905986 1.0 0.0 0.0 0.4159334355478165 0.0 0.0 1.0 0.0 0.0 0.0 0.0 0.0 0.0 1.0 1.0 0.0 0.0 0.0 0.0 0.14366740765211922 0.0 0.0 0.0 0.0 0.2566008340609017 0.05792500949278852 0.0 1:5.55523E-4 2:0.001489024 3:0.009668008 4:0.010354368 5:1.0 6:0.03696556 7:4.7512E-4 8:0.9665479 9:0.96121246 10:0.9929201 11:1.0 12:0.0 13:0.9627551 14:0.9633827 15:0.6062382 16:1.0 17:0.084717445 18:0.023744099 19:0.014563508 20:0.0 21:0.015102047 
-0.04638066455548086 -0.04375327587278231 -0.9023851244784822 -1.0 -0.32402165242647135 -0.00847675340727344 -0.33136113552045243 -1.0 -1.0 -1.0 -0.0 -0.0 -0.04284492877260398 -1.0 -1.0 -1.0 -1.0 -0.011367635416876569 -1.0 -0.3148396963534105 0.7845786038540004 0.02047106094370153 0.041601974075244706 1.0 0.0 0.044128180458404366 1.0 0.4352050311313462 0.07836857287249552 0.03547767665900522 0.04300679107497707 0.8206609443083562 0.04260205492986256 1.0 1.0 0.13066834128939728 0.0 0.01870728261916551 0.016361537011999095 1.0 0.5102280498972823 0.5502403245084663 0.04414473649708882 0.0 0.6455451582011714 0.0 0.04134684792044641 1:3.29953E-4 2:6.87376E-4 3:0.004481245 4:0.004622248 5:1.0 6:0.021486409 7:2.21576E-4 8:0.8899068 9:0.888678 10:0.9034406 11:0.90396255 12:0.0 13:0.8881735 14:0.8579837 15:0.42245534 16:1.0 17:0.17534286 18:0.17450847 19:0.18282725 20:0.42756116 21:0.0 
-0.0 -0.0 -0.0 -0.0 -0.0 -0.0 -0.0 -1.0 -0.17467786001797977 -0.0 -0.0 -0.0 -0.0 -0.1885282221326869 -0.0 -0.9131699498474065 -0.0 -0.0 -0.3024631241326803 -0.0 0.0 0.0 0.0 0.0 0.0 0.0 1.0 0.0 0.0 0.0 0.0 0.12179019151878284 0.0 1.0 0.0 0.0 0.0 0.0 0.0 0.46357278662672446 0.0 0.0 0.0 0.0 0.9754138581893246 0.0 0.0 1:3.232E-5 2:3.29406E-5 3:6.443E-5 4:6.47448E-5 5:1.0 6:8.38484E-4 7:3.45433E-5 8:0.9913783 9:0.9913779 10:0.99150246 11:0.9915063 12:0.0 13:0.99138665 14:0.99050236 15:0.081545696 16:1.0 17:0.00432054 18:0.004021897 19:0.002564761 20:0.045959406 21:0.0 
-0.5338452804454351 -0.5621175349531936 -0.45688365874695974 -0.9353500566935412 -0.0132092282311861 -1.0 -1.0 -1.0 -0.6069184611261651 -1.0 -1.0 -1.0 -0.61581145474543 -0.3638395023888538 -0.07511772207075486 -0.9304506724135678 -0.3637178553165511 -1.0 -0.4805541075526061 -1.0 -0.0 1.0 0.6439655209938131 1.0 1.0 0.5955201363327944 0.06185716804684534 0.0 1.0 0.7628011513455202 0.6627448367691166 0.7776995358638575 0.6313263045964976 0.0 0.3227755700026478 0.7081668440415392 0.0 1.0 1.0 0.0 1.0 1.0 0.5843425728387238 0.9491769477801604 0.0 0.0 0.649841097383302 1:0.7570886 2:0.50868 3:0.77484536 4:0.9866443 5:0.9762132 6:0.74755013 7:0.0 8:1.0 9:0.102747776 10:0.29134157 11:0.4862348 12:0.0 13:0.11919146 14:0.10197333 15:1.0 16:0.27838182 17:0.018463602 18:0.002130269 19:2.07352E-4 20:0.0 21:2.1195E-4 
-0.21909182170750532 -0.23256369667006005 -1.0 -1.0 -1.0 -0.37279698624028923 -0.37614517980505635 -1.0 -0.3145927379702376 -1.0 -0.9356461192708727 -1.0 -0.20604612305416453 -0.4803351228733688 -1.0 -0.27829811940501464 -1.0 -0.37740047340486926 -0.37429463098166327 -1.0 -1.0 0.24825903358079965 0.20682485403925924 1.0 1.0 0.2103143177296616 1.0 0.164686112244224 1.0 0.20753965318814951 0.2027978254386959 0.6210693703727449 0.20440984310188773 0.8642815098721653 1.0 0.5999862071638903 0.8245324112319722 0.20479120726635378 0.22038388163188716 0.31907776443439195 1.0 0.8361856050765175 0.21334446215255698 1.0 0.0 0.1516744462280906 0.20792718890994624 1:0.10585112 2:0.108157 3:0.2433042 4:0.29970324 5:1.0 6:0.3414342 7:0.0 8:0.9830309 9:0.43507424 10:0.6886457 11:0.9453479 12:0.0 13:0.46688968 14:0.47861683 15:1.0 16:0.43063065 17:0.061174855 18:0.013933035 19:2.80624E-4 20:0.0 21:3.09013E-4 
-0.0 -0.0 -1.0 -1.0 -0.2796868630743169 -0.0 -0.12748175238768705 -1.0 -1.0 -1.0 -0.0 -0.0 -0.0 -0.711643540950297 -1.0 -1.0 -1.0 -0.0 -0.8331467791142916 -0.9295487211050991 -1.0 0.0 0.0 1.0 0.4816142898859861 0.0 1.0 0.835313887755776 0.47980907474658196 0.0 0.0 0.3061205831419082 0.0 1.0 1.0 0.0 0.17546758876802787 0.0 0.0 1.0 1.0 0.6265551176295966 0.0 0.050823052219839696 1.0 0.0 0.0 1:0.001056763 2:0.001582954 3:0.006771542 4:0.007093629 5:1.0 6:0.027472798 7:7.83884E-4 8:0.935198 9:0.9329363 10:0.9524819 11:0.9557981 12:0.0 13:0.9342356 14:0.9285647 15:0.49857378 16:1.0 17:0.054554235 18:0.043648623 19:0.009489966 20:0.08927438 21:0.0 
-0.0 -0.0 -0.9513054878276829 -1.0 -0.707103908694497 -0.0 -0.0 -1.0 -0.0 -1.0 -0.0 -0.0 -0.0 -0.0 -1.0 -0.6008173401002328 -1.0 -0.0 -0.0 -0.0 -1.0 0.0 0.0 1.0 0.0 0.0 1.0 0.0 0.0 0.0 0.0 0.0 0.0 1.0 1.0 0.0 0.0 0.0 0.0 0.6809222355656079 0.3739584570724214 0.0 0.0 0.0 1.0 0.8483255537719093 0.0 1:0.001341379 2:0.002024639 3:0.008427994 4:0.008810435 5:1.0 6:0.03180126 7:0.001036446 8:0.96414614 9:0.9607641 10:0.9859769 11:0.9900658 12:0.0 13:0.9622042 14:0.9664602 15:0.53475034 16:1.0 17:0.007153559 18:0.005156477 19:1.07807E-4 20:0.009596781 21:0.0 
-0.0 -0.0 -0.5002206336060865 -1.0 -0.5909678065345328 -1.0 -1.0 -1.0 -0.0 -1.0 -1.0 -1.0 -0.0 -0.0 -0.27316880259233783 -1.0 -0.37666757175430143 -1.0 -0.0 -1.0 -0.25690846442750864 -1.0 0.0 1.0 1.0 0.0 0.27316714081501636 0.23718932979988622 1.0 0.006923285278912705 0.9820395135039467 0.24522465097570384 0.0 0.16004666979140064 0.49982383963978194 0.5846323187708008 0.5293747989555915 0.946643496396269 1.0 0.1840054505462699 1.0 1.0 0.0 1.0 0.1933225284509329 0.24159280278462106 0.018317828108503968 1:1.0 2:0.4272438 3:0.44538778 4:0.61767817 5:0.19568968 6:0.3133147 7:0.0 8:1.0 9:0.020539293 10:0.12020732 11:0.23328833 12:0.0 13:0.025431462 14:0.019414848 15:1.0 16:0.170845 17:0.024702791 18:0.00128764 19:0.0 20:1.05152E-4 21:1.13575E-6 
-0.6914806698752406 -0.0 -0.0 -0.12305416633163223 -0.0 -0.0 -1.0 -1.0 -0.0 -0.8920672462107941 -1.0 -1.0 -0.0 -0.0 -0.0 -0.11182149660656587 -0.0 -1.0 -0.0 -0.5098960331279672 -0.0 -0.24825903358079954 0.0 1.0 1.0 0.0 0.0 0.0 1.0 0.0 1.0 0.0 0.0 0.0 0.0 0.0 0.0 1.0 0.0 0.0 0.15195513381522732 1.0 0.0 0.14773960310377035 0.0 0.0 0.0 1:1.0 2:0.4088723 3:0.40371627 4:0.54324377 5:0.14196369 6:0.2595199 7:0.0 8:1.0 9:0.014265708 10:0.1128772 11:0.19536059 12:0.0 13:0.016569747 14:0.01321489 15:1.0 16:0.17184861 17:0.020917365 18:0.001759601 19:2.52808E-4 20:0.0 21:2.50699E-4 
-1.0 -1.0 -0.0 -0.0 -0.0 -0.0 -0.0 -0.0 -1.0 -0.0 -0.0 -0.0 -1.0 -1.0 -0.0 -0.0 -0.0 -0.0 -1.0 -0.0 -0.0 -0.0 1.0 0.0 0.0 1.0 0.0 0.0 0.0 0.0 1.0 1.0 1.0 0.0 0.0 0.0 0.0 0.0 0.642741891915226 0.0 0.0 0.0 0.0 0.0 0.0 0.0 0.0 1:1.0 2:0.2495349 3:0.17257322 4:0.28967246 5:0.028373951 6:0.093808815 7:0.0 8:1.0 9:0.009344892 10:0.038116574 11:0.13028286 12:0.0 13:0.009448541 14:0.002538524 15:1.0 16:0.08012712 17:0.021961426 18:0.007582458 19:2.48184E-5 20:7.83364E-4 21:0.0 
-1.0 -0.0 -0.0 -0.0 -0.0 -1.0 -0.0 -0.0 -0.0 -0.0 -0.0 -0.0 -1.0 -0.17495420277770934 -0.0 -0.0 -0.0 -0.0 -0.0 -0.0 -0.0 -0.0 1.0 0.0 0.47672823817957327 0.0 0.0 0.0 1.0 1.0 1.0 0.32637143182385164 0.0 0.0 0.0 0.0 0.0 0.0 0.610695230890192 0.0 0.0 0.0 0.0 0.0 0.0 0.0 0.0 1:1.0 2:0.3082679 3:0.2524597 4:0.41536537 5:0.06707674 6:0.16390634 7:0.0 8:1.0 9:0.015173699 10:0.0520807 11:0.1831514 12:0.0 13:0.01847336 14:0.006534757 15:1.0 16:0.09947991 17:0.022299372 18:0.001744986 19:8.2832E-5 20:0.0 21:7.88459E-5 
-1.0 -0.0 -0.0 -0.0 -0.0 -0.0 -0.0 -0.0 -0.0 -0.0 -0.0 -0.0 -1.0 -1.0 -0.0 -0.0 -0.0 -0.0 -0.0 -0.0 -0.0 -0.0 1.0 0.0 0.0 0.0 0.0 0.0 0.0 0.0 1.0 0.0 0.0 0.0 0.0 0.0 0.0 0.0 0.0 0.0 0.0 0.0 0.0 0.0 0.0 0.0 0.0 1:1.0 2:0.27096695 3:0.19894685 4:0.31480867 5:0.03521729 6:0.10812036 7:0.0 8:1.0 9:0.008320478 10:0.047045145 11:0.1343119 12:0.0 13:0.009517678 14:0.003242391 15:1.0 16:0.09308743 17:0.023775471 18:0.00581506 19:1.96181E-5 20:5.81005E-4 21:0.0 
-1.0 -0.0 -0.0 -0.23928087970676598 -0.0 -1.0 -0.0 -0.0 -1.0 -1.0 -0.0 -0.0 -1.0 -1.0 -0.05582090981091264 -0.31054235755169185 -0.00435265678266883 -0.0 -0.26370506365358626 -0.0 -0.046919931371044464 -0.0 1.0 0.0 0.0 0.0 0.06998826200644899 0.0760790440459009 0.0 0.64479726776953 1.0 1.0 1.0 0.12634486267030404 0.0 1.0 0.0 0.0 0.746562877194582 0.11094295323439346 0.0 0.0 0.0 0.0 0.07865010352550005 0.052486743392382615 0.0 1:1.0 2:0.2503763 3:0.18582794 4:0.31359568 5:0.033966728 6:0.10379686 7:0.0 8:1.0 9:0.012727688 10:0.04633424 11:0.14768143 12:1.27577E-4 13:0.012911797 14:0.003281292 15:1.0 16:0.07572218 17:0.038584355 18:0.007397977 19:3.99732E-5 20:5.40968E-4 21:0.0 
-1.0 -0.0 -0.0 -0.0 -0.0 -1.0 -0.0 -0.0 -1.0 -0.10793275378920592 -0.0 -0.0 -1.0 -1.0 -0.0 -0.0 -0.0 -0.0 -1.0 -0.0 -0.0 -0.0 1.0 0.0 0.0 1.0 0.0 0.0 0.0 0.013015909673598197 1.0 1.0 1.0 0.0 0.0 0.4153676812291993 0.0 0.0 1.0 0.0 0.0 0.0 0.0 0.0 0.0 0.0 0.0 1:1.0 2:0.24883002 3:0.17994511 4:0.30424565 5:0.03140749 6:0.09971171 7:0.0 8:1.0 9:0.011677002 10:0.042776514 11:0.14152753 12:0.0 13:0.011713362 14:0.002894053 15:1.0 16:0.07612586 17:0.032970376 18:0.006632145 19:2.94968E-5 20:5.25752E-4 21:0.0 
-1.0 -0.0 -0.0 -0.0 -0.0 -1.0 -0.0 -0.3329485850596612 -0.0 -0.0 -0.0 -0.0 -0.0 -0.0 -0.0 -0.0 -0.0 -1.0 -0.0 -0.0 -0.0 -0.0 0.0 0.26135563517031035 1.0 0.0 0.0 0.0 1.0 0.33526353727795916 1.0 0.0 0.0 0.0 0.0 0.0 0.0 0.0 0.0 0.0 0.0 0.0 0.0 0.0 0.0 0.0 0.0 1:1.0 2:0.32488945 3:0.27278534 4:0.42851546 5:0.07383493 6:0.17424527 7:0.0 8:1.0 9:0.012828193 10:0.059651896 11:0.17922364 12:0.0 13:0.01648826 14:0.006914227 15:1.0 16:0.11302917 17:0.018277977 18:0.001989466 19:4.19635E-6 20:7.37091E-5 21:0.0 
-1.0 -0.0 -0.0 -0.0 -0.0 -0.0 -0.0 -1.0 -0.0 -0.0 -0.2661586135323539 -0.6982660791880945 -0.0 -0.0 -0.0 -0.0 -0.0 -1.0 -0.0 -0.0 -0.0 -0.0 0.0 1.0 1.0 0.0 0.0 0.0 1.0 0.0 1.0 0.0 0.0 0.0 0.0 0.0 0.0 0.0 0.0 0.0 0.0 0.26654372970954376 0.0 0.0 0.0 0.0 0.0 1:1.0 2:0.34965488 3:0.2954457 4:0.43467498 5:0.07896035 6:0.18338497 7:0.0 8:1.0 9:0.010051233 10:0.06439588 11:0.16656446 12:0.0 13:0.013233971 14:0.007499942 15:1.0 16:0.13319503 17:0.003275373 18:1.67503E-4 19:7.11605E-9 20:1.60352E-5 21:0.0 
-1.0 -0.0 -0.0 -0.0 -0.0 -0.0 -0.3935553325733542 -0.0 -0.0 -0.0 -0.0 -0.0 -1.0 -1.0 -0.0 -0.0 -0.0 -0.0 -0.0 -0.0 -0.0 -0.0 1.0 0.0 0.0 0.0 0.0 0.0 0.32678900284061513 0.0 1.0 0.0 0.0 0.0 0.0 0.0 0.0 0.053356503603731044 0.0 0.0 0.0 0.0 0.0 0.0 0.0 0.0 0.0 1:1.0 2:0.32262456 3:0.25531083 4:0.36785856 5:0.052845612 6:0.14240839 7:0.0 8:1.0 9:0.006461303 10:0.061550565 11:0.1379203 12:0.0 13:0.008345785 14:0.004743271 15:1.0 16:0.12739445 17:0.009372197 18:0.002852862 19:3.96196E-6 20:3.37592E-4 21:0.0 
